1012 100
aak 0.40025 -0.43207 0.13099 -0.06621 -0.07208 -0.10168 0.43559 -0.29594 -0.47505 0.02576 0.21811 0.71103 -1.16333 -0.37577 0.5393 -0.0786 -0.17644 0.23997 -0.12002 -0.47951 -0.32927 0.15346 0.38969 0.67539 -0.09242 -0.67652 0.0814 -0.08044 0.23749 0.32067 0.0534 0.20533 0.05439 0.09346 -0.23538 0.05109 1.05612 -0.38031 -0.51547 0.16028 0.14551 -0.63381 0.50288 -0.15341 -0.55261 -0.21039 -0.63051 0.76933 -0.22603 0.88979 0.2232 0.57374 -0.30131 0.28908 0.07075 -0.01914 0.04574 0.23427 -0.5862 0.24287 0.01975 0.32348 -0.22022 -0.61411 0.38676 0.12591 -0.02509 1.01922 -0.14045 0.44608 -0.23214 -0.58345 -0.10016 -0.50424 0.89179 0.09304 -0.27374 0.03895 -0.644 0.18738 -0.21356 0.40019 -0.37059 -0.80467 0.56028 -0.93184 -0.67486 -0.39816 0.05469 -0.39052 0.85888 -1.05009 -0.06527 -0.3679 -0.37268 -0.12723 0.82481 0.32557 -0.21846 -0.65282
aau 0.27592 -0.5406 0.166 -0.13999 -0.12516 -0.08656 0.5615 -0.33664 -0.50012 0.0543 0.18433 0.82905 -1.13597 -0.34267 0.492 -0.12509 -0.16204 0.15295 -0.32847 -0.59724 -0.3088 0.12233 0.41599 0.7264 -0.02701 -0.71184 0.11363 -0.01992 0.28798 0.26607 -0.03918 0.28468 0.02374 0.17216 -0.20901 -0.02627 1.08033 -0.3832 -0.51007 0.05969 0.12701 -0.59701 0.60927 -0.32096 -0.6174 -0.17767 -0.75744 0.77016 -0.27536 0.9965 0.24306 0.68366 -0.38864 0.31984 -0.10722 -0.01786 0.24484 0.28239 -0.50039 0.34499 0.01609 0.16433 -0.16928 -0.53335 0.31367 -0.03196 -9e-05 0.88815 -0.03877 0.47127 -0.30651 -0.57472 -0.05309 -0.54212 1.19 0.1196 -0.31233 0.14462 -0.90278 0.20835 -0.16815 0.47657 -0.39494 -0.92584 0.55015 -0.99548 -0.73424 -0.44791 -0.00971 -0.18864 0.77171 -1.21121 -0.00566 -0.29294 -0.53896 -0.05862 0.89586 0.46685 -0.21858 -0.74669
abt 0.26479 -0.61157 -0.02424 0.01487 -0.01268 -0.09803 0.34307 -0.25402 -0.47535 0.04766 0.13535 0.71319 -1.02949 -0.37996 0.57385 -0.17418 -0.26791 0.18762 -0.10138 -0.40096 -0.15279 0.02654 0.32675 0.72788 -0.14003 -0.70509 0.11579 -0.07945 0.2784 0.35244 0.11177 0.27125 0.08212 0.11775 -0.25953 -0.00433 1.23567 -0.40964 -0.41705 0.20027 0.03796 -0.52478 0.46171 -0.20579 -0.5998 -0.13411 -0.70054 0.80479 -0.2752 0.87564 0.29145 0.5495 -0.18496 0.14928 0.15243 -0.05565 0.05066 0.32787 -0.51058 0.32232 0.05771 0.17061 -0.35049 -0.56418 0.29719 0.20405 0.05017 0.93357 -0.21154 0.35055 -0.24531 -0.42786 -0.21939 -0.57207 0.9674 0.09519 -0.19129 -0.09539 -0.64321 0.13423 -0.30019 0.35309 -0.4796 -0.85884 0.59167 -1.07014 -0.62788 -0.48351 -0.1064 -0.38929 0.78116 -1.0979 -0.06761 -0.291 -0.29327 -0.19509 0.68026 0.49977 -0.35657 -0.71015
abx -0.31448 1.17533 0.759 -0.06232 0.67144 0.55539 -0.38932 -0.3919 0.41117 0.94106 1.30472 1.22436 1.09285 1.22156 0.49611 0.76861 1.24671 -1.12478 -0.38567 -1.18894 0.83542 0.06197 -0.84687 -2.01565 -1.41034 1.02317 0.62972 -0.19406 -0.70574 -1.1264 0.19148 -0.23292 0.27283 -0.744 1.31844 0.49912 0.2068 0.9741 0.17644 -0.70879 0.86091 -0.63522 -1.21546 0.05334 0.14337 -0.02029 0.79755 -1.46434 1.60106 -0.24166 -0.34954 0.34306 -1.34801 1.02945 0.34422 -0.58424 -1.30567 -0.6277 0.99724 -0.42554 0.13408 -0.43964 -0.05346 0.83382 -1.15332 -0.56298 -0.42558 -0.44899 0.24836 0.08088 0.39681 -0.24139 0.61104 -0.40795 -0.896 -0.40733 0.62912 -0.82747 -0.31196 -1.11384 0.36582 1.79402 0.25829 2.03223 -0.89585 0.57731 0.58029 1.35703 0.84216 -0.86345 0.17736 2.25886 -0.55046 0.84895 0.04141 0.70797 -1.00508 -0.14261 -1.1593 -0.95949
aby 0.30952 -0.4354 0.11995 -0.13282 -0.03015 -0.13855 0.47169 -0.32881 -0.50814 0.05728 0.14337 0.63557 -1.10165 -0.36609 0.58286 -0.14586 -0.19208 0.19463 -0.09315 -0.44104 -0.28382 0.09352 0.30866 0.68355 -0.0506 -0.75854 0.09876 -0.01124 0.29573 0.33837 0.03809 0.15295 0.07559 0.15296 -0.34396 0.1089 0.98699 -0.35858 -0.59182 0.19819 0.07256 -0.60472 0.45596 -0.1746 -0.57576 -0.0689 -0.68121 0.78544 -0.24659 0.87301 0.20735 0.48627 -0.22452 0.2358 0.09247 0.01862 0.08807 0.19587 -0.50195 0.27983 0.0732 0.29321 -0.24147 -0.59102 0.25371 0.09165 0.05771 0.93757 -0.12148 0.43053 -0.21807 -0.46766 -0.22441 -0.55074 0.84726 0.02408 -0.29283 -0.05092 -0.63474 0.18836 -0.26623 0.22375 -0.45131 -0.88968 0.51024 -1.01628 -0.66036 -0.41332 0.0536 -0.39412 0.74753 -1.01412 -0.02028 -0.35995 -0.4038 -0.11056 0.8095 0.31946 -0.34668 -0.53788
acd -0.14168 -0.16345 0.01458 -0.15516 0.04431 -0.23838 0.41401 -0.25926 -0.71632 0.02129 0.12091 0.36326 -1.01767 -0.50148 0.60455 -0.38953 -0.28357 0.19505 0.17594 -0.30745 -0.39555 0.22228 0.16147 0.70294 0.14456 -0.59048 0.01838 0.14087 0.35718 0.23865 0.08956 0.06532 -0.04491 0.31131 -0.59721 0.27845 0.63744 -0.33155 -0.87847 0.27561 -0.04429 -0.3588 0.76969 -0.17134 -0.59969 0.12405 -0.45403 0.64684 -0.5224 0.41769 -0.07887 0.09669 0.33576 0.59029 0.05744 0.14234 0.08696 -0.10978 -0.45924 0.15913 0.18407 0.3731 -0.14437 -0.78244 0.01231 -0.1226 0.29919 0.65458 0.42423 0.48249 -0.26375 -0.0663 -0.01016 -0.60966 1.0274 -0.23665 -0.50506 -0.1568 -0.45912 0.46938 -0.59838 -0.31822 -0.82088 -1.03376 0.02739 -0.84153 -0.50783 -0.27654 -0.09036 -0.12743 0.349 -0.69829 -0.12678 -0.42162 -0.55449 -0.13993 0.77242 0.04204 -0.29957 -0.45182
ace -0.20779 1.02372 0.64058 -1e-04 0.58541 0.43675 -0.3161 -0.40509 0.30193 0.92458 1.11984 0.96439 1.08835 1.27642 0.56405 0.53985 1.25048 -1.06885 -0.32512 -1.06361 0.80437 0.12334 -0.74085 -1.90363 -1.38725 0.95376 0.65331 -0.11455 -0.61972 -1.07057 0.23618 -0.20192 0.36416 -0.74302 1.41114 0.54901 0.22964 0.77116 0.13082 -0.7185 0.84405 -0.56389 -1.12477 0.06748 -0.00706 0.02298 0.676 -1.45706 1.54811 -0.29147 -0.41166 0.25952 -1.34054 0.63537 0.34596 -0.53781 -1.28677 -0.50084 0.98875 -0.40025 0.13078 -0.48444 -0.00404 0.78778 -1.12391 -0.49853 -0.28665 -0.45371 -0.02544 0.09983 0.23843 -0.29682 0.61792 -0.259 -0.94127 -0.26319 0.73535 -0.89856 -0.24511 -1.15595 0.34698 1.82166 0.2492 1.63419 -0.80146 0.58897 0.4534 1.25693 0.81502 -1.01862 0.19889 2.16515 -0.39317 0.84734 -0.01487 0.58485 -0.885 -0.24498 -0.98189 -0.94188
acf 0.41466 -0.26947 0.02785 0.19842 0.08193 0.02545 0.26974 -0.0313 -0.38744 -0.06902 0.41555 1.27543 -1.30133 0.1017 0.54787 0.4167 -0.20077 -0.05499 -0.41825 -0.83672 -0.07712 -0.01687 0.69785 0.67531 -0.29853 -0.48475 -0.04324 -0.40134 0.01252 0.18868 0.16672 0.3864 -0.43568 -0.31885 -0.02528 0.0304 1.30627 -0.08621 -0.15038 0.26212 0.10992 -0.70459 0.88701 -0.21341 -0.39812 -0.34067 -0.39003 0.78816 -0.23482 1.04201 0.1342 1.03841 -0.68977 0.60209 0.55951 -0.25957 -0.3461 0.10837 -0.49711 0.38656 0.09718 0.36099 -0.18863 -0.84655 0.84213 -0.1404 -0.30836 1.50636 -0.1601 0.54091 -0.5702 -0.6488 0.0518 -0.46473 1.28851 0.31609 -0.23491 0.38351 -0.30761 0.39781 0.30854 0.5968 -0.42673 -0.5421 1.02794 -0.68662 -1.05292 -0.51067 0.0244 -0.41656 1.39227 -1.19275 -0.45938 -0.71443 0.04602 -0.00533 0.57195 1.03282 0.18289 -1.01198
ach -0.02046 -1.30736 0.56071 -0.31963 0.02999 -0.57258 0.8598 -1.36602 -1.70098 0.67802 -1.27868 -0.26784 -1.9197 0.3743 0.81419 0.97109 -0.53834 -0.88341 -0.74812 -0.38904 0.28452 -1.37149 0.28544 0.17733 -0.23164 -2.35046 0.24066 0.66475 0.55288 -0.90472 -0.86328 0.43465 0.05646 0.24412 -0.50811 -0.10253 -0.49124 0.43036 -0.93588 -0.43945 0.66848 0.39358 -0.18176 0.2786 -0.36356 0.91095 -1.66309 0.23922 -0.76981 0.81276 -0.51047 0.20933 -0.62352 0.82118 -1.01957 -0.54252 1.15553 0.39453 0.13841 0.89834 0.79591 0.46978 1.69145 -1.05284 -0.78876 -1.84159 -0.03303 0.09269 -1.69048 0.24944 -0.14442 -0.91746 -0.65776 -1.11945 0.13164 -0.30704 -0.24168 0.21787 -0.77741 -0.47474 0.10211 0.44991 0.07416 -0.58945 0.98491 -0.9119 -0.95215 -0.1231 0.08898 0.17347 0.36897 -2.197 0.75274 -0.07969 0.04021 1.18295 1.08494 0.45179 -0.88041 -0.12437
acn 0.74827 0.21134 -0.1756 0.40282 -0.59445 0.04195 0.62284 0.12554 0.00523 0.38823 -0.04983 0.42664 -0.50817 -0.30602 0.36474 0.68689 0.01382 -0.59937 -0.60695 -0.92223 0.1678 0.48411 -0.93467 0.96278 -0.05384 -0.81756 -0.30864 -0.42087 0.35204 0.18228 -0.24487 0.32074 -0.2904 0.2207 -0.16522 -1.00784 1.61188 0.5113 0.77598 0.76162 0.15484 0.06909 0.81198 -0.65889 -1.44899 0.04105 -0.99364 1.25098 -0.83115 1.22697 0.08842 -0.19143 -1.14073 -0.59278 -0.24928 0.15718 0.05804 0.26266 -0.68232 0.57354 0.12042 -0.09783 -0.38329 -0.08516 0.44952 0.26003 -0.03617 0.68988 0.29105 0.45842 -0.22737 0.20872 -0.30712 -0.55815 0.42969 0.17771 -0.345 1.24196 -0.93988 0.90372 0.20739 -0.47843 -0.03162 -1.10698 1.10117 -1.59506 -0.42128 -0.94847 0.1221 -0.41415 0.94671 -0.96795 -0.32276 0.65348 -0.31004 -0.90606 0.0874 0.62759 -0.62123 -0.01661
acr 0.24793 -1.4887 -0.92612 -0.70739 0.39066 0.87002 2.13145 0.35716 -0.36051 -1.56966 0.67196 0.22163 -1.34845 -0.01117 0.68855 -0.26862 -0.42801 1.18623 0.28923 0.35081 2.26193 0.69371 0.41571 -0.10296 -0.07908 -1.2593 -0.15783 -2.17936 1.03557 0.59288 0.38692 2.08594 -0.33891 1.27251 -0.19566 -0.20325 -1.13367 0.9256 -2.04494 0.60437 -0.1291 -1.14303 -1.92456 0.90335 -0.27625 -1.67748 2.3194 0.0438 -2.39119 -1.33948 0.26372 -2.33021 0.15828 1.16499 0.72093 -0.79794 -0.99599 0.88725 -1.18395 -0.19671 1.10712 -2.24997 1.05516 0.45468 -1.18273 0.84899 -0.55402 0.54687 1.79705 -0.49967 0.18018 -0.53441 -0.67113 -0.00974 -0.12576 -0.75961 -0.7944 -0.37149 0.61789 -1.25659 -0.59095 -2.91909 -2.3181 0.36544 -0.31757 -1.74791 0.18157 1.45941 -0.26571 0.90992 -2.05588 1.206 -1.7005 -0.74812 2.63961 0.10187 0.20068 0.36319 0.84351 -0.15726
acu 0.26944 -0.62403 -0.18564 0.30357 -0.03803 -0.01564 0.12175 -0.27824 -0.43278 0.12002 0.21786 0.83124 -1.00888 -0.45513 0.40207 0.14117 -0.19165 0.06231 -0.23416 -0.37612 -0.22444 0.15583 0.42323 0.68187 -0.16836 -0.44894 0.07658 0.05406 0.12998 -0.01473 -0.03341 0.36571 0.18481 -0.14981 -0.04477 -0.26211 1.21471 -0.32359 -0.29783 0.0584 0.22951 -0.38907 0.68854 -0.14387 -0.54055 -0.33382 -0.49158 0.59882 -0.45755 0.71461 0.0859 0.56436 -0.30962 0.55022 -0.20732 -0.24194 0.06096 0.36591 -0.41866 0.19933 0.0456 0.12878 -0.40167 -0.60419 0.45031 0.24427 -0.0014 0.67244 -0.14196 0.33313 -0.16892 -0.35556 0.12017 -0.69762 0.98446 0.10216 -0.23934 0.01986 -0.76468 0.23477 -0.19649 0.48061 -0.53127 -0.67411 0.64014 -0.849 -0.56683 -0.1323 -0.39197 -0.10022 0.36318 -1.16839 -0.07217 -0.36238 -0.32391 -0.25651 0.70473 0.59594 -0.12293 -1.04758
adh -0.01725 -1.29769 0.55515 -0.3164 0.03127 -0.56773 0.85397 -1.35496 -1.68675 0.6701 -1.26028 -0.25686 -1.91106 0.36547 0.81209 0.95868 -0.5356 -0.87223 -0.74071 -0.38843 0.27684 -1.35307 0.28713 0.18343 -0.2311 -2.33199 0.23833 0.65774 0.54937 -0.88986 -0.85024 0.43324 0.05627 0.24179 -0.50556 -0.099 -0.47282 0.41725 -0.93272 -0.4331 0.66151 0.38084 -0.17231 0.27362 -0.36397 0.90031 -1.65207 0.24509 -0.76442 0.81295 -0.50339 0.21409 -0.61819 0.81502 -1.00831 -0.5384 1.1444 0.39202 0.13098 0.89148 0.78838 0.46784 1.67294 -1.04902 -0.77608 -1.82311 -0.03217 0.10539 -1.67203 0.25179 -0.14591 -0.91183 -0.65167 -1.114 0.14284 -0.30338 -0.242 0.21286 -0.77553 -0.46682 0.0986 0.45031 0.06755 -0.59273 0.98028 -0.91284 -0.94952 -0.12538 0.08673 0.16709 0.36856 -2.18611 0.74445 -0.08371 0.03622 1.16614 1.08167 0.45199 -0.87328 -0.1319
adi 0.79442 0.31929 -0.19975 0.4344 -0.64059 0.02435 0.64704 0.13038 0.02012 0.41247 -0.0782 0.43778 -0.57126 -0.28634 0.27156 0.81981 0.03287 -0.69635 -0.65101 -0.94281 0.20081 0.53702 -1.01589 0.98266 -0.04818 -0.79726 -0.34172 -0.53569 0.34853 0.1775 -0.24654 0.32823 -0.3153 0.36201 -0.21065 -1.13118 1.64938 0.60813 0.81699 0.75488 0.14795 0.15599 0.83726 -0.69501 -1.41627 0.0764 -1.04473 1.30655 -0.83323 1.21459 0.00456 -0.26214 -1.25974 -0.64105 -0.33904 0.15802 -0.02787 0.278 -0.7949 0.6067 0.13696 -0.17066 -0.4103 -0.04087 0.49778 0.23541 -0.07007 0.6645 0.32982 0.58209 -0.21505 0.31973 -0.3284 -0.56257 0.35167 0.19178 -0.34695 1.34872 -0.95695 0.94756 0.23108 -0.50781 -0.0025 -1.10943 1.16969 -1.65321 -0.42441 -1.01437 0.1216 -0.43403 0.91095 -0.99267 -0.28612 0.7605 -0.31578 -0.97924 0.03114 0.63483 -0.578 0.0406
adl 0.7842 0.28993 -0.19149 0.43095 -0.6316 0.03119 0.64272 0.12932 0.02311 0.41088 -0.07102 0.43393 -0.54525 -0.29047 0.30117 0.78485 0.02841 -0.67157 -0.64353 -0.94104 0.1869 0.51929 -0.98852 0.97611 -0.05335 -0.80182 -0.33596 -0.50407 0.34826 0.17778 -0.24917 0.32682 -0.31169 0.33352 -0.19373 -1.09798 1.64257 0.5839 0.81042 0.76054 0.152 0.12708 0.83219 -0.68767 -1.44009 0.06732 -1.03183 1.29103 -0.83369 1.22123 0.03092 -0.24638 -1.22737 -0.61775 -0.3111 0.1574 -0.00125 0.27346 -0.76326 0.59691 0.13251 -0.13984 -0.40485 -0.04901 0.48244 0.24318 -0.05749 0.6689 0.31959 0.54783 -0.22153 0.28617 -0.32475 -0.55918 0.38119 0.18799 -0.34511 1.32235 -0.95164 0.94255 0.2329 -0.50453 -0.00476 -1.10642 1.15574 -1.63863 -0.42029 -0.99525 0.12363 -0.43052 0.91906 -0.98677 -0.3011 0.73173 -0.31221 -0.96017 0.04398 0.63583 -0.59973 0.02587
aeb 0.19858 -0.92421 -0.12385 -0.12012 0.17609 -0.00835 0.20946 -0.05224 -0.22926 -0.0537 0.42351 1.03333 -1.35129 -0.5098 0.46718 0.31216 -0.31562 0.29826 -0.09645 -0.29557 -0.50312 0.11566 0.72591 0.84438 -0.06353 -0.56682 0.07354 -0.01468 0.18574 0.19505 0.02869 0.31944 0.11601 -0.2163 -0.12601 0.19263 1.21613 -0.68653 -0.77327 -0.09442 0.05595 -0.63561 0.95709 -0.02679 -0.42173 -0.4289 -0.53101 0.82988 -0.15755 0.70577 0.16812 1.04437 -0.04447 0.68199 -0.05604 -0.49043 0.14481 0.167 -0.42711 0.09664 0.20234 0.43977 -0.44049 -0.73694 0.65054 -0.06133 -0.18578 0.97526 -0.20437 0.59984 -0.262 -0.69657 0.14608 -0.57833 1.38105 -0.05502 -0.20502 0.21895 -0.80058 0.09831 0.03122 0.68335 -0.39965 -0.70603 0.6669 -0.86138 -0.89401 -0.23765 -0.33122 -0.02067 -0.97516 -1.44772 0.05258 -0.67144 -0.25495 0.18814 0.77199 0.75174 0.1864 -1.03154
aey 0.33568 -0.19503 0.08648 0.02066 -0.01429 -0.04888 0.41351 -0.25846 -0.4801 0.04971 0.09421 0.71975 -0.99009 -0.2779 0.5392 -0.1397 -0.19168 0.15792 -0.12963 -0.55745 -0.31489 0.09918 0.14129 0.70557 -0.12147 -0.67919 0.0013 -0.05041 0.30639 0.33172 0.0507 0.26149 0.00251 0.13801 -0.32512 -0.0612 1.12616 -0.29536 -0.36954 0.29919 0.01913 -0.49612 0.45032 -0.18387 -0.70157 -0.06246 -0.69539 0.80952 -0.36597 0.91301 0.10253 0.52647 -0.27905 0.06927 0.10216 -0.05382 0.06225 0.1904 -0.54384 0.36753 0.0611 0.21261 -0.33633 -0.58635 0.32787 -0.05898 0.04819 0.97274 -0.12267 0.44597 -0.34255 -0.41213 -0.24311 -0.5493 0.7854 0.08253 -0.27255 0.1253 -0.62646 0.32958 -0.30695 0.27768 -0.54362 -0.89143 0.64013 -1.08526 -0.66204 -0.44898 0.00346 -0.43804 1.01528 -0.94534 -0.05178 -0.29766 -0.26768 -0.20201 0.69617 0.41762 -0.39353 -0.60779
afr 2.28827 0.04333 -1.48885 0.5143 1.45071 0.47692 -2.05309 -1.86147 -2.20309 1.05158 0.25137 -0.58516 -0.09292 -0.26825 1.26139 1.06896 -0.40222 3.15699 1.90376 1.28686 -1.71619 1.80781 1.12012 0.88682 0.32981 -0.86838 -1.14487 1.75277 1.47339 0.13899 0.45804 -0.92863 -0.59083 1.33419 0.25275 1.715 -1.3315 1.15121 0.11072 -0.95237 0.32111 2.08419 -0.04554 -0.94278 0.17428 -0.28219 -0.59983 -1.57693 -3.15085 1.91133 -1.56983 1.39768 0.43656 2.10283 2.02444 -1.85283 -1.02598 0.06008 0.32447 1.4948 -1.40686 0.39188 -0.10415 4.38162 0.0639 -2.51756 -0.02729 2.89191 -0.62532 0.70276 -0.52772 3.24174 0.52706 -1.30944 -0.15363 3.20346 -1.23722 0.08747 -0.08557 0.30593 0.67561 -0.93206 -1.56427 2.97164 -1.00946 0.88046 0.38971 -0.89337 0.06353 -0.65103 0.41303 -1.63322 1.42908 2.73689 -0.06969 -1.04244 1.99786 1.99012 -0.86594 2.21104
agd 0.25778 -0.62053 0.23392 -0.31484 -0.17078 -0.14158 0.60747 -0.31682 -0.62925 0.06121 0.18492 0.68014 -1.18777 -0.3919 0.54412 -0.25091 -0.19532 0.26889 -0.21394 -0.55505 -0.33436 0.11601 0.35214 0.68602 0.07789 -0.83 0.19902 -0.00185 0.33018 0.38563 -0.01207 0.12099 0.07476 0.30262 -0.28278 0.16531 0.90554 -0.51336 -0.73466 0.02884 0.0804 -0.59411 0.53582 -0.28834 -0.53056 -0.14031 -0.81947 0.79988 -0.30667 0.95617 0.33173 0.59176 -0.25318 0.26294 -0.11122 0.1269 0.30023 0.24966 -0.46035 0.31605 0.07951 0.20723 -0.12825 -0.52068 0.15031 -0.04234 0.00746 0.87268 0.03542 0.5004 -0.29297 -0.60582 -0.08122 -0.61468 1.1646 0.03415 -0.34286 0.13036 -0.9588 0.09528 -0.30959 0.30633 -0.37083 -0.96584 0.35618 -0.97242 -0.76522 -0.54979 0.13875 -0.21774 0.6517 -1.2326 0.05337 -0.31513 -0.58817 -0.00047 0.93029 0.2486 -0.37301 -0.61504
agm 0.36453 -0.48513 0.09102 -0.06234 -0.03532 -0.12646 0.41607 -0.30846 -0.47199 0.04476 0.18732 0.69172 -1.12718 -0.3875 0.55466 -0.1115 -0.18861 0.25539 -0.09494 -0.43734 -0.28003 0.12722 0.3801 0.69773 -0.08726 -0.67218 0.10217 -0.04971 0.2642 0.33309 0.07705 0.20889 0.07351 0.11629 -0.26478 0.04638 1.09568 -0.41192 -0.50451 0.16653 0.13165 -0.61774 0.46665 -0.16137 -0.55959 -0.19343 -0.64721 0.76894 -0.20565 0.87549 0.24651 0.54283 -0.21127 0.273 0.07287 -0.00164 0.06585 0.26385 -0.58637 0.24335 -0.00245 0.30778 -0.25122 -0.60157 0.32733 0.15379 0.01143 0.99846 -0.15852 0.40977 -0.19891 -0.58761 -0.139 -0.51084 0.92541 0.0809 -0.25547 -0.05014 -0.65599 0.15969 -0.28455 0.35048 -0.40228 -0.83087 0.5387 -0.96567 -0.62496 -0.40004 0.01463 -0.38324 0.95987 -1.03519 -0.0512 -0.33258 -0.37917 -0.16367 0.81047 0.31384 -0.2454 -0.65889
agr 0.26972 -0.62492 -0.18644 0.30326 -0.03763 -0.016 0.1211 -0.27799 -0.43249 0.12056 0.21788 0.83084 -1.0085 -0.45556 0.40189 0.1411 -0.19132 0.06361 -0.23316 -0.37533 -0.22455 0.15602 0.42328 0.6823 -0.1675 -0.44843 0.07749 0.0547 0.13038 -0.01443 -0.03291 0.36507 0.18536 -0.14917 -0.04486 -0.26219 1.21538 -0.32536 -0.29793 0.05795 0.2295 -0.38891 0.68778 -0.14334 -0.5406 -0.33463 -0.49204 0.59877 -0.45709 0.71369 0.08674 0.56388 -0.30772 0.55054 -0.20838 -0.24129 0.06194 0.36669 -0.41913 0.19861 0.04484 0.12879 -0.40274 -0.60366 0.44937 0.24502 -0.00151 0.67235 -0.14166 0.3328 -0.16796 -0.35698 0.12034 -0.69743 0.98487 0.10199 -0.23883 0.01861 -0.76579 0.23379 -0.19843 0.48006 -0.53121 -0.67394 0.63895 -0.84894 -0.56552 -0.13226 -0.39214 -0.10009 0.3654 -1.16778 -0.07158 -0.3617 -0.32428 -0.25754 0.7045 0.59432 -0.12315 -1.04849
agt -0.31891 1.23149 0.76312 -0.07445 0.66962 0.61866 -0.36222 -0.38989 0.41915 0.93077 1.31228 1.32928 1.05107 1.25752 0.47969 0.78486 1.29811 -1.10015 -0.39521 -1.2126 0.82122 0.05604 -0.86923 -2.06423 -1.38792 0.97788 0.62533 -0.19698 -0.72947 -1.10601 0.16812 -0.23624 0.27629 -0.75727 1.29994 0.44853 0.16228 0.94044 0.16176 -0.68608 0.88806 -0.66103 -1.20021 0.05284 0.1627 0.00118 0.8272 -1.45944 1.57702 -0.26466 -0.33649 0.41596 -1.37488 0.94438 0.36852 -0.58247 -1.30002 -0.66751 1.01484 -0.4399 0.11669 -0.4282 -0.04526 0.8217 -1.20493 -0.59271 -0.4317 -0.43501 0.2769 0.04359 0.37907 -0.20683 0.62549 -0.4931 -0.87588 -0.42353 0.6094 -0.82347 -0.29413 -1.06025 0.33745 1.77683 0.24383 2.02909 -0.88112 0.60925 0.63479 1.35084 0.86984 -0.83303 0.2104 2.21525 -0.57725 0.88188 0.03904 0.69464 -1.04176 -0.14852 -1.1894 -0.94585
agu 0.27007 -1.47575 -0.90174 -0.6919 0.41878 0.88001 2.10093 0.33225 -0.36698 -1.54783 0.69911 0.25582 -1.33798 -0.00679 0.66423 -0.29602 -0.42659 1.1764 0.27134 0.36411 2.24571 0.71279 0.41093 -0.08671 -0.06758 -1.24344 -0.14823 -2.14729 1.0618 0.58173 0.35503 2.05363 -0.32647 1.26606 -0.17581 -0.19726 -1.1198 0.89207 -2.0285 0.58027 -0.11431 -1.12058 -1.90606 0.88966 -0.2912 -1.684 2.29335 0.03622 -2.36903 -1.33442 0.28639 -2.29355 0.14618 1.13189 0.69173 -0.82285 -0.95945 0.86704 -1.16603 -0.19271 1.08349 -2.23259 1.03907 0.44556 -1.16453 0.81235 -0.52381 0.57817 1.78863 -0.47407 0.15743 -0.54034 -0.68465 -0.0258 -0.09747 -0.73963 -0.7944 -0.35193 0.60061 -1.24344 -0.56433 -2.8905 -2.30073 0.33699 -0.33466 -1.76173 0.16855 1.4508 -0.26013 0.88862 -2.06474 1.18418 -1.66398 -0.77244 2.61366 0.07533 0.22076 0.33979 0.87737 -0.14547
agw 0.05335 0.70461 0.38308 0.14123 0.45003 0.17356 -0.12803 -0.41721 0.09261 0.89038 0.7121 0.59567 1.05169 1.44892 0.71979 0.08364 1.3187 -0.93328 -0.21465 -0.80348 0.72591 0.2545 -0.51113 -1.75406 -1.34616 0.78254 0.52152 0.03079 -0.44301 -0.95261 0.3575 -0.18622 0.54342 -0.7346 1.57531 0.56346 0.29171 0.32041 0.06519 -0.70763 0.78085 -0.50939 -0.91821 0.073 -0.31139 0.17456 0.4135 -1.40592 1.423 -0.34917 -0.53347 0.1567 -1.33347 0.06458 0.35191 -0.51696 -1.20003 -0.23336 0.95055 -0.40154 0.12646 -0.56439 0.09802 0.69414 -1.06083 -0.36613 0.01355 -0.41517 -0.43968 0.10074 -0.13735 -0.45018 0.61013 -0.0202 -1.02398 0.03058 0.91703 -1.00753 -0.11781 -1.17421 0.3036 1.80829 0.19647 1.1483 -0.61029 0.5818 0.26675 1.0483 0.81303 -1.30536 0.32242 2.0242 -0.06085 0.86199 -0.16333 0.33019 -0.63831 -0.42712 -0.59824 -0.90187
ahk 0.74634 0.22634 -0.17225 0.4099 -0.62675 0.05836 0.63008 0.1318 0.02786 0.38097 -0.05331 0.40611 -0.51964 -0.31454 0.36925 0.72675 0.03496 -0.62757 -0.62921 -0.93532 0.1807 0.49958 -0.96646 0.96762 -0.05824 -0.84377 -0.30195 -0.4553 0.35871 0.15879 -0.26446 0.34322 -0.30352 0.24484 -0.13897 -1.04055 1.61853 0.53258 0.80332 0.79119 0.15489 0.10296 0.80994 -0.66011 -1.44388 0.02799 -0.99209 1.24888 -0.84373 1.24037 0.08463 -0.20887 -1.17285 -0.61995 -0.26622 0.17712 0.05281 0.25163 -0.68043 0.60816 0.12435 -0.13815 -0.36569 -0.06447 0.45556 0.28064 -0.05316 0.67736 0.29475 0.43728 -0.24538 0.24562 -0.29157 -0.5401 0.39123 0.2066 -0.3374 1.29283 -0.95939 0.9049 0.21301 -0.47938 -0.01486 -1.11794 1.11583 -1.6155 -0.40475 -0.9557 0.13002 -0.40789 0.96244 -0.95277 -0.34679 0.6866 -0.31887 -0.92483 0.0521 0.6471 -0.6316 -0.01033
aia 0.03501 0.70202 0.39615 0.13426 0.45715 0.18308 -0.13317 -0.39904 0.09612 0.89398 0.71253 0.62982 1.04343 1.44136 0.72554 0.09988 1.31254 -0.95324 -0.21646 -0.82189 0.72381 0.24376 -0.52503 -1.75022 -1.3482 0.79391 0.5159 0.01148 -0.43908 -0.94319 0.36021 -0.18696 0.53006 -0.72242 1.53627 0.56558 0.30345 0.3387 0.05127 -0.67437 0.76799 -0.51467 -0.93283 0.05994 -0.29132 0.19024 0.41849 -1.39144 1.43094 -0.31954 -0.53407 0.17966 -1.32575 0.09331 0.34449 -0.51849 -1.19159 -0.22823 0.93512 -0.41046 0.12863 -0.55664 0.09652 0.68411 -1.05508 -0.35592 -0.01226 -0.40546 -0.41464 0.09812 -0.11507 -0.45285 0.59315 -0.0348 -1.01252 0.0098 0.90897 -0.98718 -0.12782 -1.15526 0.31016 1.79125 0.20277 1.19285 -0.63011 0.56347 0.28409 1.06705 0.83125 -1.28363 0.34999 2.01185 -0.07994 0.86456 -0.17433 0.33492 -0.64489 -0.39881 -0.61094 -0.91774
aii 0.20701 -0.88145 -0.104 -0.11476 0.15201 -0.01644 0.22676 -0.0774 -0.25637 -0.04757 0.39918 0.99805 -1.33026 -0.50393 0.47342 0.2709 -0.30669 0.28903 -0.09546 -0.30541 -0.49255 0.11804 0.68931 0.8294 -0.06683 -0.57946 0.07132 -0.01465 0.19281 0.20155 0.02666 0.31472 0.11371 -0.18518 -0.13936 0.17909 1.19774 -0.65869 -0.75495 -0.07427 0.06001 -0.6246 0.92541 -0.04033 -0.43634 -0.40097 -0.54178 0.82175 -0.17364 0.71459 0.16423 0.99696 -0.05823 0.64529 -0.05069 -0.45432 0.14049 0.16946 -0.4358 0.1119 0.19344 0.4236 -0.41995 -0.72789 0.62086 -0.05429 -0.16236 0.96083 -0.19341 0.5856 -0.26215 -0.66804 0.12251 -0.57764 1.34232 -0.04808 -0.21438 0.20286 -0.78563 0.10938 0.0068 0.65629 -0.40416 -0.72092 0.65385 -0.87305 -0.87366 -0.25052 -0.3074 -0.04542 -0.8554 -1.41488 0.04625 -0.64112 -0.26581 0.16568 0.77557 0.7174 0.14546 -0.99673
aji 0.41978 -0.28758 0.15258 -0.06781 -0.14464 -0.05904 0.47904 -0.39508 -0.3375 0.04811 0.17552 0.70812 -1.07155 -0.39262 0.45131 -0.03449 -0.06964 0.2 -0.17159 -0.43696 -0.44336 0.22804 0.32683 0.65279 -0.12103 -0.67214 0.05943 -0.04944 0.25514 0.20376 -0.05832 0.35216 0.08609 0.13587 -0.16399 -0.15196 1.04431 -0.33506 -0.4316 0.09875 0.19747 -0.59649 0.56326 -0.17873 -0.71022 -0.22238 -0.69639 0.71999 -0.12842 0.8766 0.09084 0.54245 -0.44861 0.20155 -0.07856 -0.14606 0.11404 0.23658 -0.64247 0.2524 0.01067 0.22899 -0.21519 -0.51796 0.40641 0.03685 -0.01622 0.85645 -0.19021 0.4505 -0.23462 -0.49901 -0.13899 -0.37577 0.88849 0.12378 -0.24101 0.11759 -0.68438 0.21667 -0.11794 0.51324 -0.25865 -0.78422 0.61486 -0.98545 -0.59479 -0.3338 0.02741 -0.39932 0.47818 -0.95626 0.02389 -0.18928 -0.41113 -0.09973 0.80729 0.32084 -0.1656 -0.63488
ajz 0.72294 0.25905 -0.14991 0.40297 -0.64819 0.04805 0.6547 0.10304 0.03969 0.35729 -0.06459 0.40977 -0.5544 -0.31176 0.34879 0.78883 0.06012 -0.66147 -0.65886 -0.92897 0.16794 0.5056 -0.97934 0.96274 -0.06698 -0.86755 -0.27979 -0.5189 0.35951 0.11806 -0.2629 0.38562 -0.32632 0.31081 -0.13302 -1.06962 1.60121 0.56333 0.8083 0.79819 0.13786 0.15286 0.79203 -0.63845 -1.4237 0.01707 -0.99741 1.23139 -0.83163 1.22291 0.04752 -0.20657 -1.21678 -0.60373 -0.31549 0.20054 0.02289 0.23535 -0.69823 0.64382 0.13484 -0.18686 -0.33795 -0.03867 0.46499 0.28217 -0.09229 0.66261 0.29374 0.43246 -0.27969 0.29725 -0.26546 -0.49806 0.33511 0.24618 -0.30626 1.31084 -0.97449 0.91255 0.18833 -0.457 -0.00416 -1.10511 1.1254 -1.63318 -0.37999 -0.94128 0.12939 -0.40229 0.9699 -0.9611 -0.34359 0.72411 -0.34571 -0.95069 0.01769 0.65923 -0.59586 -0.03077
ake 0.46042 -0.41682 0.18292 -0.03622 -0.04073 -0.01146 0.45229 -0.36021 -0.46445 0.02625 0.168 0.79547 -1.12468 -0.35063 0.54964 -0.02107 -0.22962 0.40908 -0.19712 -0.44362 -0.31928 0.07364 0.36288 0.61926 -0.21935 -0.78113 0.00597 -0.10082 0.21887 0.34357 -0.00527 0.31863 0.11916 -0.05915 -0.20312 -0.05609 1.0252 -0.34972 -0.44488 0.21337 0.12418 -0.69234 0.47969 -0.09072 -0.55865 -0.21219 -0.61175 0.79142 -0.16635 1.07872 0.1787 0.68284 -0.50897 0.12307 0.17112 -0.18372 -0.05076 0.24052 -0.69703 0.29611 -0.03405 0.33818 -0.27036 -0.66407 0.50517 0.15776 -0.02378 1.07882 -1.16486 0.42938 -0.22984 -0.80818 -0.33148 -0.51438 0.87966 0.13445 -0.23785 0.05896 -0.55293 0.15574 -0.09596 0.85111 -0.37234 -0.7614 0.81331 -1.00037 -0.79848 -0.34921 0.08911 -0.46762 1.47922 -1.15457 0.00365 -0.46446 -0.20595 -0.05584 0.79691 0.49211 -0.22133 -0.62668
aln 0.33646 -0.36875 0.07592 0.00042 -0.02996 -0.05903 0.38628 -0.19408 -0.44521 -0.02789 0.23117 0.84384 -1.1773 -0.28937 0.52474 -0.00916 -0.23521 0.18711 -0.16187 -0.53068 -0.33086 0.10663 0.40948 0.69664 -0.14566 -0.62588 0.04316 -0.16458 0.21207 0.28616 0.09671 0.30344 -0.0673 0.03515 -0.19196 0.00875 1.11762 -0.35844 -0.43251 0.17355 0.07396 -0.56035 0.66878 -0.18868 -0.57237 -0.24021 -0.58365 0.80162 -0.24728 0.87001 0.16312 0.69324 -0.30837 0.28291 0.15601 -0.1259 -0.01428 0.17644 -0.56613 0.28476 0.0947 0.29398 -0.22389 -0.64985 0.46988 -0.03068 -0.09065 1.08352 -0.11079 0.49093 -0.37665 -0.52267 -0.0342 -0.4924 1.0446 0.11345 -0.25264 0.19319 -0.58881 0.25939 -0.14216 0.46767 -0.40645 -0.75813 0.65041 -0.91718 -0.7612 -0.46525 -0.02762 -0.37205 0.7826 -1.08564 -0.12277 -0.40322 -0.22695 -0.06495 0.72233 0.50469 -0.13627 -0.76306
alp -0.03083 0.8371 0.46476 0.0725 0.49985 0.31015 -0.16338 -0.41414 0.17435 0.8867 0.81932 0.74619 1.03101 1.39775 0.63234 0.14839 1.31351 -0.9657 -0.26735 -0.90151 0.74467 0.19402 -0.60195 -1.82267 -1.32023 0.80762 0.72328 -0.00536 -0.5423 -0.97371 0.30436 -0.20785 0.49437 -0.72542 1.49549 0.50817 0.21562 0.46539 0.04809 -0.69198 0.84689 -0.48485 -0.96189 0.05696 -0.2186 0.13616 0.54383 -1.40219 1.43635 -0.3519 -0.47988 0.25126 -1.33777 0.25896 0.34787 -0.49478 -1.21288 -0.36213 0.99072 -0.3766 0.1149 -0.51497 0.08027 0.7198 -1.12972 -0.43432 -0.08663 -0.40479 -0.32016 0.02487 -0.04259 -0.3372 0.62367 -0.17247 -0.95957 -0.07549 0.83798 -0.97223 -0.14863 -1.13951 0.27801 1.80209 0.20978 1.24579 -0.66042 0.61136 0.33602 1.10906 0.82954 -1.19831 0.29459 2.03279 -0.19002 0.89482 -0.10574 0.39415 -0.75136 -0.37269 -0.72843 -0.87032
alq 0.33711 -0.49262 0.0948 -0.10012 -0.01218 -0.10593 0.42654 -0.3052 -0.44524 0.02152 0.20549 0.75962 -1.17474 -0.38115 0.51967 -0.07959 -0.18603 0.27111 -0.12754 -0.4536 -0.38398 0.13043 0.43537 0.71898 -0.06895 -0.65557 0.10073 -0.01815 0.27093 0.27909 0.04686 0.26743 0.05177 0.11371 -0.23342 0.03031 1.07946 -0.46365 -0.54908 0.08995 0.124 -0.5994 0.58272 -0.16588 -0.57404 -0.22628 -0.65938 0.75837 -0.19842 0.84848 0.19123 0.64552 -0.20282 0.31362 -0.01388 -0.09109 0.14598 0.24032 -0.58015 0.23362 0.02335 0.30862 -0.23741 -0.6097 0.35561 -0.00589 -0.02896 0.97288 -0.12584 0.46801 -0.25328 -0.61774 -0.06492 -0.49353 1.05347 0.06416 -0.26099 0.05125 -0.71698 0.17377 -0.24335 0.45021 -0.38117 -0.8186 0.54383 -0.94918 -0.66309 -0.37527 -0.03891 -0.30215 0.70071 -1.07301 -0.00358 -0.34807 -0.37877 -0.07126 0.83474 0.35482 -0.15093 -0.73218
alz -0.02418 -1.31819 0.56695 -0.32334 0.02832 -0.57814 0.86648 -1.37826 -1.71718 0.68698 -1.30171 -0.28027 -1.92949 0.38429 0.81656 0.98481 -0.54149 -0.89574 -0.75633 -0.38973 0.29324 -1.39467 0.28348 0.17049 -0.23213 -2.37387 0.24323 0.67272 0.55694 -0.92193 -0.87859 0.4361 0.05661 0.24683 -0.51119 -0.10665 -0.5145 0.44611 -0.9395 -0.44648 0.6763 0.40835 -0.19239 0.2843 -0.36338 0.92272 -1.67543 0.23259 -0.77599 0.81235 -0.51854 0.20366 -0.62933 0.8282 -1.03214 -0.54705 1.16806 0.39726 0.14683 0.90606 0.80438 0.4721 1.71518 -1.05724 -0.80305 -1.86521 -0.03388 0.0774 -1.71382 0.24681 -0.14277 -0.92377 -0.66462 -1.1256 0.11898 -0.31127 -0.24139 0.22398 -0.7795 -0.48358 0.10595 0.44899 0.08148 -0.58587 0.98993 -0.91077 -0.95499 -0.12051 0.09164 0.18081 0.36948 -2.20901 0.76211 -0.07515 0.04465 1.20379 1.08863 0.4514 -0.88852 -0.11569
ame 0.44279 -0.32507 0.22349 -0.11082 -0.21357 -0.0197 0.50605 -0.33953 -0.41287 -0.02738 0.21222 0.72187 -1.09566 -0.46894 0.45956 -0.2734 -0.13206 0.36023 -0.14061 -0.49839 -0.51497 0.30158 0.27566 0.66584 -0.08849 -0.64063 0.06267 -0.07487 0.28564 0.38836 -0.03 0.31988 0.1254 0.22998 -0.18662 -0.02597 1.07828 -0.48524 -0.52949 0.06895 0.15953 -0.61882 0.55283 -0.22765 -0.66859 -0.28381 -0.75158 0.76162 -0.22243 0.9176 0.19637 0.58104 -0.29898 0.12885 -0.11232 -0.07034 0.1831 0.28235 -0.68696 0.2466 -0.04418 0.22168 -0.25091 -0.53822 0.40024 -0.00882 0.0428 0.85911 -0.07696 0.47932 -0.31051 -0.57719 -0.0988 -0.42587 1.00017 0.11852 -0.28549 0.18335 -0.82454 0.19346 -0.29955 0.57233 -0.28199 -0.87425 0.48707 -0.98216 -0.6224 -0.42491 0.0543 -0.35918 0.59205 -1.01708 0.02637 -0.19746 -0.4843 -0.10172 0.88708 0.22457 -0.23565 -0.66484
amf 0.29573 -0.39028 0.07771 0.02088 -0.10523 -0.06448 0.44485 -0.33102 -0.43039 0.04874 0.14372 0.84793 -1.04711 -0.36067 0.46033 -0.09187 -0.15541 0.15336 -0.26109 -0.51505 -0.35381 0.16052 0.3732 0.75892 -0.11938 -0.60422 0.04116 -0.026 0.27118 0.22037 -0.00547 0.38508 0.01667 0.11917 -0.19377 -0.16629 1.20512 -0.35885 -0.34426 0.11625 0.13112 -0.52936 0.61787 -0.2838 -0.6998 -0.23421 -0.7056 0.75753 -0.27939 0.93192 0.14939 0.64729 -0.32269 0.28095 -0.09231 -0.1084 0.18682 0.29397 -0.57697 0.33528 -0.02146 0.14643 -0.26895 -0.55793 0.40826 0.01618 0.03624 0.87422 -0.07222 0.41124 -0.27973 -0.50131 -0.08703 -0.47867 1.12628 0.1546 -0.26781 0.0746 -0.80775 0.28375 -0.20463 0.54995 -0.4462 -0.89651 0.63108 -1.04661 -0.633 -0.37642 -0.13142 -0.23348 0.82113 -1.08093 -0.03273 -0.22735 -0.4314 -0.16577 0.80932 0.49059 -0.16791 -0.86485
amh 0.21356 -0.87068 -0.08582 -0.10468 0.12873 -0.01072 0.2296 -0.09811 -0.27785 -0.05182 0.39598 0.98614 -1.3169 -0.51906 0.47711 0.24725 -0.30709 0.27561 -0.0939 -0.30943 -0.4906 0.13018 0.67668 0.80847 -0.08422 -0.59545 0.05832 -0.0146 0.18281 0.20321 0.01314 0.30704 0.13213 -0.18452 -0.13696 0.17975 1.19204 -0.6503 -0.74072 -0.06587 0.06493 -0.62062 0.90718 -0.04453 -0.42959 -0.38321 -0.53661 0.81324 -0.19398 0.73249 0.17181 0.99198 -0.07949 0.62331 -0.03699 -0.43726 0.12132 0.1638 -0.43018 0.12007 0.20119 0.40964 -0.41504 -0.72705 0.61737 -0.03222 -0.14088 0.94593 -0.18882 0.57913 -0.26081 -0.64753 0.10303 -0.59789 1.32164 -0.0389 -0.22935 0.19688 -0.77314 0.10826 0.01546 0.66847 -0.40484 -0.7318 0.65287 -0.87897 -0.87978 -0.25433 -0.2941 -0.06257 -0.83083 -1.43667 0.04307 -0.63484 -0.26946 0.16167 0.78112 0.71572 0.12401 -0.97621
amk 0.15013 0.57946 0.3232 0.15976 0.36522 0.2569 -0.06243 -0.45586 -0.01636 0.83408 0.63002 0.45676 0.95402 1.44177 0.64881 -0.29704 1.36891 -0.79116 -0.14718 -0.73843 0.73885 0.2865 -0.42508 -1.62273 -1.34437 0.6711 1.22059 0.17415 -0.43238 -0.92087 0.26786 -0.16787 0.68627 -0.81243 1.54945 0.46368 0.22779 0.22425 0.05441 -0.76987 0.87285 -0.47202 -0.77123 0.12154 -0.44727 0.16311 0.29976 -1.39916 1.32878 -0.46383 -0.53391 0.22623 -1.33679 -0.07115 0.43944 -0.49728 -1.19702 -0.16514 0.99541 -0.2753 0.08031 -0.58432 0.127 0.70073 -1.13442 -0.38733 0.13121 -0.41561 -0.46675 -0.036 -0.31858 -0.35488 0.65335 0.05596 -1.03272 0.10762 0.9485 -1.05332 -0.0697 -1.1391 0.2482 1.84931 0.17515 0.77283 -0.48265 0.63318 0.16448 0.93553 0.77093 -1.33251 0.2939 1.62033 0.00034 0.87608 -0.17189 0.19551 -0.57048 -0.5526 -0.49884 -0.77005
amm 0.42992 -0.27146 0.08957 0.01272 -0.07964 -0.03915 0.41447 -0.31214 -0.35952 0.08281 0.16213 0.6952 -1.00454 -0.32251 0.48949 0.0147 -0.07848 0.10995 -0.13889 -0.47403 -0.30742 0.16448 0.25115 0.65101 -0.12865 -0.66619 0.04326 -0.09099 0.24412 0.247 -0.01388 0.25956 0.05543 0.08102 -0.21817 -0.09171 1.11112 -0.24873 -0.36691 0.22223 0.14005 -0.59091 0.43915 -0.13471 -0.69527 -0.12943 -0.67365 0.75908 -0.19675 0.8816 0.11223 0.5024 -0.45034 0.17959 0.06196 -0.08974 0.01041 0.22674 -0.56172 0.2903 0.02887 0.23228 -0.30443 -0.53321 0.4126 0.11894 -0.01156 0.92794 -0.14894 0.41514 -0.24454 -0.42578 -0.20301 -0.42977 0.68898 0.12575 -0.21954 0.05943 -0.58346 0.23982 -0.13673 0.36266 -0.34777 -0.77317 0.66148 -1.00461 -0.60858 -0.3684 0.05857 -0.47657 0.72429 -0.91611 -0.04931 -0.25571 -0.31749 -0.18498 0.70394 0.39424 -0.28204 -0.58374
amp 0.30099 -0.52416 -0.01985 -0.01472 0.00597 -0.11908 0.34613 -0.25302 -0.47297 0.08332 0.12115 0.63378 -1.0109 -0.3623 0.58325 -0.14099 -0.22881 0.179 -0.03306 -0.38161 -0.17188 0.03328 0.26648 0.70659 -0.09545 -0.72617 0.12059 -0.06205 0.29027 0.35056 0.10694 0.19138 0.0773 0.13866 -0.31378 0.03795 1.15526 -0.38215 -0.45669 0.23756 0.03104 -0.52393 0.41233 -0.14824 -0.60807 -0.07624 -0.69999 0.8046 -0.27128 0.82154 0.25629 0.45997 -0.16944 0.15183 0.15781 -0.00736 0.03677 0.27891 -0.4983 0.29594 0.07462 0.21898 -0.35523 -0.55961 0.25115 0.19952 0.04817 0.93691 -0.17859 0.35189 -0.21824 -0.41816 -0.2598 -0.55506 0.83744 0.05696 -0.19618 -0.11775 -0.58933 0.14007 -0.32427 0.23428 -0.46915 -0.84399 0.54876 -1.05657 -0.58989 -0.46687 -0.03297 -0.44452 0.79617 -0.99885 -0.0605 -0.29414 -0.28855 -0.21435 0.65804 0.40478 -0.40505 -0.6086
amr 0.38001 -0.48123 0.14321 -0.10614 -0.08288 -0.06943 0.45068 -0.27627 -0.44192 0.01447 0.22869 0.75588 -1.17686 -0.35559 0.52439 -0.03955 -0.17754 0.22005 -0.16635 -0.49729 -0.35864 0.12814 0.39306 0.66618 -0.09714 -0.71955 0.10588 -0.09659 0.24176 0.30231 0.02517 0.23315 0.05521 0.09185 -0.18557 0.03625 1.05825 -0.4066 -0.53518 0.11857 0.11248 -0.61787 0.53379 -0.17173 -0.57181 -0.21462 -0.67693 0.79355 -0.19897 0.91043 0.22852 0.66317 -0.36936 0.22351 0.04124 -0.07743 0.08062 0.23026 -0.5402 0.26756 0.08489 0.27721 -0.23105 -0.57139 0.39367 0.05831 -0.07857 0.99222 -0.14501 0.48419 -0.28906 -0.55469 -0.09327 -0.5049 0.92647 0.09522 -0.24804 0.13545 -0.70132 0.15035 -0.14619 0.45907 -0.32046 -0.78132 0.59621 -0.95909 -0.73893 -0.44228 0.04721 -0.38524 0.56532 -1.11293 -0.01878 -0.36272 -0.34297 -0.04894 0.79782 0.39333 -0.22244 -0.66037
amu 0.47496 -0.17758 0.18373 -0.01854 -0.14825 -0.00979 0.52708 -0.40017 -0.30392 0.04039 0.18648 0.79029 -1.05643 -0.35368 0.41197 -0.03063 -0.02237 0.15322 -0.24553 -0.55101 -0.44806 0.27264 0.33674 0.66974 -0.1157 -0.59978 -0.0095 -0.06081 0.24556 0.19099 -0.11165 0.39538 0.03795 0.1173 -0.17651 -0.18112 1.08581 -0.24637 -0.36831 0.12793 0.23264 -0.65276 0.60319 -0.21074 -0.7462 -0.2103 -0.68722 0.70316 -0.15777 0.91726 0.03518 0.56161 -0.52938 0.31262 -0.10845 -0.15727 0.11558 0.23194 -0.66713 0.27791 -0.06232 0.23815 -0.19761 -0.55495 0.49696 -0.03663 -0.00049 0.87518 -0.10468 0.4635 -0.29439 -0.52193 -0.10457 -0.32622 0.91454 0.17054 -0.28347 0.18648 -0.69349 0.33125 -0.06443 0.54408 -0.27853 -0.81024 0.65278 -0.95162 -0.59768 -0.29877 0.03931 -0.35917 0.7537 -0.94532 -0.0306 -0.19904 -0.47486 -0.11035 0.86054 0.38927 -0.11003 -0.64343
ann -0.27267 -0.11297 0.10663 -0.11336 0.04389 -0.26624 0.35399 -0.23955 -0.71806 -0.06749 0.12238 0.39018 -1.10918 -0.57789 0.63101 -0.47435 -0.39937 0.19888 0.1956 -0.25446 -0.47599 0.33212 0.20785 0.67783 0.01668 -0.48466 -0.05368 0.13646 0.3218 0.20149 0.11248 0.21222 -0.01399 0.23805 -0.59841 0.31162 0.55299 -0.30079 -0.95537 0.29569 -0.00251 -0.31138 0.89052 -0.22895 -0.58984 0.05721 -0.29489 0.5757 -0.4939 0.37334 -0.14945 0.05049 0.48302 0.69021 0.07582 0.0577 -0.03474 -0.20545 -0.50767 0.10113 0.27159 0.42765 -0.0206 -0.93817 0.02236 -0.25381 0.41234 0.55433 0.49657 0.4937 -0.28783 0.04887 0.10641 -0.63675 1.15017 -0.29024 -0.57376 -0.08654 -0.37579 0.5579 -0.59494 -0.33506 -0.90203 -1.0208 -0.02204 -0.77851 -0.57381 -0.16173 -0.23959 -0.03482 0.09474 -0.74841 -0.18499 -0.47857 -0.5811 -0.0551 0.85787 0.05918 -0.17694 -0.4711
anv -0.16801 -0.09168 0.02942 -0.06627 0.07583 -0.22875 0.27832 -0.2522 -0.68314 -0.06851 0.1551 0.34986 -1.09177 -0.60245 0.60167 -0.41207 -0.35747 0.21729 0.30319 -0.18437 -0.51478 0.33398 0.21065 0.67715 0.03152 -0.44941 -0.07393 0.14066 0.29373 0.17185 0.09646 0.20378 -0.00615 0.21068 -0.58317 0.31015 0.55477 -0.29695 -0.94168 0.27808 0.02019 -0.33841 0.88792 -0.13263 -0.5723 0.06859 -0.28029 0.55564 -0.50861 0.26644 -0.22287 0.03878 0.49193 0.69423 0.09222 0.00675 -0.06567 -0.19118 -0.50688 0.06821 0.25999 0.45931 -0.06856 -0.94512 0.09985 -0.23225 0.38585 0.5585 0.46732 0.48429 -0.27512 0.08979 0.109 -0.60404 0.97124 -0.30059 -0.54963 -0.132 -0.24416 0.55554 -0.57636 -0.32237 -0.88445 -0.96709 0.01687 -0.74491 -0.51496 -0.11262 -0.2554 -0.07686 0.05673 -0.57579 -0.18794 -0.4938 -0.51118 -0.05967 0.81016 0.03058 -0.14857 -0.47428
aoj 0.2817 -0.29244 0.08751 -0.00092 -0.064 -0.09834 0.42167 -0.33577 -0.4814 0.05138 0.09613 0.82711 -1.13936 -0.30652 0.45421 0.01553 -0.18558 0.15958 -0.21399 -0.49922 -0.41833 0.10229 0.41446 0.73622 -0.12132 -0.65778 0.02509 -0.01731 0.26464 0.1011 -0.01229 0.4468 -0.04169 0.12475 -0.21071 -0.22225 1.05702 -0.34881 -0.37127 0.11597 0.1328 -0.45533 0.70848 -0.21275 -0.70346 -0.22914 -0.68863 0.71949 -0.27942 0.81549 0.03223 0.63878 -0.31161 0.37378 -0.1154 -0.1775 0.18675 0.20812 -0.59882 0.34014 0.08689 0.21135 -0.14523 -0.6435 0.38675 -0.15548 -0.05711 0.89652 -0.136 0.44435 -0.33322 -0.51334 -0.04636 -0.4502 1.13488 0.13111 -0.26696 0.17596 -0.72447 0.32026 -0.16683 0.56748 -0.43948 -0.82036 0.63312 -0.97664 -0.674 -0.36539 -0.1226 -0.2562 0.61741 -1.09797 -0.02184 -0.24822 -0.33424 -0.04579 0.78177 0.44725 -0.13012 -0.87702
aon 0.28112 -0.28935 0.09086 -0.00364 -0.05826 -0.09953 0.43299 -0.34303 -0.47929 0.05394 0.10183 0.82867 -1.13922 -0.30265 0.45648 0.01861 -0.17666 0.1461 -0.22451 -0.51044 -0.40456 0.10547 0.41745 0.73505 -0.11457 -0.65333 0.02184 -0.01216 0.26336 0.10055 -0.01756 0.43662 -0.04345 0.1195 -0.21867 -0.21042 1.05262 -0.32951 -0.37749 0.12198 0.13957 -0.46938 0.70894 -0.21687 -0.69694 -0.21635 -0.67951 0.71503 -0.27797 0.82315 0.02917 0.63299 -0.32288 0.38971 -0.10697 -0.16761 0.17983 0.2032 -0.59397 0.33791 0.07584 0.21893 -0.14181 -0.64451 0.38759 -0.15161 -0.05079 0.89926 -0.12398 0.44683 -0.32904 -0.51349 -0.0456 -0.45164 1.1333 0.12916 -0.27645 0.17 -0.71884 0.33073 -0.15775 0.54501 -0.44286 -0.82529 0.63349 -0.96997 -0.67289 -0.35575 -0.11366 -0.25038 0.65428 -1.09217 -0.02883 -0.2567 -0.34915 -0.04961 0.79166 0.45484 -0.12385 -0.85915
aoz -0.0255 0.81567 0.46317 0.0799 0.49112 0.31155 -0.16274 -0.41128 0.15862 0.88717 0.81276 0.74159 1.02844 1.39481 0.63603 0.13396 1.31481 -0.96157 -0.25689 -0.89764 0.74859 0.20117 -0.58621 -1.80736 -1.32998 0.80567 0.75535 0.00339 -0.53176 -0.97489 0.30086 -0.20434 0.50481 -0.734 1.48128 0.50862 0.22434 0.46002 0.05424 -0.69525 0.84416 -0.49208 -0.95691 0.06147 -0.21884 0.13904 0.51906 -1.40236 1.43581 -0.34957 -0.48196 0.25281 -1.33119 0.24042 0.35573 -0.50576 -1.21234 -0.34265 0.98371 -0.36763 0.11389 -0.52134 0.0805 0.72322 -1.12839 -0.42477 -0.08615 -0.40642 -0.31186 0.022 -0.04186 -0.34173 0.61708 -0.15653 -0.96755 -0.07041 0.84215 -0.97075 -0.14946 -1.13635 0.28489 1.79954 0.21055 1.22209 -0.65729 0.60372 0.33426 1.10541 0.82951 -1.19288 0.29575 2.01011 -0.18331 0.88735 -0.11601 0.38603 -0.73767 -0.37472 -0.7189 -0.86785
apb 0.03987 0.74043 0.39875 0.12682 0.46163 0.19729 -0.13575 -0.42512 0.1137 0.8893 0.74111 0.60593 1.0562 1.44413 0.69597 0.0948 1.32418 -0.93366 -0.22689 -0.82086 0.73383 0.24338 -0.53107 -1.78022 -1.34255 0.78686 0.51006 0.03019 -0.47074 -0.9645 0.34363 -0.19258 0.53806 -0.73989 1.57872 0.54794 0.26558 0.34633 0.06805 -0.72015 0.80367 -0.50251 -0.92544 0.0754 -0.29829 0.159 0.44659 -1.41652 1.42638 -0.36508 -0.52121 0.16794 -1.3414 0.08059 0.35548 -0.51176 -1.21015 -0.26735 0.97094 -0.39451 0.12249 -0.55705 0.09466 0.70684 -1.08363 -0.38965 0.00046 -0.42003 -0.42263 0.08186 -0.12705 -0.42122 0.62345 -0.04519 -1.01729 0.01207 0.90301 -1.00969 -0.11964 -1.18023 0.29492 1.81756 0.19774 1.15136 -0.61715 0.60087 0.2787 1.05833 0.81138 -1.29086 0.30373 2.04088 -0.08469 0.87233 -0.14297 0.34514 -0.66804 -0.42782 -0.62659 -0.88753
ape 0.28459 -0.28564 0.09526 -0.00192 -0.07546 -0.09062 0.43627 -0.33723 -0.47022 0.05111 0.10371 0.82471 -1.12747 -0.31027 0.45274 0.01431 -0.17309 0.14575 -0.22846 -0.5103 -0.40668 0.1174 0.39979 0.73289 -0.11894 -0.65397 0.02047 -0.02376 0.26433 0.11042 -0.02136 0.43843 -0.03925 0.1233 -0.20926 -0.21949 1.06238 -0.32848 -0.36689 0.12429 0.13678 -0.46693 0.70374 -0.22438 -0.70862 -0.22066 -0.68682 0.72331 -0.27564 0.83385 0.03486 0.62993 -0.33485 0.36317 -0.10867 -0.16647 0.17719 0.20646 -0.59744 0.34132 0.07566 0.20638 -0.14968 -0.631 0.39336 -0.13909 -0.04831 0.89073 -0.12471 0.44851 -0.33069 -0.50031 -0.0492 -0.44799 1.12195 0.13349 -0.27375 0.18192 -0.72762 0.32862 -0.15573 0.54922 -0.43426 -0.82841 0.63831 -0.98147 -0.67358 -0.36688 -0.10901 -0.2569 0.63823 -1.09191 -0.02668 -0.2435 -0.35073 -0.05736 0.78483 0.45432 -0.13286 -0.85245
apn 0.26577 -0.52437 0.15081 -0.13045 -0.10932 -0.09622 0.55779 -0.33239 -0.50558 0.05585 0.17435 0.83233 -1.13375 -0.33696 0.49636 -0.12916 -0.16912 0.14731 -0.32218 -0.5982 -0.30031 0.11608 0.41785 0.74147 -0.02424 -0.70269 0.10438 -0.01317 0.29146 0.26386 -0.02954 0.2862 0.00914 0.17394 -0.23033 -0.0249 1.08644 -0.37334 -0.50317 0.07578 0.11831 -0.58884 0.62949 -0.32562 -0.61999 -0.16865 -0.74942 0.77197 -0.28813 0.98378 0.23473 0.67253 -0.36224 0.3405 -0.09454 -0.01215 0.24336 0.27432 -0.50186 0.34794 0.01304 0.17058 -0.17134 -0.54761 0.31062 -0.03617 0.008 0.89587 -0.02242 0.46401 -0.30751 -0.56651 -0.05587 -0.54105 1.2116 0.11673 -0.31871 0.13146 -0.88936 0.23291 -0.17667 0.45958 -0.41941 -0.93846 0.54656 -0.99985 -0.72457 -0.44547 -0.02431 -0.18227 0.81542 -1.20081 -0.01897 -0.29447 -0.53888 -0.06889 0.89093 0.47673 -0.21413 -0.75517
apr 0.03225 0.7712 0.41103 0.10353 0.46376 0.27505 -0.12329 -0.42595 0.11891 0.87938 0.73512 0.64401 1.03625 1.44531 0.6539 -0.01822 1.35048 -0.92463 -0.23285 -0.84532 0.74773 0.22431 -0.54978 -1.80043 -1.32988 0.77253 0.89263 0.05323 -0.5152 -0.96213 0.31143 -0.20727 0.56431 -0.75225 1.53977 0.49674 0.20541 0.37108 0.04171 -0.71486 0.86036 -0.46979 -0.91553 0.07172 -0.29462 0.16423 0.48295 -1.41797 1.41512 -0.39374 -0.5085 0.24247 -1.34627 0.09959 0.37223 -0.49515 -1.21226 -0.30591 1.00997 -0.3558 0.1053 -0.54327 0.10876 0.72029 -1.15029 -0.41755 -0.01292 -0.41432 -0.414 -0.01019 -0.14681 -0.34736 0.63768 -0.11075 -1.00061 -0.00773 0.89039 -1.01355 -0.11023 -1.16599 0.26626 1.8249 0.20395 1.04561 -0.61384 0.63738 0.29177 1.06684 0.83052 -1.2656 0.30688 1.95755 -0.11791 0.91226 -0.13242 0.32599 -0.70924 -0.44111 -0.64453 -0.83614
apt 0.77108 0.28399 -0.18256 0.4192 -0.61505 0.01903 0.64407 0.11305 0.00996 0.40208 -0.07 0.44861 -0.54052 -0.28717 0.29759 0.76419 0.02324 -0.65641 -0.63627 -0.92698 0.17127 0.51009 -0.96503 0.9693 -0.05488 -0.79564 -0.32681 -0.48411 0.34492 0.17666 -0.23574 0.33006 -0.30805 0.31946 -0.20418 -1.07887 1.62765 0.57226 0.79101 0.74416 0.14538 0.11877 0.82386 -0.67369 -1.43995 0.06627 -1.02924 1.27986 -0.81924 1.20684 0.0251 -0.22465 -1.21508 -0.59623 -0.31102 0.15291 -0.00333 0.2727 -0.75867 0.5867 0.13241 -0.12731 -0.40192 -0.05742 0.48021 0.23301 -0.0612 0.67408 0.31116 0.53885 -0.22537 0.27531 -0.32109 -0.55402 0.38826 0.18585 -0.33754 1.29164 -0.94514 0.93814 0.21498 -0.48876 -0.01523 -1.09473 1.14251 -1.627 -0.42207 -0.97862 0.11705 -0.42952 0.91415 -0.99726 -0.28627 0.71648 -0.31704 -0.95043 0.05799 0.62814 -0.58522 0.00653
apu 0.4976 -0.42079 0.26282 -0.15206 -0.25778 0.00934 0.5165 -0.3128 -0.4146 -0.11546 0.22939 0.78321 -1.1183 -0.54691 0.46806 -0.48056 -0.20661 0.56046 -0.11464 -0.48894 -0.61728 0.33663 0.29976 0.70756 -0.10952 -0.62648 0.07961 -0.10107 0.31892 0.56122 0.01284 0.35778 0.18232 0.29523 -0.17239 0.0429 1.18396 -0.69313 -0.57943 -0.01103 0.11539 -0.66376 0.56947 -0.27893 -0.65339 -0.40395 -0.83035 0.81941 -0.21963 0.97519 0.31479 0.69799 -0.14197 0.04076 -0.1545 -0.09707 0.2807 0.36376 -0.76599 0.24693 -0.10979 0.19631 -0.31063 -0.53174 0.42829 -0.02723 0.0885 0.88849 -0.14287 0.4871 -0.34831 -0.71399 -0.11352 -0.4257 1.16177 0.13649 -0.27398 0.18199 -0.96051 0.11599 -0.43002 0.81282 -0.26167 -0.95714 0.43843 -1.04025 -0.63911 -0.50466 0.01193 -0.34652 0.58627 -1.10897 0.07398 -0.18086 -0.51895 -0.07821 0.96221 0.17523 -0.24965 -0.78339
apw 0.24274 -0.33325 0.11616 -0.13132 0.04708 -0.1749 0.52894 -0.43834 -0.48596 0.06398 0.16673 0.81251 -1.21401 -0.32651 0.49065 0.01453 -0.10344 0.1859 -0.22658 -0.53252 -0.38758 0.14491 0.4939 0.77015 0.00831 -0.60954 0.0442 0.12326 0.29928 0.12652 -0.00829 0.31153 -0.03107 0.13817 -0.31645 -0.05317 1.00334 -0.34859 -0.54969 0.10275 0.19785 -0.5869 0.72003 -0.20942 -0.58891 -0.17752 -0.60875 0.67987 -0.21457 0.8406 0.02988 0.62166 -0.20647 0.49099 -0.10507 -0.05215 0.225 0.16445 -0.62031 0.24442 -0.06109 0.36432 -0.1345 -0.65134 0.32436 -0.17551 -0.01542 0.95877 0.00136 0.50989 -0.22648 -0.67229 -0.00238 -0.46851 1.24612 0.05209 -0.36049 0.06049 -0.75853 0.35683 -0.22652 0.33704 -0.46777 -0.8811 0.54851 -0.91805 -0.61498 -0.25899 -0.04818 -0.1546 1.04499 -1.02068 0.00552 -0.32265 -0.49304 -0.07486 0.93475 0.37074 0.00022 -0.75904
apy 0.46105 -0.43177 0.20773 -0.05534 -0.05089 -0.00795 0.47197 -0.36973 -0.49373 0.01949 0.16293 0.79697 -1.13175 -0.35466 0.5614 -0.04808 -0.24787 0.4372 -0.20959 -0.4508 -0.31934 0.06453 0.35999 0.61086 -0.22646 -0.80863 0.00754 -0.10081 0.22329 0.37008 -0.00667 0.31899 0.13156 -0.06117 -0.20519 -0.05233 1.0131 -0.36611 -0.45512 0.21576 0.11511 -0.70402 0.4651 -0.09684 -0.54785 -0.21303 -0.61829 0.79929 -0.17282 1.10616 0.19965 0.69831 -0.52272 0.10007 0.17941 -0.17773 -0.0464 0.2451 -0.7054 0.30718 -0.04022 0.3373 -0.26406 -0.6682 0.51004 0.16382 -0.01576 1.08901 -1.21183 0.43365 -0.23044 -0.83424 -0.35433 -0.53291 0.89212 0.13592 -0.24559 0.05812 -0.56771 0.14164 -0.102 0.88049 -0.37911 -0.77532 0.834 -1.01207 -0.82486 -0.3606 0.10127 -0.46999 1.52224 -1.18293 0.01648 -0.48238 -0.20315 -0.04441 0.81493 0.49204 -0.24249 -0.6211
apz 0.3729 -0.49651 0.09224 -0.09422 -0.0427 -0.12341 0.41245 -0.28307 -0.48581 0.06708 0.20279 0.65455 -1.12898 -0.37884 0.55793 -0.08443 -0.17449 0.24484 -0.06485 -0.42843 -0.27455 0.11817 0.36255 0.67025 -0.05657 -0.70283 0.12737 -0.06161 0.25614 0.34232 0.07121 0.1396 0.07932 0.11479 -0.2699 0.10498 1.04328 -0.41057 -0.55672 0.16515 0.11947 -0.62424 0.43368 -0.12513 -0.5356 -0.16545 -0.65526 0.77819 -0.20963 0.85296 0.26396 0.51939 -0.23577 0.26847 0.09284 0.03009 0.05081 0.24619 -0.5391 0.2289 0.03075 0.32073 -0.25786 -0.58976 0.30803 0.18037 -0.01079 0.99762 -0.13718 0.41236 -0.19647 -0.57481 -0.14695 -0.52163 0.84981 0.06244 -0.2483 -0.0496 -0.63897 0.12101 -0.26771 0.29751 -0.37694 -0.80455 0.50654 -0.93835 -0.64067 -0.41439 0.07271 -0.40906 0.85115 -1.01878 -0.04911 -0.36089 -0.37035 -0.14702 0.7852 0.28411 -0.28934 -0.60629
arb 0.19762 -0.91795 -0.12193 -0.11902 0.17253 -0.00955 0.21094 -0.057 -0.23553 -0.05288 0.42003 1.02664 -1.34798 -0.51081 0.4682 0.30516 -0.31459 0.29621 -0.09457 -0.29529 -0.50267 0.11637 0.72029 0.84172 -0.06368 -0.56921 0.07189 -0.01265 0.18626 0.1945 0.02727 0.31792 0.11661 -0.21238 -0.12929 0.19195 1.21098 -0.68239 -0.77241 -0.09135 0.05634 -0.63268 0.95356 -0.02754 -0.42224 -0.42296 -0.53063 0.82771 -0.16254 0.7052 0.16564 1.0365 -0.04496 0.67695 -0.05433 -0.48532 0.14341 0.1654 -0.42646 0.09826 0.2027 0.4383 -0.43754 -0.73721 0.64645 -0.06015 -0.18053 0.97047 -0.20135 0.59802 -0.26164 -0.68997 0.14257 -0.58031 1.37568 -0.05587 -0.20808 0.21532 -0.79676 0.10098 0.02747 0.67821 -0.40265 -0.7089 0.66399 -0.86272 -0.89113 -0.23768 -0.32887 -0.02279 -0.95297 -1.44336 0.05191 -0.66828 -0.25618 0.1861 0.77251 0.74608 0.17983 -1.02565
are 0.40879 -0.42207 0.13716 -0.06244 -0.07542 -0.06458 0.45086 -0.30422 -0.41527 0.01364 0.20645 0.77003 -1.15966 -0.33782 0.51938 -0.02109 -0.16491 0.17838 -0.18313 -0.50409 -0.35116 0.12501 0.39026 0.66599 -0.12768 -0.71095 0.07213 -0.09794 0.23411 0.27544 0.01096 0.2719 0.04634 0.0726 -0.19247 -0.00536 1.07609 -0.34646 -0.48311 0.14023 0.13032 -0.62347 0.54562 -0.17129 -0.59587 -0.19965 -0.66656 0.77781 -0.20103 0.91859 0.17994 0.64918 -0.41468 0.23916 0.05138 -0.11605 0.05773 0.22732 -0.55818 0.28243 0.07218 0.27652 -0.22866 -0.58286 0.42805 0.04536 -0.06665 0.99499 -0.16569 0.4701 -0.28903 -0.52874 -0.12304 -0.48228 0.89816 0.1136 -0.24687 0.13118 -0.6538 0.19584 -0.1085 0.47661 -0.32158 -0.77956 0.6483 -0.97041 -0.72095 -0.41046 0.03161 -0.40692 0.58328 -1.09357 -0.03335 -0.34975 -0.32619 -0.05992 0.79558 0.43477 -0.20764 -0.65571
arl 0.41209 -0.26945 0.21902 -0.0532 -0.20157 -0.03085 0.50483 -0.39677 -0.37891 -0.0545 0.1943 0.76297 -1.13267 -0.4469 0.47434 -0.15841 -0.15397 0.24564 -0.20732 -0.48119 -0.51321 0.26398 0.32747 0.666 -0.18592 -0.68562 -0.003 -0.07544 0.24735 0.27613 -0.05367 0.40275 0.10321 0.12382 -0.15419 -0.13065 1.06904 -0.35902 -0.45274 0.10637 0.17543 -0.60681 0.62613 -0.24171 -0.67797 -0.26353 -0.68355 0.75538 -0.20607 0.95917 0.09777 0.62348 -0.43704 0.12473 -0.05214 -0.18981 0.11004 0.22928 -0.66969 0.28627 0.03103 0.22816 -0.20849 -0.56224 0.48611 -0.00082 0.01657 0.87642 -0.18515 0.49926 -0.29895 -0.4627 -0.12975 -0.43642 0.96496 0.12917 -0.2938 0.20408 -0.7169 0.26832 -0.11596 0.60317 -0.29581 -0.85189 0.65732 -1.03752 -0.68564 -0.36727 -0.01169 -0.38018 0.35168 -1.06046 0.01632 -0.24348 -0.40287 -0.05579 0.87699 0.37815 -0.15401 -0.66597
arn 0.33455 -0.46139 0.07792 0.01417 -0.1023 -0.06078 0.41084 -0.28179 -0.45367 0.00159 0.15931 0.79766 -1.08623 -0.38402 0.52452 -0.1431 -0.24082 0.17769 -0.20175 -0.48572 -0.31816 0.12084 0.34543 0.73001 -0.16083 -0.67602 0.04743 -0.08742 0.25689 0.31432 0.03901 0.33828 0.05481 0.09493 -0.21257 -0.06101 1.19698 -0.37596 -0.40077 0.14983 0.08708 -0.54261 0.58598 -0.25433 -0.63062 -0.21205 -0.69326 0.80202 -0.31005 0.93851 0.20871 0.6377 -0.30101 0.20428 0.03165 -0.12158 0.10297 0.28832 -0.55287 0.33259 0.04843 0.18092 -0.28707 -0.58597 0.41204 0.07806 0.03493 0.92386 -0.15599 0.41825 -0.29681 -0.45672 -0.14647 -0.54702 1.02831 0.12173 -0.25522 0.08313 -0.72581 0.2252 -0.20256 0.52383 -0.43172 -0.88475 0.64399 -1.05992 -0.69418 -0.44104 -0.1018 -0.3222 0.64165 -1.14698 -0.05575 -0.30379 -0.35011 -0.13301 0.77952 0.5086 -0.25202 -0.77632
arz 0.19232 -0.91337 -0.12364 -0.11578 0.17069 -0.01043 0.20861 -0.06211 -0.24485 -0.05107 0.41709 1.02132 -1.34366 -0.5136 0.46927 0.30612 -0.31315 0.28942 -0.08845 -0.29158 -0.50165 0.11749 0.71688 0.83764 -0.063 -0.57215 0.06679 -0.00774 0.18471 0.18877 0.02356 0.31336 0.11753 -0.21232 -0.13557 0.19339 1.20192 -0.67601 -0.77339 -0.08538 0.05628 -0.62704 0.95259 -0.02358 -0.4197 -0.41339 -0.52444 0.82342 -0.17113 0.70026 0.15799 1.0349 -0.04488 0.67687 -0.04845 -0.4826 0.13714 0.15771 -0.42095 0.09857 0.20773 0.43984 -0.4353 -0.74143 0.64403 -0.05726 -0.17338 0.96352 -0.19525 0.59697 -0.26011 -0.68115 0.13927 -0.58584 1.37212 -0.06043 -0.21404 0.2095 -0.78682 0.10697 0.02627 0.66763 -0.41084 -0.71086 0.66091 -0.86186 -0.889 -0.23297 -0.32785 -0.02304 -0.96708 -1.44038 0.05003 -0.67003 -0.25444 0.1857 0.77017 0.74161 0.17891 -1.02102
asg 0.12566 -0.32937 0.11427 -0.07506 -0.08086 -0.1123 0.38396 -0.23551 -0.5338 -0.0415 0.19583 0.64533 -1.13868 -0.48952 0.52761 -0.21085 -0.28022 0.22451 -0.04023 -0.40093 -0.45132 0.25519 0.28895 0.68834 -0.07207 -0.58414 0.01217 -0.02147 0.26744 0.25336 0.04248 0.29949 0.03577 0.15301 -0.30281 0.08516 0.9026 -0.38371 -0.66697 0.15293 0.07248 -0.44124 0.76245 -0.21989 -0.60652 -0.15877 -0.54027 0.70843 -0.37023 0.69053 0.04457 0.45043 -0.02315 0.38835 -0.0152 -0.075 0.05648 0.07363 -0.55007 0.20833 0.1698 0.29035 -0.16272 -0.70767 0.289 -0.11961 0.11723 0.75726 0.12822 0.49939 -0.32436 -0.27491 0.04397 -0.56957 1.09069 -0.04802 -0.37994 0.15715 -0.63596 0.34491 -0.32517 0.22723 -0.54729 -0.88914 0.37322 -0.89693 -0.68148 -0.34062 -0.1197 -0.18569 0.21367 -1.00695 -0.07685 -0.36507 -0.43482 -0.05083 0.81259 0.28682 -0.17165 -0.6593
aso 0.26471 -0.64213 0.23707 -0.32436 -0.18046 -0.12185 0.61469 -0.30739 -0.62509 0.07505 0.20336 0.71854 -1.1756 -0.38419 0.53572 -0.25201 -0.1821 0.28573 -0.24136 -0.58506 -0.30206 0.11438 0.34918 0.68885 0.08567 -0.83032 0.2156 -0.00584 0.33234 0.41468 -0.01353 0.10106 0.09056 0.29534 -0.26452 0.16871 0.94786 -0.54191 -0.72263 0.02211 0.07832 -0.61616 0.494 -0.30052 -0.51738 -0.15549 -0.84655 0.82044 -0.29498 1.00127 0.3848 0.63366 -0.27583 0.21979 -0.10466 0.15764 0.31496 0.28636 -0.44329 0.32553 0.04627 0.1862 -0.16609 -0.48876 0.15521 -0.00564 -0.00502 0.89063 0.02342 0.49737 -0.29633 -0.66309 -0.0876 -0.62502 1.18477 0.05574 -0.33008 0.13003 -1.02923 0.05882 -0.31843 0.31408 -0.36101 -0.97052 0.36601 -0.98243 -0.77493 -0.57833 0.16695 -0.21434 0.70505 -1.25059 0.0611 -0.31265 -0.60202 -0.01773 0.93024 0.25722 -0.39882 -0.63118
ata 0.39932 -0.34654 0.04471 0.00748 -0.04398 -0.06959 0.37355 -0.28948 -0.40376 0.1008 0.14477 0.64672 -0.99809 -0.33496 0.52835 -0.01517 -0.12147 0.13119 -0.07738 -0.42562 -0.25123 0.11787 0.23469 0.66317 -0.11444 -0.69617 0.07149 -0.07469 0.25742 0.28948 0.03009 0.19909 0.07783 0.08775 -0.2642 -0.03144 1.1186 -0.28903 -0.4001 0.2472 0.10421 -0.5701 0.38399 -0.1092 -0.65406 -0.09945 -0.67984 0.78122 -0.22494 0.8557 0.16646 0.46461 -0.35117 0.1513 0.11512 -0.04437 0.00306 0.24324 -0.52744 0.28509 0.04412 0.2443 -0.34326 -0.5409 0.35151 0.18375 0.01065 0.93962 -0.17366 0.38465 -0.21018 -0.42454 -0.24792 -0.48454 0.66131 0.09256 -0.20623 -0.03235 -0.56696 0.19049 -0.20935 0.28293 -0.39332 -0.78823 0.62558 -1.02532 -0.59268 -0.3931 0.05069 -0.49192 0.75416 -0.92093 -0.05111 -0.27995 -0.29178 -0.21533 0.67272 0.37576 -0.35289 -0.56924
atb 0.76047 0.23546 -0.18347 0.41688 -0.6241 0.05285 0.62971 0.14058 0.0253 0.39281 -0.05678 0.40941 -0.51907 -0.30835 0.3583 0.7404 0.02893 -0.63596 -0.62785 -0.93963 0.19138 0.50284 -0.98256 0.97319 -0.05276 -0.8334 -0.31498 -0.46547 0.35749 0.17131 -0.26069 0.33007 -0.30345 0.25389 -0.15374 -1.05138 1.62946 0.54364 0.81256 0.7872 0.15666 0.10481 0.81817 -0.67304 -1.4498 0.04103 -1.00224 1.26507 -0.84929 1.24109 0.08079 -0.22166 -1.18078 -0.63276 -0.27009 0.17148 0.04702 0.26038 -0.69284 0.5996 0.12459 -0.13579 -0.37893 -0.0638 0.45866 0.27376 -0.04702 0.67871 0.30397 0.45866 -0.23091 0.25172 -0.30446 -0.55426 0.389 0.19371 -0.34577 1.30175 -0.95576 0.91571 0.22154 -0.49611 -0.0148 -1.12057 1.12447 -1.62067 -0.41184 -0.97124 0.12956 -0.41354 0.95834 -0.95878 -0.33799 0.69439 -0.31247 -0.93447 0.05421 0.64228 -0.63069 0.00633
atd -0.40182 1.31478 0.88172 -0.1037 0.74405 0.71721 -0.45304 -0.37813 0.49826 0.96018 1.43295 1.42576 1.10116 1.17652 0.4091 0.91482 1.28508 -1.15786 -0.43303 -1.32086 0.87853 0.03579 -0.90955 -2.1256 -1.45876 1.06713 0.68517 -0.24364 -0.79279 -1.20006 0.142 -0.26334 0.20266 -0.77371 1.19634 0.39789 0.17506 1.08791 0.24044 -0.71448 0.90451 -0.72825 -1.26926 0.05787 0.29208 -0.06145 0.84267 -1.47471 1.64414 -0.18597 -0.27286 0.45417 -1.34031 1.34693 0.36973 -0.66273 -1.32437 -0.72875 0.99958 -0.41681 0.12722 -0.41291 -0.1032 0.89229 -1.22109 -0.6215 -0.55723 -0.44718 0.52307 0.0228 0.5246 -0.16598 0.59061 -0.51999 -0.88255 -0.54228 0.51022 -0.75628 -0.37555 -1.07206 0.39038 1.74181 0.2575 2.29038 -0.99841 0.56095 0.72202 1.44228 0.87312 -0.70951 0.15569 2.30516 -0.69254 0.83698 0.07565 0.81493 -1.11584 -0.03548 -1.30799 -0.94313
att -0.35075 1.2718 0.80885 -0.08912 0.69867 0.66607 -0.38774 -0.38354 0.45508 0.93939 1.35745 1.38035 1.05334 1.23435 0.44551 0.82983 1.30436 -1.1178 -0.41549 -1.26181 0.83759 0.04692 -0.89277 -2.09636 -1.40471 0.99913 0.65222 -0.21687 -0.76245 -1.13496 0.15617 -0.24898 0.2426 -0.76278 1.24862 0.41163 0.15509 0.97968 0.18539 -0.6878 0.90348 -0.68713 -1.2196 0.05144 0.21525 -0.01698 0.84322 -1.45877 1.59333 -0.23851 -0.30638 0.4511 -1.36484 1.02822 0.37022 -0.61008 -1.30377 -0.70261 1.0112 -0.43146 0.11738 -0.41737 -0.0652 0.84655 -1.22474 -0.61041 -0.49034 -0.43217 0.3384 0.01586 0.43126 -0.17884 0.61235 -0.52624 -0.86606 -0.47845 0.56242 -0.79508 -0.322 -1.04336 0.34812 1.75258 0.24453 2.08691 -0.92888 0.59554 0.67839 1.3849 0.87851 -0.77923 0.20017 2.23675 -0.63426 0.87317 0.05185 0.74024 -1.07956 -0.10104 -1.23763 -0.93759
auc 0.41263 -0.48254 0.11424 -0.06444 -0.11656 -0.06817 0.43135 -0.26679 -0.38389 -0.03329 0.21365 0.77699 -1.14468 -0.43999 0.50166 -0.13873 -0.21483 0.28138 -0.15421 -0.45682 -0.44333 0.19499 0.3853 0.72878 -0.11799 -0.64874 0.07681 -0.10135 0.26519 0.33217 0.04016 0.34609 0.06795 0.14078 -0.17968 -0.03689 1.15502 -0.47371 -0.48202 0.06814 0.11107 -0.57808 0.64366 -0.22945 -0.64646 -0.2936 -0.69613 0.79402 -0.23252 0.87921 0.21361 0.65428 -0.25474 0.2614 -0.07177 -0.14428 0.14608 0.27296 -0.64048 0.24983 0.04453 0.23414 -0.25672 -0.57382 0.41897 0.01907 -0.01148 0.92741 -0.12942 0.47031 -0.28334 -0.54486 -0.06152 -0.47616 1.06616 0.09798 -0.25062 0.15438 -0.76445 0.19496 -0.21909 0.59269 -0.32559 -0.84975 0.57235 -1.00718 -0.67024 -0.43149 -0.08359 -0.31559 0.50097 -1.13889 -0.01126 -0.28052 -0.39362 -0.09088 0.82952 0.39092 -0.16275 -0.76664
auy 0.26076 -0.60956 0.22486 -0.30117 -0.16209 -0.14116 0.60078 -0.31839 -0.61686 0.06101 0.1844 0.68465 -1.18327 -0.38904 0.54227 -0.23776 -0.19183 0.25831 -0.21373 -0.55128 -0.33401 0.11648 0.35754 0.68927 0.07122 -0.82005 0.19166 -0.00235 0.32645 0.37399 -0.01151 0.13053 0.06949 0.29206 -0.28211 0.15355 0.91395 -0.49999 -0.72009 0.03467 0.08345 -0.59486 0.54247 -0.28542 -0.53774 -0.13947 -0.80905 0.79592 -0.30208 0.95035 0.3192 0.59007 -0.25855 0.27376 -0.10702 0.11508 0.29068 0.24657 -0.46481 0.31397 0.07726 0.2098 -0.13159 -0.52462 0.16186 -0.03956 0.00801 0.87515 0.03236 0.49736 -0.28927 -0.59726 -0.08124 -0.60639 1.15604 0.03662 -0.34061 0.12417 -0.94243 0.10719 -0.29843 0.30921 -0.37405 -0.96071 0.36877 -0.97255 -0.75815 -0.53703 0.12681 -0.22007 0.65519 -1.22145 0.04697 -0.3159 -0.58131 -0.0065 0.92498 0.26027 -0.35893 -0.61923
ava 0.3039 -0.52795 0.1042 -0.07027 -0.11758 -0.09876 0.44175 -0.23363 -0.51101 -0.0204 0.15049 0.76215 -1.16107 -0.40725 0.53523 -0.17686 -0.29107 0.23229 -0.17704 -0.48376 -0.35878 0.11774 0.37015 0.74552 -0.10864 -0.70944 0.0788 -0.09935 0.28208 0.33106 0.05452 0.33371 0.0246 0.17059 -0.22946 -0.01037 1.1109 -0.45162 -0.49545 0.1028 0.05749 -0.5002 0.67991 -0.27409 -0.62067 -0.23587 -0.71972 0.81292 -0.3344 0.88335 0.22929 0.62818 -0.19637 0.27916 -0.04101 -0.09412 0.16852 0.25206 -0.56585 0.32222 0.11286 0.20365 -0.19002 -0.61483 0.34286 -0.02369 0.00479 0.90981 -0.0999 0.45687 -0.32845 -0.48303 -0.05754 -0.5561 1.15265 0.08063 -0.2803 0.1638 -0.78773 0.21746 -0.24688 0.527 -0.42601 -0.90881 0.54482 -1.0274 -0.7317 -0.50253 -0.10329 -0.26203 0.54972 -1.2389 -0.03885 -0.29994 -0.38896 -0.0583 0.81185 0.43649 -0.2492 -0.7921
avu 0.24552 -0.36715 0.11246 -0.07087 -0.11791 -0.07433 0.39124 -0.2561 -0.46959 -0.02177 0.18893 0.66608 -1.12001 -0.48081 0.50103 -0.15319 -0.22701 0.25453 -0.06853 -0.39781 -0.46586 0.24036 0.2792 0.6889 -0.08994 -0.63756 0.03865 -0.04946 0.27226 0.28039 0.01488 0.31284 0.07651 0.15535 -0.24217 0.00775 0.99289 -0.42632 -0.58845 0.12455 0.089 -0.4745 0.67297 -0.19102 -0.63837 -0.20748 -0.63272 0.74935 -0.30958 0.76056 0.09417 0.51343 -0.13885 0.25805 -0.0472 -0.11228 0.09851 0.15765 -0.58427 0.22909 0.12959 0.25724 -0.22858 -0.63261 0.34602 -0.05044 0.05234 0.79075 -0.01261 0.49219 -0.30146 -0.36339 -0.02958 -0.52383 1.01409 0.00739 -0.31114 0.16955 -0.69165 0.26216 -0.28782 0.37207 -0.43417 -0.85263 0.46929 -0.96374 -0.66872 -0.38429 -0.08295 -0.2667 0.20559 -1.04095 -0.01568 -0.30072 -0.38836 -0.06554 0.78855 0.30925 -0.20789 -0.6776
awb 0.26411 -0.60362 0.22676 -0.29718 -0.17017 -0.12943 0.59816 -0.31579 -0.6066 0.06276 0.19064 0.69713 -1.17937 -0.38922 0.53321 -0.23019 -0.1858 0.26306 -0.22282 -0.55684 -0.33509 0.12323 0.35277 0.68425 0.06533 -0.81538 0.19245 -0.00702 0.32358 0.37296 -0.01722 0.13696 0.07663 0.2854 -0.26675 0.14291 0.92378 -0.50494 -0.71187 0.02933 0.08733 -0.59419 0.5393 -0.28633 -0.5402 -0.15053 -0.81409 0.79719 -0.29491 0.95732 0.3241 0.60291 -0.2742 0.25635 -0.11045 0.11005 0.29002 0.25478 -0.46521 0.31325 0.07249 0.20154 -0.1406 -0.51519 0.17074 -0.03563 -0.00021 0.87071 0.02285 0.49795 -0.29552 -0.60678 -0.07707 -0.60207 1.16065 0.04475 -0.33354 0.13946 -0.9576 0.09862 -0.29294 0.32496 -0.36163 -0.9513 0.37633 -0.97097 -0.7596 -0.53929 0.13016 -0.22108 0.62858 -1.22265 0.05109 -0.30792 -0.57871 -0.00639 0.9199 0.26264 -0.35829 -0.62495
ayo 0.28568 -0.51241 0.19123 -0.1964 -0.13659 -0.11125 0.56875 -0.34101 -0.54339 0.04839 0.17499 0.75113 -1.15562 -0.37042 0.51092 -0.19226 -0.17501 0.22048 -0.25236 -0.56245 -0.35293 0.13597 0.37546 0.70817 0.0015 -0.74575 0.13058 -0.00509 0.30546 0.30809 -0.02477 0.24 0.04597 0.23123 -0.25034 0.03866 0.99723 -0.43331 -0.59684 0.05694 0.11488 -0.58548 0.59594 -0.29292 -0.59406 -0.16632 -0.76788 0.77018 -0.28764 0.95034 0.24757 0.6196 -0.31093 0.2839 -0.10355 0.02255 0.25647 0.25804 -0.51517 0.31846 0.03685 0.20038 -0.15028 -0.54554 0.25423 -0.05491 0.01381 0.87673 -0.02106 0.47932 -0.3026 -0.57792 -0.07205 -0.54997 1.16097 0.07862 -0.32658 0.13733 -0.8883 0.18405 -0.23904 0.42092 -0.38318 -0.93465 0.46629 -0.98244 -0.71788 -0.46752 0.04043 -0.22069 0.70393 -1.17107 0.01564 -0.28663 -0.5452 -0.03847 0.90773 0.34569 -0.26844 -0.6831
ayr 0.41353 -0.38766 0.16743 -0.06432 -0.16218 -0.01007 0.4765 -0.3506 -0.35349 0.02471 0.23314 0.76655 -1.05111 -0.42192 0.43801 -0.12687 -0.07737 0.23684 -0.2106 -0.50037 -0.45459 0.26111 0.32417 0.66621 -0.08412 -0.61101 0.07856 -0.05562 0.26101 0.28079 -0.05547 0.32697 0.1049 0.14966 -0.14024 -0.08476 1.11983 -0.40599 -0.46449 0.05658 0.18298 -0.62466 0.52386 -0.21955 -0.69029 -0.24735 -0.71689 0.73222 -0.18636 0.92566 0.16307 0.62242 -0.41298 0.20206 -0.12886 -0.10783 0.16047 0.29257 -0.61613 0.25048 -0.03891 0.18237 -0.28044 -0.50047 0.42058 0.02384 0.01954 0.83759 -0.08029 0.46549 -0.27342 -0.5377 -0.07964 -0.42917 0.94113 0.13121 -0.25737 0.14127 -0.80109 0.19058 -0.19929 0.54756 -0.28397 -0.82254 0.56479 -0.97372 -0.62135 -0.35701 0.00627 -0.31558 0.57117 -0.99932 0.0198 -0.22445 -0.47085 -0.12573 0.84913 0.33305 -0.17835 -0.68806
azz -0.7607 0.32366 -2.26183 2.2504 3.83768 1.08011 1.34976 -2.44371 -0.30728 -0.2138 -1.84278 -0.927 -1.70734 1.58148 -0.38153 -0.68499 1.52755 1.65629 -1.9436 -0.99216 0.20123 -0.50551 0.74542 2.55624 -0.29438 3.67047 0.94159 2.86835 -1.2527 1.64599 -2.33922 -0.23042 -0.51973 -1.63974 -1.21944 -0.11643 0.57106 -3.54669 -1.52164 -0.14543 -3.95536 -2.68365 -0.48794 0.47933 4.63475 -1.12867 4.04434 1.04568 -2.37718 -2.04691 0.12678 0.91024 1.70632 1.54528 1.75493 -0.4832 1.40143 -0.67315 2.50336 -0.77299 -2.19142 0.91315 -1.80594 -1.8325 1.00244 -1.77204 1.84893 -1.92662 -1.60366 2.38471 3.66571 0.64688 3.29992 1.12567 2.10716 0.57721 -1.46602 0.7213 0.16236 0.06115 0.454 1.37036 -1.89563 2.86028 0.76328 2.50989 -2.43997 3.36629 -1.14757 3.11342 -2.8112 -0.79691 -1.37382 -1.81306 -1.31818 0.78393 -3.06229 0.81672 -2.22488 -1.35119
bak -4.13778 2.94708 -0.74382 -0.05225 -1.45512 0.47479 1.25559 -2.13395 0.65719 0.55124 3.37295 0.29088 0.4914 -1.24161 -0.23077 2.74456 0.43662 1.45479 3.26752 0.87914 0.9649 -2.38931 -3.04505 -0.59038 -1.55481 2.17326 -3.0851 0.34497 0.96824 -1.3077 -0.10864 0.34462 -0.25744 -3.68314 1.73884 -0.42287 1.83241 -0.39993 -2.20701 -2.58259 2.11695 1.36031 -1.65944 1.35088 0.09717 2.17045 -1.12486 1.30454 2.65045 -0.13031 -2.9253 -0.05569 1.91984 -3.18085 -1.6705 2.29278 -0.68381 -0.72521 1.30515 -0.29223 -1.04197 1.58167 3.89667 0.80222 -0.78801 0.11863 0.45187 -0.03279 -0.97397 -1.15212 -0.29988 -1.59448 -0.05793 0.54993 3.36546 0.05899 2.01591 -1.55713 -0.98965 -1.11821 2.76883 -0.88778 0.66955 -1.74867 -0.13886 0.56631 2.67137 -1.26523 1.6248 1.08803 0.22165 1.11878 0.31291 2.20752 -0.54152 -0.21652 0.97183 -0.34109 3.91756 2.8783
bam 0.1848 -0.04226 -0.22094 0.0061 0.19547 -0.15981 0.114 -0.29506 -0.7232 -0.04454 0.22622 0.23957 -1.07706 -0.69181 0.59963 -0.12337 -0.11974 0.21887 0.49068 -0.03726 -0.65318 0.26638 0.24522 0.73955 0.16381 -0.44852 -0.09607 0.23481 0.27056 0.15004 0.05782 0.05017 0.04381 0.14303 -0.65661 0.43029 0.56422 -0.30639 -1.04508 0.26192 0.0331 -0.38543 0.85711 0.13281 -0.40599 0.18668 -0.18572 0.55738 -0.67933 0.08451 -0.44936 0.01608 0.57699 0.74754 0.08626 -0.0149 -0.10261 -0.1698 -0.39988 -0.02811 0.20237 0.62821 -0.25821 -0.976 0.34238 -0.1804 0.3198 0.52606 0.51499 0.54117 -0.19212 0.21822 0.14719 -0.68052 0.72794 -0.44917 -0.5583 -0.30367 -0.07327 0.61384 -0.59205 -0.38478 -0.94692 -0.88794 0.18024 -0.82873 -0.43725 -0.02561 -0.31339 -0.00547 0.18205 -0.38298 -0.10603 -0.68097 -0.32914 -0.04648 0.8417 -0.00684 -0.13357 -0.45774
ban -0.23293 1.05293 0.64496 -0.01407 0.59013 0.42432 -0.33961 -0.41081 0.3251 0.92335 1.15353 0.95172 1.09583 1.24574 0.5681 0.6083 1.20483 -1.0887 -0.33985 -1.0625 0.79203 0.10922 -0.78539 -1.88266 -1.36772 0.97576 0.53451 -0.14334 -0.61879 -1.0642 0.2391 -0.18654 0.32519 -0.70806 1.45325 0.60069 0.24268 0.78396 0.11788 -0.70995 0.82685 -0.53809 -1.14641 0.06238 -0.01177 -0.00519 0.73648 -1.45549 1.55806 -0.28749 -0.41606 0.215 -1.34623 0.74656 0.31764 -0.49411 -1.29554 -0.52547 0.98678 -0.42076 0.14064 -0.47417 -0.01397 0.76678 -1.0841 -0.50479 -0.28759 -0.46043 -0.05666 0.16719 0.26438 -0.3083 0.62978 -0.27632 -0.9192 -0.26806 0.7402 -0.90212 -0.25286 -1.16986 0.34726 1.84613 0.25696 1.77887 -0.80784 0.58876 0.41672 1.26022 0.78667 -1.04191 0.1755 2.21136 -0.40036 0.83594 0.01371 0.61125 -0.89301 -0.23382 -1.00517 -0.98033
bao 0.62083 -0.30937 -0.97931 0.98447 -0.26768 0.24827 -1.24281 -0.92427 1.31639 1.1182 1.47321 0.61891 -0.32043 -1.18541 -0.53147 1.30761 -0.0089 -0.18541 -0.89567 0.7085 -0.57347 -0.60019 -0.52985 0.92994 0.82483 0.09359 0.59835 -0.33792 0.45095 0.32751 -0.38815 1.52964 -0.02014 0.25531 -0.77222 -1.15443 1.43776 0.5648 -0.15492 -1.80323 0.68902 -0.62722 -0.32849 -0.81696 -1.17663 0.40833 -0.27961 1.63657 0.55012 1.40347 0.71718 2.16616 -0.01371 0.21341 0.07627 0.29704 -1.60546 1.36366 0.10733 0.01876 1.06744 -1.21555 -0.74567 -0.45001 0.35602 1.00115 0.41394 0.55305 0.82781 -1.21367 -0.41625 0.68792 -1.47422 -1.59127 1.08825 -0.16145 -0.38819 1.61726 1.19768 -1.32069 -0.96454 1.04576 0.92965 -0.03724 0.85421 0.1065 -1.30443 -1.7337 -1.35017 0.90916 -2.03673 -0.63028 0.21664 -0.65457 -1.54651 -0.30613 0.49345 1.27278 -0.47985 0.61549
bav -0.19326 -0.0898 0.10161 -0.05647 0.04923 -0.2349 0.27857 -0.24331 -0.64893 -0.09392 0.14537 0.38648 -1.11946 -0.60521 0.59978 -0.44434 -0.41455 0.22529 0.26934 -0.18876 -0.51883 0.38096 0.21914 0.65794 -0.04309 -0.41503 -0.08592 0.11052 0.28177 0.16854 0.10316 0.29167 0.00662 0.19481 -0.54654 0.27642 0.5532 -0.29121 -0.91493 0.2816 0.04729 -0.33251 0.90159 -0.18465 -0.60553 0.00624 -0.25727 0.53927 -0.43997 0.31227 -0.1961 0.05259 0.46896 0.68389 0.0924 -0.02724 -0.10342 -0.19555 -0.55304 0.06925 0.28348 0.43989 -0.00825 -0.97519 0.07913 -0.26986 0.41077 0.54321 0.44286 0.47091 -0.29086 0.07354 0.12843 -0.5835 1.01879 -0.273 -0.54825 -0.0735 -0.26221 0.55127 -0.55293 -0.27513 -0.86808 -0.95491 0.02948 -0.72183 -0.54152 -0.0964 -0.28584 -0.08671 0.02776 -0.62361 -0.20882 -0.46215 -0.53491 -0.04107 0.82759 0.04595 -0.11267 -0.49267
bba 0.29284 -0.4025 -0.00699 -0.08038 -0.01376 -0.14593 0.34017 -0.27006 -0.42845 0.13788 0.15506 0.50681 -1.01367 -0.41548 0.53101 -0.02772 -0.12838 0.16839 0.0631 -0.29167 -0.28362 0.14989 0.24026 0.662 0.00428 -0.67857 0.12914 -0.01078 0.28167 0.24314 0.04237 0.1242 0.08554 0.1596 -0.33346 0.07256 0.96117 -0.35238 -0.5815 0.19827 0.09895 -0.50554 0.4547 -0.06022 -0.63376 -0.06159 -0.64825 0.73371 -0.21288 0.64456 0.14143 0.30558 -0.13494 0.30939 0.04549 0.0228 0.04182 0.17821 -0.50626 0.17798 0.09219 0.30191 -0.29843 -0.56549 0.2091 0.17834 0.0514 0.81499 -0.04739 0.3746 -0.14886 -0.38143 -0.17913 -0.47265 0.72627 -0.02073 -0.22853 -0.12284 -0.53817 0.15318 -0.31426 0.08953 -0.39644 -0.78008 0.40679 -0.93157 -0.49865 -0.34343 0.03139 -0.40123 0.46264 -0.82763 -0.04179 -0.2695 -0.3753 -0.19762 0.66064 0.20529 -0.32335 -0.50626
bbc -0.23319 1.07032 0.63932 -0.02414 0.60282 0.42304 -0.33 -0.40925 0.34253 0.91883 1.15114 0.98446 1.08574 1.25352 0.56719 0.62374 1.20258 -1.09144 -0.35364 -1.06335 0.77907 0.09712 -0.80582 -1.89821 -1.34464 0.96945 0.47904 -0.15696 -0.62866 -1.0509 0.24709 -0.19513 0.31035 -0.68465 1.45971 0.58839 0.23364 0.78273 0.1003 -0.69091 0.82488 -0.52957 -1.14529 0.04833 -0.01774 0.00479 0.7794 -1.44013 1.54998 -0.28268 -0.416 0.23118 -1.35329 0.86525 0.30271 -0.4744 -1.28388 -0.54612 0.99042 -0.43746 0.14183 -0.46049 -0.01023 0.75278 -1.08035 -0.51356 -0.28105 -0.44612 -0.05878 0.1652 0.25346 -0.30599 0.63388 -0.31653 -0.89466 -0.27067 0.73344 -0.89814 -0.25085 -1.15706 0.33227 1.8383 0.25249 1.92205 -0.80414 0.59202 0.4208 1.25955 0.79483 -1.04428 0.19146 2.23135 -0.40425 0.85138 0.01951 0.61175 -0.9057 -0.22779 -1.00827 -0.98303
bbj -0.24475 -0.07724 0.12669 -0.07384 0.05096 -0.26137 0.29588 -0.23102 -0.67062 -0.09825 0.12976 0.38916 -1.13765 -0.60262 0.61978 -0.46809 -0.43732 0.21799 0.2491 -0.20168 -0.51525 0.3902 0.2194 0.65849 -0.04977 -0.41209 -0.08227 0.11572 0.29358 0.17251 0.11946 0.30273 -0.00144 0.20559 -0.5691 0.29326 0.52486 -0.28813 -0.94322 0.29984 0.03944 -0.30415 0.92679 -0.21608 -0.60488 0.00674 -0.23465 0.5343 -0.43766 0.31945 -0.19358 0.03359 0.49859 0.7087 0.08989 -0.00472 -0.10667 -0.22412 -0.55454 0.06595 0.3022 0.44735 0.02506 -0.9932 0.04843 -0.30864 0.43398 0.5248 0.48918 0.47664 -0.29878 0.08379 0.15282 -0.60311 1.09017 -0.29156 -0.57164 -0.05354 -0.28642 0.57257 -0.57484 -0.31514 -0.89891 -0.97108 -0.0085 -0.72218 -0.55996 -0.10057 -0.29742 -0.0489 0.01466 -0.66252 -0.2171 -0.46567 -0.56171 -0.03017 0.85321 0.04341 -0.10937 -0.48264
bbr 0.32256 -0.23748 0.07589 -0.00877 0.00804 -0.06876 0.41132 -0.26352 -0.49055 0.07193 0.09065 0.67936 -0.98661 -0.29002 0.55946 -0.13441 -0.19198 0.1443 -0.10714 -0.53555 -0.28816 0.08683 0.12775 0.70651 -0.08883 -0.70704 0.01819 -0.01689 0.31777 0.3386 0.04632 0.2039 0.0294 0.1409 -0.36419 -0.00508 1.09923 -0.2954 -0.42325 0.30913 0.01206 -0.5025 0.41101 -0.16543 -0.68012 -0.01824 -0.70073 0.81043 -0.37633 0.89679 0.11747 0.48676 -0.24048 0.08647 0.10472 -0.02288 0.07084 0.18547 -0.50706 0.3533 0.07203 0.23046 -0.35572 -0.58468 0.28194 -0.03128 0.07144 0.94923 -0.10827 0.44042 -0.30545 -0.39757 -0.27221 -0.58163 0.74475 0.04606 -0.28066 0.06982 -0.62558 0.3075 -0.32875 0.20055 -0.55804 -0.90613 0.60807 -1.09164 -0.64914 -0.43314 0.01616 -0.43176 0.98952 -0.9386 -0.04135 -0.32381 -0.28917 -0.20898 0.69888 0.39679 -0.43133 -0.55719
bch 0.07345 0.69208 0.38131 0.11996 0.42446 0.27647 -0.09824 -0.43564 0.06479 0.85925 0.69421 0.58261 0.99865 1.44429 0.64839 -0.14614 1.3613 -0.87026 -0.19616 -0.81054 0.74548 0.24219 -0.50352 -1.73065 -1.33697 0.73248 1.06437 0.10211 -0.48418 -0.94146 0.28501 -0.18998 0.61737 -0.77957 1.53196 0.47597 0.2076 0.32552 0.04042 -0.73272 0.86953 -0.47216 -0.85992 0.09096 -0.35355 0.1667 0.41051 -1.41117 1.38018 -0.42355 -0.51849 0.25319 -1.34674 0.03502 0.40395 -0.49265 -1.20872 -0.24806 1.00778 -0.32228 0.09154 -0.55771 0.11748 0.71042 -1.15287 -0.40742 0.04021 -0.41619 -0.42309 -0.03131 -0.21657 -0.34179 0.64646 -0.05168 -1.0126 0.03037 0.91325 -1.0271 -0.09187 -1.15313 0.25567 1.8367 0.1948 0.92649 -0.56081 0.64016 0.24546 1.01922 0.81356 -1.28454 0.30638 1.80194 -0.07886 0.90603 -0.14845 0.26876 -0.65982 -0.48704 -0.5913 -0.80625
bci -0.11441 -0.18385 0.02297 -0.15287 0.03585 -0.22918 0.41799 -0.26204 -0.70458 0.01994 0.12431 0.39088 -1.02971 -0.49724 0.60168 -0.37149 -0.2771 0.19907 0.14904 -0.32027 -0.39828 0.21694 0.17717 0.70549 0.12995 -0.59988 0.02333 0.13169 0.3534 0.24537 0.08462 0.07924 -0.03437 0.30024 -0.57627 0.26436 0.66598 -0.34091 -0.86275 0.26476 -0.03429 -0.37078 0.75946 -0.17673 -0.59568 0.10285 -0.46953 0.65612 -0.51184 0.4519 -0.06184 0.13308 0.30027 0.56903 0.04941 0.12916 0.09365 -0.08581 -0.46397 0.16615 0.17634 0.36736 -0.14984 -0.77137 0.03613 -0.11957 0.28026 0.66734 0.3945 0.48354 -0.26569 -0.09579 -0.01285 -0.60997 1.04028 -0.2202 -0.49313 -0.13696 -0.48598 0.4529 -0.5756 -0.27288 -0.79695 -1.02421 0.06042 -0.85685 -0.52444 -0.28664 -0.08913 -0.12915 0.36255 -0.73221 -0.11599 -0.41824 -0.54548 -0.13075 0.78392 0.06733 -0.29554 -0.46908
bcl -0.33555 1.16462 0.81067 -0.07137 0.72664 0.55127 -0.4249 -0.37791 0.4358 0.96801 1.36511 1.32059 1.14305 1.22039 0.49217 0.81392 1.2529 -1.16726 -0.38824 -1.23022 0.89045 0.03114 -0.82812 -2.0893 -1.47791 1.0966 0.71682 -0.20214 -0.72901 -1.18583 0.19091 -0.28205 0.29215 -0.78963 1.26239 0.47396 0.22382 1.1403 0.23805 -0.74153 0.85073 -0.69397 -1.28254 0.04398 0.20951 -0.00933 0.7766 -1.49135 1.65864 -0.2066 -0.33837 0.37271 -1.33599 1.2172 0.35894 -0.6716 -1.31537 -0.62426 1.00101 -0.42505 0.14426 -0.43917 -0.06902 0.90916 -1.16427 -0.56246 -0.47546 -0.45684 0.49179 0.02533 0.46032 -0.25354 0.58523 -0.40444 -0.93075 -0.45684 0.60299 -0.79155 -0.35244 -1.14359 0.40852 1.78123 0.27495 2.13781 -0.92879 0.54867 0.64872 1.43078 0.88864 -0.78525 0.17751 2.31527 -0.58944 0.85527 0.0373 0.74806 -1.03332 -0.11994 -1.20856 -0.9408
bcw 0.30223 -0.77204 0.0507 -0.13406 0.00249 -0.05833 0.327 -0.19996 -0.33029 -0.05169 0.28808 0.85452 -1.28058 -0.50789 0.51496 0.02484 -0.30785 0.30621 -0.11658 -0.34412 -0.46119 0.1301 0.5583 0.74118 -0.13067 -0.67111 0.10152 -0.04553 0.23247 0.28896 0.02179 0.32528 0.16448 -0.03424 -0.14698 0.13764 1.14837 -0.58667 -0.71194 -0.04558 0.08632 -0.61038 0.76536 -0.1409 -0.50499 -0.32782 -0.65508 0.79953 -0.18306 0.80795 0.22283 0.81915 -0.12347 0.47068 -0.08916 -0.31669 0.16066 0.238 -0.50928 0.17706 0.1578 0.32022 -0.30971 -0.655 0.46408 -0.00991 -0.06316 0.9002 -0.21667 0.51309 -0.25759 -0.5735 -0.00124 -0.57277 1.21783 0.00678 -0.22569 0.15779 -0.77577 0.08198 -0.08017 0.60657 -0.34506 -0.78988 0.59101 -0.94923 -0.81337 -0.34807 -0.20405 -0.18222 -0.21673 -1.36591 0.05889 -0.49028 -0.35908 0.09666 0.84965 0.60341 -0.04553 -0.84526
bdd 0.12931 0.7427 0.3939 0.17204 0.44364 0.30353 -0.15674 -0.5056 0.07467 0.88731 0.80908 0.44526 1.11195 1.45421 0.57495 -0.0093 1.43188 -0.83544 -0.19546 -0.77786 0.83646 0.3136 -0.49774 -1.81609 -1.434 0.75997 0.89146 0.17566 -0.5308 -1.08189 0.28358 -0.22783 0.64881 -0.87905 1.654 0.44669 0.19069 0.2212 0.17756 -0.8773 0.93952 -0.48352 -0.83047 0.16477 -0.35891 0.07783 0.3822 -1.53211 1.4346 -0.51672 -0.49622 0.1498 -1.35386 -0.05643 0.45652 -0.60725 -1.27466 -0.27439 1.07161 -0.27701 0.09903 -0.61923 0.08472 0.84003 -1.1916 -0.44604 0.05168 -0.49105 -0.42967 -0.0421 -0.20249 -0.31113 0.68792 0.07956 -1.14354 0.05658 0.91241 -1.08651 -0.1121 -1.24817 0.3039 1.90661 0.18142 1.00943 -0.60999 0.67459 0.24241 1.00509 0.74148 -1.31524 0.18375 2.07897 -0.04693 0.85445 -0.09865 0.34513 -0.68256 -0.52939 -0.59175 -0.75312
bdh 0.20632 -0.35619 0.14019 -0.11572 -0.15386 -0.08593 0.41138 -0.23798 -0.49915 -0.02385 0.20665 0.62593 -1.11563 -0.50973 0.50072 -0.19157 -0.22276 0.27787 -0.05123 -0.39994 -0.47685 0.28311 0.24118 0.67727 -0.04849 -0.62739 0.05768 -0.05144 0.2851 0.30434 0.02313 0.27652 0.07657 0.20396 -0.24908 0.04003 0.94548 -0.44985 -0.64145 0.11787 0.0815 -0.45404 0.67649 -0.20983 -0.63847 -0.20834 -0.63001 0.7474 -0.32079 0.7422 0.10873 0.47016 -0.09642 0.25245 -0.0704 -0.04578 0.1072 0.134 -0.58903 0.21046 0.13597 0.24992 -0.21059 -0.61629 0.29394 -0.05647 0.06668 0.75576 0.07219 0.51153 -0.30156 -0.34442 0.01276 -0.53583 1.03605 -0.01542 -0.33524 0.19614 -0.73116 0.26105 -0.34781 0.29861 -0.43918 -0.87226 0.38832 -0.94201 -0.66454 -0.41006 -0.0476 -0.24008 0.2006 -1.02198 -0.01259 -0.28291 -0.43724 -0.07858 0.7965 0.2312 -0.22512 -0.64723
bef 0.26307 -0.62553 0.24767 -0.32636 -0.19468 -0.11234 0.62664 -0.31663 -0.61585 0.07456 0.20231 0.73222 -1.17224 -0.38455 0.52061 -0.25175 -0.1719 0.2841 -0.26205 -0.59722 -0.32269 0.12782 0.34491 0.68952 0.08638 -0.8253 0.21109 -0.00054 0.33512 0.40048 -0.03103 0.12215 0.09002 0.30329 -0.25206 0.14517 0.94987 -0.54164 -0.7141 0.00883 0.08582 -0.60975 0.51153 -0.31344 -0.53486 -0.16396 -0.8575 0.81481 -0.29459 1.00757 0.37192 0.6448 -0.29589 0.21341 -0.13473 0.14439 0.33433 0.28917 -0.45027 0.33101 0.04199 0.17087 -0.15994 -0.47967 0.16041 -0.03254 -0.00607 0.8701 0.0297 0.50534 -0.30848 -0.66456 -0.07618 -0.61533 1.20774 0.06239 -0.33359 0.15906 -1.05222 0.06795 -0.30949 0.34019 -0.35163 -0.97373 0.36955 -0.98463 -0.77454 -0.57266 0.16097 -0.1981 0.67751 -1.25134 0.07098 -0.2935 -0.61661 -0.00953 0.93849 0.25901 -0.38563 -0.6425
bel -0.02446 -0.28797 0.91922 3.72218 0.12133 4.53109 0.74211 0.43229 -0.48354 1.49086 -0.90814 -2.59556 3.8212 0.71885 -2.0533 3.57372 -1.82854 1.8675 0.88009 3.89136 -0.3158 1.78157 -0.24574 1.77635 -2.80446 0.72928 -0.62974 0.466 1.08205 -1.00166 -0.14108 -0.14151 -6.54454 -3.73846 1.98696 -2.14181 3.23512 -1.76946 1.19812 2.4881 -0.95232 1.67319 1.55372 -1.14491 -2.49314 2.10922 2.45603 2.67914 2.86048 -1.36049 0.54591 -1.71089 1.42598 -3.63812 0.15259 -1.11862 -1.83709 1.20747 3.8413 1.28323 1.87805 -2.09476 0.54044 3.51368 -0.32207 -3.93578 1.20738 1.85792 0.96198 -3.03456 0.07195 2.73406 1.78863 1.23559 2.34475 -0.55465 1.75725 -0.51892 4.172 2.30882 1.46289 -3.11607 0.42255 0.83031 1.85916 0.82197 -0.05562 -1.04976 -3.06767 2.58308 -1.39581 -1.37271 2.88236 1.00209 -1.5192 1.12255 -0.88953 3.71591 -4.91344 3.96917
bem -1.81931 1.11913 0.50128 -0.03228 0.69695 -0.47499 0.10849 -0.32252 -0.61579 0.40174 -0.83469 -0.29294 0.23178 0.48805 0.53608 -1.17002 -1.38756 0.01264 0.17657 0.42809 0.21619 0.61872 -1.48975 -0.47088 -0.436 1.15256 0.17529 0.65547 0.66483 0.16527 0.53827 0.67948 -0.07158 0.10981 -1.00969 0.0841 -1.32587 0.38644 -1.13104 1.32074 -0.54667 1.15466 0.84573 -0.6163 -1.66847 0.65932 1.58106 -0.57331 0.07546 -0.72531 -0.33743 -1.80073 1.55285 0.48637 0.65342 0.91981 -0.93643 -1.37397 -0.42471 -0.93859 0.09406 -0.01632 0.6204 -1.56038 -2.03485 -0.89663 1.92713 -0.50566 1.46721 -0.50854 0.04878 1.39215 -0.00556 -0.47013 1.17898 -0.78702 -0.91824 -1.06051 1.1422 0.86078 -2.36313 -2.1454 -1.78785 -0.08886 -1.01163 0.28837 0.87489 1.03517 -0.84108 0.18178 -0.66597 1.34373 -0.72994 0.56834 -1.1745 -0.64461 0.06365 -1.45381 0.0486 0.67145
ben -0.48647 1.00045 -0.38673 0.45328 1.20112 0.13508 1.12356 -0.18732 0.25746 -0.19309 -0.01862 1.88931 -1.75135 0.46684 -0.09801 1.28714 -0.58527 -0.9857 -0.49455 -0.61294 -0.75542 -0.62886 1.42459 0.93187 0.064 -0.13646 -0.4909 -0.39089 -0.05933 -0.76027 0.08919 0.55084 -0.6247 -0.91962 -0.71218 -0.09489 0.7153 0.37815 -0.29213 0.36941 0.06949 -0.83512 1.75331 -0.05263 -0.76009 0.0291 0.77834 1.1105 0.75493 0.65691 -1.03033 1.82766 -0.85507 0.98036 1.32524 -1.03454 -0.68641 -0.68104 -0.30018 0.25846 -0.09741 1.09663 0.54767 -0.83788 1.44757 -1.43999 -0.50451 2.03195 0.05497 1.02334 -1.50713 -1.05125 0.54713 0.27478 1.30867 -0.12908 -0.32567 0.83007 0.50389 1.18474 0.94376 0.35537 -0.52634 -0.02415 1.40292 -0.19062 -0.8805 -0.08148 -0.23352 -0.03865 2.09174 -0.41391 -0.36634 -1.23638 0.69727 0.99 0.91276 1.98097 1.13996 -0.80866
beq -1.77526 1.07039 0.52971 0.05548 0.71667 -0.47603 0.03719 -0.25849 -0.62689 0.4644 -0.73032 -0.23844 0.16519 0.3654 0.55876 -1.16168 -1.3422 0.05412 0.19045 0.4158 0.20312 0.60101 -1.43417 -0.49419 -0.43479 1.03595 0.19318 0.63216 0.68028 0.13522 0.55303 0.73464 -0.11647 0.10475 -0.97785 0.01838 -1.24596 0.41812 -1.1145 1.23576 -0.55139 1.16615 0.87527 -0.63239 -1.52475 0.60208 1.57167 -0.51967 0.05148 -0.74115 -0.31937 -1.75223 1.49224 0.43351 0.61274 0.79587 -0.92398 -1.31532 -0.39128 -0.88369 0.13569 0.0714 0.58103 -1.57733 -1.93646 -0.86248 1.85594 -0.5353 1.47469 -0.48576 -0.01859 1.31545 -0.03992 -0.55751 1.13254 -0.77601 -0.92771 -0.94343 1.04725 0.90085 -2.26548 -2.06023 -1.76365 -0.16806 -0.99506 0.19797 0.78445 0.94998 -0.85045 0.18885 -0.57429 1.23952 -0.6108 0.48278 -1.07443 -0.62795 0.06125 -1.21021 0.0398 0.57468
bex 0.18982 -0.36924 0.14365 -0.11045 -0.13733 -0.0867 0.42525 -0.24777 -0.51018 -0.02964 0.1992 0.66459 -1.13958 -0.48749 0.5015 -0.1821 -0.23643 0.25423 -0.08785 -0.42722 -0.46969 0.25718 0.27904 0.68598 -0.05716 -0.63166 0.04632 -0.04173 0.28073 0.28079 0.0123 0.29934 0.05903 0.1845 -0.25103 0.03849 0.94282 -0.43134 -0.64056 0.10919 0.08255 -0.45976 0.71963 -0.22802 -0.62678 -0.20254 -0.62593 0.74127 -0.33246 0.75855 0.09359 0.50656 -0.11186 0.30014 -0.07377 -0.07145 0.1201 0.12814 -0.57114 0.23031 0.14251 0.25146 -0.18407 -0.63821 0.30767 -0.09958 0.06012 0.76707 0.06802 0.51683 -0.32374 -0.35492 0.02484 -0.54542 1.09137 -0.00873 -0.3473 0.2126 -0.73643 0.28279 -0.31456 0.32738 -0.45683 -0.88102 0.41184 -0.93744 -0.69648 -0.40026 -0.07093 -0.2083 0.20801 -1.06352 -0.01797 -0.30914 -0.44061 -0.04325 0.81825 0.27328 -0.19973 -0.67488
bfd -0.2671 -0.06782 0.12323 -0.07347 0.05964 -0.26619 0.2902 -0.23197 -0.68286 -0.10164 0.12985 0.37847 -1.13795 -0.61027 0.62448 -0.47985 -0.44313 0.21682 0.26133 -0.19294 -0.52092 0.39377 0.21775 0.65834 -0.04469 -0.40513 -0.08873 0.12723 0.29431 0.16838 0.12122 0.29661 -0.00193 0.20394 -0.5842 0.30892 0.50624 -0.28409 -0.96346 0.30467 0.0352 -0.29771 0.93795 -0.21427 -0.59784 0.01922 -0.21671 0.52635 -0.45158 0.30025 -0.20802 0.01727 0.52834 0.72772 0.09487 -0.00199 -0.11285 -0.24001 -0.5477 0.05787 0.30781 0.45783 0.02903 -1.00861 0.04119 -0.31638 0.44965 0.51232 0.50977 0.47928 -0.29712 0.1043 0.15978 -0.61201 1.09656 -0.30784 -0.58448 -0.06589 -0.27133 0.5868 -0.58697 -0.34156 -0.92047 -0.97702 -0.02686 -0.71545 -0.55767 -0.08674 -0.30799 -0.03449 -0.00217 -0.65044 -0.22153 -0.47999 -0.56639 -0.02656 0.85848 0.03556 -0.10533 -0.47581
bgz -0.18572 1.06125 0.57004 -0.03473 0.60354 0.37738 -0.24574 -0.40403 0.3588 0.88853 0.99196 0.93815 1.021 1.30499 0.57152 0.44827 1.21655 -1.06568 -0.38214 -1.0248 0.71117 0.08897 -0.82696 -1.89076 -1.24593 0.89049 0.43627 -0.16689 -0.63825 -0.9658 0.29598 -0.21019 0.30093 -0.60974 1.49311 0.54434 0.1943 0.64288 0.00298 -0.61121 0.83174 -0.45562 -1.07619 0.00168 -0.10271 0.06259 0.83204 -1.36547 1.47528 -0.28377 -0.42704 0.2653 -1.3636 0.64684 0.25337 -0.39252 -1.22008 -0.57012 0.99273 -0.46394 0.1372 -0.42383 0.02575 0.67493 -1.08183 -0.51949 -0.21053 -0.38124 -0.19261 0.12718 0.10821 -0.29114 0.64184 -0.37418 -0.8199 -0.23034 0.73313 -0.90536 -0.21394 -1.10539 0.25623 1.79447 0.22423 1.69296 -0.76054 0.60584 0.38749 1.20462 0.81446 -1.11468 0.27029 2.21474 -0.36524 0.9059 0.00879 0.54687 -0.9025 -0.23774 -0.91812 -0.96498
bhl 0.46635 -0.41541 0.04976 -0.08474 -0.12091 -0.07874 0.38021 -0.27655 -0.35473 0.1172 0.16608 0.49722 -0.94793 -0.42576 0.52213 -0.02215 -0.06354 0.17499 0.0177 -0.31648 -0.30363 0.1801 0.18885 0.63996 -0.03804 -0.7362 0.15276 -0.1156 0.28062 0.34146 0.02101 0.13257 0.13122 0.1873 -0.23728 -0.0077 1.08959 -0.36448 -0.46069 0.18464 0.11332 -0.59349 0.28348 -0.07215 -0.70944 -0.11936 -0.74504 0.78932 -0.14688 0.8019 0.21432 0.33929 -0.35335 0.14075 0.0221 0.00404 0.04487 0.26997 -0.56767 0.22665 0.03639 0.21774 -0.36873 -0.45325 0.30094 0.29707 0.02914 0.86063 -0.14084 0.38089 -0.11232 -0.38532 -0.27025 -0.43004 0.47739 0.06723 -0.17016 -0.08494 -0.59564 0.07334 -0.26601 0.22993 -0.25784 -0.78012 0.52382 -1.03495 -0.51893 -0.42794 0.12333 -0.53709 0.50888 -0.84264 -0.00099 -0.20007 -0.34292 -0.25383 0.6482 0.17308 -0.40926 -0.49447
bhp -0.04046 0.83258 0.48454 0.08299 0.4999 0.30087 -0.18899 -0.41367 0.16739 0.89854 0.8592 0.74381 1.05926 1.39327 0.63791 0.20002 1.3184 -0.97136 -0.25198 -0.91136 0.76558 0.20299 -0.59606 -1.82305 -1.36366 0.834 0.67038 -0.00474 -0.52608 -0.99937 0.29539 -0.19966 0.49699 -0.7533 1.49059 0.52102 0.23994 0.48324 0.08545 -0.71799 0.8334 -0.52555 -0.98218 0.07445 -0.19897 0.12364 0.51796 -1.43077 1.46233 -0.34777 -0.48119 0.23534 -1.33952 0.25657 0.36678 -0.5285 -1.2349 -0.34557 0.98253 -0.38039 0.11768 -0.53414 0.06602 0.74112 -1.12263 -0.42936 -0.10266 -0.42964 -0.26691 0.04873 -0.01273 -0.35851 0.61948 -0.13218 -0.99352 -0.08801 0.84322 -0.96895 -0.15874 -1.16375 0.30831 1.81268 0.21522 1.27158 -0.68035 0.60097 0.35136 1.12668 0.8261 -1.18019 0.2784 2.06545 -0.19748 0.87423 -0.10884 0.41146 -0.74688 -0.36875 -0.74319 -0.88566
bib -0.03016 -0.08165 -0.14478 -0.02079 0.15019 -0.18388 0.17059 -0.26915 -0.70576 -0.06007 0.20314 0.29232 -1.09875 -0.67169 0.61634 -0.27192 -0.20017 0.23735 0.40985 -0.09028 -0.61399 0.29264 0.2496 0.7223 0.10025 -0.4594 -0.07907 0.19181 0.27829 0.18502 0.07956 0.104 0.05382 0.15401 -0.62739 0.39889 0.57267 -0.32719 -1.01609 0.27354 0.03439 -0.38309 0.84381 0.05374 -0.45433 0.12552 -0.21925 0.56965 -0.6078 0.17856 -0.34748 0.02698 0.56594 0.70647 0.1009 -0.00907 -0.10418 -0.15796 -0.44394 0.00246 0.22605 0.57416 -0.21066 -0.97893 0.27737 -0.18586 0.33913 0.54275 0.48459 0.51612 -0.21591 0.1572 0.12483 -0.66255 0.81598 -0.39601 -0.5462 -0.2371 -0.15944 0.5675 -0.58289 -0.36517 -0.91917 -0.90997 0.0567 -0.81848 -0.48271 -0.06527 -0.2997 -0.03226 0.11362 -0.48156 -0.1308 -0.61904 -0.38165 -0.03892 0.85086 0.01642 -0.15099 -0.46639
bis 2.96479 0.21147 -1.89414 0.95439 0.33552 -0.49204 -2.35668 -2.09122 -1.25215 0.31983 0.8851 0.33851 -1.91932 -0.67996 -1.0066 0.77235 -0.02896 2.57771 1.85702 0.75761 -0.35838 1.91046 0.19778 2.5155 -0.07342 -1.63402 0.08529 0.99779 1.13961 0.7131 -0.01254 -0.2758 0.10188 0.89234 0.91234 0.92926 -1.45854 0.65541 1.23767 -1.59155 0.41346 2.0186 1.54154 -0.70276 0.8317 0.6803 -1.20256 -1.72896 -3.79519 0.89071 -2.00476 2.37474 0.55569 1.43172 2.04307 -2.02746 -0.70533 -0.10774 2.36757 1.03216 -1.6574 1.04456 -0.22929 2.0524 0.25925 -2.13664 -0.5701 2.99488 0.4539 0.21296 0.01235 2.61646 0.90606 0.54445 -1.37557 2.04736 -1.36841 -0.44539 -1.35553 0.61821 0.44713 -1.51938 0.16445 2.55011 -1.76286 1.5917 0.8176 -0.68067 0.40418 0.27874 0.83677 -0.29294 1.06439 2.40361 0.95005 -2.05221 2.18556 0.64819 -2.06561 1.85949
biv -0.181 -0.0518 -0.086 -0.15734 0.05368 -0.24123 0.39747 -0.26648 -0.7363 0.02015 0.13957 0.17496 -0.89832 -0.51769 0.5529 -0.50199 -0.29424 0.17457 0.37948 -0.23355 -0.38279 0.24528 0.03886 0.67402 0.28545 -0.53184 -0.02299 0.15671 0.36033 0.16955 0.08831 -0.02807 -0.15974 0.4103 -0.64988 0.29434 0.49712 -0.26658 -0.885 0.26999 -0.11117 -0.30856 0.86798 -0.0959 -0.66504 0.26733 -0.45709 0.59625 -0.5848 0.1185 -0.19838 -0.10132 0.49283 0.65807 0.08204 0.1749 0.11308 -0.22675 -0.4483 0.14481 0.19935 0.34761 -0.15671 -0.74797 -0.04123 -0.10318 0.36749 0.62598 0.5751 0.48117 -0.28378 0.12408 -0.01226 -0.53083 0.77548 -0.27192 -0.53342 -0.28191 -0.22887 0.55257 -0.70496 -0.5496 -0.87602 -1.08067 -0.1285 -0.7077 -0.34667 -0.25195 -0.04302 -0.21185 0.16788 -0.36691 -0.19628 -0.37769 -0.57895 -0.23162 0.60867 -0.13713 -0.30829 -0.36986
bjr 0.26562 -0.60655 0.21708 -0.29757 -0.15709 -0.14058 0.58494 -0.30654 -0.61408 0.05725 0.18535 0.66618 -1.1766 -0.39752 0.54958 -0.24257 -0.19728 0.26902 -0.18439 -0.53247 -0.33506 0.11819 0.34328 0.68584 0.06787 -0.8201 0.19121 -0.00962 0.32653 0.38932 -0.00025 0.11701 0.07638 0.29018 -0.28939 0.16867 0.91504 -0.50737 -0.7268 0.04686 0.07347 -0.59347 0.52723 -0.26925 -0.53547 -0.13643 -0.80337 0.80234 -0.3002 0.93592 0.32084 0.57467 -0.23508 0.26054 -0.08839 0.11673 0.2737 0.24058 -0.46671 0.30591 0.08401 0.21901 -0.14816 -0.52778 0.16198 -0.02128 0.01187 0.87976 0.02702 0.49461 -0.2833 -0.5846 -0.09377 -0.60662 1.12297 0.02829 -0.33435 0.10975 -0.9173 0.10036 -0.31355 0.29201 -0.37736 -0.95532 0.36301 -0.976 -0.75261 -0.54088 0.13122 -0.2414 0.64152 -1.20544 0.04514 -0.32196 -0.56318 -0.01495 0.90996 0.24717 -0.37317 -0.60535
bkd -0.38904 1.30007 0.86964 -0.1037 0.74826 0.70065 -0.43709 -0.37564 0.49337 0.95938 1.41744 1.43611 1.09979 1.19288 0.42143 0.89767 1.29737 -1.15524 -0.42994 -1.31154 0.87781 0.02737 -0.90149 -2.13664 -1.456 1.06271 0.68114 -0.23901 -0.79141 -1.1918 0.14785 -0.27573 0.21775 -0.78101 1.20409 0.39124 0.16958 1.09004 0.23532 -0.71047 0.90053 -0.73327 -1.27144 0.04983 0.28146 -0.04575 0.84471 -1.47475 1.64188 -0.19334 -0.2823 0.46755 -1.34934 1.3342 0.37341 -0.66608 -1.31741 -0.72289 1.00752 -0.42807 0.12602 -0.41122 -0.09266 0.89406 -1.22668 -0.62066 -0.54189 -0.44074 0.51981 0.01008 0.50482 -0.17464 0.59314 -0.53006 -0.88524 -0.53217 0.52019 -0.75844 -0.36718 -1.07004 0.3843 1.7411 0.25634 2.27848 -0.9803 0.5675 0.72808 1.44281 0.8863 -0.71266 0.17192 2.30306 -0.68008 0.85278 0.06676 0.79745 -1.11561 -0.05316 -1.29814 -0.93635
bkq 0.46325 -0.44328 0.21447 -0.07098 -0.05265 -0.01122 0.48087 -0.37011 -0.5025 0.0215 0.16198 0.7908 -1.13426 -0.35436 0.56684 -0.05795 -0.25065 0.4469 -0.20959 -0.45248 -0.31624 0.05846 0.35851 0.60957 -0.21961 -0.82249 0.01649 -0.10042 0.22806 0.38225 -0.00493 0.31021 0.1343 -0.05442 -0.20934 -0.04512 1.00605 -0.37626 -0.46355 0.21385 0.10969 -0.70917 0.45477 -0.09802 -0.54402 -0.2089 -0.62728 0.80465 -0.17153 1.11311 0.21432 0.69877 -0.52501 0.09179 0.18013 -0.16717 -0.03924 0.24815 -0.70422 0.30914 -0.04032 0.33696 -0.26194 -0.66335 0.50336 0.16746 -0.01624 1.09373 -1.23253 0.43489 -0.22818 -0.84491 -0.36246 -0.53793 0.89294 0.13357 -0.24583 0.05454 -0.57602 0.12956 -0.10722 0.88883 -0.37588 -0.78048 0.83559 -1.01567 -0.83006 -0.37129 0.11312 -0.47316 1.54261 -1.19004 0.02251 -0.4849 -0.20587 -0.04156 0.81914 0.48413 -0.2557 -0.61201
bkv -0.21488 -0.10375 0.10642 -0.08647 0.04773 -0.26464 0.31774 -0.22302 -0.66686 -0.08411 0.13158 0.41067 -1.14338 -0.58819 0.62894 -0.41832 -0.38937 0.20631 0.21148 -0.23175 -0.49892 0.3581 0.23995 0.67972 -0.02898 -0.44894 -0.05585 0.10112 0.30328 0.19403 0.12806 0.27015 -0.00682 0.21339 -0.56518 0.29052 0.57937 -0.3029 -0.92593 0.29669 0.03439 -0.31403 0.90645 -0.21047 -0.59206 0.0051 -0.27755 0.56841 -0.44315 0.35937 -0.16719 0.05965 0.45692 0.68486 0.0753 0.02335 -0.07404 -0.19217 -0.54779 0.07966 0.27903 0.4465 -0.01172 -0.94632 0.08628 -0.28387 0.39179 0.56008 0.48204 0.48722 -0.29213 0.03864 0.14739 -0.61075 1.11787 -0.27869 -0.55145 -0.04862 -0.34351 0.55465 -0.56738 -0.29451 -0.86549 -0.97016 0.01271 -0.77374 -0.57194 -0.14972 -0.27099 -0.0406 0.09012 -0.7247 -0.19783 -0.46248 -0.54364 -0.04209 0.86512 0.0676 -0.12835 -0.4905
blw -0.40002 1.2795 0.85251 -0.09976 0.71355 0.65783 -0.44569 -0.3828 0.52344 0.94404 1.35113 1.2219 1.04449 1.11038 0.3776 0.83467 1.21661 -1.16094 -0.46662 -1.3042 0.8205 0.07243 -0.95609 -1.99411 -1.3739 1.02748 0.70699 -0.26494 -0.79076 -1.15776 0.18409 -0.21741 0.09738 -0.672 1.17445 0.41911 0.18422 0.88986 0.1728 -0.6686 0.91849 -0.608 -1.19732 0.04574 0.23929 -0.11341 0.86563 -1.40679 1.58948 -0.16184 -0.25449 0.38483 -1.29606 0.92375 0.29091 -0.57508 -1.29412 -0.7424 0.95807 -0.37991 0.13973 -0.3981 -0.11029 0.82619 -1.17551 -0.60586 -0.60259 -0.4214 0.03369 0.03898 0.50704 -0.13475 0.57485 -0.47798 -0.80345 -0.54762 0.49003 -0.76743 -0.37597 -1.02233 0.35616 1.70859 0.24548 1.91084 -1.06681 0.53127 0.63064 1.3905 0.79543 -0.75794 0.12797 2.29241 -0.70128 0.78861 0.09497 0.84212 -1.0858 0.03449 -1.22601 -0.95426
bmh 0.32776 -0.20464 0.08523 0.0108 -0.00357 -0.05175 0.4125 -0.25389 -0.48671 0.0552 0.0951 0.71252 -0.98995 -0.27576 0.546 -0.13846 -0.19403 0.15256 -0.12534 -0.5609 -0.30647 0.0934 0.13099 0.70428 -0.11008 -0.68633 0.00534 -0.04004 0.31065 0.33601 0.05063 0.24119 0.00778 0.13789 -0.33764 -0.03858 1.11704 -0.29581 -0.38945 0.30406 0.01237 -0.49458 0.43933 -0.17838 -0.69262 -0.04526 -0.69684 0.81052 -0.37674 0.91005 0.10521 0.52072 -0.26677 0.06995 0.10499 -0.04381 0.06455 0.1848 -0.52738 0.36543 0.06836 0.21784 -0.34469 -0.58698 0.31137 -0.0661 0.05265 0.96839 -0.11087 0.45003 -0.34055 -0.40832 -0.24801 -0.56592 0.77845 0.06931 -0.27681 0.12151 -0.62972 0.32611 -0.31688 0.2542 -0.55307 -0.89568 0.62992 -1.08489 -0.66542 -0.4477 0.0097 -0.43382 1.01425 -0.94605 -0.04877 -0.31075 -0.26957 -0.20131 0.69472 0.41623 -0.40819 -0.59054
bmq -0.02357 -0.10112 -0.05987 -0.04372 0.104 -0.19371 0.23958 -0.26873 -0.67867 -0.05138 0.18353 0.33678 -1.08188 -0.61676 0.5951 -0.29865 -0.25485 0.21441 0.32792 -0.15917 -0.54773 0.29127 0.2302 0.70323 0.07823 -0.47431 -0.06851 0.15513 0.28567 0.17747 0.07854 0.14342 0.01215 0.18492 -0.58558 0.32803 0.60334 -0.30733 -0.94028 0.26317 0.02517 -0.37484 0.84939 -0.04093 -0.52017 0.0976 -0.28802 0.57943 -0.54969 0.25386 -0.26725 0.06747 0.46029 0.67475 0.0871 -0.00076 -0.05906 -0.15077 -0.47216 0.05406 0.22056 0.49896 -0.15984 -0.91972 0.21024 -0.18057 0.33111 0.58224 0.44285 0.50286 -0.24375 0.08734 0.09727 -0.62004 0.88018 -0.32111 -0.52775 -0.18143 -0.22552 0.54833 -0.55693 -0.29252 -0.86457 -0.93471 0.09773 -0.79954 -0.49605 -0.11439 -0.24833 -0.07901 0.14261 -0.55257 -0.14827 -0.54196 -0.43524 -0.06647 0.81438 0.04204 -0.15792 -0.47964
bmr 0.39393 -0.4931 0.12555 -0.08548 -0.10212 -0.06311 0.43537 -0.28376 -0.40194 -0.02714 0.23105 0.7791 -1.15921 -0.43115 0.50007 -0.14652 -0.2023 0.29571 -0.14702 -0.45905 -0.44965 0.18509 0.40547 0.70877 -0.10969 -0.65278 0.08844 -0.07957 0.25809 0.32423 0.03237 0.32067 0.07871 0.12868 -0.17264 7e-05 1.12172 -0.48643 -0.52791 0.05344 0.11878 -0.59924 0.62288 -0.20808 -0.61168 -0.28175 -0.68829 0.77946 -0.21797 0.87913 0.21495 0.67417 -0.26416 0.25088 -0.05612 -0.13755 0.14795 0.26834 -0.61194 0.23908 0.04234 0.25038 -0.25458 -0.57668 0.41242 0.00866 -0.0215 0.93299 -0.12621 0.47537 -0.28961 -0.56572 -0.05719 -0.48119 1.06249 0.09252 -0.25165 0.13916 -0.76373 0.16967 -0.21086 0.58213 -0.32021 -0.83012 0.55642 -0.9788 -0.68215 -0.41378 -0.05827 -0.31588 0.47082 -1.11745 0.00014 -0.30971 -0.3939 -0.06313 0.84157 0.37622 -0.15649 -0.75093
bmu 0.41766 -0.48733 0.03569 -0.07973 -0.06016 -0.11705 0.33568 -0.30667 -0.44726 0.19316 0.19642 0.47433 -1.0236 -0.386 0.53926 0.10992 -0.02529 0.18964 0.05991 -0.27937 -0.17517 0.13955 0.31206 0.60631 -0.02833 -0.7241 0.17873 -0.06912 0.23072 0.32384 0.04189 -0.02297 0.16102 0.06437 -0.26376 0.10286 1.02732 -0.35131 -0.51033 0.22578 0.18532 -0.68299 0.14897 0.03431 -0.53848 -0.1316 -0.66075 0.77296 -0.07006 0.80261 0.28483 0.35432 -0.3154 0.22545 0.19129 0.11436 -0.05068 0.27105 -0.49626 0.18598 -0.0315 0.34906 -0.3376 -0.51361 0.30581 0.48618 -0.01902 0.9913 -0.21153 0.33562 -0.01062 -0.54559 -0.25773 -0.45809 0.38242 0.0704 -0.17083 -0.29331 -0.51861 -0.0102 -0.24075 0.13435 -0.31358 -0.70086 0.51659 -0.91802 -0.53664 -0.35771 0.23356 -0.5697 0.84582 -0.83123 -0.03325 -0.32679 -0.33265 -0.26473 0.67108 0.14995 -0.39672 -0.49623
bnp 0.00963 0.80459 0.429 0.09799 0.48456 0.25808 -0.14664 -0.42574 0.15003 0.88743 0.78001 0.66589 1.04992 1.42937 0.65622 0.10882 1.32873 -0.94599 -0.25133 -0.85912 0.74272 0.21839 -0.57314 -1.81806 -1.329 0.79446 0.65693 0.01848 -0.51821 -0.97378 0.3245 -0.20666 0.52076 -0.73535 1.55214 0.51842 0.22605 0.39514 0.05673 -0.71196 0.83793 -0.48393 -0.93939 0.06724 -0.26608 0.14617 0.50945 -1.4165 1.43098 -0.37124 -0.49976 0.21193 -1.3454 0.16106 0.35292 -0.50044 -1.21457 -0.32915 0.9946 -0.38342 0.11689 -0.53598 0.09072 0.71879 -1.11928 -0.42093 -0.03715 -0.4147 -0.38717 0.03935 -0.09838 -0.36722 0.63237 -0.11531 -0.99186 -0.02908 0.87152 -0.99918 -0.12938 -1.16829 0.27973 1.81694 0.20261 1.18559 -0.6388 0.61914 0.30639 1.08239 0.82047 -1.25385 0.2953 2.06177 -0.13619 0.89291 -0.11753 0.36946 -0.72087 -0.40864 -0.67659 -0.86858
boa 0.35896 -0.54161 0.12647 -0.0935 -0.11465 -0.04377 0.43944 -0.25738 -0.4009 -0.03641 0.23421 0.81562 -1.17013 -0.43987 0.49391 -0.1265 -0.22235 0.28617 -0.18681 -0.47565 -0.43675 0.18327 0.41156 0.7245 -0.11269 -0.66191 0.08219 -0.08944 0.26141 0.33345 0.01653 0.33504 0.08511 0.11145 -0.15962 -0.00225 1.14912 -0.49653 -0.52981 0.04733 0.10299 -0.59108 0.65918 -0.23446 -0.61002 -0.29616 -0.70697 0.80322 -0.22681 0.91136 0.2276 0.7193 -0.26708 0.25587 -0.06616 -0.1576 0.16464 0.26931 -0.5913 0.26394 0.05582 0.22931 -0.26035 -0.57534 0.42878 -0.00083 -0.02892 0.91969 -0.1414 0.49496 -0.30933 -0.56274 -0.04173 -0.50601 1.12698 0.09485 -0.25727 0.18641 -0.8174 0.16829 -0.18343 0.60387 -0.33611 -0.8502 0.58304 -0.99866 -0.73281 -0.44021 -0.07568 -0.27481 0.38346 -1.20508 0.0091 -0.32362 -0.40189 -0.03788 0.84268 0.44424 -0.15544 -0.78183
boj 0.312 -0.23436 0.081 0.00316 0.00555 -0.05802 0.39392 -0.23353 -0.50573 0.0386 0.11795 0.71473 -1.02941 -0.28013 0.55214 -0.13596 -0.21651 0.16753 -0.10237 -0.55048 -0.31135 0.08627 0.16336 0.69265 -0.11087 -0.68024 0.01398 -0.05289 0.2955 0.33294 0.06923 0.23537 -0.00034 0.12654 -0.32677 -0.00023 1.08994 -0.31634 -0.43283 0.28516 0.01139 -0.48881 0.47999 -0.16256 -0.65287 -0.06057 -0.67023 0.80129 -0.3803 0.87756 0.10678 0.53602 -0.24574 0.10165 0.12438 -0.05063 0.04385 0.16853 -0.51869 0.34537 0.09575 0.24221 -0.32209 -0.61271 0.31325 -0.08756 0.0298 0.98243 -0.09221 0.46108 -0.358 -0.41398 -0.20436 -0.57598 0.82002 0.05667 -0.27649 0.13878 -0.60731 0.31269 -0.31193 0.26291 -0.54594 -0.86812 0.60635 -1.04142 -0.68732 -0.45191 0.00676 -0.42429 0.92334 -0.96614 -0.06024 -0.33943 -0.24904 -0.16741 0.69311 0.41575 -0.37932 -0.60251
bom -0.21878 -0.12509 0.08963 -0.10437 0.03866 -0.25341 0.34815 -0.23925 -0.69474 -0.06031 0.12964 0.39649 -1.10238 -0.56828 0.61704 -0.44034 -0.38141 0.20069 0.20427 -0.25508 -0.46798 0.32074 0.21171 0.67861 0.01767 -0.49067 -0.0466 0.11852 0.31503 0.19909 0.10929 0.21288 -0.01874 0.23701 -0.5736 0.28771 0.58472 -0.30449 -0.9204 0.28338 0.00453 -0.32364 0.87717 -0.20942 -0.59621 0.04524 -0.3264 0.58484 -0.48221 0.37008 -0.14235 0.06921 0.44557 0.66536 0.07321 0.04697 -0.02572 -0.17964 -0.51506 0.10826 0.25944 0.41712 -0.04082 -0.90862 0.0534 -0.23252 0.37938 0.58024 0.4606 0.48714 -0.28861 0.02787 0.09566 -0.61506 1.09853 -0.26579 -0.54699 -0.08201 -0.36304 0.53616 -0.5752 -0.29221 -0.86269 -1.00168 0.0099 -0.77936 -0.56201 -0.17746 -0.22191 -0.06567 0.09942 -0.72638 -0.18173 -0.45893 -0.5564 -0.0661 0.83137 0.06535 -0.17885 -0.48239
bon 0.32705 -0.48891 0.0718 -0.0577 -0.0484 -0.10758 0.42697 -0.2725 -0.4664 0.01605 0.15177 0.76785 -1.14297 -0.36448 0.53137 -0.10751 -0.23687 0.21555 -0.15679 -0.46559 -0.3372 0.08951 0.39961 0.73495 -0.10032 -0.69006 0.08608 -0.06459 0.27605 0.29016 0.05379 0.30551 0.02255 0.13015 -0.24442 -0.01187 1.11106 -0.42193 -0.48105 0.11594 0.0794 -0.54118 0.62668 -0.22144 -0.61127 -0.20597 -0.6954 0.78909 -0.26443 0.85983 0.19874 0.62139 -0.21701 0.30672 -0.00362 -0.10086 0.14474 0.24817 -0.55809 0.29553 0.07066 0.24335 -0.22287 -0.60763 0.34825 -0.0003 -0.01148 0.95031 -0.13847 0.4368 -0.2901 -0.5311 -0.09975 -0.5143 1.09118 0.08353 -0.25504 0.07657 -0.72082 0.20559 -0.22852 0.47957 -0.41141 -0.86163 0.57252 -1.00494 -0.682 -0.44101 -0.08212 -0.30436 0.68585 -1.14016 -0.03381 -0.31503 -0.35952 -0.07784 0.79357 0.43051 -0.219 -0.76161
bpr -0.24194 1.08796 0.67986 -0.02602 0.61924 0.48877 -0.32794 -0.398 0.34345 0.92721 1.17644 1.08847 1.07839 1.27463 0.53757 0.61145 1.26722 -1.0822 -0.34994 -1.11245 0.81066 0.09694 -0.77826 -1.9638 -1.38741 0.96394 0.65686 -0.14256 -0.65798 -1.08132 0.21945 -0.22016 0.33888 -0.74683 1.37141 0.51131 0.20697 0.84186 0.13871 -0.70537 0.85688 -0.59411 -1.15162 0.0574 0.04841 0.02261 0.72058 -1.45464 1.55794 -0.27792 -0.3875 0.31485 -1.35035 0.73736 0.35029 -0.55572 -1.28652 -0.55542 0.99741 -0.41465 0.12714 -0.46308 -0.01575 0.8009 -1.15116 -0.52835 -0.333 -0.44302 0.08949 0.07161 0.28127 -0.26843 0.61752 -0.33746 -0.91979 -0.31658 0.6922 -0.87065 -0.26247 -1.12807 0.34268 1.80202 0.24736 1.75338 -0.8274 0.59293 0.51801 1.29172 0.83992 -0.95663 0.20927 2.18793 -0.45325 0.86382 0.0007 0.61905 -0.93729 -0.21219 -1.04799 -0.93916
