1664	100
aai-x-bible 0.0958468 0.13509074 -0.31644294 -0.30027035 0.32826662 -0.03357994 -0.08986397 0.26617423 -0.60684955 -0.7876055 -0.19454156 0.3572517 -0.2787129 -0.36610577 0.06414011 -0.01428324 -0.12202637 -0.6294339 -0.18758611 0.4981991 0.07155196 0.11975146 -0.18813017 -0.03282726 -0.28444448 -0.27905214 -0.06103361 -0.11274586 -0.35539687 0.31040987 0.24327646 0.2213905 -0.3453671 0.00717435 0.1596999 -0.07268839 -0.21151143 0.6056375 0.06694058 -0.25144994 -0.08829613 -0.06388546 0.26447064 0.17026532 0.23846935 0.3960185 -0.18195939 -0.1524491 -0.14784175 -0.3421444 -0.12895581 0.6557692 -0.3236592 0.14793612 -0.11872562 0.16984944 -0.18642412 -0.4338658 -0.08507304 -0.30820337 0.03859995 0.4617457 0.21735436 -0.5250466 -0.3369383 -0.25070596 -0.03252497 0.29434985 0.14105622 -0.19368747 -0.26085582 -0.21863165 -0.12549482 -0.08204082 0.2645937 0.2364232 -0.01524752 0.36850098 0.05994444 0.07407428 -0.15411915 0.15908763 -0.09989291 0.10776176 0.18934293 -0.22710158 0.02250198 -0.31244406 0.05500376 -0.04619994 -0.13233857 -0.05316507 -0.6890092 -0.40343618 -0.13741933 -0.20925051 0.494019 0.84211874 0.13280916 -0.1712173
aak-x-bible -0.3316304 -0.13456826 0.1279506 0.37209353 0.36858016 -0.15435219 0.31238267 0.07978109 0.14842795 0.1662285 0.49990657 -0.01276044 -0.23725803 0.34039965 -0.07096334 0.45802173 0.5132565 -0.4716624 0.07217953 -0.5194114 0.4683784 -0.18334602 -0.5892231 0.3597168 0.02166647 -0.6380793 -0.14022316 -0.07253021 -0.61598957 -0.17457344 0.16210315 -0.50576735 -0.31057826 -0.02785282 0.03425997 0.05929792 -0.22294894 0.3353205 -0.09447239 -0.10998777 -0.25693694 -0.09125058 -0.23563835 0.51630443 0.40759587 0.68302685 -0.33987004 -0.24532788 0.21616608 0.8412843 -0.17168406 -0.2623299 0.57733536 0.12113952 0.11002122 0.3763841 0.2622872 0.2559047 0.34919798 -0.37138972 -0.36365393 -0.02647336 0.4981799 -0.07737358 0.5514893 0.21837078 0.04614045 0.23606269 -0.13965575 0.09965 0.5022391 0.42237756 -0.30333924 -0.38039413 -0.41973245 -0.18824638 -0.2732252 0.25186297 -0.23107065 -0.8370885 0.22809233 1.0192069 0.78893507 0.04309976 -0.19453874 0.35016057 -0.2712373 -0.17187963 0.09761293 -0.13022856 -0.5241361 -0.26340014 -0.06469703 0.38652483 0.7788449 -0.27042526 -0.3728559 0.2184711 -0.08155613 0.35742563
aau-x-bible -0.0843609 -0.11583294 0.03425394 0.4512447 0.3888549 -0.20075491 0.2757772 -0.15094899 -0.24884602 -0.46393275 -0.01474502 -0.23442136 0.13985524 0.4303911 -0.36805442 -0.27489704 0.68729866 0.4466765 -0.76992166 0.14808716 -0.04692814 0.0060288 0.17862685 -0.32140523 0.27342504 0.15143912 -0.1581212 0.22222112 -0.1796018 0.34627873 0.36733297 0.2599249 -0.7426586 0.6063554 0.22790904 -0.63535374 0.07824913 0.26642147 0.34686306 -0.1734014 -0.01853326 0.34320587 -0.74168235 -0.09850734 -0.06054107 -0.03624478 0.18334794 0.33958387 -0.19978939 -0.5565558 -0.90843296 0.09702817 0.04546151 0.3360829 -0.25623134 0.18501315 0.12797807 0.24549766 0.4137188 -0.10059469 0.22498772 0.18938074 -0.05470232 -0.7535316 0.23183572 -0.39988205 -0.40559214 0.22132482 -0.17244981 0.0720698 -0.5990081 0.18465878 0.2089591 -0.07779966 -0.5065129 -0.07569404 0.22472778 -0.05566626 0.14501637 -0.20729348 -0.05492175 0.24141027 -0.24525248 0.67005444 -0.67229605 0.6440753 0.02811965 -0.05313407 -0.25406882 0.23189554 -0.64217424 0.40387613 -0.4296884 -0.05121235 0.3096037 -0.45113507 0.5288414 0.06708165 0.00385137 0.17862734
aaz-x-bible 0.17361918 0.28231058 0.31248954 0.01357182 0.42362025 -0.54333603 0.0703295 0.50355625 0.0468352 -0.4832205 0.17412224 -0.04485688 -0.17212391 -0.4992239 0.37302864 0.42240238 0.17523092 -0.0963257 -0.24700473 0.06659527 -0.12164811 -0.13140044 -0.24418427 -0.39579234 0.56837773 -0.4370589 -0.20162456 -0.21864371 0.28113273 -0.03460295 0.23606683 -0.2514997 -0.17668414 0.01073672 -0.09041911 -0.17098334 0.14563604 0.0087883 -0.02584191 0.2699364 -0.23030674 0.10694695 0.32254177 -0.02795326 0.4285234 -0.10815933 0.17386244 0.29139835 -0.01433446 -0.1522086 0.05099056 0.21496552 0.05945782 0.2720273 -0.2428005 -0.14663199 0.19525227 -0.2218373 0.16722204 0.22169457 0.15817949 -0.06806833 0.5512338 -0.12351939 0.08132339 -0.19726115 -0.02168903 0.11248545 -0.07906586 0.1241194 0.24251491 0.34891307 -0.4900027 0.34008676 -0.06143885 0.17702076 -0.18298337 0.29247785 -0.18985565 0.0695072 0.07276845 0.05775086 -0.21622173 -0.43748924 -0.36142874 0.16257335 0.07634737 0.04822417 0.154945 0.19601543 0.11421684 0.16893741 -0.0789476 0.04468032 -0.00274166 0.10956817 0.14360319 0.28154954 -0.38831085 -0.32019883
abt-x-bible-maprik -3.51995498e-01 2.28818431e-02 -9.98727679e-02 2.22890586e-01 7.65336072e-03 2.64979243e-01 -6.41029552e-02 -8.02693218e-02 -5.58723062e-02 3.84875894e-01 2.22656652e-01 -4.68432039e-01 -6.05647126e-03 -1.30581990e-01 -4.30551805e-02 2.05149531e-01 -3.98624778e-01 -5.71120009e-02 5.86797856e-02 1.77750453e-01 -2.29402781e-01 3.10269058e-01 4.19643968e-01 -3.03343564e-01 -6.45740032e-02 -3.15260649e-01 -3.25157881e-01 4.45172697e-01 -8.34284276e-02 -3.19422066e-01 1.92482203e-01 -1.45400554e-01 3.28028560e-01 1.56814441e-01 -8.07253271e-02 6.98110238e-02 1.06171153e-01 3.82373214e-01 2.45314330e-01 -1.82254940e-01 1.56099141e-01 -9.00466833e-03 -1.51464492e-01 -2.00861946e-01 3.20838779e-01 1.09360799e-01 1.18726697e-02 5.01799643e-01 -9.84022841e-02 1.52835414e-01 2.50566393e-01 -4.65766996e-01 -3.36361289e-01 5.35233498e-01 -4.55941081e-01 8.34783837e-02 -4.49753225e-01 1.63376093e-01 -7.68443346e-01 -4.38925445e-01 2.36834809e-01 -3.79434317e-01 1.51244938e-01 7.70707190e-01 -4.92506355e-01 -3.15697521e-01 2.38535032e-01 5.59838653e-01 -1.14816979e-01 -1.54146448e-01 -3.87807935e-01 -2.20176414e-01 6.45641536e-02 1.57089811e-02 3.38725567e-01 -8.49429742e-02 3.17482054e-01 -2.51823157e-01 -1.21013902e-01 6.86059566e-03 -7.09472671e-02 1.21892765e-01 -2.52390802e-01 3.04439008e-01 -1.16274707e-01 -1.49309352e-01 -7.10876659e-04 -3.09341550e-01 -3.70281674e-02 -3.73986542e-01 -6.19202144e-02 3.43689211e-02 -3.74045759e-01 -1.89300343e-01 -1.66909650e-01 1.47243038e-01 6.15222715e-02 -1.25701159e-01 2.23708346e-01 2.26873025e-01
abt-x-bible-wosera -0.32367477 0.00162501 -0.16639763 0.27001408 -0.08767441 0.26726705 0.01467736 -0.03730777 0.21858123 0.04372904 0.22976261 -0.5459736 -0.07578755 0.01023573 0.0567952 0.28810078 -0.68876004 0.22012629 0.19971934 0.12970975 -0.3925255 0.33450994 0.3164452 -0.20881015 -0.25979728 -0.18083636 -0.34077945 0.7016429 -0.11222638 -0.17792174 0.05216862 -0.19618514 0.04433873 0.07291116 -0.0048261 0.2148929 0.00214884 0.12074211 0.2617741 0.09867658 0.07846919 0.02244452 0.02760495 -0.05577011 0.36252615 0.06817195 -0.00821869 0.14686495 -0.14194833 0.3456547 0.20666456 -0.375826 -0.6166387 0.5523771 -0.320634 0.11521804 -0.20047215 0.17330597 -0.46050233 -0.58615863 0.24108334 -0.25347355 0.24185096 0.73214984 -0.34328791 -0.1190927 -0.26371196 0.44109035 -0.18050931 -0.0714702 -0.22981812 -0.26813838 -0.14706996 -0.10724486 0.39813477 0.02018119 0.20144412 -0.20374432 -0.2213325 0.02312982 -0.1953896 -0.08192653 -0.18068874 0.24893369 -0.34354582 -0.36343703 -0.09210078 -0.52667487 0.08697934 -0.3174116 -0.02169494 0.11081326 -0.29714158 -0.2529835 -0.04311933 0.07576887 0.08267408 -0.1988905 0.46380535 0.06405379
abx-x-bible 0.396235 0.3620384 0.0903388 -0.21964426 -0.11348939 -0.12949303 0.10914797 -0.2004089 -0.11632648 -0.27778992 0.1362218 -0.07579055 0.32401818 0.03880863 0.26672578 -0.16482164 0.01698814 0.17193696 -0.05125914 0.02627296 0.56158346 -0.39232668 0.07363039 -0.11159693 0.06432986 0.11166815 -0.32569256 -0.22242047 0.2659345 0.22045854 -0.16820918 -0.06164922 -0.23160467 0.02663083 0.21463642 -0.23286624 -0.21908139 -0.00623477 0.15393619 -0.12139214 0.18121825 -0.19333602 -0.1734164 0.05443211 0.05636941 -0.03841873 0.16268346 -0.3046864 -0.08887523 -0.21306716 -0.20053676 0.3954555 0.23572662 0.13885221 -0.18275885 0.2726133 0.41161194 -0.37854415 -0.27036023 0.01570584 0.19662537 -0.04812218 -0.28183487 0.19721624 -0.2300954 0.0210878 -0.04812227 -0.24981993 0.27242574 -0.52254766 0.03890748 -0.06765854 -0.09747269 0.12405872 0.19263533 -0.08041727 -0.37937015 0.4453429 0.00259213 -0.20862098 0.11208226 0.15248694 0.13069443 0.26092976 -0.35922858 0.05080866 0.3242886 0.35629505 -0.49686366 0.24977025 -0.04805062 0.39928 -0.16679184 0.09706228 0.03826258 -0.19724287 0.06214761 0.12838204 0.4426199 0.38421434
aby-x-bible 0.38310447 -0.08920215 -0.42361164 0.25056556 0.29550177 0.07767478 -0.42111546 0.44890776 0.02041843 0.26967826 -0.09445486 0.08594364 0.07946695 0.41938123 0.33310866 0.4990605 0.43676546 -0.09718005 0.21832225 -0.10505433 0.01194141 0.4910647 -0.08866282 0.20547616 -0.3861335 0.3778413 -0.18223774 -0.04098479 -0.01801529 -0.07482778 0.32735613 -0.18483384 -0.15604427 -0.06167184 -0.47083294 0.0128751 0.12081125 -0.17621557 0.64486605 -0.1590876 0.18821003 -0.37253356 0.26309916 0.23616609 0.47141364 0.22482255 -0.12072517 0.02840302 0.58860147 0.23114486 0.25401494 -0.24191204 0.41736996 0.11574138 0.08093219 0.15307063 -0.06086208 0.24480939 0.19576089 -0.56267345 -0.04308425 0.01234866 -0.10584139 -0.14704157 0.00967584 0.2202369 -0.25120145 0.4337942 0.3348031 0.23230177 -0.14932466 -0.03926027 -0.37509468 -0.48736522 -0.20406653 -0.495913 -0.2625009 -0.29716864 0.4535214 -0.01563747 0.21667568 0.4497055 0.18363874 -0.08340525 -0.17514272 0.39465448 -0.36409703 -0.7259927 -0.04105543 -0.4526137 0.28344315 -0.05337794 0.03599543 -0.6298538 -0.1860604 -0.21105532 0.5350566 -0.09272221 0.4106803 0.38629174
acc-x-bible-cubulcu 0.14207745 -0.29904166 0.25652015 0.08981693 -0.08670757 0.1842199 0.22323586 -0.08399574 0.4368988 -0.06929076 -0.01091058 0.2110345 0.09425098 0.3356302 0.00117157 0.16155072 0.0756271 -0.17270225 -0.02206709 0.1636026 -0.31287557 0.2735602 0.06288993 0.34812325 -0.04823244 -0.1819161 -0.04281078 -0.18581626 0.2505886 -0.24766552 -0.06024733 -0.14381608 -0.1230493 -0.06458706 0.02143457 0.43490556 -0.49447423 0.14837609 -0.17217332 0.323469 -0.21001281 -0.08476235 0.1064332 0.08293101 -0.31671503 0.1629712 -0.08053987 0.42911765 0.1771456 0.03512512 0.23482269 -0.10519271 0.10057356 0.6002394 0.23950297 -0.29246438 0.27044353 -0.02985277 0.2064584 0.00164667 -0.13620594 -0.04440114 0.04441165 -0.01777218 -0.18586944 0.29971725 0.272145 -0.17067719 -0.1596437 -0.22794214 -0.12097155 -0.42362076 -0.17337278 -0.1950703 -0.19746341 0.08924168 0.1675754 0.14033517 0.09685293 0.04599834 -0.12820423 -0.08731432 0.00380033 0.21047506 0.0654139 0.3461829 -0.19598204 -0.05445339 0.34737197 0.08976222 -0.49672338 0.2305322 -0.05136441 0.21193388 -0.08631481 -0.14426273 -0.3535473 0.3474279 0.00467749 -0.16077851
acd-x-bible 0.23961383 -0.4788098 0.05097195 0.58104616 -0.34568104 0.13030052 0.20293172 0.26066905 0.24450219 0.29875937 0.12062519 0.20230629 -0.42423248 -0.05047499 0.50666505 0.02046576 -0.24442738 0.4176396 0.22221394 -0.15719306 -0.4720961 -0.07335661 -0.17177242 -0.14354992 0.2047084 0.14672165 0.65620357 0.25859427 0.09841023 -0.2873832 0.17621045 -0.14293627 -0.00908364 0.32047224 0.38845387 0.8076632 0.33541954 -0.07072889 -0.3979567 -0.10107241 0.16249861 -0.0453947 0.13336352 -0.30843896 0.03425035 -0.16174738 -0.01624718 0.6124061 -0.19955842 -0.2699743 0.23428813 -0.41306055 -0.03348281 -0.34204903 0.09756431 0.16758576 -0.47497237 -0.28739592 0.25340182 -0.2408622 -0.5430828 0.03235319 -0.01207017 -0.9018377 -0.3122495 -0.2782449 -0.17077395 0.08684663 -0.34887025 -0.27362204 0.22232665 -0.2757729 0.15353268 -0.4020211 0.04300575 -0.11498875 0.36136794 -0.47641182 0.67108285 -0.20363386 -0.41397506 -0.21353602 -0.2753744 -0.29572523 -0.18272048 0.694152 0.38174635 -0.1931537 -0.08752976 -0.4069897 -0.2780319 0.4393776 0.18531154 0.4257617 -0.21914744 -0.08064879 -0.03692247 -0.185009 0.32808715 0.39143813
ace-x-bible -7.05310464e-01 1.51747763e-01 -5.30198850e-02 -8.91175941e-02 1.86694801e-01 2.66193658e-01 -1.93597287e-01 9.02041569e-02 -7.95397907e-02 -1.06908202e-01 -6.75050914e-02 -4.47421558e-02 9.07724723e-02 -8.58257189e-02 2.78738320e-01 -2.01946393e-01 1.93653584e-01 -1.63322389e-01 2.77636170e-01 -2.81648695e-01 1.34940490e-01 9.76709053e-02 -1.75261691e-01 1.23003582e-02 1.87365592e-01 -3.98494989e-01 -4.60775465e-01 8.35788772e-02 1.95477590e-01 1.34871647e-01 1.15505457e-01 4.88134958e-02 2.10773066e-01 8.11936259e-01 1.79561183e-01 -1.21014506e-01 1.70897489e-04 -2.44703099e-01 -8.23140368e-02 5.94334379e-02 2.50536501e-01 -1.09508388e-01 -5.32089323e-02 -6.49324432e-02 -3.02163541e-01 -1.26230717e-01 -2.55506430e-02 5.96005656e-02 6.65736437e-01 -7.66540408e-01 -9.46134925e-02 -5.74995391e-02 -1.92252949e-01 3.24984133e-01 -1.47141963e-01 -6.80393934e-01 -2.78217256e-01 -1.34659275e-01 -3.12768251e-01 3.31831843e-01 2.37472117e-01 2.29227602e-01 3.52981716e-01 4.06974733e-01 -4.23364908e-01 -8.91333744e-02 -5.23710728e-01 -2.55132645e-01 -3.38534623e-01 -9.95124280e-02 -3.90533805e-02 1.54158026e-01 3.98642153e-01 4.23966646e-01 1.79317355e-01 1.81186616e-01 -6.28891541e-03 -2.50234127e-01 2.59933174e-01 -2.92079151e-01 2.49705166e-01 -5.84284663e-02 3.11319947e-01 -1.49964184e-01 1.92377999e-01 -2.28416678e-02 -1.74822599e-01 4.48273182e-01 3.00964832e-01 -4.29395139e-01 4.01726723e-01 4.72105712e-01 2.89774716e-01 9.58205312e-02 1.96503565e-01 -2.59552330e-01 -4.04199213e-01 1.08227573e-01 -4.31693421e-04 3.12279850e-01
acf-x-bible 0.06028377 -0.30621687 -0.5671956 0.5071473 0.08038533 0.1800323 0.40916982 0.01081462 -0.6601588 0.02630358 0.18672362 -0.07530089 0.07272596 0.20753741 0.21147309 -0.38777035 -0.13248785 0.05501376 -0.3994879 0.2137416 0.1500325 0.5256614 -0.1376471 0.17722404 0.5156141 -0.06301419 -0.4959381 -0.08450669 0.1436119 0.25174904 0.29953784 -0.13494994 0.1053687 -0.35629892 -0.22374018 -0.07745978 -0.42630407 0.18944669 -0.25891516 0.13289878 -0.05866203 -0.08515149 0.09594361 0.10695917 -0.15785567 -0.40501872 0.1672448 0.21318491 -0.11043636 0.014094 -0.38227588 0.04799806 0.00553703 -0.2126257 0.40118697 -0.44904208 -0.35832885 -0.17202182 -0.08982258 -0.06304915 0.03072494 -0.20807375 0.12044663 0.08338614 -0.05578247 0.2621853 -0.25562665 -0.06110836 -0.04501432 -0.43256673 -0.21551336 0.45272064 0.24809702 -0.36239785 -0.5817636 -0.32448885 -0.10960179 0.04733084 -0.11855911 0.1404591 -0.10108769 -0.2389581 -0.47465798 0.05492213 -0.13580222 -0.0446502 -0.14607236 0.11113983 0.00610776 0.25426167 -0.11918291 0.2793814 -0.05336257 0.36298075 0.38569856 0.16507617 0.01152937 0.08210483 -0.41569957 -0.20459817
ach-x-bible -0.14263241 0.10010134 -0.13413787 0.24559583 -0.16550489 -0.21775499 0.6200254 -0.02818843 0.07171933 0.04746765 -0.04343804 0.27090436 -0.31255376 0.00902715 -0.63424516 -0.4650131 0.14772375 -0.32165524 -0.48066515 0.04595873 0.12876947 -0.04215528 0.1743836 0.20679355 -0.12752086 -0.1436686 -0.4440641 0.34929922 0.38935915 -0.05108011 -0.43193772 -0.25216433 0.17569734 0.08224721 0.36645612 0.25854006 0.0217045 -0.28765747 0.00158727 -0.47266462 0.3936766 0.43003064 -0.43237132 -0.18306223 0.00154937 -0.07094123 -0.31282866 0.16086218 -0.33134925 -0.08038573 0.4529137 0.04675156 -0.07835288 0.18596594 -0.14262469 0.00706501 0.14586224 -0.21262483 0.12685768 -0.46150362 -0.13520971 -0.42428142 0.08806314 -0.03857697 -0.11583213 0.24072398 -0.1288022 0.1853383 0.12647265 0.03841082 -0.06275527 0.15707962 0.20627481 -0.03366641 0.21456319 0.28687358 0.13316993 0.10690957 -0.09242141 0.05875037 0.00848 0.00482574 0.4097754 -0.04899477 0.15526226 0.5370653 -0.2023505 -0.40540886 0.07332557 -0.01420391 -0.22537777 0.10495403 0.40598935 -0.04309019 -0.38466844 0.16733818 0.14605188 0.30319566 -0.16010398 -0.2465963
acn-x-bible -0.30205286 0.01857774 0.05294661 0.5609363 0.15811613 -0.9555999 -0.32456723 0.17531331 0.6382891 0.13386123 0.03373854 0.1002461 0.19472258 0.43956724 -0.02180412 0.07709309 0.01673389 0.4040849 -0.13813755 0.08794425 -0.15841267 0.20965311 0.03838392 0.42914116 0.9862243 -0.21472158 0.2319842 0.32042098 0.77246624 -0.04477509 0.00293734 0.4525611 0.39724845 -0.20840558 0.0344857 -0.34560093 -0.15726312 -0.04437833 0.21555494 0.19943346 -0.14805032 -0.13423492 0.29771882 -0.53207666 0.73320395 -0.39236975 -0.16496958 0.34922823 0.32106 0.0045802 -0.29453158 -0.5474996 0.14736842 -0.24387364 0.14838661 -0.20889467 -0.12048012 -0.09112457 -0.31468946 0.66373086 0.18909992 -0.12439969 -0.07421838 -0.67424554 -0.02138207 -0.21980014 -0.0838844 0.12351162 -0.0838002 0.15012763 -0.21744834 -0.1840617 -0.09631338 0.77826124 0.7991499 0.11312589 0.2323812 0.44745058 0.49196133 -0.1885463 0.04808163 -0.13121349 -0.27638948 -0.87777364 0.14567497 -0.30330276 -0.3084953 0.35107186 0.16202906 0.58755785 -0.3412085 -0.5020548 -0.00179623 0.15019496 0.11886282 -0.5806851 -0.394426 -0.25524455 -0.5040774 0.31854734
acr-x-bible-reformed -0.13873534 -0.25412077 0.39641935 -0.34455022 -0.22128886 -0.0226438 -0.25278634 0.09495718 0.11582242 -0.07814869 0.1838059 0.06841633 0.11918528 0.08957201 -0.22275022 -0.08735176 0.00487851 -0.02356948 -0.05794483 0.22027142 -0.31534973 0.1863024 0.06685337 0.10353751 0.10296622 -0.18712975 -0.20010772 -0.10941678 0.19767404 -0.07408348 -0.3656399 0.22532208 -0.269506 0.05764418 -0.5203527 0.31120402 -0.3763349 -0.08916847 -0.19757178 0.2921985 -0.03546427 -0.08178094 -0.04841652 0.05220199 -0.31093794 0.5015589 -0.29921687 0.16868612 0.14255822 -0.08806837 0.1077644 -0.42188546 0.02587803 0.27811816 0.16641648 0.02714407 0.30058777 -0.03164156 0.0222172 0.18741836 0.04949856 -0.29243153 -0.04193126 -0.21364434 0.13037875 0.20913857 -0.0095678 -0.38329196 -0.1984115 -0.06201757 -0.29193872 -0.50347835 0.09150794 -0.17842333 -0.1847134 0.22950277 0.35580796 0.28289142 -0.2713678 0.09531754 0.1142678 -0.04718835 0.14625256 0.23753755 -0.1803177 0.4124095 -0.22541524 -0.16758163 -0.03299897 0.01452758 -0.08673665 0.09839075 0.04104231 0.14118241 0.09707478 -0.13397965 -0.12256718 0.17707612 0.11208895 0.11340117
acr-x-bible-traditional -0.2627607 -0.23324327 0.3688766 -0.3358288 -0.21103455 0.16264331 -0.13212208 0.18438126 0.2437338 -0.08460272 0.04383858 0.10735534 0.21334104 0.15728876 -0.12526351 -0.08980817 0.08991981 -0.04308473 -0.03142798 0.24798533 -0.4181915 0.16261038 0.13599478 0.06032153 0.00706872 -0.13804986 -0.12429436 0.00799573 0.21651204 -0.11261579 -0.33034837 0.09973229 -0.24853203 0.06221301 -0.5344583 0.16885024 -0.44395527 0.08356377 -0.19012842 0.40209332 -0.04683509 -0.08659159 -0.16288172 0.07305814 -0.27271247 0.48590413 -0.16072366 0.18319598 0.23721665 -0.08119877 0.18342851 -0.23609653 -0.03845071 0.2699704 0.20377465 -0.14144191 0.24411182 -0.13920593 0.14661597 0.13757731 0.06795556 -0.24962252 -0.03937019 -0.05533002 0.24920408 0.3605755 -0.00456001 -0.39004847 -0.27986658 0.02079333 0.01332936 -0.4428939 0.11358173 -0.15272363 -0.1929448 0.0402631 0.33269286 0.1609332 -0.01999743 0.04071165 -0.0258741 -0.09344846 0.07609946 0.22217152 -0.12709181 0.3509548 -0.14299753 -0.14621852 0.01275171 -0.05579645 -0.2864993 0.02222064 0.06299189 0.04862965 -0.03152112 -0.11930455 -0.05981316 0.28220487 0.06261521 0.03575289
acu-x-bible -0.0832581 0.1687891 0.33154896 -0.37047094 0.36805406 0.09509417 -0.39016345 -0.34901762 0.11350377 0.42443648 -0.02857782 -0.20168263 0.1241658 0.17290875 0.15663058 0.17409016 0.1108734 -0.50894886 -0.17619193 0.08081742 -0.5470178 -0.08015194 0.25147405 0.29980388 -0.38939795 -0.06885388 0.21431564 -0.28928575 0.34372637 -0.23412175 -0.02608651 -0.19288813 0.02080351 -0.11083751 0.15913747 0.10151123 0.08510712 -0.07127959 0.3651701 0.27130228 -0.02449073 -0.09245312 -0.14983723 0.4826751 0.32004353 -0.07450718 0.29353097 -0.35619006 0.21766923 0.01684737 -0.247755 0.12250531 -0.47758022 -0.0427695 -0.26518378 0.11984643 0.2273481 0.08625214 0.2223899 0.03836319 0.2938594 0.19567484 -0.02473439 0.06464823 -0.04918217 -0.28625855 0.14875664 0.02706145 0.2628886 0.10141163 -0.12392727 0.16335279 0.06609561 0.27883786 -0.27083042 0.12442096 -0.06430914 -0.4444451 -0.3948685 0.18651856 0.26537472 0.10357229 0.5210974 -0.06441674 -0.2763993 -0.11099924 -0.5183341 0.21603353 0.01591123 -0.43621612 -0.211981 -0.09890056 -0.2521618 -0.43352136 0.3333924 -0.02608561 -0.3911265 -0.15854016 0.37290135 -0.04537392
ade-x-bible -0.07355682 -0.2909495 -0.12410017 0.01902691 -0.0951599 0.25964186 0.13110021 -0.26892173 -0.15383661 -0.3521261 0.28867787 0.09960257 0.45102343 -0.12812573 0.32775247 0.23150994 -0.66973007 0.13070904 -0.00144764 -0.22890308 0.4668815 0.35714597 0.35640106 0.04255109 -0.6464971 -0.34818763 0.67164147 -0.28364688 -0.08088914 -0.0070035 -0.3221171 0.14380184 0.21181832 0.39353302 -0.01802923 0.53107584 -0.07405459 -0.2472972 0.13723764 -0.09361911 0.09673628 0.303713 -0.23335052 -0.32117164 0.33212999 -0.26707563 0.06299549 0.19356458 -0.34853834 -0.03763914 0.45197067 -0.53539574 0.09494472 -0.38543767 0.548452 -0.0480707 -0.3762772 0.2640604 0.0162354 0.13894372 -0.5494238 0.09374435 -0.13025722 0.13192645 -0.21099025 -0.17609069 -0.6212888 0.21171966 0.08008386 -0.31348264 -0.3205067 -0.09454624 0.0606809 0.11787863 0.08405702 0.24293537 0.19626917 -0.6895565 0.2814879 0.1407895 -0.03160084 -0.17829067 0.19996521 -0.01577029 0.2662643 0.563613 0.32825637 -0.31621316 -0.23314017 -0.29552075 0.21916623 0.07143259 0.02099738 0.24951087 -0.2628855 0.05059014 0.57375383 0.10492905 0.16904928 0.31333378
adh-x-bible -0.42962137 0.13046803 0.0679658 0.11376373 -0.29061148 -0.39595482 0.5501443 -0.26348034 -0.17752711 -0.1314955 -0.17544723 0.2447038 -0.61512786 -0.13410752 -0.04942888 -0.32604656 0.19514616 -0.48733464 -0.443096 0.32614756 0.28054753 0.10702416 0.07321614 0.01355527 -0.2056481 -0.4419683 -0.09997845 0.26298785 0.07397158 -0.08543576 -0.27334478 -0.29846555 0.15675454 -0.07168491 0.28353682 -0.21491063 -0.15331717 -0.20830977 0.23864236 -0.16531882 0.39076632 0.3150207 -0.44186056 0.21852705 -0.00722338 0.06203248 -0.17614359 0.23355481 -0.424766 -0.00764903 0.24521764 -0.27635273 -0.0195429 0.09699675 -0.19388302 0.01925315 -0.01507214 -0.13414213 0.14338137 -0.0600213 0.04063268 -0.36444724 0.00688156 0.239947 -0.12388357 0.03630249 -0.30306637 -0.01467082 -0.342447 -0.11619547 0.03698668 -0.11191696 0.17899354 -0.1583163 -0.3341452 -0.02548662 0.07165848 -0.02270142 -0.16851518 0.25265425 0.08050069 0.32491136 0.20843163 -0.03083411 -0.14128567 0.5967372 -0.23838344 -0.45580727 0.2779976 -0.11640316 -0.05652723 -0.02429929 0.18058884 -0.02175429 -0.24393389 0.09108383 0.07262261 0.21410671 0.0404838 0.0771444
adi-x-bible 4.1024148e-02 1.7748389e-01 -1.4792824e-01 1.7933986e-01 -4.1286772e-01 -4.9868107e-01 -3.5678479e-01 -7.6272391e-02 2.3992023e-01 2.8527573e-01 -5.7525557e-01 1.9127336e-01 4.4053721e-01 -1.5994018e-02 -6.1621076e-01 -3.8269743e-01 3.8904625e-01 4.5469314e-02 -1.8963112e-01 -1.5268078e-01 1.1693856e-02 -2.5640965e-01 -5.0554597e-01 -3.0156982e-01 3.0245772e-01 -2.8805164e-01 -1.4347370e-01 -9.3395106e-02 -1.2361613e-01 2.2312440e-01 1.2329017e-01 -1.1039543e-02 -1.2306149e-01 -1.1644775e-01 -4.2836837e-02 3.3441094e-01 4.6181537e-02 -8.5649341e-02 1.0794426e-01 -2.7609482e-01 2.2016069e-01 -1.3677767e-01 7.2302587e-02 -1.9406503e-01 -4.5963112e-01 -5.1762295e-01 4.8979211e-01 -1.6765499e-01 -1.5809129e-01 -2.8717002e-01 7.2016560e-02 5.9176449e-02 2.1348587e-01 -9.0573266e-02 2.8387398e-01 -1.4207375e-01 3.2350039e-01 -3.2593066e-01 -4.3739176e-01 -1.0179905e-01 -3.4173235e-01 -4.7975633e-02 -4.4871718e-01 -9.9976957e-02 -1.4468549e-01 -1.9507170e-02 -2.6542175e-01 -3.4756121e-01 -4.7925642e-01 2.5381625e-01 -3.0690596e-01 3.2285288e-01 1.2301053e-01 -2.9446214e-02 -4.2945379e-01 1.4658450e-01 -1.2579867e-01 -2.8804553e-01 8.5367158e-02 3.7105841e-04 -1.9570096e-01 4.8650745e-01 4.9395660e-01 -5.0611782e-01 -6.4354682e-01 -5.3922999e-01 -5.7841718e-01 3.4295064e-01 1.4959170e-01 -3.7351122e-01 9.3344338e-03 -5.6711668e-01 3.0857438e-01 -4.9207620e-02 -4.0246853e-01 5.7544820e-02 3.1093028e-01 4.0326366e-01 5.9274714e-02 1.1269526e-01
adj-x-bible -0.40189487 -0.58484 -0.03378375 0.44247544 -0.12325376 -0.47378913 0.22478333 0.22501673 -0.16879134 0.11783426 -0.0334995 -0.44539562 0.09611344 0.41538075 0.02381632 0.23618557 0.23926817 -0.04514051 -0.00552439 -0.55430764 -0.3826342 0.41936252 0.16352639 -0.4618685 0.49264482 -0.4998355 -0.42479515 0.7319267 0.0155486 0.13895643 -0.27020806 0.6711701 0.19357108 -0.7002384 0.1539737 0.37617123 -0.5061115 -0.22204767 -0.34485963 0.33918834 -0.72189295 -0.22102156 0.26941535 -0.8268868 0.02030556 0.09690061 0.06783041 0.21419646 -0.5310103 -0.27631265 -0.88898486 0.11034252 -0.37266427 -0.24731041 -0.08484682 -0.03858165 0.52062726 0.0010312 0.19813411 -0.6422222 -0.19286413 -0.0374606 0.24048768 -0.00165391 -0.09303844 0.37493855 -0.19806343 -0.02542643 -0.04161087 0.01251951 -0.10359589 0.45659018 -0.54977316 -0.14628528 -0.5227088 0.10536374 0.06977541 0.34584975 0.17054547 0.0799418 0.18099858 0.47389808 -0.31758556 0.35036823 0.71302956 0.59683913 -0.12947726 0.23026653 -0.21563157 0.21714118 -0.03288084 0.05673682 0.08675636 -0.38497624 -0.34114563 0.28462183 0.26693627 0.26923317 -0.5551682 0.24584445
adl-x-bible -0.06108451 0.22343393 -0.29733407 0.23909062 -0.238915 -0.36243647 -0.395605 0.15623981 0.20141776 -0.13950312 -0.3210631 -0.2005999 0.25652358 0.1377836 -0.09360158 -0.27272588 0.38424358 -0.06220469 -0.6985444 0.08256943 -0.49996212 -0.33493644 0.23196414 -0.32604128 0.056197 0.02887787 0.02035718 0.22760926 0.25034103 0.0500297 0.13990049 -0.00712374 -0.3163904 -0.2149935 -0.16751862 0.33359006 -0.09344403 -0.24506392 0.40352362 -0.46488577 0.02839273 -0.32910642 -0.02637363 -0.7087913 -0.19062506 -0.7197538 -0.07571907 -0.31504855 0.00762662 -0.21363434 0.15852085 -0.28999195 -0.15771262 0.17068943 0.38089108 -0.61291933 0.2723521 -0.15439962 -0.03904838 -0.4136108 -0.3390793 0.10551578 0.39153633 -0.24351965 0.1331931 -0.06697186 -0.1209051 0.05446195 -0.31929252 0.36734715 -0.22185859 0.21801144 -0.29065675 0.77114695 0.09676562 0.34864873 -0.29342914 -0.11891897 0.16938454 -0.09252059 -0.44805226 0.14385691 0.49475002 -0.19544482 -0.20590562 -0.03175906 0.27174783 0.48944902 -0.09771632 0.14754982 -0.10001904 -0.67947686 0.27906978 0.14513548 -0.27567253 0.295289 0.42712304 0.16560093 -0.13408956 0.22774208
aeb-x-bible 0.43362162 -0.25948375 0.22261444 -0.653104 -0.17218521 -0.05814372 0.02469966 0.00363439 -0.26384717 -0.4622698 -0.05978672 0.3260651 0.34918192 0.120575 -0.49822295 -0.2619379 -0.8309034 -0.37480757 0.1970394 -0.09409596 -0.05744469 0.60182595 -0.12775196 -0.04223096 0.6773072 -0.53477246 0.5540129 -0.71389574 0.15256703 -0.12947059 0.11902332 0.03733012 -0.5508341 0.34495255 0.09030121 -0.5603978 -0.34665972 0.12350028 0.56515783 -0.00231997 -0.54856884 0.24153265 0.28770107 -0.3867827 -0.5974763 -0.0326487 0.5330219 0.3243983 0.13370109 -0.3325897 -0.61881834 0.21389107 0.28473213 0.6029656 -0.31457293 0.39039192 0.26811436 0.11354027 -0.45003098 -0.01999254 0.15632878 -0.03319746 0.43833432 -0.83167976 0.4926727 0.05753391 -0.5765907 0.3069348 0.5096764 -0.1889964 0.0965699 -0.02693024 0.14832774 0.33356306 0.27620086 -0.29487306 -0.2594151 -0.1720682 -0.02205093 0.45765987 0.5384137 0.02970037 -0.5880092 0.84343404 -0.5930298 -0.18548916 -0.14773135 0.2140742 0.19845779 0.10115771 0.24151963 -0.10369796 0.3624005 -0.42412567 0.05624578 -0.23040031 -0.16926141 0.37828305 -0.8985035 0.22269565
aeu-x-bible -0.53155786 -0.17137767 -0.16592756 -0.2519338 -0.01820814 -1.1670333 0.18850966 -0.20702942 0.4991943 -0.43473294 -0.539958 0.76589763 0.7841031 -0.11899549 -0.4114357 0.42665166 0.15520631 0.07329941 -0.5122034 -0.41549987 -0.12272103 -0.00956285 0.13229772 0.63527626 0.89986044 0.1694776 -0.24058679 0.02493281 -0.25367764 0.02268603 0.5477882 0.29649204 0.72372085 0.29642338 -1.045961 -0.07276695 0.06262102 0.06067058 0.02393254 0.20081833 0.39064592 0.08952586 0.6342267 -0.3676668 0.15561032 -0.34915042 0.36437026 -0.3308291 0.24600655 0.388684 -0.63388747 0.5086684 -0.22455186 0.13134234 0.5299587 -0.08008105 0.25638497 0.20539199 -0.6534977 0.9401703 -0.7100959 0.45148578 -0.08369175 0.16990413 -0.6335382 -0.46800965 -0.5680903 0.8118056 0.14149341 0.04536809 -0.8735647 -0.7081499 0.12577166 -0.5428345 -0.05392688 0.41053587 -0.23414165 -0.032161 0.3055467 -0.08462475 0.40300143 -0.32970554 -0.01803522 0.33122492 0.50063044 0.30988383 -0.02820928 -0.13283755 -0.27014434 0.27635935 -0.12438837 -0.74979323 -0.33676815 0.57842404 0.54181105 -0.59838104 -0.5228697 -0.27550095 -0.3434268 -0.66554767
aey-x-bible -0.08084432 0.30322048 -0.084369 -0.34280393 0.29127952 -0.8410125 -0.34012684 -0.12249292 -0.2813895 0.290626 -0.2859079 0.62169254 -0.20125206 -0.10464174 -0.38759273 -0.24774367 -0.18954858 -0.02979724 0.30376968 0.07466321 -0.9611104 0.11616227 -0.09921541 0.29289794 0.4701448 0.41086906 0.33991975 0.5777238 -0.00117698 -0.3963133 0.10736915 -0.01148543 -0.01458411 -0.146819 -0.13190913 0.57332766 -0.27996165 -0.30839014 -0.03054257 0.4379323 -0.36799073 0.01773733 0.6163592 -0.7742333 0.07557049 0.117161 -0.2635899 -0.02757174 0.11920745 -0.33524364 0.04934676 0.33807755 0.1565261 -0.09266406 -0.49218756 -0.01570581 0.06934646 0.14685659 -0.00905181 -0.90918785 0.12933852 0.10228636 -0.08971241 -0.5010264 -0.2809171 0.23147815 -0.01205741 0.18888228 -0.24140942 0.13616651 0.27006504 -0.1086456 -0.3568167 -0.28711882 -0.33001235 0.03668587 0.08745959 -0.16998434 0.2653419 0.24253108 0.2525416 -0.03058745 0.15435019 0.87667584 0.4473305 0.2998523 -0.1996789 0.3614635 -0.25578433 -0.3972342 -0.42777097 -0.14805806 -0.40113825 0.48875335 -0.192216 -0.7949954 0.34097025 0.03229252 -0.20394298 0.03775473
afr-x-bible-1953 -0.10524329 0.05591964 -0.2941326 0.25592726 0.13008182 -0.01445857 0.2592987 0.45530427 0.22778411 -0.30211097 0.05207958 -0.25907844 0.0626867 0.36535904 0.16628475 0.08389503 0.16924435 -0.05840459 0.31559533 -0.07293164 0.1515127 0.2093593 0.1593526 -0.139699 0.1523951 -0.07854126 -0.15755051 0.27262434 0.14068553 -0.06543065 -0.1736377 0.12420608 -0.06426016 -0.19238602 -0.21086216 -0.19598183 0.15426329 0.15727538 0.09919354 0.00959592 0.1886948 0.09053949 0.09679581 0.19519381 -0.2091192 0.07343034 -0.40327013 0.02338866 -0.3367849 0.05277009 0.23325941 -0.1378709 0.01047914 -0.17161249 -0.12186119 -0.25287887 0.0550363 -0.2792681 -0.14293519 -0.05436361 -0.2199119 0.07103626 0.0338969 -0.10738843 -0.17968653 0.0044639 -0.19573635 -0.32821587 -0.2471765 -0.1164058 0.03922384 -0.25744584 -0.04075643 0.53416264 -0.11698551 -0.14906763 0.2383193 -0.07140314 0.25010848 0.2134216 0.04222172 0.19756415 -0.02185723 -0.14922737 0.1000172 0.02602847 -0.3069975 0.02975497 0.67435217 0.24978402 0.27033675 0.2749229 -0.27791557 0.00242024 0.05609968 0.23031399 -0.09586283 -0.20423363 -0.08388536 -0.24733058
afr-x-bible-1983 -0.12563442 0.02133176 -0.2845261 0.25531888 0.108653 -0.02298317 0.24088877 0.48250875 0.21649404 -0.3305332 0.03485082 -0.25131643 0.04273319 0.35860476 0.1331733 0.10486536 0.16372962 -0.06425451 0.33805957 -0.06868902 0.164697 0.19182958 0.12265989 -0.12929063 0.1831835 -0.04843484 -0.17154898 0.2835604 0.17745289 -0.13664302 -0.17757592 0.14497331 -0.05846965 -0.15206565 -0.21246403 -0.14148587 0.16199574 0.18434864 0.10957401 0.02949865 0.21592362 0.11569544 0.07872832 0.19164313 -0.23598352 0.006214 -0.41517752 0.01580475 -0.28975767 0.01877511 0.2759121 -0.106571 -0.03073752 -0.16370341 -0.09618732 -0.19073972 0.10852949 -0.26363888 -0.23036204 -0.05577799 -0.19154675 0.10993449 0.00270382 -0.11291746 -0.17777362 -0.04007223 -0.21633908 -0.36345404 -0.23292826 -0.09245179 0.01058168 -0.19700307 -0.0854404 0.53741145 -0.11407226 -0.169851 0.24665731 -0.11963157 0.2815153 0.26496366 0.08142313 0.18724337 -0.04660051 -0.13432825 0.09720036 0.03853585 -0.2663708 -0.0156815 0.6271053 0.2721079 0.27477002 0.30339193 -0.26641908 -0.00355948 0.06343833 0.18113711 -0.11937485 -0.15684253 -0.0858129 -0.18711491
afr-x-bible-boodskap -0.14682877 0.01949801 -0.26849994 0.18211707 0.11619362 -0.07284245 0.24974464 0.41998115 0.2089706 -0.26476145 0.00371475 -0.24448891 0.01513319 0.40555856 0.13914648 0.10106591 0.1451965 -0.01737708 0.2819783 -0.04451857 0.14473501 0.1703673 0.19509941 -0.13676357 0.19692881 -0.0656698 -0.17492232 0.312974 0.16528814 -0.10905553 -0.17908543 0.12628798 -0.04987952 -0.16673596 -0.2478811 -0.1717791 0.17517595 0.18307245 0.10226274 -0.03442811 0.24442282 0.13239314 0.12869008 0.17677043 -0.2583103 -0.01335567 -0.37963602 0.01294145 -0.2894718 0.03657228 0.21780354 -0.17140044 -0.04118075 -0.15463717 -0.04268792 -0.21451539 0.07481529 -0.28557545 -0.21594836 -0.06351285 -0.18864608 0.03431954 0.0094438 -0.12433309 -0.22747225 -0.01310178 -0.20900208 -0.3573633 -0.202641 -0.07579088 0.02714083 -0.20167348 -0.07353108 0.5413655 -0.10226842 -0.20400223 0.20231727 -0.08351256 0.2859963 0.24011895 0.10869022 0.15427126 -0.09104235 -0.1366682 0.13312735 0.01485332 -0.2638927 -0.00281679 0.6171497 0.24408545 0.22618581 0.2584548 -0.28444114 -0.0409559 0.06670605 0.21453924 -0.17797494 -0.18034332 -0.10342958 -0.11699344
afr-x-bible-lewende -0.10704681 0.05774805 -0.24729942 0.23774078 0.10308345 -0.01150633 0.26052284 0.4707724 0.19207048 -0.3131703 -0.00222953 -0.1926176 0.04154555 0.38669693 0.1336209 0.09294379 0.11407727 -0.06746599 0.33172575 -0.04871269 0.14542224 0.19814132 0.1373326 -0.1308448 0.18042397 -0.05542777 -0.17012466 0.3132473 0.13763542 -0.08153205 -0.18302964 0.13386908 -0.07235616 -0.12827952 -0.21669956 -0.20326994 0.22222461 0.1686004 0.10345128 -0.00822127 0.24957961 0.13990256 0.13634433 0.17016336 -0.25395155 0.05095484 -0.37957624 0.04702004 -0.33092818 0.04562217 0.23478542 -0.15054044 -0.03372565 -0.17045067 -0.10436863 -0.20711078 0.05456859 -0.26730418 -0.2121574 -0.05641926 -0.21608758 0.04889308 0.01120829 -0.13491778 -0.21741505 -0.01457193 -0.2199585 -0.33490488 -0.18077067 -0.09827057 0.01418879 -0.22931907 -0.05246858 0.48766348 -0.13288613 -0.17517467 0.20023878 -0.07408241 0.24531072 0.21731989 0.13305274 0.17411657 -0.01726522 -0.14388871 0.09919736 0.00960513 -0.2923701 0.01241354 0.59877396 0.24821445 0.28904107 0.276549 -0.28762272 -0.01667356 0.03074441 0.22854222 -0.1385374 -0.18732993 -0.10720202 -0.19041567
afr-x-bible-viralmal -0.14365007 0.0530792 -0.28267723 0.2185568 0.11146569 0.00128113 0.24089505 0.46090138 0.19741961 -0.3537948 0.0609044 -0.24934319 -0.04109526 0.34607783 0.1606477 0.09863312 0.2019654 -0.0203096 0.24187765 -0.03841725 0.17273112 0.25222513 0.14964591 -0.13099477 0.21899006 -0.059132 -0.17086191 0.31380066 0.167482 -0.1058047 -0.22802441 0.12558211 -0.06436356 -0.1426226 -0.2084902 -0.14279242 0.1914761 0.21667829 0.14805664 0.0176163 0.18956862 0.0395583 0.10913859 0.18262516 -0.22963868 -0.00071302 -0.39575168 0.02503015 -0.32079777 0.02803361 0.22598645 -0.15471384 -0.0189858 -0.13135885 -0.07329658 -0.2246478 0.07193497 -0.20555644 -0.25498435 -0.08504739 -0.17894657 0.11407243 0.03319483 -0.09527463 -0.19801457 -0.04531516 -0.19011396 -0.36147568 -0.16462782 -0.07249531 0.02279188 -0.19290952 -0.0890455 0.56657284 -0.10710298 -0.14926888 0.26964495 -0.12124963 0.29883337 0.24451025 0.09271809 0.14188984 -0.05728993 -0.16437754 0.11214442 0.03124777 -0.31642 -0.0172221 0.64015347 0.2878523 0.25371873 0.26524273 -0.2982453 -0.04738403 0.08573803 0.2791518 -0.19511244 -0.19411723 -0.10458407 -0.15498556
agd-x-bible -0.2839132 -0.11110471 -0.4695377 -0.12213621 0.13405064 0.20974042 0.13550892 0.4000409 -0.13244419 -0.45109022 0.28332427 0.32536936 0.20353562 0.10431299 0.4590541 0.09435454 0.11739932 0.09284382 0.27171743 0.45421037 -0.32338345 -0.51799554 -0.6215186 0.1748437 0.07718703 0.0457096 0.19586283 -0.05973769 -0.63310856 -0.09096265 -0.28253776 0.31958205 0.35387865 0.8212776 0.5763958 0.07510936 0.02722296 0.40178084 0.09711331 0.20827748 -0.12293683 -0.14741392 0.5594991 0.46411943 0.32926062 0.23452295 -0.39998636 -0.23353156 0.07979054 0.3463179 0.10292279 0.39086527 0.32251614 0.0896731 -0.22711655 0.53671825 0.18424241 0.18702507 -0.03941449 0.09033476 -0.14547239 0.09567176 -0.13759142 0.20226628 -0.08833665 0.0983512 -0.8071399 -0.23622216 -0.34204787 0.14845619 0.30244502 -0.41012436 -0.7049109 0.21912836 0.14079364 0.57645273 -0.73445076 -0.08835214 0.02727591 -0.02417491 0.19456258 0.3144084 -0.15726875 -0.03093073 -0.4812126 0.15098129 -0.18220454 -0.25002018 -0.2659588 -0.47128275 0.20201145 -0.5505146 -0.24384467 0.4588644 0.02991604 -0.18635686 0.88098353 -0.1743221 0.03757326 -0.05212499
agg-x-bible -0.536951 -0.47697183 -0.36522177 -0.0440473 -0.03548943 0.12287384 0.59821683 0.17602807 0.18048736 -0.32862502 0.21313955 -0.1255654 0.11641902 -0.5361384 0.49998084 0.46782437 -0.22179337 -0.03991726 0.01870672 0.55654323 0.16424268 0.27203804 -0.33762226 -0.08260258 -0.22133063 -0.20095679 0.62186867 0.42770156 -0.4294626 0.444037 0.61469585 -0.07937571 0.27061206 0.5175049 0.31862113 0.02253967 0.53603506 0.16086501 0.0045285 0.3359735 -0.07141244 -0.09649575 0.1226127 0.36195028 -0.46850017 0.85671544 0.01646967 -0.59705186 -0.4583366 0.18772376 -0.7774987 -0.07290772 0.6249858 -0.0949422 0.14361869 -0.13640775 0.22145465 -0.5158253 0.33026913 0.32013473 0.5100079 -0.24196693 0.2415419 -0.31579566 -0.12703459 -0.73921216 -0.9134112 0.06565471 -0.11201374 -0.22551297 0.19868264 0.3069628 -0.4748015 -0.32347193 -0.31111723 -0.04695877 0.31134358 0.43642002 0.44085938 -0.30822977 -0.27778992 0.09340482 0.14997305 -0.38862288 -0.37520617 -0.06035366 -0.14571787 -0.2253709 0.1147828 -0.3235724 0.01401181 -0.62989986 -0.5879885 0.10432403 0.26663917 -0.0212055 0.02821714 0.44577774 0.5354752 -0.07570096
agm-x-bible -0.8999087 -0.6062596 0.26730692 0.10547182 0.63601977 0.14410828 0.6489428 -0.04747289 -0.10709156 0.04931096 -0.03692985 -0.56650966 -0.43410352 -0.13539939 0.45193088 0.06660008 -0.37749597 0.25191638 -0.28843457 -0.2652774 0.40410995 0.1387017 -1.2416654 -0.43227184 -0.39275467 -0.15345524 0.04355422 -0.5864313 0.264388 0.15287356 0.19764093 -0.5010247 0.07395223 -0.6059953 0.49112457 0.08404589 -0.04518102 -0.12451228 0.17810966 -0.27885553 -0.11055008 -0.20410918 -0.30212554 0.34050202 0.23882085 0.14391524 -0.13896282 -0.21767749 0.23386781 0.25247183 -0.05683755 0.23630843 0.3266054 -0.05863301 0.14352494 0.3520001 -0.4163775 0.00242277 -0.04680836 0.10618971 0.18932003 0.1678151 0.2075568 0.13347104 -0.236791 -0.5806613 -0.40101814 -0.21530868 0.48485205 -0.07438873 0.4379606 0.15909211 -0.09565085 -0.19688208 1.0820684 -0.45635092 -0.3634755 -0.45994273 -0.05846653 -0.35422486 0.39281347 0.43108353 0.2831447 -0.42224517 0.09585097 -0.43357432 -0.45444468 0.08484801 -0.20804253 -0.13151608 0.08770944 0.11272766 0.01156339 -0.07184986 0.6604113 -0.39649415 -0.3393524 0.7551226 -0.46643892 -0.21008055
agn-x-bible -0.11994638 -0.00564153 -0.0306431 -0.06020189 -0.06381368 0.2997008 0.21728787 -0.08919245 0.3633586 0.11506552 0.2861431 -0.07432093 -0.06788434 0.03803289 0.346724 -0.21119305 -0.05273861 0.1822662 0.24882393 -0.11070882 0.21188949 -0.25791574 -0.28453085 -0.11846793 0.14944074 0.33301625 -0.3284476 -0.2086167 -0.0591073 0.19615282 -0.1875374 -0.24081844 0.17769676 0.14814617 -0.19390237 0.26844138 -0.11564533 0.06620027 -0.3122093 -0.30091354 -0.1306391 0.04104232 0.14616418 -0.03541779 -0.13025928 0.07719512 0.08828203 -0.3948675 -0.10587222 -0.40281782 0.13663784 0.22038667 0.07256051 0.20301785 -0.4221451 0.27402318 0.27291438 -0.08095445 0.03343461 -0.04942743 0.31921953 0.16280852 -0.44416055 0.03744707 -0.0758006 -0.11079793 0.2960784 -0.27881506 -0.14491646 -0.15545839 -0.11458027 -0.09352438 -0.05652589 0.28837386 -0.31134707 0.05305856 -0.17807165 0.28559017 0.26880652 0.22258845 0.2367553 0.22739221 -0.15966715 -0.23911162 -0.00898678 -0.20227228 0.18449149 0.06943835 0.18321136 -0.05605669 -0.24257328 0.21823253 -0.29241416 0.34604326 0.03030875 -0.24300359 0.04687333 -0.03081284 0.04253867 0.2005331
agr-x-bible 0.20076406 0.62290347 0.07039449 -0.47256595 0.4612651 0.06332305 -0.49224693 -0.11636189 0.20708385 0.41767496 -0.15371451 -0.30770692 0.02079808 0.09665621 0.1698583 0.27583677 0.06933426 -0.40252653 -0.31182495 -0.06902494 -0.44297615 0.29268837 0.32123175 0.15340884 -0.38980985 0.13155079 0.0255139 -0.15156952 0.51583856 0.00581542 -0.13279977 -0.30275974 -0.03091756 -0.26489282 0.13848278 -0.12418762 -0.05666802 -0.2231778 0.5288105 0.35129032 -0.1328609 -0.2541442 0.21332823 0.50891 0.4249168 -0.01856061 0.5391663 -0.43396562 0.29171813 -0.07286289 -0.2474198 -0.05346438 -0.5265746 0.08718026 -0.09734809 0.10952208 0.25467727 -0.00266343 0.19288994 -0.11883954 0.17446703 -0.08585924 0.14202711 -0.04489251 -0.17474005 -0.2522951 0.04699512 0.0688032 0.14006606 0.43655193 -0.08086741 -0.05421825 0.12047318 0.43734232 -0.29325908 0.03505499 -0.06445795 -0.276462 -0.20709974 0.18677013 0.26338235 -0.06738377 0.32726568 0.21639493 -0.10864992 -0.07015555 -0.4616534 0.39000368 0.12800767 -0.41463572 -0.3026685 -0.37833846 -0.21462668 -0.35560524 -0.05127669 0.09002404 -0.4098265 -0.20080926 0.311569 -0.00867431
agt-x-bible 1.61020935e-01 1.01607926e-01 -1.16154276e-01 2.00280305e-02 3.82257230e-03 7.03361154e-01 -2.91196734e-01 -2.35711381e-01 2.01367289e-01 8.57426226e-02 -9.30487141e-02 2.76528269e-01 -6.36442751e-02 -2.85233498e-01 3.80860955e-01 9.42146331e-02 -2.01951548e-01 -1.98615622e-02 2.89247632e-02 6.27572313e-02 3.17133851e-02 2.33869180e-01 1.38556650e-02 7.71396980e-02 4.44182903e-01 -2.72472799e-02 -4.16522652e-01 -5.37510335e-01 2.17160672e-01 -1.44720986e-01 -1.69697702e-01 -2.44122490e-01 7.34377801e-02 3.72683220e-02 1.98318765e-01 -1.01340845e-01 1.58501208e-01 5.33227250e-02 6.77540451e-02 -2.31237393e-02 2.07620702e-04 1.36615381e-01 6.51751533e-02 -6.74364388e-01 -7.81583339e-02 -3.06146979e-01 -9.58668664e-02 3.83570120e-02 4.66596968e-02 -1.82713628e-01 2.45748565e-01 5.14433384e-01 -3.68124872e-01 1.33255690e-01 -2.60919034e-01 4.28279966e-01 2.43318886e-01 -5.29013164e-02 -1.25219017e-01 -2.15525225e-01 -1.43650293e-01 -1.33064285e-01 -1.92925304e-01 2.10100427e-01 3.19339991e-01 -1.35013372e-01 -1.60406068e-01 2.09258050e-02 -8.95108506e-02 -1.09901726e-01 -3.98679793e-01 1.60236552e-01 2.41314277e-01 2.07389921e-01 -1.62527531e-01 3.06983501e-01 2.31123879e-04 1.24047421e-01 6.27627373e-02 -3.22558999e-01 5.17312028e-02 1.83610767e-01 9.55917537e-02 1.50326356e-01 5.98070361e-02 -9.77417976e-02 1.62157148e-01 -1.06950112e-01 -1.95293516e-01 3.81085314e-02 -1.23654746e-01 2.79339880e-01 -8.90938714e-02 1.43469498e-01 -2.21257940e-01 4.11567390e-01 1.54364899e-01 1.31779373e-01 -1.11328103e-01 1.09767318e-02
agu-x-bible 0.05593527 -0.10143718 -0.13326266 -0.28036636 -0.15853941 -0.15079458 -0.14902279 -0.2733216 0.55215484 -0.04384173 -0.3904647 0.1748978 0.54378897 0.4523303 0.06639212 -0.56750816 0.2694323 0.40846318 -0.16945988 0.2729387 -0.31252393 0.07405922 0.23494543 0.20072593 -0.417061 -0.07340378 -0.008356 -0.47693917 -0.39487395 -0.4196597 -0.16333255 0.3506916 0.07037834 -0.4163513 0.32771713 0.12258271 -0.05890228 -0.06293597 -0.33032632 -0.04506852 -0.29005745 -0.17251357 -0.00768442 0.37119415 -0.16342272 -0.04649237 0.26612747 0.11451204 0.40103322 -0.1090707 -0.03375585 0.24837631 -0.12219014 0.2723432 -0.07207271 -0.02121544 0.5920436 -0.47449285 0.0739063 -0.13816392 -0.2628846 -0.05049448 0.07149777 -0.12445466 -0.17710437 0.06795581 -0.14375386 -0.07666822 -0.46702674 -0.40184864 0.13178033 -0.22260463 0.26598355 -0.04704192 0.1973028 -0.03244568 0.4585787 0.4384702 0.05569036 -0.08958501 0.0056429 -0.1693926 0.08673948 0.3335823 0.16907671 -0.2364606 -0.27145937 -0.4213735 0.38974145 0.4087638 0.08566686 -0.07733737 -0.18918258 -0.13116552 -0.53111595 0.26061156 -0.28574616 0.2423035 0.21108519 -0.2511706
agw-x-bible 2.05640912e-01 -3.01181704e-01 -2.37647649e-02 -2.64300764e-01 -3.94401431e-01 2.18639653e-02 -9.58632305e-02 4.41844873e-02 1.57889366e-01 -9.34687480e-02 2.22027868e-01 5.14045835e-01 -1.78168386e-01 1.00139491e-01 4.08486538e-02 3.77891719e-01 -1.42427117e-01 2.54886299e-01 1.12747006e-01 2.94314086e-01 -3.32393870e-02 -3.98521870e-01 -3.16557378e-01 3.02049607e-01 1.81012124e-01 4.23701495e-01 9.55861956e-02 -1.60569757e-01 -5.97073743e-03 2.99953426e-05 5.15275858e-02 -2.59016398e-02 -9.21663269e-02 -2.39350080e-01 -6.53620243e-01 5.00295222e-01 4.37845290e-01 -3.90769631e-01 5.85959740e-02 -1.49042690e-02 7.76792392e-02 -3.18550259e-01 -8.51392001e-02 -2.41074637e-01 1.40337020e-01 2.42282957e-01 -4.80149150e-01 2.17426762e-01 3.42825539e-02 -4.89520989e-02 -1.11496888e-01 1.84970140e-01 -2.46847868e-01 2.01533109e-01 -3.73391062e-01 -8.96635205e-02 2.01553375e-01 -9.02404934e-02 4.20688629e-01 -2.65110761e-01 1.09571099e-01 7.61362538e-03 -1.67230546e-01 1.98930174e-01 -5.51384464e-02 -4.77879420e-02 -3.18280101e-01 5.43504655e-01 1.29976764e-01 -2.25721180e-01 -4.08869356e-01 6.07887030e-01 6.52434155e-02 -3.85288417e-01 -3.73953789e-01 3.48940752e-02 2.03683391e-01 1.58509046e-01 1.40508965e-01 -2.91714072e-01 4.50543493e-01 2.95070797e-01 -2.19307721e-01 -5.04708529e-01 -2.00285614e-01 1.36899650e-01 5.19314520e-02 -9.61138159e-02 2.79023528e-01 -5.89445010e-02 2.26889640e-01 -4.25261974e-01 -8.36351141e-02 2.50169426e-01 1.33068234e-01 1.18556678e-01 4.22738373e-01 1.03460625e-01 -4.13831249e-02 1.22666545e-01
ahk-x-bible -0.46090174 -0.2737749 0.06879176 -0.8312226 0.19371821 -0.4360007 -0.18097217 0.7391262 0.05840015 0.09534286 -0.3034551 -0.11404948 0.42559975 -0.32616478 0.9765859 0.647694 -0.39559487 -0.23929094 -0.2876811 -0.14579745 0.33414596 0.29042283 -0.10128656 0.36756417 0.9922315 -0.45972168 0.01026199 0.12171776 -0.06970864 1.115975 0.33877563 0.33480677 0.4601091 0.02093431 -0.6015412 -0.6922887 -0.53385895 -0.38193986 -0.11404336 0.61109734 -0.03317153 0.38176596 0.73381394 -0.3968627 0.18377653 -0.80601645 0.3418736 0.95541966 0.95213795 0.1307989 0.25561625 0.15536304 -0.48677355 -0.11194658 0.10803884 -0.5167055 -0.5988332 0.6098761 0.06979942 0.82608235 0.11719789 -0.3026443 0.33693454 0.01806486 -0.01350089 -0.01771299 -0.06557449 0.1952361 -0.29881656 -0.27435902 -0.17508106 -0.17499283 -0.18698017 -0.15229191 -0.7158545 0.06095358 0.0340711 -0.04520717 -0.04185682 -0.8921801 0.32124656 -0.3614356 -0.11569805 0.4552466 0.74134177 0.1290788 -0.08821943 -1.2678965 -0.39345878 -0.01706307 -0.17499156 -0.36785161 -0.7230738 -0.05865956 0.66995007 0.22207774 -0.5154123 -0.00522435 -0.17125046 -0.9677537
aia-x-bible -0.15718852 -0.27918142 -0.08900491 -0.59385294 -0.06901578 0.2723173 0.32260314 0.14952277 0.41438058 -0.3751138 0.17315605 0.21746059 -0.43235624 -0.12281756 0.37722322 -0.02306854 0.06938992 -0.39668518 -0.23745148 -0.4141925 -0.06843728 -0.20753784 0.00339308 0.043636 0.183801 0.1727926 0.0087051 -0.20577204 -0.03751905 -0.48134807 0.42015994 0.1376954 0.17318343 0.21021585 -0.55399674 -0.14791442 0.12261734 -0.21207626 0.28860685 -0.00461948 -0.10167171 -0.30740133 -0.01367624 -0.20926757 -0.024737 0.1376712 -0.17301685 -0.16007525 -0.08228824 -0.06681786 0.19233978 0.2616927 0.49480805 0.28550076 -0.3949761 -0.05126938 0.04129112 0.0112019 0.51209015 0.44014326 0.21335514 0.3219043 0.15108377 -0.2956821 0.43296787 -0.2503297 -0.47708112 0.17698312 0.2584214 0.2624797 -0.05313561 0.47781387 0.38846084 -0.0834057 0.22055545 0.20684136 -0.00656689 0.13658035 0.15121773 0.3447556 0.14709908 0.4555956 0.26064572 -0.41770557 0.0657785 0.17956783 0.08101801 -0.2153673 0.06341169 0.11771803 0.16039553 -0.15243576 -0.51138586 -0.49948037 0.08840048 -0.1758298 0.37821436 0.3273322 -0.01762556 -0.18110454
aii-x-bible 0.08718809 -0.6956689 0.18091345 0.24611792 0.35073337 -0.12867585 -0.03241297 -0.09267507 -0.06374874 0.66405636 0.35219544 -0.10252045 0.46793422 0.3892108 -0.6292825 -0.3701819 -0.36496952 0.47951958 0.79737854 -0.5389672 0.4796488 0.28575575 -0.45326906 -0.1952645 0.9272784 -0.32030568 0.355357 -0.62558776 -0.31548035 -0.445025 0.21340469 -0.00912504 0.24564992 0.5637964 -0.5277654 0.17619798 -0.00744941 0.1309613 0.19310799 -0.11584054 -0.48546922 0.11054168 -0.71151805 -0.0875774 0.09067485 -0.08580294 0.44159698 -0.08086902 0.20544899 -0.09339962 0.06519621 0.0209216 0.19004495 -0.13583873 -0.3244148 -0.07352161 0.10659192 0.45053098 -0.5269673 -0.04081388 0.532325 -0.05839761 0.2026192 -0.17500491 0.85762006 -0.06411123 -0.12660609 0.33855352 -0.18550426 -0.44857642 -0.88717526 -0.4300846 0.17641449 0.82498014 0.4433237 0.4713761 -0.0725586 -0.43554664 -0.18105412 0.36849678 -0.59993124 -0.45923585 0.19082776 0.24275403 -0.75044745 0.74959266 -0.3723868 0.25394085 -0.20923035 -0.03456215 0.5086057 0.2794482 0.1736994 0.15227982 0.6804421 0.35105002 -0.331901 0.71512467 -0.87642884 -0.34074888
aim-x-bible -0.15365861 0.4603266 0.15574391 0.21482915 0.34960142 -0.15230645 0.18405664 0.02693479 0.55889577 -0.44967642 -0.20737752 0.54122466 -0.23687765 0.48333398 0.03541887 -0.0318458 -0.46369657 -0.2005029 0.23021775 -0.2705225 -0.23285344 -0.10131962 -0.22485898 -0.15745768 -0.02425916 -0.40168786 0.05887611 0.10301227 -0.36060828 -0.04359898 -0.07925969 0.36084542 -0.06663872 -0.20532209 -0.23583879 0.07879617 -0.5201087 -0.2531608 -0.07105386 -0.12393642 0.43985748 0.2729029 -0.04228585 0.29914683 -0.10770451 -0.28134084 0.4168983 0.19324794 0.5780858 -0.52751034 0.2362786 0.35785428 0.58748174 0.49827492 0.11287988 0.21077037 -0.02825385 -0.11010641 0.629187 0.03140716 0.02293116 0.4674937 -0.11442096 0.23531999 -0.10819841 -0.9332282 0.19190337 0.22497912 0.2821094 -0.5256995 0.35572273 0.1938416 0.12642297 0.34105882 -0.08020589 0.41218466 0.2275949 -0.08407023 -0.20930469 0.3792122 0.31716514 -0.52035916 0.7283012 0.38475966 -0.37805682 -0.3368017 -0.5043394 -0.2634023 -0.0508436 0.16587664 -0.37586272 -0.21728297 -0.06855458 -0.09577111 -0.10972451 -0.27309608 0.17729522 0.02900968 -0.29994673 -0.32905298
aji-x-bible -0.0463795 -0.3985858 -0.23912331 -0.69798344 -0.23686528 -0.2321076 0.39402714 0.11370681 0.2505399 -0.5997673 0.40540192 0.00563843 -0.04316825 0.4391885 0.23184158 -0.00489748 0.06751244 0.04354052 -0.15999267 0.1931787 0.12631321 -0.3054262 0.18510094 0.5167236 0.23519313 -0.0604265 -0.03586884 -0.05874373 -0.03975199 -0.5134965 -0.11505026 -0.07362494 0.1255777 0.28617436 -0.15417664 0.42705724 -0.5574612 0.10467283 0.30556378 0.356839 0.52329075 -0.07918423 0.18761791 -0.11133725 0.23898815 0.5339832 -0.2203391 0.35028467 0.06720898 0.20308971 -0.16965562 0.10894461 0.16985612 0.18085429 -0.2907697 -0.0831043 0.1280939 -0.00414988 0.36440518 -0.07052927 -0.22533013 0.06015017 -0.0803141 -0.59399265 -0.01493099 -0.49209252 -0.121125 0.25742137 -0.22107452 0.2603655 -0.58551157 -0.10963658 -0.06713749 -0.66927934 -0.22213727 -0.33189908 0.6835608 -0.5623066 0.2186522 -0.4782186 -0.16097613 0.3579056 -0.38334087 -0.5283713 0.03372366 -0.05846721 0.48379204 0.00625222 0.25601944 0.08909189 0.03781061 -0.28982487 0.4521233 -0.3346064 -0.17672853 0.27797952 -0.07131196 0.06511134 0.18840764 -0.20112659
ajz-x-bible -0.1531285 0.02114463 -0.25736606 -0.08277757 0.15611944 0.10745077 0.18953168 -0.00902128 0.05391775 0.01025712 -0.59617084 0.24196672 -0.3478295 0.43573722 -0.22607185 -0.38591433 -0.36701563 0.29161543 -0.16464035 0.23112263 -0.5216456 -0.3383775 -0.33915794 -0.03137529 0.2032817 -0.42074934 0.16655137 -0.22009903 0.27924854 0.60439044 -0.06677793 0.059313 0.3046294 0.22022893 -0.19166835 0.00885727 -0.26945904 -0.2254615 0.40547413 0.07451339 0.173977 -0.41068995 -0.27410582 -0.01612615 -0.31419814 -0.22212984 0.8044135 -0.35008872 0.00303465 0.13049743 -0.332907 -0.16817826 -0.02262557 -0.20912328 0.22545296 -0.48134246 0.3146448 -0.58204734 -0.01931858 -0.2970289 -0.15381923 0.39050323 0.05526053 -0.22135195 0.14403586 -0.01681384 0.17265889 -0.17124197 -0.21410236 -0.47130194 0.01663136 -0.12060632 0.15647627 0.25675607 -0.33156112 0.06975598 -0.05760416 -0.2525933 -0.09691087 -0.49400356 0.12381586 0.07293852 0.4666052 -0.2815118 0.5462574 -0.12856616 0.07149273 0.47213346 -0.46170932 -0.53047967 0.13042574 0.16801155 0.24637091 0.18267159 -0.25500733 0.06969927 -0.041701 0.06998931 -0.39462358 0.12963748
akb-x-bible 0.03609411 0.25291145 -0.4782088 -0.02962011 -0.3043874 0.14278612 -0.25141406 -0.08108507 0.12078491 0.0290474 -0.14561151 0.13028458 0.23412898 -0.01072088 0.17749646 0.09714486 -0.0932282 0.3724794 0.15930218 0.48621702 -0.0303461 -0.40530398 -0.02673138 0.09615373 -0.3522827 -0.2700506 0.07586092 0.14533938 -0.22976907 -0.08621062 0.22879726 -0.2577199 -0.01447121 -0.15612464 -0.01720919 0.01028389 -0.01732605 -0.30295554 -0.27700943 0.01592834 -0.03642398 -0.24408166 0.2790771 -0.00855729 -0.14196673 -0.19743395 0.52690095 -0.2951533 0.3515769 0.07225545 -0.13808323 0.16915992 -0.07240409 0.06557242 -0.19226575 0.22859842 0.20849924 -0.07234368 0.16765234 -0.11365947 0.03281365 0.06035109 0.07052589 0.2176297 -0.14571752 -0.32038465 -0.02126965 0.20952848 0.14918454 -0.14676249 0.12730898 0.5805622 0.31656477 0.09005201 0.10326184 0.04505536 -0.28445712 0.4863946 0.20798634 0.47039625 0.39535278 0.27563912 -0.05489456 -0.39637217 -0.14486638 0.2718325 -0.25286227 0.29558456 -0.14233789 -0.22219327 -0.13022728 0.24022919 -0.20302771 -0.19070017 0.06537701 -0.18816449 -0.00895574 0.04461415 -0.26519397 0.00553894
ake-x-bible 0.13618909 0.1090406 -0.19310944 0.09585497 -0.37628624 0.08861178 -0.05927639 0.21658641 -0.47884098 0.1282127 0.34910756 -0.4693362 0.21332517 -0.09761177 0.04689365 -0.03307564 0.4651401 -0.398948 0.3316199 0.16860647 0.22754496 -0.1861471 0.11412272 0.09776794 0.45440874 -0.42432985 0.36536247 -0.50043374 0.41683796 0.05792207 -0.07455102 -0.03102989 -0.69033706 0.12105983 0.269771 0.16739795 -0.00299508 0.02151204 -0.02429135 0.05405285 -0.1948417 -0.5923895 0.10750992 -0.02869759 0.33047566 -0.04610281 0.05432782 0.21013306 0.37532014 -0.25549826 -0.1275081 -0.15666166 0.5453195 0.07344627 0.10782945 0.47087973 0.3169721 -0.2494067 -0.22535542 0.211023 -0.56548136 -0.10106201 -0.2154562 0.04572959 0.04749501 0.17738217 0.25760072 -0.06828026 0.23402707 0.2570225 0.21242665 0.4423105 -0.18480095 0.01585444 0.20776086 -0.01128215 0.22017351 -0.18344378 0.0713392 -0.39350978 -0.64923096 0.57277113 0.5859443 -0.25953293 -0.21587142 -0.27725267 -0.4185231 -0.12590829 -0.29422837 -0.7395138 0.04606267 -0.20127548 -0.16318919 -0.05648916 -0.38657966 -0.04743754 0.32714367 0.08567376 0.34220704 0.30293503
akh-x-bible -0.09423092 -0.29209626 0.13407809 -0.34483495 0.5050804 0.30345336 0.5859822 0.2684285 -0.6526384 -0.28171465 0.3661212 -0.19315541 0.18419985 -0.40215018 0.00441633 -0.25870648 0.8755499 0.34043774 -0.01380452 -0.32496303 -0.49791735 -0.14531451 0.3404216 -0.43021226 -0.7510882 -0.38149235 0.22693041 0.1746486 -0.14659254 -0.07315335 0.31281796 -0.40554768 -0.38530236 -0.23688018 0.14570607 0.52445686 0.14418402 0.02772323 0.40883437 -0.1902546 0.8397967 0.15731621 0.32980788 0.03825356 0.29028055 -0.5002364 0.32867077 0.36405492 -0.13845049 0.3777446 -0.7100028 0.09005318 0.05740011 -0.52682304 0.36912212 0.3140272 -0.30046734 -0.25416225 -0.21398033 -0.01097053 -0.41322744 0.3997042 -0.22002175 -0.18232456 -0.02499701 0.25982565 -0.36267164 0.4421635 -0.08557311 -0.20979576 -0.06207803 0.28213936 0.664701 0.28865913 -0.09956934 0.19866534 -0.2733611 0.4403991 -0.6539285 0.43155107 0.2022528 0.27605185 0.04721538 -0.58589435 0.4157596 0.19545692 0.08152259 -0.54455966 -0.12715293 -0.15974446 0.18604884 0.31738427 -0.04823806 0.5956285 -0.11792001 -0.41530812 -0.10601516 0.50698924 -0.27448308 -0.40352595
ald-x-bible -0.18324952 -0.61719644 -0.61211705 0.35131297 0.41444603 0.22871636 0.1520574 -0.13917582 -0.17490348 -0.21352461 0.24987434 -0.69063425 0.24675079 0.17491409 0.40417448 -0.99070513 0.07509179 -0.4861543 -0.3416888 -0.36205557 0.16278681 -0.0340571 -0.8171882 0.29103896 0.5191054 -0.22902688 0.18112609 -0.06966224 0.3096026 0.70591605 -0.03142979 0.02449903 0.85551137 -0.18141389 0.15123738 0.36164114 -0.09176746 0.22378702 -0.31307167 -0.29008427 0.11321684 0.36127937 0.0481532 0.08840381 0.06958026 -0.19204341 -0.79282826 -0.30482897 -0.09040117 -0.77934194 0.17229839 -0.01862048 -0.04221532 -0.2665222 -0.24775761 0.11786384 -0.02474904 0.20392762 0.7792878 -0.21733096 -0.18220827 0.24483484 -0.067626 -0.2363175 -0.49342626 0.19995952 -0.40109575 0.4530888 -0.32708967 -0.19265153 0.56803507 0.13289914 -0.12744011 0.03182756 -0.46473363 0.20272177 0.28358635 -0.13651241 0.13569295 -0.34196526 -0.39100176 0.22746855 0.03790198 0.0422795 -0.15958236 -0.21183454 0.35070473 0.61253136 -0.20586424 0.22169635 -0.4890934 0.33937624 -0.12199818 -0.32442144 -0.1157518 0.05564094 0.22789507 -0.3664054 -0.2114427 -0.01336635
alj-x-bible -0.03565945 0.15698527 0.11771038 0.10468152 0.18408284 -0.21014555 0.10025968 -0.04108847 0.02080034 -0.60949373 0.19330214 -0.18825114 -0.440004 -0.05385196 0.6222438 -0.7813255 0.10120207 0.19639894 0.15682802 0.12309503 0.3549101 0.02192315 -0.10485803 0.02273672 -0.16936718 0.41724563 -0.60482734 -0.15358046 -0.06331465 0.72239155 -0.21590887 -0.27754113 -0.26629186 0.01970566 0.1588113 -0.31162205 0.23284931 0.2254948 0.09321461 0.12185972 -0.25210676 0.06039529 0.13332194 -0.2876686 -0.54075134 0.03362545 0.16136062 0.11201363 -0.37259567 -0.508326 -0.05400357 0.20894487 0.07663573 0.20606408 0.24654101 -0.11440107 -0.04824993 0.17888115 -0.10309287 -0.21917911 0.231597 -0.10830575 -0.38484842 -0.07997645 0.22476976 -0.23900989 -0.05445888 -0.13719839 -0.10694702 -0.6621062 -0.52727336 -0.53473634 0.19578722 0.08649087 -0.14118 -0.08133364 -0.08322898 -0.19339496 0.07622325 0.0821563 0.12911217 0.37461033 -0.03634117 0.06379566 -0.07226761 -0.0661195 0.11311643 0.34728542 -0.09552246 -0.5099723 -0.05454438 0.08771651 -0.01593465 0.18315355 0.09472983 -0.09269521 0.2877877 -0.03705154 0.03769005 0.503368
aln-x-bible 0.21741891 -0.08975487 0.06065666 -0.21082789 0.4415445 0.18714043 -0.12991773 -0.3742272 -0.28857574 -0.00875182 0.30373666 -0.00177216 0.33908883 -0.11221366 -0.1813246 0.24466401 0.12485697 -0.09761377 0.01195252 0.15633479 0.56399465 -0.448333 -0.11827743 0.28169316 -0.26071247 0.16022019 0.06475314 0.00242502 0.08941448 -0.81216127 0.25134623 -0.33496234 0.31538308 0.5262691 0.3256627 -0.20228857 -0.10465877 0.18041083 0.22438726 0.10553182 0.4239753 -0.03883785 0.3097576 -0.01090216 -0.8757563 -0.19827747 -0.2197053 -0.12954253 0.2213536 -0.41045365 -0.20703672 -0.06959474 -0.1429702 -0.26955122 -0.46943566 -0.44835103 -0.07649215 0.30413878 0.06401311 -0.21275167 -0.23615575 0.20867917 0.57524955 -0.39080563 0.01062519 -0.31676447 0.02761854 -0.29193187 -0.6913549 0.07059099 0.02551884 0.07490018 -0.40778384 0.05039884 0.10348228 0.32433462 0.43633038 0.258395 -0.54356825 0.03002165 -0.09375505 0.30372044 -0.3338821 -0.08068529 -0.0882056 -0.03980734 -0.09537589 0.4911876 0.6644202 0.3607241 -0.00697229 -0.3201612 0.0599565 0.01793851 0.23252599 0.19148445 -0.0682754 -0.35163537 -0.34760883 0.10226038
aln-x-bible-newworld 0.18908887 -0.12800555 0.02912381 -0.21756263 0.4762785 0.24117215 -0.079596 -0.38350162 -0.26324916 0.02424957 0.29444587 -0.00197478 0.3197688 -0.12029615 -0.23983675 0.21136549 0.09683277 -0.14072156 0.02645815 0.14990044 0.576667 -0.45338687 -0.16379473 0.28871673 -0.24689414 0.12029137 0.05591583 -0.01750574 0.09618948 -0.85912496 0.26028162 -0.32821727 0.29099965 0.4874254 0.30709386 -0.19396402 -0.07393563 0.16901065 0.19105513 0.13023718 0.39840117 0.00119615 0.2778011 -0.02466549 -0.88719624 -0.19952494 -0.24106604 -0.1594454 0.24213415 -0.45039728 -0.23056673 -0.13271442 -0.11001651 -0.2882703 -0.4772406 -0.40885168 -0.07204568 0.319005 0.03900754 -0.17264535 -0.23402725 0.19816287 0.5782291 -0.32989314 -0.03491839 -0.30704167 0.03650745 -0.27819186 -0.6814384 0.07539252 -0.00361804 0.07689334 -0.43018174 0.0228247 0.13105181 0.3218949 0.41048035 0.2655297 -0.58850515 0.02708027 -0.09982215 0.3489204 -0.34309244 -0.08554662 -0.09135413 -0.04889794 -0.06929369 0.44526497 0.61944366 0.3421092 0.01244165 -0.31646857 0.05997805 0.02662422 0.19112526 0.16769865 -0.08859546 -0.35717824 -0.3662248 0.05412697
alp-x-bible 0.06825491 0.00973555 -0.06676394 -0.6251765 0.17845394 0.03177578 -0.03495627 0.4056611 -0.12528226 0.18234992 -0.56027377 0.10716826 0.09302361 -0.47091344 -0.09592242 0.207606 0.21110415 0.14693305 -0.34827662 -0.36856896 0.03871141 -0.36179903 0.1237229 -0.34340066 0.16669978 0.23211256 -0.20184202 0.11466578 -0.50561666 -0.42675364 -0.04253433 0.13312466 0.10251543 -0.18997677 -0.12888518 -0.08501 0.00926022 -0.6256905 0.03389296 -0.13074718 0.287957 0.07323407 -0.11698479 -0.06699327 -0.07582455 0.34782422 -0.18510967 0.5757349 -0.27342087 -0.3738417 -0.18517527 -0.19504851 0.38102865 0.600574 0.34084967 -0.09452746 0.1928894 0.47339347 0.08679504 -0.20362638 -0.16365284 0.56625116 0.10941258 -0.11862972 -0.21020441 0.22582933 0.33677426 0.04370793 -0.16342263 0.33664516 -0.64511013 0.3740529 -0.03504864 0.35945293 0.41097087 0.01243368 -0.18936048 -0.5999045 -0.0492329 0.24320188 -0.29962733 0.01471504 0.22499032 -0.38135022 -0.6601625 0.04525234 0.09111685 0.2943293 0.11018704 0.08898305 0.5406251 0.11640313 -0.4990319 0.09173856 0.10510793 0.23770735 0.2530894 -0.07323853 -0.16460834 0.39048803
alq-x-bible -0.12807941 0.4749706 0.0724187 -0.35367683 -0.07188927 -0.1143203 0.56743515 -0.36699772 0.03456962 0.26949713 0.1496725 -0.35624695 -0.8319644 -0.200866 -0.1450416 -0.41140622 0.27971718 0.48120794 -0.44789246 -0.34831315 0.02028265 0.17558797 -0.08379802 0.45337212 0.2966291 0.7635353 0.01985497 0.06800707 0.103161 -0.2920735 0.16807385 0.10670884 -0.12100291 -0.47630146 0.5194414 0.5581258 0.11179312 -0.25019616 -0.40603176 0.0510043 -0.07619102 -0.1457347 0.13491173 -0.39634213 -0.2007646 0.09348622 -0.06165691 0.26148602 0.01434104 -0.22690082 -0.02734315 -0.07037649 -0.23725489 -0.47899777 0.7579969 0.13740571 0.30946773 -0.732546 -0.13622826 -0.44683895 -0.13189124 0.29257306 0.03390964 0.15700239 -0.27889043 0.01017746 0.1303255 -0.4738124 -0.09240174 0.6647508 0.19760098 0.2238333 -0.2617556 -0.40222588 0.09084037 0.25975874 0.02918979 0.39958614 -0.746744 0.19937173 0.8766851 0.09383857 0.49992546 -0.1381015 -0.07991148 0.19969237 -0.4616705 -0.124166 0.52245986 -0.11267229 0.0318575 -0.5208018 -0.46484423 0.45311648 0.30076405 -0.40180522 0.4499259 0.10941701 0.69924575 -0.07499937
alt-x-bible -0.23634873 0.38977543 0.47705954 0.11256962 -0.26404306 0.40113354 0.42957115 0.01575939 -0.6193037 0.11874278 0.06655207 -0.05053706 0.3269858 0.5515277 -0.2999138 -0.1618155 0.12543194 -0.04911102 0.3511363 0.05348274 -0.2613386 -0.1459633 -0.2997256 -0.44786724 -0.00954629 0.24697834 0.51961607 0.05351001 0.04572907 -0.3136079 0.14325245 0.11142832 -0.21666378 -0.36913466 -0.02057808 -0.1514698 0.33440483 0.01309969 0.10084143 -0.4302417 0.09473529 -0.08097629 -0.01825955 0.37385374 -0.49900252 0.03985618 -0.03344737 -0.23586427 0.03954698 -0.04308036 0.11469554 -0.09233435 -0.12045366 -0.15639673 -0.04985293 0.16451609 0.37823102 0.20950192 0.06038417 -0.11587778 0.31325635 0.3187973 -0.22373591 -0.17905252 -0.14120907 -0.19356805 -0.19153236 -0.33336544 0.05309084 0.01715418 -0.17352234 -0.2713945 0.08611838 0.13505101 -0.29133883 0.28077215 0.15691237 -0.4245502 0.55891263 0.25408807 -0.07835248 -0.1662716 0.37153593 0.10013459 0.77831924 -0.2629457 -0.04551117 0.0180241 0.116203 -0.48562002 0.07387079 -0.47018114 -0.00503892 0.03976103 0.01076089 -0.06712705 0.02528406 0.099583 -0.22949238 0.01956582
alt-x-bible-southern -0.29540303 0.36541444 0.50823075 0.09235199 -0.30226398 0.38577947 0.4534763 -0.00637714 -0.62715036 0.04280408 0.06501122 -0.09992609 0.30453202 0.58388054 -0.2613142 -0.201774 0.12423611 -0.01537689 0.3677254 0.14011548 -0.24967414 -0.16858041 -0.30326265 -0.4704204 0.04085794 0.2424183 0.52536184 0.07909007 0.07626459 -0.3379212 0.19162565 0.14968467 -0.1915374 -0.36497846 0.00979583 -0.18619312 0.33148637 0.03182945 0.0921172 -0.4319377 0.11569129 -0.08230007 -0.10495307 0.42283106 -0.51491815 0.01293187 -0.03039841 -0.26524472 0.03254259 -0.0470453 0.0751157 -0.07202066 -0.14440188 -0.21927392 -0.04698984 0.15844125 0.40761548 0.18723029 0.0017488 -0.11980741 0.32637846 0.31646514 -0.20830335 -0.17981087 -0.2028564 -0.19305365 -0.17318685 -0.32852748 0.07268624 0.00607632 -0.2001018 -0.23518327 0.04383133 0.13069758 -0.3019478 0.2533116 0.12087389 -0.4263685 0.60688007 0.27538645 -0.06373548 -0.19199325 0.30980372 0.08961914 0.802345 -0.23633425 -0.02841102 -0.03320689 0.0797472 -0.4424373 0.09347147 -0.46955848 -0.03102234 0.06138312 0.06168882 -0.02609167 -0.00676514 0.06297321 -0.21027817 0.05493354
alz-x-bible -9.62221175e-02 -1.84549585e-01 5.32314703e-02 1.52064031e-02 -1.87093645e-01 -2.32380614e-01 3.58571321e-01 -1.74590632e-01 -4.12714064e-01 -2.18656510e-01 -2.56520867e-01 3.40439796e-01 5.30548720e-03 1.10540524e-01 -2.32082099e-01 -2.17637524e-01 2.99711466e-01 -1.68599673e-02 -6.26734674e-01 1.12293800e-02 1.67550147e-01 -1.82452813e-01 2.59112775e-01 1.87336236e-01 -3.95619608e-02 -3.22730392e-01 -2.91787952e-01 2.51079470e-01 2.40498886e-01 -1.28408941e-02 -4.61551487e-01 -2.25234449e-01 4.90285039e-01 -1.66536838e-01 3.62223208e-01 3.09447050e-01 -1.13976777e-01 -2.48321235e-01 2.71453205e-02 -2.80651063e-01 1.67313755e-01 3.26016963e-01 -2.73133248e-01 1.76699132e-01 -7.03923330e-02 1.14384390e-01 -4.09733236e-01 -5.43120503e-02 5.53388484e-02 -8.13416243e-02 2.23992139e-01 2.82408291e-04 -4.92072999e-01 2.22963169e-01 -4.56915468e-01 5.36821522e-02 1.30802691e-01 -6.30508587e-02 2.61694163e-01 -3.59695971e-01 -8.97086635e-02 -6.59538865e-01 1.92798167e-01 5.93767799e-02 -2.88197011e-01 1.15090817e-01 -4.55153227e-01 3.61167818e-01 1.44501090e-01 -6.64482042e-02 7.98072517e-02 4.33919951e-02 -2.30924651e-01 1.03806026e-01 9.64856818e-02 2.31021255e-01 3.29141021e-02 -3.55850309e-02 7.31409937e-02 1.45354979e-02 -5.80486096e-02 -1.23962825e-02 1.67068139e-01 1.01671919e-01 -2.11409077e-01 4.95250672e-01 -5.06096542e-01 -2.37429097e-01 4.45563607e-02 1.90427333e-01 7.67298117e-02 -1.09544553e-01 2.13121235e-01 -1.06181294e-01 -3.00120085e-01 -1.18514493e-01 -2.52091616e-01 2.47770175e-02 -1.15704350e-01 -1.64615139e-02
ame-x-bible 0.34689513 -0.0960092 -0.19985656 -0.01928658 0.49604017 0.0604119 -0.26578733 -0.24823858 0.41036788 0.3076012 -0.29765144 -0.04903615 -0.1183593 0.6543135 0.18268147 -0.44249463 0.31724083 -0.51910514 0.31790632 -0.28158215 -0.38316914 -0.32433343 -0.08520823 -0.23012865 0.27754238 0.21506704 -0.47505268 0.11813904 -0.5945335 -0.10511938 -0.45880768 -0.03979589 -0.00692715 0.5565618 -0.51058805 0.05487153 0.16990112 0.24912243 0.0472289 0.4060683 0.475491 1.02682 -0.21088482 0.21597312 0.25537473 -0.73414 0.47099692 -0.03121784 -0.15838438 -0.27181134 0.03915722 0.83349925 0.14767163 -0.41377193 0.20141089 -0.38477305 -0.3375031 -0.2034399 -0.25379705 -0.38618958 -0.2563918 -0.21044834 0.25714186 0.21712752 0.18409312 -0.476328 0.20387977 0.04650426 0.02925384 0.54172766 0.14066094 -0.52721846 -0.04056058 0.15379997 -0.29727158 0.04543649 0.0699687 -0.06105307 -0.531005 0.1927942 -0.40414137 0.12236257 0.26002908 -0.05771266 0.1488126 0.15714394 -0.06247814 -0.31260195 0.44501206 -0.40974227 0.52591336 0.2140721 -0.31352 -0.7289068 -0.5032924 -0.03399251 -0.03090571 0.01780506 0.2198341 0.84711725
amf-x-bible 0.4419197 0.4308416 0.29510847 0.6625931 -0.5379173 -0.71713895 -0.26131415 0.05490733 -0.19036968 0.3840398 0.16968307 -0.23559307 -0.07378633 0.07634754 -0.1263294 -0.42551082 0.15862161 0.50468403 0.52542436 0.07027666 0.14148581 0.5579592 -0.31026247 -0.26022798 -0.05209924 0.3135151 0.25286582 -0.17989028 -0.28369677 -0.28697643 0.37252128 0.10210709 -0.0855502 0.02436947 -0.3905547 0.29050538 -0.2771569 -0.35472998 -0.45108518 0.50424105 -0.5303285 -0.02678478 -0.2126055 0.11570636 0.1968245 -0.6589687 0.05266161 0.2203575 -0.15106584 -0.19291697 -0.10738607 -0.07094613 -0.06980813 0.13565642 0.5116468 0.1267893 -0.24021739 -0.25172272 -0.17327835 -0.04031248 0.01207722 -0.1018801 0.5349072 -0.0651492 -0.616675 -0.4352818 0.30286807 -0.51345336 -0.00854805 -0.27472302 0.22649014 -0.38981277 -0.07106691 -0.08682094 -0.19152342 0.4169119 0.20220126 -0.18218827 -0.58702886 -0.16154572 0.15267028 0.4744821 0.12364122 -0.5399347 -0.45968392 -0.3712834 0.20076205 -0.63122976 -0.5581897 0.00844433 0.13530415 -0.8187376 -0.0104982 -0.01705296 0.52879167 0.2059252 0.09517899 0.11251479 -0.37335822 0.25697842
amh-x-bible 2.87076801e-01 -3.20387572e-01 -2.68879712e-01 -1.61688864e-01 -3.56665850e-02 -3.15441340e-01 -2.61831135e-01 2.40214661e-01 -1.29405167e-02 2.41712779e-02 9.21751857e-02 1.30929977e-01 1.03543177e-02 1.54903874e-01 5.34968041e-02 -3.65317225e-01 -3.80017757e-01 3.48214984e-01 -5.92352450e-02 -9.94251594e-02 1.57518521e-01 -1.10566929e-01 -2.53235340e-01 -8.12804252e-02 1.76666439e-01 5.91647387e-01 -2.76500821e-01 -4.77154315e-01 -4.62171704e-01 -3.50545794e-01 1.65600300e-01 1.29222525e-02 -1.78313076e-01 -1.14220433e-01 1.06227808e-02 2.70312220e-01 2.10269928e-01 -5.21653593e-01 -7.23910481e-02 1.79777265e-01 -1.93894222e-01 4.53135222e-02 4.17925045e-02 5.10367751e-01 7.43912041e-01 9.73004028e-02 6.36829180e-04 -2.45995089e-01 3.39542031e-01 -1.92377895e-01 4.78843004e-01 4.56992358e-01 -4.86383349e-01 -8.27817991e-02 2.09919214e-01 -3.76081496e-01 -6.20757788e-02 4.68262345e-01 -7.10179925e-01 -1.29615739e-01 -1.54588148e-01 5.46082079e-01 1.79378912e-01 8.05727839e-02 -4.07568067e-02 6.92922994e-02 -2.02203274e-01 6.21035814e-01 -3.77237529e-01 1.38719723e-01 -3.09425473e-01 -1.15274221e-01 -2.12298393e-01 1.59433931e-01 -3.25924121e-02 -4.46059376e-01 5.44425726e-01 -5.81038475e-01 -2.06078202e-01 -2.01981500e-01 -1.84343442e-01 -6.99035972e-02 -1.20344117e-01 -1.94977283e-01 5.86233199e-01 -3.79103214e-01 4.07323629e-01 5.34387380e-02 -2.74307311e-01 -6.18005097e-01 2.72915363e-01 -5.36991835e-01 -1.10683389e-01 -3.06518465e-01 -4.17385191e-01 3.82114708e-01 4.48710807e-02 1.85825706e-01 2.38064770e-02 3.00222695e-01
amh-x-bible-latin -0.2946442 -0.43407872 -0.1354763 -0.02327377 0.01969824 -0.29741964 -0.08241376 -0.08729705 0.5570403 -0.53148043 0.12321585 0.05373566 0.4503344 0.3442639 -0.25886747 -0.35735062 0.02925677 0.23263884 0.19340934 0.16085443 0.09833048 -0.27375987 0.14475448 -0.30750608 0.09098255 0.35849816 -0.01832946 -0.6812687 0.27262643 0.16945732 0.44224894 -0.02721974 -0.14957398 -0.4385816 -0.3482181 0.14260174 0.2080659 -0.5760434 0.20132022 0.13320895 -0.6111875 0.4088979 0.34381738 0.15251927 0.30031124 -0.02183186 0.2918803 -0.15044205 -0.18199141 -0.19684799 0.31405675 0.70275337 -0.20730747 0.26367018 0.05215783 -0.02767748 -0.17798573 0.31027582 -0.55344754 0.01872833 0.42279524 0.3705415 0.47693458 -0.02785684 0.16927984 -0.11707779 -0.61374676 0.24865033 0.30491555 -0.08945686 -0.11915707 -0.7672368 -0.36727783 0.5395567 -0.01568856 -0.26550516 -0.19792986 -0.16614959 -0.00579527 0.31882116 0.05782242 -0.38384053 -0.3255224 -0.18608041 0.40915722 0.06961542 0.321883 -0.24195164 -0.204864 -0.3878205 -0.06053551 0.00745553 0.46290055 -0.5176437 -0.34430617 0.13470328 0.28744996 0.4332742 -0.11165658 0.48891577
amh-x-bible-newworld 2.62113273e-01 -3.17462742e-01 -1.93140417e-01 -9.96980593e-02 -4.73746061e-02 -3.51806462e-01 -2.80584067e-01 1.72557414e-01 3.04861795e-02 3.81646119e-02 9.64073166e-02 1.22595556e-01 -5.66863921e-03 2.22652584e-01 1.44223636e-02 -3.92568409e-01 -3.53225529e-01 3.05687428e-01 -5.91311380e-02 -1.14412718e-01 1.48645386e-01 -9.62191522e-02 -2.75756508e-01 -9.74644125e-02 1.74441710e-01 6.36098742e-01 -2.89924175e-01 -5.02469897e-01 -4.50703949e-01 -3.20678174e-01 1.45880222e-01 -2.49335784e-02 -1.59604058e-01 -1.35429561e-01 -4.76483740e-02 2.97026128e-01 1.86179787e-01 -5.65936446e-01 -2.61626914e-02 1.72083512e-01 -2.09730923e-01 3.47781144e-02 2.74570938e-02 5.15143514e-01 7.47132957e-01 8.39150995e-02 3.07426527e-02 -1.77328199e-01 3.80352527e-01 -1.42658338e-01 4.36161697e-01 4.75690901e-01 -4.48610872e-01 -9.34136733e-02 2.06837013e-01 -3.53085428e-01 -7.34244287e-02 3.66532981e-01 -7.11117983e-01 -6.28713593e-02 -1.39349759e-01 4.95625913e-01 2.59516984e-01 6.83664717e-03 -5.62355518e-02 1.02835074e-01 -2.95201391e-01 5.37138820e-01 -3.97072315e-01 1.24263197e-01 -2.81178743e-01 -1.48665309e-01 -2.25922689e-01 1.32614493e-01 7.28888810e-03 -4.44884270e-01 5.12037456e-01 -6.32966876e-01 -1.74017206e-01 -2.12443262e-01 -1.94615051e-01 -3.64714935e-02 -1.70861214e-01 -1.86055422e-01 4.94183302e-01 -4.00286704e-01 3.74284297e-01 7.06977844e-02 -2.62418687e-01 -6.27404273e-01 2.42783919e-01 -5.09295642e-01 -7.00725615e-02 -3.13199192e-01 -4.53658253e-01 4.47540313e-01 4.46853868e-04 2.19850197e-01 -6.19828328e-02 3.57661337e-01
amk-x-bible -0.37361297 0.01941115 -0.585284 0.23555447 -0.05287682 -0.14775215 -0.13684188 0.05819919 -0.5112193 -0.0464491 0.14345193 0.30353874 -0.12234508 -0.02601928 0.3649991 0.13108355 0.31198305 -0.5439458 0.24399154 -0.05426772 0.09770848 0.01240521 0.18186776 0.5246313 0.05012888 -0.5351867 0.26198974 -0.46258003 -0.04512201 0.08435707 0.30446988 -0.15550515 0.24023952 0.0168345 -0.02431742 -0.41285378 0.30596766 0.02288415 0.31898496 0.21288243 0.3570496 0.24083291 -0.12926199 -0.31206614 0.19795544 -0.06998364 -0.0966783 -0.29500383 0.1613189 0.14344198 0.33200192 0.13934481 0.30321065 -0.20065689 -0.09340709 0.2419835 -0.35595945 0.17613833 0.1955826 0.01113333 -0.03346771 0.11167344 0.44958884 -0.2387749 -0.03567486 -0.5178534 -0.36246124 -0.26141384 -0.1601145 0.43246695 0.21027169 -0.05724102 -0.20773304 0.23514181 0.10790399 0.16175549 0.09660087 -0.2407309 0.29025874 -0.46478438 0.10235405 0.11957727 -0.34660888 -0.64924335 -0.3260126 0.06258574 0.24225707 -0.35261655 -0.57910746 -0.3207626 0.09534809 -0.12241801 0.18246573 0.2549611 0.18797328 0.1486012 -0.03031316 0.05475539 -0.11543719 -0.12284122
amm-x-bible 0.64384985 0.26647282 -0.31890443 0.63610476 0.13576238 0.12803993 -0.3235357 -0.1576449 0.5432088 -0.01176025 -0.38887557 0.49234608 -0.18449345 0.1660915 -0.11898793 0.25482854 0.06073184 -0.03763719 -0.33115017 -0.23190081 0.24995182 -0.31245235 -0.17866576 0.4001221 -0.0943524 -0.55001974 0.17667596 0.02920964 0.225084 -0.05880105 -0.05391872 -0.3137602 -0.14362578 -0.12797105 0.34527546 -0.56055534 0.6056235 -0.471597 0.97455055 -0.3050378 -0.0041817 0.4285496 0.6011322 0.743535 0.25056937 -0.15287085 0.4976831 0.26360306 -0.15503809 -0.14560108 -0.3489967 0.14820732 0.24324356 0.39233708 -0.35659754 0.4333924 0.09395309 -0.2720526 0.05931167 0.28318575 0.0788067 -0.30744302 -0.48038986 -0.2474807 0.17706454 0.3676029 -0.22550927 0.68185264 -0.06622372 0.21660951 0.10149339 -0.28615305 -0.23892981 -0.3766816 0.41644663 0.22177206 -0.8906207 -0.05809595 0.5929567 0.14841771 0.15792789 0.73822093 -0.08713468 -0.46499714 0.26719123 0.28587577 0.23661941 -0.20765863 -1.0746534 0.23164642 -0.15460582 -0.29415226 0.13549434 0.84575003 0.26220345 -0.49949995 -0.38301742 0.10952859 0.04614927 -0.02592786
amn-x-bible 0.19262074 0.14835742 0.0811948 -0.0091296 0.5166613 0.21858011 -0.32381725 0.47891164 -0.11226805 0.18249094 -0.39293343 -0.19274575 0.11008193 0.12309074 0.15660655 -0.1456575 -0.3859541 -0.21365266 -0.7182471 -0.42238027 0.53358674 0.74447775 0.17403843 -0.17680751 0.16982871 -0.01317784 0.00644599 0.3994915 -0.12181223 0.28563285 -0.10855342 0.15105943 -0.2978304 -0.27740598 0.00967578 -0.04256056 0.1070934 0.23123345 0.39415333 0.3257073 0.1777958 -0.24312368 0.10435843 0.35004303 0.3566576 -0.14051665 -0.20465663 0.27843985 -0.06123923 0.1321655 -0.4170073 0.09537253 -0.11325134 -0.2931374 0.09450703 0.47107992 -0.05109923 0.03800868 0.19553569 -0.12758644 0.10251463 0.35082793 0.03623252 -0.0708634 0.31189024 -0.17169929 -0.36944315 0.1415518 -0.16435371 0.0583083 -0.18316332 0.02134073 -0.29209673 0.2814559 -0.5235258 0.44942605 -0.20430297 0.07263454 0.38645416 -0.5021864 0.52245724 -0.24428529 -0.0178629 0.13296783 -0.0561802 0.3163194 0.15376243 -0.40673128 0.24301073 -0.256792 -0.3460777 -0.1782212 0.09818733 0.5540905 0.02380933 -0.347401 0.30444047 -0.08114377 -0.7562961 -0.10332935
amn-x-bible-naineri 0.12115355 0.18325053 0.08627853 -0.00402534 0.505905 0.16456524 -0.37499148 0.5105278 -0.06326548 0.18835744 -0.305583 -0.11264466 0.10520656 0.11321165 0.12397423 -0.10854124 -0.45007735 -0.23809619 -0.7199821 -0.41590288 0.54345214 0.775112 0.17187187 -0.23066095 0.1084172 -0.08475508 -0.02437523 0.4155397 0.01269977 0.28854617 -0.09367257 0.12536533 -0.17648289 -0.28771722 0.02891724 -0.03030853 0.07084298 0.15942752 0.34420058 0.32141465 0.124217 -0.24337237 0.08732767 0.3550158 0.38985458 -0.1218705 -0.2028479 0.34228846 -0.02756774 0.14581299 -0.4795244 0.11445177 -0.04754762 -0.2865056 0.06710517 0.46644202 -0.02026031 0.06290229 0.17653717 -0.11358254 0.134605 0.27325928 0.05751246 -0.05074669 0.27546558 -0.16076635 -0.24569406 0.12126924 -0.15584762 0.08729058 -0.22108912 -0.11804854 -0.35257232 0.24369624 -0.39872986 0.46357477 -0.1609765 0.15165198 0.3280241 -0.4946029 0.49008563 -0.2084178 0.00749574 0.17261754 -0.02708028 0.30662245 0.18430692 -0.4697695 0.25320515 -0.27546453 -0.3364562 -0.1988295 0.11979505 0.5469456 0.04757053 -0.3414926 0.3248 -0.06856288 -0.7167739 -0.09143662
amp-x-bible -0.33438838 0.0919898 -0.23922086 -0.12398139 -0.08235153 -0.15560874 -0.09420884 -0.05819886 0.7095412 -0.37604806 -0.46635878 -0.5888977 -0.17628604 0.08733717 0.38250735 -0.05510421 -0.15333846 -0.11228786 -0.10095452 -0.01416739 0.33219695 -0.53144795 0.38809013 -0.0881271 0.5773321 -0.6628287 0.5680243 -0.01187854 0.80895585 0.01212511 0.30976555 -0.5634778 0.47487074 0.09049328 0.19778743 -0.31552213 0.1894558 0.07819474 -0.12989691 0.13486049 -0.11258891 1.1268759 0.18103948 0.38379294 0.03711398 0.07014139 -0.00483302 0.22873521 -0.21071658 0.10040595 0.12597346 0.11532576 0.3719938 0.50369304 -0.21806933 0.15069513 0.05829904 -0.23096403 -0.21875352 -0.3634333 -0.2034298 -0.18231599 0.4921101 0.14099833 -0.80065626 0.20088351 -0.03491998 0.31920657 0.65715003 -0.0639227 0.43167588 0.19931929 -0.45167667 0.06160826 -0.13370189 -0.02043214 -0.06616271 0.39110282 0.17241815 -0.43649745 0.40605897 0.4748664 -0.37078863 -0.28974625 -0.30172566 -0.05018333 -0.2713091 0.0309566 -0.09363431 -0.39838317 0.27854323 -0.22227459 -0.3480445 -0.4148841 -0.06767555 0.06932983 0.08032402 0.11585168 0.08745568 -0.17563374
amr-x-bible -0.05450099 -0.25025874 -0.11925764 0.24051975 0.57720137 0.33309773 -0.22403675 0.00256957 -0.32432827 -0.18277492 0.11601539 -0.51645654 -0.34658155 0.13803399 -0.6391076 -0.09227698 0.5070742 0.03659645 0.02846579 -0.23237528 0.4524644 0.6063606 0.24393034 -0.14921269 0.38216153 -0.3379607 -0.22470245 0.23204044 -0.24607398 0.01136318 -0.25772277 -0.32588896 0.14522973 -0.42807075 0.03179142 0.20743103 0.18090716 -0.204167 0.09990943 -0.21526417 -0.14827238 0.04828106 -0.04214995 -0.18803056 -0.10342059 0.27248952 -0.23746918 -0.83514196 0.31633043 0.11255183 -0.08210783 -0.3247844 -0.27940866 0.20453687 0.27929023 0.2590584 0.0439815 -0.07238798 -0.22408295 0.18954687 0.03554833 -0.20812306 -0.16649263 -0.22850716 -0.1587159 -0.05634546 0.6135172 -0.53783536 -0.75901365 0.23298231 -0.25738564 -0.41212317 0.22276165 0.36904785 0.04111411 -0.2060273 -0.3184851 -0.00624593 0.49068853 -0.03320007 0.00233159 -0.00931741 0.00228371 0.05496322 -0.18329845 0.41338685 0.25474438 0.27373004 0.3188223 -0.2579937 0.2805175 -0.22203681 -0.791347 -0.11732462 0.05458321 -0.37098935 0.39821407 0.31630263 0.19665621 -0.19598034
amu-x-bible 0.04461138 -0.32071504 -0.38048056 -0.08456723 0.26510447 -0.21664093 -0.04209308 -0.36346737 0.26788142 0.1382656 0.4637931 0.05326943 -0.11279521 0.15464681 0.2728447 -0.00715838 0.03565918 -0.16074765 -0.18876596 0.09384862 -0.3841546 0.07051589 -0.36660928 0.05014225 0.37301347 -0.12887087 -0.09569699 -0.27919254 0.51310164 -0.04713424 -0.3035516 -0.00662818 0.34789446 -0.15011227 -0.12761234 0.04204562 -0.20179978 0.55657315 -0.12993532 0.11688245 0.60362124 0.36159527 0.30626234 0.2579398 -0.03468717 -0.6450772 -0.01528939 -0.16900963 0.40022075 0.11551426 0.16916372 0.40686962 -0.06223923 -0.32161105 0.03464526 -0.24644192 0.16809474 -0.10517718 -0.12910992 0.4423691 -0.08450209 -0.10752124 0.4418287 0.41840395 0.095678 -0.55605626 -0.20917486 0.01770575 -0.24772342 0.5667195 0.58055377 0.12149882 0.09433524 -0.43587703 0.22714122 -0.29975533 0.08631609 0.16044265 0.3374274 0.31222928 -0.09347628 -0.49087432 -0.21340843 0.10428391 0.41097224 -0.1262576 -0.4135306 -0.11173548 -0.1477044 0.0368554 -0.08020759 0.18155773 0.70206004 -0.20112675 0.8140881 -0.4197614 0.09323038 -0.03312052 -0.46998718 -0.1455428
ann-x-bible 0.15763287 -0.36999324 -0.00334968 -0.05005844 -0.11085262 0.19466776 -0.04553887 0.46606657 -0.24249405 0.05654301 -0.38450453 -0.43584165 -0.37652108 -0.07923778 0.04262754 -0.09306336 0.5333361 -0.107038 -0.651523 -0.00456926 -0.08416638 0.03804041 -0.28515795 -0.15311065 0.10420443 -0.12207062 -0.2622388 0.0759977 0.83034265 0.10750151 -0.10669112 -0.5458482 0.2991937 -0.30851433 0.40936226 -0.10019825 -0.08167711 -0.27862155 -0.60075706 -0.05830474 -0.05396245 -0.7230497 0.10913296 -0.24286763 0.03601446 0.29550156 0.214013 0.32152447 -0.49986136 -0.46609142 0.02119435 -0.34409574 -0.00318636 0.24674854 0.0462862 0.05812016 0.07397779 0.35965925 0.3260003 -0.47877324 -0.3561758 0.17242591 -0.5981861 -0.33270857 -0.03231325 0.11865974 -0.3348282 0.27502334 -0.47892424 -0.6301773 0.00589355 -0.305088 -0.17726135 -0.14167476 0.33340636 0.56494236 0.33025846 -0.39887872 0.2518006 -0.36566377 -0.17037766 -0.19833075 -0.00857443 0.12878749 -0.5081469 0.32031476 0.10211524 0.07590822 0.1381945 0.2763293 0.29283932 0.02414212 -0.17266646 0.06014813 -0.5639434 -0.1867269 0.6171765 0.02035068 -0.4360181 -0.23812716
anv-x-bible 0.01785162 -0.15484843 0.10505859 0.1482558 -0.168506 0.01643161 -0.05051526 0.3111506 0.4435129 0.41473544 -0.65697944 -0.4141952 -0.13575739 0.3107553 0.5151029 -0.38530475 -0.1291858 -0.2866963 0.02332012 0.04802969 0.39783025 -0.07145152 -0.35187405 -1.0237639 -0.17161772 0.18153822 0.174793 0.4204251 0.63056326 0.14886759 -0.3153811 -0.7257182 0.09924161 -0.17139703 0.29813793 -0.06864182 -0.3290652 0.6584745 -0.00946829 0.34222063 0.24257912 -0.5509486 0.38690093 0.07070617 0.31081524 -0.23607539 -0.23710738 0.5579936 -0.3072171 -0.12305779 0.4188761 0.02402607 -0.22627038 -0.30302674 0.16178012 -0.24618253 -0.16620998 0.09149843 0.25427014 -0.5306191 -0.29878372 0.23919854 -0.17026585 -0.05628281 0.19985923 -0.19562946 -0.21220466 0.65383226 -0.3545333 0.02903974 -0.20490122 0.00217409 -0.3158084 -0.22262333 -0.21837214 0.7157144 -0.22069226 -0.67118245 -0.32920334 -0.4232937 0.2263297 -0.4815441 0.9893182 -0.17248449 0.34648353 0.21938536 0.00190457 -0.21590939 -0.14585194 0.09310011 -0.03814815 -0.16841741 0.59511983 0.09429323 -0.01325357 0.46476656 -0.82084024 0.11257394 -0.02384672 -0.18912025
aoj-x-bible-filifita -0.1082137 0.21530192 -0.325457 -0.8221418 -0.03441724 0.61022854 0.67564183 0.4208688 -0.37154785 -0.06794664 -0.35019326 0.15104602 -0.13380577 0.0037876 0.4383871 -0.15496081 0.05368974 -0.03765799 0.16167077 -0.3268407 0.22664374 0.43083504 0.06783839 0.07141794 0.02657956 -0.14312801 0.0384419 0.01040079 -0.3433364 0.49860683 0.2817222 -0.20230363 -0.22565274 0.14377038 -0.11112934 -0.13279401 0.08214228 0.01446149 0.26194733 -0.01752324 -0.06794325 -0.55633944 0.4570357 0.24414262 0.2436444 -0.3943595 -0.10692482 -0.17576891 -0.24989264 -0.1874704 -0.47697157 -0.07317049 -0.14006482 -0.257998 0.09294435 0.3145876 -0.27789268 -0.2644399 0.10799786 -0.22007103 0.03420735 -0.14793815 0.35063502 -0.15889165 0.11424153 0.04275313 -0.37881073 0.4976124 0.34373894 -0.09162617 -0.02802395 0.2738331 -0.5352626 -0.11986578 0.07980015 0.15004137 -0.27563527 0.24653953 0.09672932 0.22940856 0.21138194 -0.14371668 -0.13842995 0.19433147 0.06225421 0.19891723 0.18949677 -0.3866516 0.19044319 -0.28699514 0.08913599 -0.34479618 -0.40525922 0.08461293 0.61057335 -0.44156054 -0.24575824 -0.02874729 -0.32059473 -0.28467524
aoj-x-bible-mufian -0.12649861 0.14188212 -0.35421696 -0.7381282 -0.05619761 0.60228133 0.71792185 0.3593294 -0.22956958 -0.17048834 -0.3464228 0.06794505 -0.0239914 -0.13394006 0.4310217 -0.11486102 0.02074406 -0.01648656 0.21253167 -0.3184084 0.24538365 0.48950714 0.06367374 0.05183501 0.01101739 -0.07434652 0.08618329 0.07199124 -0.34729493 0.5183318 0.37772375 -0.19162998 -0.15888102 0.15310353 -0.00957084 -0.05730815 0.08013511 -0.11655175 0.13896373 -0.08599144 -0.14225568 -0.4953139 0.50937176 0.25638464 0.23497036 -0.2728298 -0.05652681 -0.17823267 -0.23393926 -0.1588353 -0.47073135 -0.13722347 -0.22518285 -0.23960032 0.13867675 0.32761395 -0.27905986 -0.27668792 0.1024788 -0.2239521 0.02252371 -0.16113004 0.25995827 -0.21087746 0.11488353 -0.05011562 -0.37611747 0.46908 0.43394715 -0.07302676 -0.08185921 0.15628389 -0.4437528 -0.06827608 0.09100259 0.14146142 -0.34184283 0.15350416 0.07918459 0.22723718 0.16167146 -0.13266446 -0.2872943 0.24894276 -0.02501512 0.10925355 0.19460373 -0.34700918 0.1823809 -0.297898 -0.00912314 -0.4286118 -0.43963823 0.10839356 0.42934933 -0.5162939 -0.25867224 -0.1058359 -0.23089148 -0.28903526
aom-x-bible -0.42452124 -0.60712194 -0.48054743 0.00410614 0.20373987 -0.5452598 0.02955084 0.135404 -0.4532485 -0.00908705 0.21501827 -0.19645524 -0.05521186 -0.08632267 -0.46893 -0.1682729 0.04899706 -0.30944103 0.51312715 0.6640263 0.27638176 -0.37184942 0.5494346 0.12941702 -0.63001096 -0.3728797 0.02096568 0.4001622 -0.24293578 -0.78579974 -0.26496944 0.52310634 0.20828956 0.20895384 -0.05847006 -0.18528377 -0.15123545 -0.23391141 0.05715914 0.35661557 0.14412211 -0.2878851 0.29550433 0.5328256 0.41442418 0.38412645 -0.1110215 0.17552006 0.6436697 0.19082646 0.09514986 -0.3533814 0.2996544 0.39806467 0.04294234 -0.6310979 0.01757563 -0.2535205 0.64925253 -0.49131283 0.4375717 0.07960888 0.24340296 -0.37869862 -0.2337836 -0.37825674 -0.42779538 -0.41584012 -0.30103785 0.11993358 0.06429428 0.36342978 -0.14468539 -0.68538254 -0.36443812 0.31722867 -0.16434285 0.14475685 0.287254 0.4394365 0.78702337 0.11375211 0.10236308 -0.12428661 0.32535234 0.8644948 -0.08009176 0.21394818 -0.41256985 0.06084683 0.787282 -0.5056313 -0.5246296 0.01546901 -0.22798291 -0.53756547 -0.10056997 0.10069127 -0.5832721 0.26484114
aon-x-bible -0.40324032 0.22431898 0.29057783 -0.32730004 0.65468794 0.23722552 -0.05839417 0.10058756 0.06850735 0.2758709 -0.3210764 -0.18568885 -0.17706168 0.23322012 0.07500497 0.38967386 -0.10356754 -0.28353757 0.00527663 -0.08169532 0.03826229 0.1438705 0.04400808 -0.24872166 -0.31625703 -0.26866856 0.3397797 0.08818261 0.17764504 -0.11282704 0.34936973 0.23686294 -0.0815611 0.09446682 0.01771963 -0.33687514 0.29505873 0.2807233 0.1416477 -0.16053227 -0.49169594 -0.6150939 0.18417257 -0.10440001 0.43998998 -0.40293106 -0.08084891 -0.00140519 0.32399446 0.5186747 0.11382804 -0.46216843 -0.13515519 0.02862439 -0.2631737 -0.01894631 0.23426256 -0.6136811 0.0800976 -0.25575528 -0.0128678 -0.18646558 0.62687635 0.08323302 0.2648605 0.43348357 -0.18035366 0.33419892 0.29619184 0.03992572 0.03398782 0.3346614 0.13130245 0.15598743 0.1814969 0.3226506 -0.14017773 -0.06788853 0.26719403 -0.24055237 0.01520442 0.5849743 -0.00913103 0.40696213 0.4077736 0.32740116 -0.32783103 0.3104466 0.06576327 -0.00958678 0.30240604 0.7681587 -0.65311635 0.04747907 -0.11340555 -0.76450926 -0.04516331 0.01338671 -0.4138456 0.7859749
aoz-x-bible 0.32881495 0.2832694 0.3876236 -0.13668227 0.32704157 -0.41387928 0.2233933 0.6788174 0.03200081 -0.3543577 0.03538921 0.06293243 -0.26819584 -0.2528398 -0.12125746 0.2695581 -0.12154533 0.28455213 -0.18380575 -0.19804454 -0.14749688 -0.17581448 -0.12694237 -0.16026938 0.42430243 -0.2080954 -0.05366899 -0.1264642 0.00637638 0.0943562 0.18486789 -0.45837477 -0.28411427 0.01887004 0.05092504 -0.22981927 0.02221013 -0.07125475 0.13580489 0.19965209 -0.11454029 -0.09874287 0.38508096 -0.14877388 0.6793201 -0.20550558 0.16923985 0.277818 -0.30281013 -0.12949657 0.04508986 0.07538927 0.02124175 0.272956 -0.41216478 -0.2550146 0.07199324 -0.34414673 0.16094711 0.06836503 0.38894555 -0.25695333 0.25567442 -0.1690623 0.26852316 -0.14305651 0.37725285 0.1874169 -0.23412138 -0.00134498 -0.0219511 0.5563013 -0.466884 0.429937 0.15870906 0.19172116 -0.08606407 0.3012095 -0.16403146 0.1295972 0.07373478 -0.03777432 -0.30521864 -0.644394 -0.11127481 0.10520542 0.23822719 0.20653206 0.14949633 0.21007098 0.25729275 0.3008325 -0.09280016 0.26234898 0.02715056 0.3476463 0.06039986 0.1869775 -0.7067049 -0.21495329
apb-x-bible -0.25509965 -0.19308582 0.05331959 -0.18126377 0.06031888 0.18184094 0.57502276 -0.16168347 0.09072208 -0.5036331 0.10119637 0.12454832 -0.15950738 0.02441826 -0.04307901 0.3065736 -0.3111352 0.32303673 -0.3386472 -0.57551473 0.07017525 -0.0524571 -0.45963252 0.15577704 -0.31236956 0.13890225 -0.4379403 0.27483678 -0.17677383 -0.05193083 -0.16944547 0.19253267 -0.11921339 -0.25719753 -0.56164116 -0.02169244 0.34441254 -0.3615572 0.40822294 -0.06851724 0.16659683 -0.48756593 -0.22265266 -0.20895265 0.43521112 -0.01673857 -0.24886177 0.47674432 -0.3959847 0.06127981 -0.02884004 0.1951232 0.31620675 0.20115098 -0.69569904 -0.40174568 0.35405022 0.21341713 0.11710081 0.3298497 0.00899129 0.72921306 0.00895658 -0.25360927 0.1438459 -0.09207208 -0.24578099 0.0925976 -0.420581 0.27358618 -0.15049256 0.39537328 -0.00227095 -0.7184787 -0.1260749 -0.2085074 0.03478675 0.05033789 0.45509002 0.05499651 0.13942303 0.17638454 0.78418225 -0.47492817 0.2251883 0.24364509 -0.29434034 -0.19578667 0.34538016 -0.27815977 0.32033405 0.3580501 0.0180843 -0.17299893 0.22696742 -0.3293845 -0.10949245 0.39110094 -0.44378018 0.3425037
ape-x-bible -0.09313071 0.31182027 0.30997327 -0.2215391 0.41175705 0.0624794 0.03342098 0.2245803 0.34040484 -0.02945247 -0.6244791 0.09778681 -0.15742351 0.33003086 -0.15683235 -0.0499988 -0.20078433 -0.33192506 0.16688183 0.04067435 -0.26959807 0.39157826 0.23362839 -0.22059003 -0.1765873 -0.01594068 -0.22680353 0.25650966 0.04163107 0.19792497 0.4782646 -0.07817624 -0.162467 -0.58316666 -0.16700481 -0.12050202 0.05046563 -0.00109949 0.2522062 -0.22530054 -0.39760917 -0.52753097 0.1891455 -0.4959335 0.52591044 -0.198114 -0.13615897 0.20791395 0.11261462 0.44963223 0.3121703 -0.40647113 -0.09168784 -0.23417892 -0.2524187 -0.08425978 0.13901474 -0.33222932 -0.05083901 -0.2472777 -0.16606711 -0.2245064 0.40797037 0.26658872 0.2760255 0.57850116 -0.4455144 0.37280566 0.14835575 0.12374331 0.29706317 0.19932081 0.00371964 -0.06665914 0.01994845 0.06951708 -0.13349043 -0.2820886 0.2843683 -0.21422397 -0.15010348 0.0486044 0.09142756 0.6214928 0.35284936 0.27718875 0.0457502 0.5119572 0.32540712 -0.13833083 0.30932593 0.32996356 -0.40639836 0.04310708 0.02184145 -0.85161495 -0.5872996 -0.29922408 0.01851084 0.76112276
apn-x-bible 2.51194298e-01 -4.51792777e-01 3.09973746e-03 -5.76404870e-01 -3.40814054e-01 1.91049412e-01 2.47669235e-01 2.92633861e-01 3.37785393e-01 -3.03168565e-01 7.47275233e-01 -2.27563769e-01 -6.98474824e-01 5.07697344e-01 -8.74173865e-02 2.71464735e-01 2.60890931e-01 2.02023134e-01 3.87579590e-01 -1.87829629e-01 3.55420381e-01 -2.76167318e-02 1.09724335e-01 -4.19127017e-01 1.35591388e-01 -2.84880549e-02 -2.45192602e-01 2.49816047e-04 1.57365471e-01 -6.10368624e-02 6.76875293e-01 -8.01515430e-02 -3.22532319e-02 2.00021386e-01 4.53611791e-01 8.14787388e-01 7.13994056e-02 5.92135966e-01 3.21039468e-01 1.58574417e-01 6.97121739e-01 3.74026150e-01 -4.35397893e-01 -3.52731228e-01 2.60270864e-01 1.14365019e-01 1.08909875e-01 -5.31897783e-01 3.43666464e-01 2.84593433e-01 -2.77900130e-01 -5.58654517e-02 -3.99485886e-01 3.07878286e-01 -1.96288422e-01 -6.07764184e-01 -1.21583484e-01 -1.50428876e-01 2.43618444e-01 1.36679947e-01 -4.89066273e-01 -1.14330225e-01 -1.34992898e-01 -3.37176621e-02 -1.73558548e-01 3.45931560e-01 7.18900621e-01 2.28161782e-01 -1.21286683e-01 -2.13349760e-01 -5.42951941e-01 3.47318560e-01 2.41075829e-01 1.54841051e-01 -8.53605419e-02 6.94367945e-01 3.35870355e-01 3.63962293e-01 1.10644855e-01 1.01829335e-01 -4.43768688e-02 2.22085536e-01 4.88763720e-01 1.05090630e+00 1.42790452e-01 2.15052158e-01 -4.04467399e-04 -4.85759694e-03 -6.61315843e-02 4.69937384e-01 -1.04445606e-01 1.59904450e-01 7.85453916e-02 -2.91767269e-01 4.07974534e-02 -7.65016437e-01 3.86604488e-01 -2.18640402e-01 -5.24357498e-01 1.03805736e-01
apr-x-bible 0.3935022 0.22493958 0.16829824 -0.00602297 -0.01345824 0.29856166 -0.3143096 0.6059964 0.5822496 -0.46492177 -0.15517822 0.40654704 -0.05613222 0.24288566 0.0875301 -0.14526205 0.23001933 -0.04280291 -0.56805897 0.14206848 0.5127005 -0.33571884 0.28501362 0.5302303 -0.1757922 -0.03665577 -0.5139785 0.24814132 -0.7880326 0.3173184 -0.07304312 0.00832852 0.21967404 -0.18723099 -0.29468873 -0.17634206 -0.21873072 0.00626728 -0.35206187 -0.00367682 0.03137547 0.05555704 -0.03510515 -0.55498576 -0.28025064 -0.13594298 0.48350546 0.11959247 -0.1693144 -0.14488755 0.13705596 0.35443935 0.34204423 -0.0835765 -0.06132826 -0.20569062 0.43941998 -0.4907227 -0.5224534 -0.08793886 -0.5093871 0.33757275 -0.40441072 -0.35036117 -0.40415272 -0.12646735 0.20247203 0.17222218 0.25215513 -0.43752918 -0.10639871 -0.04838286 -0.07264561 0.17172673 0.3685543 0.04112211 -0.36501744 -0.3435401 0.43753067 -0.18432969 -0.16804253 -0.06631628 0.26480085 -0.310909 0.06243506 -0.34333906 -0.18746892 -0.45699745 -0.24261971 -0.3572089 -0.07773216 0.47381866 -0.23805375 -0.08537191 -0.16332957 -0.21713476 0.0776265 -0.25233632 -0.561199 -0.15684076
apt-x-bible -0.03036926 0.11526877 0.32261026 -0.03335181 0.15120216 0.4055581 -0.1650397 -0.4035208 0.1423808 -0.38953325 -0.38389942 0.11854084 0.12979317 0.00418112 -0.39542136 -0.32733884 -0.02065346 -0.01559812 -0.02645903 -0.09829833 -0.5107079 -0.5214029 -0.42900217 -0.05996951 -0.32924962 0.0144252 -0.6300279 0.33984274 0.32858765 0.42649582 -0.05208798 0.133408 -0.06896465 -0.40376467 0.1853947 0.5700546 -0.01125789 -0.15326902 0.21869707 -0.47889525 -0.04775176 0.20956203 -0.2545498 -0.16735438 0.05396607 -0.2191882 -0.09231911 0.11330176 0.3576165 0.65590644 0.07266142 -0.08037222 0.03747324 -0.08895126 0.00699222 -0.36777174 0.2901992 -0.20284063 0.22528097 0.16897953 -0.07372813 -0.202106 0.07750995 -0.4800389 0.17533892 -0.17709272 0.11783545 -0.06910174 -0.5851901 0.1293091 0.00781669 0.20282686 -0.18195882 0.01901982 0.02637867 0.0606254 -0.45943952 0.11923964 0.14331703 -0.06975373 0.0761352 0.61162496 0.4889071 -0.01474005 -0.27805993 -0.17594282 0.28773385 0.1165771 0.28160644 0.00156466 0.10444081 -0.47772107 0.5876354 0.138397 0.03940184 0.00387094 0.03502748 0.2094623 -0.22342445 0.09168325
apu-x-bible -0.2878015 -0.4877032 0.44181156 -0.13747153 0.39492276 0.22855283 -0.1263084 0.0625917 -0.02097958 -0.18119445 0.09809345 -0.23936504 -0.01583333 -0.16659306 0.28848562 -0.13479114 0.48038515 0.00971893 0.48933592 -0.48784932 0.89821076 0.00327802 -0.10556965 0.16976635 -0.7720979 0.41265798 -0.38656706 -0.03765328 0.26882508 -0.68651205 0.32431158 -0.02731924 0.11773334 0.37794036 0.9783769 0.26580238 -0.0476684 -0.16749144 -0.04408422 -0.41663948 -0.7093519 -0.13893387 -0.5393518 0.04844855 -0.10209444 0.50641847 0.25682408 -0.566366 0.28482515 0.05060402 -0.62746996 -0.37852824 0.1885258 0.33509317 0.08448964 0.79219973 -0.15618303 -0.36151722 -0.04605028 -0.19498649 -0.5258149 -0.45186818 0.19683434 0.04363153 -0.1061624 0.07887601 0.7466323 0.29445884 0.30671886 0.32545766 -0.58820313 -0.2311016 0.02230755 -0.35951835 0.09466296 -0.07123791 0.34822297 -0.30363655 -0.23655768 -0.25144267 -0.05803626 0.53893167 0.2608385 -0.02229812 0.46265078 0.23994267 0.4394308 0.0223495 0.4766473 -0.0956312 0.0553912 0.09904275 0.03280152 0.5335736 0.20557564 0.83060414 0.46008837 0.21297152 -0.26436314 0.3760996
apw-x-bible -0.4237604 -0.37476373 -0.1719265 -0.09202636 -0.33809918 -0.3796114 0.4162795 -0.01799917 0.2632023 0.39236507 -0.50076985 -0.44911504 0.4644461 -0.5939157 -0.1765539 -0.5125162 -0.477451 -0.14798167 -0.23730357 -0.41965398 0.13502513 -0.34365353 -0.24669422 0.56425714 0.01659766 0.45747873 0.05850102 -0.1363084 0.4325051 0.41323337 -0.12140197 0.07359334 -0.25490516 -0.37902677 0.06420811 0.1760893 0.19059297 0.25650507 -0.03652048 0.37637442 -0.3051847 -0.09468471 0.09772902 0.4355799 -0.36494192 -0.42972347 0.34989628 0.53867376 -0.03279286 0.19994564 0.00627849 0.01615683 0.65520227 -0.17264892 -0.09729538 0.35147917 0.15638891 0.25517255 -0.10511077 0.04144324 0.11321828 -0.01857232 0.11795183 0.33404747 0.12634818 0.05252325 0.41816175 -0.10685054 0.06694021 -0.01160109 0.01592467 0.16255757 -0.02414163 -0.08823342 0.09807986 -0.24467975 -0.39588878 -0.1182144 -0.01260716 0.56521577 0.09003229 0.30658498 0.55680656 -0.22840843 0.49322316 -0.21495056 -0.5027932 0.11461437 0.1795119 0.07552997 0.02668132 -0.4332258 -0.22031945 0.5447825 0.3946129 0.43407327 0.01008356 -0.6894273 -0.0603909 0.16572556
apy-x-bible -0.01340653 -0.17561157 0.09532002 -0.21074466 0.06611153 -0.161932 0.02372796 -0.25569892 0.18095091 -0.22350863 0.63682014 -0.7876194 -0.25595656 0.5231766 -0.36328867 0.23183167 0.29213655 0.18210168 0.6238414 0.6707765 0.23234701 -0.19808921 -0.36953813 -0.5084214 -0.03037499 -0.34490284 0.30472666 0.01572599 -0.05800591 -0.10639818 -0.0688265 -0.05926304 -0.5281226 0.13317667 0.6298318 0.45610178 0.2902091 0.31347418 0.01584939 -0.23464663 -0.26728386 -0.25803995 0.05809978 -0.03305989 -0.1393962 0.19486323 -0.45417216 -0.0737588 0.36870813 -0.3532498 0.7166442 0.010606 0.40097153 0.00430182 0.07738278 0.21896552 0.7376395 -0.23772725 -0.08448455 0.24634011 -0.27081877 -0.10969264 0.34401077 -0.29863665 -0.21223381 -0.24257897 0.2198417 0.36573645 0.18458503 1.2444011 -0.32169876 0.687398 0.00212694 0.2566327 0.03890774 -0.15566126 -0.04627146 0.05754088 0.5405154 -0.20123823 -0.67292476 -0.13576184 0.2990232 -1.0381728 0.6269718 0.096168 -0.23403268 0.02004127 0.16080162 0.07657154 -0.22697008 -0.6023179 -0.0921507 0.23689127 -0.41608927 -0.24496809 -0.10203306 0.30644763 -0.18085812 0.19099557
apz-x-bible 0.09387048 -0.3836971 -0.41163927 -0.12794231 -0.01438076 -0.42393205 -0.09973381 -0.16443188 -0.08020394 0.46704513 -0.17333062 -0.74257886 0.13848607 -0.07119408 -0.05759499 -0.48476255 -0.25326398 0.08942496 -0.13627754 -0.17225403 -0.19307347 -0.35862362 -0.31435385 0.02322716 0.11832348 -0.6396883 -0.40833074 0.54573256 0.10325059 0.33901042 -0.08918641 -0.3225608 -0.254136 -0.01313725 0.30633503 -0.33020267 0.49079397 -0.5313267 -0.4963741 0.19200106 -0.2562575 -0.14633562 0.24004649 0.83224916 0.7730813 0.38985512 0.33778808 -0.07292405 -0.07164191 0.4666727 -0.11615147 -0.1328335 0.5311261 -0.12544699 0.18372694 0.07585793 -0.30998594 -0.11569 -0.15124963 -0.3895314 0.645083 -0.05353343 0.46540755 -0.00878899 -0.6426446 -0.29224324 -0.684102 -0.19729905 -0.7458385 0.26149538 0.12474966 0.13670012 -0.3796949 -0.31513697 -0.15625508 -0.25090972 -0.8321264 0.67521024 0.30457702 -0.00805024 -0.09451339 -0.05517271 -0.17403497 -0.1603541 -0.2655726 0.14047441 -0.41431028 -0.12716018 -0.49840054 -0.31983528 -0.09475976 0.26595122 0.10664711 0.20089094 -0.01119809 -0.49833876 0.03560558 0.17287016 -0.4118845 -0.2443656
