1664 100
aai-x-bible 4.68017 4.6804 5.74977 5.70985 5.52011 5.54476 4.91198 4.51554 4.64471 5.43955 5.4998 5.2447 5.06546 5.33484 4.43172 5.08283 5.47626 5.5838 4.82958 5.42597 5.10838 5.53325 5.40336 4.54426 4.69903 4.78329 4.65178 5.19513 5.02694 5.61996 5.04201 4.63387 5.31284 5.83974 4.65119 5.02624 4.21421 5.66071 5.01668 4.70766 4.62721 4.36076 5.19646 5.41912 5.12045 4.51909 4.66499 4.46847 5.35949 4.56322 5.91906 4.97298 4.73331 4.26808 5.45736 4.68317 4.18372 4.94202 4.83347 5.18137 5.44213 4.20372 4.71085 5.37761 4.74435 5.18795 5.33504 5.04846 4.74501 5.05071 5.47344 5.65952 4.34304 5.44762 5.21195 4.74127 4.68493 4.55449 5.67757 4.73429 4.54656 4.98643 4.85971 5.50025 5.61292 5.5519 4.91331 4.74747 5.29329 4.86247 5.09776 4.87633 4.63825 5.62765 4.94789 5.58098 5.26068 4.73252 4.93946 5.04816
aak-x-bible 4.77183 4.98698 5.5921 5.56396 5.66567 5.78379 4.77098 4.40569 4.78625 5.46734 5.64943 5.49626 5.19382 5.21626 4.44298 5.08025 6.14739 5.41161 4.51416 5.7712 4.96815 5.67856 5.43664 4.2803 4.57003 5.1305 4.81293 5.16609 5.04981 5.79594 5.05028 4.50938 5.38601 6.06081 4.92367 4.73542 3.91212 5.54156 4.92504 4.74833 4.54912 4.00512 5.12611 5.42515 4.94649 4.55186 4.46658 4.50112 5.20019 4.52616 5.86734 5.42945 4.24331 4.36838 5.42609 4.56285 3.98259 4.61545 4.72051 5.38367 5.17127 3.97132 4.6977 5.44922 4.66613 4.79466 5.51444 4.9292 4.47016 5.40035 5.43113 6.48754 4.38702 5.30557 5.45944 4.76116 4.83737 4.97848 5.97308 4.7768 4.49628 4.51683 4.65726 5.24023 5.74519 5.36146 4.58415 4.76443 5.16901 4.87608 5.37616 4.54787 4.39668 5.88535 4.76304 5.44038 4.89604 4.90479 4.6767 5.07896
aau-x-bible 4.62628 4.57439 6.27054 5.96419 5.73715 5.71424 4.70306 4.45336 4.82685 5.82208 5.71491 5.40533 5.28111 5.3975 4.32171 5.00694 5.97092 5.74357 4.67413 5.89636 5.07929 5.69867 5.57692 4.26739 4.50374 4.93811 4.72535 5.21073 5.08697 6.00298 5.2155 4.41489 5.30585 6.16191 4.48567 4.95811 3.68526 5.80266 4.85725 4.5459 4.27636 3.8982 5.39602 5.74986 5.33603 4.17246 4.19567 4.3184 5.30841 4.31428 6.21243 4.92411 4.13114 4.00804 5.76335 4.43729 3.72761 4.64352 4.62914 5.44708 5.36083 3.78737 4.63644 5.54157 4.75542 4.82402 5.61562 4.99135 4.22918 5.33847 5.70879 6.50773 3.91053 5.74445 5.54474 4.65465 4.73032 4.3899 6.14414 4.7528 4.29791 4.77599 4.48288 5.5372 5.82404 5.68416 4.77338 4.69268 5.38864 5.00921 5.29687 4.56656 4.40246 5.69262 4.90026 5.7871 5.19987 4.71233 4.82934 5.21589
aaz-x-bible 4.51424 4.77122 6.53694 4.42311 5.36504 5.05885 6.7235 5.60603 4.98449 6.3172 4.52828 5.05443 5.00325 4.07834 5.82351 5.96955 4.67495 5.868 4.82868 3.5658 4.21631 6.27257 5.34471 4.83774 3.99329 5.30109 6.44267 5.38907 4.10593 3.85943 5.14418 4.75218 5.25511 5.8571 4.95951 6.4366 4.68453 5.52808 5.23354 5.08434 3.65714 3.8094 4.14381 4.66286 5.5662 3.77908 4.25571 5.62244 4.83955 4.79103 4.9082 5.56096 5.07071 6.1978 5.59467 5.33955 4.86924 5.92379 5.71528 5.14202 4.94007 5.20173 5.10728 4.29901 3.55564 6.22769 5.24955 3.94653 3.82776 5.16844 4.08681 4.07606 5.04909 5.45596 4.20523 6.1076 4.87318 4.37196 5.39294 4.7886 5.74695 4.59933 5.79756 4.39831 5.03932 5.37788 4.02783 4.83319 4.36948 4.82265 3.31522 3.75411 6.04697 3.76765 4.52844 5.26029 4.48345 4.44981 4.9262 5.75458
abt-x-bible-maprik 4.63819 4.60355 6.22475 5.92696 5.7472 5.74147 4.71767 4.44815 4.80845 5.81227 5.71731 5.42281 5.25037 5.36721 4.34217 5.03087 5.96989 5.71143 4.6569 5.86156 5.06068 5.71292 5.56962 4.25535 4.49606 4.95113 4.73815 5.23276 5.08471 5.99292 5.20852 4.41514 5.31476 6.18543 4.51834 4.95336 3.69473 5.77636 4.86572 4.56714 4.28319 3.90178 5.35358 5.72386 5.27966 4.21169 4.2253 4.33593 5.30863 4.32558 6.20798 4.9683 4.17152 4.04302 5.72091 4.45236 3.7495 4.66955 4.63682 5.44278 5.34789 3.78937 4.63617 5.53911 4.72513 4.83465 5.63018 4.98436 4.25249 5.33707 5.67487 6.4782 3.95943 5.7097 5.52542 4.66372 4.74199 4.45705 6.15315 4.75436 4.31534 4.75539 4.51263 5.51932 5.82828 5.66378 4.76329 4.70071 5.35484 4.99548 5.29734 4.56282 4.4116 5.72449 4.87957 5.76304 5.17971 4.71727 4.81124 5.19971
abt-x-bible-wosera 4.61262 4.52315 6.33538 6.01045 5.72733 5.68624 4.7041 4.46003 4.8334 5.84648 5.711 5.3823 5.28757 5.42535 4.30406 4.98815 5.92433 5.78325 4.70542 5.88991 5.09823 5.68464 5.58634 4.28427 4.50608 4.90781 4.70621 5.20782 5.08801 6.00449 5.22698 4.41196 5.29329 6.14839 4.43342 4.99016 3.68276 5.8292 4.84919 4.51951 4.265 3.89956 5.43245 5.77844 5.39075 4.13334 4.17644 4.3017 5.31637 4.29567 6.22881 4.85917 4.13854 3.97132 5.80543 4.42601 3.71852 4.65711 4.62938 5.44021 5.39255 3.78478 4.63446 5.54264 4.77726 4.83887 5.61101 5.0013 4.20508 5.32373 5.7374 6.46166 3.85179 5.7968 5.54351 4.64481 4.71724 4.30772 6.13512 4.74899 4.28078 4.81795 4.47568 5.56328 5.81415 5.71613 4.80246 4.68719 5.42245 5.02517 5.27618 4.59057 4.41299 5.65081 4.92598 5.81368 5.23856 4.69318 4.8598 5.23402
abx-x-bible 4.35666 4.95496 6.94183 3.86401 4.9627 4.18647 7.26948 5.989 5.47066 6.44607 4.14532 4.83434 4.90981 4.25024 5.89706 5.90764 4.72562 6.1211 4.98138 3.01893 3.84635 5.97744 5.29355 4.87947 3.89499 5.29762 6.69867 4.57534 4.6723 3.55192 4.83856 4.81819 5.19053 5.7257 5.05393 6.68695 4.59559 5.34056 5.20503 4.43022 3.60707 4.05371 4.41397 4.50631 5.99867 3.82248 3.90075 5.9271 4.72412 5.242 4.32537 5.39544 4.95407 6.45504 5.69878 5.37738 5.22029 5.8061 5.54525 5.19271 4.50537 5.77935 5.56392 3.60409 3.42827 6.26125 4.72198 3.22657 3.48691 5.24641 3.88896 3.97001 5.21271 5.32647 4.11772 6.66066 5.26955 4.29006 5.33182 4.79601 5.77629 4.41839 5.96789 4.17359 4.87813 5.14729 4.56553 4.75619 3.79175 5.06617 3.19794 3.54556 6.03945 3.33582 4.84806 5.35967 4.42341 4.49276 5.04381 5.83338
aby-x-bible 4.8355 5.2318 5.09752 5.35625 5.58889 5.76987 4.81143 4.41072 4.75851 5.16181 5.56664 5.4735 5.18193 5.15763 4.5276 5.13268 6.1638 5.2019 4.4337 5.67097 4.94156 5.59321 5.33092 4.33968 4.68977 5.21431 4.86391 5.07587 5.02211 5.61158 4.92029 4.59657 5.45337 5.85005 5.18029 4.57732 4.14179 5.39893 4.99608 4.90328 4.79564 4.14654 4.99469 5.20127 4.78172 4.75473 4.66761 4.57974 5.13489 4.65272 5.55147 5.70794 4.37505 4.57703 5.2614 4.64329 4.14501 4.57303 4.78882 5.34338 5.0459 4.12721 4.75742 5.37084 4.66332 4.80551 5.37326 4.88619 4.63173 5.36116 5.31261 6.32852 4.68073 5.00762 5.39323 4.84241 4.88432 5.28814 5.74548 4.78002 4.66478 4.38183 4.7725 5.0633 5.65523 5.14668 4.53416 4.79689 5.07463 4.79516 5.38126 4.60016 4.41363 5.95074 4.73855 5.19719 4.74742 5.04551 4.6114 4.9604
acc-x-bible-cubulcu 4.70082 4.96665 5.30183 5.37542 4.41179 3.70381 4.87774 4.72201 5.53634 4.15637 4.68357 3.84321 5.10587 5.53967 4.48283 4.92357 3.62792 5.1753 5.71956 5.01304 5.66458 4.67077 4.55377 5.77032 5.01739 4.6139 4.4729 4.46241 4.89553 4.58416 4.35277 5.90165 4.90931 3.85426 4.54182 5.00523 5.16384 5.43627 4.80334 4.94105 5.28711 6.00832 4.98092 5.19489 5.16944 4.96691 4.74514 5.0874 5.02991 6.05633 4.04525 4.53362 5.6203 4.49178 5.09829 5.21688 5.55831 5.79107 4.95818 5.05584 5.98583 5.42061 4.94691 5.50571 6.56889 5.99207 4.56875 5.7923 6.07064 5.04412 5.18162 4.39719 5.47805 4.74194 4.39646 4.18701 5.14846 4.77584 4.08519 4.97315 5.27785 6.04845 4.46275 5.78439 4.42846 5.36471 5.81395 4.58817 6.24854 5.47361 5.67193 5.19065 4.60615 4.91586 5.36464 4.91589 5.83282 5.01434 5.33602 4.39099
acd-x-bible 4.9024 5.27021 4.8438 5.19913 5.50026 5.67773 4.9289 4.47794 4.65175 5.02683 5.4355 5.35057 4.98018 5.08982 4.65111 5.21917 5.90992 5.07045 4.54466 5.37329 4.96207 5.50995 5.185 4.47758 4.76474 5.12049 4.84005 5.15264 5.0113 5.4159 4.85767 4.73531 5.43838 5.69081 5.24394 4.65736 4.42171 5.31675 5.06607 5.006 4.94461 4.40075 4.82088 5.04564 4.61947 4.97573 4.96058 4.66913 5.16 4.78444 5.3963 5.70884 4.7192 4.6931 5.05439 4.78728 4.41938 4.80932 4.87141 5.2209 5.10457 4.34393 4.77701 5.28654 4.6486 5.02424 5.27954 4.94384 4.86831 5.23015 5.18667 5.70745 4.90216 4.87112 5.16777 4.87452 4.87525 5.36907 5.48637 4.79193 4.81902 4.50421 5.02812 5.0279 5.56763 5.11238 4.6346 4.83629 4.98681 4.70195 5.25044 4.79931 4.58957 5.93958 4.77668 5.09975 4.78479 4.99788 4.65576 4.85392
ace-x-bible 4.52695 4.74307 6.56936 4.39794 5.47793 5.06564 6.79177 5.59518 4.91987 6.44014 4.56141 5.14072 5.01491 3.90208 5.86922 6.10736 4.58233 5.84463 4.78934 3.40772 4.21625 6.46204 5.37395 4.89645 4.06635 5.37053 6.58767 5.52938 3.77773 3.67262 5.22474 4.7568 5.21935 5.84361 4.87706 6.58177 4.74124 5.58635 5.24864 5.23666 3.5336 3.74669 4.00698 4.62789 5.57474 3.6601 4.27416 5.66199 4.83384 4.76302 4.88452 5.58072 5.15084 6.32099 5.58498 5.3852 4.84587 6.06433 5.93638 5.09649 5.00049 5.18568 5.05929 4.30795 3.536 6.37413 5.33023 3.9637 3.86504 5.17522 4.03166 3.90687 5.06182 5.53784 4.02913 6.16592 4.923 4.32692 5.37269 4.76585 5.81922 4.6289 5.82418 4.32525 5.0447 5.46024 3.73934 4.91895 4.36079 4.76866 3.07297 3.69543 6.15421 3.57185 4.42269 5.21932 4.44912 4.42781 4.9961 5.7949
acf-x-bible 4.63635 4.70139 5.49675 5.53259 5.38786 5.20341 4.86188 4.65902 4.75851 5.24302 5.39503 4.95352 4.98474 5.39574 4.64622 4.95819 4.93976 5.42111 5.197 5.17814 5.19169 5.2273 5.26714 4.84503 5.08212 4.73511 4.42643 5.08483 4.99248 5.41346 5.13885 4.96052 5.11322 5.30869 4.72251 5.09735 4.5749 5.584 5.09419 4.74319 4.99422 4.96603 5.31361 5.26115 5.23811 4.70648 4.99267 4.49687 5.38121 4.82022 5.73807 4.66741 5.00751 4.39817 5.39769 4.78727 4.61543 5.18566 4.93051 4.98958 5.62735 4.53269 4.7808 5.26204 4.8881 5.25168 4.97512 5.34075 5.1345 4.71207 5.38624 5.06053 4.47896 5.19278 5.02068 4.64514 4.5295 4.53133 5.31486 4.615 4.68259 5.54059 4.96858 5.59075 5.39756 5.48052 5.01732 4.78976 5.40143 4.85103 5.08814 5.32065 4.7891 5.50832 5.11537 5.47134 5.46818 4.76084 5.19254 5.06502
ach-x-bible 4.95074 4.85404 5.20757 5.40618 5.27247 5.47814 5.07118 4.54052 4.61079 5.24334 5.39118 5.18062 4.87144 5.09535 4.52057 5.05839 5.63066 5.27998 4.80747 5.17257 4.95199 5.47674 5.19113 4.54524 4.67747 4.9545 4.82943 5.34884 4.98157 5.29362 4.88913 4.70282 5.39663 5.68238 4.97068 4.99783 4.61748 5.42467 5.01668 4.8013 4.85725 4.42166 4.94712 5.02365 4.81902 4.77056 5.01057 4.76149 5.06558 4.7169 5.48631 5.34218 4.83109 4.66525 5.13439 4.82152 4.55116 4.8825 4.91958 5.12642 5.11719 4.43317 4.75006 5.18139 4.67969 5.20426 5.34174 4.84131 4.43448 5.14521 5.08237 5.53751 4.74667 5.14664 4.99006 5.02627 4.87387 4.93029 5.27572 4.79589 4.88481 4.64988 5.14748 5.16999 5.46977 5.27631 4.87905 4.84418 4.98516 4.77755 4.88736 4.91892 4.82593 5.50371 4.99912 5.18388 4.89088 4.92669 4.72594 4.93057
acn-x-bible 4.82842 4.85172 5.33771 5.45028 5.4249 5.54052 5.06617 4.55852 4.50078 5.26115 5.39553 5.21499 4.85672 5.16417 4.53966 5.2082 5.46878 5.34277 4.82168 5.15001 5.05707 5.51993 5.26882 4.59702 4.71491 4.80216 4.70187 5.31593 5.0001 5.39998 4.94289 4.72514 5.35545 5.76306 4.85802 5.04195 4.49027 5.50716 5.08017 4.8454 4.78502 4.47749 4.92407 5.17691 4.84984 4.79752 4.95886 4.6073 5.28708 4.67792 5.68645 5.22486 4.98267 4.4897 5.19327 4.82195 4.43928 5.0978 4.92775 5.10628 5.36546 4.37288 4.72326 5.2948 4.65846 5.32019 5.32641 5.00572 4.88742 5.02199 5.24548 5.20546 4.6629 5.22364 4.99008 4.86111 4.73728 4.87191 5.46397 4.75777 4.75358 4.85728 5.17551 5.29388 5.56782 5.40221 4.87752 4.81389 5.0827 4.74532 4.99029 4.95863 4.79839 5.70993 4.90267 5.37866 5.1062 4.73887 4.84836 4.97418
acr-x-bible-reformed 4.70202 4.96829 5.26797 5.37707 4.42188 3.73757 4.87325 4.70844 5.53818 4.14095 4.66332 3.84182 5.11032 5.55518 4.49562 4.91216 3.65347 5.1874 5.69849 4.99386 5.65485 4.65793 4.53183 5.7838 5.02968 4.60469 4.49163 4.45791 4.88765 4.56823 4.35394 5.89631 4.91484 3.86188 4.52441 5.00818 5.14892 5.43758 4.8225 4.93044 5.29559 6.01847 4.9896 5.19297 5.16101 4.96068 4.77177 5.06934 5.0491 6.04723 4.0421 4.52462 5.62024 4.51869 5.112 5.22072 5.55249 5.77907 4.94931 5.04797 5.97143 5.4369 4.95878 5.47236 6.53845 5.97823 4.54567 5.78452 6.08416 5.03447 5.18759 4.39058 5.47044 4.7473 4.41134 4.20242 5.14773 4.78371 4.07221 4.99656 5.27369 6.02584 4.4594 5.78525 4.42034 5.35471 5.81079 4.60563 6.24863 5.46839 5.64473 5.21312 4.60645 4.90931 5.37536 4.91261 5.8229 5.01578 5.34174 4.3911
acr-x-bible-traditional 4.7016 4.96828 5.26622 5.37691 4.42205 3.73867 4.87289 4.70822 5.53829 4.14039 4.66215 3.84174 5.1103 5.55542 4.4959 4.91179 3.65316 5.18767 5.69788 4.99355 5.65494 4.65736 4.53116 5.78418 5.0303 4.60448 4.49185 4.45787 4.88788 4.56806 4.35373 5.89646 4.91498 3.86182 4.52421 5.00788 5.14891 5.43736 4.82293 4.93031 5.29604 6.01938 4.98984 5.19289 5.16069 4.96092 4.77279 5.06909 5.04938 6.04719 4.04199 4.52475 5.62053 4.51944 5.11196 5.22118 5.55266 5.77852 4.94908 5.04772 5.97089 5.43801 4.95941 5.47009 6.53694 5.97766 4.54467 5.78435 6.08449 5.03451 5.18766 4.391 5.47011 4.74705 4.41181 4.2028 5.14789 4.78381 4.07034 4.99786 5.27331 6.02488 4.45916 5.78497 4.42017 5.3548 5.81071 4.60601 6.24828 5.46825 5.6443 5.21396 4.60632 4.90901 5.376 4.91252 5.82283 5.01588 5.34172 4.39084
acu-x-bible 4.63472 4.92041 4.62557 5.23215 4.78876 4.54713 4.77033 4.49752 5.3949 4.18494 4.4332 4.22344 5.0887 5.52853 4.58782 4.88897 4.30273 5.24474 5.21645 5.02432 5.57835 4.67492 4.28264 5.63011 5.23678 4.70469 4.65516 4.57253 5.03737 4.75855 4.3003 5.67788 4.9708 4.31019 4.53422 4.7275 4.9803 5.29638 5.07911 4.91648 5.33848 5.74508 5.09831 5.07155 4.88068 5.08515 5.25645 4.93664 5.19119 5.7438 4.3602 4.64354 5.56375 4.72534 5.07002 5.31971 5.30222 5.34057 4.83948 4.98405 5.57157 5.36182 5.17117 4.85996 5.77265 5.58088 4.44257 5.51582 5.8842 5.11013 5.24832 4.64387 5.22756 4.69988 4.82147 4.60656 5.23306 5.00136 4.22772 5.34637 4.9947 5.39713 4.40751 5.49637 4.81099 5.29424 5.54855 4.8931 5.71429 5.14971 5.23032 5.22622 4.6546 5.11102 5.47943 4.88878 5.59018 5.07874 5.22991 4.30817
ade-x-bible 4.88146 5.00301 5.14504 5.28724 5.44534 5.54674 5.00349 4.58724 4.59793 5.21284 5.37872 5.15851 4.81961 5.09016 4.67961 5.23797 5.58126 5.1558 4.79349 5.17186 5.01746 5.46934 5.15061 4.57353 4.75486 4.94343 4.78043 5.31296 5.01681 5.39197 4.9448 4.80908 5.34342 5.66411 4.9925 4.94381 4.49841 5.39766 5.06698 4.90564 4.85596 4.56349 4.83897 5.10844 4.70917 4.91406 5.04319 4.6685 5.20855 4.77568 5.52687 5.35924 4.92655 4.60274 5.09158 4.8505 4.52818 5.0743 4.86924 5.17986 5.2564 4.38531 4.74186 5.26809 4.66168 5.20949 5.31619 5.0271 4.87085 5.08851 5.17899 5.2333 4.78756 5.03601 4.99365 4.86587 4.81893 5.11895 5.42626 4.79457 4.84719 4.78767 5.13998 5.17808 5.56265 5.30149 4.84196 4.84281 5.00842 4.74569 5.07139 4.94808 4.77872 5.8014 4.9119 5.23931 4.99071 4.82538 4.78076 4.91061
adh-x-bible 4.95399 4.84145 5.23388 5.37548 5.28419 5.45946 5.06203 4.57515 4.62664 5.27763 5.3808 5.12552 4.82509 5.07126 4.58274 5.08172 5.591 5.24339 4.85597 5.14148 4.95481 5.45561 5.15355 4.55639 4.692 4.9588 4.83781 5.37915 4.98886 5.30106 4.9206 4.74566 5.36635 5.65275 4.95334 5.03009 4.61997 5.41174 5.01438 4.79957 4.85261 4.48637 4.924 5.02911 4.79854 4.79184 5.04621 4.76949 5.06411 4.74184 5.48386 5.30095 4.85721 4.66845 5.11827 4.84025 4.59008 4.94653 4.89602 5.14631 5.13041 4.43531 4.74413 5.17811 4.67403 5.20748 5.34877 4.87925 4.41021 5.12877 5.07279 5.45057 4.74966 5.12956 4.95791 5.01389 4.87564 4.93546 5.27265 4.80126 4.91066 4.70604 5.15792 5.17052 5.47824 5.29534 4.9083 4.85223 4.97233 4.78705 4.88377 4.94802 4.85463 5.50687 5.0244 5.18572 4.91377 4.90646 4.74032 4.93085
adi-x-bible 4.84938 4.96513 5.08871 5.4795 5.34071 5.56665 5.0685 4.42347 4.50077 5.01432 5.40546 5.37386 5.02048 5.23731 4.34712 5.09781 5.61237 5.40462 4.65894 5.25706 5.03911 5.52483 5.3286 4.59078 4.72474 4.84717 4.69625 5.15512 4.97142 5.31944 4.79048 4.63221 5.46144 5.74126 5.01155 4.84772 4.566 5.48403 5.09064 4.89312 4.90994 4.34077 4.9845 5.07725 4.86322 4.79884 4.90852 4.62916 5.23759 4.68086 5.56645 5.43781 4.89836 4.55531 5.1845 4.78523 4.39607 4.84824 5.00538 5.03071 5.26827 4.44727 4.77201 5.26294 4.71878 5.27438 5.2346 4.88417 4.91258 5.08943 5.23726 5.55144 4.75762 5.17016 5.09332 4.91727 4.76832 4.91244 5.36506 4.75044 4.72174 4.6394 5.12716 5.23709 5.48125 5.25936 4.77961 4.79885 5.11998 4.70785 5.02949 4.88763 4.67119 5.66053 4.83549 5.27231 4.98601 4.89918 4.78732 4.91436
adj-x-bible 4.86926 4.93454 5.35053 5.23957 5.57156 5.58406 5.04603 4.71462 4.45916 5.46783 5.39154 5.05931 4.59011 5.01413 4.87422 5.41332 5.42613 5.0816 4.94438 5.00323 5.04242 5.50522 5.13546 4.56936 4.75665 4.81983 4.71218 5.51866 5.04257 5.48789 5.10869 4.87127 5.25462 5.74516 4.86192 5.1585 4.45191 5.42728 5.09859 4.89182 4.73935 4.70438 4.7234 5.2008 4.64352 4.98238 5.15298 4.59986 5.33488 4.73262 5.74202 5.17954 5.11913 4.50206 5.05979 4.89787 4.55722 5.41343 4.82964 5.20965 5.42796 4.28652 4.65871 5.35218 4.53659 5.31566 5.43351 5.17911 5.02232 4.94723 5.19827 4.69724 4.71524 5.10064 4.8351 4.78941 4.71285 5.11534 5.57146 4.74603 4.86038 5.02658 5.3178 5.24023 5.70588 5.45355 4.90773 4.85944 4.93455 4.72652 5.03314 5.06613 4.93206 5.97845 4.90964 5.39344 5.14181 4.59498 4.83967 4.9911
adl-x-bible 4.85224 4.9691 5.08795 5.47412 5.3446 5.569 5.06475 4.42629 4.50638 5.02068 5.40705 5.37098 5.01664 5.23168 4.35634 5.09998 5.62118 5.39718 4.65824 5.25981 5.03579 5.52503 5.32421 4.58562 4.72285 4.85492 4.70174 5.15979 4.97294 5.32385 4.79498 4.63412 5.45982 5.74235 5.01407 4.84645 4.56055 5.48036 5.08801 4.89323 4.90691 4.34038 4.9806 5.0777 4.85749 4.80023 4.90887 4.63138 5.23297 4.68215 5.56455 5.44139 4.89122 4.55815 5.18192 4.78488 4.39662 4.84804 4.99942 5.03842 5.26237 4.44192 4.77078 5.26354 4.71644 5.2663 5.24003 4.88462 4.9036 5.09511 5.23492 5.55624 4.75805 5.16596 5.09391 4.91746 4.7729 4.92088 5.36948 4.75245 4.72506 4.63496 5.12357 5.23246 5.48498 5.25783 4.77796 4.80018 5.11514 4.70986 5.03257 4.88409 4.67105 5.6653 4.83637 5.26908 4.98026 4.90132 4.782 4.91391
aeb-x-bible 4.91928 5.51861 4.09883 5.0865 5.38329 5.6563 5.02371 4.35664 4.56301 4.52922 5.33225 5.51073 5.10502 5.16415 4.52977 5.14131 5.86977 5.02546 4.38086 5.3099 4.97887 5.42456 5.20342 4.61295 4.94293 5.11622 4.77493 4.91279 4.95942 5.12915 4.61813 4.71088 5.57362 5.47659 5.59671 4.41169 4.75988 5.2482 5.17399 5.1931 5.29354 4.44054 4.81814 4.77645 4.58877 5.15207 5.11553 4.72388 5.16189 4.88252 5.073 5.99077 4.87886 4.87719 4.90931 4.82634 4.53673 4.65425 5.09263 4.99815 5.03986 4.63172 4.9051 5.16318 4.70144 5.13507 4.98265 4.83332 5.13128 5.12305 5.1243 5.7087 5.19331 4.60964 5.16185 4.96227 4.84542 5.49624 5.13434 4.74562 4.89057 4.43829 5.15856 4.92218 5.33616 4.86354 4.56323 4.83563 5.02416 4.51437 5.21071 4.96293 4.58045 5.85168 4.72016 4.86079 4.69296 5.18624 4.67216 4.66698
aeu-x-bible 4.90344 5.54234 4.21841 5.07739 5.35309 5.60891 4.93936 4.34457 4.67983 4.56373 5.29475 5.44074 5.16937 5.19333 4.52284 5.11438 5.89616 5.01808 4.38343 5.40617 4.9814 5.39183 5.11849 4.62271 4.91526 5.15336 4.82676 4.88812 4.96134 5.16597 4.62386 4.75711 5.53516 5.44412 5.52434 4.3501 4.67081 5.22274 5.12247 5.14963 5.22435 4.45307 4.82481 4.84094 4.58084 5.11248 5.03264 4.74554 5.1121 4.93352 5.04423 5.98534 4.80075 4.87766 4.95511 4.83657 4.53758 4.59312 5.00613 5.07186 5.01496 4.59479 4.89765 5.17098 4.8032 5.04294 5.00601 4.88242 5.12897 5.23563 5.14106 5.8263 5.18874 4.62905 5.1845 4.92232 4.918 5.56987 5.16259 4.80673 4.88273 4.3512 5.01311 4.91699 5.34402 4.83637 4.56145 4.83913 5.0666 4.64558 5.2799 4.84036 4.49629 5.86731 4.73928 4.8537 4.68903 5.22305 4.61627 4.67341
aey-x-bible 4.76645 5.03509 5.6161 5.55508 5.71105 5.83165 4.74261 4.38233 4.79338 5.48592 5.66215 5.53269 5.21103 5.22079 4.43606 5.09646 6.20042 5.4093 4.4582 5.81304 4.95062 5.71712 5.43086 4.24118 4.54773 5.15067 4.84303 5.16759 5.05773 5.83202 5.04432 4.48488 5.40354 6.1103 4.94764 4.67981 3.85906 5.53958 4.92141 4.77125 4.50286 3.97425 5.09026 5.44489 4.8883 4.55908 4.43993 4.50126 5.21852 4.52186 5.90297 5.47674 4.22967 4.36754 5.39202 4.55778 3.95787 4.59592 4.70055 5.40263 5.14138 3.94596 4.69116 5.46521 4.65639 4.76911 5.54558 4.92033 4.49255 5.42886 5.44549 6.54139 4.3965 5.31087 5.48828 4.74763 4.8507 5.01737 6.01495 4.78441 4.47928 4.46127 4.62635 5.24976 5.77152 5.36362 4.56472 4.75494 5.15774 4.8762 5.40639 4.49891 4.35802 5.94042 4.73217 5.45707 4.87742 4.91569 4.62796 5.03773
afr-x-bible-1953 6.79888 4.22439 4.90005 6.13563 5.19974 5.10108 3.78306 5.23618 5.78671 4.43341 5.81869 6.96413 6.25897 3.30072 3.52204 5.56587 6.1793 4.06754 5.15707 7.51535 7.09635 6.19028 5.98577 5.66037 4.48597 6.76716 4.28478 5.52644 5.69382 4.92863 5.3801 5.54212 3.74011 4.4507 6.24399 4.12751 4.23084 6.63694 3.41077 4.90594 3.77313 4.85424 4.33438 5.48388 6.85941 5.48488 4.6004 5.37582 2.07909 4.81701 4.45518 5.6752 4.21066 3.91114 4.92866 3.5103 4.72375 4.98959 4.89692 6.10828 3.59491 4.98884 5.28561 4.81462 6.55193 3.72982 6.76026 6.02135 4.2377 7.05522 5.28733 5.65023 2.85637 5.46535 6.43168 4.45601 3.86624 5.84596 5.46651 6.02861 3.43097 6.7964 6.6919 4.39666 5.49432 5.41415 5.47547 5.47973 6.22436 3.98786 5.74744 4.54054 4.71451 3.01724 5.21711 6.37375 5.86513 2.88645 3.91786 7.87281
afr-x-bible-1983 6.80378 4.23607 4.88432 6.13487 5.21776 5.09167 3.76486 5.22967 5.79946 4.44169 5.82032 6.973 6.25101 3.31489 3.50888 5.56718 6.16808 4.07497 5.16061 7.51933 7.11126 6.18693 5.98373 5.66181 4.45432 6.75753 4.27757 5.5282 5.70133 4.91926 5.39004 5.53037 3.72398 4.4558 6.26054 4.10333 4.23455 6.62805 3.39926 4.8883 3.74099 4.84519 4.3549 5.49498 6.86659 5.47008 4.59212 5.37648 2.08275 4.80634 4.44764 5.67978 4.19473 3.90365 4.93583 3.51783 4.71538 5.01065 4.88405 6.09453 3.60195 4.99959 5.27167 4.83848 6.56245 3.71915 6.75414 6.02389 4.23294 7.08048 5.2852 5.67602 2.85369 5.45959 6.41251 4.44718 3.8745 5.84339 5.48666 6.02805 3.44045 6.82518 6.68519 4.36976 5.48883 5.37989 5.47457 5.4893 6.22125 3.99739 5.76948 4.5487 4.71928 3.01608 5.21754 6.37098 5.86773 2.87078 3.93059 7.86976
afr-x-bible-boodskap 6.81591 4.24297 4.88754 6.14925 5.21977 5.10085 3.76294 5.22999 5.78828 4.43469 5.8151 6.98142 6.2487 3.29221 3.51334 5.5638 6.16831 4.05777 5.15995 7.51602 7.10052 6.18498 5.96931 5.6691 4.45796 6.76726 4.28829 5.51839 5.68704 4.93072 5.37227 5.54126 3.73377 4.43926 6.2576 4.1049 4.22549 6.62482 3.39742 4.9 3.74492 4.84701 4.34581 5.48299 6.86653 5.47572 4.58246 5.37079 2.07125 4.8267 4.45114 5.68326 4.20922 3.92185 4.93134 3.50775 4.71937 4.99185 4.89905 6.11506 3.58925 4.99175 5.27042 4.81937 6.5572 3.72597 6.75433 6.0122 4.23855 7.0792 5.29164 5.66407 2.84634 5.46722 6.42531 4.45258 3.86196 5.82937 5.47105 6.04282 3.43375 6.82291 6.69843 4.37056 5.50077 5.38547 5.47595 5.4799 6.21513 3.99564 5.77002 4.53147 4.70163 3.00756 5.20848 6.35757 5.86416 2.8732 3.92694 7.88661
afr-x-bible-lewende 6.79371 4.22109 4.90081 6.12981 5.197 5.09795 3.78535 5.23767 5.78936 4.4352 5.82041 6.96004 6.26071 3.30708 3.52272 5.56544 6.17974 4.07335 5.15854 7.51525 7.0981 6.1898 5.99117 5.6577 4.4837 6.7653 4.28114 5.53025 5.69849 4.92448 5.38596 5.53919 3.73911 4.45575 6.24248 4.12826 4.23482 6.63922 3.41334 4.90419 3.77076 4.85577 4.33491 5.48595 6.85884 5.48469 4.60501 5.3791 2.08392 4.8106 4.45468 5.67441 4.20783 3.90575 4.92989 3.51394 4.72456 4.99443 4.89261 6.10246 3.59803 4.99151 5.28711 4.81854 6.55279 3.72822 6.76183 6.02496 4.23687 7.05491 5.28498 5.65153 2.85911 5.4627 6.42909 4.45517 3.87127 5.85132 5.46944 6.02311 3.43344 6.79757 6.68776 4.39631 5.49056 5.41086 5.47536 5.48229 6.2277 3.98694 5.74582 4.54665 4.72045 3.02154 5.22063 6.37893 5.86702 2.88805 3.91674 7.86619
afr-x-bible-viralmal 6.80387 4.22985 4.896 6.13968 5.20637 5.10108 3.77675 5.23349 5.78804 4.43441 5.81806 6.9694 6.25549 3.29916 3.51883 5.5663 6.17624 4.06496 5.15716 7.51642 7.09812 6.18955 5.98088 5.66247 4.47555 6.76634 4.28596 5.52377 5.692 4.92936 5.37794 5.54112 3.73732 4.44796 6.24858 4.11975 4.22905 6.63274 3.40652 4.90301 3.76264 4.85117 4.339 5.48473 6.86155 5.48137 4.59473 5.37363 2.07695 4.81924 4.45341 5.67728 4.20893 3.91349 4.92981 3.5098 4.7212 4.99094 4.89686 6.10935 3.59412 4.98959 5.28094 4.81732 6.55363 3.72864 6.75745 6.01899 4.23738 7.0638 5.28843 5.65567 2.85361 5.46577 6.42864 4.45469 3.86473 5.8409 5.46911 6.03265 3.43153 6.80628 6.69304 4.38706 5.49554 5.40338 5.47553 5.48032 6.22123 3.9911 5.75528 4.53802 4.71105 3.01433 5.2146 6.36885 5.86424 2.88201 3.92166 7.87664
agd-x-bible 4.82968 5.17923 5.20688 5.39205 5.60232 5.77124 4.80859 4.40418 4.76399 5.23353 5.5821 5.48297 5.17295 5.16594 4.50507 5.11759 6.16383 5.24654 4.45234 5.68326 4.94395 5.61644 5.35036 4.32792 4.65291 5.19522 4.85022 5.10351 5.02831 5.64987 4.94801 4.57637 5.43514 5.9064 5.12838 4.61768 4.09158 5.42616 4.97556 4.86708 4.73615 4.11563 5.01429 5.2496 4.80416 4.72002 4.62696 4.57228 5.14949 4.62989 5.62498 5.65135 4.35423 4.53548 5.28508 4.62833 4.12176 4.59464 4.77671 5.34423 5.07933 4.09939 4.74237 5.3862 4.66258 4.80949 5.41001 4.89703 4.60299 5.37815 5.32964 6.35083 4.61593 5.07932 5.40274 4.82313 4.87708 5.2254 5.79325 4.78192 4.62368 4.41057 4.75677 5.09684 5.67236 5.19549 4.54065 4.79229 5.09018 4.8092 5.37965 4.58819 4.41156 5.93496 4.73769 5.24862 4.77339 5.01163 4.62335 4.9878
agg-x-bible 4.78949 5.03934 5.52537 5.52067 5.65874 5.79277 4.77299 4.39046 4.79 5.42935 5.64324 5.51597 5.19408 5.20236 4.44482 5.0781 6.18865 5.37675 4.48332 5.77136 4.95472 5.67683 5.42404 4.27728 4.5733 5.16039 4.82334 5.15236 5.04658 5.77856 5.03016 4.51074 5.39686 6.04947 4.9798 4.69681 3.92514 5.5118 4.92529 4.76859 4.57626 4.00332 5.10136 5.39479 4.90562 4.58949 4.48183 4.52134 5.18484 4.54575 5.8273 5.49491 4.23847 4.4067 5.39239 4.56771 4.00426 4.59991 4.7282 5.37939 5.14584 3.98672 4.70565 5.44079 4.66279 4.7772 5.50491 4.91771 4.49152 5.42298 5.40677 6.48152 4.42244 5.26561 5.464 4.7705 4.85346 5.0413 5.95582 4.78035 4.50891 4.47326 4.66778 5.19703 5.73423 5.3206 4.55068 4.77103 5.15004 4.86365 5.39532 4.53663 4.3823 5.90531 4.74288 5.39707 4.85016 4.93548 4.65309 5.06562
agm-x-bible 4.8333 5.19749 5.15127 5.37333 5.59169 5.76583 4.81846 4.4144 4.7513 5.19785 5.56973 5.46823 5.16611 5.15879 4.52299 5.13158 6.14275 5.22134 4.45363 5.65939 4.94582 5.60042 5.33786 4.34065 4.67569 5.19436 4.85389 5.09756 5.02475 5.62272 4.93463 4.59168 5.44337 5.87135 5.14953 4.6099 4.13133 5.41342 4.99096 4.88761 4.7709 4.145 4.99945 5.21991 4.79249 4.74228 4.66153 4.57623 5.14493 4.64245 5.5872 5.66935 4.38687 4.55668 5.26864 4.64202 4.14285 4.59816 4.78692 5.3388 5.06845 4.12074 4.74964 5.37566 4.66028 4.82282 5.38883 4.89355 4.62442 5.35545 5.31731 6.30699 4.65332 5.0412 5.38428 4.836 4.87647 5.25149 5.75851 4.77934 4.65223 4.40877 4.78007 5.08342 5.66179 5.17533 4.54974 4.79578 5.07871 4.79794 5.36724 4.60766 4.42683 5.93917 4.74426 5.22372 4.76867 5.02125 4.6239 4.97157
agn-x-bible 4.34405 4.95427 6.9626 3.86195 4.95809 4.07689 7.25586 5.99877 5.47449 6.43465 4.12244 4.80976 4.90574 4.25243 5.89993 5.89159 4.68429 6.11062 5.00647 2.9858 3.83884 5.98142 5.29102 4.88992 3.89163 5.2873 6.71425 4.59106 4.65424 3.54652 4.81062 4.83328 5.16921 5.71993 5.06492 6.68871 4.6155 5.32413 5.19572 4.44895 3.60693 3.99915 4.42641 4.49723 6.00224 3.84774 3.9146 5.95009 4.70553 5.23674 4.33139 5.3954 4.96698 6.46098 5.71196 5.38472 5.23291 5.80318 5.54033 5.17293 4.50725 5.74454 5.54575 3.61151 3.45018 6.26161 4.74152 3.21764 3.50628 5.24064 3.9173 3.96171 5.22734 5.29946 4.14194 6.64895 5.25042 4.2739 5.30796 4.80418 5.77452 4.43101 5.97869 4.16639 4.88439 5.13167 4.54037 4.75647 3.77838 5.08536 3.19569 3.55254 6.0112 3.33427 4.85881 5.35886 4.42355 4.50089 5.03924 5.82965
agr-x-bible 4.64284 4.92382 4.62171 5.20971 4.80001 4.4937 4.78022 4.49022 5.4007 4.17582 4.41573 4.22145 5.09853 5.54125 4.60037 4.87987 4.26724 5.25287 5.21622 4.99707 5.56 4.67329 4.26808 5.64448 5.24381 4.70824 4.67591 4.55473 5.03412 4.72316 4.30334 5.68094 4.98058 4.27648 4.52666 4.73206 4.97858 5.29867 5.08674 4.90954 5.34108 5.77041 5.09731 5.06004 4.88404 5.08606 5.25261 4.93163 5.18936 5.7427 4.35028 4.63231 5.56012 4.73336 5.08423 5.31607 5.31482 5.3479 4.83498 4.97913 5.56607 5.41517 5.17209 4.81418 5.77146 5.5913 4.38627 5.51273 5.9072 5.09504 5.2552 4.59321 5.24285 4.70806 4.83202 4.62268 5.25186 5.00417 4.19487 5.3405 4.99191 5.3923 4.39472 5.51457 4.76398 5.27785 5.57589 4.89988 5.70581 5.14462 5.21628 5.26646 4.65602 5.10418 5.47838 4.88118 5.58111 5.08703 5.25283 4.30557
agt-x-bible 4.43601 4.83804 6.75214 4.15503 5.17678 4.65235 7.01863 5.81946 5.2303 6.41093 4.32723 4.95462 4.97138 4.10989 5.9017 5.96542 4.69876 6.01228 4.87948 3.23181 4.04005 6.18153 5.31662 4.85804 3.89003 5.2815 6.6156 4.99637 4.2837 3.69635 5.02561 4.79448 5.23918 5.79335 5.00141 6.56937 4.63961 5.47434 5.23124 4.79519 3.6065 3.86897 4.21696 4.62009 5.74332 3.76718 4.08958 5.76052 4.80412 4.98325 4.63902 5.4811 5.01947 6.35568 5.64882 5.37597 5.02915 5.91727 5.66337 5.19381 4.7695 5.44192 5.28787 3.95488 3.44348 6.25115 5.03166 3.55497 3.65158 5.18093 3.95523 3.98495 5.11723 5.42231 4.16863 6.35624 5.03786 4.29904 5.38761 4.82008 5.78237 4.49673 5.86279 4.32013 4.92487 5.28401 4.20366 4.79051 4.10853 4.9057 3.21613 3.65511 6.09833 3.54827 4.63957 5.30587 4.46922 4.43455 4.97244 5.80359
agu-x-bible 4.68677 4.96195 5.11886 5.36038 4.46999 3.87774 4.85299 4.66736 5.53218 4.11706 4.60292 3.86134 5.11586 5.58584 4.52852 4.88638 3.71416 5.22033 5.61825 4.95806 5.63633 4.62788 4.46651 5.80291 5.07541 4.58705 4.54126 4.45951 4.89074 4.55389 4.34799 5.87426 4.93381 3.89443 4.48886 4.98927 5.11041 5.42602 4.88288 4.90773 5.31659 6.03457 5.02014 5.17949 5.12518 4.96216 4.86962 5.02555 5.09648 6.00739 4.05875 4.51064 5.62255 4.58812 5.13285 5.24384 5.53014 5.72248 4.92146 5.02304 5.91097 5.48009 5.00516 5.31566 6.40854 5.91699 4.49138 5.7464 6.09392 5.02328 5.20494 4.39098 5.42846 4.74793 4.4749 4.26536 5.15367 4.81397 4.03097 5.08626 5.24011 5.93738 4.45045 5.75922 4.42706 5.33489 5.78052 4.66524 6.21483 5.43502 5.5569 5.26611 4.60973 4.90552 5.41117 4.9056 5.79106 5.0217 5.34622 4.38302
agw-x-bible 4.65417 4.5454 6.13863 5.8993 5.6392 5.61894 4.8015 4.4952 4.76508 5.71864 5.6292 5.31254 5.17041 5.37097 4.36893 5.02757 5.72167 5.69818 4.77988 5.67218 5.09853 5.62636 5.5058 4.38538 4.56647 4.85872 4.68806 5.23811 5.06287 5.83738 5.16966 4.50109 5.28859 6.02839 4.49354 5.04474 3.89864 5.75958 4.90084 4.57507 4.39606 4.0696 5.3402 5.64221 5.31023 4.27653 4.37182 4.37639 5.31097 4.38936 6.09653 4.87519 4.3918 4.08761 5.68226 4.52516 3.91717 4.79834 4.71154 5.34039 5.41943 3.94189 4.65844 5.47222 4.76066 4.98392 5.52986 5.02014 4.36438 5.2238 5.61948 6.1001 4.01968 5.686 5.3857 4.69096 4.71397 4.3766 5.95063 4.74742 4.39443 4.89759 4.6507 5.52183 5.73146 5.66006 4.85669 4.7219 5.36723 4.97362 5.17897 4.72081 4.53475 5.61305 4.9487 5.71553 5.24663 4.68752 4.89688 5.19088
ahk-x-bible 4.90152 5.32911 4.6069 5.16092 5.40906 5.59941 4.94379 4.43795 4.67656 4.82034 5.35845 5.3307 5.03574 5.14027 4.60179 5.1587 5.81291 5.06393 4.54159 5.3449 4.98797 5.42861 5.13632 4.57925 4.84778 5.10683 4.82049 5.04453 4.99132 5.28215 4.75815 4.77807 5.45906 5.5341 5.32072 4.57608 4.56968 5.28301 5.09099 5.04755 5.08433 4.49024 4.83806 4.95286 4.62495 5.03503 5.02904 4.71396 5.14161 4.86727 5.23136 5.74135 4.80103 4.76444 5.01229 4.82402 4.51936 4.76629 4.93504 5.13677 5.09129 4.49373 4.832 5.21516 4.73332 5.07391 5.13872 4.93576 4.99725 5.19504 5.15664 5.67064 5.0145 4.77816 5.14395 4.89655 4.88509 5.38388 5.29099 4.79956 4.86301 4.51987 5.03314 5.00952 5.44197 5.0362 4.6644 4.83931 5.03567 4.68214 5.22585 4.87114 4.58634 5.85463 4.80689 4.99907 4.7877 5.07971 4.68266 4.77137
aia-x-bible 4.66379 4.74908 5.99055 5.7946 5.75848 5.7927 4.73362 4.46331 4.761 5.70051 5.69996 5.42736 5.20292 5.29432 4.42912 5.11814 5.96243 5.59011 4.61839 5.80362 5.02357 5.72874 5.50587 4.2494 4.53098 4.98579 4.78751 5.2501 5.07744 5.93441 5.16056 4.4668 5.35019 6.16058 4.64517 4.89032 3.79251 5.70304 4.92258 4.66663 4.35303 3.99478 5.21694 5.61553 5.10901 4.34978 4.35598 4.38354 5.30996 4.40289 6.12561 5.12293 4.28538 4.15359 5.57348 4.52586 3.83616 4.68872 4.65597 5.43185 5.27931 3.85304 4.64617 5.51723 4.66735 4.87041 5.6065 4.97859 4.393 5.29559 5.58688 6.45469 4.18709 5.5309 5.46292 4.69629 4.76022 4.66802 6.10531 4.7607 4.41007 4.6949 4.57833 5.48069 5.83744 5.58781 4.75477 4.71762 5.25728 4.94189 5.30002 4.56164 4.43801 5.8395 4.84074 5.69307 5.12638 4.74601 4.75285 5.10949
aii-x-bible 4.92095 5.51647 4.14218 5.08149 5.38556 5.65224 5.02133 4.3599 4.57344 4.53281 5.33139 5.49844 5.10139 5.1598 4.54007 5.14481 5.86421 5.01962 4.38333 5.30584 4.9801 5.4199 5.19648 4.61467 4.94417 5.1229 4.77939 4.90526 4.96163 5.12657 4.61425 4.7214 5.5736 5.4636 5.58619 4.41526 4.76165 5.24267 5.17439 5.19999 5.29793 4.45358 4.81408 4.77262 4.58296 5.15887 5.12099 4.72772 5.16112 4.89184 5.05699 5.98738 4.87959 4.88107 4.90239 4.82747 4.5448 4.65962 5.091 4.99994 5.03718 4.64049 4.90828 5.15942 4.70482 5.13716 4.97501 4.83396 5.13281 5.12326 5.12297 5.70381 5.19996 4.59926 5.16715 4.96059 4.85054 5.49204 5.126 4.74908 4.89332 4.44618 5.1546 4.9216 5.33269 4.86969 4.5687 4.83623 5.02154 4.51142 5.21443 4.96667 4.57767 5.85141 4.72064 4.85218 4.68778 5.19166 4.67606 4.6576
aim-x-bible 4.82594 4.83714 5.21516 5.6302 5.25926 5.54768 5.17138 4.3593 4.35344 4.98829 5.39913 5.45456 5.06327 5.32542 4.1007 5.05325 5.51724 5.61287 4.66238 5.20447 5.06717 5.57388 5.43766 4.6308 4.68386 4.68533 4.61097 5.14783 4.9387 5.26148 4.7286 4.53459 5.5075 5.81544 4.91293 4.92209 4.64339 5.56985 5.11514 4.84884 4.88982 4.25028 5.04513 5.08785 4.9724 4.71668 4.86549 4.60031 5.30632 4.59671 5.68294 5.35693 5.00249 4.47922 5.24858 4.77562 4.34967 4.84213 5.1047 4.90032 5.35533 4.48794 4.75706 5.2683 4.73875 5.42331 5.21971 4.8253 4.98956 5.02317 5.26346 5.51302 4.70871 5.35276 5.05755 4.95236 4.69031 4.67915 5.32265 4.70538 4.65488 4.64428 5.2254 5.32565 5.45486 5.31517 4.80573 4.77696 5.16373 4.68414 4.91196 4.89961 4.69404 5.5596 4.81374 5.36064 5.05983 4.8378 4.8287 4.95533
aji-x-bible 4.8156 4.78351 5.44525 5.45724 5.41708 5.46827 5.00492 4.60061 4.61951 5.34814 5.38796 5.11237 4.85761 5.16712 4.60673 5.15596 5.41399 5.33811 4.9115 5.18341 5.06254 5.46421 5.21745 4.61367 4.73704 4.83802 4.72319 5.32505 5.01057 5.42653 5.00113 4.77819 5.29295 5.68388 4.79313 5.07658 4.45586 5.51102 5.03878 4.78691 4.75738 4.55257 4.98505 5.21814 4.91075 4.74389 4.93961 4.62466 5.24372 4.71002 5.67041 5.0929 4.92144 4.48264 5.23949 4.81648 4.47546 5.10114 4.8693 5.15552 5.35466 4.36376 4.72835 5.27471 4.70652 5.26008 5.3254 5.0498 4.76488 5.03616 5.25274 5.24392 4.59584 5.23542 4.9964 4.84292 4.76137 4.81013 5.44724 4.77625 4.76825 4.9497 5.08309 5.3239 5.54756 5.44112 4.93756 4.81803 5.11967 4.81439 4.99315 4.9787 4.80715 5.62913 4.98989 5.38021 5.14352 4.75293 4.87715 4.99072
ajz-x-bible 4.84641 4.96679 5.07121 5.49239 5.32902 5.56744 5.07895 4.40725 4.48409 4.98449 5.40277 5.39372 5.03554 5.25233 4.31307 5.09004 5.6063 5.42509 4.64644 5.25648 5.04424 5.52826 5.34249 4.59875 4.72571 4.8317 4.68401 5.13867 4.96639 5.3062 4.77095 4.61949 5.4736 5.74354 5.01574 4.8376 4.58117 5.48999 5.09737 4.89785 4.92139 4.3283 4.99159 5.07018 4.87164 4.79756 4.90424 4.6254 5.24565 4.67629 5.56602 5.44804 4.91078 4.55151 5.18753 4.78386 4.38958 4.83594 5.02274 5.01033 5.27586 4.46054 4.77553 5.26218 4.72585 5.29002 5.22155 4.87447 4.93842 5.08372 5.24171 5.55786 4.76438 5.17788 5.09582 4.92055 4.76078 4.90003 5.35244 4.74571 4.71203 4.62856 5.13525 5.24228 5.47168 5.25348 4.77475 4.79535 5.12974 4.69998 5.02501 4.887 4.66317 5.65364 4.82513 5.27353 4.9889 4.90294 4.79003 4.911
akb-x-bible 4.53044 4.72604 6.51683 4.47696 5.50177 5.1498 6.71903 5.55988 4.88227 6.39839 4.56834 5.13646 5.04102 3.89494 5.88052 6.09318 4.56291 5.83459 4.78128 3.52077 4.23875 6.46866 5.3883 4.88112 4.03846 5.37784 6.54758 5.56981 3.77098 3.735 5.24013 4.73963 5.23576 5.87844 4.89628 6.55109 4.74441 5.57487 5.25142 5.29162 3.55848 3.72036 3.99253 4.62203 5.54786 3.6513 4.28395 5.64795 4.82685 4.71106 4.95135 5.61785 5.14048 6.28369 5.5902 5.37798 4.81708 6.03955 5.91648 5.09452 5.00423 5.15843 5.03713 4.36517 3.534 6.35594 5.36178 4.01163 3.85877 5.17759 4.0511 3.96126 5.05351 5.52536 4.07102 6.12181 4.86486 4.35434 5.36723 4.75888 5.82318 4.63332 5.82185 4.33363 5.05313 5.46442 3.72447 4.90145 4.4279 4.76737 3.13653 3.68752 6.14852 3.6475 4.39765 5.2113 4.43328 4.43515 4.95482 5.79794
ake-x-bible 4.87502 5.24256 4.95704 5.27768 5.52277 5.70692 4.88889 4.43966 4.68832 5.07538 5.48603 5.40796 5.06962 5.13169 4.57197 5.16808 6.00207 5.14625 4.50321 5.4928 4.95534 5.54562 5.25157 4.42814 4.73084 5.14333 4.83962 5.11803 5.01156 5.48658 4.87609 4.66801 5.44666 5.75867 5.20843 4.62919 4.31816 5.35823 5.03555 4.9542 4.88251 4.28835 4.90276 5.1094 4.69782 4.8756 4.83553 4.63478 5.15224 4.72556 5.46774 5.69734 4.58593 4.64012 5.14493 4.72744 4.3088 4.70971 4.84763 5.25491 5.08854 4.26484 4.7681 5.31822 4.66403 4.94584 5.314 4.9153 4.7806 5.28062 5.23865 5.96492 4.80507 4.94749 5.25519 4.86503 4.87292 5.3107 5.579 4.78246 4.74856 4.45606 4.928 5.05264 5.59379 5.13099 4.59724 4.81837 5.03193 4.74263 5.29113 4.72114 4.51847 5.92568 4.76269 5.14584 4.77755 5.01739 4.64002 4.9
akh-x-bible 4.74286 4.92096 5.73723 5.63603 5.70611 5.80444 4.74978 4.40768 4.79282 5.55885 5.68069 5.50552 5.2118 5.23705 4.42252 5.07822 6.15337 5.4713 4.52027 5.81611 4.97623 5.70576 5.47767 4.24891 4.53837 5.11291 4.8093 5.18491 5.05988 5.86598 5.0921 4.47542 5.37642 6.12591 4.84964 4.76882 3.82868 5.58985 4.9094 4.71213 4.47051 3.95411 5.16685 5.49658 4.99847 4.4761 4.39487 4.46348 5.22388 4.47519 5.9653 5.35902 4.19544 4.30051 5.48567 4.53052 3.90675 4.61269 4.69084 5.41516 5.19382 3.90493 4.67975 5.48043 4.66184 4.77975 5.56055 4.93302 4.41077 5.40749 5.48303 6.54794 4.29784 5.38776 5.49396 4.73869 4.82269 4.9003 6.05748 4.77303 4.44724 4.53969 4.60878 5.29691 5.78471 5.42316 4.60163 4.74891 5.19602 4.90102 5.38021 4.51834 4.38039 5.87838 4.76912 5.51448 4.93976 4.86988 4.68704 5.10574
ald-x-bible 4.92558 5.24749 4.94353 5.02953 5.59226 5.65253 5.0001 4.66955 4.51542 5.22321 5.36194 5.1204 4.62617 4.96587 4.94465 5.46546 5.60214 4.8646 4.78224 5.05892 5.00756 5.46996 5.03357 4.55572 4.82374 4.97487 4.77557 5.40686 5.04701 5.42176 5.00305 4.92742 5.31474 5.63684 5.12882 4.90861 4.50617 5.2764 5.12735 5.04735 4.90389 4.75056 4.58971 5.06469 4.43422 5.18719 5.24111 4.65368 5.28156 4.85006 5.49318 5.50254 5.09233 4.66268 4.89709 4.93008 4.62503 5.29943 4.83485 5.22971 5.29954 4.34639 4.70712 5.32866 4.55172 5.21535 5.35182 5.17003 5.20023 5.03157 5.13275 4.77399 4.9611 4.82083 4.87622 4.79506 4.79393 5.48913 5.50229 4.77754 4.94115 4.84454 5.30344 5.05455 5.67616 5.24661 4.77831 4.88406 4.85875 4.66144 5.18458 5.02126 4.83754 6.15905 4.82122 5.18005 4.95592 4.74114 4.73458 4.86606
alj-x-bible 4.42357 4.85606 6.76398 4.12526 5.16568 4.64784 7.02901 5.82454 5.2412 6.40332 4.31322 4.93722 4.96015 4.12479 5.8904 5.96105 4.67564 6.00454 4.90468 3.24024 4.02262 6.16541 5.31566 4.86982 3.92135 5.29402 6.62099 4.9889 4.31556 3.66577 4.99486 4.8001 5.21238 5.77838 5.00391 6.59132 4.65437 5.44727 5.22318 4.7842 3.60244 3.89666 4.24908 4.588 5.7797 3.78164 4.08221 5.79125 4.77956 5.01447 4.60741 5.47836 5.02918 6.36256 5.65368 5.37576 5.05262 5.90375 5.66628 5.16566 4.73995 5.47344 5.31813 3.94072 3.47299 6.26718 5.00445 3.55959 3.65609 5.19596 3.96645 3.98032 5.13886 5.39568 4.14925 6.38964 5.07038 4.30576 5.3576 4.80823 5.78213 4.50324 5.88741 4.28586 4.93993 5.26574 4.23056 4.80008 4.07689 4.93442 3.21114 3.64157 6.06999 3.51734 4.6696 5.30467 4.45392 4.45969 4.9851 5.80224
aln-x-bible 4.66422 4.74205 5.38309 5.51257 5.36477 5.2377 4.8829 4.64197 4.73512 5.16461 5.38434 4.9877 4.99228 5.36856 4.63049 4.97843 4.99404 5.41083 5.13516 5.16986 5.18795 5.23981 5.25717 4.84078 5.06181 4.75575 4.46961 5.07189 4.99035 5.37287 5.06366 4.94492 5.1554 5.3203 4.79093 5.05544 4.60832 5.55892 5.10436 4.77287 5.02282 4.91869 5.26572 5.21245 5.17782 4.7444 5.01635 4.52062 5.35459 4.82775 5.66659 4.80148 5.01573 4.44272 5.35237 4.80219 4.61203 5.13173 4.95192 4.98566 5.57084 4.55724 4.80017 5.24257 4.86184 5.27009 4.97729 5.28476 5.12453 4.74327 5.35332 5.12226 4.53679 5.15183 5.03585 4.6829 4.57016 4.57863 5.28253 4.65101 4.70831 5.43588 4.99077 5.5296 5.378 5.44265 5.00555 4.79549 5.37166 4.82488 5.08564 5.29682 4.78405 5.50411 5.09814 5.42293 5.41079 4.78829 5.16833 5.02304
aln-x-bible-newworld 4.66513 4.74345 5.37571 5.51003 5.36409 5.24244 4.88543 4.64156 4.73196 5.16203 5.38368 4.98973 4.99078 5.3667 4.63186 4.98314 4.99839 5.40672 5.13066 5.16942 5.18685 5.24277 5.25601 4.83924 5.05868 4.75489 4.4734 5.07348 4.99138 5.37284 5.06031 4.94265 5.15913 5.32374 4.79452 5.05379 4.60873 5.55881 5.10434 4.77391 5.02188 4.91697 5.25959 5.21156 5.17051 4.74802 5.01927 4.52224 5.35622 4.8261 5.6648 4.81097 5.01674 4.44346 5.34941 4.80441 4.6108 5.13088 4.9524 4.98706 5.56834 4.55751 4.80172 5.24228 4.85802 5.27165 4.98044 5.28271 5.12504 4.74377 5.35285 5.12151 4.54013 5.14908 5.03696 4.68573 4.5715 4.58506 5.28221 4.65217 4.70879 5.43116 4.99292 5.52661 5.37971 5.44186 5.00573 4.79504 5.36878 4.82292 5.0838 5.29496 4.78601 5.50694 5.09787 5.4224 5.40859 4.7881 5.16684 5.02141
alp-x-bible 4.50027 4.7759 6.57316 4.38652 5.35749 5.02038 6.77136 5.63455 5.00654 6.34839 4.5024 5.05288 5.00299 4.0477 5.84752 5.99387 4.65604 5.88508 4.82847 3.50473 4.19119 6.29662 5.34222 4.84617 3.98685 5.30851 6.48761 5.3703 4.07411 3.80527 5.14301 4.76089 5.24273 5.84621 4.95264 6.48381 4.69069 5.53388 5.23638 5.08206 3.62304 3.79743 4.12562 4.65324 5.59007 3.75174 4.23859 5.64895 4.83314 4.80244 4.87523 5.55728 5.07869 6.23552 5.60362 5.35143 4.88479 5.94882 5.74669 5.13781 4.92464 5.22866 5.12145 4.2628 3.53355 6.2585 5.24019 3.90762 3.80666 5.16952 4.0567 4.03881 5.06107 5.46128 4.17202 6.14858 4.89602 4.35099 5.38757 4.79268 5.76545 4.59137 5.81146 4.37646 5.02556 5.37684 4.00056 4.83942 4.33649 4.82425 3.26208 3.73084 6.07404 3.70798 4.52218 5.25914 4.47508 4.44429 4.93454 5.76714
alq-x-bible 4.88684 5.08675 5.08306 5.17161 5.528 5.59813 5.02801 4.65887 4.49329 5.25328 5.37488 5.12436 4.67759 5.02459 4.84857 5.38124 5.4898 5.01985 4.8398 5.0465 5.0387 5.46851 5.11507 4.59495 4.81661 4.89622 4.72938 5.38753 5.03488 5.40481 4.99396 4.88495 5.31234 5.65536 5.03488 4.99058 4.53108 5.36096 5.12629 4.97496 4.88974 4.70945 4.71328 5.09247 4.58559 5.07438 5.1931 4.62897 5.29419 4.7978 5.5686 5.36729 5.09403 4.60276 4.99154 4.90511 4.5898 5.27166 4.87953 5.16985 5.34733 4.37757 4.71816 5.30872 4.56369 5.27973 5.32608 5.13587 5.10945 4.9748 5.16247 4.84569 4.85261 4.9413 4.89824 4.81313 4.75438 5.25223 5.47448 4.76475 4.88875 4.92799 5.29272 5.14903 5.62836 5.31635 4.83835 4.86138 4.93977 4.67843 5.10452 5.06295 4.8627 5.99029 4.87207 5.26143 5.04179 4.71606 4.82015 4.91246
alt-x-bible 4.59929 4.86641 4.55911 5.29308 5.38714 5.73205 4.75075 4.92 4.45812 4.82132 5.79684 5.1725 5.01307 4.99849 5.24952 5.14749 4.83457 5.2394 5.16875 4.92595 5.33913 5.13678 5.45399 5.0095 5.69631 4.96391 4.55442 4.77103 5.10973 5.2366 4.68941 5.1639 5.29641 4.99196 5.86185 4.88859 5.01561 5.47632 5.4626 4.91013 5.91819 5.26876 5.3551 4.75019 4.99481 5.44156 6.03509 4.31232 5.35483 4.80728 5.27585 5.29807 5.13389 4.75904 5.10308 4.88406 4.62595 4.88813 5.28153 4.82777 5.33744 4.88241 5.15169 5.052 3.75897 5.40076 4.67914 5.19153 5.3575 3.95702 5.0925 5.3251 4.56612 4.13964 5.5578 4.81447 4.40654 4.3748 5.25481 4.71867 4.98276 6.23258 5.48615 5.01024 5.09951 5.35286 5.04343 4.7159 5.33406 4.33102 5.54683 6.34416 5.08326 5.42316 5.29902 5.30808 5.49671 4.7638 6.10301 5.07471
alt-x-bible-southern 4.60025 4.8693 4.55768 5.29023 5.38722 5.73437 4.75103 4.92123 4.45542 4.81941 5.79854 5.17541 5.01566 4.99747 5.25126 5.14858 4.83821 5.237 5.16529 4.92668 5.33787 5.13827 5.45389 5.00695 5.69656 4.96546 4.55522 4.77194 5.10978 5.23713 4.68842 5.16138 5.29752 4.99307 5.86302 4.88575 5.01533 5.4752 5.46261 4.91211 5.91885 5.26714 5.35279 4.74943 4.99249 5.44249 6.03551 4.3126 5.35462 4.80656 5.27541 5.30092 5.13112 4.76 5.10168 4.88349 4.6254 4.88576 5.2811 4.82852 5.33477 4.88095 5.15118 5.05266 3.75858 5.39922 4.68053 5.18838 5.35513 3.95711 5.09186 5.32764 4.56796 4.13907 5.55731 4.81541 4.40679 4.37502 5.25581 4.71821 4.98317 6.23308 5.48748 5.008 5.10072 5.35082 5.04092 4.7162 5.33189 4.32972 5.54685 6.34582 5.08204 5.42465 5.29687 5.30622 5.49372 4.76481 6.10317 5.07431
alz-x-bible 4.95279 4.83034 5.2371 5.4163 5.26679 5.46867 5.07553 4.54968 4.61201 5.26678 5.3911 5.16632 4.8595 5.09106 4.52622 5.054 5.61693 5.28832 4.82677 5.16234 4.95065 5.47612 5.18922 4.54497 4.67027 4.94814 4.83197 5.36654 4.98193 5.2951 4.89981 4.70361 5.38955 5.68586 4.95015 5.02201 4.61859 5.43134 5.01138 4.78714 4.84382 4.42421 4.95216 5.02929 4.8294 4.75708 5.01099 4.76532 5.06032 4.71189 5.49788 5.31607 4.8329 4.6601 5.141 4.82271 4.55587 4.89297 4.91535 5.12917 5.1186 4.42998 4.74583 5.17839 4.67811 5.21007 5.35275 4.83996 4.41255 5.14247 5.0783 5.52035 4.73115 5.16342 4.97977 5.03177 4.87455 4.90942 5.27384 4.79723 4.88854 4.6619 5.15084 5.17889 5.47088 5.29153 4.89476 4.84508 4.98277 4.78521 4.86934 4.92356 4.84115 5.48487 5.0137 5.19328 4.89863 4.91754 4.72994 4.93837
ame-x-bible 4.59264 4.89346 4.66496 5.22018 4.76829 4.52823 4.76333 4.52504 5.3982 4.21005 4.43609 4.18714 5.08188 5.53622 4.58532 4.89108 4.18167 5.25708 5.24792 5.02812 5.6092 4.65241 4.31003 5.6439 5.2337 4.66279 4.63579 4.58371 5.04955 4.76579 4.30228 5.70111 5.0058 4.28853 4.51066 4.74855 4.99634 5.30071 5.07062 4.91115 5.33161 5.77397 5.11206 5.08517 4.91078 5.08285 5.25326 4.94572 5.18229 5.76768 4.37168 4.60622 5.59132 4.70346 5.06542 5.33593 5.32946 5.36465 4.84502 4.97285 5.59404 5.37365 5.17382 4.8757 5.8202 5.58699 4.45884 5.52837 5.85607 5.10501 5.24534 4.58923 5.20049 4.68689 4.78608 4.57177 5.20509 4.96192 4.21642 5.38403 4.99708 5.4442 4.43901 5.49408 4.78917 5.32687 5.54263 4.87922 5.77586 5.17463 5.21064 5.20368 4.65027 5.07853 5.49252 4.90758 5.62857 5.06194 5.22267 4.3216
amf-x-bible 4.90726 5.36481 4.62807 5.07691 5.41975 5.53886 4.83798 4.48612 4.85916 4.77486 5.32958 5.19134 5.02392 5.09143 4.74013 5.19563 5.78044 4.96722 4.5612 5.37251 5.00184 5.35494 4.99467 4.59494 4.84706 5.20344 4.90734 4.98998 5.02271 5.31446 4.7535 4.92948 5.41002 5.39839 5.30769 4.5376 4.50635 5.2054 5.06083 5.09148 5.11537 4.64512 4.79249 4.97278 4.54428 5.08995 5.04124 4.75472 5.08971 5.0027 5.08048 5.75773 4.74904 4.80982 4.97121 4.85272 4.59833 4.76327 4.83557 5.22982 5.04944 4.52215 4.85814 5.19494 4.81437 5.00709 5.10909 5.01038 5.00696 5.29465 5.15491 5.6775 5.08442 4.66567 5.20591 4.83385 4.99378 5.48788 5.27992 4.89333 4.89376 4.51928 4.88967 4.98812 5.43912 5.02698 4.69948 4.85184 5.0373 4.71664 5.34749 4.81342 4.50953 5.91166 4.83828 4.931 4.75164 5.13257 4.68298 4.71291
amh-x-bible 4.91692 5.40454 4.61187 5.04145 5.4377 5.54411 4.7922 4.48579 4.92098 4.75873 5.33654 5.17739 5.03859 5.07242 4.77352 5.20252 5.83309 4.92761 4.53276 5.41644 4.98795 5.34657 4.95683 4.57007 4.83666 5.26192 4.95047 4.9659 5.03141 5.34229 4.75655 4.95518 5.4049 5.37678 5.32856 4.49519 4.45932 5.17087 5.04131 5.1063 5.11582 4.65457 4.77403 4.98095 4.50561 5.10209 5.02169 4.7694 5.06165 5.03344 5.03516 5.8067 4.68765 4.83121 4.96117 4.84564 4.59792 4.72359 4.7934 5.27784 5.00764 4.50285 4.85985 5.19787 4.83151 4.94693 5.11565 5.01895 4.98502 5.35596 5.15529 5.74101 5.10811 4.62433 5.24732 4.81893 5.03513 5.55183 5.30076 4.91616 4.89928 4.47082 4.83531 4.95875 5.45216 5.0027 4.67726 4.85612 5.02504 4.7302 5.40515 4.7617 4.46103 5.95437 4.8301 4.89464 4.70472 5.17154 4.65002 4.69676
amh-x-bible-latin 4.91866 5.40195 4.60545 5.04481 5.43655 5.54945 4.80552 4.48839 4.90742 4.76302 5.33907 5.18667 5.03033 5.07125 4.77153 5.2063 5.83046 4.92799 4.53553 5.40422 4.98777 5.35198 4.96792 4.57014 4.83772 5.25674 4.94267 4.97543 5.02957 5.3356 4.75672 4.94728 5.40908 5.38653 5.3336 4.50254 4.47223 5.17606 5.04793 5.10893 5.11942 4.64995 4.77189 4.97394 4.5084 5.10469 5.03064 4.76645 5.06802 5.02424 5.04339 5.80678 4.70104 4.83057 4.95719 4.84668 4.59838 4.73132 4.80533 5.2664 5.01369 4.50653 4.85889 5.19778 4.81991 4.96037 5.11609 5.01327 4.98693 5.34169 5.152 5.72744 5.10855 4.62476 5.23805 4.82513 5.02495 5.55062 5.29875 4.90854 4.90098 4.47562 4.85218 4.9607 5.4522 5.00407 4.67759 4.85583 5.01969 4.71962 5.39121 4.77459 4.47387 5.9508 4.82768 4.89983 4.7083 5.16255 4.65589 4.69977
amh-x-bible-newworld 4.92044 5.40987 4.59266 5.04709 5.4361 5.55605 4.8115 4.48408 4.9165 4.76132 5.34195 5.19997 5.03201 5.07107 4.76767 5.20413 5.84781 4.92066 4.52754 5.40444 4.98448 5.35785 4.9766 4.56566 4.83585 5.27176 4.9416 4.97628 5.02774 5.33279 4.75422 4.93715 5.41526 5.39624 5.34233 4.49366 4.4762 5.17763 5.04943 5.11039 5.12084 4.63557 4.7726 4.96946 4.50934 5.10332 5.02925 4.76592 5.06834 5.017 5.04148 5.81854 4.69947 4.83221 4.95685 4.84335 4.59226 4.72211 4.81175 5.26208 5.01011 4.50502 4.85882 5.1979 4.81203 4.95976 5.11688 5.00418 4.97906 5.34091 5.15049 5.73003 5.10958 4.61683 5.2391 4.83081 5.02209 5.56911 5.29975 4.90422 4.89969 4.46181 4.86222 4.95733 5.45192 4.99828 4.66982 4.85537 5.01666 4.7131 5.38697 4.77446 4.47596 5.9495 4.82246 4.8983 4.70184 5.16433 4.652 4.70079
amk-x-bible 4.54483 4.74808 6.46808 4.50385 5.42964 5.1433 6.63659 5.53646 4.90807 6.29766 4.59322 5.09031 5.01113 4.0691 5.79532 5.97472 4.67 5.82356 4.81348 3.65003 4.27006 6.30205 5.3629 4.84028 4.03419 5.31361 6.39849 5.48296 4.03247 3.90932 5.18141 4.73559 5.2635 5.87794 4.93933 6.3981 4.69446 5.54025 5.23366 5.15541 3.67872 3.80534 4.12413 4.67014 5.51919 3.7833 4.29935 5.58304 4.85042 4.74767 4.97702 5.57727 5.08647 6.15608 5.57464 5.33108 4.82387 5.92579 5.73807 5.12986 4.99386 5.1358 5.05625 4.38469 3.59375 6.22269 5.30591 4.03517 3.88455 5.16824 4.13055 4.09106 5.02744 5.47489 4.20631 6.04295 4.84134 4.39801 5.39388 4.76975 5.7367 4.6297 5.78013 4.41615 5.0735 5.41511 3.96243 4.85286 4.44255 4.79925 3.33846 3.77865 6.03239 3.82892 4.49548 5.24706 4.487 4.45361 4.93008 5.7437
amm-x-bible 4.76209 4.95718 5.6235 5.5912 5.67834 5.7894 4.77093 4.42307 4.77766 5.49492 5.66011 5.4851 5.19163 5.21513 4.45226 5.0931 6.1394 5.42194 4.5274 5.77335 4.97447 5.67865 5.45387 4.27184 4.568 5.12216 4.81141 5.17625 5.05226 5.81762 5.07071 4.50645 5.3831 6.07376 4.89336 4.7628 3.89478 5.55891 4.92801 4.73899 4.53387 3.99752 5.14152 5.44086 4.97354 4.52254 4.4552 4.48116 5.20544 4.5043 5.89273 5.40451 4.23028 4.34519 5.45604 4.5537 3.95297 4.62156 4.71034 5.40224 5.17871 3.94493 4.69079 5.46027 4.65599 4.79506 5.52692 4.92997 4.43759 5.38621 5.44823 6.49628 4.36522 5.3196 5.46224 4.76097 4.82712 4.96183 6.00323 4.77144 4.49338 4.5321 4.65208 5.25972 5.76459 5.38102 4.60055 4.76046 5.1706 4.88088 5.3683 4.54744 4.4044 5.88292 4.77315 5.46156 4.91722 4.88793 4.68843 5.09552
amn-x-bible 4.61869 4.54089 6.31453 5.99041 5.73716 5.7064 4.70665 4.45453 4.82649 5.84488 5.71676 5.39787 5.27673 5.40879 4.31323 5.00006 5.94044 5.76643 4.6898 5.88429 5.08641 5.69702 5.58524 4.27122 4.49871 4.92056 4.7156 5.21856 5.08798 6.00695 5.22455 4.40815 5.29928 6.16853 4.45334 4.98115 3.67879 5.81563 4.85175 4.53048 4.26358 3.89281 5.4111 5.76817 5.35896 4.15253 4.18448 4.30955 5.31511 4.29978 6.23064 4.88577 4.14195 3.98815 5.78407 4.43059 3.72256 4.66063 4.62951 5.44306 5.3809 3.7794 4.63354 5.54441 4.75998 4.83525 5.62309 4.99586 4.2135 5.32994 5.7212 6.47889 3.87584 5.77843 5.54159 4.64815 4.72511 4.3506 6.14868 4.75069 4.28607 4.80079 4.48321 5.55308 5.82133 5.70476 4.78985 4.69052 5.40387 5.01881 5.28447 4.57954 4.41072 5.67217 4.91139 5.8034 5.22326 4.69777 4.84547 5.22764
amn-x-bible-naineri 4.61957 4.54723 6.30936 5.98493 5.74243 5.71211 4.70819 4.45758 4.82032 5.84662 5.71509 5.39793 5.27191 5.40416 4.31819 5.00982 5.94138 5.76071 4.68573 5.88096 5.08446 5.7007 5.58363 4.26814 4.49715 4.92014 4.72056 5.224 5.08843 6.00978 5.22536 4.40843 5.30142 6.17358 4.45688 4.98046 3.67746 5.81546 4.85509 4.5375 4.25857 3.8957 5.39934 5.76557 5.34657 4.15673 4.18955 4.31055 5.31868 4.30031 6.23483 4.89282 4.15138 3.99083 5.7753 4.43403 3.72224 4.66586 4.62763 5.44649 5.3761 3.7778 4.63196 5.54553 4.75428 4.83855 5.6271 4.99424 4.21912 5.32692 5.7196 6.46593 3.88496 5.77316 5.53843 4.65012 4.72452 4.36049 6.15177 4.75089 4.29038 4.79484 4.48869 5.55603 5.82702 5.70523 4.79264 4.68982 5.39563 5.01462 5.28214 4.57514 4.41254 5.67987 4.90844 5.80512 5.22275 4.69622 4.83859 5.21914
amp-x-bible 4.72832 4.82172 5.89514 5.70808 5.68133 5.75675 4.72467 4.38848 4.84389 5.62932 5.71261 5.50201 5.24009 5.27672 4.37733 4.99 6.14034 5.54778 4.58815 5.87356 5.00059 5.69897 5.50366 4.26343 4.5292 5.09019 4.74794 5.18155 5.06646 5.89114 5.12529 4.4659 5.33033 6.11984 4.76322 4.81765 3.79419 5.61804 4.86556 4.61743 4.44963 3.9207 5.27944 5.57233 5.12957 4.41893 4.3209 4.43942 5.20725 4.45297 6.01536 5.22504 4.10864 4.22663 5.58459 4.494 3.88715 4.58418 4.68467 5.39773 5.268 3.88434 4.67427 5.49235 4.70891 4.74949 5.56599 4.97416 4.35493 5.43577 5.51158 6.63762 4.15638 5.49057 5.521 4.69802 4.8115 4.72749 6.08184 4.7722 4.37879 4.63328 4.54838 5.31499 5.76957 5.47794 4.5953 4.7525 5.27676 4.95246 5.40164 4.55332 4.3759 5.82142 4.8012 5.5703 4.98303 4.83203 4.75804 5.20036
amr-x-bible 4.647 4.93713 4.63193 5.18887 4.8176 4.48518 4.78945 4.48681 5.37967 4.19531 4.44673 4.25701 5.10249 5.5333 4.60275 4.88638 4.2648 5.24535 5.19536 4.9967 5.53869 4.69007 4.30243 5.61555 5.23454 4.72068 4.68194 4.56334 5.0337 4.72587 4.31779 5.65483 5.01479 4.29541 4.55487 4.72465 4.96843 5.2966 5.08791 4.91721 5.33846 5.74072 5.08853 5.04974 4.87894 5.08987 5.24638 4.9276 5.18338 5.71654 4.38254 4.66972 5.53681 4.72695 5.08194 5.30006 5.29917 5.33013 4.84073 4.97663 5.55017 5.41832 5.16006 4.81551 5.75188 5.58001 4.3889 5.49479 5.87914 5.09483 5.25063 4.58179 5.24626 4.70523 4.83644 4.62454 5.237 5.01767 4.21591 5.32456 4.99223 5.36942 4.42125 5.49957 4.75504 5.26002 5.55648 4.89724 5.69591 5.12442 5.21021 5.26793 4.64823 5.13311 5.45178 4.87282 5.55372 5.08824 5.23277 4.31959
amu-x-bible 4.49691 4.82598 4.59987 5.21162 4.65948 4.38817 4.7161 4.55944 5.51815 4.1239 4.22258 3.95822 5.0719 5.61383 4.57895 4.8602 3.78961 5.30748 5.32903 4.98817 5.74152 4.50136 4.17631 5.8215 5.27711 4.50491 4.62075 4.54214 5.05246 4.69257 4.20852 5.86993 4.98224 4.04763 4.35354 4.78339 5.06789 5.29694 5.07758 4.88375 5.34981 6.02443 5.17141 5.13116 4.96367 5.0946 5.31272 4.98981 5.18534 5.95809 4.1955 4.42895 5.76254 4.72101 5.06807 5.46113 5.48325 5.48808 4.82322 4.9318 5.67028 5.51907 5.2487 4.78221 6.00625 5.64606 4.36173 5.61143 5.95418 5.11707 5.26726 4.41949 5.17519 4.63174 4.69977 4.51346 5.22996 4.91038 3.98652 5.60387 5.03109 5.56268 4.40197 5.52768 4.66935 5.39835 5.6045 4.89975 5.90283 5.29631 5.11724 5.20817 4.64895 4.91179 5.59314 4.92306 5.76977 5.03224 5.26349 4.26432
ann-x-bible 4.84932 4.96108 5.45961 5.36914 5.63832 5.72258 4.9703 4.59381 4.5409 5.50301 5.51203 5.27597 4.80211 5.05529 4.70268 5.33195 5.78764 5.19944 4.71915 5.29151 4.98095 5.62681 5.27497 4.39535 4.62463 4.96006 4.79628 5.43036 5.04281 5.6304 5.0907 4.67976 5.3401 5.95464 4.8962 4.99791 4.2096 5.47378 5.02997 4.85692 4.61119 4.34858 4.82928 5.28811 4.72068 4.79669 4.86291 4.56483 5.27933 4.60789 5.8195 5.33877 4.76765 4.45362 5.19022 4.75718 4.28514 5.09542 4.77926 5.30632 5.28702 4.11356 4.65693 5.40509 4.53796 5.11137 5.52973 5.02791 4.72951 5.15868 5.28218 5.36071 4.58994 5.20532 5.07631 4.80857 4.77735 5.0955 5.78189 4.76247 4.72589 4.72664 5.0958 5.21592 5.76901 5.41085 4.75222 4.82152 4.97013 4.76487 5.14183 4.79886 4.72622 5.98054 4.81786 5.41159 4.99421 4.70941 4.71991 5.02545
anv-x-bible 4.83209 4.89235 5.51378 5.40137 5.60784 5.67239 4.99596 4.61151 4.52684 5.51172 5.4851 5.23267 4.7856 5.07736 4.69074 5.32058 5.66558 5.24414 4.78353 5.23727 5.00784 5.60512 5.27372 4.44624 4.64064 4.89629 4.76456 5.43853 5.03665 5.59752 5.09354 4.69985 5.31934 5.92079 4.83385 5.06052 4.25513 5.50092 5.03877 4.83506 4.61286 4.40076 4.852 5.29614 4.77009 4.77886 4.88102 4.56105 5.30072 4.61117 5.83552 5.24124 4.8397 4.43166 5.20893 4.77473 4.31838 5.15211 4.80147 5.2695 5.34167 4.15388 4.65898 5.39115 4.55708 5.17808 5.50487 5.05017 4.76742 5.10546 5.2875 5.25073 4.56455 5.24786 5.03351 4.80506 4.75022 4.9991 5.73332 4.75681 4.72575 4.81739 5.12366 5.26229 5.74206 5.45454 4.80707 4.81924 5.00096 4.77272 5.09031 4.85149 4.77058 5.91561 4.85195 5.44651 5.06365 4.67118 4.77067 5.03628
aoj-x-bible-filifita 4.69472 4.72981 6.04246 5.7985 5.69753 5.74263 4.71128 4.39899 4.8507 5.70411 5.72653 5.48037 5.25723 5.3173 4.3526 4.97751 6.09183 5.62053 4.62272 5.8934 5.02476 5.70296 5.5331 4.26071 4.51595 5.04567 4.73028 5.19225 5.07439 5.93267 5.15926 4.44487 5.31522 6.14078 4.66582 4.86681 3.74862 5.67481 4.85276 4.57591 4.39185 3.89988 5.3369 5.64202 5.2137 4.33494 4.26533 4.39863 5.23314 4.40558 6.08841 5.11318 4.09657 4.1486 5.65716 4.46786 3.83239 4.5948 4.66632 5.40987 5.30958 3.84553 4.66144 5.51167 4.72718 4.76145 5.58794 4.98669 4.30341 5.41677 5.57312 6.63487 4.05612 5.58587 5.53632 4.67538 4.78882 4.60013 6.11458 4.76671 4.33797 4.69103 4.51258 5.38212 5.78467 5.54819 4.64204 4.73659 5.32529 4.98168 5.38085 4.561 4.3795 5.77816 4.83249 5.64443 5.05264 4.78988 4.79208 5.22646
aoj-x-bible-mufian 4.73296 4.84152 5.85733 5.69031 5.682 5.76203 4.73288 4.3933 4.83205 5.61109 5.70313 5.49988 5.23108 5.26777 4.38765 5.00701 6.13666 5.53037 4.57871 5.85625 4.9965 5.69738 5.4959 4.26515 4.53356 5.09239 4.75789 5.1826 5.0643 5.88056 5.11723 4.47106 5.33824 6.11518 4.7814 4.81025 3.80847 5.61038 4.87527 4.63672 4.45843 3.93352 5.25574 5.5535 5.10403 4.43485 4.34141 4.44669 5.20972 4.46069 6.00058 5.25022 4.13235 4.24422 5.56237 4.50413 3.89812 4.59368 4.68871 5.39734 5.25565 3.89406 4.67627 5.48755 4.70039 4.75964 5.56132 4.96748 4.37153 5.42719 5.50234 6.609 4.18724 5.46766 5.51063 4.7071 4.8131 4.76094 6.06999 4.77217 4.3953 4.61909 4.56599 5.30951 5.76908 5.46561 4.59808 4.75314 5.26006 4.94093 5.39423 4.55169 4.38105 5.82999 4.79624 5.55642 4.97503 4.83897 4.74639 5.18133
aom-x-bible 4.67821 4.65028 5.77041 5.7135 5.50865 5.50968 4.91161 4.53344 4.66002 5.45193 5.49004 5.21265 5.05164 5.33809 4.44626 5.07176 5.42677 5.58286 4.87163 5.40234 5.12259 5.51093 5.39367 4.57027 4.7161 4.77189 4.63297 5.20049 5.02712 5.60772 5.06036 4.6578 5.28696 5.80374 4.62925 5.05585 4.22937 5.66553 5.01078 4.69308 4.63514 4.39909 5.21333 5.42679 5.15317 4.51647 4.67571 4.46821 5.35612 4.57124 5.91287 4.93014 4.75266 4.26001 5.47201 4.6851 4.21149 4.97474 4.83586 5.17307 5.46844 4.21894 4.71272 5.37035 4.76157 5.1975 5.32353 5.0755 4.74847 5.03362 5.47515 5.60455 4.31858 5.45983 5.19352 4.73063 4.67417 4.5195 5.65654 4.73139 4.54844 5.03861 4.86956 5.50828 5.59802 5.56554 4.93206 4.75231 5.31129 4.87228 5.08718 4.91405 4.66095 5.59773 4.97156 5.58582 5.28888 4.71508 4.96789 5.06922
aon-x-bible 4.6455 4.59681 6.23819 5.92926 5.72305 5.72165 4.70477 4.42428 4.84501 5.80582 5.73235 5.43805 5.2715 5.37687 4.32033 4.97685 6.00087 5.72233 4.66796 5.89368 5.06227 5.70293 5.57395 4.26184 4.49826 4.97099 4.71334 5.21023 5.08406 5.9853 5.20517 4.41421 5.30057 6.16898 4.52523 4.94391 3.6918 5.76197 4.84283 4.53146 4.30775 3.87818 5.40228 5.73346 5.32206 4.21186 4.19836 4.33931 5.28001 4.33195 6.18743 4.95853 4.10893 4.04017 5.75246 4.43509 3.75611 4.63214 4.64293 5.42873 5.3647 3.79308 4.64316 5.53618 4.7488 4.79811 5.61878 4.99564 4.2304 5.37302 5.66712 6.56233 3.92038 5.72167 5.54722 4.65147 4.75265 4.4282 6.15052 4.75687 4.29111 4.76875 4.48288 5.48451 5.80551 5.65032 4.72506 4.70979 5.38622 5.01493 5.33067 4.57498 4.39425 5.70744 4.88097 5.74684 5.15962 4.72905 4.83514 5.24873
aoz-x-bible 4.54662 4.74595 6.46757 4.50557 5.43669 5.14674 6.63569 5.53376 4.90276 6.30234 4.59711 5.09524 5.01184 4.0595 5.79592 5.98064 4.66617 5.82107 4.81135 3.64319 4.27208 6.31316 5.36469 4.84282 4.03841 5.31682 6.40241 5.49257 4.0171 3.89958 5.1862 4.73487 5.26262 5.87841 4.93527 6.4046 4.69691 5.54334 5.23429 5.1651 3.67327 3.80227 4.11726 4.66976 5.51786 3.77815 4.30146 5.58305 4.85064 4.74487 4.97879 5.57882 5.09026 6.15835 5.57348 5.3327 4.82115 5.93218 5.75044 5.1278 4.99847 5.1323 5.05241 4.38884 3.59408 6.22891 5.3112 4.0397 3.88809 5.16867 4.12984 4.08405 5.02699 5.47933 4.19826 6.04284 4.84275 4.39701 5.39344 4.76817 5.73929 4.63193 5.78068 4.41417 5.07491 5.41994 3.94789 4.85702 4.44472 4.79609 3.32565 3.77795 6.03648 3.82024 4.48997 5.24499 4.48575 4.45264 4.93286 5.74517
apb-x-bible 4.69521 4.81712 5.85773 5.72334 5.71327 5.77205 4.73849 4.44929 4.77974 5.61157 5.68608 5.43442 5.21349 5.27656 4.4392 5.09166 5.99783 5.53471 4.60701 5.8049 5.01205 5.70339 5.4728 4.27291 4.5642 5.02686 4.78445 5.21057 5.0668 5.87151 5.11738 4.49865 5.35577 6.09274 4.72902 4.83926 3.8597 5.6467 4.92712 4.68468 4.43856 4.02288 5.21206 5.54959 5.08515 4.42322 4.40186 4.41935 5.26502 4.45654 6.02728 5.19826 4.26776 4.2212 5.53946 4.54511 3.90031 4.64316 4.68273 5.40524 5.25278 3.91205 4.66729 5.48891 4.68012 4.84673 5.55467 4.97654 4.43881 5.31299 5.53029 6.52083 4.25812 5.45023 5.45471 4.71432 4.78157 4.74431 6.03964 4.76536 4.44503 4.66338 4.59413 5.40617 5.79856 5.5146 4.70886 4.73618 5.24358 4.92763 5.325 4.57953 4.43313 5.8508 4.82841 5.61348 5.06394 4.79358 4.74746 5.10834
ape-x-bible 4.63202 4.55753 6.28772 5.96811 5.71984 5.70319 4.70263 4.43206 4.84902 5.82448 5.7293 5.41963 5.2819 5.40024 4.30705 4.96726 5.97166 5.75396 4.68729 5.8955 5.07754 5.6935 5.5827 4.27172 4.50032 4.94826 4.70331 5.20533 5.08549 5.99133 5.21431 4.41052 5.29414 6.16038 4.48498 4.96451 3.68604 5.78713 4.83892 4.51516 4.29503 3.87773 5.43032 5.75688 5.36467 4.17606 4.18044 4.32305 5.28885 4.31498 6.20202 4.91001 4.10624 4.00909 5.78572 4.42534 3.74092 4.63683 4.63975 5.42895 5.38358 3.78786 4.64113 5.53875 4.76512 4.80787 5.61555 5.00033 4.20991 5.3603 5.69557 6.54241 3.87743 5.7607 5.5507 4.64485 4.74115 4.36935 6.14608 4.75381 4.27861 4.79659 4.47266 5.50933 5.80237 5.67625 4.74825 4.70272 5.41147 5.02602 5.31535 4.58674 4.39877 5.67636 4.90075 5.7711 5.19014 4.71546 4.85437 5.25916
apn-x-bible 4.83336 5.31277 4.47858 5.12034 5.22972 5.28447 4.90313 4.40206 4.89466 4.47291 5.08438 5.00548 5.09454 5.24436 4.60048 5.08349 5.37723 5.05183 4.67155 5.24896 5.13671 5.18192 4.88642 4.91513 5.00216 5.00509 4.76748 4.84209 4.9955 5.0705 4.57564 5.04903 5.39245 5.0864 5.19845 4.52123 4.776 5.23892 5.11956 5.07654 5.26103 4.88228 4.88829 4.90033 4.6484 5.1378 5.15137 4.78956 5.13703 5.16885 4.87149 5.51857 5.05171 4.81079 4.9676 4.97439 4.78396 4.86554 4.95429 5.02961 5.19004 4.81429 4.95513 5.06962 5.09841 5.22142 4.85979 5.07994 5.32351 5.14924 5.15487 5.39285 5.16492 4.66736 5.05484 4.82588 4.97737 5.35283 4.89033 4.95336 4.91578 4.7114 4.8661 5.0907 5.20362 5.03209 4.88644 4.85354 5.24088 4.76954 5.23155 4.99754 4.57564 5.66857 4.96034 4.89438 4.96783 5.13567 4.81341 4.59977
apr-x-bible 4.61759 4.51232 6.32328 5.99853 5.71694 5.67734 4.72427 4.46466 4.81784 5.83997 5.70055 5.37143 5.25746 5.41553 4.3149 4.9959 5.87364 5.77528 4.72334 5.84094 5.09774 5.67932 5.57616 4.2993 4.51042 4.89183 4.69936 5.2244 5.08455 5.97978 5.22298 4.42274 5.28928 6.13842 4.43084 5.01204 3.71357 5.81885 4.85586 4.52355 4.27781 3.92568 5.41931 5.76295 5.38248 4.15546 4.20813 4.31263 5.32065 4.30557 6.22151 4.84692 4.19845 3.98541 5.78771 4.44214 3.75296 4.69665 4.64379 5.42061 5.40712 3.80492 4.63557 5.53345 4.76984 4.87118 5.60699 5.00764 4.23023 5.30214 5.71668 6.38256 3.87034 5.79102 5.51081 4.64907 4.71568 4.30582 6.1121 4.74779 4.29492 4.84324 4.51028 5.56369 5.80179 5.71602 4.81866 4.69374 5.41551 5.01978 5.2549 4.61846 4.43968 5.64065 4.9303 5.80454 5.25031 4.68291 4.87115 5.22999
apt-x-bible 4.84293 4.94724 5.12779 5.48819 5.35096 5.56598 5.06652 4.43258 4.49963 5.04306 5.40869 5.36421 5.01149 5.23702 4.35597 5.10486 5.59971 5.41062 4.67315 5.25455 5.04277 5.52803 5.33099 4.5892 4.72091 4.83827 4.69223 5.16766 4.97426 5.33395 4.80712 4.63457 5.45145 5.75065 4.98848 4.86708 4.55035 5.49295 5.0881 4.8835 4.89134 4.34543 4.98694 5.0954 4.87163 4.78893 4.90208 4.62133 5.24703 4.6736 5.59048 5.4101 4.90088 4.5392 5.19496 4.78352 4.38954 4.86801 4.99749 5.03739 5.28288 4.43382 4.76546 5.27045 4.71522 5.27775 5.24542 4.89596 4.90955 5.08347 5.24601 5.53022 4.73733 5.18791 5.08929 4.90844 4.76112 4.89517 5.38316 4.74863 4.71538 4.66151 5.12592 5.25011 5.49258 5.27872 4.7882 4.79795 5.123 4.71389 5.02753 4.89044 4.67806 5.66423 4.84021 5.29169 5.00311 4.88104 4.79514 4.92483
apu-x-bible 4.76182 5.15428 4.64821 5.17752 5.12182 5.09346 4.87452 4.46227 5.00486 4.49721 4.9578 4.79998 5.08429 5.3277 4.60475 5.03871 5.04777 5.1322 4.86328 5.18268 5.25326 5.06145 4.7702 5.08269 5.03661 4.89989 4.73023 4.80474 5.00141 5.00702 4.5526 5.20125 5.28147 4.9307 4.96916 4.64264 4.80748 5.28183 5.09314 5.00937 5.24036 5.09069 4.94959 4.98462 4.7547 5.08226 5.14185 4.81585 5.15883 5.27997 4.83101 5.22442 5.18555 4.74725 5.02857 5.04494 4.90822 5.03519 4.92041 5.02095 5.32712 4.92833 4.9829 5.04301 5.2566 5.33882 4.7769 5.21087 5.43556 5.11686 5.19258 5.13325 5.13201 4.73334 4.97535 4.74248 5.0116 5.19215 4.76732 5.02967 4.92384 4.95753 4.77141 5.23653 5.1052 5.14762 5.08156 4.8458 5.39108 4.88465 5.21698 5.06142 4.60567 5.5086 5.0953 4.93958 5.16738 5.08231 4.93547 4.56144
apw-x-bible 4.75567 4.82328 5.31661 5.49576 5.37187 5.42626 4.98852 4.54619 4.61656 5.15019 5.35854 5.14426 4.96493 5.27132 4.51809 5.10706 5.29749 5.40201 4.88971 5.20166 5.13161 5.40732 5.24744 4.71434 4.83298 4.78147 4.63381 5.15929 5.00281 5.36729 4.91038 4.80332 5.30915 5.57656 4.83237 4.98755 4.52803 5.52781 5.0838 4.82377 4.88581 4.6202 5.06175 5.1951 4.97029 4.77721 4.94962 4.58355 5.30673 4.75374 5.61345 5.09763 4.98814 4.46641 5.25776 4.81992 4.48299 5.05581 4.9391 5.05882 5.42606 4.4713 4.78028 5.26152 4.7826 5.31436 5.16894 5.08704 5.00638 4.96144 5.30702 5.26301 4.63481 5.19165 5.04955 4.79374 4.71594 4.75756 5.3606 4.76339 4.71739 5.03058 5.0486 5.37396 5.46017 5.40515 4.94122 4.79778 5.23402 4.78616 5.05364 5.0498 4.74537 5.60527 4.97687 5.37405 5.21665 4.78833 4.96808 4.94753
apy-x-bible 4.75908 4.9073 5.1454 5.37134 5.29555 5.30101 4.95359 4.55526 4.75588 4.99166 5.20997 4.98824 4.95868 5.26658 4.59616 5.1068 5.18038 5.2943 4.92253 5.16385 5.17272 5.28828 5.06101 4.8389 4.89049 4.81812 4.68214 5.08665 5.00848 5.25439 4.82122 4.96292 5.27519 5.36239 4.84262 4.9215 4.6097 5.44402 5.07922 4.87345 4.97155 4.8099 5.00161 5.14044 4.88893 4.87788 5.02715 4.672 5.25269 4.93724 5.36274 5.0963 5.07165 4.55917 5.17665 4.91152 4.65038 5.10873 4.91049 5.07048 5.40232 4.6155 4.83919 5.18545 4.92853 5.33133 5.06281 5.14845 5.12092 5.01293 5.2582 5.13307 4.79032 5.04644 4.99131 4.77411 4.82321 4.9035 5.17254 4.8654 4.80532 5.04227 4.9676 5.33279 5.35517 5.34836 5.01308 4.82079 5.26916 4.83468 5.08868 5.05683 4.73302 5.57119 5.03863 5.24161 5.21592 4.85648 4.95992 4.82806
apz-x-bible 4.88563 5.23583 4.93433 5.25885 5.50939 5.69123 4.91217 4.45511 4.66297 5.06848 5.46655 5.38377 5.02821 5.11977 4.59198 5.18532 5.95344 5.1306 4.53042 5.43693 4.95912 5.53556 5.23077 4.44935 4.73903 5.11903 4.83261 5.14188 5.01008 5.45894 4.87297 4.689 5.44109 5.74062 5.20579 4.65722 4.36246 5.35037 5.04676 4.96476 4.89763 4.32981 4.87435 5.08965 4.67476 4.90633 4.88451 4.6468 5.16054 4.74087 5.45753 5.68365 4.64791 4.65134 5.11471 4.75163 4.35209 4.7606 4.85995 5.23475 5.10514 4.29491 4.76621 5.30763 4.65721 4.9882 5.30682 4.92716 4.81572 5.2531 5.21915 5.8428 4.83215 4.93796 5.21098 4.87017 4.86632 5.31216 5.54268 4.78178 4.77284 4.48461 4.97725 5.05454 5.5855 5.13618 4.61987 4.82461 5.0156 4.72887 5.26166 4.75718 4.55529 5.92324 4.7717 5.14084 4.79224 4.99887 4.64982 4.88892
arb-x-bible 4.92376 5.56692 3.97329 5.06801 5.38118 5.67076 5.03949 4.33035 4.53553 4.45525 5.32827 5.55908 5.12447 5.17318 4.50304 5.13084 5.8898 5.01877 4.33883 5.31098 4.97632 5.42293 5.22255 4.61923 4.96822 5.11815 4.7607 4.87895 4.95095 5.09817 4.58554 4.68841 5.60014 5.46516 5.66277 4.36532 4.80037 5.24157 5.19183 5.22553 5.33909 4.42387 4.81882 4.73618 4.58225 5.17688 5.12999 4.72449 5.16367 4.8864 5.04053 6.04899 4.89176 4.90212 4.88772 4.82589 4.53649 4.62501 5.12716 4.96821 5.02689 4.66086 4.92214 5.1542 4.69898 5.14094 4.94996 4.81054 5.16876 5.10935 5.12093 5.73003 5.23069 4.57136 5.1671 4.97625 4.83518 5.52389 5.09871 4.73034 4.8938 4.41573 5.18394 4.90256 5.31214 4.82291 4.53787 4.83417 5.02612 4.47926 5.21292 4.98086 4.57149 5.85292 4.69757 4.82999 4.67326 5.21563 4.66656 4.64356
arb-x-bible-newworld 4.9198 5.52195 4.09341 5.08586 5.38395 5.65909 5.02703 4.35437 4.55752 4.52412 5.33302 5.51681 5.1059 5.1647 4.52698 5.14081 5.87201 5.02571 4.37699 5.30858 4.97825 5.42592 5.20762 4.61267 4.94515 5.11549 4.77256 4.91074 4.95852 5.1261 4.61568 4.70698 5.57689 5.47761 5.60219 4.40951 4.76458 5.24861 5.17635 5.19604 5.29813 4.43725 4.81831 4.77226 4.58893 5.15411 5.1175 4.72323 5.16341 4.88061 5.07216 5.99551 4.88086 4.87873 4.9073 4.82553 4.53559 4.65302 5.09751 4.9941 5.03928 4.63392 4.90624 5.16262 4.69866 5.13721 4.97997 4.82986 5.13353 5.11942 5.12384 5.70906 5.19556 4.60726 5.1619 4.96453 4.84256 5.49607 5.13169 4.74253 4.89056 4.43798 5.16392 4.92063 5.3344 4.86115 4.56051 4.83534 5.02333 4.50914 5.20894 4.96663 4.58151 5.85145 4.71762 4.85888 4.69119 5.18768 4.67228 4.66547
are-x-bible 4.68915 4.6718 5.6903 5.67822 5.47732 5.48553 4.93134 4.53845 4.64458 5.39432 5.46451 5.1951 5.03216 5.33154 4.45644 5.07362 5.38155 5.55741 4.88735 5.35332 5.12714 5.48672 5.37077 4.60534 4.745 4.76147 4.62236 5.19245 5.02016 5.55783 5.0353 4.68672 5.2877 5.75507 4.66057 5.05386 4.29719 5.64417 5.0281 4.7137 4.688 4.45165 5.19265 5.38192 5.12834 4.56306 4.73338 4.48736 5.35389 4.60473 5.86481 4.94632 4.81052 4.29578 5.43508 4.7123 4.26941 4.99893 4.86188 5.14073 5.47218 4.27361 4.72485 5.34848 4.76596 5.23053 5.28598 5.08241 4.80785 5.0042 5.44414 5.52377 4.37484 5.41582 5.15898 4.7417 4.67145 4.54611 5.59287 4.72996 4.57945 5.05514 4.91203 5.49345 5.56772 5.54058 4.94026 4.76031 5.30132 4.85456 5.07151 4.95353 4.68447 5.59031 4.97727 5.55205 5.28751 4.72449 4.97886 5.04955
arl-x-bible 4.55443 4.86111 4.66426 5.19547 4.69413 4.33104 4.7549 4.55371 5.48742 4.12549 4.32227 4.02695 5.10287 5.60867 4.60436 4.86157 3.89854 5.29121 5.34987 4.96458 5.66327 4.55667 4.23016 5.79594 5.26021 4.59527 4.64238 4.50729 5.03523 4.65679 4.25752 5.82139 4.99549 4.09021 4.41206 4.8027 5.05797 5.31736 5.06287 4.87666 5.35988 5.99675 5.12839 5.09326 4.96648 5.0707 5.23357 4.96383 5.16996 5.89985 4.236 4.4322 5.67631 4.71712 5.0851 5.38479 5.45221 5.4602 4.83472 4.95454 5.65841 5.55583 5.2076 4.78229 5.99999 5.65647 4.29334 5.59736 5.99048 5.05686 5.24779 4.37207 5.23291 4.67148 4.72225 4.52519 5.24373 4.90514 3.99773 5.45158 5.02273 5.58905 4.3847 5.56466 4.62663 5.35259 5.64571 4.87811 5.94072 5.26403 5.18378 5.28521 4.6467 4.93769 5.56709 4.89794 5.73913 5.07718 5.31929 4.29031
arn-x-bible 4.53803 4.83578 4.70462 5.2138 4.73964 4.44868 4.75315 4.56276 5.43748 4.22084 4.3594 4.08197 5.07147 5.5789 4.5985 4.87271 3.96959 5.3101 5.31631 4.99133 5.65367 4.5983 4.27631 5.71751 5.24745 4.57279 4.62988 4.57691 5.05348 4.73006 4.29958 5.77054 5.00918 4.19635 4.417 4.809 5.02597 5.31866 5.07418 4.87236 5.31737 5.8953 5.14994 5.1165 4.97315 5.06669 5.25253 4.94642 5.18322 5.82675 4.33589 4.47707 5.66248 4.70167 5.09543 5.3798 5.39743 5.44398 4.83525 4.95081 5.64289 5.44838 5.2001 4.81154 5.88722 5.62131 4.39895 5.56724 5.88144 5.0749 5.26769 4.45176 5.15017 4.69862 4.75054 4.55198 5.20725 4.88107 4.12642 5.45389 4.98597 5.5333 4.43334 5.54303 4.71836 5.39081 5.59015 4.88065 5.83992 5.23556 5.14808 5.23251 4.66382 4.97095 5.54526 4.96133 5.71196 5.0311 5.27168 4.33248
arz-x-bible 4.91817 5.50859 4.1173 5.08962 5.38343 5.65158 5.0167 4.36307 4.57344 4.54573 5.33259 5.49796 5.10078 5.16172 4.53685 5.14326 5.86573 5.02581 4.39086 5.31246 4.97976 5.42347 5.19598 4.61155 4.93637 5.11708 4.7798 4.92135 4.9618 5.13896 4.62659 4.71806 5.56537 5.47869 5.58266 4.41982 4.7467 5.24894 5.16828 5.18447 5.28016 4.44584 4.81817 4.78804 4.58933 5.1456 5.11035 4.72402 5.15902 4.88399 5.08061 5.97807 4.87343 4.87157 4.91525 4.82742 4.53719 4.65925 5.0808 5.00849 5.04224 4.62325 4.90104 5.16602 4.70465 5.13001 4.99261 4.84135 5.12251 5.13073 5.12572 5.70695 5.18437 4.61824 5.16107 4.9571 4.85065 5.49484 5.14484 4.75182 4.88976 4.44018 5.14781 4.92676 5.34291 4.87137 4.56943 4.83618 5.0251 4.52658 5.21387 4.95435 4.57985 5.85292 4.72607 4.86857 4.69829 5.1799 4.67226 4.67338
asg-x-bible 4.91606 5.19102 4.79029 5.20321 5.41083 5.59444 5.0037 4.51834 4.60304 4.97882 5.37791 5.27539 4.9085 5.0737 4.68254 5.21571 5.72124 5.08082 4.63548 5.21318 4.99191 5.45706 5.157 4.56942 4.79913 5.04505 4.81631 5.17764 5.00196 5.30016 4.81311 4.79095 5.43446 5.60752 5.22997 4.7487 4.58684 5.32178 5.10411 5.02412 5.02642 4.50913 4.81024 4.96865 4.63094 5.01869 5.08692 4.70354 5.16039 4.82808 5.33473 5.63936 4.88224 4.72931 5.00369 4.84592 4.54145 4.89375 4.93752 5.1334 5.14202 4.47958 4.80485 5.22038 4.64499 5.17204 5.21035 4.93746 4.87843 5.13153 5.13339 5.46627 4.95998 4.84933 5.07764 4.9135 4.86475 5.28696 5.33252 4.80418 4.87894 4.60755 5.14198 5.0583 5.48798 5.12946 4.73339 4.84333 4.98603 4.65878 5.13383 4.92654 4.69876 5.82467 4.83856 5.08415 4.84057 4.96974 4.737 4.82038
aso-x-bible 4.78126 4.99761 5.48542 5.54061 5.62048 5.7417 4.80307 4.42967 4.76558 5.38571 5.60721 5.44868 5.17279 5.21455 4.46525 5.09574 6.05661 5.38546 4.54282 5.69594 4.97961 5.63843 5.39936 4.33088 4.61103 5.10537 4.81194 5.15142 5.03879 5.71755 5.01384 4.552 5.39377 5.97981 4.94094 4.7444 4.01522 5.5251 4.95394 4.78057 4.61824 4.08166 5.10176 5.36447 4.93522 4.58953 4.54604 4.52024 5.19609 4.56203 5.78324 5.43723 4.33448 4.4075 5.39384 4.60101 4.05187 4.64527 4.75329 5.3478 5.1706 4.04723 4.71343 5.41514 4.67738 4.85347 5.45943 4.92927 4.52376 5.34535 5.40415 6.37402 4.46332 5.25186 5.40443 4.78597 4.83376 4.99369 5.872 4.77641 4.55207 4.53968 4.71325 5.23698 5.70393 5.33549 4.62596 4.77107 5.15943 4.85563 5.32901 4.60391 4.44037 5.85229 4.78743 5.39888 4.91062 4.91315 4.69453 5.04848
ata-x-bible 4.79642 5.01952 5.40228 5.50049 5.58489 5.71214 4.83165 4.43542 4.74931 5.32398 5.56963 5.42509 5.14639 5.20646 4.47857 5.10351 5.99713 5.35606 4.55562 5.63236 4.98358 5.61179 5.36538 4.3714 4.63631 5.09077 4.80949 5.14542 5.03063 5.65373 4.98124 4.5821 5.39807 5.92195 4.97198 4.74266 4.09457 5.50121 4.97147 4.80927 4.67039 4.14107 5.06753 5.31416 4.90351 4.64029 4.61102 4.54801 5.1926 4.60019 5.72074 5.45371 4.41566 4.44933 5.34657 4.63413 4.12128 4.67765 4.78212 5.31136 5.1715 4.11383 4.72732 5.38598 4.68578 4.89995 5.41932 4.93067 4.58818 5.31767 5.37092 6.25744 4.52426 5.20959 5.35981 4.80206 4.83681 5.01679 5.78737 4.77978 4.59121 4.55042 4.76676 5.21802 5.66589 5.30884 4.64317 4.77965 5.14583 4.83397 5.29969 4.64468 4.47063 5.83603 4.79466 5.35789 4.90669 4.92367 4.70079 5.0174
atb-x-bible 4.82142 4.86271 5.30965 5.46147 5.41821 5.54569 5.07048 4.54032 4.4891 5.2251 5.39512 5.23996 4.88053 5.18043 4.5137 5.20187 5.46955 5.36058 4.80065 5.15798 5.06424 5.52282 5.28493 4.60469 4.71976 4.79338 4.6906 5.28796 4.99651 5.38983 4.91986 4.71405 5.36924 5.76435 4.87121 5.02018 4.49891 5.51172 5.08866 4.85573 4.80211 4.46266 4.93294 5.17045 4.85719 4.79946 4.95075 4.59991 5.29715 4.67584 5.68057 5.24591 4.98731 4.4873 5.19615 4.81834 4.42723 5.07619 4.94478 5.08818 5.37115 4.38629 4.7306 5.29507 4.66484 5.33036 5.30724 4.99743 4.9214 5.0182 5.25444 5.23162 4.67194 5.22206 5.0041 4.8596 4.73097 4.86517 5.45661 4.75499 4.74012 4.84373 5.17458 5.29667 5.5575 5.39137 4.86658 4.80892 5.09717 4.73493 4.99818 4.95558 4.78152 5.70924 4.88791 5.37766 5.10718 4.74751 4.85366 4.96755
atd-x-bible 4.44798 4.82721 6.71414 4.20154 5.22228 4.73476 6.96472 5.7769 5.17766 6.39821 4.36625 4.97439 4.97591 4.09122 5.88835 5.97837 4.67532 5.97739 4.87445 3.30148 4.07174 6.2137 5.32479 4.86203 3.92593 5.29633 6.59291 5.08131 4.23418 3.70523 5.04806 4.78755 5.22894 5.80047 4.98749 6.56154 4.6615 5.48126 5.23064 4.86779 3.60244 3.86192 4.19938 4.61452 5.71778 3.76244 4.12551 5.74586 4.80116 4.9503 4.68529 5.50178 5.04195 6.33599 5.63878 5.37252 5.00063 5.92841 5.69464 5.16744 4.80177 5.39915 5.25541 4.02334 3.47442 6.26574 5.0774 3.63775 3.69322 5.1842 3.9808 3.98881 5.11207 5.42558 4.15515 6.31874 5.01742 4.31344 5.37599 4.80795 5.78335 4.523 5.86161 4.31916 4.9549 5.30384 4.15554 4.8096 4.15548 4.89272 3.21839 3.66482 6.08846 3.5702 4.61599 5.29146 4.462 4.44563 4.9691 5.79721
atg-x-bible 4.89119 5.2852 4.83276 5.21908 5.49509 5.6805 4.91087 4.44867 4.6753 4.99935 5.44291 5.37974 5.03672 5.11879 4.60565 5.18548 5.94491 5.0963 4.51492 5.42857 4.96154 5.51117 5.20383 4.47247 4.76728 5.13511 4.83828 5.10945 5.00691 5.42098 4.84261 4.71222 5.4495 5.68969 5.25478 4.61567 4.40222 5.32343 5.05752 4.99647 4.94811 4.36396 4.85663 5.05263 4.64824 4.94813 4.91584 4.66351 5.1515 4.77676 5.38882 5.72645 4.66957 4.68904 5.08276 4.7669 4.3873 4.74791 4.87323 5.22131 5.08904 4.33662 4.78506 5.28783 4.67315 4.99084 5.2652 4.9281 4.8616 5.25239 5.20346 5.82826 4.8886 4.87841 5.20682 4.87416 4.87861 5.36287 5.49107 4.78895 4.7962 4.47365 4.98045 5.02756 5.55512 5.09576 4.61344 4.82929 5.01448 4.71516 5.27252 4.77147 4.54928 5.92702 4.76934 5.09317 4.77281 5.02989 4.64637 4.85494
att-x-bible 4.37877 4.91076 6.86026 3.98474 5.05133 4.43813 7.14829 5.91446 5.36492 6.4125 4.21294 4.86565 4.93002 4.20012 5.89006 5.92075 4.6811 6.05969 4.96268 3.11569 3.92681 6.0598 5.29935 4.88152 3.91003 5.28795 6.66792 4.78238 4.49615 3.60402 4.89186 4.82077 5.18541 5.74115 5.03705 6.63994 4.63397 5.38034 5.20813 4.60594 3.60858 3.95778 4.35188 4.53943 5.90148 3.82162 3.99321 5.87735 4.73981 5.13391 4.46215 5.43101 4.99738 6.40721 5.68359 5.37897 5.15093 5.84699 5.59632 5.16716 4.61647 5.61156 5.43794 3.77056 3.47023 6.26251 4.85878 3.39295 3.57767 5.2197 3.94132 3.97276 5.1868 5.34011 4.14436 6.52148 5.1681 4.2924 5.32708 4.80763 5.77514 4.46455 5.93433 4.22448 4.91158 5.19157 4.39876 4.77748 3.92705 5.01753 3.21083 3.59814 6.03153 3.42542 4.77726 5.33382 4.44038 4.48519 5.01582 5.81207
auc-x-bible 4.82201 5.27276 4.51774 5.13498 5.21226 5.24458 4.90141 4.41083 4.91207 4.47166 5.06076 4.95818 5.08292 5.25314 4.602 5.07791 5.31516 5.06676 4.71093 5.22916 5.15967 5.16029 4.86463 4.95 5.00946 4.97893 4.75472 4.84352 5.00094 5.06364 4.5725 5.07954 5.37101 5.04991 5.15296 4.55068 4.78516 5.24895 5.11767 5.06085 5.25567 4.92843 4.90219 4.91454 4.66563 5.13156 5.16052 4.79196 5.14353 5.19172 4.8622 5.45503 5.08391 4.79357 4.97551 4.99115 4.80875 4.90205 4.94839 5.0246 5.2185 4.83672 4.96093 5.06146 5.13401 5.247 4.84895 5.10473 5.34255 5.13674 5.16009 5.33976 5.15116 4.68346 5.03565 4.81295 4.98127 5.31545 4.86223 4.97076 4.91601 4.75964 4.85257 5.11924 5.19038 5.06241 4.9268 4.85466 5.26639 4.78697 5.22274 5.01667 4.58926 5.63838 4.9908 4.90881 5.01046 5.1179 4.84069 4.59603
auy-x-bible 4.84521 5.2481 5.05685 5.33281 5.5772 5.75785 4.81985 4.4089 4.75675 5.13693 5.54791 5.46677 5.16584 5.15441 4.53316 5.13535 6.14547 5.18863 4.43769 5.64582 4.94173 5.58532 5.30894 4.35633 4.69352 5.20952 4.86329 5.07559 5.02075 5.58852 4.9066 4.61213 5.45178 5.83393 5.19547 4.57372 4.16776 5.38591 4.99947 4.91649 4.81092 4.17129 4.97263 5.18442 4.75472 4.78336 4.69432 4.59688 5.13744 4.67555 5.5283 5.72098 4.40625 4.59442 5.23189 4.65971 4.17842 4.59314 4.79773 5.32599 5.05046 4.15719 4.76131 5.35922 4.66987 4.82587 5.35973 4.89354 4.6653 5.35997 5.29778 6.27434 4.7107 4.99168 5.37429 4.8419 4.88917 5.30834 5.71412 4.78578 4.67649 4.38554 4.79116 5.05789 5.64017 5.13747 4.53809 4.80097 5.06797 4.78543 5.37582 4.61329 4.42131 5.94913 4.7363 5.1811 4.74503 5.04811 4.60967 4.9417
ava-x-bible 4.83103 5.0663 4.88184 5.28469 5.3727 5.49346 4.96352 4.56022 4.63823 4.96427 5.375 5.18665 4.95137 5.16061 4.68397 5.14403 5.44917 5.17768 4.78924 5.18059 5.07633 5.36454 5.181 4.6943 4.92871 4.95498 4.71262 5.09847 5.00402 5.28218 4.83499 4.86342 5.36365 5.46198 5.15673 4.81529 4.64712 5.38635 5.1286 4.96251 5.10054 4.6815 4.95489 5.00474 4.78747 4.98622 5.13192 4.64602 5.22138 4.84776 5.36933 5.40593 4.95817 4.66727 5.08777 4.85035 4.5841 4.94958 4.97374 5.06092 5.26327 4.55959 4.84026 5.19929 4.67904 5.23326 5.089 5.04004 5.01229 4.963 5.1873 5.35102 4.85641 4.87289 5.09118 4.85147 4.7733 5.05516 5.26665 4.7739 4.84614 4.92277 5.115 5.17473 5.40634 5.21142 4.83925 4.82368 5.12224 4.68067 5.13916 5.11222 4.73972 5.69721 4.94072 5.16317 5.03098 4.92523 4.93268 4.85887
avt-x-bible 4.64101 4.58319 6.25427 5.94292 5.71954 5.71266 4.70338 4.42657 4.84843 5.80969 5.73084 5.43096 5.27726 5.38632 4.31448 4.97087 5.99088 5.73388 4.67559 5.89604 5.06838 5.69771 5.57669 4.26699 4.50043 4.9637 4.70869 5.20563 5.08429 5.98584 5.20743 4.41384 5.29786 6.16229 4.51177 4.95009 3.69141 5.77039 4.84095 4.52462 4.30604 3.87846 5.41506 5.74112 5.34044 4.19924 4.19153 4.33377 5.28156 4.32703 6.18938 4.94104 4.10692 4.02941 5.76593 4.4312 3.75174 4.63124 4.64243 5.42793 5.37159 3.7931 4.64325 5.53623 4.75688 4.80024 5.61485 4.99762 4.22272 5.36945 5.67704 6.55564 3.90429 5.73489 5.54943 4.64917 4.74867 4.40441 6.1463 4.75581 4.28659 4.77896 4.47786 5.49181 5.80248 5.65813 4.73256 4.70752 5.39699 5.01933 5.32605 4.58012 4.39508 5.69447 4.88879 5.75393 5.16948 4.72574 4.84329 5.25354
avu-x-bible 4.92649 4.99069 5.06465 5.29993 5.35933 5.52526 5.03617 4.55968 4.60025 5.16674 5.38111 5.18562 4.84657 5.07385 4.64747 5.16216 5.62249 5.17182 4.77287 5.16313 4.98206 5.46055 5.1582 4.56718 4.74378 4.97612 4.81357 5.30138 4.9982 5.31616 4.88856 4.77227 5.38568 5.6429 5.0546 4.92251 4.59033 5.38031 5.05975 4.89758 4.91439 4.51274 4.86575 5.02224 4.72296 4.89864 5.06691 4.72379 5.1312 4.77399 5.44836 5.42336 4.89163 4.67416 5.07223 4.84616 4.56209 4.96136 4.91082 5.14207 5.16586 4.44228 4.76258 5.21165 4.65249 5.2058 5.29507 4.9303 4.68342 5.11107 5.11329 5.3795 4.82898 5.01609 5.00011 4.95069 4.85328 5.08971 5.3229 4.79691 4.88817 4.69757 5.16242 5.13481 5.49892 5.24397 4.83796 4.84701 4.98256 4.73041 5.00223 4.9496 4.79319 5.68079 4.93724 5.16596 4.9098 4.90449 4.75315 4.89156
awa-x-bible 5.09956 5.99765 2.21582 4.60349 5.51885 5.93072 5.38676 4.0623 3.82637 3.34778 5.37359 6.34823 4.78061 5.00376 4.05076 5.0532 5.98945 4.91995 3.80076 4.85375 5.14273 5.35785 5.81439 4.78296 5.38305 4.91058 4.32499 4.71775 4.82567 4.78105 3.79765 4.31681 5.99678 5.71196 6.65789 3.85575 5.62501 5.32614 5.6918 6.01356 5.87209 4.16504 4.86615 3.8263 4.31391 5.71355 5.54098 4.53645 4.87404 5.23424 4.86442 6.73939 5.39444 5.4504 4.25191 5.20856 4.63792 4.51851 5.51328 4.84963 4.96306 5.36615 5.41984 5.17103 4.47873 5.22608 4.8421 4.48608 5.75106 4.79459 5.11944 5.68361 5.73001 3.81767 5.19488 5.12249 4.98069 5.96801 4.73592 4.78912 4.83813 4.22916 5.94824 4.81 5.08454 4.30998 4.33014 4.78556 5.13648 4.03826 5.59113 5.12682 4.34579 5.96693 4.14833 4.80592 4.65118 5.52098 4.90155 4.39198
awb-x-bible 4.84209 5.19841 5.14593 5.36331 5.58522 5.75549 4.82073 4.39995 4.76256 5.19829 5.55918 5.47704 5.15467 5.16272 4.50621 5.11772 6.14455 5.23242 4.45488 5.65263 4.94278 5.6083 5.32655 4.34805 4.65501 5.19034 4.84995 5.10179 5.02522 5.62016 4.92931 4.5923 5.43431 5.8872 5.14829 4.61315 4.12575 5.41142 4.97848 4.88147 4.75397 4.14456 4.98885 5.22823 4.77301 4.75145 4.65882 4.59488 5.15167 4.65626 5.59304 5.67054 4.38956 4.55805 5.2507 4.64691 4.16413 4.61748 4.78964 5.32113 5.08354 4.1379 4.74716 5.37116 4.67063 4.83453 5.39336 4.90229 4.64335 5.37889 5.31087 6.30564 4.65593 5.06243 5.38152 4.82478 4.8833 5.25056 5.74939 4.78837 4.63625 4.41038 4.78077 5.08778 5.65201 5.1829 4.54364 4.79684 5.08233 4.79738 5.37224 4.60057 4.4187 5.92786 4.73305 5.22754 4.7671 5.01739 4.6196 4.96733
awi-x-bible 4.85204 5.2593 5.00909 5.31161 5.56268 5.74386 4.83349 4.41609 4.74493 5.10584 5.52859 5.4504 5.14708 5.14928 4.5477 5.14458 6.11006 5.16979 4.44932 5.61038 4.94608 5.56949 5.28893 4.3779 4.71065 5.19872 4.8598 5.07656 5.01819 5.55729 4.89323 4.63196 5.45252 5.80222 5.20902 4.57582 4.21134 5.37325 5.01106 4.9332 4.84 4.2076 4.95324 5.15924 4.7369 4.81363 4.73411 4.60761 5.13881 4.69541 5.49674 5.72534 4.45132 4.61286 5.20638 4.67878 4.21458 4.61588 4.81085 5.30877 5.05486 4.18997 4.76733 5.34597 4.67274 4.85227 5.33883 4.89993 4.70167 5.34036 5.28224 6.20811 4.7464 4.96575 5.34662 4.84744 4.88813 5.32178 5.67176 4.78663 4.69946 4.3997 4.82105 5.05111 5.62375 5.1263 4.55079 4.80588 5.06 4.77336 5.3603 4.64145 4.44173 5.94698 4.74274 5.162 4.74912 5.0483 4.61612 4.92422
ayo-x-bible 4.47985 4.81734 4.58165 5.21821 4.62225 4.31758 4.70964 4.57051 5.56829 4.06891 4.15721 3.86742 5.08918 5.64697 4.58626 4.85374 3.63641 5.31421 5.371 4.96688 5.78002 4.44956 4.12265 5.90913 5.29172 4.47928 4.63682 4.49305 5.04298 4.63847 4.16755 5.93337 4.96863 3.93159 4.2903 4.80343 5.09786 5.30072 5.07289 4.87258 5.3658 6.13762 5.1763 5.13092 4.97448 5.07949 5.30926 5.0083 5.185 6.04659 4.10174 4.33377 5.81059 4.74683 5.06481 5.48604 5.54538 5.5436 4.8146 4.93612 5.70182 5.61307 5.26084 4.75468 6.10171 5.67709 4.273 5.63895 6.04265 5.09725 5.25892 4.32976 5.20487 4.6097 4.66093 4.50033 5.25693 4.90111 3.86068 5.67243 5.05861 5.62948 4.37374 5.54392 4.59267 5.4036 5.65597 4.89956 6.00762 5.36149 5.10923 5.23867 4.65516 4.83424 5.63816 4.90641 5.82805 5.06071 5.31979 4.22663
ayr-x-bible-1997 4.6029 4.91925 4.64826 5.08362 4.83426 4.25928 4.80885 4.5222 5.46715 4.16806 4.26002 4.10555 5.08437 5.57915 4.66547 4.82958 3.92565 5.3398 5.28511 4.88157 5.52346 4.64625 4.1224 5.74289 5.26935 4.61121 4.79321 4.48281 5.09484 4.51736 4.31442 5.7896 5.04873 4.03665 4.40177 4.77338 5.03235 5.28473 5.11819 4.86229 5.31026 5.92906 5.11393 5.03795 4.95357 5.14635 5.24468 4.94391 5.14733 5.77751 4.19531 4.54127 5.65628 4.79843 5.15747 5.38496 5.48465 5.48975 4.78391 4.94515 5.57292 5.65542 5.23027 4.57307 5.76095 5.68778 4.16596 5.51793 5.97625 5.06468 5.35342 4.2852 5.2747 4.7531 4.90815 4.73757 5.44275 4.94534 4.0601 5.39525 4.94627 5.34926 4.30072 5.65921 4.50035 5.31686 5.80425 4.91771 5.58777 5.19551 5.15432 5.39321 4.69458 4.93168 5.54031 4.95929 5.57602 5.0883 5.399 4.25458
ayr-x-bible-2011 4.60354 4.91625 4.64674 5.09585 4.82704 4.27374 4.80553 4.52043 5.46484 4.16693 4.26914 4.10788 5.08584 5.57834 4.65849 4.83318 3.94083 5.33293 5.28269 4.89047 5.53153 4.64394 4.13317 5.74052 5.2684 4.61558 4.78129 4.48746 5.08884 4.53393 4.31075 5.78471 5.04168 4.04968 4.40686 4.77173 5.02874 5.28665 5.11482 4.86574 5.31311 5.92285 5.11487 5.04162 4.94976 5.13948 5.24567 4.94445 5.15191 5.78114 4.20517 4.54219 5.65214 4.79124 5.15108 5.38154 5.47395 5.48216 4.78821 4.94745 5.57641 5.63917 5.22577 4.59491 5.76997 5.68149 4.1833 5.5204 5.97369 5.0672 5.34457 4.3059 5.27163 4.74737 4.89656 4.72344 5.42478 4.94827 4.06483 5.39685 4.95321 5.35955 4.30907 5.64739 4.51956 5.31461 5.78622 4.91607 5.60575 5.19601 5.15807 5.38223 4.69142 4.94269 5.53776 4.95178 5.58219 5.08733 5.38766 4.25777
azb-x-bible 4.59304 4.84676 4.46901 5.30016 5.37394 5.76588 4.74833 4.93412 4.45752 4.77929 5.84194 5.16864 5.04997 4.97311 5.33815 5.15013 4.80967 5.259 5.17495 4.91108 5.35755 5.11526 5.48619 5.05241 5.8113 4.98568 4.554 4.7013 5.1102 5.21654 4.63922 5.17295 5.31295 4.93891 5.98896 4.8604 5.08341 5.47596 5.50134 4.92583 6.04243 5.32171 5.38348 4.69677 4.99919 5.52742 6.17577 4.28795 5.35339 4.80208 5.23241 5.33668 5.12455 4.79658 5.08752 4.88887 4.62542 4.84621 5.34682 4.79216 5.30698 4.92874 5.21392 5.0388 3.61301 5.4167 4.63104 5.16107 5.36478 3.81104 5.06758 5.36273 4.55318 3.93857 5.63596 4.82346 4.38047 4.29786 5.25441 4.72541 5.00341 6.3867 5.53526 4.96181 5.02363 5.33619 5.03917 4.70605 5.3468 4.28101 5.60186 6.52465 5.10026 5.36314 5.32542 5.28964 5.51669 4.77132 6.26034 5.07718
azb-x-bible-latin 4.57727 4.87015 4.45961 5.27566 5.3782 5.79021 4.7261 4.958 4.43286 4.75759 5.86581 5.19252 5.05431 4.95505 5.35146 5.1566 4.78666 5.23775 5.18468 4.89422 5.36802 5.10721 5.49512 5.05372 5.81851 4.99461 4.552 4.70002 5.12087 5.21482 4.6298 5.19255 5.31282 4.91428 5.9944 4.85186 5.09161 5.47218 5.5206 4.93001 6.0485 5.34614 5.39518 4.67857 4.99587 5.54156 6.17792 4.27045 5.35858 4.8033 5.21345 5.35449 5.13271 4.80803 5.0795 4.89128 4.62978 4.8344 5.34806 4.78736 5.30298 4.94255 5.22092 5.02704 3.6122 5.41966 4.60769 5.16272 5.38595 3.80753 5.05847 5.36888 4.55117 3.95543 5.65653 4.82531 4.36606 4.30009 5.25194 4.72339 5.02037 6.38679 5.55984 4.93792 5.03147 5.33685 5.04549 4.70081 5.34895 4.25738 5.6262 6.51581 5.12037 5.37642 5.33959 5.28895 5.53046 4.76714 6.25836 5.08754
azb-x-bible-newworld 4.57387 4.87635 4.44724 5.26871 5.3781 5.80041 4.72084 4.96561 4.42556 4.74651 5.87659 5.19984 5.05987 4.94899 5.36339 5.1588 4.78418 5.23331 5.1845 4.89021 5.37058 5.10507 5.4986 5.05524 5.83062 4.99897 4.55203 4.69543 5.1233 5.21368 4.62456 5.1955 5.31425 4.90526 6.00613 4.8458 5.09734 5.47051 5.527 4.93326 6.0602 5.3543 5.39784 4.67122 4.99393 5.55358 6.18947 4.26541 5.3595 4.80299 5.20627 5.36325 5.13173 4.81333 5.07595 4.89165 4.63063 4.82761 5.35235 4.78484 5.29842 4.94725 5.2257 5.02418 3.60064 5.42007 4.60042 5.15696 5.38886 3.79575 5.05461 5.37418 4.55132 3.93835 5.66595 4.82677 4.36146 4.2986 5.25189 4.72298 5.02568 6.39809 5.56988 4.92778 5.02824 5.33463 5.04495 4.69925 5.34885 4.24813 5.63554 6.52928 5.12477 5.37611 5.34283 5.28626 5.53257 4.76743 6.27011 5.0897
azg-x-bible 4.5153 4.84134 4.61014 5.20394 4.6872 4.42824 4.72375 4.55053 5.49057 4.14102 4.26262 4.0152 5.07298 5.59856 4.58518 4.86333 3.88257 5.29994 5.30898 4.99485 5.71164 4.53228 4.20181 5.77965 5.27146 4.53515 4.62336 4.55406 5.05374 4.70971 4.22904 5.83451 4.99332 4.11006 4.3911 4.77294 5.05474 5.29466 5.07959 4.88829 5.34839 5.96646 5.15796 5.11954 4.95124 5.09953 5.30291 4.97759 5.18127 5.9113 4.23773 4.47216 5.72832 4.7204 5.06768 5.43786 5.45004 5.4536 4.82908 4.93661 5.64714 5.48649 5.23759 4.78762 5.95701 5.62998 4.38409 5.5925 5.9254 5.11357 5.2652 4.45243 5.17408 4.64323 4.72722 4.53103 5.22803 4.9173 4.04034 5.55613 5.01189 5.52839 4.4099 5.51981 4.7004 5.38784 5.58941 4.8965 5.86501 5.26235 5.12945 5.20434 4.64606 4.94772 5.57029 4.92572 5.73619 5.03714 5.24906 4.2789
azz-x-bible 4.60135 4.62751 4.47193 5.37939 4.74378 3.94844 4.79707 4.39157 5.61085 4.15792 3.99842 3.89077 5.14146 5.73292 4.50285 4.83094 3.66308 5.41023 5.21076 4.78431 5.6861 4.50132 3.98622 5.98126 5.35471 4.60167 4.74879 4.43984 4.94003 4.5954 4.15063 5.76205 4.75169 3.78272 4.05919 4.85847 4.81768 5.39986 5.19192 4.80015 5.23905 6.23092 5.36451 5.16861 4.95164 4.85616 5.45042 4.96462 5.42865 5.95397 4.25161 4.10566 5.66701 4.65306 5.25109 5.43153 5.36893 5.61803 4.7165 4.9442 5.73277 5.84286 5.21346 4.54843 5.95297 5.65579 3.97447 5.57692 6.21904 5.09439 5.32068 4.24891 5.20948 4.79466 4.65279 4.6061 5.19319 5.08498 3.69538 5.71467 5.19396 5.6237 4.27612 5.60742 4.64202 5.14094 5.65742 5.10942 5.84106 5.27489 4.87767 5.56177 4.8134 5.04964 5.6211 4.76462 5.80582 4.99507 5.4456 4.19948
bak-x-bible 4.59284 4.86187 4.52173 5.29043 5.38139 5.75221 4.74645 4.93133 4.45159 4.80009 5.82121 5.17536 5.03262 4.98008 5.29011 5.15064 4.81059 5.24222 5.17605 4.91313 5.35218 5.12236 5.47431 5.03242 5.74777 4.97788 4.55376 4.73561 5.11236 5.2243 4.65835 5.17505 5.30569 4.95871 5.91903 4.87318 5.05386 5.47515 5.48908 4.91957 5.97367 5.30308 5.3739 4.71534 4.99639 5.48226 6.0963 4.29471 5.35511 4.80504 5.24675 5.31885 5.13252 4.78322 5.09224 4.88786 4.62671 4.86237 5.31572 4.80634 5.32021 4.9121 5.18703 5.04147 3.69649 5.41103 4.64678 5.1829 5.36917 3.89066 5.07608 5.34729 4.5586 4.06744 5.60233 4.81995 4.38898 4.33129 5.2534 4.72231 4.99834 6.29812 5.51686 4.9795 5.0649 5.34376 5.04306 4.70936 5.34178 4.29844 5.5818 6.41673 5.09824 5.39683 5.3175 5.29786 5.51161 4.76697 6.16924 5.07812
bam-x-bible 4.93568 5.12971 5.09811 5.09534 5.58767 5.63113 4.98115 4.69771 4.50639 5.35968 5.42414 5.08662 4.6004 4.95982 4.95631 5.41884 5.66015 4.92089 4.85064 5.07027 4.98184 5.48705 5.07561 4.50694 4.80023 4.96622 4.76882 5.47203 5.04763 5.49034 5.08474 4.89791 5.28033 5.68845 5.05929 5.00389 4.47047 5.31377 5.09409 4.95946 4.85445 4.70358 4.65927 5.1098 4.50206 5.10155 5.2303 4.64149 5.26215 4.79687 5.60271 5.42357 5.00886 4.61399 4.96424 4.89828 4.59533 5.30322 4.79618 5.25533 5.29938 4.28757 4.66771 5.34772 4.51081 5.17424 5.41944 5.17074 5.03209 5.00852 5.13802 4.85073 4.85588 4.91534 4.88394 4.80621 4.76564 5.3608 5.55126 4.73948 4.93208 4.86256 5.30024 5.10714 5.71307 5.30918 4.80644 4.88061 4.85426 4.69666 5.14282 5.04625 4.86738 6.10811 4.86866 5.24575 4.98654 4.7199 4.7498 4.94151
ban-x-bible 4.54201 4.73459 6.52048 4.45637 5.46766 5.12665 6.72014 5.56532 4.89817 6.37644 4.57975 5.12309 5.02007 3.96545 5.845 6.04919 4.60898 5.8315 4.79806 3.51594 4.24688 6.40363 5.37812 4.87504 4.03953 5.35356 6.50586 5.52476 3.87019 3.77008 5.21356 4.73445 5.25314 5.87598 4.91416 6.49998 4.72356 5.56211 5.24479 5.22112 3.6024 3.76696 4.05123 4.6421 5.54492 3.71009 4.28278 5.62815 4.8352 4.74905 4.93837 5.59956 5.12214 6.25252 5.57918 5.3665 4.82978 6.00194 5.85752 5.11366 5.00504 5.15794 5.05288 4.35479 3.55353 6.30833 5.32641 4.0044 3.87113 5.17785 4.07513 3.98893 5.04587 5.51657 4.1119 6.10513 4.87549 4.36787 5.3815 4.76093 5.79488 4.62928 5.81272 4.36234 5.05603 5.4453 3.81809 4.88568 4.41437 4.77941 3.18474 3.72491 6.11225 3.6818 4.44573 5.226 4.45403 4.43748 4.96183 5.78337
bao-x-bible 4.50025 4.86124 4.77776 5.25078 4.5847 4.45164 4.71238 4.65234 5.55328 4.03883 4.33192 3.87869 5.11322 5.62602 4.63102 4.88275 3.81824 5.27464 5.52152 5.02313 5.77987 4.47449 4.19118 5.92508 5.25788 4.5742 4.59173 4.44238 5.03384 4.65023 4.21002 5.95776 4.95374 4.08889 4.3488 4.86857 5.20016 5.32223 4.99602 4.85079 5.41213 6.14733 5.08279 5.10857 5.00251 5.04124 5.1255 4.99363 5.11524 6.05203 4.10113 4.23095 5.75652 4.78375 5.01806 5.41203 5.54328 5.54229 4.85594 5.00491 5.74458 5.56976 5.22904 4.87579 6.21372 5.68455 4.26339 5.68942 6.12272 4.98679 5.18766 4.26901 5.24095 4.62587 4.63399 4.44704 5.28618 4.77007 3.86635 5.47735 4.99686 5.80156 4.33375 5.58053 4.64141 5.50422 5.7733 4.79612 6.26709 5.42831 5.29288 5.2404 4.64578 4.70713 5.70433 4.96429 5.91763 5.16466 5.41967 4.25661
bar-x-bible 6.87956 4.30916 4.8593 6.19436 5.28705 5.10526 3.69301 5.21508 5.79345 4.43926 5.80922 7.04244 6.21742 3.24396 3.50062 5.55313 6.14011 4.01481 5.17376 7.52029 7.09797 6.16575 5.90268 5.6962 4.36419 6.78065 4.30847 5.48578 5.65637 4.94192 5.33465 5.54082 3.72714 4.38961 6.2857 4.03106 4.20945 6.58875 3.3642 4.89397 3.65195 4.83448 4.36644 5.46603 6.88852 5.45633 4.51604 5.35652 2.04502 4.86951 4.43282 5.7161 4.21569 3.96619 4.94614 3.4979 4.71351 4.98181 4.91306 6.1514 3.55777 4.99784 5.22674 4.81391 6.56725 3.72168 6.73918 5.97548 4.24841 7.15569 5.30525 5.68662 2.80989 5.47518 6.41235 4.45015 3.84346 5.76241 5.4693 6.09619 3.43596 6.90651 6.724 4.28978 5.5223 5.2895 5.48267 5.47802 6.18902 4.01889 5.84021 4.49433 4.64974 2.98035 5.17895 6.29446 5.85829 2.84457 3.9433 7.93508
bav-x-bible 4.81684 4.83024 5.51666 5.43489 5.54093 5.59686 5.02331 4.6144 4.52756 5.46424 5.44425 5.18948 4.79712 5.11416 4.65175 5.27668 5.53216 5.3011 4.84514 5.18598 5.03694 5.56331 5.2676 4.51958 4.67281 4.83814 4.73258 5.41054 5.02255 5.52885 5.065 4.72452 5.30707 5.84933 4.79421 5.09965 4.3381 5.52089 5.04953 4.81615 4.65339 4.46051 4.89439 5.27585 4.83284 4.76233 4.90684 4.57352 5.30525 4.63402 5.80564 5.15991 4.91014 4.4333 5.22549 4.79602 4.37304 5.17182 4.84185 5.21009 5.38086 4.23495 4.67814 5.35421 4.59965 5.24668 5.44291 5.05737 4.80592 5.05258 5.28111 5.18004 4.56474 5.2705 4.99757 4.81574 4.73131 4.89603 5.63322 4.75428 4.73411 4.89592 5.14127 5.30321 5.67668 5.47289 4.86402 4.81642 5.04747 4.77994 5.0319 4.9121 4.80553 5.80761 4.89618 5.45111 5.12252 4.66801 4.82741 5.03172
bba-x-bible 4.90464 5.08878 5.1891 5.12472 5.61631 5.63686 5.00085 4.71096 4.50004 5.40856 5.40227 5.07755 4.58232 4.97076 4.94523 5.45586 5.57371 4.95223 4.86815 5.05061 5.00825 5.5028 5.07941 4.52366 4.77295 4.91968 4.75911 5.49984 5.05266 5.50633 5.10193 4.89811 5.26775 5.71892 4.97962 5.05085 4.4307 5.34917 5.09639 4.95372 4.78307 4.71405 4.64606 5.16319 4.52272 5.07309 5.19069 4.62074 5.3047 4.77791 5.65546 5.33782 5.06219 4.56668 4.98678 4.90377 4.57282 5.37313 4.79249 5.26192 5.35589 4.26538 4.66118 5.3636 4.5253 5.22271 5.44006 5.19003 5.07138 5.00567 5.17164 4.74773 4.81038 4.97348 4.86042 4.78078 4.75536 5.32992 5.59013 4.75603 4.90158 4.92122 5.29739 5.14808 5.73384 5.36787 4.83632 4.87475 4.8738 4.70897 5.1282 5.02276 4.88232 6.11266 4.86616 5.30346 5.04198 4.65642 4.76818 4.95025
bbb-x-bible 4.8431 5.24456 5.06618 5.33751 5.57981 5.76344 4.81992 4.40854 4.75475 5.14346 5.55428 5.47124 5.17161 5.15315 4.53098 5.13433 6.15419 5.18978 4.43364 5.65278 4.94078 5.58724 5.31947 4.35057 4.69312 5.21285 4.86303 5.07572 5.02035 5.59456 4.91085 4.60453 5.45363 5.83851 5.19521 4.57398 4.16177 5.38862 4.99882 4.91279 4.80865 4.16209 4.97926 5.18645 4.76388 4.77529 4.6863 4.59181 5.13392 4.6669 5.53372 5.72006 4.39686 4.59224 5.24121 4.65344 4.16776 4.58465 4.7967 5.33181 5.0467 4.14651 4.76112 5.36252 4.66574 4.81772 5.36395 4.88765 4.65378 5.36047 5.29974 6.29787 4.70091 4.99372 5.38059 4.84521 4.88769 5.30522 5.72276 4.78268 4.67388 4.38115 4.78847 5.05366 5.6441 5.13634 4.53396 4.80052 5.0679 4.78702 5.37653 4.60902 4.41995 5.95004 4.73604 5.18221 4.74103 5.04974 4.60938 4.94915
bbc-x-bible 4.53033 4.7239 6.51179 4.48531 5.50279 5.16099 6.71082 5.55628 4.87856 6.39215 4.56869 5.13544 5.04423 3.89504 5.88216 6.08992 4.56085 5.83386 4.7803 3.53357 4.24196 6.4682 5.38879 4.87802 4.03247 5.37701 6.5407 5.57283 3.7717 3.743 5.24162 4.73741 5.23872 5.88321 4.90025 6.54642 4.74423 5.57399 5.25186 5.29688 3.5624 3.7163 3.99127 4.62328 5.54339 3.6511 4.2853 5.64514 4.82663 4.70382 4.9608 5.62328 5.13851 6.27718 5.5909 5.3767 4.8132 6.03563 5.91169 5.09507 5.00453 5.15424 5.03422 4.37308 3.53255 6.3521 5.36566 4.01808 3.85738 5.17749 4.05348 3.9699 5.052 5.52328 4.07843 6.11482 4.85596 4.3576 5.36738 4.75923 5.82314 4.63346 5.82109 4.3367 5.05375 5.46393 3.725 4.89772 4.43605 4.76695 3.1464 3.68831 6.14791 3.65749 4.39525 5.21065 4.43218 4.43564 4.94751 5.7978
bbj-x-bible 4.80004 4.79372 5.58812 5.43441 5.55751 5.57107 5.01586 4.64901 4.54904 5.52355 5.43201 5.1368 4.77386 5.11025 4.68826 5.29047 5.4704 5.30918 4.89835 5.1656 5.04996 5.55021 5.24947 4.53736 4.68044 4.82145 4.72992 5.43323 5.0256 5.5434 5.10433 4.75573 5.27065 5.83044 4.74291 5.14939 4.31899 5.53275 5.04366 4.79753 4.62227 4.50574 4.90004 5.31016 4.85803 4.7467 4.907 4.56727 5.31818 4.64282 5.82803 5.08138 4.92991 4.41405 5.24529 4.80577 4.3894 5.22668 4.82227 5.22651 5.41662 4.22751 4.67189 5.35734 4.6039 5.25858 5.44922 5.09814 4.81135 5.03307 5.29331 5.11948 4.52871 5.2908 4.97415 4.79377 4.72019 4.85259 5.64522 4.75698 4.73695 4.97242 5.13366 5.32832 5.68433 5.51574 4.89453 4.81784 5.06164 4.80268 5.02324 4.93331 4.83239 5.78768 4.92198 5.48268 5.17116 4.63051 4.85692 5.05046
bbr-x-bible 4.68085 4.73601 6.01793 5.79581 5.75413 5.79488 4.74683 4.44405 4.77124 5.72663 5.70155 5.45884 5.20185 5.29064 4.3967 5.0913 6.03205 5.59749 4.5921 5.80869 5.01687 5.72611 5.53544 4.23828 4.50051 5.01114 4.78328 5.2454 5.07532 5.95231 5.17106 4.43552 5.34742 6.19703 4.65574 4.89563 3.74186 5.7006 4.89608 4.64627 4.33758 3.92794 5.23644 5.62449 5.12288 4.32801 4.31357 4.38962 5.29178 4.37908 6.13624 5.14112 4.22511 4.15699 5.59684 4.49551 3.80994 4.68767 4.65538 5.44191 5.27782 3.82195 4.64607 5.52125 4.66591 4.83603 5.62632 4.95576 4.32476 5.34913 5.58774 6.44991 4.12376 5.56747 5.49266 4.70256 4.77223 4.67915 6.13686 4.76018 4.38332 4.65937 4.5833 5.44195 5.83252 5.57338 4.71251 4.71912 5.25653 4.94195 5.31249 4.53433 4.41546 5.81167 4.82382 5.66816 5.0867 4.76567 4.74435 5.14145
