1664 100
aai-x-bible 7.99957514e-02 -9.49465409e-02 6.54456541e-02 8.03010389e-02 -6.31515980e-02 7.67734423e-02 5.14227757e-03 -9.03314038e-04 -3.48950289e-02 9.01383683e-02 3.76726873e-02 -1.13791339e-02 7.80233592e-02 -3.71050555e-05 1.71017125e-02 2.28707623e-02 4.01393510e-02 -2.33079754e-02 4.40769754e-02 -9.71938074e-02 -9.24118832e-02 2.71122772e-02 6.29179478e-02 -6.92259595e-02 7.09768683e-02 1.06122252e-02 2.87965895e-03 9.46617275e-02 -4.79935855e-02 -9.20723900e-02 -1.67383533e-02 8.81147459e-02 8.62357616e-02 -3.50939445e-02 -6.31889841e-03 7.08529055e-02 6.40244633e-02 -2.89173052e-02 5.63772023e-03 -7.12504685e-02 -4.45469543e-02 -8.38845745e-02 -9.00567472e-02 8.77353102e-02 -1.03457034e-01 1.01137392e-01 -5.56929037e-02 4.30791341e-02 -6.89403061e-03 -4.93887849e-02 1.13847097e-02 4.94379438e-02 2.49916632e-02 6.68754205e-02 -4.08418812e-02 -8.16867687e-03 1.36219319e-02 -9.48668048e-02 4.97660860e-02 8.05692300e-02 -5.02496511e-02 -8.43470395e-02 -6.05688468e-02 1.99725833e-02 4.88617904e-02 -5.55200614e-02 -2.30588242e-02 -6.96250498e-02 8.49625021e-02 -2.82215197e-02 -2.24541444e-02 1.98777905e-03 -1.37889935e-02 8.17551762e-02 3.01702619e-02 -3.18602845e-02 -4.00449820e-02 3.29613872e-02 7.46336207e-02 4.81266603e-02 8.20353776e-02 2.91519575e-02 8.96686167e-02 -6.59339055e-02 -8.90185162e-02 7.06979185e-02 4.85384725e-02 2.16644350e-02 -6.61249533e-02 -3.36108916e-02 2.02240646e-02 8.27918127e-02 -3.70392501e-02 3.64900716e-02 7.47135282e-02 -2.20851228e-02 5.75225195e-03 -9.15958956e-02 -7.29430020e-02 -6.92369491e-02
aak-x-bible 0.03653977 0.0161947 0.0211759 -0.00894363 0.04075408 -0.00012546 0.00928443 0.07559271 -0.04956779 -0.03181355 -0.06297673 -0.01557681 0.0358 0.07264083 -0.08870394 0.06322828 -0.08268232 0.00525934 -0.03117303 0.02530213 -0.05170573 0.09346444 -0.07158712 0.0003195 -0.03599828 -0.00078526 -0.05774595 -0.00544968 -0.01734601 -0.04206049 -0.05579597 0.04893567 0.03242771 0.03388931 -0.00473192 -0.00142794 -0.05318226 0.0254375 0.08295459 0.00490168 -0.00177571 -0.09680641 0.02086437 -0.02481519 -0.08011328 0.07774094 0.05988936 0.03167554 -0.05821973 0.06562573 0.07905696 -0.0991228 0.01904053 0.02373425 0.01045683 -0.00757901 0.0498788 -0.00053582 0.04700401 0.08444847 -0.03563677 -0.08641891 -0.03546122 -0.09164216 0.07868405 0.09528548 0.01236661 0.08610383 0.04819497 0.03896445 -0.05747913 0.01229439 0.07336038 0.05044366 -0.00411369 -0.01686513 -0.09732869 0.08688008 0.05835889 -0.03607175 -0.00349029 -0.02005492 -0.07483551 0.07984015 0.06292718 -0.01878889 -0.02986518 -0.03353515 -0.07567654 0.09285519 -0.02471447 -0.08237608 0.06314322 0.06872608 0.04041936 0.06016265 -0.06771766 0.10003122 0.05420687 0.01885189
aau-x-bible 3.1257011e-02 6.2634788e-02 7.5997211e-02 -5.8240339e-02 4.9269393e-02 1.1006215e-02 -7.0958205e-02 -9.4041280e-02 -4.8093628e-02 2.4327252e-03 6.6787191e-02 9.2610665e-02 8.0794507e-06 -6.5706298e-02 1.0120151e-01 -6.6550091e-02 1.0039930e-02 -4.2515449e-02 4.7862213e-02 -6.7522697e-02 -6.0818128e-02 9.9110730e-02 -1.5882192e-02 2.6939088e-02 -1.9290863e-02 4.9301933e-02 3.8167037e-02 -8.9245653e-03 -3.5291955e-02 9.1669403e-02 -2.3000333e-03 -4.6445299e-02 1.3931946e-02 6.1751429e-02 3.8298737e-02 4.6897758e-02 1.0147011e-01 4.4831593e-02 5.5968449e-03 -4.6331227e-02 -3.7734121e-02 -9.6536703e-02 -3.4140941e-02 -5.2929539e-02 1.9105487e-02 -6.5323785e-02 1.8143028e-02 -1.0110913e-01 -3.4106158e-02 9.2587024e-02 3.2013532e-02 5.5427290e-02 -2.3258409e-02 -5.2937880e-02 6.1201010e-02 5.5767003e-02 -8.5681677e-02 -7.3235355e-02 -8.9907132e-02 -4.8984747e-02 3.1259852e-03 -5.7906557e-02 9.2963673e-02 6.8525977e-02 5.2591418e-03 -5.3836789e-02 -7.4039176e-02 5.6077372e-02 8.8362820e-02 -4.4512231e-02 8.6877041e-02 -5.2672610e-02 7.1414299e-02 -9.5093943e-02 2.6945382e-02 -1.0888059e-04 6.3458286e-02 8.9399926e-02 -1.4611455e-02 6.8913631e-02 -7.8796800e-03 4.7888793e-02 -1.3733948e-02 -2.4844334e-02 -1.4034132e-02 5.1188588e-02 8.6089246e-02 3.8185090e-02 -8.1909329e-02 -4.4046454e-02 -9.9182099e-02 -7.9878405e-02 -8.0008030e-02 -1.2019314e-02 5.9554245e-02 -3.0896482e-03 4.8798364e-02 4.4939250e-02 -5.6805506e-02 -2.8053611e-03
aaz-x-bible 0.09762742 0.07964045 0.02536729 -0.03728313 -0.01485668 0.09528025 -0.01582499 -0.07231737 0.09236897 -0.09127791 0.05439899 -0.06083733 -0.09219106 0.00534295 -0.04267622 -0.04105544 0.00370397 -0.03888023 -0.06020954 0.06459073 -0.0012358 -0.0054847 0.08853852 0.09692754 0.06163222 0.06576259 0.04357687 0.08515738 0.01310108 0.02648158 0.06294347 -0.03411375 0.00386113 -0.05636849 -0.05232146 -0.0865366 -0.00036717 0.01706105 -0.09332763 0.07702204 -0.05413687 0.06104427 0.06189096 0.02496242 -0.04220145 0.09949175 -0.00271607 -0.05568314 -0.03367416 -0.05485016 0.01159579 -0.01260429 -0.03948292 0.00959497 -0.02566762 -0.01747986 -0.0624868 0.03941815 -0.03252363 0.08964354 -0.03161854 -0.03501131 0.03873245 0.01918933 -0.09476893 -0.06889793 0.09560548 -0.03204333 -0.01901769 0.08491317 0.04802918 0.04050358 0.0517742 -0.00863111 0.00474151 0.02124155 -0.00016777 -0.05115822 -0.0649663 0.05521874 0.01273676 -0.02396095 0.06902456 -0.08068834 0.10266212 -0.0504287 0.09716265 0.03880261 0.09057454 0.01308568 -0.0838163 -0.05425438 0.01884248 -0.05805051 0.06499285 -0.01153451 0.06207703 0.07531017 -0.02019555 0.08376174
abt-x-bible-maprik 0.00041941 0.0115749 0.04188489 -0.0876381 -0.03566819 0.02190124 -0.02429509 0.02542095 -0.04154205 0.07844757 0.05719931 -0.04390723 0.04264636 0.0130218 -0.0709271 0.06941507 0.08587827 -0.08582481 -0.04187369 0.06999473 -0.05969372 0.06775224 0.08544259 -0.02565285 0.08110006 -0.01894492 -0.05757519 -0.04183672 -0.00280238 0.05316301 0.08957314 0.05839775 -0.05454127 -0.02357858 0.08677233 -0.03284488 -0.05285449 0.0696397 0.02254289 -0.02171518 -0.0603715 0.04030586 0.02000491 -0.05121664 -0.07878486 0.0163687 -0.02684133 -0.01929301 -0.07033897 -0.0085822 0.02333219 -0.04897081 0.03591701 0.0925105 -0.0105194 0.04418674 0.00124606 0.08143239 -0.04930086 0.06593194 -0.02085469 -0.05495068 0.08332998 0.01031943 -0.07261558 -0.03792337 -0.01244652 -0.03325702 -0.09001754 0.01862437 0.03837764 0.07427908 0.08669013 -0.01662164 -0.10321604 0.01592059 0.03542104 -0.06628512 0.04940685 0.01205753 0.07879672 0.03425783 -0.07660194 -0.06073398 0.08411481 -0.0901535 -0.03666455 -0.01512039 -0.00082216 0.0267433 0.0179217 0.00829613 0.02894805 -0.02314219 0.0966087 0.05961609 -0.04730326 0.05566948 -0.00391284 0.02118182
abt-x-bible-wosera 0.02472517 -0.0417235 0.01431227 0.05884724 -0.02005001 0.01067208 -0.03793577 -0.12377318 0.00150171 0.01141515 0.04663451 -0.03939263 0.08468932 -0.08888216 0.1268613 0.06656426 -0.03620072 -0.05570612 -0.08157508 0.10003744 0.05555867 0.07273109 0.03393088 0.10176676 -0.02736862 0.06830569 0.05317713 -0.03262366 -0.04522707 0.05776007 -0.06670841 0.0264308 0.05743059 -0.07763793 0.07985429 0.00692821 -0.03141218 0.04084028 -0.01740249 -0.07752069 -0.08020917 -0.00789539 0.00900234 0.00798689 0.04225805 0.02463063 -0.00800745 0.01042356 0.01344645 -0.05899345 0.10108306 -0.01831158 -0.06919836 -0.03548557 -0.03958721 0.03890839 0.10401195 -0.00379934 0.04837802 -0.09542838 0.03512583 0.05709277 0.03941046 0.10437503 -0.1109997 0.01183595 -0.08366809 0.1099748 0.08260805 0.00180835 0.08029071 -0.06433479 0.04327518 -0.04297087 0.04858352 0.05650512 0.09309158 0.0347467 -0.04655945 -0.10027764 -0.06386881 -0.00174608 -0.02437373 -0.0124597 0.08877189 0.02770705 0.01957072 0.07570376 -0.01801758 -0.09411471 0.05569398 -0.0565432 -0.05920481 0.04831297 0.05608319 0.02507949 0.02020641 -0.05333566 0.07210563 -0.06550803
abx-x-bible 0.05043717 -0.06764568 0.06906622 0.06233591 0.08663734 0.06820943 -0.06171596 -0.07459011 -0.01919535 -0.07959482 -0.03082671 -0.07394955 0.02310905 0.0614343 -0.07203671 0.05383117 0.04760794 -0.02335323 -0.03473994 0.02597131 -0.03725066 0.03092924 0.07295445 -0.08161327 -0.06265312 -0.06158539 0.04145469 -0.02442736 -0.05166756 -0.07847244 0.04425641 -0.00018394 -0.05022865 -0.02078107 -0.01901564 -0.03155066 -0.07153214 -0.09348249 -0.05199668 -0.00166282 -0.0831235 -0.02466556 0.04134893 0.01334431 -0.0183058 -0.0714179 -0.03389167 0.05860185 0.00289919 0.09516165 -0.09538043 -0.04772265 0.04547508 0.08557684 -0.03395832 0.07453215 -0.03921587 -0.08275133 0.08527737 -0.00166087 -0.01435184 0.07625851 -0.03778135 -0.09850347 0.07580514 -0.0930405 -0.0334305 -0.03500642 -0.01050827 0.07424058 -0.04866155 -0.0771693 0.08195694 0.06713536 0.08931607 -0.06649271 -0.06153002 0.0246504 0.04608066 0.02946805 -0.1000563 0.01257226 -0.09797707 0.0281396 -0.06929193 -0.05935074 -0.03037396 0.0273766 -0.04838907 -0.0294436 0.00601661 0.00526873 -0.10006685 0.07323663 -0.00715347 -0.02326552 -0.03830545 -0.01806026 -0.01713821 -0.00937667
aby-x-bible 0.03610617 0.09587447 -0.04734117 -0.09835455 0.00963955 -0.01352932 0.01559353 0.07217331 -0.03911792 0.02733965 -0.09007794 0.05786217 0.03894806 -0.02608584 -0.08885736 -0.08257895 -0.02883291 0.05497151 0.03289125 0.0080379 -0.08647189 0.04086522 -0.07686267 -0.09777245 0.05297124 -0.06481826 0.04390807 0.05525391 0.08936285 0.01106194 0.09627953 0.04173872 -0.02590821 0.04754759 -0.0960737 0.08649167 0.09954017 -0.0637545 0.04479443 0.02548276 -0.09767634 0.06721572 0.02127901 0.02686885 0.06540935 -0.08029737 -0.00484615 0.02150355 -0.00577024 -0.00229635 0.07767712 -0.04253682 -0.03085306 -0.0364958 -0.06267929 -0.0416198 -0.00773528 0.06251201 0.04208937 -0.02794398 -0.03887188 -0.04810431 -0.07857659 0.07203086 -0.00350292 0.05500283 0.07990472 0.08096794 -0.0718845 -0.09854589 0.0820452 -0.0975903 0.03634864 -0.06843282 0.04840201 0.02199488 0.01999379 -0.06563796 -0.08859356 0.01305014 -0.04984215 0.06420591 -0.06233543 0.02309584 0.09175892 0.04367998 0.09013271 -0.08617711 -0.09253259 -0.05527217 0.09817782 -0.02147782 0.01867765 0.01459372 0.06100315 0.04567344 0.10008782 0.02789293 -0.09685765 0.02514011
acc-x-bible-cubulcu 8.0988787e-02 8.6906277e-02 -1.1324801e-02 4.8735045e-02 1.3777112e-02 1.1563071e-01 1.1692200e-01 -6.4051956e-02 1.1966069e-02 5.4050937e-02 3.6900074e-05 -1.5071447e-02 -7.8091405e-02 -9.1472261e-02 1.2710160e-01 5.2123189e-02 -6.2065680e-02 2.0532485e-02 -2.6221842e-02 -6.3223124e-02 4.6356104e-02 9.0520859e-02 5.4231443e-02 9.6911667e-03 9.0621021e-03 -5.9197936e-02 2.2511669e-02 -3.0559508e-02 2.1745931e-02 5.7286970e-02 -2.0436613e-02 -4.1229181e-02 5.7694092e-02 1.2250158e-02 -1.0336039e-01 -5.4309215e-02 -8.9297015e-03 3.8898084e-02 -3.1413469e-03 5.3324543e-02 7.9831925e-06 6.2772349e-02 9.0373471e-02 1.0616813e-02 1.6961388e-02 5.0578121e-02 1.5991222e-02 -1.0315445e-03 5.3636674e-02 9.5668800e-02 -2.4016756e-03 4.5701820e-02 -3.3087425e-02 3.0944072e-02 -6.8997398e-02 -4.4187207e-02 9.6795686e-02 7.6902141e-03 1.6547659e-02 -2.5585147e-02 6.5877482e-02 -1.7369656e-02 -2.0121120e-02 5.9039619e-02 -9.3121193e-02 7.1505554e-02 6.8322043e-03 4.3543231e-02 -6.6417649e-02 -6.7464255e-02 -1.6499207e-03 -5.7495505e-02 5.4850217e-02 2.9802153e-02 -2.5341868e-02 2.1368708e-02 4.9243877e-03 -7.9897404e-02 -3.7138321e-02 1.9514831e-02 -9.4442189e-02 1.0143733e-01 -5.1221572e-02 2.1268006e-02 -3.0794876e-02 -6.8291254e-02 -9.6371874e-02 7.1898550e-02 6.0097077e-03 -9.5609806e-02 7.4974768e-02 7.6509938e-02 -5.4885119e-02 -5.4932710e-02 8.0543377e-02 -4.6447728e-02 2.6493773e-02 -8.9675471e-02 2.1120781e-02 -9.4282210e-02
acd-x-bible 0.0713386 0.05335278 -0.08753552 0.05063932 -0.07738917 0.0944066 0.01158573 0.02899292 -0.04025409 -0.0210106 -0.05450436 -0.00152939 0.06800669 0.0351897 -0.0013761 0.06005113 0.06762563 0.07834199 -0.07863314 0.00150085 0.09605095 -0.05275794 -0.02388703 0.07111048 -0.11087061 -0.02715918 0.03296413 -0.02689225 -0.00415145 0.00851789 -0.05449026 0.07715511 0.07290502 -0.02951822 0.06425993 0.1045277 -0.06359029 -0.08358826 -0.05392392 0.0630157 0.07232048 -0.08287559 0.04563602 -0.010878 0.05616973 -0.00348389 -0.00306708 0.06802946 0.03125118 0.05553076 0.01907905 -0.02789526 -0.01467395 0.01907652 -0.0413992 0.00162804 0.0399097 -0.00333177 0.02023212 -0.02881772 0.00322144 -0.05639447 0.02826116 0.02969964 0.06981332 -0.03777133 -0.04511108 -0.01407624 0.03417169 0.0442812 -0.0521903 0.07986693 0.05226565 0.02499065 0.07987928 -0.04722418 -0.0159316 0.04300822 0.03751728 -0.08740626 -0.05860899 0.02292334 -0.00668507 -0.09324868 -0.00166845 -0.00782706 0.08026154 0.04112342 -0.06203881 0.03546355 -0.06180405 0.02613486 0.05461226 0.06244914 -0.07600479 -0.07247446 -0.06311989 0.04356119 0.10719695 -0.09847943
ace-x-bible 0.03054779 -0.03225276 -0.03954755 0.01919251 -0.02887478 -0.07355008 0.00423564 0.05035308 0.05786921 -0.02006298 -0.0648839 0.0228468 -0.0696288 0.00644244 -0.04311978 0.0283735 0.06952976 0.00330686 -0.0794328 -0.07332229 -0.06704485 0.05163712 0.06347913 0.02233966 -0.0828293 0.0569002 0.07959311 -0.01821276 -0.1273022 -0.01655808 0.06682187 -0.03531001 -0.07950452 -0.08383089 -0.03981091 -0.06225421 0.11548287 0.08188015 0.08266619 0.03224989 -0.09268604 -0.07018809 -0.01000542 0.02970584 -0.10841985 0.07719121 0.01728824 -0.0584348 -0.0191317 -0.05242625 -0.02238001 0.02836074 0.03363717 0.03544101 0.03444831 -0.05908389 -0.05422712 0.03259379 -0.0629795 0.04044944 0.00945589 -0.02090838 -0.07833724 0.01009454 -0.10151859 0.10469453 0.04765067 0.13193871 -0.08308616 0.01687639 0.04235226 0.05195856 0.07690079 0.07182894 -0.11052927 -0.06514466 -0.02163319 -0.0838635 -0.08336068 -0.00928911 -0.02513539 -0.03733026 0.09067186 -0.07843955 -0.06788002 0.05908785 0.0864517 0.04587151 0.04681446 -0.05851915 0.05854274 0.03105424 0.05296102 -0.03846625 -0.04140207 -0.08626284 0.00794846 0.08488606 -0.0046559 -0.04695008
acf-x-bible 0.08672141 -0.08276013 -0.09074755 -0.07484339 -0.08500573 -0.05592142 0.05495599 0.0718759 0.06750004 -0.08075646 0.04916061 -0.01644677 0.02358771 -0.0194159 -0.00692532 0.02540384 -0.04721164 -0.06720204 -0.02200759 -0.01646425 -0.00097191 -0.10314439 -0.09318519 0.02283869 -0.01853705 -0.01504808 0.00925201 -0.00737654 0.0850253 0.08388014 0.0312397 0.1006899 0.03671319 -0.09141485 0.04362948 -0.05032383 -0.04001378 0.01823469 -0.0995515 -0.02567995 -0.03126079 -0.05213327 0.06366421 -0.04764734 0.02713479 -0.00073118 -0.03745004 0.02411437 -0.0338764 -0.05796188 -0.05769401 -0.09384964 -0.03854834 -0.04153747 0.08499531 -0.05497157 -0.06569214 0.1046472 0.04971223 0.07794265 -0.03766152 0.01127301 -0.05910669 0.00496348 0.02741191 0.04710847 -0.00210094 0.02821302 -0.01438519 0.08117753 0.04565608 0.07338703 -0.06254708 -0.01645168 0.08884865 -0.03663606 -0.0609787 0.03271497 0.0876658 0.00523667 0.09556461 -0.08328617 -0.06941006 0.08271978 0.08412978 0.02923591 0.1033392 0.11551954 -0.0524168 -0.07825116 -0.09465034 -0.06269792 -0.04213183 -0.01503738 -0.00404854 -0.04373146 -0.02165286 -0.06743428 -0.10897625 -0.08402652
ach-x-bible 0.05840478 0.09771676 0.03529213 0.04016648 -0.10806891 -0.03411615 0.04799815 0.09117448 0.01707084 -0.001562 -0.00652039 0.08558284 -0.05244425 0.02968186 -0.06966538 -0.06949594 -0.01811904 0.06413063 0.05063552 0.03787785 0.08986087 0.05544903 0.03781528 0.06155876 0.11804598 -0.00148361 0.05466067 -0.07726305 -0.01138143 -0.08081275 0.04545837 0.00187398 -0.03503503 -0.09265222 -0.00019544 0.04789957 -0.11647836 -0.04554655 0.04023973 -0.00978967 -0.02549761 -0.03138466 -0.00458997 0.0169461 0.03398485 -0.10836352 0.00736903 0.0589115 -0.05220922 0.01733623 0.05903978 -0.06349926 0.08639628 0.02630945 0.01994309 -0.03483219 0.06924237 0.03293243 -0.08286725 0.02533355 0.01814502 0.09355178 -0.02238451 0.0074824 -0.02638417 -0.03180701 0.02187604 -0.01645033 -0.07727233 0.09105688 -0.03101913 0.01304689 -0.07214513 0.08639436 -0.08454527 0.08545713 0.08797509 -0.02304146 0.0545454 0.00728746 -0.00101899 -0.10218877 0.02677213 -0.06890751 0.00731309 0.07118241 -0.06044257 0.05671019 0.09486449 0.03455727 -0.07185984 0.0977358 -0.0717538 0.00873427 0.00989691 -0.00385861 -0.00871499 0.07653538 -0.03097046 0.04668792
acn-x-bible 9.10762921e-02 8.43864754e-02 1.78936403e-02 3.62119302e-02 -6.08466528e-02 -2.74535716e-02 7.24978894e-02 -5.18993102e-02 2.56307703e-02 4.21491005e-02 1.15216337e-01 -2.03338615e-03 6.71528652e-02 4.95627262e-02 2.65888427e-03 1.16558440e-01 4.91875857e-02 -7.06360564e-02 3.42423841e-03 -2.55006216e-02 -2.64634109e-05 8.05420130e-02 8.13011602e-02 -2.36194171e-02 -3.57173122e-02 -3.16554345e-02 -2.61691902e-02 2.40993034e-02 -1.31553179e-02 8.64646360e-02 -2.93165427e-02 9.48179364e-02 9.50528160e-02 -8.54237080e-02 -1.02168500e-01 9.56497639e-02 4.00203578e-02 -6.63586333e-02 1.90549158e-02 2.14409642e-02 2.75038537e-02 -2.75532752e-02 6.80541396e-02 1.07605986e-01 -7.61967106e-03 5.14127016e-02 -2.88817715e-02 -8.16067457e-02 2.40869857e-02 9.03804880e-03 -8.44903365e-02 5.07774092e-02 1.14541344e-01 4.97244485e-02 5.32760881e-02 5.78250922e-02 1.87042803e-02 1.21086382e-03 9.86822993e-02 -1.11641109e-01 9.34000462e-02 -9.00343060e-02 -4.16776314e-02 -7.70200565e-02 4.76647243e-02 1.95965879e-02 1.11311056e-01 1.02488168e-01 -8.01366568e-02 -7.91386515e-02 -6.85569197e-02 2.98008695e-02 5.12329303e-02 -5.16452566e-02 -4.54402119e-02 1.34702073e-02 1.59866512e-02 -6.29959628e-02 9.04399976e-02 -8.47921222e-02 -9.34480131e-02 -8.07330161e-02 -9.94374454e-02 6.43386245e-02 -4.73295106e-03 -7.74864629e-02 -6.50225952e-02 -9.87077430e-02 -7.26432279e-02 7.41943419e-02 1.41442316e-02 1.43251978e-02 -5.33181690e-02 3.15422309e-03 1.17521890e-01 -6.08445108e-02 -7.37304166e-02 -8.87940377e-02 -4.39445674e-02 -1.76162552e-02
acr-x-bible-reformed 0.00474288 -0.03108273 -0.01554584 0.073532 -0.03104435 -0.0018479 0.10039385 -0.10365238 -0.07942592 0.0250201 0.01181799 -0.04554144 0.08125447 -0.08082572 0.12839998 -0.02439868 0.01222966 -0.03111842 0.00382055 -0.07525094 0.03423063 0.0736765 0.07861434 -0.07174052 0.01729873 0.07680593 -0.00171648 0.0316577 -0.04472065 -0.07661533 0.03146609 -0.06731646 0.01809134 -0.06817976 -0.00823508 -0.03777032 -0.05968643 -0.04666077 -0.03011319 0.06325636 -0.08533575 0.06860511 0.01572112 -0.00577434 -0.13587247 -0.06298244 -0.09900257 0.03970101 -0.02755229 -0.04701836 0.06646521 0.09199056 -0.03169322 0.01788464 0.09760026 0.04698556 0.07082608 0.04153789 -0.0609966 -0.04078331 0.05544262 -0.05294488 0.00430568 0.02845031 0.01053083 0.05423086 0.06420412 0.01046368 -0.00156711 -0.04283585 0.03972796 -0.04493937 -0.06626848 -0.06026986 -0.06428847 -0.09170952 -0.02206898 -0.09877735 0.02315038 0.01306651 0.02000221 0.06657078 0.03842743 -0.03533189 -0.02420886 0.03038605 -0.0606931 0.05590541 -0.02445765 0.00404506 -0.01440792 0.00978065 0.1027811 0.08505519 0.05566165 -0.05732739 0.03847454 0.00787966 0.0720233 0.05534383
acr-x-bible-traditional 0.01807228 -0.0126163 -0.02275649 0.09871408 0.05946426 0.06121397 -0.07240597 -0.05941618 -0.09366037 -0.05340412 0.07819235 0.06665069 0.04368821 -0.06583627 0.02137033 0.0778503 0.06229758 -0.04417648 -0.06832033 0.03654823 0.06918797 0.01137241 -0.0725026 0.04933916 -0.09661317 0.00926025 -0.08514848 0.00190212 -0.05920829 0.10313856 -0.00206868 0.09179888 -0.01490658 -0.02081204 0.00340635 0.03760669 -0.05227764 -0.03965647 0.10899032 0.00671264 0.01696222 -0.08946461 -0.01397213 0.09094217 -0.01000993 -0.00413019 0.04132461 0.08270796 0.08204584 -0.07328401 0.04753857 0.04731055 0.06539097 0.09156474 0.04767752 -0.04370242 0.0281515 -0.0415777 -0.06248201 -0.09513472 -0.0937713 0.03255765 0.0827482 -0.05948639 0.04710479 0.06144859 -0.00165154 0.01243687 0.02656475 0.01785233 0.04814087 -0.04360823 0.08306389 -0.01802239 -0.01219426 -0.04649855 0.0557451 0.05398074 -0.06277862 0.08409622 -0.0098464 0.02542449 0.08207785 -0.09473678 0.01726699 -0.08237687 -0.07732543 0.0772726 -0.01512069 0.08777294 0.02599968 0.07834468 -0.05202554 -0.02860015 0.03504817 0.06495503 -0.06699235 -0.01294029 0.05779478 0.09237469
acu-x-bible 0.07326254 -0.04576926 -0.11467632 -0.01332256 -0.02315444 0.09903407 0.11298187 -0.06148497 -0.07216809 -0.09468048 0.0737673 -0.08837612 -0.02704438 -0.05997282 0.0359799 -0.04636921 -0.07790535 0.07387183 -0.01769572 0.02257029 0.07254433 0.00713955 -0.0710434 0.0981086 -0.13111845 0.00407773 0.0045946 -0.04212552 -0.0430177 0.10295343 0.05372756 -0.06054807 0.10147163 -0.09028915 0.0235534 0.04967964 -0.03922043 -0.05701936 -0.05378078 -0.02609718 0.03971019 0.04962007 -0.00791103 -0.05260681 -0.07313278 -0.05287214 -0.08410104 0.07055914 0.07055172 0.03653822 -0.06053802 0.04062039 0.05476591 -0.04021312 -0.04774915 0.03246639 0.11513518 -0.05199483 0.00511342 -0.07008053 -0.05748415 0.03908993 -0.0562321 -0.05568988 -0.09870595 0.07597587 -0.06273806 0.08944787 0.06569289 0.00527174 -0.10338353 -0.09380167 -0.05153814 0.00139381 -0.03552017 -0.08995303 -0.09904027 0.07522017 0.08555744 0.06228134 0.03923266 0.10184342 0.00014529 -0.03880211 -0.0578445 -0.09615049 0.02704138 0.04845995 0.0428302 -0.08883452 0.01955306 0.05381258 0.02544897 -0.00271424 -0.03987641 0.00259502 0.10254166 -0.03163316 0.0641799 -0.03605481
ade-x-bible 0.07592205 0.01435184 -0.0198932 0.01158875 -0.05528809 0.00752186 0.01018629 -0.00838681 0.01683097 -0.05593821 -0.0165062 -0.02675823 0.03057379 0.05773451 0.04341181 0.10906399 -0.03369744 0.06944466 -0.08129377 0.06323014 -0.04941289 -0.01960791 -0.07311976 0.09420507 0.00759921 -0.01860937 -0.02165435 -0.0637069 -0.02286202 0.04497242 0.12949985 -0.02759168 -0.08314093 0.08601986 0.07149687 -0.01893975 -0.0499184 -0.08968145 -0.0286871 0.08268521 -0.02632324 -0.03158749 0.02040747 0.00902888 -0.02128713 -0.04608447 0.02814501 0.05051651 -0.00351417 0.00184259 -0.03962918 0.06446698 0.09937778 0.06836974 -0.03721205 -0.05110606 0.01361835 0.02132193 -0.08418854 -0.08876579 0.05779763 -0.09768482 -0.05959347 -0.05752787 -0.00780909 -0.01196916 0.11268558 0.07389835 0.00399109 0.07606545 -0.02299622 -0.01906597 -0.02620551 -0.04976837 0.014464 -0.08736379 -0.07388966 -0.01824458 -0.05383777 -0.01769488 0.08337217 -0.08319239 -0.01644928 0.04638281 -0.08359648 0.06299541 -0.04298937 0.01060506 -0.01306568 -0.03176458 0.08950779 -0.06234537 0.03246924 -0.06066421 0.03784612 0.00378722 -0.03117918 -0.05239472 -0.02193371 0.00039897
adh-x-bible 5.3735513e-02 5.8183830e-02 5.9665274e-02 -5.8630321e-02 -3.0333752e-02 -8.5887350e-02 -4.1585445e-02 3.5312757e-02 9.1909086e-03 7.0145898e-02 5.7741400e-02 -1.5046580e-02 8.0024026e-02 -8.1219293e-02 -6.8691172e-02 -8.3974190e-02 -4.9863085e-02 1.5502052e-02 2.0689610e-02 -9.5551014e-02 1.1065754e-02 -7.0069320e-02 7.4142717e-02 -1.0256554e-01 6.4535774e-02 -1.0381724e-01 2.3516510e-02 -6.9023319e-02 1.0689114e-01 6.6420436e-02 5.7535721e-03 -4.4164326e-02 -2.7042447e-02 9.9952564e-02 -2.0371646e-02 -6.1133228e-02 -1.0766501e-01 2.2887407e-02 4.9846701e-02 -6.6214383e-02 9.8862372e-02 8.4824435e-02 -6.4596556e-02 1.9667504e-02 -3.8291123e-02 3.7327182e-02 6.1541986e-02 3.0360261e-02 7.9967886e-02 -4.9284045e-02 -7.3112257e-02 2.0906888e-02 8.9969337e-02 -7.9998657e-02 -6.1376728e-02 7.7993013e-02 -3.3188868e-02 6.2197797e-02 -5.0813913e-02 -8.9846551e-02 3.3559393e-02 6.4416297e-02 3.4394685e-02 -8.8105723e-02 2.1372709e-02 -2.9483235e-02 -2.3507345e-02 -4.0449444e-02 1.0091505e-01 -6.3308485e-02 -9.0367362e-02 6.8220310e-02 2.8938062e-02 5.7960320e-02 -2.7407983e-02 1.9792281e-04 -4.8833713e-02 -2.4992475e-02 9.8597459e-02 -4.5182835e-03 -1.2047460e-02 4.7642980e-02 5.6358922e-02 3.6787316e-02 7.8198388e-02 7.7803470e-02 1.3441517e-05 -5.9099730e-02 -8.8772923e-02 -1.8670491e-04 6.6049829e-02 1.9701336e-02 -1.0328463e-01 7.9060629e-02 -3.3993445e-02 7.1725622e-02 5.6617968e-02 -5.2642975e-02 5.9656702e-02 9.3607061e-02
adi-x-bible 0.04067443 0.04242354 0.06345185 -0.00594604 -0.0761305 0.04054056 -0.05180071 0.00562546 -0.05679723 -0.03059375 -0.06843388 0.0496343 -0.02307723 0.02375306 0.070259 0.0656348 0.07667666 0.02237349 0.06286563 0.0191802 0.04618192 -0.08809037 0.03869964 -0.02935797 0.06854333 0.06600522 0.00423748 -0.10301719 0.05227012 0.0317549 -0.02468065 0.0729883 0.02379116 0.04002061 0.08837663 0.04639112 -0.06565947 0.06455755 0.08294547 -0.02116654 0.03219416 -0.0179414 -0.08882535 -0.03791414 0.08665581 0.0560396 -0.024212 0.00634088 -0.09166864 -0.08542093 -0.05490752 0.06711183 -0.02719294 -0.04411313 0.04389051 0.08628537 -0.0138815 -0.01146842 -0.01484517 -0.02089651 0.04827125 -0.03873895 0.09331343 0.04777826 0.00685537 -0.01033882 0.06256662 0.04723405 0.09710005 0.04314749 0.06158077 -0.01066323 0.03003436 0.09301386 0.08870495 -0.04240865 -0.01523971 0.05828614 -0.06035228 -0.06028499 0.07890913 0.03721064 -0.0298737 0.00754108 -0.07692187 0.0758828 0.07109942 -0.04946755 -0.06312513 -0.06832272 -0.08222726 0.03827982 0.04652127 0.01975029 0.08111594 0.02742003 -0.04042629 0.09275161 -0.10851957 -0.03201459
adj-x-bible 0.02956817 -0.00355474 0.03144541 -0.02691439 -0.04769035 -0.0829623 -0.00079504 0.05494323 -0.01134 0.03639235 0.05868104 0.04811906 0.02028728 -0.08778663 0.04054739 0.02250874 -0.02936196 0.04885425 -0.02317027 0.07851534 0.04241285 -0.01222347 -0.03997634 0.08221661 -0.09887934 0.05144462 0.02020589 -0.04417154 0.0205505 -0.01517288 0.06773759 0.01406451 0.04831361 0.09677055 -0.04633476 0.07299046 0.06387052 0.0627161 0.07499113 -0.06728663 0.05417663 -0.06413376 0.05036452 0.06839733 0.01474458 0.05423844 0.03151769 -0.09480123 -0.05402666 -0.05261935 0.0005133 0.01915058 0.05586582 -0.03511371 0.08421824 0.02144315 0.09563941 0.08643058 -0.005656 -0.0365256 0.08677231 -0.03755102 -0.08530461 -0.04456991 -0.08254453 -0.02455289 0.01629001 -0.07071425 -0.07963987 -0.03614473 -0.02842928 0.02364143 0.02679814 0.08522941 -0.04344295 -0.04222603 -0.0367654 -0.09262172 -0.10272563 0.08770172 0.00951497 -0.07166321 -0.10040365 0.02590041 -0.04427208 -0.02358548 -0.01609367 -0.08072329 0.01230243 -0.02633197 -0.07921194 0.02746551 -0.0851118 -0.07621445 0.01794099 -0.06667144 0.07840794 0.04901197 0.08260622 -0.02420632
adl-x-bible 0.04412896 -0.00096938 0.09094599 0.07535984 0.09771822 -0.01635201 0.02774589 -0.02750388 -0.05801582 0.00234753 -0.00037829 0.04530692 -0.08241024 0.07022841 -0.06245366 -0.05126179 0.05144073 0.04249735 0.0066534 0.04877568 -0.03712431 -0.0500347 0.01709575 -0.06414159 -0.0353147 0.07116968 0.02619623 -0.06749505 0.00814712 0.02760091 -0.00462779 0.0125912 -0.04320786 -0.06409324 0.09514739 0.02432426 0.03689632 -0.0442327 -0.04246824 0.04115394 0.07668137 -0.07012003 -0.05058309 -0.04951021 -0.02422194 -0.07505179 -0.01810396 -0.00432632 -0.02413593 -0.00702092 -0.00925555 0.07773432 0.02422811 0.03739862 0.06196605 0.02455913 0.08023171 0.07604568 -0.05235111 0.10441002 0.0188402 0.0753898 0.09143795 -0.03008539 0.05437801 -0.0946558 0.01627455 -0.02078661 0.02006366 -0.04113003 0.02887687 -0.00561985 -0.02357961 -0.01864351 0.0206472 0.09604368 0.08640907 -0.09661843 -0.07882637 -0.04929155 -0.10661875 -0.03662034 -0.0798267 0.03085176 0.09617887 -0.03815833 -0.07225096 -0.04700248 -0.04334066 0.04730713 -0.04365763 0.00500146 0.00229239 0.06273097 0.03293581 -0.07019252 -0.07877728 -0.01763394 -0.00466232 0.04577
aeb-x-bible 0.02393896 0.04672233 0.03722479 -0.05757137 0.06429485 -0.07241046 0.0727024 0.07992328 -0.00108859 -0.0005688 0.07611821 -0.08881819 -0.08622657 -0.02516081 0.03121974 -0.0798567 -0.02029806 0.00622753 0.01745602 0.08905075 -0.01391671 0.02294413 -0.08103541 0.06023455 0.09315856 0.04651833 -0.00517752 0.0325444 0.04147782 0.07389715 -0.10938882 0.04253309 -0.06525409 0.06631074 -0.07865977 -0.05116573 -0.08825335 0.01549812 -0.02885894 0.06445852 -0.02350929 0.00346088 -0.09673017 0.02240589 0.1468207 -0.03571723 -0.0503122 0.10701542 0.01148239 0.07491537 0.08413429 -0.01774485 -0.03701179 0.03764001 -0.06680314 0.03008431 0.02247412 -0.02963669 0.0314026 -0.03148437 -0.089794 -0.01491726 0.00177706 0.03427576 0.08932092 0.03988973 0.02157988 0.00137234 0.06532935 0.03814548 -0.07024354 -0.07744487 0.06214495 -0.02576834 0.03832416 -0.05960295 0.09270985 -0.04527901 -0.01044826 0.02870638 -0.06877142 -0.04638115 -0.07971477 -0.00086608 0.00034658 0.10486665 -0.07246768 0.02389958 0.08368019 -0.07614092 -0.06282199 -0.07024419 -0.09918407 -0.10377004 -0.0050499 -0.00306185 -0.00905246 0.03516554 0.05177675 -0.03889216
aeu-x-bible 0.05876989 0.0065207 -0.03250432 -0.08389811 -0.03527095 -0.04947237 0.106783 -0.08755275 -0.03945235 -0.06657237 0.07807672 0.02225766 -0.03217981 0.01369736 0.1315583 0.0127638 -0.04544085 0.08439966 0.08582117 0.04531749 0.04891547 -0.06327369 -0.0498375 0.11227468 0.00202248 0.05683272 -0.04867145 -0.06335301 -0.12646939 -0.06612572 0.01844746 -0.01868176 0.09433618 0.00350656 -0.09369596 -0.02312423 0.02010191 0.01981834 -0.05264542 -0.02944369 -0.00024827 -0.01675525 -0.02562333 -0.0387162 -0.11543093 0.01360842 0.06909867 -0.04453052 0.02276766 -0.01881414 0.05792651 0.01480256 0.10761007 0.11004673 -0.05597102 -0.00378675 -0.00338494 0.03176737 0.01582371 0.07483061 -0.0048991 0.01431522 -0.02881441 -0.01081744 -0.02606834 0.02539762 0.03741882 0.06249616 -0.09423196 0.08227179 0.05878689 -0.04043685 -0.11340997 -0.09316257 0.04477035 -0.10978715 -0.10421797 -0.03134179 -0.08513106 0.00255466 -0.00997493 -0.07934091 0.07004125 0.06895893 0.04379335 -0.00390542 -0.10046823 -0.03977175 0.03627035 -0.04868255 -0.02951862 -0.09881837 -0.01039107 0.11250465 0.12640896 0.0761466 -0.04313369 -0.06853482 -0.04626559 0.05011642
aey-x-bible 0.09596597 0.08098999 0.04584991 0.00524535 0.01432059 0.01631182 0.1161228 0.05521538 -0.01775872 0.06934338 -0.0447167 0.05798887 0.01208343 -0.01304794 -0.03829131 0.02188813 -0.0161038 -0.07410619 -0.0852805 0.00433475 -0.02275559 0.07717382 -0.08522467 -0.02581329 -0.04977591 0.059294 0.03227066 -0.03214755 0.0284547 0.03910353 0.09863792 -0.02662583 -0.03644469 -0.0218284 -0.08664777 0.08794174 -0.05757062 -0.03339427 0.08000236 -0.0234721 -0.00410133 0.0331325 -0.08022798 -0.05718479 -0.05723323 -0.06421579 -0.10883062 0.0256767 -0.11646003 0.04766072 -0.0152027 -0.06332575 0.11601044 0.06853461 0.08080562 -0.00922877 -0.0654505 -0.03700901 0.03017824 -0.07156462 -0.08881187 0.05209949 -0.04405534 0.0800882 -0.10737362 0.03864578 0.0228664 0.09263656 -0.04986775 -0.03651486 -0.06869283 0.06914624 -0.04621036 -0.08126268 -0.1164659 0.00851839 -0.00646833 -0.08087362 0.06300817 -0.02913441 -0.07431094 -0.03287097 0.04206081 0.0614076 0.09790622 -0.01563296 0.0015885 -0.07279341 -0.00808819 0.0109123 -0.02089678 -0.04606774 -0.02916383 0.01291157 0.03708814 -0.09398857 -0.06998072 0.05203405 -0.06272737 -0.00332981
afr-x-bible-1953 5.2589249e-02 8.2532868e-02 -7.8825690e-02 7.8963652e-02 -1.0430184e-01 4.8612937e-02 -3.7644789e-02 -7.6775111e-02 -1.3718819e-02 1.2707394e-02 -7.5763419e-02 -8.0226343e-03 -6.3618094e-02 -7.7580251e-02 -1.0540709e-01 8.3555400e-02 -4.8543792e-02 1.0540918e-01 -8.3153985e-02 -5.9712648e-02 -8.9883871e-02 -9.3330182e-02 -5.6258123e-02 2.3866903e-02 3.7697639e-02 7.9732180e-02 -5.5218853e-02 -7.6945415e-03 4.3125106e-03 1.4053569e-02 2.7751666e-02 5.4582641e-02 -2.3573820e-02 6.6660888e-02 7.9028979e-02 8.0279477e-02 -6.0897637e-02 -6.9897413e-02 -7.5352550e-02 3.9995939e-02 8.1937820e-02 -3.5031307e-02 6.2928554e-03 5.2561432e-02 7.9591032e-03 -3.6363032e-02 8.1872821e-02 -3.1283505e-02 -5.5950351e-02 -1.4942662e-02 4.4359295e-03 -1.0556701e-01 5.8300335e-02 -4.3656196e-02 -6.5797970e-02 -3.6601499e-02 7.6914774e-03 5.6674713e-03 1.6379192e-02 -4.5133665e-02 4.1040499e-02 -5.4204758e-02 1.1218691e-03 -1.6355548e-02 6.9731347e-02 7.1331422e-05 -1.0847682e-03 1.7745137e-02 4.8511602e-02 1.2121453e-03 8.9264236e-02 3.1847893e-03 -3.6711410e-02 -3.9527006e-02 -1.4354406e-02 -4.4346601e-02 4.7281731e-02 -1.4570072e-02 -1.5415143e-02 -2.1942673e-02 1.1344912e-03 -3.5416488e-02 5.1574759e-02 9.3387023e-02 7.7323288e-02 -5.9385043e-02 8.2084782e-02 9.3700320e-02 5.8896534e-02 -5.7377331e-02 -1.7221179e-02 -9.7992206e-03 5.7636496e-02 -8.8475868e-02 -9.3814824e-03 2.2233624e-02 5.3640284e-02 -7.9536252e-02 3.9874565e-02 -8.4548779e-03
afr-x-bible-1983 0.06861613 -0.08869378 -0.08384375 0.07300483 -0.02263006 0.02213089 0.06241905 -0.03092688 -0.00604974 -0.01193705 -0.0946883 0.08401183 -0.04525346 0.00726989 0.01023751 0.06235248 -0.03458499 -0.02703947 -0.00405179 -0.03164579 0.05033603 0.01045514 0.03611177 -0.0539914 0.00894518 0.07655217 -0.05740029 0.07743542 -0.00629977 0.06809528 -0.07670709 -0.06210338 -0.01227003 0.08448724 -0.00106615 0.03053817 -0.09622734 0.0126188 0.09454431 -0.01678311 -0.01480113 -0.02371483 0.02364511 0.01410467 0.00374941 -0.04096209 -0.04274247 0.08050927 0.03220697 -0.07166462 0.07568096 -0.08174798 -0.01139648 0.01463775 0.07312654 -0.04539784 0.02592218 0.03900466 0.06189618 -0.08358932 0.04517336 -0.08284724 -0.01342662 0.04054999 -0.01037275 0.08166157 -0.04230433 0.01727095 0.01591226 -0.05046067 -0.05656389 -0.02091398 -0.03306188 -0.07260086 -0.02444784 -0.08958922 0.06596254 -0.0381138 0.07573447 -0.01045129 -0.02018543 -0.01598887 -0.06136041 -0.01916554 0.08551981 0.00076825 -0.07682796 -0.0206392 0.09091891 0.02116145 0.06932835 0.03616758 -0.07110629 -0.09970666 0.07075578 -0.00230692 -0.08653253 -0.0582713 -0.06419859 -0.01388104
afr-x-bible-boodskap 0.02715516 0.05102254 -0.0986829 0.01112776 -0.0663441 -0.03054327 0.11191012 0.06166942 0.0662836 0.02915206 -0.03980632 -0.06859713 -0.01209466 -0.03131396 -0.04147435 0.04223627 -0.00081135 0.00833419 0.06342596 0.02266593 0.09943867 -0.06403613 0.06396225 -0.016333 -0.02805122 -0.08043765 -0.05658191 -0.06764843 -0.11545343 0.06553583 -0.06873117 0.05966865 -0.00161373 -0.04528931 -0.04732651 0.08915354 0.11845079 0.01527299 0.08434215 -0.07444797 -0.06657125 -0.08770319 0.04331679 -0.03475394 -0.0455026 0.0920366 -0.08013664 -0.00731725 -0.05646313 0.08525271 -0.00078576 -0.07987335 -0.00140186 0.09084836 0.10863154 0.00592243 0.03640299 -0.05899139 0.07519014 0.07640432 -0.05338328 0.00841792 0.04965331 -0.07782696 0.01015998 -0.05286247 0.10237069 0.10453927 0.0453383 -0.09582786 0.01450198 -0.05193982 -0.01327206 0.0610688 0.03616167 -0.04920698 -0.00710115 0.04950335 0.08430841 -0.09669333 0.09313015 0.08028638 0.08586622 -0.06114525 -0.06790622 -0.01636462 -0.09263638 -0.06493828 0.00149958 0.01973915 0.0638959 0.0249148 -0.07576206 0.03383565 -0.03808718 -0.05457733 0.08013433 0.07478485 0.09127998 -0.04772345
afr-x-bible-lewende 0.09203004 0.05179633 0.05267255 0.07051856 0.06042708 -0.07074951 -0.06656269 0.019376 -0.0837052 0.06847864 -0.02055821 -0.01930423 0.07971478 -0.04176198 0.00666547 0.01955377 -0.040188 0.02002353 0.07480727 0.0739072 -0.0629787 -0.02241012 0.01946015 0.00039315 -0.01178774 -0.0052498 0.0447635 0.06713882 -0.06794009 -0.02007603 0.01008842 0.01526032 0.03228182 -0.00630565 0.06479237 -0.04719852 0.06112137 -0.08816812 0.07489717 -0.03659203 0.01906823 0.04385327 -0.03032685 -0.04757729 0.00612784 0.02442143 0.01969686 0.05742363 -0.02512665 -0.09770207 0.07903204 0.056493 0.01143473 -0.060569 0.03110898 0.06819579 0.07294832 -0.02047993 -0.00743641 0.01925978 -0.01909098 -0.09323828 0.02295203 -0.07830463 -0.07690351 0.04863646 -0.00652437 -0.07841799 -0.08892003 0.01082133 -0.08146167 0.03645797 -0.0533342 -0.07142404 0.05975004 0.08722621 0.05025558 -0.08616051 -0.0948089 -0.09851255 -0.08831228 0.00780617 0.00117702 0.09731384 0.07374823 0.07614187 -0.05089257 0.07491751 -0.03980897 0.04871722 -0.08678717 -0.00656335 0.02760804 -0.08507577 -0.01908584 0.07306113 0.05153863 -0.10020006 -0.00778852 -0.04117836
afr-x-bible-viralmal 0.03216627 -0.00565965 0.05633264 -0.05238384 0.02534555 0.11358502 -0.03228132 -0.06830695 0.09972413 0.02620023 -0.05359112 -0.02149404 0.02774364 -0.04971213 0.05816784 0.09749997 -0.0222146 -0.05025159 -0.07138798 -0.08551531 -0.08619066 0.10585518 0.04540009 0.04969282 0.06836689 0.03952729 -0.09419467 -0.02746859 -0.09399796 0.0439139 -0.06040594 -0.01006573 0.02725103 0.00591179 0.03799349 -0.03341538 -0.04595396 -0.01134758 0.02632558 0.05395313 -0.02429868 -0.00437237 0.04902536 -0.03967685 -0.05537084 0.00734233 0.09535164 -0.05591361 -0.08902369 0.06031762 0.07552724 0.06620755 0.04590228 0.05802399 -0.0315445 -0.07832719 0.03637858 -0.09698671 -0.06461155 0.02003771 -0.02012605 -0.04191431 0.0743876 -0.06660523 -0.05161607 0.08767483 0.051805 0.02074686 0.06766701 -0.08254696 0.07975638 -0.06726542 -0.09492102 -0.09697864 0.00463528 0.01236609 0.06615797 -0.07694674 0.030283 0.01966154 0.09667272 -0.02272247 -0.08637239 0.02104833 0.01212201 -0.03995606 -0.03249773 -0.09601312 -0.05376316 -0.0084564 -0.09177258 -0.03559035 -0.02471071 0.10953409 0.01458722 -0.09565493 -0.0143678 0.0257975 -0.06466541 -0.05158346
agd-x-bible 0.09599123 0.0176775 0.04397262 0.08635526 0.00112077 -0.06468511 0.04019623 -0.10858236 -0.06435327 -0.01095016 0.10074125 0.0934535 0.09181561 0.05644843 0.00149071 0.10307272 -0.00332502 -0.04734573 -0.07066736 -0.08167002 -0.07410294 -0.05271926 0.09749153 0.00822569 0.00827091 -0.03215771 -0.07489103 0.00469823 -0.04382674 0.02580133 0.07145175 -0.0758213 0.06422686 0.0496372 0.05688939 0.03075297 -0.05987884 0.07039041 0.03389211 0.03626048 0.05561821 0.01287691 0.00108609 0.06179503 0.03166813 0.01271908 -0.07614702 0.0171557 0.04593709 0.01967343 0.09685921 -0.04503328 0.06948926 -0.07910793 0.01435087 -0.01267192 -0.01040588 0.03194966 -0.03901491 0.03111879 -0.01299042 -0.03691555 0.03652759 0.02753834 0.05897599 0.07118892 0.07183913 0.03382954 -0.04744061 0.08788028 0.03033495 0.00035172 0.02149267 -0.04455842 0.01724889 -0.06169725 0.05821819 -0.02310697 0.10284867 -0.02536591 0.03289863 -0.01379767 0.08602735 -0.01215856 0.00358674 -0.01351741 0.08604079 0.05085462 0.06477192 0.04606326 0.06427322 0.0459498 0.01803686 0.01459829 -0.03526198 0.04500085 0.05933119 -0.07745333 -0.03996635 -0.01174806
agg-x-bible 0.00769409 -0.08720884 0.07099368 -0.05112183 0.10156764 -0.06160273 0.0057052 -0.05999085 0.05346796 -0.05721743 0.01410211 0.05940124 -0.01824209 0.00336747 -0.01709209 0.09851225 -0.03036328 -0.05516163 -0.00397766 0.01196861 0.04742805 -0.01499154 -0.0948059 0.00197471 -0.02496595 0.0830869 0.00997929 0.01487639 -0.03022438 0.02697943 0.13794065 0.01121961 -0.0790065 0.00757843 0.07061412 -0.01168943 -0.01676363 -0.09059213 0.12776472 0.07140909 -0.09580883 -0.01954245 -0.07579965 0.00887399 -0.04584644 0.07371935 -0.0698461 -0.03121975 -0.07023904 0.05119679 -0.05946789 -0.04541413 -0.01810051 -0.00392006 -0.01377035 -0.04710765 0.0970059 0.02929517 -0.03703883 0.06637017 -0.0583177 0.02955895 -0.10375287 -0.05179759 -0.01375868 0.04977506 0.1020041 0.1311598 0.01031091 -0.0663823 0.0329964 0.00255587 -0.06182817 -0.10957193 0.02430128 0.01929108 0.0940369 0.05893443 0.07338098 -0.0311601 -0.06347238 0.0731623 0.06836808 -0.08204248 -0.07625961 -0.13114679 -0.01519503 -0.04066502 -0.03506133 0.0043633 0.05880278 -0.00602503 0.01228628 0.03162623 0.07201247 -0.04054597 0.11765897 0.01358659 0.04044762 -0.07970721
agm-x-bible 0.08204621 -0.05124682 -0.03935474 -0.03973678 -0.09223536 0.0764555 -0.04471838 -0.08665781 0.02628516 0.01559743 -0.09458473 -0.08483651 0.06566747 0.01014354 -0.05804269 -0.00351331 -0.05898838 0.01008705 0.04022455 0.05553478 -0.0705461 -0.10244408 -0.00902455 -0.03174333 -0.05817306 0.08461852 -0.02136309 -0.01760535 -0.06626572 -0.00150431 -0.09434694 0.06860376 0.00460543 -0.00979069 -0.06781384 0.02844994 -0.06678969 0.06262819 -0.05319925 0.04814897 -0.05416485 0.00267308 0.01167859 -0.00741973 -0.00773309 -0.0627476 0.06108554 0.04389354 0.00522658 0.0180058 -0.0623481 -0.10402415 0.07031923 -0.0140311 0.06364601 -0.02134199 -0.03192947 0.0229955 0.08563644 0.04152388 0.06645512 0.03110817 0.05473068 0.04720883 0.00608527 0.00239749 -0.00132221 0.01821064 0.02149573 0.02658484 0.0351097 0.03847504 0.00419147 -0.06347103 -0.08953311 -0.05963482 -0.08858479 0.05193868 0.092104 -0.06275313 -0.03473215 -0.09422168 -0.09214373 -0.09046251 0.02963116 -0.08816759 -0.04360266 -0.01446292 -0.05520072 0.04404979 0.07011337 -0.00113788 0.01461984 0.03049023 0.07115454 0.0217882 -0.08745439 0.08794568 0.03931698 0.05580318
agn-x-bible 0.06668172 -0.07473229 -0.02193326 0.03350506 0.05842664 -0.06941813 0.09661529 0.03466426 -0.06743217 0.08455361 -0.03073691 -0.04767474 0.04388572 -0.03679036 0.11433347 0.03666265 -0.00445924 -0.0063923 -0.09095046 -0.00504313 0.06275872 0.05091003 -0.02350219 0.0484506 0.01037986 0.09853988 -0.04443054 -0.05381762 0.01262322 -0.03212704 0.11192057 0.06149097 0.09723648 0.00878157 -0.06359015 0.07378612 -0.03317042 -0.04470353 0.06069982 -0.07265132 0.07555421 -0.02746533 0.10236597 0.08870042 0.03964264 0.02668716 -0.06960846 0.00936188 -0.03276606 0.01465946 -0.00557312 0.01129489 0.07938138 -0.09449512 0.06183812 0.0291943 0.09120618 0.06129897 0.09367007 0.03954368 0.07519236 0.06299402 0.03834718 -0.02086508 0.06697597 -0.08437113 -0.00594172 -0.00600838 -0.04652259 -0.0614689 -0.01859404 0.02177362 0.03775525 0.04966208 -0.04128264 0.00855025 -0.09587326 -0.09332927 0.02124428 0.03261231 -0.02952481 -0.02255127 0.0430498 -0.00580955 -0.04045364 -0.04426233 -0.04908254 0.01694525 0.1006455 -0.02864988 -0.07233338 -0.04878398 -0.07827224 0.0006543 -0.0648198 -0.04982513 -0.00018687 0.08481441 -0.04428996 0.04267102
agr-x-bible 0.0454088 -0.03757643 -0.08162235 0.02105972 -0.05061874 0.06140522 -0.03861149 0.07452002 0.08820701 -0.04579565 -0.07163022 -0.00096831 -0.08432575 0.05648904 -0.04329541 -0.08102568 0.03740839 0.07699564 0.04178004 0.01584663 0.07076333 0.0661336 -0.0003224 -0.05873855 0.05891157 -0.04354447 -0.09055796 0.10337897 0.04904785 0.0224415 0.04999759 0.0085206 0.04335355 0.02486154 0.07538901 0.00385626 -0.02949046 -0.05457533 -0.06743203 -0.07037401 0.07101352 0.09390714 0.01707206 -0.02735204 0.01759822 0.05355437 0.03143578 -0.08213488 -0.03841768 -0.01791874 -0.0901169 -0.05356062 0.0121122 0.08037796 -0.05205231 -0.04748234 -0.02086569 0.05580441 0.07887055 -0.08866151 0.03678526 -0.01064089 -0.05031347 -0.0548144 -0.10162639 0.0843069 0.00660991 0.08082975 0.0547327 -0.08848566 0.04168989 0.01753981 -0.02271487 -0.06709385 -0.04771255 0.000702 0.03882848 0.01816503 0.10136613 -0.03682038 0.04126612 -0.0935007 -0.00682911 0.03609702 0.09421474 -0.07626716 -0.01421536 0.08505865 -0.06052785 0.08312913 -0.0076142 0.09343141 0.07082305 0.06095205 0.01020526 0.08783299 0.06662413 -0.00597674 0.04754119 0.03143606
agt-x-bible 0.02465072 -0.08088399 -0.05469822 -0.0981823 -0.07216162 -0.01406578 -0.03767175 0.00492806 -0.00117932 -0.0389515 -0.10495795 -0.00858798 -0.02075839 -0.06418282 0.07101803 0.07988857 -0.02162507 0.06061313 -0.08274473 -0.09846978 -0.03701035 0.09018008 0.00233799 0.07502622 -0.01506835 -0.00449375 -0.07922532 0.08920757 -0.06135863 -0.0751072 0.06885542 -0.08342344 -0.00754831 -0.09759779 -0.06930789 -0.00671572 0.08601255 -0.093242 -0.08948883 0.03581881 -0.01300296 -0.09790374 -0.01178787 0.05001683 0.06529763 -0.05739874 -0.05008709 0.05927655 0.00171575 -0.04164587 -0.03885293 0.0196166 -0.02529672 -0.07816321 0.07887597 -0.04481766 0.0891647 0.06397669 -0.02412348 0.01733731 0.04709596 -0.00645916 -0.02729606 0.07047123 -0.09246632 0.00646864 -0.01784279 -0.0036508 -0.08631226 0.02184007 0.05475251 0.01457347 -0.02949323 0.09044067 0.10915816 -0.07929386 0.00270954 0.09656437 -0.02229767 0.08235211 0.04414305 0.09303708 -0.0643165 0.02220129 0.02364953 -0.05899576 0.03709305 -0.05833986 0.0567685 -0.03823032 0.07837872 -0.08336391 0.08233783 -0.06822854 0.01494896 -0.04605733 -0.02045791 -0.01841454 -0.03492145 0.04282891
agu-x-bible 8.7183341e-02 4.3990884e-02 6.7693122e-02 -4.7456495e-02 -2.5474226e-02 4.6880968e-02 -5.8636074e-03 -2.4330558e-02 5.1110568e-03 9.0434946e-02 2.6607408e-05 -9.1512159e-02 3.8456038e-02 -4.1758418e-02 -3.3707138e-02 -2.6467485e-02 2.7369480e-03 5.1219106e-02 -8.7774970e-02 8.2197167e-02 7.7831946e-02 -7.4305952e-02 -2.9776663e-02 -7.7020130e-03 -5.7668285e-03 -2.0430973e-02 -1.6689384e-02 2.5733575e-02 -8.1295647e-02 -9.6928857e-02 -3.6344171e-02 -7.1004806e-03 5.0362031e-04 -2.5612917e-02 -3.8725439e-02 8.4351525e-03 2.5491308e-02 -4.9840443e-02 1.9685507e-03 4.4027463e-04 2.3518939e-02 -1.9970499e-02 -1.9118637e-02 9.2416584e-02 -6.9773891e-03 -2.6348168e-02 8.6129159e-03 6.2118381e-02 7.1876526e-02 9.2696078e-02 3.6256462e-02 6.3217983e-02 9.3939705e-03 -3.0111983e-02 -9.7918632e-03 5.7079516e-02 -9.3238592e-02 2.8637715e-02 7.6938011e-02 -9.4019130e-02 6.6945396e-02 4.8678007e-02 9.3097642e-02 6.6298097e-02 6.6400319e-02 4.8934013e-02 8.5517704e-02 9.6556777e-03 -1.8466290e-02 -9.3706243e-02 -3.5973620e-02 -5.8763474e-02 8.5108969e-03 -1.0099366e-01 -3.8253568e-02 6.0165979e-02 4.7564536e-02 8.8820972e-02 -5.1019862e-02 -7.5047894e-05 3.5768829e-02 4.3499038e-02 1.8596129e-02 -3.0475788e-02 -8.9674987e-02 -6.5448798e-02 -9.2576265e-02 -4.3747399e-02 -9.4682969e-02 -5.4826584e-02 -7.6992095e-02 -8.5245483e-03 5.9178974e-02 -6.1149520e-05 -4.9069338e-02 7.4417770e-02 -9.2495084e-02 -2.3355754e-02 4.8998365e-04 -6.9404736e-02
agw-x-bible 0.08566179 -0.07644448 -0.08514432 0.06113465 0.05777067 0.06006572 -0.00886726 -0.01981506 -0.01067492 0.08760451 0.07742441 0.05940156 0.0659913 0.06655491 -0.05460036 0.06671512 0.0164413 0.07788541 -0.05987603 0.05350027 0.0280488 -0.07182815 -0.03661793 0.0786278 -0.0209904 0.09770272 0.01186629 0.10158823 0.06410015 0.06273961 -0.02527385 0.00548918 0.08595258 -0.02694902 -0.03452722 -0.05126049 -0.07027162 0.04647606 0.08230036 -0.06152957 0.06320195 -0.00823689 0.07500594 -0.08453733 -0.03718819 0.00471735 -0.01011058 0.077985 0.01013356 0.08343977 -0.04931314 0.07404058 0.09593289 -0.06439114 0.02094042 -0.00475102 -0.04221742 0.04232992 0.06534523 -0.03516568 0.06441953 0.05325322 0.04953375 0.00234641 -0.09533935 0.03054861 -0.07909738 0.07032978 -0.01815332 -0.07067997 0.0844757 -0.09107264 -0.09915417 -0.00339847 0.06095459 0.08071063 0.08915845 -0.03049941 0.10093163 0.07062884 0.08586545 0.04392709 0.04506391 0.03808105 -0.08856326 -0.01724751 0.09775776 0.04539215 -0.01038568 0.01693093 0.03576564 0.00288102 -0.08897432 0.06956593 0.01514994 0.00761235 -0.06288593 -0.05543061 0.07992277 -0.02235874
ahk-x-bible 0.09048887 0.06917553 -0.11113906 -0.03090507 -0.06218955 0.03851569 0.02432078 -0.01695604 0.10306606 0.05736832 0.11023934 -0.00801843 -0.06754901 0.08380838 0.06876048 0.04089839 -0.04568788 -0.00860923 -0.04751264 -0.04037738 -0.04677023 0.04891815 0.01169831 -0.03524796 -0.05204373 0.04438671 -0.09859455 0.10164666 -0.01494784 -0.01763561 0.03291456 -0.0127877 -0.04691866 0.03154562 0.06709661 0.07888382 0.012416 0.08156357 -0.05605104 0.08791153 -0.02229374 -0.01870941 0.03767324 -0.06253536 -0.03160826 0.05017006 0.0365816 -0.12949532 -0.01894313 -0.04507172 -0.05055024 -0.01213095 0.10982186 0.10933349 0.12288184 -0.08091294 0.10256279 0.03038651 0.04063217 -0.10384604 0.10246742 -0.02723773 -0.08022758 0.05434109 -0.03661175 0.12069705 -0.0174356 -0.02813202 -0.02939653 -0.05800925 -0.1118094 0.06034289 -0.06956398 0.03435623 -0.00134847 -0.04650889 -0.06440856 -0.04836407 0.00665586 -0.02443046 0.03602858 0.02262028 0.08672843 0.03927681 0.04809373 0.03845521 0.07545229 -0.09829315 0.10118192 -0.04288836 -0.05371003 0.04416366 -0.02477789 0.07107282 0.09710885 0.02166462 0.07728632 -0.03061005 0.14364205 -0.06556328
aia-x-bible 0.07251773 -0.00176981 0.05858401 -0.06026328 0.00131347 -0.05470476 -0.05112851 0.02882116 -0.09743084 0.04025745 -0.02544359 0.0578428 0.06863639 -0.02303978 -0.09604298 -0.07634202 0.01202076 -0.00313006 -0.05213022 -0.08933749 -0.08020665 0.03997238 -0.00765296 -0.05320251 -0.09726806 0.0989107 0.07468965 0.03246361 0.01934332 0.03474934 -0.03292669 -0.07893452 0.02046784 0.02254464 0.09305791 0.04500869 -0.04239193 0.02227869 0.04351189 0.0621145 -0.01939321 0.047738 0.02203608 -0.0883185 0.07559884 0.01004126 0.03690454 0.09739379 0.09528979 -0.09516911 -0.0370942 -0.07460035 0.08729624 -0.04353508 -0.04907173 -0.03706551 -0.08422733 -0.04441267 -0.08499122 -0.07008847 0.05454001 0.08028033 -0.05231356 0.00296666 -0.05133859 -0.06062206 0.03237084 0.10092255 -0.05078844 0.05786155 -0.08007235 0.01064622 -0.04252857 0.09621308 -0.04830705 -0.0841678 0.07860909 0.09170807 0.00402237 -0.0468611 -0.07998436 0.04455313 0.05246343 -0.03424886 0.08016328 0.02912481 0.0319541 -0.06507836 -0.03758208 0.04757516 0.0631322 0.00745394 -0.05543809 0.01275022 0.04443944 0.05727872 -0.04067381 -0.06798527 0.06423388 0.05110269
aii-x-bible 0.03473845 -0.05183195 0.08526105 -0.07755969 0.06260595 0.0012513 0.06522203 0.09399689 0.05482449 0.02726207 -0.04710967 0.06955732 0.060695 -0.0392238 0.0182242 0.0131669 -0.06957994 -0.09180838 0.04973733 -0.04849138 0.06074226 -0.02815565 -0.04486759 -0.00447277 0.04179937 0.06798616 0.09404329 0.01115199 -0.07818523 -0.00625089 0.06875897 -0.0743692 0.027517 0.09307986 -0.03293766 -0.0722773 -0.0521133 -0.05083802 0.0239394 0.00468203 -0.02641974 0.05876373 0.0469032 0.01120783 0.10532176 -0.08495787 0.02605018 0.04845232 0.04592698 -0.08105943 -0.0475246 -0.0654562 -0.06302016 0.0272463 -0.07336395 -0.06855299 -0.06182638 0.08741549 -0.05096241 -0.07024539 -0.06894682 -0.01937395 0.04213961 -0.00935746 -0.07397524 0.08530524 -0.01567359 -0.08214591 -0.00374091 -0.08104715 -0.02309235 -0.0713398 0.10935192 -0.0775855 0.05069469 -0.0491797 0.05517875 -0.02351305 -0.08142686 0.03611894 0.06444924 -0.04411444 0.00929313 0.07716458 -0.05562381 0.04331468 0.03904267 -0.02179549 0.05887449 -0.06596965 -0.04755494 -0.0103006 -0.09983057 0.00193569 0.02338738 -0.09327185 0.04735414 0.00700351 -0.03513128 -0.07935358
aim-x-bible 0.06334193 -0.0959233 -0.07578989 -0.05890891 -0.00943249 0.11307765 -0.08211494 -0.09246642 0.10004564 0.01246057 -0.02103523 -0.02909217 0.07345534 0.02281778 0.03530823 0.09031035 0.07559083 -0.00790874 -0.01174578 -0.04574451 0.02974854 -0.02642839 -0.00139953 -0.06770876 -0.12212868 0.07717697 0.01462868 -0.06884763 -0.10984118 0.06939586 0.05082153 0.03937505 -0.0342106 -0.03521167 -0.05646941 -0.02942141 0.10328057 -0.10823865 0.09574653 -0.07897954 -0.039728 0.05965057 0.05166926 0.02850142 -0.0801239 -0.03193321 -0.06367318 -0.11314742 0.03551611 0.05651718 -0.06758934 -0.05345223 -0.052552 0.07395347 -0.0786178 0.06956749 0.09056945 -0.04647483 -0.07798177 0.03586743 -0.00479227 -0.06669009 -0.06626216 0.04378084 -0.11597617 -0.0002067 -0.04848934 0.10084849 0.04524162 -0.09872459 -0.09498081 0.07125832 -0.05097995 0.06031616 -0.06327574 0.06488892 0.09113886 -0.01804373 0.06958413 0.0026511 -0.04303407 0.04535963 0.05532659 -0.08873864 0.09515856 -0.10076924 0.08646765 0.00723137 -0.06116054 -0.09966246 0.05534281 0.02598663 -0.04256954 -0.02659765 -0.04712516 -0.0888276 -0.05751812 -0.06241503 -0.01089035 -0.03489213
aji-x-bible 0.04671313 -0.05609389 0.05132997 0.04381891 -0.02966917 -0.09471659 0.017905 0.03126083 -0.05460125 0.04169411 -0.0542506 0.08413316 0.07859559 -0.01379887 -0.0077468 -0.08699888 -0.07658773 0.09784524 0.10060462 0.08268288 -0.05659435 0.00284641 0.02230952 -0.08539349 0.02803796 -0.07098997 0.0365074 -0.03786258 0.04699217 -0.08718435 0.06732836 -0.03217817 -0.07471062 -0.04562893 -0.02499088 -0.0118737 -0.07788316 0.09490533 -0.04131075 0.05624541 0.03665503 0.02714888 0.06543792 -0.02514739 0.03366469 -0.07117505 0.0122683 -0.06888256 0.0546407 -0.06984794 -0.00242579 -0.0092253 0.02507375 0.0281134 -0.00308119 -0.06427398 0.07830367 0.1048438 -0.0167756 0.07141614 0.04775085 0.0185291 0.041934 -0.04551094 -0.06714179 -0.01384994 0.0230172 -0.08289091 -0.042895 -0.09405635 0.03523256 -0.0115898 0.09207001 0.03591146 -0.08511444 -0.05159292 0.08173863 0.04402384 0.09148703 0.00744192 -0.08268519 0.07886002 -0.09025644 -0.06601639 -0.10055925 0.02871917 0.0952693 -0.04417787 -0.09198907 0.05207221 -0.00787693 0.08822832 0.004464 0.01156677 0.05889162 -0.00979886 -0.01835878 -0.02167362 0.06199291 -0.04956377
ajz-x-bible 0.02393547 -0.0953695 -0.06585399 0.05378511 0.05659636 -0.0469869 0.01856332 0.03722066 0.02151438 0.02996232 -0.02906765 0.03461507 -0.03144512 0.08738208 0.11149459 0.01453099 0.07234873 0.03661118 -0.03686114 0.08114695 -0.04838074 -0.02636451 -0.06844245 0.00537416 0.08798738 -0.04678762 0.00133155 0.09485077 0.05557459 -0.04085639 -0.00131455 0.08535697 0.04383144 0.04566097 -0.00147622 0.07706005 -0.05670256 0.05681212 0.03530505 -0.02751227 0.03145298 -0.05990139 -0.09167916 -0.05393675 0.04935636 -0.05695156 -0.06532302 -0.07215776 -0.01768391 -0.0923301 0.06179764 0.06007494 0.06045029 0.05111624 0.0392485 0.08569075 -0.07622457 0.02508496 -0.03198274 0.04934044 -0.10117868 0.02153914 -0.05092652 -0.0082045 -0.04515223 -0.01858595 0.0615138 -0.01405195 -0.04638249 0.07231093 -0.07456221 0.01242966 0.06367058 0.03840637 -0.0872178 -0.03124491 -0.00388761 -0.00433521 0.00341903 -0.0251202 -0.07197877 0.08504358 -0.01733727 0.0115229 -0.0876743 0.05562389 -0.03749039 0.00112541 -0.0052998 -0.0711083 -0.01601334 -0.04365877 0.06078133 -0.05064084 0.02406806 0.03298318 -0.03224697 0.05326272 0.03114624 0.03091463
akb-x-bible 0.09822985 -0.11002757 -0.00683909 0.07698426 0.04447991 -0.02172712 0.08469476 -0.05823461 -0.06826787 -0.03367921 0.09814113 -0.00729588 0.08708607 0.08479689 -0.02731094 -0.00890864 0.02010528 -0.02214248 -0.0589337 0.0239369 -0.02721602 0.0691869 -0.04241757 0.04834934 -0.08344235 -0.0595068 0.02904852 0.10672787 -0.00590175 -0.06672354 0.06083962 -0.08467585 -0.03544942 -0.08597066 0.06983317 0.01404176 -0.00286764 -0.09334683 0.00551185 0.01838301 -0.03531522 0.01828416 0.07255984 0.06429467 -0.07429057 0.01335174 0.08557579 -0.11096879 -0.03927422 -0.01673324 0.04071707 0.04975919 -0.08591525 0.00922816 0.0445179 -0.08723438 -0.03961718 0.08329473 0.0672031 0.05345248 0.1015577 -0.08613391 -0.08611894 0.00028233 0.00063351 -0.06253263 0.00211264 0.02050434 0.09030405 0.04063134 -0.06997555 0.05876389 -0.07470841 -0.0283003 -0.09028253 0.0534999 -0.06197204 0.05997406 0.09036607 -0.03385829 0.04111559 -0.05281016 0.01948144 -0.08855262 0.05982042 0.01958804 -0.03391384 0.01374558 0.06052219 0.07910838 -0.01486816 -0.09695195 0.04719734 -0.02515632 -0.01760886 -0.01928951 -0.07284828 -0.08473385 -0.058821 0.07157546
ake-x-bible 0.00210962 0.05392376 -0.09521221 0.02604954 -0.08340397 -0.04006444 0.03737689 0.02991092 -0.03044677 -0.06224247 -0.06990778 -0.07868775 0.09169999 -0.0470859 -0.06853821 0.06334256 -0.10080811 0.09437939 0.08386699 -0.07717466 0.0794799 0.01409226 -0.08295545 -0.01679735 -0.00910346 -0.03917969 0.04531802 0.07340935 -0.05598335 0.07455309 -0.05745652 0.00878634 0.06242146 -0.05973719 -0.0767974 0.02482638 -0.01242765 -0.06853276 -0.02533667 -0.0094706 -0.09083217 0.00124548 -0.05301532 0.00398915 -0.03586758 0.05030601 -0.0185688 -0.04583748 0.04362173 -0.05926218 0.09043616 -0.05899848 0.04956576 0.01829971 -0.00146603 -0.09619535 0.09794822 0.04723621 0.08651327 0.03537523 -0.07443042 0.00632592 0.04748784 -0.08684518 0.07883381 0.04350762 -0.00713801 -0.07124515 0.08414762 0.01287605 0.05856051 0.04844509 -0.02181076 -0.07476489 -0.01680274 0.02217994 -0.09933178 -0.02924775 0.01811058 -0.01340403 -0.05871813 -0.09757308 -0.07035951 0.04898839 0.00130075 -0.09162591 -0.02048852 0.0409811 -0.0886993 -0.04170002 0.06766555 -0.08162032 -0.0597925 0.043278 -0.00374899 -0.05528839 0.03777841 -0.09729043 0.09159989 0.00332682
akh-x-bible 0.04875264 0.06365582 -0.09276821 0.05003662 -0.06990898 -0.00319041 -0.02806219 0.05662524 -0.00379398 -0.02473048 -0.09650647 0.03097221 -0.09746286 -0.03417349 -0.03758611 -0.02670506 0.06489707 -0.00608005 0.03888971 0.03522692 -0.0777889 0.08923776 0.0301304 0.01165701 -0.05886935 0.09259269 -0.04962629 -0.06558388 -0.00811671 0.02081951 0.01932674 -0.01713011 -0.00405055 0.09666628 0.05762605 -0.05537605 -0.03517558 -0.03396931 0.0544326 0.05655197 -0.07409856 -0.03192956 0.09451091 -0.03432113 0.05757167 -0.0907663 -0.02249593 -0.08429916 -0.06566014 0.08866818 0.06540889 -0.08764748 -0.02907505 -0.0524214 0.0522532 -0.0526907 -0.0213787 0.08842751 0.07522938 -0.02877041 0.03492233 -0.08943929 0.01432225 -0.07092535 0.04013551 0.01339443 -0.05425496 0.01605394 0.02175229 -0.00346638 0.01555233 0.00790661 -0.01381225 -0.01631762 0.01570175 -0.07923654 -0.03198718 -0.03343476 0.09520709 0.07537423 0.05337229 -0.09965552 0.02461839 0.00203533 0.01296035 0.08826029 0.01204015 -0.0833646 -0.00959424 -0.06889813 0.0474853 -0.03159301 0.0567003 -0.08973631 0.07806074 -0.04996572 -0.07016265 -0.05303427 0.06697752 0.00223934
ald-x-bible 0.07929467 0.06938567 -0.03927013 0.06700965 -0.02781666 0.09890835 -0.05589171 -0.04638505 0.01569547 -0.01429122 -0.04645541 0.04563617 0.05034086 -0.06045926 0.1059837 -0.01775066 -0.03932866 -0.06638528 0.00448262 -0.00766356 0.08131481 -0.01032114 0.0507643 -0.05333095 -0.07755508 0.00991379 -0.08367013 0.09755164 -0.0278056 0.01999402 -0.05507044 0.07811095 0.09589276 0.04899221 0.06786462 -0.03262371 -0.00111148 0.08021961 0.03726 -0.00476944 -0.07958332 0.08295683 -0.0615464 0.0351318 0.03171738 0.0591538 0.05673978 0.06188737 0.05768988 -0.0655678 0.0825065 -0.08550356 -0.04416136 -0.01428372 0.07957066 0.07580689 0.05809728 0.05300622 0.08970029 -0.03435212 -0.07537588 -0.10039298 0.03273617 0.07796252 -0.06046432 -0.01160913 0.07628385 0.05234462 -0.05007324 -0.02726813 0.06303902 -0.03629759 0.03134473 -0.03417472 -0.00964349 -0.03668723 0.03169283 -0.09130175 0.07938461 0.06460091 -0.04686281 -0.02719502 -0.00824456 0.0216737 -0.07779893 0.07671288 -0.01843042 0.03057887 -0.03512684 -0.02295238 -0.05136234 -0.00780254 0.06094376 0.07328944 -0.04315346 -0.06667335 -0.06787972 -0.06256486 0.06893893 0.07019507
alj-x-bible 0.01507901 0.06336571 -0.06550581 0.08692601 0.00086164 0.06969891 0.04041256 0.02546419 0.02243188 0.01338889 0.03257995 -0.0248076 0.07334464 0.02664319 0.0365934 -0.06621276 -0.06827315 -0.00998939 0.01654383 0.01266607 -0.05325774 0.09272108 -0.04968951 -0.07278645 -0.04407958 0.0865538 -0.10700194 0.09524882 -0.06284723 0.05532613 -0.03653293 -0.00294261 -0.04726707 -0.05679234 -0.06734633 0.05859607 -0.01494956 -0.07950473 0.0333928 0.05914708 -0.00591898 0.01593737 0.07930394 0.08645106 0.03775019 -0.04212868 -0.0255528 0.06300853 0.08306459 -0.07131507 0.09943718 -0.06265437 0.01225932 0.09048585 0.07511404 -0.03471059 -0.06783358 -0.01019359 0.05506817 0.06412885 -0.05311134 -0.03739859 0.06322546 0.03713921 -0.00551698 0.05539027 -0.05192388 -0.0051277 -0.09075226 -0.0416679 0.00120189 0.02797025 -0.03638861 0.07801376 -0.07159348 -0.03316638 -0.02957259 0.0917795 -0.06479307 -0.08553797 -0.09543821 -0.06124296 0.09416585 -0.07729656 -0.05189187 0.04354334 0.05168027 0.02930705 -0.04074336 -0.04656977 -0.07467345 0.01919425 -0.06962865 0.0099547 -0.01863068 0.08646304 -0.06678575 0.03777532 0.00029642 -0.00998604
aln-x-bible 0.09318008 -0.00623298 0.03785725 -0.05378482 0.01521366 -0.06368905 -0.07233781 0.02629527 0.00797474 -0.03158888 0.05420927 -0.09408879 -0.00915943 0.03128983 -0.0736298 0.04030028 -0.07767764 -0.03929504 0.0265979 -0.02351517 0.07599337 -0.01717374 0.07333576 0.07830879 -0.06178427 -0.0606011 -0.0252173 -0.081086 -0.06597899 -0.02131354 0.07458529 0.05566594 0.03158238 0.08513445 0.04885577 0.03711347 0.03311079 -0.01370096 -0.07758411 0.07218505 0.11034177 0.08454259 -0.04773853 -0.00707077 0.11356092 0.02859397 0.04279676 0.01195041 -0.05232214 0.08703913 0.09020872 0.05682858 0.02292878 -0.00042144 -0.07995217 -0.02701556 -0.04278154 0.01409429 0.05730948 -0.00291317 0.07841755 0.09440874 -0.01147995 -0.10331872 0.10127433 0.03606739 0.05207969 0.03661333 -0.06286478 0.08479659 0.01098628 -0.06226682 0.01046656 -0.03946881 -0.06499407 0.0905605 -0.08308622 0.06477237 -0.04336213 -0.00430427 0.05893868 0.0304574 -0.00231734 -0.01106379 -0.07002311 0.0543889 0.07355686 0.01841427 -0.02045524 -0.05611561 0.01784551 -0.08821322 0.00878735 0.07118883 -0.03203632 -0.03719753 -0.05691279 0.02623292 0.02160279 0.01849832
aln-x-bible-newworld 0.0588135 0.01248915 0.05447392 -0.0254059 -0.02849292 -0.01289018 0.06168297 -0.03921126 -0.08525419 0.07431094 -0.08467325 -0.09206855 0.04874419 -0.02320231 0.06272181 0.06311204 0.01798131 0.02368967 0.00504176 -0.07863164 0.09282778 -0.01819819 -0.07973421 0.06429158 -0.08702858 -0.08868475 -0.04794246 -0.00687574 0.02355381 -0.07934775 0.0467511 -0.09889059 0.06739663 -0.03209561 -0.06487405 0.09076061 -0.02758186 -0.03911174 0.07894184 0.09747317 0.06181722 -0.03550139 0.03768234 0.07423978 -0.10138214 0.07444938 -0.09330253 -0.0696075 0.06975906 0.10107072 -0.00563888 -0.03248493 -0.02078208 0.03804826 -0.09515561 0.00953177 -0.02453799 0.01573217 0.0823957 0.0464807 0.08504246 0.00608398 -0.08408763 -0.01951746 -0.01791923 0.00422259 -0.01808068 -0.03540761 0.05897205 -0.0826425 0.0395888 -0.05696985 -0.00143723 -0.04510785 0.06515341 -0.02221255 -0.0838474 -0.00482514 -0.03414099 0.08207012 -0.05992314 0.07263696 0.06680933 0.05337791 0.06289984 0.07700297 0.04128772 -0.05462589 -0.07769453 -0.08787062 -0.00699967 -0.04094992 -0.05687137 -0.06711512 -0.07964788 -0.07960603 -0.05939632 -0.05155018 0.02173094 0.07246608
alp-x-bible 0.0099472 -0.04127455 0.05116741 -0.08216537 -0.05881047 0.04844604 -0.00438888 -0.03123774 -0.06311635 -0.05973022 0.12634073 0.0045759 0.03963571 0.10095193 0.07166835 -0.0820491 0.08489485 -0.0882318 -0.00936217 0.00410843 0.04685786 0.05466501 -0.01163563 0.08331572 0.04440011 -0.05134246 -0.01934405 0.05296226 0.03177464 -0.01159388 -0.00385436 0.01003656 -0.00772424 0.01348083 -0.10595796 -0.07348952 0.04540103 0.05480983 0.04192364 0.0344594 -0.01745089 -0.041587 0.04343092 -0.00785372 0.08231426 -0.03875861 0.0578258 -0.0931202 0.0233125 -0.00116519 0.02905781 0.0687534 0.08195545 -0.06586935 0.08660841 -0.08265164 -0.03382003 0.06967082 0.06409047 -0.07301372 -0.01226822 0.08593018 -0.04252245 0.03082614 0.06876709 0.03341281 -0.04747361 0.03648466 -0.06696913 0.0888402 -0.10683294 0.0187105 -0.08589152 -0.01016014 0.07783861 0.04145165 0.07556612 -0.02595047 -0.05073958 -0.00304698 -0.05278125 -0.00889607 -0.00048596 0.03034382 0.07591923 0.06078659 0.01996209 -0.019475 -0.09121948 -0.0358437 -0.00370427 -0.08161125 0.0900291 0.08383853 -0.08292662 0.06353956 0.07719452 -0.00074032 0.01068206 0.08657767
alq-x-bible 0.03096461 0.04814472 0.02665055 -0.04041243 -0.03936833 0.05985913 -0.03526515 0.04495016 -0.04036925 0.08741548 0.04368168 0.063803 0.04176369 0.01850106 0.06519046 0.00279833 0.06537875 0.01563886 -0.08434749 -0.03361893 0.06369747 0.03023195 -0.06656642 0.0348768 0.05955181 0.10177228 0.02675377 -0.00797686 0.06674208 -0.08175921 -0.03673876 0.06879014 -0.04182566 -0.02232836 0.0853279 -0.04381892 0.06065938 0.07179414 0.04620378 0.04433544 0.00117028 0.00786716 0.02048624 0.01198483 -0.02080395 0.08226768 0.01404633 -0.08220448 0.03859431 -0.00449084 -0.08317702 -0.08052891 0.05102312 0.06370026 0.00548923 -0.08546048 -0.01648974 0.01767183 0.07077347 0.0270284 0.04231299 -0.05714476 0.05080145 0.10442526 0.0470341 -0.05664079 -0.0273057 -0.04138777 0.01240911 -0.03187761 -0.05111839 -0.03167531 0.02638277 -0.09806651 0.05646574 0.07028231 -0.08266916 0.05778459 -0.06561767 0.02987983 0.08621921 0.06126062 0.05638312 -0.07091625 0.00203014 0.0700473 0.00189878 0.0389556 -0.02279616 0.04932738 -0.0271118 0.08802883 0.05866558 -0.0814754 0.002775 -0.02123273 0.01933747 -0.00951611 0.03057303 0.00245701
alt-x-bible 0.01788024 0.01967015 -0.01777691 -0.0382991 -0.08607348 -0.04255667 0.05587385 -0.01924572 0.02948648 -0.01082188 0.04015857 -0.08204909 -0.08089452 -0.01166708 -0.0924097 0.0654784 0.07672802 -0.06269054 0.05875853 -0.02590836 0.07423692 -0.0788809 0.0446777 0.0138234 -0.03764552 -0.06820683 0.0430282 -0.08523951 0.09640759 0.010203 -0.07618526 0.00691739 -0.06502624 0.02003538 -0.07408304 0.07082708 -0.05139229 -0.06770373 -0.05837791 -0.0817891 0.0960895 -0.05215902 0.07427065 -0.06197789 0.03405913 -0.07689284 0.04053232 -0.03455161 -0.04496256 0.03738403 0.05554275 0.06126649 -0.05046097 -0.02829769 -0.03722824 0.03091934 0.08448177 -0.06082944 -0.07772449 0.08961705 -0.01530305 0.00348309 -0.06981985 -0.00936006 0.04852704 -0.10468318 0.00867835 -0.02006997 0.00220022 -0.01152938 0.0526579 -0.04545113 0.01643067 0.09901799 0.10181257 0.04543725 0.09312219 0.01851121 -0.03649477 -0.05544943 -0.05872847 -0.04544761 -0.01128642 0.05183193 0.07222869 -0.00225298 0.09392591 0.07375859 -0.04653709 -0.06911249 -0.09286228 -0.07062475 -0.04593056 -0.01471088 0.03737336 0.00827964 0.06676897 -0.05346886 0.01055175 -0.07226658
alt-x-bible-southern 0.06962898 0.1007035 0.09015542 -0.02494924 -0.12252436 -0.05250622 -0.10751853 0.07604235 -0.05261581 0.09182172 -0.0298982 -0.02764987 -0.03768567 -0.01569429 -0.0771336 0.00824911 -0.01845085 -0.07303391 -0.02364049 0.08340824 -0.05605586 0.04221056 -0.10180389 0.02815478 0.06871778 -0.04302111 0.01470177 0.04440052 -0.01990623 -0.0513544 -0.07158597 0.01542905 0.00780802 0.06039103 -0.06914803 -0.03876549 -0.05972135 -0.06856874 -0.01898248 -0.09298329 0.01342859 0.02990105 0.05391493 0.02263848 0.10774665 -0.09789047 0.08653054 0.06238945 -0.04481926 0.00227994 -0.03682053 0.01555897 0.04525936 -0.00482778 -0.0495606 -0.06354397 0.05220952 0.00089872 -0.01528536 -0.0448308 -0.00676481 -0.02974522 0.11377309 0.05085661 0.10001747 0.00656404 0.02781229 -0.01148055 -0.04304245 0.04825879 0.0108307 0.06154495 0.09746761 -0.04431366 0.13098028 -0.02636406 -0.08323904 -0.09516664 0.06601134 0.04454923 -0.07792732 -0.04002623 -0.08184642 -0.00041816 -0.12252364 0.05494436 0.08114939 0.02895788 0.05884065 0.02039344 0.02832097 -0.05892823 0.03890974 0.06406758 -0.04112263 0.06854208 -0.04030875 0.02426392 -0.05663957 -0.06150603
alz-x-bible 0.04631746 0.06515983 -0.01137164 -0.00403702 -0.03055861 0.08414523 -0.05341159 -0.02582332 -0.05444854 -0.01706221 -0.05792616 0.01660659 -0.07021601 -0.06620278 -0.06691626 0.00859424 0.02143482 0.03942949 -0.00168907 -0.08555599 0.08754144 0.01130942 -0.07500552 0.03219513 0.03737305 -0.05615626 0.054654 0.06635043 -0.03064734 -0.05008249 -0.07190579 0.00634579 -0.00677307 -0.01978993 0.03288639 0.01933237 -0.02735207 0.1027672 0.06791107 -0.09050769 -0.05733352 0.01667176 -0.04447546 -0.02208373 0.07183825 -0.05647626 0.03574966 0.11971665 0.06762166 0.02539929 -0.10286141 -0.04483701 0.04513559 -0.0996725 -0.03316524 -0.00527458 -0.10255095 0.03570532 -0.01015975 -0.04742286 0.04089511 0.10037735 0.06294175 -0.03882141 0.04434672 -0.09567845 -0.01547554 -0.06100415 -0.07244464 -0.04378242 -0.02382637 -0.08524559 0.09696861 -0.07385339 0.09636299 0.11050846 0.01607429 -0.05007273 -0.02730857 0.04898015 0.04756733 -0.09678423 -0.06598841 -0.0161775 0.08429924 -0.08092781 0.09029228 0.05239438 0.0400757 0.06151688 0.02368707 -0.00148121 0.01957535 -0.10036346 -0.1026437 -0.09119467 -0.11372869 0.03843776 -0.026832 0.01225063
ame-x-bible 0.08541191 -0.05990521 -0.05719732 0.02593926 0.05491656 -0.01783581 0.01603255 0.06992252 0.03029495 0.04087684 0.00037755 0.02180472 -0.09484877 -0.0547845 -0.13016745 0.03433345 -0.02478315 0.03837974 0.00620443 -0.02705101 0.0778212 -0.07958868 -0.02459438 0.03049395 -0.04931664 0.03729191 0.05065681 -0.06843512 0.10030548 0.05927076 0.02614653 0.0185061 -0.01908196 -0.00722867 -0.03803643 0.05635317 -0.07813358 -0.08132451 -0.0405069 0.009964 -0.07030223 0.07261367 0.08503365 0.05680153 -0.0173158 -0.08175913 0.02580325 -0.03811273 -0.07795944 -0.08608377 0.00751532 -0.10060216 -0.09156071 0.07141136 0.0107643 0.08473016 -0.02473881 -0.06618593 -0.08013866 0.07659975 0.01061843 0.08852854 0.051502 0.06665337 -0.04667573 0.00573019 -0.04339632 0.05516733 -0.00052656 0.03500848 -0.0005705 -0.01902044 -0.04577019 -0.05654192 -0.00862863 -0.07745005 -0.00299425 0.0662976 -0.02514941 -0.01266773 -0.05539053 0.07665791 0.09174551 0.01025593 0.07800024 -0.03553965 -0.0048823 -0.06090421 0.0305852 0.09678356 -0.01846596 0.06274085 -0.04307291 0.02127689 -0.05377572 -0.00921288 -0.06416793 -0.07309272 0.03477608 -0.09845818
amf-x-bible 6.8207033e-02 -1.6628435e-02 6.9068946e-02 -5.1670339e-02 6.3304519e-03 9.6248135e-02 -5.8213815e-02 -5.6108482e-02 1.0041928e-01 -3.1325258e-02 -6.1087344e-02 9.8801985e-02 5.0630677e-03 9.0377614e-02 -1.6254505e-02 -8.3080746e-02 -2.6326133e-02 4.4407357e-02 5.0556473e-03 4.6189860e-02 -8.4659554e-02 -3.9537679e-02 4.7412213e-02 9.8568127e-02 -6.3901083e-03 7.7543676e-02 4.8027728e-02 3.1695995e-02 -8.2141392e-02 -5.1557086e-03 8.5916199e-02 -8.8065997e-02 1.7768707e-02 8.5004985e-02 -8.6417142e-03 -1.2387734e-02 -6.7532249e-02 6.8991892e-02 6.3558221e-02 8.3816350e-02 -6.7684568e-02 -9.3656918e-03 -4.5192610e-02 -8.1800200e-02 7.9792202e-02 5.1850863e-02 -4.9026459e-02 -5.0754923e-02 4.6561323e-02 5.1101554e-02 9.8078758e-02 6.6625461e-02 2.9862944e-02 4.6060022e-02 -8.5633852e-02 9.0852574e-02 6.5460056e-02 -7.4418791e-02 1.9742355e-02 -2.1426830e-02 -2.0410746e-02 -2.1038674e-02 2.0892520e-02 6.1342452e-02 -5.2571506e-03 -4.0505681e-02 2.4856327e-02 -4.0187377e-02 7.7302553e-02 8.5938215e-02 -9.4605520e-02 -4.7032986e-02 7.3293832e-06 -7.9710826e-02 -7.8079468e-03 -5.3092774e-02 8.3205335e-02 2.3924489e-02 -7.4432835e-02 6.1387163e-02 -1.8219568e-02 4.6607643e-02 9.6607851e-03 9.1120079e-02 8.7314434e-02 3.9036471e-02 -3.6526937e-02 2.7048137e-02 -8.7529700e-03 -8.8543698e-02 8.9277670e-02 7.5295013e-03 -3.3690207e-02 -2.6124561e-02 6.0661152e-02 -2.9753951e-02 2.4816608e-02 5.8699336e-02 3.3279613e-02 -3.6703698e-02
amh-x-bible 0.024219 0.07757355 0.06351966 0.04876202 -0.05314302 0.06385212 -0.09080859 0.08871721 -0.03314473 -0.0523544 -0.10059517 -0.06347018 -0.07239801 -0.02844578 -0.03546983 0.02387672 -0.04722503 0.03732699 -0.06964488 0.00568559 -0.06230635 -0.02444158 0.01314552 -0.01323557 0.11077642 -0.00664061 -0.09030606 -0.04655215 0.03311054 -0.08821068 -0.04122829 -0.09282048 -0.01645006 0.00791515 0.03819407 0.07088337 -0.09557723 -0.05117741 -0.04480675 0.07241653 0.09838977 -0.01998476 -0.07690262 0.07426645 0.09252403 0.02470172 0.09044991 0.08630877 0.02015893 -0.08481266 -0.09921974 -0.0650678 -0.09616451 0.07937799 -0.00830212 0.00327828 0.00845885 0.08384641 -0.10052479 0.04621416 -0.08689039 -0.00794452 -0.06065185 0.02160897 -0.063754 -0.0746974 0.03707679 -0.04607733 -0.09787325 0.07818537 0.01670993 -0.06687849 -0.07067108 -0.05063651 0.07152837 -0.08690608 0.06394403 0.10072526 -0.07451756 0.00536114 -0.09599189 -0.07873106 -0.0383454 -0.02157083 0.00214702 0.07668748 0.08124842 -0.00816111 -0.06229637 -0.0724571 -0.06091225 -0.08144338 -0.02396805 -0.03172506 0.05996216 -0.05497783 0.06174964 -0.08692012 -0.11316008 -0.08938543
amh-x-bible-latin 0.0650638 -0.0665581 0.02907874 0.07754374 0.08018684 -0.02548194 -0.0639032 0.06188709 -0.02344539 -0.03517415 0.00325905 0.06250865 0.02742499 -0.04710442 0.0180999 0.040738 -0.04329007 0.0618794 0.07977192 -0.09209555 -0.09141772 -0.1161364 -0.01654904 -0.00780775 0.12646975 -0.10816005 0.02601328 0.03883142 0.01576055 -0.0884157 -0.07460202 -0.07325254 -0.10213735 0.04086397 -0.06139774 -0.01023479 -0.04086871 0.06484517 -0.04374774 -0.00715397 0.0574386 -0.00673398 -0.00930593 -0.02656762 0.04443559 -0.03642119 -0.04084049 0.11327706 -0.03044568 0.01139007 0.02957377 -0.07420326 0.00607388 -0.07989786 -0.06276746 -0.0847194 0.02187559 -0.00996346 -0.01952063 -0.01731601 -0.01375062 -0.02441541 0.04376253 0.05593176 0.06091074 0.04451903 0.06854071 0.01123053 -0.0778458 0.04030091 0.00132362 0.03509897 0.08674169 0.01810458 -0.0300198 0.04505201 0.05076821 -0.01052968 -0.03176506 0.05112725 -0.00380304 0.04461023 -0.06328138 0.08346469 -0.03749833 -0.0614397 -0.04202312 0.11228285 -0.09214591 -0.0532713 0.05898403 -0.01311436 -0.08934292 0.00305579 0.03177528 0.00160832 -0.10302991 -0.02745188 -0.05003993 0.08845071
amh-x-bible-newworld 0.05148184 -0.05263423 0.01776836 0.0874541 0.04972176 -0.10630389 -0.10723209 -0.02715945 -0.02750158 0.0940524 0.06371548 -0.07772257 0.00310066 -0.04137429 -0.0411817 0.00516194 -0.0749911 0.02776493 0.02312982 -0.00310479 0.05807836 -0.02374987 -0.03311751 0.00715967 -0.02895445 0.0668421 0.0116327 -0.05066225 0.03301449 0.01745476 0.04695886 -0.07667345 0.03949154 0.01634717 0.03806534 0.06808437 -0.00723536 0.07130259 0.08689759 0.0336847 -0.02991772 0.02016945 0.03338149 -0.07279193 -0.02567434 -0.00048483 -0.09347085 0.05563233 0.0642911 -0.0603056 -0.0879146 -0.06630182 0.01739962 0.06373308 0.01241534 0.0603767 -0.07708875 -0.00411351 0.00781573 -0.07043348 0.06036541 -0.05121131 0.05116948 -0.10601951 -0.03475833 -0.02217761 0.00942433 -0.0577183 -0.07330885 -0.08511089 -0.02943396 -0.0684953 -0.024222 -0.04849383 -0.01982239 0.02736891 -0.07520611 0.00016797 -0.07863437 0.00874256 -0.06622034 -0.07129771 -0.08122969 0.06645343 0.04721719 -0.0292836 -0.03465059 -0.02233167 0.00112033 -0.01568525 -0.09782166 -0.02286372 -0.04576414 -0.02117761 0.01774873 0.02680409 0.00182898 0.04628376 0.010943 0.02703325
amk-x-bible 0.08174222 0.03670758 0.03442598 0.00372094 0.03015419 -0.08848685 0.04319976 0.02912075 0.07987624 0.0882538 -0.05195531 -0.02470481 -0.03132263 -0.02988832 -0.07214171 0.00718308 0.03794569 0.0191741 0.05984879 -0.07395433 -0.06814264 0.06253196 0.01822538 -0.06013364 -0.00136963 0.00543423 -0.06895126 0.02960088 -0.04101695 -0.10008004 -0.04142104 0.0777822 0.00582372 0.04464045 0.09583184 -0.07504348 0.0405587 0.0470107 0.00016047 -0.08488182 0.02306876 -0.06893387 0.03095439 -0.01577268 -0.07159514 0.00524815 -0.02515351 0.03567358 -0.08050063 -0.0268623 0.031176 0.01638757 0.01192406 -0.07113326 0.01897068 0.04308082 -0.09373128 -0.05984651 -0.0465413 0.00924965 0.06759594 -0.07690458 0.06296274 -0.02540975 0.01128507 -0.09108195 0.03206373 -0.06440377 0.03031672 0.05495131 -0.01985097 0.00448286 -0.08313715 -0.00296641 0.09151783 0.01221341 -0.02864807 0.09246679 0.08526371 -0.08110186 -0.06157706 0.09420197 0.07343145 0.07640374 0.0729262 0.02655627 -0.02339211 0.0255888 -0.05676528 0.09013631 0.06159311 -0.07857513 -0.01557824 -0.07826038 -0.08246858 -0.08768301 0.04449283 -0.09832687 -0.10501769 0.02339126
amm-x-bible 0.05152915 0.02848447 0.00311095 0.07091174 -0.07881474 -0.02997638 -0.00340971 -0.01358263 0.08885344 -0.03070354 0.08890096 0.03361846 -0.08810341 0.01103344 -0.00811399 -0.0551381 -0.05260703 0.0038423 0.04561333 -0.06292877 0.07708395 -0.04440987 0.04213687 -0.01932855 0.02890947 0.07777447 0.06626581 0.04798562 -0.0088334 0.04581894 0.10022082 -0.00271883 0.06183261 -0.04420582 -0.07107829 -0.07856199 0.03228828 0.05135687 0.00816398 0.02489829 -0.06775641 -0.10308053 0.103073 0.03595494 -0.11078551 -0.05482981 -0.02405181 -0.00696002 0.04840003 -0.02141767 0.0582444 -0.06494229 -0.05382093 -0.06752048 0.02028111 0.08133125 -0.01415902 -0.027436 0.0754665 0.06901292 -0.08049673 0.05709383 0.00353472 0.01433385 0.05182581 -0.06014846 0.0423531 0.02048609 -0.06951303 0.06114676 0.06322251 0.02291712 0.03931801 -0.08998195 -0.08638059 0.07110102 0.07685475 -0.10037826 0.05474547 -0.04284288 0.10076044 0.05945981 0.01840036 -0.08412232 -0.01164586 0.02484083 -0.02471023 0.08171082 0.00074751 0.04132088 -0.07325763 0.0125847 -0.05949248 -0.02833064 0.01951542 -0.04259888 -0.08399743 0.08317879 0.08316965 -0.04062612
amn-x-bible 7.88412318e-02 6.34942800e-02 -5.52577488e-02 9.31882784e-02 3.35964374e-02 7.19492882e-02 -7.63553232e-02 -7.12344004e-03 7.43809342e-02 -8.20371732e-02 9.34512019e-02 5.46672456e-02 8.36008787e-02 3.25070098e-02 1.19437970e-01 3.92605998e-02 1.84234716e-02 -1.69216953e-02 8.11462626e-02 3.25711407e-02 -1.40366796e-03 3.44064012e-02 -6.85524419e-02 -1.03956675e-02 -7.80449212e-02 -9.35321953e-03 5.31658903e-02 2.98855305e-02 -1.35272533e-01 7.48182163e-02 -5.52106425e-02 9.84214097e-02 -1.39560774e-02 -9.42841396e-02 -5.89254051e-02 1.12353521e-03 7.36026764e-02 5.34753762e-02 1.14410006e-01 -8.07074085e-02 -7.86291957e-02 3.70374583e-02 1.00603350e-01 5.79684861e-02 -7.47792795e-02 -7.99733773e-02 -4.96153068e-03 7.47850239e-02 -9.28823948e-02 -1.81922987e-02 -7.38247931e-02 -3.82239297e-02 -4.20856196e-03 8.05575473e-05 7.42879361e-02 5.90486787e-02 1.02014661e-01 -1.49619803e-02 -9.05473232e-02 5.38388491e-02 3.62449922e-02 -5.06513938e-02 6.08124733e-02 4.59207296e-02 -1.22088723e-01 1.05172642e-01 6.82784691e-02 3.30033043e-04 -5.39964139e-02 8.67853165e-02 3.09505090e-02 7.08578900e-02 -1.66875403e-02 2.65195239e-02 2.80729588e-02 -2.97202207e-02 -1.58137158e-02 -8.09252635e-02 5.67586049e-02 6.81068841e-03 3.85339111e-02 2.94491765e-04 -6.99891970e-02 5.74370138e-02 9.20330081e-03 2.01985650e-02 -2.72980947e-02 -9.64221358e-02 -3.03021874e-02 -7.44573027e-02 -1.73026801e-03 4.96037863e-02 -7.64835179e-02 6.77865297e-02 6.49413541e-02 1.27910841e-02 8.84280801e-02 1.66158359e-02 1.06061645e-01 -8.73055086e-02
amn-x-bible-naineri 0.09015739 -0.03745195 -0.05191248 0.01604017 0.05395599 0.00039149 0.05748159 -0.1292255 0.11018392 -0.09079825 -0.06205477 0.04414363 -0.06313928 -0.06977937 0.12391754 -0.0253964 -0.03761915 0.06321866 0.03361938 0.06762774 -0.05474375 -0.01450116 -0.02198977 -0.02883095 -0.06241614 -0.07751518 0.05800708 0.06087105 0.00808782 -0.06569249 -0.02877443 0.05153356 0.08016104 -0.01249387 -0.04440588 0.02780847 0.09552959 0.02132904 0.07598265 -0.09148314 -0.07980298 0.02873326 -0.00670252 -0.01821628 -0.09669587 0.11393274 0.0234519 -0.0574484 -0.00613827 -0.00931649 -0.05805146 0.00727077 0.05050968 -0.05241518 -0.0712756 -0.0530761 0.02894737 0.018086 0.08809508 -0.08902729 0.00125891 0.03493752 0.0102982 -0.06302102 0.01906088 0.02079163 -0.06475484 0.06016621 -0.08089487 0.08874931 -0.03408219 0.07807717 -0.04853221 -0.03448695 0.06777189 0.05084043 0.09028217 -0.08721096 0.01633768 -0.085209 -0.06232623 0.0922084 0.00492638 -0.01490706 0.11149516 -0.02019297 0.08957725 -0.06294671 0.01990112 -0.04140821 -0.03332306 0.07307135 -0.0232227 -0.02974561 0.08808051 -0.085614 0.11709117 0.07372224 0.08055151 -0.06734491
amp-x-bible 0.01986219 0.05492989 -0.02280349 -0.02859641 -0.08646202 -0.04923046 -0.06701104 -0.07398683 0.03980292 -0.04296119 -0.07201008 -0.01154414 -0.08286691 -0.02329224 -0.03650531 0.03031972 0.01077539 -0.02904469 -0.06470567 0.03957282 -0.03208975 -0.00589426 -0.09831357 0.03855856 0.09018832 -0.06591166 -0.07490733 0.07975593 -0.07598785 0.08153276 -0.04784259 0.02546255 -0.04546473 0.04900023 0.05684657 0.01624509 0.03311377 0.03746234 -0.03508103 -0.04575195 -0.07165915 0.05935555 0.04072961 0.07107455 -0.08151963 0.04999856 0.05854684 -0.05125674 -0.05882159 -0.0081407 -0.02565339 -0.05491207 -0.00698225 -0.03331085 -0.01128197 -0.03069768 -0.01933684 0.04449208 -0.05722097 0.01017355 0.07012602 -0.05200757 0.08272684 0.0200509 -0.09113555 0.06627685 -0.03410265 0.10556339 -0.00446293 0.03827094 -0.06631581 -0.01811196 0.08228868 0.06239612 -0.03289312 -0.07226087 0.04468086 0.03802589 -0.03646943 0.0251766 0.00146385 0.0621648 0.09206873 0.06269795 -0.03312773 -0.00174534 0.08407755 -0.01606932 0.08276631 0.00770826 -0.08281965 -0.02184463 -0.03667327 -0.02090342 -0.02839711 -0.07440587 0.01184995 -0.04096359 0.10017594 -0.01619149
amr-x-bible 0.06186073 -0.04240923 0.08474798 0.04894162 0.04620019 -0.01462947 0.01763961 -0.06671189 -0.07778631 0.08556579 0.03149236 -0.01976563 -0.04627325 -0.02017131 0.09878393 0.04715461 0.06782554 0.07555078 0.03931286 0.06372511 -0.0444272 0.04886132 0.01947475 0.02708951 0.06290247 -0.0565763 -0.06261439 -0.07313313 -0.07965732 0.09455872 0.05591929 -0.01019156 0.10125038 0.08179315 -0.01041639 0.05531444 0.10031381 0.01325205 -0.07476138 0.065829 0.04567394 0.06794102 0.07587644 -0.06636181 0.06165142 -0.03094667 -0.0359322 -0.04180162 0.07290604 0.04536569 0.05991489 -0.03184736 -0.0786181 0.08825839 -0.00785718 0.06948458 -0.02325013 -0.00846749 0.04463665 0.02829655 0.08342894 -0.01705602 0.05226367 -0.002045 -0.07319904 -0.01570264 0.03393967 0.09727821 0.03250321 -0.08944552 -0.00420303 0.06640364 -0.05768547 -0.00892459 0.01321034 0.018196 0.00480385 0.04822686 -0.06456511 -0.03878024 0.00198164 -0.07961115 -0.04295026 0.09526908 0.07304174 0.07241135 -0.0963512 -0.09625106 0.07968478 -0.0122896 0.08720919 0.02466132 0.01046246 -0.06085384 -0.00309571 -0.05145771 0.03635067 0.06151658 -0.06045095 0.02818447
amu-x-bible 0.07511399 -0.04827561 -0.09363908 0.04188187 -0.02421684 -0.03723112 0.01902526 0.04896693 0.00288831 0.04561608 -0.00788546 -0.062705 0.06157503 -0.0032216 -0.02820796 -0.0029619 0.08715004 0.03574958 -0.00323386 0.09279878 0.09845752 -0.06265569 -0.07911313 0.02897571 -0.09501222 0.05326631 -0.03803394 0.00571744 -0.09582943 -0.00948228 0.08038188 -0.00044717 -0.06778812 0.01092752 0.04191503 0.01270581 -0.0381388 -0.08398788 -0.04635966 0.07269945 0.03285724 -0.03269799 -0.05921397 -0.01286486 -0.11396272 0.00734142 0.06265777 -0.05032126 0.01977121 0.01600533 -0.02268714 -0.0376397 -0.06185858 0.05596325 -0.06840947 0.04345441 -0.04405741 -0.06501547 -0.04922025 -0.08901794 0.08297504 -0.02903332 -0.09343576 -0.00905312 -0.0386951 -0.07129707 -0.04927949 -0.06864069 -0.03397354 -0.01829324 0.03831352 0.03741089 -0.03919698 -0.0417878 0.00531193 -0.03292177 0.07423133 0.08256485 -0.07827089 -0.03669454 0.01669969 -0.03020516 -0.06928857 -0.06463242 0.07008935 -0.00583844 -0.02350484 0.08094998 0.02489693 -0.05042411 -0.02373679 0.05342579 0.0692641 0.06084278 -0.00111223 -0.02486883 -0.07344963 0.07953143 0.05261838 0.02211573
ann-x-bible 0.01284281 0.06309208 0.09753755 0.07002792 -0.0420756 -0.08948058 0.05304583 -0.02919741 0.02516253 -0.02766027 0.08422884 0.0588504 0.00785128 -0.0200453 -0.0835261 0.08351795 0.09350757 0.02967654 0.01573829 -0.00630433 -0.05926796 0.05015733 -0.08202159 -0.05933194 -0.04760624 -0.00180529 0.09454475 0.00249077 0.05414646 -0.05306937 0.05256881 0.09105875 0.03885471 -0.0204088 0.06996696 -0.07233209 -0.02753048 0.03194126 0.00553883 0.04929749 -0.02331254 0.08539232 -0.01536303 0.05997823 0.00902211 -0.07972467 -0.0852029 -0.08957735 -0.08835099 -0.04690984 0.09166034 -0.05018105 -0.07265615 -0.07499338 -0.03582051 0.04807025 -0.00848635 -0.06367357 0.09888647 -0.04438789 0.0419317 -0.06221037 -0.00677471 0.0803837 -0.08150392 0.06007695 0.10217257 0.04715576 -0.06311066 0.03421421 0.05671086 -0.03526422 -0.10011102 -0.01651225 -0.03395595 0.08874389 0.09060263 -0.08015607 0.0076828 0.05655677 -0.09786141 -0.06864683 -0.07446971 0.00623984 0.01230293 0.01001845 0.07591436 -0.0740239 0.007451 0.07021418 0.00497364 -0.01972888 -0.08523426 -0.0494774 0.05104971 -0.03580691 0.08187502 0.04059581 0.06035845 0.05677678
anv-x-bible 0.08005869 -0.08298416 0.09274217 0.07823372 -0.03907288 -0.03737774 -0.0842632 0.00249457 0.09090882 -0.08967842 0.01466641 0.00312894 -0.0958657 0.01001669 -0.05143071 -0.0162135 -0.07521665 -0.00999677 -0.05733244 -0.06456585 0.02498756 0.09845146 0.05111865 -0.02547161 -0.03891933 0.10453933 0.05306739 0.00755427 -0.03708439 -0.08086117 -0.01507095 0.01369658 0.02167312 -0.0665603 -0.10496525 0.078012 -0.04626854 0.00078962 0.07815969 0.00931309 0.01375279 -0.03872191 0.01628217 -0.01325026 0.03692436 -0.03333817 -0.09871639 0.00918515 0.02738822 0.09981763 0.0276674 -0.03121829 0.02280655 0.08868928 -0.034986 -0.01260176 -0.00150094 0.08438742 -0.08306503 -0.10246766 -0.03743505 -0.09700855 0.08567195 -0.06949594 -0.08875687 -0.08932894 -0.05249813 0.01581902 0.01784367 0.01162714 0.07599612 0.07308971 0.00551535 0.03267606 -0.05284199 0.07776567 0.02071426 -0.0496772 -0.03571171 0.03560501 0.00023445 -0.04543717 -0.002714 0.02096488 0.06986807 0.00177115 -0.05045468 -0.10206725 -0.00827004 0.00286258 -0.05545601 0.08513461 0.1114601 -0.00386029 0.0581472 -0.00695491 -0.08631928 0.02165596 0.05700386 0.01126299
aoj-x-bible-filifita 0.06771851 -0.03540583 -0.05467963 0.01275212 0.09238468 -0.04364603 -0.09597947 -0.00418614 -0.02661661 -0.07940809 0.00888432 0.02719926 -0.07068714 -0.02745938 -0.07740401 0.02384854 0.02875284 -0.09225263 0.00222911 -0.06010191 -0.007531 -0.09472607 0.09180847 0.07766006 0.04207724 -0.07799592 -0.06640195 0.09122822 0.07890435 -0.07624798 0.09954828 0.06439725 0.04948701 -0.04946521 0.05721275 -0.04726924 0.08771482 -0.00020107 0.08617207 0.06624357 0.09835326 -0.07892536 -0.00423596 -0.03230469 0.05928767 -0.07655542 -0.04122047 -0.00896765 -0.02271822 -0.0305152 -0.07494949 -0.05694675 0.0046203 0.09020057 -0.09212387 -0.08312012 0.06339796 0.03260561 0.05242121 0.02192312 -0.0592956 -0.03222049 -0.05337695 -0.06345322 0.02178998 0.03978769 -0.0939455 -0.08657977 -0.08715487 -0.08182459 -0.0808208 -0.08020678 0.09527516 0.03169031 -0.01549146 -0.06195384 -0.09468941 -0.01009597 -0.09740935 -0.06452288 -0.00219797 0.05389944 -0.03355344 0.00030963 -0.03272636 0.08447602 0.08594142 -0.02914296 -0.08066031 0.01019415 -0.01112924 0.00383393 0.08574545 0.00035827 0.02076665 0.09723461 -0.03816508 0.02923783 0.04010494 -0.03011512
aoj-x-bible-mufian 0.07440849 0.00654138 0.00722467 0.06640707 -0.05203126 -0.05429763 0.03294132 -0.11994801 0.03874141 0.08732904 0.00951416 -0.03194649 0.00355747 -0.11081661 0.04670177 -0.00318396 -0.03326383 -0.10784743 0.00363781 0.09936947 0.10625959 0.02010628 0.09633578 -0.00296231 0.03884196 -0.02537204 -0.04106223 0.08087976 -0.04410119 0.06843181 -0.04454461 -0.05682502 -0.02438222 0.02712999 -0.05151676 0.01724331 0.11107277 -0.00729742 -0.04866979 0.00386283 0.04561983 -0.06765178 0.08941255 0.01779999 -0.12239952 0.02319063 -0.08775779 0.00610022 -0.05213131 -0.03459879 0.08745631 -0.05937761 0.10053107 0.00741618 0.08849265 -0.05840082 0.02605913 0.06034826 0.00013734 -0.00157289 0.06688455 -0.1001983 0.01323642 -0.02383276 -0.07261953 0.05751889 -0.04680591 -0.01098884 -0.03787957 0.06093401 -0.07326783 -0.08278815 0.05942805 -0.06368002 0.05802966 -0.04117018 -0.03854645 -0.02802067 -0.01338276 0.02629411 0.09795607 -0.04593877 0.08751447 0.08193358 0.04127061 -0.11154098 -0.06367882 -0.08902006 -0.05374451 -0.01753671 0.00332071 -0.09551497 0.0236314 -0.03180064 0.10546362 0.10256758 0.06950872 -0.05687508 0.0101968 -0.003308
aom-x-bible 0.07026231 -0.08887529 0.07640263 -0.037951 -0.01066064 0.09587239 0.1156664 -0.12210578 -0.01457418 -0.06863663 0.00701184 0.06862742 -0.02106834 -0.10212129 0.0042935 -0.03526432 -0.03426586 0.07551381 -0.03113353 0.01564999 0.05385721 0.11220717 0.07927344 0.06152253 0.00829239 0.03840921 -0.05970125 -0.00298193 0.04143101 0.02148904 0.08343689 -0.09638825 -0.09401657 0.09745082 -0.0502545 -0.00720121 -0.04656324 -0.05132915 0.01667997 0.0141666 -0.11585729 -0.03060988 -0.06897555 0.11534077 -0.05969717 -0.04932286 0.07971055 -0.03155034 -0.03296903 -0.05613881 0.02781713 -0.03757616 -0.01560208 0.02948396 0.09293426 -0.01147442 -0.02506568 0.05187739 -0.09030734 0.06846514 -0.00561753 -0.05938178 -0.01291065 -0.03764353 -0.10372598 -0.02479688 0.00294764 -0.05560537 0.06379607 -0.03193023 0.08024345 0.02011982 -0.10873871 -0.03090752 -0.04758691 0.0030677 -0.09323353 -0.09687891 0.04192485 -0.02308464 0.05007668 0.07534493 0.04886135 0.02672174 0.00981581 -0.03014437 0.08667266 0.04825618 -0.03407947 0.06131276 -0.02495455 -0.10216874 0.01918008 0.06435625 0.07635541 0.09819201 0.00073072 -0.05910758 0.10322423 0.01139595
aon-x-bible 0.02521888 0.03443003 -0.10271308 0.08397039 0.11904506 0.03600326 0.10765252 -0.09227573 -0.07687488 -0.02222491 -0.02650539 0.10386154 0.05198031 -0.0779858 0.02341392 0.08377601 0.08615775 0.05029906 -0.00897012 0.02119572 -0.08200529 0.0658951 -0.01344909 -0.05476133 -0.02331365 0.00643737 -0.02586025 0.00961418 0.03328291 -0.08497177 -0.05612466 -0.00033022 -0.0475933 -0.00401095 -0.01487681 0.00198171 0.07194193 -0.1096844 0.00789112 -0.01126355 0.03272539 -0.09554411 0.00308404 -0.03112696 -0.12666216 -0.02193065 -0.10533689 0.04863092 0.01631302 -0.09369824 -0.05397839 0.02416726 0.08199564 -0.0078726 0.10290564 -0.02488395 -0.04994505 -0.06769525 -0.08918281 -0.01991943 0.09809027 0.07785996 -0.05109485 0.0295738 -0.05052682 0.10357718 -0.01260842 0.14283022 -0.07681397 0.07492745 -0.10696834 0.0788337 0.06622647 -0.04234958 -0.06772446 0.01854928 -0.02812377 -0.07672077 0.07358436 -0.08078081 -0.04819291 0.05751225 0.08845083 0.09869108 0.05018875 -0.06264713 0.05383163 0.00126904 -0.09380931 -0.04119266 -0.02593929 0.01031233 0.05079352 0.09495889 -0.05457591 0.04558166 0.10056875 -0.10278342 0.14310074 0.06940622
aoz-x-bible 0.09098759 -0.0584252 0.02474073 0.08265934 -0.00744967 0.06969249 -0.02879051 0.01930952 -0.07228383 0.0188207 0.0068539 0.00034826 0.07259618 0.03532657 -0.05719903 -0.06154552 0.01565346 -0.0058584 0.00458259 0.08992738 -0.07786378 0.02123788 0.01757123 -0.09001881 0.01252377 -0.036839 0.10302126 0.0303342 0.05215025 -0.03097352 0.02860562 -0.03356979 -0.09479424 0.09181686 -0.08043703 0.03401674 0.02416786 -0.02812289 0.06479616 0.00994307 -0.08747333 0.0411028 -0.00523216 -0.02080148 -0.07578143 0.00239184 0.06231169 -0.04392799 0.02399464 0.00120592 -0.09549114 0.08942517 -0.00454805 0.07259619 -0.04869564 -0.05986335 0.01950165 -0.04814222 -0.07672103 -0.02723963 -0.09626397 -0.07591189 0.03453937 -0.05489828 0.02748419 0.01744503 -0.08082176 0.03062665 0.06913116 -0.0972966 -0.00860182 -0.07913665 0.01629986 0.0142576 -0.02410926 -0.03656481 0.00976366 0.0452182 -0.08777425 -0.0611784 0.05938443 -0.08239233 0.09696495 -0.05551776 -0.00201444 0.04959844 -0.01495807 -0.03294093 0.09090251 -0.02809728 -0.08458354 -0.05849345 -0.0890945 -0.03616274 0.01828298 -0.06369596 -0.08141041 -0.04440842 0.07780164 -0.01933661
apb-x-bible 0.02996794 0.06609198 -0.07933588 -0.07900004 -0.08059697 -0.06254524 0.09012582 -0.01835946 0.00530504 0.02592653 -0.08569332 -0.00266231 -0.03292736 0.08132964 -0.03685898 0.05139648 0.05824563 -0.03879633 -0.01976323 -0.01388645 0.10073454 -0.03272562 -0.04128743 0.04702627 0.00808877 -0.06890374 0.05154194 0.07902749 0.05972591 0.041309 0.00303542 0.07919431 -0.05926883 -0.04864953 0.07443958 0.0068622 0.06036102 0.06265851 -0.04151747 -0.01035285 -0.05072255 -0.08229152 -0.09091875 0.10120627 0.06180817 0.09489671 0.00391083 0.07340839 -0.08874334 -0.08852325 0.02197195 -0.05630567 0.04175779 -0.0442979 0.02442579 -0.04641246 0.00410214 -0.01352113 -0.07139507 -0.06202151 0.07248528 -0.06320981 0.04578568 -0.06705479 -0.03914661 -0.07180565 0.07452174 0.06978331 -0.08171266 0.03763421 0.0580063 0.03739403 -0.0753794 -0.08330722 -0.02327256 -0.08462377 -0.01097517 0.06450514 -0.08703228 0.00721645 -0.09358262 -0.04750755 0.04272115 -0.06218849 -0.01098195 -0.08384488 -0.09971597 0.0725249 -0.06915233 -0.01473462 -0.09298912 0.00398589 0.0823057 -0.03282614 0.04516374 0.0652514 -0.02650151 -0.08538079 0.01087219 -0.04119854
ape-x-bible 0.03300556 0.04732519 0.05218571 0.06984194 -0.07746965 0.10790375 0.06940917 -0.08267144 0.02267093 -0.01836268 -0.00154946 0.08479083 0.07887907 -0.06349168 0.0017751 0.00548381 -0.03632741 -0.04351785 -0.02446202 0.0048643 -0.06042018 0.01136586 0.09805686 -0.06995216 0.01526662 0.0676909 0.00475139 0.08044897 -0.09007331 -0.01585705 0.05770335 -0.07534809 0.04003546 0.05362251 -0.06368901 0.08074386 0.08412602 -0.0044281 -0.04441681 0.0628234 -0.0154618 -0.07455019 0.09721616 -0.08063112 0.0638502 -0.05640175 0.0142506 0.03664001 0.01601091 0.0382137 0.08577935 0.01796764 -0.02087768 0.06515178 -0.02705557 0.02977903 -0.07687691 -0.01898036 -0.03141422 -0.04550298 0.09502111 0.00085118 -0.0925509 -0.0523424 0.04859184 -0.07949452 0.03839432 -0.03501249 -0.05628921 -0.0912772 -0.10439147 -0.02376259 -0.02094411 -0.09231277 -0.00097745 -0.00786372 0.00562214 0.01904289 -0.08059602 -0.00999342 0.02715415 0.08109418 0.0141813 0.03255646 -0.02316946 -0.01303833 -0.08791577 0.07330155 -0.03644852 -0.04627677 -0.09237217 0.00202065 0.10197546 0.04173401 0.00540217 -0.01625802 0.00540603 0.03905907 0.08725458 0.0021171
apn-x-bible 0.01118191 -0.06840866 0.08572653 -0.07479744 0.01575701 0.02386847 -0.02827577 0.04973538 -0.0400277 -0.06493159 -0.05395116 -0.08731274 0.07443456 0.03194163 -0.06974715 -0.01948822 -0.02153983 -0.00935088 0.00646099 0.03567822 0.04698495 0.06762529 0.04820118 0.09132459 -0.0350403 0.07181656 0.06803402 0.06636364 0.0474234 -0.06830433 0.04858162 0.03083104 -0.09586675 -0.05952775 0.05309954 0.0106118 -0.00970652 0.0703368 -0.05964293 0.04151616 -0.06852426 0.06535634 -0.0230833 0.04167661 -0.0255559 0.04909239 -0.08139509 0.05100242 -0.08704168 -0.08927152 -0.02345694 0.01025649 0.02049318 -0.03504813 0.01594834 0.08336593 0.02469618 -0.07887065 0.09343019 -0.06899182 -0.04787248 0.0174095 0.07038385 0.05970893 -0.01858948 0.09711447 -0.01611414 0.04975329 -0.0500293 0.07920939 -0.00051182 0.08433289 0.00377172 0.03707047 0.06313403 0.02836308 -0.09824715 -0.06605814 -0.0251766 -0.08455137 0.02279161 0.09987225 -0.00395811 0.0272168 -0.03403484 -0.07845246 -0.09750313 0.04282007 0.06706397 0.08158369 -0.0513079 0.07830676 0.10405879 0.09404317 0.0915786 -0.06784952 -0.02791574 -0.00617126 0.09541778 -0.09567223
apr-x-bible 0.05992261 0.07631195 -0.0225079 0.10448337 0.08888973 0.0539091 0.01716023 -0.10415277 -0.08882112 -0.05054085 0.08917633 -0.01992941 0.09289418 0.07625031 -0.0154199 0.08919296 -0.10316125 -0.04118764 -0.0757412 0.0425581 0.10825674 0.11111255 0.0534993 0.01405045 -0.09293973 0.07608079 -0.07829201 0.01035685 -0.06665946 0.08716679 0.00952006 0.04526576 -0.06259485 0.03769705 0.02213817 0.08136638 0.06652531 -0.00577128 -0.05725498 0.00740921 0.01023526 -0.08985475 0.03953183 0.09048817 -0.13729528 0.10237517 -0.00388541 -0.09377242 -0.06993341 -0.0457271 -0.06007446 0.00706642 0.01465979 0.03127889 0.04311364 -0.00501053 0.0533421 -0.03314353 -0.04654169 0.05267882 -0.03313268 -0.07789302 0.0505836 0.03208941 -0.04690406 0.08783978 0.03697597 -0.01148973 0.02685037 -0.01296518 -0.07796667 0.05170935 0.0197757 0.01719899 -0.10020236 0.07281695 0.00299954 0.00873601 -0.01113256 0.01009318 -0.060511 0.08854846 -0.03512811 -0.05950267 0.04172965 -0.03166892 0.0247452 -0.06394894 0.0145326 -0.06212428 -0.09589979 -0.06805397 -0.01402231 0.04957647 -0.05176236 -0.02208379 -0.06970561 0.07684748 0.07976656 0.03188172
apt-x-bible 0.09127934 -0.04378403 0.07194015 0.08535136 -0.01928394 -0.01230679 0.01884914 0.00604016 -0.03162477 -0.09330554 -0.08566295 0.0833404 0.03338096 0.10498357 0.05000482 0.07978216 0.01881073 0.00294221 0.06314204 0.0544578 0.06279422 -0.03603929 0.02116678 -0.07590935 -0.07108286 -0.03453923 0.00151485 -0.10441964 0.10536344 0.03992428 -0.03865437 -0.0541422 0.06993115 0.00751305 0.07663949 -0.02885526 0.00874505 0.09742033 0.04195879 -0.09476996 -0.05395719 -0.0857386 0.01548054 0.07626073 0.03976585 0.05390425 0.03686715 -0.08332322 0.03787791 0.03160665 0.05845535 0.05232659 -0.06187456 -0.05451646 -0.06752472 0.07366399 0.07454493 -0.00917961 0.05818347 -0.00182081 -0.08063713 -0.02601299 0.096637 -0.07369759 -0.03394971 0.012429 -0.07052056 -0.04558752 0.0322012 -0.02415701 0.05774735 0.05889765 0.10609566 -0.00615554 0.10491559 0.01993937 -0.06627926 0.07943433 -0.01337651 0.01841618 0.08876853 -0.06456243 0.02165773 -0.03079368 0.06586312 -0.01541823 -0.00341898 -0.04747229 -0.00757227 -0.03300976 0.07614096 0.07324385 -0.01271203 -0.08504447 -0.03694477 0.06882423 -0.11157676 0.05939832 0.04369968 -0.0093696
apu-x-bible 0.0969153 0.09558146 -0.07518905 -0.06366336 -0.04652163 -0.06945473 0.05690907 0.05515224 0.04112342 -0.05385589 -0.0821643 -0.02206215 -0.08566997 -0.01790135 -0.04380088 -0.06093061 0.04651235 0.02455446 -0.05707855 -0.0789003 -0.08999415 0.03595532 -0.07864955 0.00361905 0.03175204 0.01183799 0.01517001 0.0368339 0.02241547 -0.04755397 0.10268392 -0.05685503 -0.07626069 0.04709619 0.08085055 -0.00788485 -0.03991165 0.10661051 0.03612403 0.05639473 -0.01843169 -0.00510724 -0.03787133 -0.06315577 0.07658517 0.04430296 -0.04531507 -0.09113494 -0.07714934 -0.05249863 -0.06975242 -0.0420103 0.03341848 0.07110149 0.08777885 -0.08401719 0.00965324 -0.09207436 -0.07091447 -0.07722518 -0.10025437 -0.03490965 -0.06857529 0.03918532 0.07290441 0.07161511 0.00445754 0.09552031 0.02865645 0.03247323 0.02177222 0.02708547 0.08958454 0.03459385 0.04405041 -0.01787094 -0.02291011 0.0164735 -0.07932526 0.09193933 -0.05577745 -0.09424913 0.01576174 0.02981292 0.10658922 0.05135625 -0.04894283 0.0117175 -0.0301574 -0.07241333 0.05077309 -0.01544357 -0.01228109 -0.08542578 -0.04974429 -0.00868805 0.04431778 -0.03619657 0.07249028 0.07807194
apw-x-bible 0.01535552 -0.05320593 0.0031586 -0.06085385 -0.01608535 0.0209792 -0.00429041 0.02415987 -0.0257998 -0.01646041 0.03996102 0.01094733 0.02263618 0.07239479 -0.05929556 0.00022216 -0.07999674 0.01795364 0.10510271 0.02782275 0.05629187 -0.03338128 -0.01309965 0.0129497 -0.04138399 -0.02119682 0.07545521 -0.07796194 0.08957984 0.04328772 -0.09316939 -0.06150327 -0.02378479 0.01178331 0.0674571 -0.06167145 -0.10328955 0.06900921 -0.12356874 -0.00550504 0.05187249 0.08648711 0.03007841 -0.10903284 0.02721515 0.07147145 0.05432978 -0.01768084 -0.0244458 -0.00387021 -0.0746557 0.06066597 -0.00557911 0.05711107 -0.11013705 -0.02181561 -0.11162905 -0.03127421 -0.08539252 0.00317752 0.06317727 0.01762483 -0.05600552 0.02144186 -0.03142434 -0.04308297 0.02896305 -0.04332141 0.03876209 -0.05988085 0.06314252 0.03028557 0.05477928 0.04188713 0.03148517 0.07258943 0.0738683 0.09525211 0.07390141 0.08262382 0.02222147 -0.05615769 -0.03901249 -0.04111179 -0.10833549 0.0759033 -0.08388457 0.01274669 -0.02288635 -0.0502225 -0.09932572 0.02076589 0.02730775 -0.03787249 -0.06461994 0.09441108 -0.04677798 0.01093743 -0.12791495 -0.03261509
apy-x-bible 0.0377934 -0.0211722 -0.05314737 0.0501655 0.04003009 0.08021733 0.08308123 -0.03363744 -0.04351516 0.05697922 -0.03099369 0.10255652 0.05911953 0.07315823 -0.02672484 0.06726429 -0.03882078 -0.10488594 0.03033698 0.04867204 0.03867185 0.06267155 -0.01029041 0.06309637 -0.01190344 -0.00699485 0.06513365 0.02135931 -0.01485526 -0.05975989 0.09577829 0.03491661 0.10080773 -0.01021686 0.05552424 -0.01488614 0.04482564 -0.09654827 -0.0448916 -0.05519547 0.03470756 0.0158185 0.03979025 0.05041279 -0.03813037 0.01680022 0.02616077 -0.06114591 -0.09859917 -0.06533792 -0.07668414 -0.09067572 0.00381721 0.00951186 0.09768268 -0.09431828 -0.02321122 -0.03548719 0.0138014 -0.02649835 -0.06430643 -0.09364609 0.03650773 0.05391961 0.00547123 0.0731922 0.07455242 0.04120529 -0.04525627 0.01648107 -0.02229002 -0.02697506 -0.04068977 0.02410071 -0.10634824 -0.0833426 -0.09152513 0.06580856 0.05360366 0.07846908 -0.06176815 -0.05660645 -0.06266751 0.01110748 -0.01933205 -0.00540127 -0.0138669 -0.09891326 -0.05732562 -0.0294732 -0.03734484 -0.06289218 -0.0642239 0.0208411 -0.01446094 0.01560316 0.03940437 -0.02669168 -0.08066726 0.00583209
apz-x-bible 0.00928633 -0.0737958 -0.06180839 -0.0397006 0.04303329 -0.01385773 -0.03519158 -0.08197428 -0.01958262 0.04012538 0.03243551 0.01318505 -0.02079724 -0.02827794 0.03578361 0.06852363 0.08663783 0.04720084 -0.0864038 -0.0238796 -0.04908322 0.0844443 -0.08687825 0.01333201 -0.0698618 0.05093759 -0.03675432 0.10435826 -0.01456164 -0.06192508 0.04563493 0.01143429 -0.08416115 -0.03889829 0.09250362 0.06147236 0.04806591 0.07765149 -0.04701551 0.03541514 -0.07646173 -0.02178343 0.05896529 -0.01715124 -0.04264568 0.03103384 0.003658 -0.09606427 -0.04740741 0.03496563 -0.06126694 -0.00172073 0.10283941 -0.01349099 0.03314437 -0.00900958 -0.02872251 -0.02229762 -0.08706435 0.04454417 0.05512013 -0.00867189 -0.0350477 -0.04013447 0.01939261 0.04872973 -0.01136569 0.10906326 -0.04914595 -0.03589591 -0.03263159 0.05000588 0.06638369 -0.02066336 -0.03711836 0.07612534 -0.047063 -0.02145883 0.02273042 -0.09515847 0.05888107 0.01329037 0.04452725 0.02773003 0.02708103 -0.02008691 -0.03220879 0.04613055 -0.02515502 -0.04281184 0.05381912 -0.04139277 -0.02176045 -0.00660217 -0.04390201 -0.03555467 -0.09199376 -0.0201623 -0.01076877 0.01274577
