943 64
aai 0.25229 0.33151 -0.2529 0.24138 -0.14707 -0.07391 0.80648 -0.45846 0.4594 0.54403 -0.1903 0.30939 -0.47042 -0.24802 -0.5672 0.01215 -0.04313 -0.57405 0.00262 0.29738 0.09481 0.35515 0.58203 -0.03546 0.47273 -0.06067 0.25793 -0.00212 0.10747 0.21948 -0.01648 -0.24108 0.58741 -0.25313 -0.17082 -0.5301 -0.0512 0.2211 0.38905 0.43167 -0.31532 0.13711 -0.00648 0.17772 0.11808 0.68241 0.23371 0.14041 -0.1191 -0.15914 0.05777 -0.54959 -0.04109 -0.1014 0.20787 0.10193 -0.1714 -0.59334 -0.56266 -0.34338 -0.38851 0.50294 0.0842 -0.15768
aak -0.33172 -0.32915 0.0045 -0.07578 0.21084 0.12094 0.38799 0.0102 -0.11681 0.27078 0.25895 0.09018 0.21139 -0.23701 0.44111 0.04338 -0.01937 -0.22103 0.08421 -0.15303 0.01431 -0.0835 0.21188 -0.32988 0.0973 0.30061 -0.19166 -0.33051 -0.21534 -0.3145 0.28159 0.79639 -0.2274 0.06422 0.61406 0.20681 -0.2356 -0.04964 0.55057 -0.38818 0.48184 0.04386 -0.1302 0.44628 0.21361 -0.2814 -0.19749 0.15884 -0.19469 -0.01663 -0.63235 0.24566 0.04403 -0.16402 0.33072 0.16641 -0.34853 0.01975 -0.06534 -0.68354 0.27308 0.17482 -0.32091 0.02932
aau 0.25003 0.0715 -0.08015 0.50685 -0.10863 0.20939 -0.16086 0.32776 0.22097 -0.11409 0.14282 -0.14514 0.63199 -0.32104 0.72737 -0.02162 -0.23715 -0.02301 0.35279 0.27111 -0.09038 0.15759 0.2989 0.13034 0.32738 -0.2768 0.07995 -0.5801 0.06791 -0.02443 -0.11335 0.16966 -0.12725 0.5652 0.05589 0.22995 -0.29521 -0.30951 -0.06579 -0.43621 0.20794 0.19815 0.09266 0.07166 -0.41885 0.1311 -0.34719 -0.04718 -0.18211 0.37413 0.06679 -0.14498 0.00527 -0.02948 0.06339 -0.29737 0.13395 -0.2231 0.26443 -0.51312 -0.25238 0.02241 -0.12222 0.22571
abt 0.19296 0.12634 -0.06865 -0.06931 -0.45359 0.11027 -0.00559 -0.5304 0.08229 -0.49334 -0.02889 0.30602 -0.0404 0.5872 0.02373 0.02076 -0.04586 -0.34926 0.15142 -0.01632 0.4026 0.00566 0.24735 0.42607 -0.0606 -0.12884 0.10715 -0.02627 0.42457 -0.07154 -0.20037 0.50966 0.53957 -0.03281 0.11384 -0.04206 -0.03809 0.27167 0.69188 -0.14057 0.6453 0.19613 0.07138 0.24006 -0.45055 -0.71221 0.08109 -0.41181 -0.10805 0.29996 -0.213 0.30946 0.10592 0.17982 -0.40076 0.13405 0.14748 0.2845 0.42631 0.30768 -0.25022 -0.20145 0.09759 0.01118
abx 0.4166 0.48448 0.27449 -0.23331 0.03638 -0.1461 -0.24385 0.83141 0.18685 0.10322 -0.2211 -0.08638 0.24514 0.19096 0.07864 0.47709 0.78646 -0.25172 -0.2441 -0.0077 0.12702 -0.21252 -0.62113 -0.05746 -0.11943 0.08211 -0.14032 -0.25373 -0.25902 0.18047 0.09899 0.38352 -0.55312 -0.03449 0.15841 0.2754 0.19331 0.18268 -0.02071 -0.17288 -0.04862 0.1668 -0.70469 0.3842 0.49927 -0.21037 0.3033 0.34947 0.00477 0.49129 -0.33152 -0.1782 0.04604 -0.12544 -0.09369 0.29325 0.11463 0.26559 -0.00345 -0.15238 0.40788 0.13182 -0.22284 0.39428
aby 0.0899 0.49096 -0.14203 -0.10753 -0.58748 -0.36363 0.25448 -0.11204 0.28707 -0.11193 -0.44071 -0.06451 -0.33949 0.0781 0.01655 -0.80825 -0.28817 0.4099 -0.69065 -0.07308 -0.09878 0.14623 0.32358 0.01012 -0.5443 0.0297 -0.03896 0.10464 0.01236 -0.28823 0.06349 -0.40583 -0.24681 0.47422 -0.0341 -0.31448 -0.32825 0.11199 0.1144 0.04669 0.15727 0.17257 -0.55623 0.22891 -0.24341 0.29032 -0.46798 -0.44781 0.31863 0.05869 0.07368 0.08604 0.04531 0.46035 -0.33613 -0.14413 0.16914 0.18496 0.2238 -0.51499 -0.69426 -0.19476 0.11088 0.00283
acd -0.4663 0.15952 -0.0597 -0.16794 -0.30727 -0.05304 -0.15426 -0.25453 0.00408 -0.36165 -0.41609 0.32408 -0.05441 0.40228 -0.35977 0.27776 -0.27396 -0.05026 -0.18065 0.59824 -0.3722 0.07488 -0.06932 0.15299 -0.23034 0.06814 -0.12061 0.17281 -0.27957 -0.03906 -0.198 0.29983 0.19316 -0.20039 -0.24528 0.44997 -0.26052 -0.0375 0.48096 0.00658 0.18923 0.23381 0.13206 -0.26884 0.04778 -0.58208 -0.12266 0.45367 0.05045 0.02743 0.63728 -0.17107 0.64104 0.26424 -0.11988 0.34713 0.0137 -0.00848 0.10017 0.73449 0.40906 0.28515 -0.37711 -0.02892
ace -0.52658 -0.14592 -0.06054 -0.1501 -0.38254 0.03299 -0.21469 -0.59911 0.31699 -0.05017 0.33649 -0.33533 0.11544 0.23869 -0.18999 -0.26154 0.49536 -0.54053 0.07223 -0.58724 0.01455 0.11174 0.18739 -0.07895 -0.29998 -0.24808 -0.18544 -0.31857 0.2525 -0.24604 -0.17603 -0.48252 -0.16249 -0.19121 -0.19931 0.42504 0.65732 -0.07376 0.1239 -0.21206 -0.22044 0.02555 0.19718 0.56673 -0.16627 0.17031 -0.18146 0.4091 0.22818 0.02787 0.21969 -0.19458 0.15467 -0.10573 -0.21074 0.20285 0.00605 0.20723 -0.09809 -0.00526 -0.65114 0.10111 -0.3034 0.18343
acf -0.39259 0.1266 -0.27227 0.2451 -0.00211 -0.59748 0.01956 -0.20613 0.18989 -0.0532 -0.24137 -0.00609 0.2332 0.24543 -0.08999 0.00246 0.0889 -0.24167 0.27795 0.0122 -0.04375 0.72381 0.10969 0.79356 0.26456 -0.78162 -0.05924 0.49433 0.03728 -0.35018 -0.00311 -0.42769 -0.3925 0.15484 -0.07621 -0.21545 -0.06659 0.33148 0.31813 -0.29311 -0.10665 -0.08686 0.05352 0.12202 -0.2982 0.2069 0.11152 0.17174 0.25126 0.0028 0.19744 -0.33656 -0.36242 -0.33205 -0.22097 0.48224 -0.30809 0.18685 -0.40773 -0.26188 0.15844 0.04893 -0.43785 0.13444
acn -0.2189 -0.11081 -0.45635 -0.65486 -0.03187 0.20406 -0.17551 -0.06452 0.12874 0.11613 0.00192 -0.02525 -0.16287 -0.17481 -0.06642 -0.45707 -0.29193 -0.36607 0.24934 0.13808 0.07167 -0.23775 -0.4849 -0.05124 -0.29391 -0.04073 -0.20233 0.0534 0.29433 -0.20849 0.35121 -0.00431 -0.15576 -0.31269 0.19441 0.41578 0.31663 -0.00121 -0.49128 0.0468 0.18301 -0.41221 0.39104 0.24114 0.0593 0.12633 -0.24294 -0.14587 -0.32012 -0.13634 -0.13369 -0.38657 0.00627 -0.47295 -0.05791 0.16575 0.36723 -0.1562 -0.11367 0.25029 -0.19398 -0.0488 0.2578 0.78745
acr -0.05687 0.11772 0.06796 -0.57421 0.02608 -0.05066 0.09119 -0.02411 0.03231 0.00635 0.32693 0.06616 -0.0329 0.04621 0.01176 0.26234 -0.10912 -0.0664 0.41782 0.05137 -0.00227 -0.28631 0.10968 -0.05413 -0.41978 -0.31699 -0.33799 0.05954 -0.08211 0.40993 0.52933 -0.12125 0.25769 0.63192 -0.46181 -0.25901 0.25781 0.1504 0.3479 0.36339 -0.05664 -0.01732 -0.68558 -0.16997 -0.10284 0.14369 0.20702 -0.03346 -0.04219 -0.15835 0.07412 -0.61488 -0.00229 -0.15251 0.16054 0.26019 -0.03158 -0.37431 0.41988 0.02965 -0.22021 -0.0057 -0.30632 0.0551
acu -0.13847 -0.45674 0.20282 0.06883 0.24481 -0.3375 0.01388 0.17825 -0.16875 -0.2549 0.49511 0.21241 -0.22796 0.38129 -0.46269 -0.06074 0.24771 -0.0381 0.39758 -0.29839 0.02903 -0.36883 -0.2986 0.36694 0.11903 0.15174 -0.1044 0.00555 0.18824 -0.65835 -0.00043 0.02156 0.02392 0.10927 -0.21369 0.01566 -0.17527 0.42153 0.5138 0.23894 0.058 0.01337 0.05483 0.3547 -0.02549 0.07876 -0.09195 0.01482 -0.06736 0.08965 -0.13533 0.0383 0.00623 0.1713 -0.07965 0.32217 -0.00505 0.27205 0.20773 0.21299 0.1718 0.26149 0.22922 0.2371
ade -0.41325 0.24769 0.3798 -0.22764 0.239 -0.21207 0.25951 -0.06921 -0.1045 -0.40275 -0.05945 -0.35985 0.12346 0.08539 0.69992 0.20521 -0.10644 0.26921 -0.14908 0.1412 0.01024 0.0152 0.15728 -0.08163 -0.33588 0.02178 0.69025 0.11661 -0.55689 -0.02408 -0.07338 -0.14436 0.40658 0.00596 0.52103 0.09669 -0.10474 -0.03611 0.02071 -0.11989 0.37163 0.59761 0.47146 0.14016 -0.33159 -0.40475 0.19828 -0.26661 0.00906 -0.21613 0.55972 -0.04085 0.35942 0.00934 -0.0433 0.14188 -0.47087 -0.42845 -0.54795 0.3354 0.57831 -0.3098 -0.43246 -0.31327
adh -0.24558 0.31394 0.09024 -0.31801 -0.32601 -0.15324 0.23924 -0.16646 0.30455 -0.37258 0.11639 0.00252 0.15096 -0.4771 -0.04204 0.01248 0.52525 0.16173 0.24367 -0.408 -0.5798 0.10148 -0.26651 0.09778 -0.1087 0.51811 0.16857 -0.92348 0.86441 0.31922 0.27048 -0.20118 -0.0623 0.39276 0.01617 0.09012 -0.03947 0.38513 0.0268 -0.21323 -0.39132 -0.46742 0.10426 0.21279 -0.21722 0.09529 -0.05079 -0.04509 -0.56782 -0.12329 -0.2932 0.17733 0.26515 0.36376 -0.04513 0.50529 -0.18451 -0.19247 0.02527 -0.15751 -0.51329 -0.07569 -0.20863 0.28864
adj -0.57745 -0.08357 -0.08083 0.22568 0.05627 -0.07906 -0.14949 -0.58746 0.43572 -0.25891 -0.11148 0.46442 -0.15345 -0.06385 0.18565 0.16961 0.06039 -0.08442 -0.33535 -0.50364 -0.22435 0.07781 0.19459 -0.08888 -0.21598 0.06392 0.04908 -0.06673 -0.03467 -0.56679 -0.18575 0.20841 0.13232 -0.12857 -0.50398 -0.42384 -0.03459 0.17247 -0.37163 -0.35343 0.12075 -0.60192 0.11695 -0.31093 -0.1265 -0.21788 0.4455 -0.08521 -0.21986 0.38648 -0.03672 0.26595 0.27042 -0.45307 -0.04294 -0.00597 -0.15488 0.28367 -0.05991 -0.55589 0.24542 0.11443 -0.2263 0.06202
aey 0.01669 -0.03454 0.40941 0.12431 -0.50225 0.04371 0.2816 0.22948 -0.32392 0.04506 -0.62858 0.09369 -0.34301 -0.26362 0.50486 -0.3918 0.28843 0.25181 -0.23081 -0.24823 0.02753 -0.22028 -0.06547 -0.51052 -0.19077 0.16733 0.15624 -0.03477 -0.03539 0.05704 -0.39526 -0.41257 0.44775 -0.26212 -0.48235 0.00054 -0.44811 0.14693 0.13907 -0.28334 -0.69981 0.36071 -0.18963 -0.41463 -0.02573 -0.30259 -0.11415 0.20663 -0.61973 -0.36241 0.11385 -0.24544 -0.49077 -0.07356 0.45986 -0.02007 0.64831 -0.14207 -0.3351 -0.1327 -0.11912 -0.5883 0.19945 -0.07814
afr -0.08117 -0.11256 0.27682 0.18676 -0.51137 0.11152 -0.25956 0.03288 0.01495 -0.12701 -0.12886 -0.23999 0.39989 -0.26312 -0.0756 0.09866 -0.37382 0.0825 -0.24832 0.23165 0.12467 -0.01456 -0.12167 0.0355 -0.05624 -0.13914 -0.12348 0.00476 -0.04039 -0.17609 0.21586 0.10643 0.50533 -0.1384 -0.12663 0.0702 0.04481 0.01328 0.10612 0.36384 0.32623 0.35754 0.0111 0.22097 0.35569 0.23174 -0.19046 -0.03282 -0.14381 0.20741 0.14665 -0.14039 -0.06624 0.44048 0.15507 0.05789 0.12227 -0.08274 -0.09254 -0.23236 0.01117 0.32069 0.19226 -0.33995
agd 0.20313 -0.29649 0.5628 0.14398 -0.33996 0.18124 0.10123 0.39895 0.01275 -0.33753 -0.0593 -0.53918 0.20864 -0.25307 -0.00044 -0.09679 -0.09201 0.36249 -0.063 -0.37757 0.02204 -0.15528 -0.2332 0.49295 0.08412 -0.41395 -0.23392 0.55061 -0.36336 0.47138 0.06041 0.30094 0.13961 -0.64635 0.23058 -0.49717 -0.19707 0.01761 0.65099 0.32245 0.00928 0.4479 -0.00945 0.04669 -0.68197 0.05688 -0.16429 -0.1713 -0.08336 0.29566 -0.15073 0.28419 0.37444 -0.13731 0.31025 -0.27378 -0.29337 0.23276 -0.4389 -0.81336 -0.05333 0.18679 0.34173 0.04711
agg 0.13167 0.07402 0.22919 0.2522 -0.01424 0.46783 0.39287 -0.09376 -0.0631 -0.40372 0.15975 -0.12135 -0.29145 -0.26384 -0.55348 -0.47319 -0.31286 0.3485 -0.01055 -0.33068 0.01578 -0.07438 0.12082 -0.0363 0.38261 0.38834 0.19077 -0.05577 -0.39368 -0.32007 -0.02677 0.09535 0.17608 -0.39623 -0.40846 0.6491 -0.27427 -0.07335 0.21928 -0.30872 0.46968 -0.309 0.46696 0.28325 0.24858 -0.43924 0.06003 -0.25965 -0.05318 0.11185 -0.18053 0.32496 -0.23833 0.23217 -0.17556 0.42638 -0.17653 0.08671 0.43159 -0.48851 -0.07061 0.14657 -0.1305 -0.24052
agm 0.7356 0.93934 0.33997 0.51252 -0.19968 0.53401 -0.14003 0.0085 -0.27471 0.33038 -0.28508 0.44693 0.02415 0.2921 -0.19868 0.24385 -0.18962 -0.25204 0.55351 -0.37932 -0.17001 0.50206 0.08802 -0.1796 0.25111 0.21625 -0.52452 -0.27116 0.27757 0.00911 0.11593 0.35849 -0.35449 -0.3366 0.0126 0.3548 -0.21056 -0.21816 0.32758 -0.2853 0.35643 -0.41179 0.22741 0.01514 0.12475 -0.05109 -0.18776 -0.06294 0.3452 0.10878 -0.12964 0.30516 0.20882 0.6042 0.29788 -0.01856 0.35137 0.10315 -0.22054 -0.45198 -0.25863 0.16557 -0.1143 -0.04171
agn 0.29335 0.11601 0.26866 -0.15046 -0.20513 -0.16656 -0.1509 -0.06513 -0.21217 -0.22261 0.07429 -0.00852 -0.28321 -0.43993 0.16665 0.34244 -0.16809 0.23212 0.25569 -0.92283 -0.65893 0.08231 -0.31104 -0.08944 0.10774 -0.24712 -0.03185 -0.05947 -0.39363 -0.19043 0.36347 -0.46886 0.01708 -0.61613 0.89931 -0.24966 0.35059 -0.28012 -0.29016 -0.31324 -0.14824 -0.29705 -0.74023 0.22721 0.221 0.42171 -0.16922 -0.08947 -0.2818 -0.29141 0.12192 0.19331 -0.69464 -0.27695 -0.16323 0.28619 -0.19482 0.06158 -0.24485 0.10151 0.689 -0.00386 -0.33089 0.27309
agr -0.11306 -0.28631 0.15065 0.18585 0.28921 -0.44966 0.3697 -0.2406 -0.19308 -0.38326 0.56573 0.37042 -0.16586 0.02256 0.25519 0.13209 0.16828 -0.22107 -0.00624 -0.25719 -0.23393 -0.24372 0.04224 -0.06042 0.23709 0.02332 -0.45968 -0.57486 0.36991 -0.47659 0.06621 -0.39583 -0.10041 0.23527 -0.17946 -0.09839 -0.23787 0.03734 0.05723 0.1074 -0.33939 -0.19678 0.15313 -0.00429 -0.0067 0.267 -0.02319 0.34721 -0.15162 -0.12914 0.09878 0.29101 0.1333 -0.1032 -0.20288 -0.32537 0.40244 0.63946 0.31927 0.207 0.31456 0.14953 0.26858 0.07917
agt 0.33536 0.04793 -0.02698 -0.02266 -0.35565 0.57384 -0.00388 0.22468 -0.03699 -0.12313 0.08027 0.53935 0.22604 0.32707 0.18458 0.44753 -0.11181 0.40801 -0.14204 0.23173 -0.04819 -0.12744 -0.02961 0.15616 0.24876 0.17144 -0.40034 0.14244 -0.23793 0.5284 -0.22138 0.29747 0.01044 -0.16075 0.16351 -0.43471 -0.30422 -0.14588 -0.08995 -0.11932 0.15748 -0.24787 0.34182 0.22158 0.21549 0.02762 -0.08364 -0.28011 -0.1709 0.04053 0.52457 -0.77793 -0.39861 0.18389 0.16261 0.29902 -0.0847 0.11318 -0.1788 -0.07153 0.56964 0.22342 0.52437 -0.09533
ahk -0.58319 0.28276 -0.20691 0.08338 0.05969 0.08035 -0.3195 0.05543 0.55593 -0.26539 0.58379 -0.19129 -0.04155 0.60383 0.38612 0.27101 0.11565 -0.35814 -0.01199 -0.68584 0.32443 0.03596 -0.43252 -0.07158 -0.11526 0.39457 0.16148 0.29764 -0.34356 0.05228 -0.22405 -0.21989 0.1504 -0.21824 -0.10181 -0.59531 0.69446 0.53789 -0.02242 -0.01132 -0.3415 -0.23706 0.09043 -0.0954 0.08484 0.14711 0.13392 0.4141 -0.47352 -0.64249 0.59699 0.17105 -0.07715 0.8442 -0.32836 -0.63161 -0.19802 -0.28893 0.48967 -0.41677 0.02865 -0.04089 0.16905 0.66665
aia 0.27834 -0.32124 0.83017 0.64035 0.02586 0.65036 0.32053 0.07988 0.13623 -0.00345 0.17229 -0.2971 0.30914 0.40745 -0.66461 0.25663 -0.21085 0.2596 0.05054 -0.03418 -0.5201 -0.0 -0.2602 -0.00376 -0.19854 0.31629 0.21447 -0.63277 0.15986 -0.02731 -0.43961 0.21832 0.08613 -0.36105 -0.18785 0.31158 -0.55671 -0.17481 -0.58423 0.01131 -0.3509 0.35671 -0.10637 0.56441 -0.01844 -0.22722 -0.204 0.25247 0.06873 0.69957 -0.36012 0.009 -0.10726 0.11573 0.00584 -0.0854 0.29432 -0.33766 0.39354 -0.30933 -0.26989 -0.36205 0.2671 0.11287
akb 0.35077 -0.19229 0.06923 -0.06589 -0.14494 -0.08299 -0.04887 0.09114 -0.05502 0.08739 0.08301 -0.17854 -0.19123 0.00272 -0.09511 -0.17137 -0.30832 0.1457 0.53301 -0.17143 0.18521 0.25546 -0.11755 0.17162 -0.49911 -0.08719 -0.20082 -0.13151 0.29656 0.19539 -0.30794 0.19286 0.40191 -0.38847 -0.00422 0.06154 0.38997 -0.18534 -0.23712 0.19245 0.31118 -0.46343 -0.26626 0.26844 0.28526 -0.04097 0.13679 -0.35735 0.36674 0.24387 0.38496 -0.13417 -0.24857 0.10512 0.0959 0.18865 0.65426 0.07285 -0.16503 0.14968 -0.2308 0.09346 0.09753 0.075
ake 0.34465 -0.28955 -0.29196 0.15402 -0.29381 0.4583 -0.38473 0.19933 -0.03368 0.21993 -0.38049 0.60639 0.34047 -0.34921 -0.40413 0.49456 0.11066 0.92948 0.22658 0.18545 -0.22934 0.03585 0.53799 0.35204 -0.21704 -0.22372 0.27312 -0.11487 -0.75289 -0.14747 -0.08678 0.41729 -0.50157 -0.13608 -0.1184 0.6975 -0.52815 -0.47257 0.42391 -0.10879 0.10387 0.05489 -0.08182 -0.09037 -0.01839 0.27855 0.03617 -0.07353 -0.07429 -0.17383 -0.23409 -0.02547 -0.41985 0.401 -0.05541 0.23643 -0.77395 -0.27877 0.15138 -0.56534 -0.2868 0.78603 0.46002 -0.08752
akh 0.26958 0.27953 -0.21279 0.51118 -0.25243 -0.39861 0.16861 0.10749 -0.51886 0.16094 -0.24386 -0.14961 0.15271 -0.25236 -0.09601 -0.14768 -0.39211 -0.46378 -0.24884 -0.34191 -0.04217 0.02192 -0.09244 -0.25066 -0.02176 0.09428 0.23476 -0.08688 0.03196 0.25327 -0.12586 0.11519 0.01179 0.27612 0.01939 -0.43048 -0.31554 0.25002 0.30833 0.06074 0.13274 0.1417 0.33613 0.30765 -0.17698 -0.04458 -0.1507 -0.31655 -0.33391 -0.0144 -0.10532 -0.14983 -0.01678 -0.09298 0.3357 0.42352 0.17812 -0.15411 -0.14389 -0.18417 0.091 0.05765 -0.04955 0.18294
alj 0.113 0.38995 -0.26397 0.25583 0.00941 -0.05733 -0.44286 0.06741 -0.06977 0.30515 -0.34636 0.44828 0.12432 -0.18626 0.19914 0.25052 0.44145 0.19145 0.10344 -0.02266 -0.02228 0.42542 0.18562 -0.38024 -0.10118 0.58997 0.17681 -0.22726 0.13034 0.20994 0.31627 0.53538 0.43149 -0.05676 -0.034 0.57527 -0.23873 -0.03035 0.02062 0.10288 -0.01159 -0.72108 -0.03242 0.23746 0.32047 -0.13109 -0.09033 0.43739 -0.05674 -0.56457 0.30392 0.22543 0.25572 -0.20765 -0.22597 -0.32236 -0.36323 0.47328 -0.31201 -0.1198 0.23545 -0.23385 0.08214 0.102
aln -0.08594 0.00979 -0.11294 -0.03306 -0.04941 0.04599 -0.46715 -0.22589 0.19072 -0.03072 -0.43394 -0.56343 -0.22807 0.33275 -0.01782 -0.06176 -0.21238 0.00676 0.08472 0.16931 0.16765 -0.10647 -0.03518 0.01657 -0.08262 0.06772 -0.07405 0.23679 -0.45664 -0.15815 0.11969 0.30803 -0.03667 -0.1354 0.17122 -0.17387 0.09801 0.34288 0.09755 0.11276 -0.43223 -0.41447 -0.34006 0.37691 0.0588 0.10872 -0.30033 0.11868 -0.24232 -0.08615 0.11846 -0.08157 -0.07433 -0.1653 -0.25716 0.03285 -0.11473 0.16965 0.12157 0.10118 -0.23691 -0.10991 -0.01069 -0.27224
alp -0.20199 0.8625 -0.21188 -0.05562 -0.71507 -0.00434 0.38707 -0.17669 -0.08784 -0.16983 -0.27001 0.38914 0.26954 0.21799 -0.38825 0.18679 -0.00409 0.03417 -0.36354 -0.70826 -0.15497 0.08791 0.25375 0.56855 -0.00582 0.43426 0.20067 0.05229 -0.4106 0.61589 0.17414 0.13648 0.33765 -0.37986 0.28615 0.25377 0.45222 -0.10411 -0.24292 0.57821 -0.03867 0.6034 -0.45264 -0.01698 -0.34691 0.48691 -0.21972 0.11083 0.11164 0.22743 0.35097 -0.14204 -0.37926 0.38542 0.52266 -0.15385 0.20735 0.16643 0.32794 0.02725 0.36968 -0.29527 0.34104 -0.60985
alq -0.01365 0.06596 0.19542 -0.36669 0.13995 -0.42324 0.18689 -1.29638 0.07871 -0.00892 0.10296 -0.64187 0.18264 -0.3376 -0.11306 -0.66066 0.52462 0.03904 0.18778 -0.19922 -0.22354 -0.0871 0.40281 -0.08981 0.43205 -0.42934 -0.84993 0.30179 -0.26544 0.22589 -0.44069 0.15672 0.47762 -0.57178 -0.0275 0.11595 -0.12897 0.12585 -0.34699 -0.20758 -0.27678 -0.10778 -0.06618 -0.46529 0.1417 -0.13046 0.00089 0.38992 -0.01127 -0.62968 -0.07551 -0.08453 -0.47629 -0.19658 0.4414 -0.44815 -0.48384 0.18002 -0.15072 -0.66821 0.34141 0.16403 -0.14617 -0.13695
aly 0.00607 -0.6001 -0.11453 0.01001 -0.07731 -0.01216 -0.44707 -0.35693 0.18674 -0.09125 -0.03576 0.2686 -0.27852 -0.26877 -0.25002 -0.42638 0.42608 -0.04018 0.11804 0.2148 -0.03574 0.3412 -0.49557 0.17496 0.43802 0.09647 -0.0915 -0.13344 -0.37898 -0.31038 -0.39917 -0.24269 -0.05269 0.04452 -0.12048 -0.00347 0.37698 -0.21121 0.65183 0.25582 -0.17466 -0.4386 0.09658 -0.07753 0.35482 -0.28443 0.46722 0.26025 -0.01736 -0.12596 0.0386 -0.59914 0.50371 0.05886 -0.30362 0.42812 -0.1765 0.43593 0.09899 -0.46604 -0.12318 0.05246 -0.1135 0.00729
alz 0.27062 -0.13578 -0.01924 -0.38873 0.09522 -0.44372 -0.15885 -0.14848 0.49714 -0.53649 0.00962 0.16675 -0.75365 -0.2329 0.04266 -0.0613 -0.19505 0.14108 0.22657 0.18344 -0.24718 0.02403 0.03923 -0.22265 -0.291 -0.37946 0.65155 -0.2231 0.0625 0.05234 0.14856 -0.43748 -0.01876 0.51776 0.0434 0.00291 0.06984 0.11115 0.24904 -0.21815 -0.18196 0.3597 -0.28458 -0.05755 0.40736 0.1244 0.00915 0.00985 0.09375 -0.11697 -0.12528 0.2398 -0.12298 0.04974 0.00999 -0.12258 0.01944 -0.355 -0.13625 0.05824 0.24745 -0.51619 -0.0059 -0.21088
ame -0.17962 -0.41927 -0.34763 -0.18835 -0.21341 0.16051 -0.43773 0.30962 0.17851 0.2159 0.20709 0.46229 -0.25836 0.19464 0.19199 -0.1818 0.17928 0.58121 -0.18753 0.33775 0.0977 -0.2246 0.46924 -0.26351 0.16842 -0.4634 -0.63671 -0.48165 -0.83504 -0.41838 -0.08774 -0.21679 -0.27917 -0.2652 -0.08005 0.20887 0.24538 -0.16945 0.15181 -0.06875 0.02013 -0.53973 -0.41675 -0.0429 -0.23178 0.11864 0.30114 -0.01315 0.3126 0.40185 0.18126 -0.59655 -0.17451 0.27086 -0.75765 -0.32606 -0.44305 -0.0249 -0.33769 0.08476 -0.29844 0.0816 0.47687 -0.41541
amf -0.59476 0.53898 0.04757 -0.07246 -0.26328 -0.04402 0.01146 -0.13812 -0.25952 -0.1641 -0.44819 0.01194 0.27676 0.10374 -0.10689 -0.34222 0.4629 0.01437 -0.37002 -0.03406 -0.17527 0.10529 -0.51966 -0.36945 -0.28724 0.20603 0.03359 0.23553 -0.29223 -0.1087 -0.04873 -0.47775 0.65428 0.51857 -0.31828 -0.15584 -0.37002 0.17204 -0.22785 0.16656 -0.23992 -0.30262 -0.29906 -0.04441 -0.24152 -0.04226 0.20444 -0.45987 -0.0239 0.19261 0.03985 0.628 -0.56281 -0.00843 -0.16001 0.53927 0.32887 0.0994 0.02699 -0.15369 0.38507 0.05167 -0.06508 -0.13481
amk -0.19292 0.26015 -0.31321 -0.00183 -0.38392 0.60362 -0.08216 -0.14239 0.24341 0.22268 0.13208 -0.20154 -0.23834 -0.08933 0.0803 -0.43951 0.18971 -0.16034 -0.02021 -0.21425 -0.12731 0.40174 0.47496 0.1059 0.0672 -0.04828 -0.05386 0.04919 0.20875 -0.20935 -0.07594 -0.48729 0.81481 -0.21252 0.94181 0.20514 -0.67176 -0.42952 -0.37564 0.12845 -0.14061 0.26795 0.21193 0.11452 -0.72783 0.10021 -0.04879 0.28125 0.44557 -0.27058 0.01508 -0.0725 0.36811 0.45805 -0.0088 -0.32898 0.49081 -0.19857 -0.11776 -0.13986 -0.02745 -0.14367 0.42889 0.0607
amm 0.17643 -0.06928 0.22264 -0.08926 -0.16166 0.08783 -0.50872 -0.11245 -0.49664 0.07355 -0.31828 0.1033 0.2661 0.38485 0.36217 0.30004 -0.34526 -0.14179 -0.00813 0.40703 0.30633 0.03704 -0.0125 0.26942 0.76166 0.12091 0.15928 0.44789 0.13182 0.14777 0.06896 0.58094 -0.31433 -0.2947 0.11556 0.29143 -0.68141 0.10225 0.41294 0.57072 -0.09636 -0.24272 -0.04682 -0.03235 -0.37598 -0.11429 -0.00342 -0.20888 -0.14599 0.12057 -0.25923 0.26364 0.03934 -0.80019 0.67077 -0.03544 0.32894 -0.42474 0.06095 0.18843 -0.30487 -0.03362 0.04824 0.02765
amn 0.03678 0.37879 0.43552 -0.02949 -0.3931 0.01059 -0.10776 -0.023 -0.11161 0.22913 -0.27098 -0.25476 0.02622 -0.3317 0.53892 -0.23508 0.01956 -0.19008 0.04939 0.47686 -0.42553 -0.04159 0.24348 -0.09897 0.30057 0.21153 -0.03924 0.19894 0.25905 0.44419 -0.49534 0.00918 -0.06565 -0.15661 0.04494 0.28289 -0.37358 -0.13751 -0.24919 -0.04115 -0.49389 0.35895 0.03854 -0.08495 0.4027 -0.05635 0.00149 -0.18565 0.07477 0.16251 -0.38833 0.03171 0.09096 -0.17656 0.27099 -0.21266 -0.34379 -0.04938 0.23188 -0.17461 0.31397 -0.05887 0.02008 -0.44932
amp -0.09131 0.12172 0.36683 0.10606 0.08953 0.42544 0.11267 -0.21475 -0.4185 -0.07948 0.01998 -0.1977 -0.29227 0.35996 -0.04361 0.11434 -0.2527 -0.11117 -0.5017 0.08048 -0.02875 0.01814 -0.36593 -0.29496 0.4272 0.10514 -0.16461 -0.05867 0.52652 0.32125 -0.18752 0.53146 0.37592 0.10422 -0.28002 -0.55971 0.28991 0.10395 0.05412 -0.06331 0.16389 -0.07066 0.33857 -0.16895 -0.541 -0.14887 0.2178 -0.01577 -0.14029 0.00736 0.02937 -0.37963 -0.21177 0.35746 -0.52279 -0.35614 0.37661 -0.17544 -0.03351 0.04353 -0.38878 0.29849 -0.02368 0.15409
amr -0.00208 -0.13046 -0.30108 0.55668 -0.3389 0.22296 0.32693 -0.11415 0.5355 -0.0581 0.34248 0.01158 -0.03379 0.11275 0.66507 0.28996 0.22689 -0.36131 -0.28108 0.03582 0.06309 -0.23734 -0.10483 0.00455 0.0182 -0.11064 -0.17193 -0.4083 -0.09154 -0.28495 -0.48347 -0.13868 0.23774 -0.26932 -0.4536 0.15283 0.10127 0.296 -0.06738 -0.05431 -0.04283 0.33852 -0.43535 -0.03728 -0.184 0.5851 0.76779 0.25686 -0.17197 0.15927 0.18204 -0.24832 -0.33838 0.38987 -0.20403 0.3081 -0.03389 0.11224 -0.03322 0.28702 -0.00766 -0.10236 -0.06742 0.21693
amu 0.05444 -0.20956 0.25031 -0.19516 0.4891 0.12505 -0.29173 -0.22003 -0.39559 -0.29017 0.24147 0.68313 0.13579 0.49676 -0.39249 -0.25246 0.15207 0.17917 -0.03809 0.00864 0.53577 -0.16784 0.02247 0.06403 -0.01896 -0.22858 -0.03123 0.57801 -0.6084 -0.58222 -0.22956 0.23832 0.28971 0.19916 -0.79671 0.33421 -0.03991 0.32289 -0.46835 -0.02482 0.1065 0.1339 -0.08246 -0.33345 0.25651 0.61524 0.44312 0.37017 -0.63644 0.08537 0.14756 0.12928 0.16906 0.24154 0.1964 0.90103 0.01753 -0.3225 0.19573 0.36029 -0.37306 -0.14781 0.37746 0.31107
ann 0.12852 -0.24112 -0.0525 0.21248 -0.13122 0.25659 0.29834 0.07169 0.27651 -0.17316 0.16527 0.14267 0.13634 -0.09572 0.97619 -0.32516 0.11722 -0.21421 0.0677 0.56884 -0.52418 -0.15325 -0.2034 0.03623 -0.28181 -0.2615 -0.21531 0.07719 -0.00069 -0.27474 -0.23979 0.38305 0.28469 0.14272 -0.17708 0.54848 0.24562 0.0744 0.12368 -0.71621 0.46822 0.77175 -0.10568 -0.44931 -0.00973 0.23059 0.30219 0.0042 0.09815 -0.2473 0.12053 0.15237 -0.06667 -0.2793 0.10015 -0.44524 0.1216 0.11971 0.10665 0.18799 0.437 -0.43457 -0.28648 -0.68442
anv -0.32107 0.63586 -0.20578 -0.1527 -0.334 -0.28538 0.09232 0.07571 -0.02278 -0.53951 -0.39392 0.34642 -0.1574 -0.0863 0.48659 0.34806 0.06245 -0.27541 0.09281 -0.12303 -0.34424 -0.21622 -0.3501 0.21838 -0.04065 -0.35666 -0.05011 0.52402 -0.13027 0.06836 -0.51691 0.57074 -0.41037 -0.5982 -0.41278 0.03083 0.15469 -0.06999 -0.26691 -0.15812 -0.15482 -0.30781 0.48322 -0.30963 -0.04454 -0.17435 0.04263 -0.11814 -0.35493 0.03625 -0.25559 -0.11159 0.41508 -0.5024 0.20416 0.10772 -0.05277 0.16902 0.06564 -0.17606 0.00436 0.08289 -0.28099 0.39157
aoj -0.23491 -0.28537 -0.5318 0.11341 -0.38662 -0.22683 -0.05056 0.08091 -0.19708 0.76471 0.11117 -0.83743 0.2929 -0.10663 0.11089 -0.28824 -0.02226 0.39752 -0.05854 -0.46462 0.09984 0.07439 -0.32321 -0.15754 0.37868 -0.53584 -0.00369 -0.00314 -0.55028 -0.31078 0.04305 0.45769 -0.10643 -0.22104 0.20774 0.0055 -0.48655 0.3213 -0.22295 -0.09761 -0.51338 0.06844 -0.29286 -0.33197 -0.19404 -0.02582 -0.11871 0.28327 0.40563 -0.16878 -0.2648 0.03993 -0.37589 -0.55188 0.16949 -0.09559 -0.55623 -0.19124 0.38455 0.21486 0.00747 0.33684 -0.02405 -0.42975
aom 0.27171 -0.06068 0.2162 0.60793 0.17566 0.56221 0.48059 0.50619 -0.13848 0.22185 0.26653 -0.28387 -0.15365 0.36721 -0.23665 -0.50196 -0.05982 -0.12826 -0.03023 -0.40064 0.24126 0.06595 0.20334 -0.85017 -0.33802 0.42772 0.1069 -0.37392 -0.06805 0.19835 -0.44714 0.43227 -0.55822 0.35912 -0.15662 -0.08528 0.27732 -0.23491 0.0307 -0.02821 0.03845 0.22109 -0.38916 0.73245 -0.08325 0.09493 0.19754 0.60832 0.09056 -0.52232 -0.07829 -0.19681 0.24927 0.11328 0.03178 0.08717 0.12673 0.24695 0.4929 0.51358 -0.34306 -0.14916 -0.48256 -0.06401
aon -0.05007 0.13277 0.6708 0.30021 -0.07876 -0.56043 0.36324 -0.228 0.41099 0.367 0.89715 -0.09111 -0.2182 -0.20619 0.18729 -0.18093 -0.28029 0.22363 0.45893 -0.0553 -0.22087 -0.3795 -0.13761 0.07387 0.02253 -0.0831 0.16247 -0.01638 -0.19507 0.20823 -0.11631 0.27673 -0.11947 0.29757 0.11945 0.18004 -0.34811 -0.1451 -0.31482 0.09461 -0.37809 -0.10198 -0.05445 0.20777 -0.02093 0.27919 0.25041 -0.01431 -0.09327 0.08972 0.20987 -0.36386 -0.51661 -0.44283 -0.19765 -0.20629 0.4365 -0.13121 0.39688 -0.15975 -0.01599 0.41327 -0.21138 -0.20467
aoz 0.47077 0.06637 0.30909 0.1413 -0.01323 0.19326 -0.16056 -0.04547 -0.01314 0.23759 0.3335 0.12565 0.19644 0.04073 -0.56821 0.14623 -0.15177 0.21862 -0.4572 -0.8616 -0.56865 0.44046 0.12467 0.27556 -0.10577 -0.28443 -0.67766 0.31887 -0.05564 -0.49989 -0.26857 -0.15411 0.57559 -0.3954 0.1618 0.08244 -0.50265 -0.00185 -0.28622 0.07755 -0.31094 -0.20747 -0.0073 -0.10636 -0.06684 0.14172 0.34385 0.10666 0.59895 -0.29186 0.02063 -0.22774 -0.18455 0.11045 -0.11883 0.01788 0.13547 -0.0278 0.06525 -0.71687 0.03125 1.07227 -0.02039 0.61625
ape 0.18321 0.11121 0.16661 -0.26806 -0.15871 -0.49222 -0.00146 -0.22388 0.09504 0.20103 0.44025 -0.01662 -0.0253 -0.11745 -0.05722 -0.41933 -0.51817 0.21791 0.47266 0.19078 0.22231 0.27621 0.36251 0.09751 0.17308 -0.55358 0.19943 -0.14889 -0.03428 -0.16164 -0.09727 0.09417 0.2024 0.35513 0.46638 -0.09296 -0.35861 -0.23689 -0.0589 -0.29271 -0.23503 -0.34699 0.34937 0.39962 0.05177 0.14112 0.1014 -0.13498 -0.16065 -0.22072 -0.28571 -0.42241 -0.0344 -0.17438 -0.28628 -0.00801 0.54232 -0.45826 0.22436 -0.01353 -0.02866 0.82795 0.12064 -0.0898
apn -0.34387 0.09112 0.36007 -0.43137 0.22218 -0.10885 -0.17187 -0.26031 -0.00547 -0.26832 0.25486 -0.24391 -0.23997 -0.04602 -0.0944 -0.08391 0.39885 -0.0468 0.42977 0.55412 0.19481 0.02082 -0.1097 0.07243 -0.22257 -0.07235 -0.59768 -0.11068 0.00981 -0.0624 -0.0167 -0.3114 0.27652 -0.16252 0.03685 0.26921 -0.16234 0.16018 -0.12262 0.49553 0.5151 0.02526 0.06379 0.17573 -0.10522 0.08663 -0.07318 -0.04248 -0.14647 -0.36534 0.21147 0.00148 0.26334 0.48549 -0.11828 -0.09982 0.2006 0.45822 -0.06342 0.02885 -0.44264 0.46351 0.16215 -0.107
apr 0.17163 -0.20092 0.20759 -0.02661 -0.11416 0.53127 0.08452 -0.06283 -0.1911 0.94083 -0.22464 -0.10771 -0.15247 0.20754 -0.13384 0.5152 -0.37814 0.07109 0.01485 -0.17043 0.08496 -0.08933 -0.34264 -0.14403 0.21477 -0.04399 -0.05533 0.17461 -0.15447 -0.25397 0.15644 0.30005 0.44536 0.52442 0.79726 -0.12776 0.50674 -0.34189 -0.04171 0.05804 0.30903 0.28513 0.12408 -0.30284 -0.13495 0.02416 0.01395 -0.23609 0.16398 -0.08293 0.29357 -0.44066 -0.23632 -0.19689 -0.03351 0.22441 -0.30431 -0.2055 -0.10804 -0.05443 -0.0726 0.16844 0.2574 -0.00408
apu -0.42443 0.17304 -0.01431 -0.43763 -0.05045 -0.56482 -0.06611 -0.7477 0.37422 -0.35299 0.2378 -0.16078 0.47065 -0.03209 0.36388 -0.15561 -0.5777 0.43805 0.35923 0.10402 0.60158 -0.08072 0.35341 0.10202 0.72187 -0.19914 -0.29319 -0.04536 -0.02316 -0.12007 0.13767 0.77795 -0.00443 0.11216 -0.05899 0.4683 -0.25988 0.15536 -0.18443 0.45101 0.09057 -0.18129 -0.35733 -0.16725 0.07444 0.05367 0.10185 0.39838 0.21557 0.3777 -0.28281 -0.79475 -0.57107 0.15919 0.4125 -0.03009 -0.38657 0.57169 -0.09458 -0.04387 -0.47091 0.36574 -0.04163 -0.3992
apw 0.00481 0.00064 0.23556 -0.14705 -0.0551 -0.28459 -0.19044 -0.55908 0.1194 0.6498 -0.09656 -0.06221 -0.01266 -0.55784 -0.08587 0.16437 0.03696 0.54789 -0.06322 0.01014 0.53166 -0.24299 -0.56727 -0.4624 -0.35404 -0.07571 -0.0706 0.06672 0.15456 0.09428 -0.41692 0.23538 0.13566 -0.56574 -0.31325 -0.18397 0.32329 -0.45354 -0.00854 -0.18671 -0.15662 -0.58596 0.64322 0.59842 0.33925 -0.46635 0.37471 0.10555 -0.23496 -0.08924 0.29262 0.40235 -0.60993 -0.31317 0.04557 0.01547 0.18896 0.11412 0.21138 0.46497 0.23543 -0.07153 -0.06861 0.47725
apy -0.3136 0.20393 0.12825 0.03706 -0.06621 0.1881 0.28457 0.05913 0.35724 -0.2226 0.17763 -0.08558 -0.03529 -0.17234 -0.02062 0.1091 0.13956 0.14802 0.36369 0.3454 0.37154 0.45684 0.26585 -0.00128 -0.1448 0.31146 0.08059 -0.44977 -0.72663 0.2493 -0.13385 0.18861 -0.04273 0.23649 0.24353 0.5512 -0.27875 0.18521 -0.08647 0.43569 0.2497 -0.102 -0.40457 -0.34962 -0.38647 0.32234 -0.09273 -0.2706 0.00366 0.16532 -0.48371 0.00945 -0.2406 0.42201 -0.39464 -0.0304 -0.20467 0.46659 -0.11208 -0.08448 -0.27778 0.29971 -0.04666 0.20002
apz -0.04788 -0.02199 -0.49073 0.5924 -0.60855 0.5118 -0.65651 0.41554 -0.09528 0.12257 0.22361 0.38112 -0.41553 -0.57427 -0.17575 0.61277 -0.41985 0.10836 0.33271 0.03318 0.19083 0.03341 0.21315 0.00431 0.76597 0.23755 -0.28693 0.04749 -0.32766 -0.40747 -0.67662 0.05948 -0.35966 0.83652 0.14416 -0.05289 -0.42216 -0.11966 -0.35085 -0.15534 -0.22551 0.01687 0.14598 0.26934 0.11425 -0.10045 -0.18595 -0.02825 0.129 -0.09246 0.2347 -0.22949 -0.18097 -0.32958 -0.03461 0.26218 0.10847 -0.00019 0.56796 0.00121 0.08801 0.483 0.03089 0.24932
are -0.07812 0.19114 0.2073 0.21745 0.25777 -0.29415 0.16668 -0.34226 0.22488 -0.06977 -0.08797 -0.05639 0.51305 0.43194 0.0914 -0.40376 0.17258 0.33425 0.29384 0.34299 0.19699 -0.03339 -0.57798 -0.4808 0.25272 -0.12959 0.46986 -0.30195 -0.08261 -0.01497 -0.4241 -0.10943 -0.38434 0.0482 -0.33063 0.31153 0.15528 -0.27593 0.33097 0.39317 0.10896 0.30713 -0.08613 -0.45394 0.57839 -0.30938 0.44482 -0.1962 0.82202 0.20613 -0.06937 -0.36485 0.51508 -0.24051 -0.41817 0.27288 0.23798 0.26199 -0.12803 -0.23143 0.06562 0.05712 -0.07717 -0.14119
arl -0.24951 -0.27397 0.61439 0.02564 -0.05973 0.0588 0.00717 0.3335 -0.31641 0.35197 0.32706 0.68322 -0.33733 0.29042 -0.1512 -0.16551 -0.32609 -0.01548 -0.00276 -0.3847 -0.04557 -0.41949 -0.01461 0.15055 0.16886 0.16005 0.68141 -0.29652 0.19633 -0.37624 0.17373 0.019 0.01896 0.64142 -0.30284 0.71307 -0.24358 -0.06865 0.39842 0.23807 -0.56832 0.41119 -0.14596 0.1187 -0.42526 0.42393 -0.26035 -0.06287 -0.58566 0.04601 -0.13182 0.33168 -0.33563 0.44113 0.30518 0.28566 0.26596 -0.07751 0.35563 0.36226 -0.11263 -0.40102 -0.00722 0.14078
arn -0.20707 -0.15596 -0.72399 -0.45934 0.25709 -0.19154 -0.48329 0.08951 -0.42801 0.26857 0.17378 0.14214 0.51618 0.18331 0.25171 0.07657 -0.0585 -0.22672 -0.19013 -0.11408 -0.07692 -0.08791 0.31661 -0.29428 -0.08621 0.18079 0.2346 0.22341 -0.12788 -0.1154 -0.15737 -0.13687 0.40043 -0.11389 0.57884 -0.08511 0.03425 0.13372 -0.16253 -0.20547 -0.20701 0.41751 -0.04642 -0.33355 0.46245 -0.1269 0.06068 -0.06724 -0.17065 0.19098 -0.32254 0.04821 0.05886 0.03647 -0.22689 0.19816 -0.02386 0.12317 -0.2082 -0.19568 0.01979 0.69015 0.14584 0.22237
aso -0.46923 -0.74211 0.17663 0.35046 -0.18606 0.7259 -0.2282 0.55389 -0.10807 0.77275 -0.34518 -0.16696 -0.01423 0.1651 0.54555 0.85695 -0.05066 -0.02709 0.0846 0.19799 0.48643 0.47594 0.40955 -0.37863 -0.43569 -0.23059 -0.23831 -0.23959 0.33644 -0.11184 0.6496 -0.14326 0.30433 0.10286 0.03052 0.4584 0.50232 0.13442 -0.22844 -0.18493 -0.18503 0.0892 0.47515 -0.21888 0.15854 -0.35275 0.30076 -0.04562 0.04469 0.59111 -0.20841 0.04634 -0.32476 0.41015 0.28519 -0.52396 0.06117 0.2295 0.31448 0.11496 -0.05519 0.21632 -0.12056 -0.0241
ata -0.12543 -0.35666 0.5265 -0.04902 -0.38888 -0.24945 0.05949 0.41908 -0.3639 0.20057 -0.32532 -0.55403 0.4011 0.45441 0.45106 0.11298 -0.39238 0.09712 0.21384 0.24237 0.05588 0.18756 0.14173 0.19462 0.30042 0.00743 0.08678 -0.33424 0.07647 -0.63013 0.69357 0.19365 -0.17789 0.00495 -0.16728 -0.16765 0.14254 -0.39741 -0.08916 0.25053 0.11905 0.14549 0.31463 -0.02268 0.3529 -0.27278 -0.29632 -0.31281 0.18431 -0.12103 -0.41347 0.03496 -0.28765 0.09491 0.57116 -0.27106 -0.2485 -0.09093 0.26769 -0.10573 0.02025 0.22279 -0.15716 -0.04481
atb -0.27358 -0.32925 -0.07673 -0.57888 0.05664 -0.0134 -0.46613 -0.06674 0.41229 -0.43668 0.06694 0.20609 -0.22153 0.22367 0.57356 0.11359 0.21325 -0.37395 -0.00981 -0.02922 0.04285 0.64372 0.32389 -0.18278 -0.04526 -0.63503 0.08635 0.24803 0.09384 0.11437 -0.3559 0.20179 0.26684 -0.36168 0.30585 0.22764 0.2736 -0.70468 0.14673 0.47994 0.0535 0.3195 0.0624 0.38353 -0.2423 -0.10769 0.23661 0.72415 0.0953 0.16389 -0.18824 -0.12445 0.1026 -0.44149 -0.11901 0.33351 0.34004 -0.13504 0.11774 0.12796 0.17395 -0.30676 -0.09117 0.24382
atd 0.26019 -0.05015 -0.07869 -0.4249 0.21165 0.59904 -0.11418 0.04258 0.01478 0.04764 0.15823 -0.02707 -0.30683 -0.27799 -0.13585 0.15965 -0.25155 0.1289 0.18809 -0.54536 0.16713 0.2539 0.16893 0.07231 0.65038 -0.15761 -0.55508 -0.15161 0.20041 0.03175 0.57669 0.44279 0.14904 0.22697 -0.01789 0.12813 0.21142 -0.23056 0.31663 -0.40927 0.12321 -0.00503 0.11851 0.08419 0.01824 0.01873 -0.51433 -0.26504 -0.18908 -0.243 0.26722 0.00161 0.12745 -0.55703 0.01415 -0.33369 -0.07955 0.30413 0.82466 -0.29867 -0.14735 -0.41298 -0.03079 0.2183
atg 0.42848 -0.39325 -0.20164 0.03576 0.05698 0.04122 0.33895 -0.06724 -0.79414 -0.45525 -0.5928 -0.52887 -0.21944 0.42541 0.46277 -0.25387 0.14967 -0.78356 -0.54343 -0.17562 0.09015 0.33754 -0.36461 0.14019 -0.35844 -0.13714 -0.10494 -0.20482 -0.17764 0.33878 0.50163 0.45488 -0.6125 0.13188 -0.08158 -0.33034 0.51314 0.13036 -0.39453 0.4243 -0.40137 -0.07118 -0.13806 -0.63691 0.19443 0.27352 0.11597 -0.27078 0.26149 0.19088 -0.60701 -0.11761 -0.21081 0.06329 0.15016 -0.59645 -0.43444 -0.32256 -0.04391 -0.37452 -0.3559 0.02104 0.31002 -0.55091
att 0.76126 -0.35967 -0.12799 0.05539 -0.41009 -0.26288 0.27426 -0.05292 -0.69835 -0.20134 0.41357 -0.16603 -0.20727 -0.24013 0.59115 0.08012 0.36261 -0.27193 0.01881 0.0289 -0.59211 -0.08085 0.12035 0.29004 0.24649 -0.01075 -0.01975 -0.03645 0.23023 0.28792 -0.05803 0.20822 -0.43349 -0.88951 0.08593 -0.35339 0.1779 0.08241 -0.33476 -0.0414 0.51347 0.52079 0.4244 -0.25153 0.51199 -0.25574 -0.32013 -0.39821 -0.305 -0.18512 0.02277 -0.16486 0.49652 0.08533 0.19627 0.44505 -0.90083 -0.14046 -0.20696 -0.19863 0.00559 0.0802 0.43527 0.04982
auc -0.35948 -0.17286 0.5663 -0.19387 -0.14327 0.22554 0.28414 0.12607 0.02493 0.24131 0.40273 0.08193 0.0185 0.08881 0.37144 0.82269 0.52405 0.15202 -0.06084 -0.13433 -0.21061 -0.00155 0.52655 0.64748 -0.00669 0.01033 0.15486 0.01782 -0.61219 0.0474 -0.60681 -0.07009 -0.29566 0.31615 0.29958 0.10165 -0.05175 0.04749 0.18503 -0.35122 -0.22349 -0.53702 -0.10006 -0.1143 0.02028 0.1327 -0.11742 0.4667 0.44558 -0.58371 -0.07523 0.14134 0.30854 0.38747 0.01023 0.02753 -0.69786 0.22796 -0.7926 0.46368 0.02765 0.00325 -0.28508 0.14565
auy 0.23961 0.08195 -0.22254 0.27207 -0.23439 -0.01922 -0.10164 -0.10406 -0.16292 0.28556 0.31601 0.71432 0.16247 -0.0958 0.24491 0.64013 -0.05452 -0.14483 0.08964 -0.10711 -0.35736 0.11421 0.39593 -0.13621 0.2438 0.26675 0.13521 0.04631 -0.00051 -0.18913 0.15593 0.41877 0.11312 -0.17935 -0.39665 -0.00547 -0.38826 0.11776 0.01314 0.38282 0.22008 0.69768 -0.11143 -0.08829 0.17703 0.06247 -0.10939 0.49087 0.17754 0.08944 -0.47558 0.57483 -0.21713 -0.20019 0.0519 0.13384 -0.14282 0.67269 -0.13734 -0.33256 -0.10524 -0.32417 -0.05872 -0.21519
ava 0.0604 -0.10072 0.13071 0.02911 -0.37411 -0.22273 -0.39506 -0.17575 -0.15487 0.03782 0.04763 0.31295 -0.43731 -0.25973 0.19024 0.02869 0.0355 0.06892 0.15448 -0.40972 -0.09968 0.33004 -0.04572 -0.35718 -0.5052 0.1825 0.11896 0.10764 0.15467 0.23776 -0.46112 0.03611 -0.19082 0.34715 -0.16928 0.45956 0.23814 -0.094 0.14166 0.03909 -0.05204 0.24062 0.07882 0.46373 -0.41762 -0.63959 -0.9913 -0.25801 0.40001 -0.0727 0.23487 0.38508 0.22092 -0.0763 0.15494 -0.01179 0.3882 -0.26071 -0.2826 -0.65584 0.04459 0.60546 0.64853 0.46294
avt -0.12407 -0.41252 -0.00306 -0.19171 0.28181 -0.03519 0.33892 0.21063 -0.29387 0.23031 -0.31534 0.16179 0.32135 0.10705 0.74809 0.06044 0.16572 0.08938 0.29474 -0.0938 0.3968 -0.10912 0.11347 -0.27951 0.23361 -0.56801 -0.14956 0.29713 0.18614 -0.29785 -0.33837 0.11217 0.10008 0.20998 0.04454 0.17929 -0.26568 0.71066 0.52638 0.09567 0.34176 0.78558 -0.00054 0.36518 -0.18811 -0.16681 -0.11434 -0.07673 0.1641 0.13869 -0.21967 -0.07948 0.18297 0.47066 0.14714 -0.1537 0.4216 -0.19071 0.64771 -0.63586 -0.05118 0.53846 0.20019 -0.16094
avu -0.55148 0.35464 0.28209 0.23101 0.53851 -0.10138 -0.32804 -0.25128 -0.27789 -0.70287 0.10462 -0.82741 -0.24409 -0.33569 0.04579 0.31141 -0.18174 -0.14995 -0.17496 -0.28992 0.00176 -0.11769 0.00874 -0.51274 -0.40529 -0.0266 0.51534 0.22517 0.05411 0.30532 0.11738 0.08936 -0.22902 -0.82158 0.24112 -0.11539 0.05995 -0.18476 0.06484 -0.18959 -0.05021 0.435 0.4028 0.2103 0.14714 -0.2004 0.21707 -0.29702 0.08314 0.27493 0.26898 0.32778 0.20765 -0.15454 0.32494 -0.4239 -0.31759 0.76111 0.24147 -0.24733 0.10448 -0.13907 -0.49629 -0.01432
awb -0.06813 -0.74393 -0.06112 0.23674 -0.23264 0.38681 -0.69377 -0.08529 0.40294 0.24433 0.1156 0.65243 0.1718 -0.40975 0.21375 -0.01229 0.28759 0.40346 0.01409 -0.06932 -0.51223 -0.13628 0.32229 -0.03097 0.16611 -0.18142 -0.3468 -0.36414 -0.35389 0.25413 0.20448 0.27018 -0.1179 -0.3054 0.37744 0.6116 -0.03021 0.14209 0.45058 -0.10484 0.23706 -0.14024 0.05369 -0.24999 0.02429 -0.02541 0.1556 0.15573 0.1102 0.02985 -0.22382 0.23333 0.12351 0.09897 0.15073 -0.40013 -0.24994 0.55315 -0.40818 0.16686 0.25364 0.01098 -0.56738 -0.05705
awi 0.24126 0.39597 0.59058 -0.28446 0.45992 0.30818 -0.0174 -0.1764 0.05453 -0.1493 -0.06527 -0.93815 -0.19317 0.09548 0.05154 -0.83312 0.19363 -0.41351 -0.13174 -0.11023 -0.51219 0.3556 0.07034 -0.94184 0.2156 -0.55596 -0.29262 -0.27779 -0.08202 0.35229 -0.14426 0.3265 -0.34522 0.01956 -0.05596 0.15078 -0.83874 -0.04973 0.04981 0.69829 0.04496 -0.18938 -0.10042 0.58233 -0.21858 -0.20233 0.23583 -0.5255 0.24385 0.31167 -0.25702 0.26107 -0.16101 0.18169 -0.37603 0.12733 0.333 0.0663 -0.12789 -0.39246 -0.18353 0.0619 0.31672 -0.17508
ayr -0.15763 0.24825 -0.06536 -0.17464 -0.24362 -0.31307 -0.13837 0.26699 -0.35556 0.07116 -0.10697 -0.00721 -0.07028 0.10856 0.06267 0.05741 -0.06078 0.0828 -0.27566 0.38266 -0.14532 -0.33796 -0.01684 -0.10032 0.15883 -0.14839 0.01674 -0.00255 -0.34525 -0.37968 0.02434 -0.05195 -0.04766 -0.38042 -0.08323 -0.0625 -0.03103 -0.29571 0.217 0.03348 0.32458 0.17791 -0.0584 0.0094 -0.3877 -0.03212 0.25771 0.13954 0.16329 -0.08713 -0.15422 0.2418 -0.19174 -0.05801 -0.19832 -0.05713 0.46807 -0.26403 -0.24489 -0.17837 0.33639 0.04735 -0.49376 0.08069
azb 0.01131 0.00285 -0.00836 0.05348 0.0371 -0.3629 0.07169 0.30559 0.21387 -0.21589 -0.3659 -0.20494 -0.01438 0.26207 -0.0674 0.04928 -0.11035 0.00677 -0.37328 -0.16868 0.27364 -0.11411 0.1083 -0.10347 -0.03091 0.04823 -0.04911 0.1127 0.12594 0.03899 0.54724 -0.61495 0.17816 -0.02075 -0.08932 -0.08106 0.08463 0.00492 -0.10086 -0.20224 -0.11262 -0.04351 0.27982 0.03884 -0.03598 -0.42201 0.16706 -0.31487 0.11475 -0.38781 -0.32889 -0.01884 -0.20112 -0.09734 0.04964 0.08441 -0.22528 0.46398 -0.09438 -0.03508 0.24785 0.0247 -0.18408 -0.21277
aze 0.0063 0.00833 -0.07058 0.08572 0.10637 -0.33142 0.07174 0.35019 0.21478 -0.24459 -0.35654 -0.21093 -0.01001 0.31896 -0.10946 0.08824 -0.13006 0.00489 -0.36111 -0.16531 0.21153 -0.10427 0.10083 -0.11615 -0.01401 0.06741 -0.06234 0.04936 0.17019 0.04749 0.58512 -0.58703 0.13015 -0.0057 -0.08551 -0.14353 0.11285 0.0306 -0.14637 -0.20696 -0.10106 -0.04627 0.30513 0.01929 -0.01044 -0.38558 0.18775 -0.32674 0.11506 -0.36607 -0.29308 0.01871 -0.20029 -0.13989 0.04951 0.09053 -0.26023 0.45102 -0.03621 -0.02389 0.25109 0.03801 -0.18762 -0.25439
azg 0.05983 -0.15474 0.31092 -0.22713 -0.00749 -0.34242 -0.2052 -0.12614 0.40105 -0.36872 0.10307 0.1202 0.07639 -0.14096 -0.42154 -0.00264 0.32287 -0.41788 0.22286 -0.30002 0.21408 -0.01282 -0.30747 -0.2411 0.64746 -0.43588 0.16886 0.2554 -0.44859 -0.62929 -0.11301 -0.43207 0.07565 0.31549 -0.35847 0.25688 -0.096 0.29881 0.30622 0.09065 0.31981 -0.04155 -0.42869 0.05333 -0.11602 -0.07059 0.23063 0.65936 -0.3392 0.36024 0.10343 0.18169 0.07399 0.64417 0.54751 0.57905 0.02189 0.20219 0.15906 0.20134 0.1306 0.30882 0.04015 -0.33468
azz -0.03675 -0.09159 0.32518 -0.5178 0.0081 0.09394 0.08921 -0.14214 0.04477 -0.06899 -0.00273 0.34307 -0.08292 0.48512 -0.02019 -0.11367 -0.03626 0.32589 -0.03023 0.10363 -0.20214 -0.04741 0.04995 -0.25032 0.04175 -0.25588 -0.1899 -0.23367 0.04711 -0.40233 -0.20563 0.36796 0.36645 -0.26959 -0.14536 -0.3804 0.19153 0.13817 0.16552 0.08913 -0.05127 -0.09388 0.29289 0.34204 0.40563 0.13167 -0.13524 0.09456 -0.1145 -0.10688 0.36785 0.12513 -0.35737 0.52554 0.39487 0.52702 0.04846 0.21888 0.26351 0.19267 0.28186 0.12785 -0.13358 0.13177
bam -0.53026 0.19788 -0.34283 -0.19486 0.02989 -0.5921 -0.37409 -0.00374 -0.2485 -0.33261 -0.17432 0.07502 0.09624 0.1597 0.32541 0.09891 0.14812 -0.13208 -0.03155 0.62002 -0.28583 0.06022 0.40285 0.32133 0.0576 -0.20746 -0.30333 -0.21899 0.20545 0.32551 -0.12264 -0.37936 0.16532 0.00168 0.199 -0.23716 -0.19746 -0.17552 0.22831 -0.17955 0.65123 -0.68286 0.13268 -0.14054 -0.31743 0.02136 -0.14673 -0.22923 0.37805 0.11907 0.72525 -0.34228 0.1863 0.20857 -0.11714 0.03173 -0.04146 0.07764 0.25637 -0.31208 0.27781 0.08045 -0.13416 -0.07054
ban -0.25514 -0.08112 0.3821 0.13697 0.14372 0.0717 -0.24593 -0.18161 0.0688 0.47926 -0.09223 0.14555 -0.43836 0.33021 0.09555 -0.40149 0.59958 1.03191 0.00891 -0.04473 -0.03076 0.17347 -0.11578 0.55252 -0.09239 0.00325 0.07048 0.28504 0.34608 -0.2446 0.20698 0.08305 0.26922 -0.24795 0.32651 -0.19998 0.21171 0.03867 -0.028 0.08865 0.00286 0.02303 -0.07526 -0.12119 -0.31852 -0.13365 0.50424 -0.40388 0.43221 0.14907 -0.18994 -0.13509 0.24332 0.35607 -0.07552 -0.12966 0.72013 0.21199 -0.02276 -0.0081 -0.52712 -0.30751 0.58942 -0.25998
bao -0.53202 -0.12826 0.00511 0.80966 0.05324 0.21796 -0.21221 -0.00187 0.44119 -0.77055 0.27144 0.1571 -0.03079 0.35088 0.00375 -0.7501 -0.10845 -0.02533 -0.03061 -0.07658 -0.42784 -0.12269 -0.26731 1.11794 0.15678 0.14455 0.19257 0.15901 -0.05216 -0.0013 -0.13479 0.33806 -0.68962 -0.94085 -0.39974 0.10774 0.19623 0.24219 -0.09635 0.104 -0.1551 -0.10242 -0.34746 -0.00946 0.06754 -0.09923 -0.08818 0.22829 -0.64915 -0.07488 -0.11844 0.41716 -0.14478 0.45668 0.33125 -0.42927 -0.25217 0.049 0.39592 -0.6067 -0.34756 -0.04104 -0.08094 0.29464
bar -0.47815 -0.48964 -0.15612 0.0546 -0.39555 -0.00659 -0.1518 0.04789 -0.28654 -0.28953 -0.02654 0.13376 -0.12251 -0.29843 -0.15624 -0.00243 -0.30434 -0.03283 -0.28617 -0.39561 -0.01309 0.15561 -0.14669 -0.22461 0.33833 -0.52204 -0.44425 0.58864 0.33265 0.13278 -0.19781 -0.08013 -0.45915 0.5555 -0.146 -0.02379 -0.09387 0.36256 -0.00097 -0.16627 -0.1106 0.42786 -0.06794 0.16547 0.50974 -0.26682 -0.14585 0.1801 -0.35167 -0.19129 0.21453 -0.56864 0.24493 0.02519 0.34045 0.04954 0.59362 -0.17828 -0.44004 0.37305 -0.21771 0.26437 -0.47463 0.05353
bav -0.2439 -0.19633 -0.12606 0.0887 -0.47418 0.20977 0.45861 -0.54968 0.6815 0.38838 0.27404 -0.25088 0.0358 -0.62845 0.22577 0.38554 -0.15097 -0.31432 0.31508 0.59196 -0.0508 -0.04724 -0.68336 -0.32791 -0.199 0.50472 0.68199 0.76325 0.25836 0.3691 -0.02458 0.22688 0.30688 -0.43811 -0.02371 -0.01102 -0.1533 0.17617 0.25799 -0.096 -0.11156 -0.24966 0.61962 -0.54397 0.0522 0.21815 0.04398 -0.01034 0.16564 -0.06526 -0.66063 0.33705 0.08439 -0.33735 -0.21365 0.25083 -0.42027 0.08649 0.36821 -0.13158 0.01097 0.33107 0.54668 0.20295
bba 0.00019 0.21971 0.13373 0.22679 0.11081 0.11583 0.15085 0.07951 0.31141 0.24217 -0.21338 0.04724 0.62742 0.46552 -0.06344 0.00832 -0.38624 -0.24596 -0.44467 0.10175 -0.29624 0.23566 -0.01878 -0.1476 -0.32681 0.08615 0.04929 0.07078 0.32609 -0.32453 -0.31773 -0.23761 0.02959 -0.10413 0.2796 -0.15645 -0.33986 0.1517 0.24313 0.14146 0.36672 0.21058 -0.29921 -0.29784 -0.27231 -0.70063 -0.4351 -0.04546 -0.50966 -0.06615 0.34639 -0.15249 -0.3306 -0.55316 -0.23184 0.17517 0.15401 -0.19147 -0.2276 0.0591 0.06914 -0.356 -0.0368 -0.15828
bbb 0.04244 -0.00627 0.61853 -0.14847 -0.38786 -0.06751 0.40895 -0.3471 -0.14096 0.10621 0.11948 0.0933 -0.21704 -0.28131 -0.02573 0.15153 0.11103 0.09476 -0.23376 -0.14613 0.16337 0.00996 0.34588 -0.0843 -0.5761 0.53864 0.08307 0.11664 0.18736 0.16709 -0.10583 -0.28657 -0.36935 0.12553 -0.35401 -0.21651 -0.35959 0.41244 -0.21727 0.29603 0.16572 0.16843 -0.08385 -0.54881 0.2499 0.04083 -0.23188 0.05212 0.18424 0.19305 0.2175 -0.31779 -0.30198 0.60693 -0.06188 -0.27012 -0.15716 0.12681 0.04437 -0.5402 -0.3191 -0.52636 -0.12392 -0.64166
bbc 0.44534 -0.19278 -0.06955 -0.16466 -0.26053 0.13869 -0.09032 -0.19765 -0.27949 0.01268 -0.04884 -0.17493 0.04552 -0.17262 -0.12515 -0.25536 -0.273 0.08457 0.43456 0.07028 0.28519 -0.00296 0.04492 0.20882 -0.54922 -0.14566 -0.44251 -0.18525 0.25439 0.45995 -0.50605 0.11661 0.4276 -0.24967 0.08134 0.11566 0.26996 -0.33624 -0.22533 0.00883 0.28069 -0.50852 -0.05068 0.2504 0.12777 -0.23497 0.24093 -0.3629 -0.00013 -0.03822 -0.0222 0.12584 -0.37682 0.23165 0.05263 0.28869 0.3476 -0.09295 -0.18634 0.17665 -0.18669 -0.06798 0.13511 0.01677
bbr 0.13915 0.30829 0.73097 0.64447 -0.77151 -0.56521 0.17489 0.04101 -0.48423 0.20128 0.37576 -0.12313 0.15354 0.17478 -0.15012 -0.29103 0.05882 0.3657 -0.32021 -0.10336 -0.10796 0.68347 -0.23731 0.13835 0.58146 -0.2671 0.21117 -0.03594 -0.49397 0.14242 0.4268 -0.73904 -0.07646 0.22438 -0.63464 0.47696 0.0366 0.46342 -0.01303 0.05486 0.14082 -0.13966 0.03103 -0.50278 -0.36419 -0.25724 -0.01441 0.12767 -0.18737 -0.16327 -0.21829 0.20021 0.33282 -0.6431 0.27124 -0.36473 -0.30679 0.44313 0.32483 -0.04015 -0.06883 0.48494 0.01249 0.34066
bch 0.13101 0.21282 0.65139 -0.38236 -0.04524 0.1479 0.17047 -0.20629 -0.15748 0.52905 0.04454 -0.22502 0.21382 -0.16511 -0.0995 0.15629 0.25606 0.27239 -0.06649 0.0044 0.63467 -0.28089 -0.30314 0.00265 -0.59501 0.03999 0.05443 -0.35178 0.11907 0.52908 -0.03757 -0.03812 0.08913 0.15437 0.5306 0.35714 0.01823 0.06058 0.31852 -0.12431 -0.14183 0.74045 -0.33613 0.14304 -0.17456 0.18687 0.0973 -0.40243 0.46912 0.1322 -0.26241 -0.02765 0.01069 -0.33744 0.47525 0.441 -0.44288 -0.21761 -0.54088 0.04152 0.20698 -0.4585 0.58851 -0.21793
bcl 0.38326 0.30385 -0.22875 0.74085 0.68755 -0.48105 -0.27551 0.12598 -0.0719 0.07638 0.01111 -0.0589 0.08588 -0.02853 0.31802 -0.12534 -0.15597 0.15059 0.1637 0.27149 -0.18325 -0.31673 -0.06052 -0.04581 -0.50919 0.02231 -0.05454 -0.17035 0.2525 0.06136 0.01575 0.01485 0.16076 -0.2964 0.29768 0.02047 -0.29428 -0.22315 -0.12586 0.26906 0.33465 0.0321 -0.51608 0.24107 0.24349 0.15792 -0.01291 0.24381 -0.14264 0.30208 -0.16737 -0.47028 -0.03205 -0.0534 0.28597 0.16835 -0.28842 0.05883 -0.79405 -0.20505 0.21473 -0.25407 -0.19209 0.22936
bcw 0.0444 0.41416 -0.44645 0.24725 -0.15964 0.09557 -0.07023 -0.03112 0.63208 0.00184 0.5659 0.23407 0.25071 -0.0094 0.47495 -0.22663 -0.06628 -0.15812 -0.33893 -0.02802 0.24842 -0.54286 -1.05853 0.23695 0.12573 0.30034 0.5994 0.40032 -0.44287 0.40938 0.45147 0.11469 -0.04037 0.00941 0.01564 -0.16469 0.237 0.12281 0.26241 -0.2534 0.19871 0.4093 -0.38441 0.28705 -0.06076 0.33259 0.15285 -0.38655 -0.17151 0.04963 -0.23866 0.29218 0.02896 -0.05934 -0.1105 -0.22486 -0.55646 0.21868 0.136 0.5328 0.44932 -0.31606 -0.28097 -0.38154
bdd -0.41624 -0.0133 0.10651 -0.24867 0.02382 0.26107 0.32706 0.36568 0.1365 0.2898 0.08214 0.40441 0.46772 -0.39569 0.04227 0.0643 -0.1991 -0.1197 -0.09912 -0.15422 -0.3342 0.26832 0.10813 -0.07757 -0.11106 0.07748 -0.52839 -0.2287 -0.20078 -0.06668 0.00843 0.21917 -0.14098 0.24459 0.23074 0.19421 -0.27941 -0.02338 0.23791 0.19463 -0.35229 0.30098 -0.34683 0.46577 0.29054 -0.05237 0.10537 -0.30821 -0.04713 0.46564 0.21709 -0.32724 0.01587 -0.0617 0.04616 -0.14711 0.00046 -0.04623 -0.19813 0.17418 -0.06759 -0.69148 0.05566 0.18464
bef -0.34022 0.23976 -0.14663 -0.41424 -0.09057 0.51131 0.00076 -0.08173 -0.12388 0.64121 0.3799 0.12223 0.00256 -0.02511 -0.22173 0.40271 -0.26652 0.26262 0.56077 0.26327 0.24394 0.17874 0.6111 0.14928 0.28825 0.29687 0.06066 0.01614 -0.2015 -0.00306 -0.08827 -0.03557 -0.13658 0.08925 0.40113 -0.32571 -0.06039 -0.26404 0.00741 0.00329 -0.05356 -0.28314 0.05478 -0.11048 0.53383 -0.43319 0.29454 0.17844 0.42242 0.17733 0.34497 -0.28841 -0.01433 0.0794 0.42772 -0.25422 0.32381 0.34959 -0.14258 0.15338 0.24396 0.26378 0.18863 -0.00061
bem -0.16507 0.02524 -0.15349 -0.33874 0.18319 0.11345 -0.37944 0.12186 -0.08455 -0.04273 -0.13815 0.10028 0.42004 0.1545 -0.02978 -0.04473 0.08388 0.10303 0.38576 0.19167 0.02879 0.33086 0.25654 -0.0532 0.20599 0.39808 0.03524 -0.28208 0.00049 0.48274 0.00399 0.0595 0.24293 0.38906 -0.04725 0.23118 -0.12912 0.0957 0.12093 0.32467 -0.1107 -0.32239 -0.03558 0.04057 0.17434 -0.38256 0.34794 0.38467 0.16357 -0.11908 0.40726 0.04091 -0.3488 -0.10374 0.17019 -0.10113 -0.30149 -0.59013 -0.17874 -0.01564 -0.59634 -0.13749 0.17744 0.14592
bex -0.35457 0.17838 -0.19216 -0.11754 -0.42895 0.24766 0.19503 -0.43407 -0.2056 -0.05904 -0.26935 -0.11476 -0.32098 -0.52752 -0.91202 0.31034 0.1142 -0.60109 0.13376 0.02767 -0.20661 -0.1045 -0.05435 0.13168 -0.28815 -0.0093 0.09372 -0.30049 -0.7804 -0.36806 0.51725 0.42835 -0.08398 0.24387 0.19903 -0.48899 0.02804 0.23402 -0.14494 -0.34022 0.16722 -0.37537 -0.17732 -0.3474 -0.13609 -0.17536 0.4014 -0.2174 0.11524 -0.11519 -0.29651 -0.11338 -0.21188 -0.0358 -0.05851 -0.41235 0.00032 -0.23615 -0.0769 0.07534 0.26747 0.46227 -0.07883 0.42536
bfd -0.45069 0.19271 -0.69525 0.66516 -0.24025 0.12673 0.555 0.40416 -0.23947 -0.62322 0.03628 -0.19362 -0.01497 -0.46414 -0.38203 0.78706 0.97661 0.3383 -0.12522 0.62116 0.22627 0.34182 -0.18832 -0.23473 -0.0975 -0.31858 0.42216 0.14371 -0.24458 -0.20245 -0.40469 0.37657 -0.37448 0.13081 -0.09499 -0.10017 -0.10219 0.39519 -0.28701 0.02205 -0.11411 -0.22804 0.28919 -0.27613 -0.29351 0.38695 0.69174 0.08286 0.16594 0.04699 0.40611 0.13033 0.36472 -0.15722 -0.2471 -0.39108 0.01912 -0.72016 0.38196 -0.03876 -0.09498 0.36281 0.35208 -0.72775
bgr -0.18721 -0.20368 0.44611 -0.00713 0.36799 -0.14797 -0.08894 -0.21755 0.51706 -0.06194 -0.08097 0.00662 0.36565 -0.14171 0.10878 -0.12936 0.04373 -0.05158 0.2186 -0.32187 -0.15886 0.15282 0.19134 0.05113 0.23134 0.25121 0.76869 0.3858 0.06731 0.19266 0.45326 -0.47277 0.17443 -0.50416 0.03937 0.36023 0.04307 -0.2688 -0.35008 -0.21767 0.49483 -0.05767 0.36438 0.07909 -0.05602 0.75743 -0.05419 -0.06177 0.20284 0.0709 0.17559 0.09267 0.10061 -0.07159 -0.37333 0.04414 0.03298 -0.01445 -0.01866 -0.09199 0.38973 0.20338 -0.22114 0.44451
bgs -0.36802 0.15669 -0.25191 0.13371 -0.33614 -0.0872 -0.20935 -0.3942 -0.25701 0.1211 0.26956 0.21353 0.04619 0.4505 0.34079 0.23554 0.20419 -0.40634 0.11517 -0.04454 0.54318 -0.31034 -0.04143 -0.50968 -0.25905 -0.50933 -0.16491 0.29086 0.21354 0.02815 -0.28711 0.27165 -0.60878 -0.1928 -0.00832 0.0228 -0.15463 0.06277 0.47603 -0.23855 0.07065 -0.11844 -0.41655 0.09799 -0.26534 -0.15093 -0.40295 -0.46196 -0.52849 -0.22347 0.30121 -0.35474 0.00232 0.12932 0.13506 -0.40175 -0.7731 -0.06225 -0.30607 -0.33795 -0.06825 0.16175 -0.14119 0.27232
bgz -0.01562 0.23727 -0.12324 -0.15134 0.07177 0.59254 -0.60347 0.2337 -0.22752 -0.11308 0.55944 0.00229 0.39202 -0.32255 0.40812 0.53353 0.02342 0.51871 -0.18481 -0.22908 -0.28871 0.45198 -0.18141 0.05301 -0.12825 -0.03175 0.54946 0.16347 0.41067 0.53899 0.59156 0.22349 0.29458 0.48031 -0.21558 0.27214 0.02858 -0.08797 -0.7105 -0.26746 0.02089 -0.45348 0.47722 0.07437 -0.1182 0.10683 0.07468 -0.15735 0.58424 0.07941 -0.19777 0.23647 0.08172 0.17442 0.3238 0.5714 0.23411 0.041 -0.29696 -0.1425 -0.43523 -0.51179 0.37186 0.02286
bhl 0.29858 0.30341 -0.09623 0.04938 0.14636 -0.12902 0.59557 0.55501 0.01067 0.51931 -0.24365 -0.22821 0.11637 0.08372 0.48161 0.01586 -0.39721 0.22639 0.44829 -0.10013 -0.81398 0.14748 0.26418 0.51535 -0.28771 0.1079 0.10953 -0.16301 0.37513 -0.51242 0.06783 -0.48822 0.20039 0.39373 0.24947 0.04622 0.30298 -0.15099 -0.10303 -0.01207 -0.56387 0.1455 0.92175 -0.45832 -0.4232 -0.42615 0.36167 -0.03162 0.19674 -0.10407 -0.06021 -0.08843 -0.21872 -0.83415 0.08954 -0.03447 0.3869 0.2596 0.11248 0.53224 0.36874 0.58916 0.02852 -0.44984
big 0.44994 0.18604 0.39132 0.32448 -0.11269 0.40116 0.09567 0.21624 -0.67179 0.335 -0.07511 0.64618 -0.13129 -0.11709 0.09503 -0.10939 -0.62327 0.08716 -0.27679 -0.0255 -0.51439 0.11461 0.55356 0.70941 0.59838 0.06426 0.05086 0.361 -0.38078 0.2169 0.02648 -0.11506 0.42798 -0.42167 0.22067 -0.02926 0.00647 0.3169 -0.02193 -0.02448 0.30985 0.24935 -0.05787 -0.29415 0.31913 0.26316 0.26514 -0.13116 0.23509 0.50585 -0.20811 0.28549 0.0283 -0.05824 -0.15304 -0.40306 -0.03425 0.03802 -0.14316 -0.60954 0.44801 -0.44562 -0.78677 0.10432
bim -0.54384 0.12553 0.12481 -0.46748 0.50905 -0.45319 -0.19729 -0.67676 0.43754 -0.01068 -0.45773 0.17916 0.1493 -0.45168 0.1772 -0.04672 -0.29685 0.35904 0.04165 -0.36874 0.43529 0.64506 0.23933 0.81062 0.02125 -0.09527 -0.35646 -0.05883 -0.01807 -0.1403 -0.15518 0.08702 -0.35264 0.22704 -0.21653 0.10795 -0.20732 0.09458 0.04689 -0.72241 -0.28399 0.80108 0.25537 0.11221 -0.15146 0.3158 -0.80871 -0.51891 -0.49889 0.41151 0.25258 -0.08977 0.09936 0.50911 0.16916 -0.04445 -0.28283 0.19951 0.03567 0.10349 0.90904 0.25526 -0.24073 -0.301
bis -0.22697 0.72072 -0.00764 -0.03873 0.37528 -0.03783 -0.18887 -0.1566 -0.60364 -0.0181 0.08615 -0.28279 0.15254 0.23237 0.07142 -0.28443 -0.11457 -0.15074 -0.2681 -0.21819 0.28449 0.15176 0.23002 0.09605 -0.1161 -0.82963 0.14453 -0.23797 -0.34761 0.12493 0.09795 0.12789 0.67556 0.38001 -0.36538 -0.39522 0.3643 0.10507 0.02723 -0.56216 -0.3008 0.25217 0.17826 0.57328 0.09273 0.78619 -0.34881 0.16061 0.05467 -0.34183 -0.09565 0.22126 0.10466 -0.15942 0.12153 0.26682 -0.24433 0.02232 -0.68521 0.16777 -0.02361 0.02739 0.2091 0.11977
biv -0.18854 -0.24907 0.13967 0.12111 0.52631 0.52096 0.07999 -0.51838 -0.29588 -0.65168 0.07008 -0.36972 -0.18401 -0.2783 0.05797 -0.05807 -0.2687 -0.09163 0.69776 0.49993 0.14822 0.66836 0.00746 0.18897 0.20695 -0.37871 0.09945 0.14744 0.29035 0.07914 -0.34681 0.41763 0.02295 0.12499 -0.28293 -0.52324 -0.22519 -0.06892 -0.57456 0.12998 0.20917 -0.24108 -0.59216 0.45494 -0.22094 0.07111 0.21983 -0.15351 -0.32399 0.79012 -0.09023 0.02621 0.37331 0.17802 -0.07416 -0.08102 -0.36311 0.11273 -0.24908 -0.09576 0.84906 0.40231 -0.16861 0.04145
bjr 0.10251 0.14405 -0.09259 0.34654 -0.26587 -0.51342 -0.2689 0.57045 0.57366 0.18001 0.2036 0.17524 0.09429 -0.45595 0.11692 0.07923 0.10876 0.23109 -0.21511 -0.29093 -0.54686 -0.16396 0.17904 -0.29939 -0.11474 -0.00057 0.26257 -0.09535 -0.29288 0.00234 0.27262 0.23463 -0.00787 -0.37288 -0.54666 0.09697 -0.25937 -0.37261 0.06956 0.2739 -0.2646 0.26772 -0.16883 -0.3293 0.19384 -0.04415 -0.6096 -0.30536 -0.02118 -0.61908 -0.36989 0.57439 -0.15044 -0.02375 -0.12302 0.08924 0.20498 0.45503 -0.4326 -0.417 0.372 -0.35373 -0.1598 -0.05291
bkd 0.55692 0.05479 -0.42874 -0.12084 -0.05394 0.20439 0.24952 0.3327 -0.12535 0.20699 0.43106 0.38528 0.01479 -0.09005 0.261 -0.44474 -0.25852 0.06078 0.1339 0.18569 0.00384 -0.2036 -0.12609 -0.62049 -0.43085 -0.11871 -0.18579 -0.31564 0.23221 -0.09896 -0.25468 0.12249 0.11672 0.05135 -0.47935 -0.3362 0.61028 -0.01409 0.15524 -0.14674 -0.3002 0.04208 -0.09796 -0.2661 -0.16401 -0.0554 -0.12634 0.24541 -0.28552 -0.05274 0.42812 -0.06159 -0.19076 -0.02164 0.11078 -0.07108 -0.00995 -0.1533 -0.04816 -0.11103 0.12361 0.02984 0.21772 0.03181
bkq -0.16012 -0.56395 0.5653 0.02869 0.12866 -0.56042 -0.37776 0.25205 0.03498 -0.29964 0.22519 -0.14127 0.08087 -0.10761 0.50155 0.11161 0.2023 -0.15287 0.19162 -0.30979 0.3338 0.42915 -0.2203 -0.37154 -0.02652 -0.1984 0.28594 0.3495 -0.3861 -0.1051 0.11968 -0.03275 0.0024 -0.25915 0.21696 -0.05781 -0.55941 -0.56746 -0.42145 -0.3168 -0.08211 0.28068 -0.12702 0.30951 0.41188 0.47186 0.60107 -0.10684 -0.40302 -0.87032 0.27626 -0.5526 -0.04323 -0.00335 0.06878 0.1718 -0.25347 0.39634 -0.36074 0.03508 0.07099 -0.11747 0.02454 0.06865
bku -0.34712 -0.20859 0.0724 -0.46187 0.06639 0.13826 -0.27378 0.05314 -0.25889 -0.06696 0.12705 0.05581 -0.11914 -0.30495 -0.42328 0.65299 0.09555 0.04668 -0.03402 0.18775 -0.14528 0.84213 -0.07135 -0.56568 -0.31391 0.25676 0.15567 0.20297 0.34402 0.6739 -0.51219 0.6372 0.52185 -0.59493 0.32064 0.02495 -0.0045 -0.15148 -0.67086 0.02352 0.32103 -0.12758 -0.02454 0.33144 0.05129 -0.29683 0.14824 0.05228 -0.19381 -0.30828 0.21422 -0.44634 -0.33619 -0.14387 -0.19102 0.52818 0.00404 0.33452 -0.13123 0.04917 0.42388 0.59763 -0.4162 -0.22944
bkv -0.27135 -0.10705 -0.03932 -0.15781 0.34822 -0.51318 -0.16931 0.33709 0.19726 -0.92029 -0.33825 0.11232 -0.21395 0.12371 -0.09099 0.07415 0.23207 0.4207 -0.15641 -0.04633 -0.15787 -0.141 -0.14128 -0.01501 0.05255 -0.64403 -0.04361 -0.03203 0.16672 0.39373 0.23211 -0.25963 0.60384 0.63073 0.35982 -0.26985 0.35443 0.09125 0.1572 0.14424 -0.04609 -0.35346 0.21142 -0.26807 0.06339 0.18002 0.33896 0.14104 0.20025 0.06018 0.73939 0.10505 0.00524 -0.12567 0.0673 0.0909 -0.24277 0.19024 0.2473 0.04653 -0.09973 -0.2325 -0.64147 -0.27283
blw -0.096 -0.17281 0.11227 0.00995 -0.02718 -0.10023 -0.12391 0.48064 0.02165 0.03101 0.32425 -0.15059 0.20466 0.01756 -0.28643 -0.45234 -0.04046 0.1704 -0.22433 0.12853 -0.00025 0.11312 -0.11688 -0.17751 -0.02845 0.12331 -0.21097 -0.4058 -0.05926 -0.32781 -0.37625 0.42697 -0.24459 -0.14433 0.0765 -0.20176 -0.24465 -0.5496 0.52422 0.23449 0.71284 0.35925 0.39708 0.81448 -0.12463 -0.02613 0.23971 0.06582 0.36312 0.25308 0.06967 -0.15743 0.09541 -0.26778 -0.2597 0.24002 -0.30032 -0.10943 0.51596 0.48492 0.3585 0.29585 -0.07714 -0.28992
blz 0.14403 -0.24728 -0.28368 -0.04556 0.22428 0.1135 -0.3124 -0.08481 0.41946 0.47336 0.40814 -0.42439 0.61459 0.20123 -0.23266 0.41053 0.42945 0.07886 0.02038 0.44052 0.27696 0.07202 -0.26042 0.17885 -0.50629 -0.22796 -0.25371 -0.34229 -0.08864 -0.11804 -0.26666 -0.38161 -0.2348 0.62697 -0.02164 0.32207 -0.2355 -0.40345 -0.1795 -0.5164 -0.13937 -0.02477 -0.03657 -0.07268 0.01248 -0.47069 0.2928 -0.1701 0.26268 -0.33723 0.22252 -0.03023 -0.42805 -0.03889 -0.17002 0.29502 -0.10418 -0.24293 0.04302 -0.47783 -0.46457 -0.01922 0.33573 0.56714
bmb -0.04456 0.05345 -0.14024 -0.53403 0.16583 0.19465 0.16559 0.04512 -0.4106 -0.07741 -0.21142 -0.13925 0.31077 -0.30273 -0.20353 0.15486 -0.1148 -0.51206 -0.14523 0.02645 0.25423 0.27461 -0.75579 -0.11663 0.15543 0.29696 -0.00957 -0.5092 0.49139 0.51625 0.21274 -0.0728 0.10009 0.1104 -0.29378 -0.05181 0.03084 0.41023 0.17165 0.35711 0.25647 0.65128 0.4319 -0.24456 -0.62461 -0.12861 -0.40779 -0.33348 0.34456 -0.45475 -0.04649 -0.16789 -0.22492 -0.05666 -0.34048 -0.67355 0.62066 0.08082 0.01407 0.38325 -0.11601 -0.25459 -0.04673 -0.01679
bmh 0.09236 -0.08494 0.06182 -0.06704 0.16998 -0.10252 0.63453 -0.17442 -0.17563 0.47578 0.23082 -0.21056 -0.48462 -0.10122 0.17807 0.10126 -0.2947 0.20895 -0.0807 -0.09145 -0.36994 0.36251 -0.36318 0.16699 0.14443 0.05133 -0.17542 0.1389 -0.21594 -0.25348 -0.02352 -0.3698 -0.43011 0.02597 0.18663 -0.08512 0.48381 0.49327 -0.29487 0.43313 -0.16882 0.23003 -0.09342 0.86085 -0.29534 0.3155 0.14679 0.17029 0.38985 -0.11032 0.11345 0.496 0.22789 -0.03372 -0.42878 0.17203 0.07494 -0.61425 0.45375 0.18181 0.19094 0.03875 -0.14735 -0.22236
bmq -0.24681 -0.06404 -0.05718 -0.58694 -0.11042 0.07496 -0.02006 0.39349 0.71156 -0.18476 0.82296 -0.03609 0.14032 -0.62454 -0.06049 0.20465 -0.12989 0.26747 -0.63954 -0.04008 -0.45432 0.69921 -0.69351 0.26331 -0.3373 -0.03397 0.70464 -0.5082 -0.19489 -0.09257 0.12588 -0.08354 -0.21069 -0.21729 0.06073 -0.16519 -0.21263 0.12355 0.42091 0.21522 -0.11557 -0.30546 -0.1309 0.05278 -0.63647 -0.82436 -0.54151 -0.63246 -0.29532 0.79473 0.15903 0.02518 0.3814 -0.00653 0.33127 -0.28731 -0.17519 0.12851 -0.56139 0.03035 0.93706 -0.04179 -0.26365 -0.16841
bmr 0.046 -0.04154 0.09848 0.16117 -0.50705 -0.04999 -0.28249 0.15876 0.07308 -0.6651 -0.07571 -0.23298 -0.5455 0.40237 -0.41539 0.16645 0.0675 0.4096 0.35174 0.2589 0.44627 -0.12188 -0.38385 -0.60753 0.07144 0.44161 -0.23271 -0.29057 0.37583 -0.0864 -0.28553 0.01374 0.08678 -0.07485 -0.1436 0.23766 -0.19263 -0.67978 -0.14417 -0.16528 0.01837 0.64119 -0.0228 -0.40353 0.26911 0.37488 -0.40899 -0.08635 -0.12139 -0.71688 0.71755 0.58668 -0.32371 0.28953 -0.23279 0.27058 0.27104 -0.20387 -0.06102 0.3819 0.12698 0.09204 -0.24539 -0.20542
bmu -0.25279 0.02506 0.0218 -0.2825 0.01547 -0.61241 -0.68428 -0.15058 -0.01663 -0.38225 -0.43788 -0.0544 -0.18254 0.03821 0.47274 0.08624 0.16382 0.1966 0.19927 0.09023 -0.24276 -0.12543 0.38066 -0.29485 -0.5537 0.35562 0.39257 -0.01445 -0.05918 -0.39526 -0.06742 -0.11216 -0.19335 0.1424 -0.01513 -0.29339 -1.05436 0.07986 0.0619 -0.25107 -0.10134 0.12145 0.71496 0.18349 -0.26177 -0.08879 0.29908 -0.25262 -0.11945 -0.14181 -0.67394 0.34489 -0.18857 0.65844 0.15775 0.22144 0.35793 0.12291 -0.27211 0.08129 -0.19915 0.23901 -0.40107 -0.13534
bnj -0.08998 -0.24474 0.0713 0.0461 0.47937 -0.01321 -0.06704 0.08717 -0.25157 -0.42074 -0.19018 0.23646 0.11248 0.17441 -0.28035 0.08567 0.02617 -0.3952 -0.34643 -0.47771 -0.68847 0.52534 0.36184 -0.22832 -0.57771 0.10996 -0.09033 0.02734 0.00567 -0.03997 -0.20006 0.15586 0.21335 -0.16485 0.65653 0.15909 0.65993 0.00695 -0.12445 0.09654 0.38098 -0.11629 0.14644 0.59826 -0.30621 0.40303 -0.41302 -0.0584 -0.41844 -0.21122 0.0101 0.02237 -0.41523 -0.03343 0.08461 -0.24803 -0.08541 0.73684 -0.00357 -0.09679 -0.47196 0.42852 0.18848 0.19846
bnp 0.14051 -0.22551 0.13739 -0.05979 -0.23859 0.21962 0.08493 0.28679 -0.00512 0.09986 0.0032 -0.05081 0.54988 0.32328 0.15015 -0.33399 -0.47509 0.1198 0.08977 0.08809 0.41133 0.09107 -0.35515 -0.28345 -0.10977 0.2268 0.58634 -0.33584 0.03205 0.03382 0.21096 -0.33844 0.35398 -0.26793 0.60466 -0.18757 0.72881 -0.01528 -0.06994 0.2807 -0.44738 -0.26069 0.0042 -0.07963 0.19155 -0.266 -0.26547 -0.17136 -0.05853 0.16831 -0.47514 -0.34544 0.15946 0.08527 -0.09495 -0.06783 -0.44327 -0.23925 0.25126 0.1439 -0.15305 -0.27709 0.28754 -0.45555
boa 0.49917 0.35215 -0.22722 -0.1037 0.01627 0.0945 0.32125 0.17354 0.3543 0.07449 -0.04217 0.63733 -0.14082 -0.05549 0.15524 -0.29542 -0.10403 -0.16913 -0.44635 -0.44917 0.25513 0.17104 -0.48588 0.06918 -0.36727 -0.25069 0.06315 -0.32387 -0.1428 0.44667 -0.55268 -0.2274 0.16047 -0.47194 0.1564 0.07002 0.26187 0.22706 0.24365 0.52234 0.81072 0.62619 -0.03352 -0.19049 -0.36878 0.36892 -0.13756 -0.0129 0.17714 -0.23096 0.038 0.58108 0.15099 0.44476 -0.12946 0.0967 0.12166 0.11978 -0.20129 -0.06876 -0.08031 0.19957 0.43745 0.06554
boj 0.05964 0.60285 0.02047 0.12323 -0.59598 0.11469 0.00702 -0.30002 -0.35475 -0.37604 0.30314 -0.65408 -0.15702 0.47898 0.26556 0.41422 -0.09969 0.11252 -0.45952 0.38289 0.29808 0.01539 0.05701 0.13158 0.52602 -0.25846 0.24258 -0.08728 0.34565 -0.1034 0.31552 -0.0142 -0.04853 0.09895 -0.18014 0.01498 0.3321 0.15586 0.22919 0.43291 -0.12993 -0.14195 -0.49417 0.07416 -0.38568 0.08068 -0.09475 0.40778 -0.04805 -0.13936 -0.62224 0.63123 -0.14879 0.20586 0.35279 0.35995 -0.02289 -0.0632 -0.1071 0.64628 0.06466 0.24236 0.13571 0.17565
bon -0.43768 0.00798 0.57553 -0.34152 -0.44816 -0.45993 0.09595 0.26934 0.34004 0.35046 0.29486 0.52234 0.41895 0.19927 0.32725 0.16902 0.69871 -0.28538 0.53397 0.50979 -0.52428 -0.20843 -0.16169 0.29719 -0.25529 -0.35703 0.30669 0.55892 -0.30321 0.68676 -0.07738 -0.31121 0.06891 0.50621 -0.03487 0.54073 -0.10348 -0.10553 -0.25991 -0.25001 -0.08083 0.02535 0.0478 0.25785 -0.2107 -0.08448 -0.69337 -0.29161 0.15762 -0.63033 0.18775 0.15875 -0.26638 0.16138 0.14778 -0.12253 0.33119 -0.17122 0.30729 -0.15753 0.1429 -0.24346 0.01997 -0.34901
bpr 0.3735 0.21219 0.12763 -0.00535 0.57054 -0.17699 -0.43681 -0.40205 -0.37684 -0.04969 0.05144 -0.00887 0.02267 -0.31217 -0.32925 0.40622 0.22048 -0.41891 0.15749 -0.06295 0.29046 -0.13757 -0.2019 -0.30283 0.11109 0.23777 -0.18008 0.06708 0.13779 0.16578 0.09788 0.09504 0.57975 -0.04915 0.22066 -0.36679 0.0354 0.03093 0.14823 -0.25251 0.01383 -0.11316 0.04847 -0.17224 -0.18699 -0.92991 -0.29528 0.27897 -0.33701 -0.46009 0.4345 -0.43038 -0.35314 -0.32712 0.1645 -0.33432 0.03429 0.38808 0.12932 -0.09585 0.1239 0.03 0.22516 0.15254
bps 0.43292 -0.07646 0.09751 -0.16749 0.53852 -0.11967 -0.40354 -0.43969 -0.46041 0.09444 0.16101 0.04169 -0.05284 -0.36214 -0.25578 0.49514 0.18176 -0.49986 0.16456 0.00588 0.19182 0.0699 -0.19763 -0.32585 -0.02453 0.36497 -0.31648 -0.06665 0.18841 0.24702 0.13826 0.19244 0.47709 -0.11199 0.20951 -0.39916 -0.02976 0.02669 0.09664 -0.16811 -0.24321 -0.2068 0.20138 -0.04341 -0.05594 -0.84493 -0.35487 0.26642 -0.2317 -0.43392 0.50843 -0.35888 -0.06961 -0.16571 0.2295 -0.22126 0.08067 0.49059 0.07529 -0.19249 0.2616 -0.01209 0.07891 0.15995
bqc -0.216 -0.25934 0.22711 0.13943 0.46787 0.45118 -0.46661 0.04923 0.36253 0.04831 -0.39995 0.03773 0.38364 -0.22659 -0.30125 0.05778 -0.19215 -0.45209 0.2242 0.08426 0.40119 -0.39011 -0.363 -0.30869 -0.22163 -0.20185 -0.1947 0.2987 0.2381 0.17411 -0.45038 0.16481 -0.99265 -0.49694 0.61214 -0.1079 -0.12277 -0.01874 -0.14726 0.00544 -0.02422 0.11834 -0.37334 -0.00328 -0.04656 -0.52279 -0.22268 0.37925 0.27213 0.30435 -0.51738 0.55203 0.23669 -0.20426 0.36471 -0.66724 -0.46753 -0.108 0.33311 -0.06435 0.41909 -0.29869 -0.26195 0.0398
bqp -0.7037 0.21744 0.18471 -0.1147 0.05246 0.44162 0.14431 -0.0732 0.49569 0.25517 -0.01843 -0.34702 0.35828 0.09367 -0.43167 -0.23683 -0.21545 -0.38078 0.03237 0.34159 0.15145 0.05108 0.12271 0.06928 -0.14549 0.07414 0.2951 0.04924 -0.13002 -0.07951 -0.08558 0.33684 -0.74569 -0.24881 0.71061 -0.08194 -0.10114 0.32523 -0.43054 -0.1739 0.19577 -0.37586 0.09615 -0.04594 0.17672 0.05786 -0.09786 -0.03999 -0.13748 -0.37283 -0.128 0.4262 0.19675 -0.77252 -0.23275 -0.17219 -0.50906 0.39635 -0.12306 -0.33407 0.88628 0.25866 -0.28758 -0.31508
bsn -0.43009 0.25572 0.00511 0.73515 -0.68453 -0.08863 -0.02232 -0.17826 0.39513 0.07342 -0.20935 -0.24889 -0.44001 -0.21376 0.1049 -0.57423 0.08582 -0.20756 0.06688 0.2656 0.12798 -0.25126 0.35927 0.23122 0.20996 -0.40068 0.31992 0.00174 -0.29067 0.56159 -0.01796 0.06519 -0.09568 -0.32316 -0.38098 0.31832 -0.04549 -0.34048 0.15686 0.4947 -0.0594 0.23373 -0.6634 -0.33225 0.16122 -0.05526 -0.0638 0.38614 -0.33504 -0.33326 0.02476 0.19982 -0.34438 -0.09448 -0.2104 0.04161 0.20712 -0.00929 -0.28147 -0.23713 -0.09281 -0.46965 0.61331 -0.13789
bss -0.21906 -0.11919 0.09971 -0.51447 0.39628 -0.06074 -0.21507 0.09377 -0.11099 -0.25731 0.51464 -0.39233 -0.04993 -0.28056 0.12225 0.58794 0.16845 0.12299 0.03385 0.04779 0.23823 0.15232 0.2349 -0.00227 -0.40814 -0.19517 0.15596 0.31718 -0.44808 -0.28646 -0.40378 0.02465 0.16361 0.1429 -0.2434 -0.02222 -0.14046 0.04213 -0.24955 -0.15057 -0.08985 -0.27762 0.2903 -0.29756 -0.3435 0.63112 0.04565 -0.04326 -0.34149 0.02215 0.31436 -0.46272 0.09082 0.02385 -0.14317 0.31213 -0.3575 0.06478 0.53081 0.18426 0.04953 -0.28151 0.00177 0.12073
btd -0.0686 -0.35766 0.09338 -0.0423 0.19598 -0.33311 -0.57419 -0.3598 0.46522 0.44907 -0.21484 0.17261 0.21435 -0.21731 0.14414 0.32282 -0.07008 0.56218 0.24914 -0.30037 0.15703 0.03915 -0.4629 0.06196 -0.0432 0.18133 0.14319 0.03983 -0.10493 0.17998 -0.07195 -0.116 0.32086 -0.0169 0.07015 0.33411 0.05961 -0.08722 -0.16017 -0.19123 -0.34192 0.73269 -0.38653 0.5511 0.40441 -0.02872 -0.14747 -0.29052 0.30096 -0.0783 0.61805 -0.48357 -0.21945 -0.25137 0.39756 0.11774 -0.6894 -0.0591 -0.08574 -0.00407 0.12704 -0.01896 0.03741 -0.43614
bth -0.09008 -0.2965 0.44894 0.29439 0.11664 -0.20672 -0.00289 -0.289 0.26997 -0.02069 0.36097 -0.84303 0.03936 -0.5462 -0.33906 0.07638 0.03141 0.17359 -0.44602 0.09537 -0.13944 0.10706 0.38206 0.03693 -0.42879 0.06424 -0.09861 0.54891 -0.05818 -0.0431 0.7351 0.15033 -0.02094 -0.1731 -0.23339 0.15789 0.41531 0.20763 -0.57334 0.09273 0.58572 0.05682 0.02735 -0.31096 0.16084 0.39702 0.06339 -0.13052 0.21404 -0.52892 0.29292 0.12968 0.44731 0.16587 0.11353 -0.41718 0.33389 -0.04407 -0.25132 0.00212 -0.13357 0.0312 -0.48115 -0.00262
bto 0.40977 -0.15879 -0.09888 -0.06523 -0.17452 0.13365 -0.06942 -0.19154 -0.26761 0.04685 -0.0478 -0.16553 0.10155 -0.14452 -0.13732 -0.21627 -0.22673 0.04311 0.46298 0.05452 0.29927 0.02034 0.01935 0.23935 -0.58099 -0.11054 -0.47584 -0.17893 0.29739 0.48147 -0.49643 0.10755 0.41461 -0.22304 0.10879 0.0697 0.24191 -0.32441 -0.23384 -0.02495 0.26958 -0.44524 -0.04499 0.2539 0.12318 -0.26884 0.18619 -0.40094 0.01951 -0.04788 -0.0138 0.13258 -0.36882 0.19201 0.04414 0.2937 0.38624 -0.06974 -0.2309 0.19614 -0.15867 0.03675 0.1177 -0.02536
bts 0.35109 0.0921 0.20003 -0.13559 -0.254 0.01786 -0.3872 -0.21665 0.14385 0.04448 -0.12722 -0.24873 0.21492 0.06022 0.032 -0.06981 -0.29536 0.41199 0.22107 0.01764 0.11029 -0.08791 -0.16912 0.10489 -0.33093 0.30541 -0.39788 -0.4654 0.34269 0.22544 -0.43349 0.07611 0.39008 -0.35906 -0.28539 0.37654 0.66649 -0.4935 -0.19614 0.28981 0.31651 -0.6844 0.00986 0.31975 0.40365 -0.02389 0.28594 -0.36185 0.29021 -0.02897 -0.15783 -0.18643 -0.0063 -0.05889 -0.20208 0.26553 0.31356 -0.15768 -0.25149 0.10629 -0.13024 -0.10453 0.33928 -0.06911
btx -0.31235 -0.10822 -0.07591 0.3148 0.19595 -0.02976 -0.59555 -0.42849 0.15543 0.60154 -0.22856 -0.45843 0.18588 -0.10981 -0.11593 0.16585 0.22989 0.10969 -0.03673 0.32775 0.07342 0.05519 -0.43296 0.38378 -0.73094 0.0135 -0.40426 -0.10867 0.1136 0.41847 0.18523 -0.41754 0.42523 0.23031 0.0105 0.27061 0.3073 0.4129 0.09271 0.06028 -0.01376 0.50706 -0.53186 0.24192 0.22309 -0.22212 -0.46665 -0.48532 0.72231 0.10772 0.54675 0.14693 -0.03309 0.61913 0.10508 -0.5165 -0.49582 0.13175 -0.00802 0.20183 -0.01209 0.09862 0.1462 -0.00526
bud -0.56222 -0.30198 0.45782 0.12572 -0.00678 -0.33105 0.67054 -0.13145 -0.11845 0.30679 -0.08335 0.1064 -0.02104 -0.23527 -0.28167 -0.11546 0.08871 -0.58052 -0.40037 0.12231 0.20607 -0.15716 0.17781 0.42638 0.49859 -0.37399 0.20612 0.11914 0.08899 -0.00881 0.35216 0.72894 -0.04973 0.39131 0.09837 0.09428 0.38624 0.50441 -0.40725 -0.39998 -0.48838 0.32261 -0.22685 -0.5484 -0.37995 -0.27641 0.22971 0.13055 -0.17788 0.19665 -0.0924 0.025 0.49512 -0.53987 0.39791 0.10984 0.26926 0.28436 0.05158 0.24767 0.13504 -0.25047 -0.2117 -0.10409
bug -0.1141 -0.58513 -0.07266 0.43945 0.03083 -0.14397 -0.31397 -0.32442 0.34477 0.13525 -0.37901 -0.3002 0.02926 0.22816 0.25926 0.11502 0.40354 -0.1902 0.10672 -0.13228 0.31062 -0.09154 0.36356 -0.06895 0.06493 -0.54643 0.02171 -0.4516 -0.19016 0.04357 -0.2456 0.40404 -0.29405 0.00733 -0.26697 0.19516 0.29563 -0.11503 0.35673 -0.00351 0.17096 0.65615 -0.01033 -0.24497 0.66365 0.30593 0.03933 0.15036 0.36148 0.49854 0.0725 -0.12918 -0.56852 -0.4812 -0.61412 -0.02491 -0.36673 -0.21325 -0.06269 -0.2824 -0.07284 -0.02859 0.30862 0.49027
buk -0.40656 0.60492 -0.05322 -0.26446 -0.2287 0.19966 0.48672 -0.28374 -0.3248 0.33855 0.03175 -0.24473 -0.16729 0.28034 0.03399 0.42576 0.0187 -0.11455 0.14103 -0.06985 0.66076 0.11222 0.22286 0.23761 -0.39577 0.68197 -0.06165 -0.1029 -0.45688 -0.30881 0.13076 0.28605 -0.0542 0.36177 -0.06741 -0.20832 -0.21823 -0.17389 0.3503 -0.30917 -0.04999 -0.14434 0.49568 0.18869 -0.31641 0.2275 -0.59821 0.49249 0.07837 -0.00483 0.13251 0.49697 -0.00564 0.32587 0.73099 -0.06749 0.13131 0.05249 -0.09007 0.18532 0.00253 0.11721 -0.18119 0.17051
bul 0.1781 0.32376 0.30899 -0.21953 0.10414 -0.06008 -0.31114 0.13714 0.05465 0.17395 -0.12646 0.37462 -0.35593 -0.00812 -0.17772 -0.02356 0.1652 -0.09015 -0.20794 0.14986 0.60673 -0.17908 0.05588 -0.0342 0.28922 -0.35822 0.23881 0.01141 -0.0984 0.35936 -0.06197 -0.02268 0.11661 0.17405 0.13445 0.44616 0.24262 0.25415 -0.39737 0.13063 0.1492 0.12215 0.31502 0.07167 -0.26438 -0.27448 -0.1559 0.14862 0.28311 -0.11088 0.051 -0.07787 -0.09785 -0.22641 0.49416 0.08708 -0.12593 -0.03282 -0.0281 0.10719 0.0706 -0.02182 -0.37464 -0.01422
bum 0.13991 0.54625 -0.53569 0.45411 0.41613 0.11366 0.0677 0.104 -0.08423 -0.22541 -0.03169 0.02834 -0.23706 0.07848 0.12512 -0.135 -0.38289 0.38005 -0.05457 0.354 0.07418 0.50759 0.4072 0.02845 -0.07881 -0.19445 -0.09675 0.48396 -0.14307 -0.0572 0.00608 0.00026 0.19188 0.16519 0.08777 -0.46208 0.44427 0.29674 0.26972 0.01439 0.2781 -0.63396 0.57456 -0.38752 -0.21326 -0.08451 -0.10234 0.12999 -0.25816 0.33127 0.41756 0.00557 -0.44862 0.06209 0.02191 -0.0627 0.34575 0.04891 0.14621 0.55441 0.14736 -0.09621 -0.01119 0.41243
bus -0.51069 0.14093 -0.00395 0.08308 0.22503 0.37771 0.31148 -0.2971 0.57417 0.29247 0.04805 -0.09726 0.88804 0.16191 -0.22346 -0.21763 -0.10198 -0.51051 0.05289 0.12906 0.14862 -0.23399 -0.36773 -0.32476 -0.14195 0.26616 0.30888 0.1738 -0.16272 -0.19949 -0.5688 0.36606 -0.56076 -0.00951 0.77381 -0.2326 0.03707 0.23273 -0.4136 0.20207 0.01414 0.08931 -0.03951 0.00828 0.12584 0.21984 -0.21252 0.09952 0.18973 0.0721 -0.34164 0.53946 0.37177 -0.52484 -0.00786 -0.29936 -0.25696 0.48078 0.33459 -0.25186 0.5239 0.24724 0.06936 -0.24823
bvr -0.22827 -0.12564 -0.87396 -0.10761 -0.02797 -0.43073 -0.01633 -0.13119 0.13865 -0.75057 0.18375 -0.09411 0.06211 0.00035 0.53086 0.70416 -0.05905 0.17021 0.52014 -0.21581 -0.31886 -0.37148 -0.33522 0.10501 0.0854 0.05109 0.61268 0.05136 0.19641 -0.18595 0.24298 -0.4286 -0.11881 -0.13899 0.26198 0.11658 0.29099 0.24574 -0.31232 -0.25351 0.22299 0.13218 -0.44436 0.02083 0.47658 -0.32222 -0.1701 -0.02293 0.3793 0.15543 0.00111 0.02737 -0.21007 -0.06586 -0.12119 0.50218 -0.16707 -0.12618 0.14849 -0.2993 -0.15262 0.36777 0.30754 0.60949
bvz -0.14018 0.07222 -0.15807 -0.29459 0.00953 0.28867 0.44108 0.17855 -0.2707 0.3741 -0.29394 -0.08793 -0.33311 -0.11745 -0.4207 0.06425 -0.33975 -0.12589 -0.08771 -0.026 -0.20997 0.00226 0.17627 -0.49566 -0.40762 -0.05706 -0.23326 0.03363 0.30183 0.35831 -0.21912 -0.38481 -0.3605 -0.18391 -0.07564 0.16635 -0.04737 -0.01509 -0.28949 0.39077 0.03349 -0.36292 0.32947 -0.13075 0.18375 -0.00527 0.51363 0.22512 0.0085 -0.18135 0.17108 0.05607 -0.17029 0.1395 -0.52609 -0.36388 0.03984 -0.183 0.21485 0.37078 0.0586 -0.38105 0.22146 -0.30498
bwq -0.55519 0.29203 -0.24109 -0.41639 0.1183 -0.23181 0.34382 0.4716 -0.48395 -0.22959 0.04418 -0.14406 0.10481 -0.19872 0.23198 -0.03205 -0.14734 0.03649 -0.47896 0.07021 -0.02947 0.46422 -0.01739 0.05536 0.10791 0.35202 -0.25338 -0.20404 0.1734 -0.10177 -0.20947 -0.33441 0.02147 -0.14016 -0.21382 0.00367 -0.12649 0.00768 -0.21568 0.59179 0.52797 -0.56905 0.02891 -0.52769 0.34373 -1.06697 -0.12301 -0.31896 0.32953 0.13128 -0.33929 0.06431 0.42639 0.24962 1.12616 0.20241 0.03906 -0.47959 -0.7854 0.16716 0.73383 0.10378 0.05835 -0.00817
bwu -0.56491 0.16717 -0.17225 -0.0719 0.69379 0.43107 0.38066 -0.25954 0.01041 -0.35819 -0.04971 -0.16578 0.39594 -0.07244 -0.38932 -0.58826 -0.04373 0.33724 -0.53755 0.31011 -0.25126 -0.08388 0.15415 0.12071 0.03682 0.09969 0.28117 -0.23491 0.54318 -0.01312 0.31952 -0.2793 0.17867 -0.2351 -0.14623 -0.04501 -0.28354 -0.17013 0.0261 -0.36294 0.23345 0.12752 -0.19044 0.03834 -0.19078 0.3512 0.31098 -0.24123 0.17195 0.48576 0.12644 0.33688 0.04385 0.42947 -0.04091 -0.36078 0.21197 -0.47744 -0.18707 0.0448 0.16046 -0.07656 0.37627 0.28926
byr -0.34284 0.51684 -0.1002 -0.02039 -0.06303 0.41474 0.13037 0.21012 -0.30063 -0.03681 -0.24478 0.12037 -0.31912 0.7254 0.65024 -0.43601 0.26882 0.12875 0.13646 0.12708 0.34558 0.21754 0.52228 -0.27276 0.30186 0.34744 -0.06906 0.55505 0.12302 -0.00042 -0.21178 0.18748 -0.37571 -0.15689 -0.18332 0.15009 -0.61354 -0.04061 -0.33056 -0.03301 0.09458 0.00912 0.02576 0.14928 0.01767 -0.1595 0.09433 -0.17929 -0.4939 0.26903 -0.01025 0.30659 0.15757 0.11126 -0.13763 0.26295 -0.36972 -0.29699 0.06703 -0.03281 0.39851 0.40013 0.23412 -0.23577
byx 0.67024 0.20535 0.16157 -0.29411 -0.10262 0.02785 0.17651 -0.07462 0.58017 0.06799 -0.23878 0.24871 0.12438 -0.07576 0.04407 -0.81725 -0.65034 0.21157 -0.46039 -0.13991 -0.05887 -0.04884 -0.22728 1.00536 0.23767 -0.19401 -0.15354 0.36832 0.37844 -0.43592 -0.1542 -0.38929 0.29996 -0.66446 0.00916 -0.48002 0.07101 0.58064 0.44686 -0.15734 -0.41226 0.17213 0.23792 0.29616 -0.04383 0.30888 -0.13059 0.01632 0.86029 -0.27695 0.22941 -0.42009 -0.1651 -0.14925 0.29496 0.05911 -0.07942 -0.06915 -0.48076 -0.29755 0.01865 -0.18137 -0.16591 -0.35183
bzd 0.12428 0.02025 -0.38637 0.46107 -0.23478 0.21966 0.07279 -0.03976 -0.09685 -0.43061 0.23915 0.3276 0.51478 0.02941 -0.26214 -0.03832 0.32791 0.15061 0.6279 0.56078 0.16411 -0.27215 0.4753 -0.24662 0.83277 -0.48134 0.38301 -0.13253 -0.18577 0.52608 0.19766 -0.16075 0.32944 0.2855 -0.2651 0.18921 0.45636 0.56211 0.53473 -0.79948 -0.71636 0.0045 0.14399 0.1428 0.40226 -0.01445 0.13062 0.42658 0.55408 0.15843 0.0361 -0.06768 0.27081 -0.04963 -0.33674 0.59769 -0.33776 0.22298 0.25964 -0.68056 0.09393 0.07113 0.26959 -0.42562
bzj 0.03915 -0.58629 0.00568 -0.12698 0.40892 0.1569 -0.39189 -0.05101 -0.1821 -0.25485 -0.01234 -0.09073 -0.00376 0.14403 0.2258 -0.49991 -0.49743 -0.38531 -0.17347 -0.09417 -0.37051 -0.12345 -0.37596 0.1259 -0.0341 -0.5184 -0.24637 0.28124 -0.00764 0.49324 -0.14971 -0.68267 -0.11638 0.26542 0.12315 -0.44886 0.28641 0.00317 0.19491 0.24178 -0.45397 -0.20279 0.37802 -0.12741 0.17632 -0.01436 0.57076 -0.3262 -0.72166 -0.01707 0.4332 0.48376 -0.78121 0.47682 0.02981 0.16863 0.08902 0.02026 -0.18341 0.45975 -0.2336 0.36664 0.15761 -0.10189
caa 0.04509 0.59931 -0.11012 -0.11148 -0.08105 -0.13654 -0.18621 0.17991 0.00972 -0.24392 -0.37263 0.39435 -0.43686 0.1307 -0.07513 -0.22486 0.3388 0.01467 0.36186 0.24825 -0.30568 0.09721 -0.14478 -0.14307 0.07428 -0.26598 -0.25312 -0.34865 -0.19496 -0.2834 -0.17586 0.0415 -0.27043 0.32892 -0.16867 -0.28486 0.04667 -0.13153 0.04392 0.38736 -0.42907 -0.00557 -0.51167 -0.18279 0.29962 0.0987 -0.19392 0.21753 -0.71273 -0.01808 0.0484 -0.06613 -0.09937 0.21003 -0.32154 -0.04114 -0.62246 -0.57373 0.12787 0.52738 -0.29738 0.29306 -0.40248 0.38715
cac 0.4165 -0.19045 -0.17992 -0.0384 0.07246 -0.12087 -0.06608 0.13059 -0.32835 -0.25048 -0.17795 0.06329 0.11083 0.12528 -0.03243 -0.01421 0.1189 0.22814 0.06451 0.19533 -0.36594 -0.18056 -0.10012 0.02448 -0.33058 -0.14058 -0.27508 0.31099 0.0209 0.02498 -0.2129 0.09369 0.23053 0.19907 0.27146 -0.06522 0.23408 0.00198 0.11943 -0.22193 -0.36099 0.04166 0.1326 -0.06999 0.08004 0.06203 0.40196 0.26789 -0.11265 -0.15762 -0.48823 0.12781 -0.30429 0.03309 -0.1161 -0.40314 0.00348 -0.43917 -0.14836 -0.43985 0.45024 0.23505 0.43497 0.20591
caf -0.03273 -0.01343 -0.60726 0.25882 0.33839 -0.12181 -0.12853 -0.0273 -0.09503 0.05222 -0.47769 0.3478 -0.24221 -0.19057 0.09912 -0.03012 0.11216 -0.19129 0.07162 -0.03298 -0.04333 -0.0616 -0.24436 0.00174 0.3444 -0.03536 -0.4314 0.06525 0.03909 -0.11335 -0.10516 -0.48275 -0.13669 -0.03283 -0.37467 -0.25082 0.1897 -0.54313 0.00014 -0.36431 -0.41045 0.04379 0.11864 0.26022 -0.25538 0.34935 0.02003 -0.44371 -0.52084 0.49799 0.13553 -0.03553 0.18934 0.27393 0.2083 0.24694 0.3641 -0.11773 -0.05477 0.32534 -0.51637 -0.01502 0.13106 0.18177
cak 0.02911 -0.02636 0.04106 0.06314 -0.17578 -0.19371 0.28352 0.25836 0.01619 -0.36162 0.08176 -0.36236 -0.06818 -0.05072 0.03092 -0.0424 -0.0963 0.15825 0.08906 -0.1572 0.05679 -0.40472 0.65862 0.01172 0.25764 0.31654 0.13156 0.0946 -0.109 -0.08907 0.6033 -0.3136 -0.22017 0.11869 -0.24264 -0.29618 0.23835 -0.02494 0.12185 -0.38349 -0.1498 -0.16964 -0.55554 -0.11344 0.22504 0.04098 -0.11904 0.11445 -0.03356 -0.02293 -0.05697 -0.29167 0.24797 -0.18988 -0.03875 -0.33788 0.23845 0.16773 -0.15814 0.018 -0.25963 -0.05499 0.09352 0.42847
cap 0.13136 0.19092 0.20647 0.09524 0.12973 -0.33705 -0.09586 0.34135 -0.44478 -0.01426 0.31085 0.47249 -0.20364 -0.23557 -0.10453 -0.1715 -0.32142 0.40956 0.43245 0.46453 0.72787 -0.09476 -0.15347 -0.37363 -0.10661 -0.86684 -0.47783 0.61553 -0.12089 0.10024 0.34668 -0.33577 -0.21683 -0.28189 0.12479 0.49761 -0.13744 -0.13891 -0.29205 -0.33368 0.16457 -0.4252 -0.21 -0.6921 0.0861 0.14995 0.39513 -0.30758 0.21508 -0.37247 0.04327 0.03047 0.09632 -0.08873 -0.07577 -0.07047 0.15137 -0.04277 0.02722 0.2611 -0.62127 0.08426 -0.46296 -0.02582
car -0.55507 0.00795 0.31355 0.1153 0.05051 -0.19498 0.13871 -0.16258 0.66397 -0.0788 -0.23144 0.05011 -0.05938 0.18882 -0.11541 -0.41888 0.22179 -0.52618 0.37489 0.19386 0.07395 0.32038 -0.39197 0.26525 0.01897 -0.02425 0.1997 -1.12625 -0.58411 -0.12063 -0.47156 -0.19049 0.65964 0.37359 -0.40098 0.05177 -0.0107 0.23764 0.03836 0.00913 0.36009 0.32631 -0.07983 0.12391 -0.34195 -0.48065 0.44647 0.52536 0.59598 -0.33873 0.55388 -0.33507 0.8033 0.30686 -0.74936 -0.04911 -0.52963 0.50039 0.42727 -0.17522 -0.00096 -0.29811 -0.31758 0.56705
cat 0.17558 -0.11546 -0.08945 -0.04951 0.2379 0.19384 0.29462 0.00154 0.10671 0.18089 0.2737 0.09293 -0.19471 0.43018 0.21713 0.16823 -0.43077 0.54286 0.12406 -0.0245 0.40862 0.08282 -0.34842 -0.06697 0.10229 0.11094 -0.38984 -0.25073 -0.49012 0.70333 -0.01811 -0.0312 0.27503 -0.64306 -0.22859 -0.73372 0.23856 -0.13395 0.36193 -0.02016 0.09947 0.11927 -0.70906 0.28664 0.17541 0.36982 0.13122 0.18698 0.17929 0.16254 -0.12378 0.0919 -0.51409 -0.13247 0.2791 0.03809 -0.44551 0.13558 -0.3411 -0.4184 -0.11635 0.23337 0.38999 -0.21864
cav -0.09166 0.41962 0.03806 0.56282 -0.26486 0.54439 0.97537 0.29742 0.57673 -0.02789 -0.02167 0.15564 -0.42675 0.27013 -0.3327 -0.38423 0.01844 0.04912 -0.18676 -0.08492 0.11804 -0.32947 0.50015 -0.03647 -0.53003 0.49563 0.1799 -0.64721 -0.48379 -0.02156 -0.0424 0.02684 -0.49873 -0.07034 0.22062 0.27374 -0.10214 -0.20361 -0.21119 0.53543 -0.2901 0.27935 -0.8097 -0.15129 0.56066 0.63952 -0.14194 0.46841 0.01714 -0.65445 0.45156 0.33979 -0.47529 0.34108 0.38483 -0.42826 -0.09407 -0.10619 0.48679 -0.176 0.23953 -0.18207 0.18306 -0.17933
cax 0.49125 0.23592 0.02361 0.00435 -0.44287 -0.04102 0.00607 0.57452 -0.36171 -0.00646 0.05862 0.09669 0.23472 -0.22116 -0.22757 0.50707 -0.13063 0.0595 0.54674 -0.18464 0.22453 -0.02905 -0.12894 -0.07047 0.40757 0.38363 -0.06457 -0.08191 -0.0721 -0.36239 -0.27123 0.17912 -0.12991 0.23555 0.01635 0.49959 -0.09789 -0.20477 0.00642 -0.07053 0.16211 -0.19505 0.04834 0.40316 -0.21953 0.45898 0.37948 0.58791 -0.06621 0.16716 0.15814 -0.12048 0.18252 0.16765 -0.67348 0.09228 -0.56069 0.1536 -0.07931 -0.50574 0.08435 0.19891 -0.26912 0.21049
cbc -0.37642 0.09773 -0.07631 0.39884 -0.90646 0.26018 0.43766 0.47707 -0.29623 -0.33722 0.37325 -0.11096 -0.3147 0.28253 0.21152 -0.61632 -0.14086 0.15753 -0.04613 -0.37774 0.25257 0.06857 -0.08088 0.90094 -0.1071 0.19229 -0.02931 -0.17217 -0.12824 -0.46081 0.46563 0.11389 -0.47973 -0.04618 0.34624 0.16439 0.05984 0.13488 -0.27583 0.31572 -0.15353 -0.32523 -0.15911 0.1215 0.31379 -0.09091 -0.20079 -0.38641 -0.15686 0.33204 -1.11491 0.72994 0.09583 0.07769 -0.37534 -0.03705 -0.06054 0.07911 0.12627 -0.00351 -0.30314 -0.06459 0.2402 -0.37534
cbi 0.00193 -0.60011 -0.03418 0.01699 -0.15739 -0.0054 0.34639 -0.14299 0.01535 0.36243 0.02621 0.48294 -0.10469 -0.01882 -0.72758 -0.25745 -0.17135 -0.41857 0.62655 0.2513 -0.2739 -0.50675 0.31248 -0.02802 -0.56442 -0.27595 0.66924 -0.04415 -0.11393 -0.36829 0.44601 -0.25163 0.1475 0.0669 -0.13321 0.01727 -0.3263 0.075 0.52193 -0.22276 0.11618 -0.09025 -0.22208 0.30525 -0.27058 -0.04146 0.37623 0.03595 0.5824 0.20621 -0.33793 0.40913 -0.06845 0.24273 0.23652 0.22423 0.16768 -0.13992 0.21683 -0.05051 0.2062 -0.38576 0.65713 0.46636
cbk 0.18619 0.5104 -0.12276 0.28993 -0.235 0.30353 0.31627 0.37133 -0.28248 -0.46725 -0.51414 0.18122 -0.29321 0.46143 -0.01595 -0.20188 0.20502 -0.09336 0.18452 -0.25246 -0.41473 -0.12265 0.02354 0.11103 -0.82928 -0.7622 -0.3989 0.09708 -0.00577 -0.2255 -0.45144 0.27903 0.0406 0.10577 -0.20946 0.04924 0.10678 -0.33107 0.17125 0.15545 0.26445 0.01734 -0.43268 0.22754 -0.02588 0.16927 0.15188 -0.17907 -0.04502 -0.43485 -0.34155 0.43572 -0.23032 0.00326 0.28459 -0.55159 0.13988 -0.15984 -0.30142 -0.22837 0.13035 -0.43846 0.64836 -0.0425
cbr -0.02232 -0.33069 0.75605 0.10688 0.05954 -0.663 0.10448 0.26856 0.44524 -0.5828 0.85888 -0.37259 -0.62345 -0.2428 -0.10995 0.17073 -0.17094 0.35797 0.22312 0.17665 -0.10037 -0.72402 -0.05447 -0.04027 -0.00348 0.44225 0.13531 -0.22679 -0.06625 0.0282 0.0241 -0.49089 -0.24777 -0.64859 -0.12655 0.19043 0.96596 0.16066 0.77768 0.43514 -0.09216 -0.01172 -0.29492 0.04099 -0.05166 0.27584 0.22157 -0.22228 0.71543 -0.54188 0.3339 0.38904 0.0284 0.01804 0.03656 0.34589 0.41766 -0.12324 0.25426 -0.43066 -0.34206 0.48666 -0.3072 -0.20108
cbs -0.00077 0.00733 0.34928 0.34204 -0.00437 -0.0131 0.40073 0.15349 -0.30326 0.59477 0.44208 0.32139 -0.39006 -0.44344 0.25036 -0.90437 -0.08081 0.19608 0.59207 0.51313 -0.00255 -0.57795 0.34472 0.50421 -0.15148 0.23796 -0.86112 0.53722 -0.46285 -0.32329 0.13319 -0.41219 0.16054 -0.00371 -0.6076 0.09209 0.10016 -0.13409 -0.26973 -0.08468 -0.42603 0.20291 0.03754 0.53594 -0.21112 0.24805 0.23584 0.07683 -0.15056 0.13788 -0.16131 0.01906 -0.11345 -0.08502 -0.13154 -0.34297 -0.16913 -0.15618 -0.27706 -0.14056 -0.51382 0.06822 -0.00842 0.29068
cbt -0.61283 -0.38596 0.24814 0.06555 0.09383 -0.28669 -0.36269 0.15003 0.33801 0.52729 0.59585 0.24991 -0.79229 0.28234 -0.498 0.88714 -0.29061 -0.02336 0.06558 -0.00346 -0.27708 0.032 0.24593 0.16381 0.45013 -0.02273 0.25177 -0.43401 -0.40078 -0.24084 -0.13167 -0.1273 0.12707 -0.24232 0.17835 0.41097 -0.00785 -0.46345 0.15587 0.20773 -0.34047 -0.74275 -0.268 0.24117 0.54076 0.42976 0.17371 -0.46077 -0.18315 -0.45164 -0.05229 -0.39608 -0.59822 -0.0193 -0.29108 0.69086 0.04165 -0.25728 0.20044 -0.16397 0.11398 0.36369 -0.16428 -0.06584
cbu -0.13378 -0.61473 0.02072 0.33417 -0.42023 -0.34683 0.36326 -0.04258 -0.22398 0.51966 -0.15008 0.58218 0.05467 -0.27335 0.05186 -0.15201 -0.11329 0.00154 0.21573 0.45154 -0.00148 -0.20166 -0.16329 0.03088 0.70626 -0.3336 -0.38781 0.28437 -0.31631 -0.25998 0.2235 -0.22534 0.038 -0.09561 -0.46171 0.38407 0.07426 -0.83851 0.0128 0.13548 0.38134 -0.17635 0.32407 0.48159 0.20279 0.4756 0.1223 0.22193 -0.61618 -0.04798 0.25986 0.59797 0.19717 0.03592 -0.00379 0.58592 0.37018 0.09888 0.01069 0.44664 0.38606 -0.09839 -0.19181 -0.10316
cbv -0.3768 0.05273 0.38916 0.53642 0.29592 -0.20221 -0.21605 -0.11251 -0.27392 0.25427 -0.09053 0.10767 -0.4247 0.02041 0.0529 0.07525 0.29741 -0.08192 -0.10096 0.35598 -0.12415 0.05995 -0.07836 0.49959 0.16081 0.16709 0.08202 0.43066 -0.14922 -0.17064 -0.32597 0.09603 0.05429 -0.08203 0.04004 -0.2459 0.24229 -0.12481 0.16351 -0.2765 0.03071 0.33253 -0.04973 -0.01229 0.09807 -0.09726 0.39512 0.09003 -0.04081 -0.16808 -0.12828 -0.01031 0.12753 0.33055 -0.13761 0.24467 0.2505 -0.07785 -0.06403 0.38166 -0.16651 -0.08258 -0.06253 0.21935
cce 0.46625 0.34074 0.07402 -0.30893 0.36374 -0.52888 0.24293 0.09258 -0.11028 0.06194 -0.19057 -0.54784 0.1606 -0.2244 -0.18374 -0.18122 -0.10163 -0.38001 -0.17518 0.09771 0.36941 0.02775 0.40728 -0.37672 -0.36742 -0.0207 0.42312 -0.16291 0.23943 -0.0382 -0.31743 0.02469 0.10366 0.70778 0.28256 -0.25115 -0.00676 -0.05966 0.1493 0.00046 0.14047 -0.21582 0.54615 -0.0673 0.40734 -0.01119 0.30098 -0.47792 0.55689 -0.52668 0.11652 -0.31729 -0.32848 0.39314 -0.41289 -0.44058 -0.25852 -0.41469 0.80253 -0.00841 0.66894 -0.12648 0.02024 0.15723
ceb 0.25784 -0.10873 0.07138 0.06928 -0.3369 -0.17615 -0.08835 -0.15157 -0.00125 0.10803 -0.031 0.10839 0.27483 -0.0936 -0.12816 -0.18173 -0.09241 0.00131 0.0055 0.04713 0.19632 -0.02661 0.02022 -0.02083 -0.27923 0.23177 0.24454 0.16024 0.09157 0.0783 -0.23267 -0.11325 -0.47105 -0.10673 0.29049 0.30931 0.10503 -0.29109 0.00426 -0.06417 -0.103 0.11569 -0.4021 0.08489 0.10634 -0.03668 0.22624 0.15558 -0.19146 -0.36033 0.06183 0.09924 -0.33092 -0.198 0.26573 0.17914 0.2578 -0.4068 -0.28287 -0.12617 -0.25729 -0.25684 -0.35443 -0.1001
ceg -0.09178 0.46185 -0.18697 0.11887 -0.04982 -0.23524 -0.48126 0.5859 -0.34797 -0.00559 0.28587 0.44366 0.15497 -0.22825 -0.25249 -0.27387 0.13212 0.09588 -0.32046 0.38684 -0.20204 0.0638 0.02037 -0.16794 0.06072 0.1806 0.10016 0.28936 -0.77346 -0.07576 0.00975 -0.33367 0.12144 -0.32162 -0.4511 0.54575 -0.58192 -0.58066 0.18707 0.23272 -0.08311 0.12165 0.43989 -0.20233 -0.04224 0.44298 0.02376 0.11033 0.06682 0.03362 -0.23616 -0.06865 0.19875 0.28879 -0.18531 0.32476 -0.5004 -0.37284 0.33875 0.22288 0.18886 0.22551 0.1111 -0.34522
ces 0.13478 -0.04334 -0.00054 0.19956 0.03249 0.03447 -0.45593 -0.19876 0.24546 -0.10571 -0.17709 -0.0591 0.04513 -0.06169 -0.19402 0.68778 -0.04554 0.038 -0.35226 -0.20125 0.55078 0.43367 0.3761 0.0591 -0.23279 0.11286 -0.23784 0.07727 -0.15827 0.36955 0.34697 0.11182 -0.17021 -0.24831 0.28209 0.28694 0.32665 0.19025 -0.01726 -0.13102 -0.18229 -0.29785 0.24676 0.23056 0.00868 0.40045 0.41321 0.29311 -0.47446 0.16726 -0.17178 0.02892 -0.02415 0.00818 0.15041 -0.27171 -0.15796 -0.16307 0.20333 -0.02029 0.06844 0.03789 0.05969 0.48492
cfm 0.67955 0.06974 0.31191 -0.12645 0.10968 0.20533 0.08924 0.1583 0.27313 0.2196 0.13761 -0.07704 0.26881 -0.07333 -0.14867 -0.06588 -0.11413 0.25882 0.11521 -0.51903 0.20103 -0.29 -0.02282 -0.05935 -0.20312 0.39782 0.34623 0.07199 0.0642 -0.17302 0.22463 -0.00548 0.159 0.05791 -0.16353 0.00203 -0.03862 -0.37501 0.03597 0.04779 0.10586 0.10219 0.38816 0.11921 -0.25524 0.0105 -0.0283 -0.4056 0.13792 0.37998 0.29704 0.08875 0.32367 -0.01581 -0.34257 -0.14195 0.2512 -0.28769 -0.1471 -0.0383 0.06395 0.21192 -0.08094 -0.05355
cha -0.16951 -0.42426 -0.24408 0.03499 0.00951 -0.06446 0.22041 0.36824 -0.83475 0.41159 -0.0557 -0.03116 -0.18283 -0.35759 0.20894 -0.41569 0.01175 -0.15022 0.28988 0.1581 -0.16469 0.38703 0.36752 -0.12284 -0.1265 -0.47348 0.06973 0.20361 -0.02349 0.26562 -0.38146 -0.53037 -0.01474 -0.1875 0.31495 -0.12288 -0.06645 -0.00094 -0.14238 -0.01684 -0.57247 0.08078 -0.647 0.17036 0.45612 0.42208 -0.30396 0.54231 0.06916 -0.31876 -0.13736 0.30654 0.20552 -0.1754 -0.03411 -0.43761 -0.16066 -0.08469 -0.09556 0.18032 -0.25419 -0.01964 0.05684 0.37992
chd 0.7329 -0.30464 0.13153 -0.1068 -0.37027 -0.27139 0.00567 -0.11232 -0.32348 0.58274 0.29408 -0.41302 -0.5 0.36046 0.19173 0.5109 -0.28872 0.32656 0.25482 -0.07751 0.20723 0.3455 0.50019 0.33839 -0.07636 0.16207 0.10627 -0.18681 -0.49526 -0.10406 -0.09669 -0.34006 -0.11847 -0.02407 -0.17722 0.33757 -0.06886 -0.17932 -0.02732 0.14473 -0.59231 0.15869 0.43105 -0.15126 -0.02052 0.57225 -0.00339 0.12089 -0.14873 -0.04426 0.20481 0.5648 0.02788 0.1525 -0.56901 -0.07836 -0.10454 0.16044 -0.11458 -0.34508 -0.03016 -0.10838 -0.10396 0.15811
che -0.2069 0.05532 0.13267 -0.06153 0.12453 0.13151 -0.23365 -0.2489 -0.27279 -0.29338 -0.09141 1e-04 -0.09248 -0.36844 -0.02086 -0.18085 0.03295 -0.17836 0.25957 0.02014 0.03878 0.08397 -0.10991 0.06946 0.2485 0.23456 0.1856 -0.17782 0.21957 0.17394 -0.09902 0.19656 0.10651 0.04785 -0.22408 0.33872 0.30488 0.44194 0.1681 -0.01139 0.02261 0.28124 -0.05203 0.33393 -0.1398 -0.0013 -0.36492 -0.01733 0.13299 0.07187 0.02127 0.05613 -0.08317 -0.01004 0.14257 -0.01875 -0.2804 -0.14403 -0.3151 -0.03833 0.08518 -0.01717 -0.05264 0.1063
chf 0.11307 -0.12175 0.38346 -0.20545 0.0542 -0.24333 -0.07371 0.36279 -0.1383 -0.13647 0.24777 -0.12683 0.42625 0.42047 0.31991 0.10636 -0.12376 0.2215 -0.10193 0.06695 -0.27251 -0.41262 0.1367 0.62956 -0.06194 -0.9279 0.44592 0.23134 0.31199 0.32468 -0.43024 -0.23726 -0.14643 0.4012 0.25774 -0.09463 0.32069 -0.49242 -0.11934 0.11504 -0.27908 -0.82237 -0.06616 -0.47074 -0.15358 0.35092 0.11897 0.03867 0.0659 -0.21962 0.07324 0.3043 0.1544 0.60348 0.03421 -0.03759 0.27664 -0.6312 0.12549 0.15077 0.0787 0.09546 -0.35314 0.24
chk 0.35212 -0.25571 0.22577 -0.02331 0.14416 -0.06269 0.02352 -0.03565 -0.41229 -0.14261 -0.06466 -0.19814 0.22693 -0.46812 -0.11344 -0.39343 -0.00582 -0.16373 0.2257 0.10406 -0.18384 -0.23127 0.14366 0.58973 0.06689 -0.02138 -0.32317 -0.14165 -0.08601 0.40358 0.2598 -0.22699 0.14147 0.20455 0.22497 0.53801 0.04281 0.03813 0.18089 0.06134 -0.24278 0.39789 0.16019 -0.05355 -0.07167 0.31232 -0.00378 -0.01851 0.05164 -0.56582 -0.14793 0.09589 -0.11002 -0.10673 0.47069 0.27936 0.28338 0.08048 0.12527 0.04866 0.12794 0.344 -0.201 -0.38348
chq 0.20807 -0.3597 -0.1436 0.66402 -0.1804 0.15723 0.10437 0.17315 -0.44612 0.26436 -0.31724 -0.11418 -0.13116 -0.01617 -0.45556 -0.18238 0.26827 -0.47882 0.28176 -0.30197 0.34755 -0.04829 -0.04822 -0.0352 -0.51988 0.07133 0.05672 -0.15976 -0.53285 -0.09116 -0.24629 0.0739 -0.23752 -0.02014 -0.35366 -0.57277 -0.20603 -0.11783 0.51496 -0.2088 0.29542 -0.37584 0.58782 -0.50979 0.4032 0.15996 -0.30086 0.3231 -0.15632 -0.00775 -0.43422 0.10813 0.0472 0.00241 -0.42742 0.38297 0.46429 -0.13958 -0.14273 -0.07232 0.16022 0.27309 -0.01578 0.01932
chr -0.37375 -0.15408 0.01546 -0.0851 -0.18052 0.136 -0.48809 0.45421 -0.01258 -0.16406 0.24215 -0.17204 -0.52951 0.0263 -0.24277 -0.13797 -0.01296 -0.08453 0.02201 -0.36244 -0.36387 0.73509 0.11747 -0.1892 -0.05815 0.01588 0.06008 0.23066 0.35504 -0.48379 0.26397 0.21876 -0.23091 -0.04279 0.81251 0.45523 0.25273 -0.16506 -0.15318 -0.08328 -0.05579 -0.16485 -0.20297 0.11273 0.34129 0.1599 -0.04979 0.02553 -0.37963 -0.04315 -0.19636 -0.2915 -0.29198 0.11532 0.4525 -0.08878 -0.43258 0.23524 0.04629 0.0931 0.1682 -0.43402 0.18652 -0.218
chu -0.25069 0.30372 0.18526 0.13576 -0.11793 -0.03889 -0.13223 0.3953 -0.23511 0.42651 0.177 0.23099 -0.50984 -0.11064 0.1642 0.26346 0.21239 0.0662 -0.08124 -0.50679 0.114 -0.10259 -0.08442 -0.44779 0.14057 0.48057 0.00762 0.16638 -0.29146 0.06598 -0.4441 -0.06226 -0.12523 -0.43276 -0.08818 0.15241 0.16166 0.23802 0.18864 0.31436 -0.00177 -0.35556 0.23089 0.21947 -0.04608 0.2461 -0.19315 -0.48571 -0.14327 -0.35347 -0.26886 -0.26637 0.29311 0.0023 0.44938 0.26514 -0.46443 -0.26076 -0.16741 0.08194 -0.19744 -0.07577 -0.28436 0.27152
cjo 0.0896 -0.34706 -0.08776 -0.22373 -0.39201 -0.22913 -0.35263 0.13176 0.24542 -0.15457 0.06514 0.31926 -0.35272 0.19319 -0.26602 -0.304 0.30111 -0.18464 0.04629 0.08691 0.1585 -0.36623 -0.02062 0.3341 0.20496 0.26735 0.00496 -0.37546 -0.41289 -0.09383 0.26498 -0.05263 0.08262 0.16539 -0.36973 0.09759 -0.24859 0.18046 -0.23652 0.23647 0.25978 -0.40331 -0.5514 -0.33409 -0.29036 -0.07527 -0.13957 -0.2627 -0.46003 -0.60448 -0.27657 -0.20711 -0.47395 0.0557 -0.06686 -0.12457 0.1535 0.58454 -0.26484 -0.18071 -0.32609 -0.08522 -0.28613 0.06396
cjp 0.13923 0.56541 0.46029 0.52045 -0.49705 -0.02704 -0.29591 -0.13925 0.12801 0.06805 0.56512 0.27208 0.19106 -0.03326 0.02148 0.24885 0.33151 0.38055 0.18591 0.53682 0.06993 -0.38646 0.14475 0.86676 -0.06579 -0.09769 -0.06807 0.40615 0.18248 0.17766 0.21278 -0.38444 0.13264 0.45451 0.03967 0.29201 -0.15839 0.26495 0.44704 -0.22876 -0.5444 0.18661 0.01732 -0.16066 -0.0091 0.29246 -0.5301 -0.01428 -0.02831 0.01087 -0.19767 -0.25651 -0.12376 0.26572 0.16017 -0.07219 0.24828 0.30519 -0.448 0.10962 0.87031 0.14693 0.03985 -0.16171
cjv -0.87085 -0.21219 0.16729 0.48347 -0.49944 0.09935 0.7642 0.34104 0.12599 0.26821 0.07695 -0.03638 -0.30022 0.59894 0.03359 -0.17467 -0.73172 -0.42713 -0.22931 0.05871 0.04587 0.24226 0.37115 -0.04865 0.71208 -0.1564 0.41832 -0.4392 -0.10682 0.39267 0.19128 0.15133 0.5867 0.06416 0.1268 -0.72353 -0.7009 0.41688 -0.21414 -0.13999 0.31114 0.23402 -0.05893 0.18937 0.25388 0.14592 -0.09383 0.36192 0.09266 -0.04536 0.03318 -0.0416 -0.27562 -0.58932 -0.16098 0.0255 -0.46266 -0.54396 -0.04094 -0.20537 -0.0563 0.29342 0.1772 -0.21769
cko -0.45448 0.17937 -0.07436 0.28192 -0.15664 0.14167 0.51533 0.06278 0.34316 0.00506 -0.19083 -0.26814 0.23109 0.40886 0.15059 -0.04279 -0.44495 -0.32653 0.05077 -0.13378 -0.20849 -0.91796 -0.02142 -0.2773 0.1969 -0.24244 0.40112 0.13891 0.79002 0.18881 -0.67093 0.02231 0.19154 0.00148 -0.13039 -0.15748 0.11101 -0.00213 -0.11726 -0.10801 -0.04373 0.09936 0.24723 0.22387 -0.03629 0.20667 0.31793 -0.68449 -0.28619 -0.23045 -0.16299 -0.01166 0.25891 0.12205 0.34829 -0.12845 -0.26837 -0.1546 -0.10903 0.412 0.78414 0.31912 -0.1788 0.3719
cle 0.00404 0.1111 -0.08268 0.12733 -0.39043 -0.03758 0.13739 0.00953 0.1122 -0.27841 0.43491 -0.35867 -0.19775 0.03304 -0.01448 0.05583 0.24669 0.06775 0.26088 -0.27753 0.92552 -0.24806 0.0615 0.03447 -0.14058 -0.06324 0.1603 0.2799 -0.10472 -0.2993 -0.29781 0.00664 0.41655 0.20055 -0.0953 -0.13312 -0.12789 -0.14056 0.20364 -0.40927 0.45267 0.69667 0.32908 -0.02434 0.3974 -0.43931 0.08829 0.12474 0.29352 -0.08584 0.13184 0.15057 0.11064 0.97245 -0.01813 0.3145 -0.04128 0.39293 -0.51513 0.02447 -0.33779 -0.00096 -0.55479 -0.09176
clu -0.25878 0.14438 -0.00325 -0.34103 0.05891 0.11497 0.1045 -0.60157 -0.16236 0.32114 0.03135 0.02114 -0.18915 0.23003 -0.03952 -0.11082 0.63841 0.43017 -0.00189 -0.14156 -0.39201 0.1403 -0.1247 -0.11779 -0.18546 0.38246 -0.20193 -0.31521 -0.28951 0.46034 0.57207 0.27332 0.22741 -0.20956 0.45906 -0.37888 0.14779 -0.34825 -0.34575 -0.37051 0.45734 -0.49251 -0.48314 0.22089 0.14621 0.1886 0.06863 0.27821 -0.43081 -0.25987 0.71662 0.11385 -0.31289 -0.23041 -0.11242 0.35369 -0.20558 -0.30402 -0.07371 -0.23391 0.02203 0.54817 -0.16226 0.39604
cly -0.16839 -0.10961 0.30382 -0.25489 0.18112 -0.17214 0.01161 -0.06287 -0.00965 -0.48206 0.18757 0.09927 -0.13366 0.47409 -0.46494 0.04916 0.18711 0.11849 -0.10624 -0.24728 -0.46575 -0.37089 0.08079 0.56114 0.00271 -0.09224 -0.01222 0.0898 -0.06844 -0.06858 0.4097 -0.27738 -0.43755 0.22276 -0.13287 0.09091 0.33406 -0.39798 0.49147 -0.22968 0.12973 0.10539 0.0378 0.17475 0.13401 0.1896 0.07846 0.22591 -0.12802 0.08206 0.23674 0.07793 -0.12472 0.22205 -0.04347 -0.00754 0.51269 -0.16363 0.47234 -0.23349 -0.09179 0.00093 0.06537 -0.13375
cme -0.05385 0.55382 -0.18359 -0.67587 -0.40653 -0.27453 -0.1158 -0.41278 0.12315 0.01243 0.21542 -0.07406 -0.33616 0.28604 -0.2998 0.03243 -0.51699 0.12706 -0.03071 -0.03593 -0.39581 -0.10001 -0.31083 -0.35884 -0.50489 0.18645 0.76741 0.5084 0.08752 0.56342 -0.15744 -0.2802 0.0084 -0.07918 0.28642 -0.49131 -0.05702 -0.45604 0.00533 -0.07445 0.17198 -0.2559 -0.20715 -0.0055 -0.02981 -0.54923 0.45814 -0.29522 -0.31801 0.67888 -0.05405 -0.46581 0.08063 0.54641 -0.1316 -0.36232 -0.25115 -0.20402 -0.35769 -0.27133 0.77017 -0.11364 0.37196 -0.01024
cnh 0.29677 0.14531 0.44694 0.14849 0.42788 -0.08234 -0.11901 0.13679 0.26142 0.26278 0.04702 -0.46364 0.27707 -0.10173 -0.32839 -0.38536 0.22924 0.20591 0.19012 -0.51255 0.25795 0.02168 0.01851 -0.03728 -0.27342 0.29123 0.31515 0.09856 -0.08146 0.05049 0.03931 -0.19304 -0.09841 0.0342 -0.05414 -0.05802 -0.06625 -0.40225 0.04235 0.2401 0.28676 0.12702 0.19481 0.04982 -0.06022 0.31988 0.035 -0.37714 0.07678 0.02528 0.14604 -0.22327 0.3263 0.15734 0.16571 -0.12808 0.37464 -0.24241 -0.18937 -0.247 -0.09764 0.11371 -0.17116 0.27312
cni 0.03355 -0.54113 -0.18896 0.39154 0.45647 -0.60733 -0.38728 -0.07104 0.29782 -0.12372 -0.05664 0.31205 -0.43751 0.23519 0.01221 0.08811 -0.39665 -0.01246 0.61927 0.1981 -0.23433 -0.37482 0.34776 0.48059 0.55309 0.26607 -0.42014 -0.13195 -0.29443 0.0365 0.26679 0.68039 0.37103 0.05268 -0.56874 0.33993 0.02523 0.15114 -0.1629 0.38509 -0.29071 -0.39065 -0.71212 -0.19978 0.11826 0.31449 -0.27998 -0.07823 0.25946 -0.243 0.24468 -0.23756 -0.32246 -0.2037 -0.36955 0.12636 -0.18947 0.30971 -0.12315 -0.35902 0.07993 -0.29197 0.05666 -0.00294
cnw 0.30321 -0.13163 0.31808 0.0491 0.07233 0.04219 -0.06441 -0.07464 0.34638 0.51038 0.07609 -0.4752 0.42215 -0.1031 -0.58416 0.11489 0.39443 0.22046 -0.19147 0.18676 0.29659 -0.51824 -0.25881 0.00269 0.09523 0.00401 0.03225 -0.33193 0.42469 -0.2205 0.11282 -0.19945 0.34397 -0.08998 -0.24383 -0.03375 0.05083 -0.25354 -0.00655 -0.083 -0.20272 -0.05194 0.32744 0.34382 -0.25824 0.34639 0.02942 -1.0014 0.09437 0.44666 0.12317 0.15405 0.09132 0.05252 0.35284 0.0221 -0.02118 -0.57936 0.1273 0.3739 0.01683 0.19598 -0.01205 0.17378
