943 64
aai 0.18273 -0.07602 -0.07849 -0.18635 0.10539 -0.45816 -0.01583 -0.23317 -0.4025 -0.12173 0.54033 -0.36545 -0.47173 0.34301 -0.23949 -0.30762 -0.36649 -0.47666 -0.03761 -0.05182 0.38134 -0.56558 -0.06568 0.16911 -0.23452 0.75109 0.4444 -0.56875 0.21209 -0.20673 0.32809 0.07258 -0.5475 -0.50767 0.05952 0.04811 -0.19996 -0.03581 0.90237 -0.03659 0.4103 -0.11911 0.69834 -0.43779 -0.0464 0.10092 0.07729 0.26112 -0.18876 0.34462 -0.35359 0.16509 -1.00804 0.01261 -0.69 -0.4127 0.56913 0.3221 0.36553 0.32949 -0.39054 0.43307 -0.0483 -0.14655
aak -0.07352 0.03686 -0.73316 -0.23132 -0.72332 -0.22793 -0.2497 -0.03895 -0.47166 0.19982 0.20859 -0.1049 0.0292 0.12627 0.16235 0.13274 -0.21931 0.30831 -0.89828 -0.15632 0.23457 -0.06499 0.3663 0.00098 0.17294 0.18409 -0.44236 -0.17439 0.51881 0.0018 0.09176 -0.64955 -0.83893 0.06477 -0.28303 -0.2039 -0.48411 0.28662 -0.34983 -0.58088 -0.19125 -0.52265 -0.26697 0.49725 0.10742 0.57752 0.86496 0.794 0.16286 -0.05201 0.31508 0.00494 -1.1676 -0.83507 -0.44979 -0.17194 0.33189 -0.57642 0.16618 1.01582 -0.07655 -0.53076 0.17732 -0.67023
aau 1.0571 0.13049 -0.46115 -1.08481 0.5215 -0.65364 -0.2092 0.10766 0.30197 -0.22497 0.35595 0.158 -0.04283 0.32369 0.24674 0.39025 0.59931 0.59537 0.43011 -0.39671 0.31177 -0.11688 0.0535 -0.46307 -0.11547 0.78346 -0.1197 -0.12013 -0.18378 1.03968 -0.04192 0.24374 -0.59633 0.04702 0.19074 -0.45739 -0.73736 -0.13715 -0.89736 0.19718 -0.29648 0.26137 0.13669 0.24314 -0.04048 -0.02407 -0.06115 -0.28318 -0.42913 0.56352 -0.15308 0.15446 -0.07592 0.04605 0.76489 0.42997 0.00088 -0.21323 0.61203 -0.29587 0.83725 0.00528 0.33319 -0.26269
abt -0.14095 0.57938 -0.18858 0.70277 0.40713 -0.31157 0.23573 0.04588 -0.3581 0.28104 -0.73169 -0.64447 -0.12708 0.83319 -0.59752 0.82883 -0.32183 0.33925 0.65238 -0.02956 0.07628 -0.10225 0.14562 0.208 -0.54597 -0.34612 0.27259 -0.43039 0.29522 0.07912 -0.1322 0.43793 0.00499 -0.35796 -0.49356 -0.28965 -0.51186 -0.02887 0.15665 -0.44357 -0.16832 0.53219 -0.14906 0.16023 0.06408 -0.40212 -0.59452 -0.27715 -0.56659 0.34665 -0.28434 0.02944 -0.20733 -0.23163 -0.04438 0.12562 0.13849 -0.20972 0.42064 -0.27345 0.46625 0.34726 0.1568 0.37723
abx -0.11992 0.02129 -0.0993 0.01314 0.27859 0.28615 0.10766 -0.45161 0.68948 -0.5047 0.09174 0.11453 0.63018 -0.18137 0.07896 -0.1047 0.108 -0.18137 0.69588 0.15803 -0.02223 0.23772 -0.41368 -0.11749 0.1901 -0.33315 0.29286 0.13601 0.34272 -0.62615 -0.06892 -0.46216 -0.62038 0.25229 0.10243 0.06331 0.16806 0.04591 0.40854 0.23761 0.10844 0.77355 0.43717 -0.16684 0.35572 -0.0538 0.02297 -0.42428 0.23169 -0.06369 -0.04078 0.2557 -0.31439 0.36049 -0.39371 0.41812 0.47941 -0.51436 0.05282 -0.01551 0.28862 0.65517 0.67886 0.56969
aby 0.25497 -0.1628 0.00174 -0.49739 0.79786 -0.05508 -0.66618 -0.35856 -0.3402 -0.01822 0.0038 -0.14111 -0.1394 -0.18793 -0.58356 0.15603 -0.1049 -0.27446 -0.17027 -0.77088 -0.39019 -0.05601 0.89062 -0.2639 -0.47976 0.11874 0.05877 -0.15441 0.2323 0.42428 -0.11661 0.45925 0.32988 -0.24778 -0.36779 -0.41112 -0.05584 -0.53393 -0.43348 0.4523 0.28219 0.35908 -0.37941 0.02252 -0.10831 0.23931 0.01627 0.01422 -0.47552 -0.04449 0.15755 -0.64294 -0.30085 0.03931 -0.05837 0.04179 0.26277 1.1694 0.21606 0.62342 -0.60842 0.0977 -0.26942 -0.66451
acd 0.13084 -0.33059 -0.22094 0.3603 0.26643 1.23196 0.17811 -0.88513 0.20727 -0.56764 0.45 0.20768 0.26677 0.4284 -0.01999 0.2594 0.31827 0.63358 -0.74859 -1.1395 0.1813 0.07602 0.33517 -0.35823 -0.46502 0.17388 0.51237 -0.01237 -0.13762 -0.64745 0.20129 -0.14495 0.16727 -0.03749 0.04935 -0.56827 0.48509 0.34982 -0.12281 0.54261 -0.08892 1.31787 0.25579 -0.39165 0.19443 -0.42183 0.71514 0.32584 -0.21193 -0.24027 -0.28053 0.50317 -0.18561 -0.20138 0.83049 -0.76717 -0.05791 0.24477 0.15304 0.27677 0.01205 0.15261 -0.20074 0.0704
ace 0.45722 -0.86766 -0.47121 0.17882 0.00943 -0.52652 0.11391 0.03676 -0.04383 0.18543 0.10174 0.40355 0.90167 -0.67072 -0.56866 -0.2853 0.11628 -0.52313 0.22481 -0.29444 -0.43069 0.49686 -0.04305 -0.23717 -0.68906 -0.36703 -0.31956 -0.29165 0.67042 -0.55912 -0.39543 -0.71859 -0.19452 -0.62711 -0.06676 -0.35423 0.50536 0.0856 -0.22447 0.52376 0.82627 0.51497 -0.4744 -0.42383 0.1554 -0.16202 -0.36978 -0.23452 0.45464 0.12071 0.28209 -0.61674 -0.12084 0.35554 0.3512 -0.53838 -0.14439 0.07263 -0.36916 -0.28162 0.77296 -0.02045 -0.10404 0.0837
acf 0.23944 0.16042 0.16371 0.35134 0.23781 -0.31323 -0.39467 -0.30534 -0.48337 0.03046 0.9556 0.07182 -0.584 0.24796 -0.56669 -0.02164 0.88183 0.26399 0.4755 0.42361 -0.10758 0.3558 0.16408 0.36405 0.1861 -0.31659 -0.21096 -0.28252 -0.28366 0.35577 1.15045 -0.19655 0.52408 -0.2648 -0.19081 0.56502 -0.71011 0.01161 -0.32201 0.27203 -0.18924 -0.00384 -0.54741 0.32686 -0.51799 -0.06158 -0.3443 0.57192 -0.56035 0.04859 -0.10949 0.67349 0.26907 -0.14932 0.06049 0.53897 0.8042 -0.17147 -0.34154 0.31249 0.46534 0.43605 -0.65367 0.25096
acn 0.23229 -0.14939 0.04349 0.55351 0.01105 0.21558 0.9601 0.21725 -0.17572 -0.15877 0.9351 -0.48728 0.15666 -0.49208 -0.4968 0.23931 0.4921 -0.14147 -0.18601 0.28604 0.57381 -0.49917 -0.4523 -0.3061 -0.52628 -1.04478 -0.25954 -0.58993 0.47274 -0.0398 -0.02172 0.26699 -0.35108 -0.71864 -0.70109 0.63863 -0.82414 0.97173 -0.6713 0.17686 0.33928 -0.76973 -0.17589 0.14217 -0.39591 -0.03973 0.29257 0.29904 -0.04881 -0.23928 0.27669 -0.07931 0.09516 -0.05175 0.52 0.05865 0.08515 -0.32234 1.00886 -0.11647 -0.50781 0.29466 -0.5994 0.29551
acr -0.18248 -0.01413 0.14267 -0.94517 0.0418 0.00201 -0.13402 0.02773 0.14518 -0.19333 -0.35527 0.01177 -0.40552 -0.33024 -0.10554 0.51501 -0.36069 -0.27998 0.72703 -0.38452 0.62674 -0.26686 -0.9301 0.24979 0.15505 -0.36645 0.10636 0.42604 0.32345 0.10778 0.23163 -0.46067 0.00274 0.35738 -0.14468 -0.1804 -0.12097 -0.24752 0.39588 -0.44562 0.15411 0.27911 0.19534 -0.59184 0.17911 -0.22275 0.60629 0.00436 0.04143 -0.36675 0.17182 0.28342 0.25327 0.29029 0.01793 -0.59825 -0.54507 0.32215 0.47252 0.3112 0.08363 0.17956 0.1786 0.16014
acu -0.37634 0.26352 -0.14787 -0.48457 -0.01655 -0.30155 -0.23888 -0.33014 0.26185 0.00431 -0.27134 0.16668 -0.23709 -0.13111 -0.27513 0.30469 -0.5848 0.09852 -0.47805 -0.57689 0.27775 -0.36833 0.49816 0.30919 -0.22657 0.00595 -0.07493 0.51039 0.97106 0.41991 -0.01196 0.32111 -0.31404 -0.01 -0.00293 -0.35196 0.67826 0.46568 -0.16642 -0.33516 -0.31243 0.00815 0.27512 -0.10352 -0.14014 -0.15234 -0.01374 -0.15131 -0.4352 0.00323 -0.15298 -0.69567 -0.47848 0.1892 0.07709 0.44951 0.23767 -0.28898 -0.08413 -0.30504 0.16029 -0.04393 -0.45501 -0.31121
ade 0.48119 -0.15919 0.08783 0.18659 0.77865 -0.41013 -0.23976 -0.29818 1.03167 -0.44105 -0.19591 -0.31727 0.11475 0.17694 0.35573 -0.1464 0.59245 0.49115 0.13191 -0.21265 0.44015 0.35514 0.76371 -0.24809 -0.79003 0.55683 0.20071 -0.01895 0.25393 -0.56316 0.38822 0.14169 0.20328 0.55557 0.21759 -0.30599 0.1161 -0.31313 -0.24391 -0.76888 0.19428 -0.22673 0.84735 0.27122 -0.71409 -0.46229 -0.21996 0.01405 -0.03492 0.13099 0.84924 -0.11323 -0.26649 0.21254 -0.45069 0.43544 0.08869 -0.00713 -0.28307 -0.39802 -0.51157 0.51741 -0.16962 -0.54827
adh 0.67374 -0.29052 0.19698 0.31936 -0.08302 -0.17183 0.13915 0.23856 -0.04665 0.09205 -0.88392 -0.05623 0.96077 0.55153 -0.61687 -0.56413 -0.01767 0.30833 -0.19512 -0.33452 -0.29745 0.23824 -0.09566 0.10309 0.02037 -0.66629 -0.42085 0.43433 -0.42097 -0.11191 -0.12895 0.05372 0.23844 0.85217 0.02226 0.12133 0.33666 -0.7615 -0.41519 -1.2745 0.26796 -0.2045 0.09721 0.41632 0.58089 0.47202 -0.8635 0.02555 0.05773 0.22286 0.58505 -0.0207 -0.22321 -0.26955 -0.66028 -0.15894 -0.44108 0.56937 0.39829 0.14372 0.16735 -0.38164 -0.01208 -0.46972
adj 0.53421 0.5253 -0.37363 -0.19218 0.4558 0.23138 0.68513 0.03354 0.26099 -0.01489 0.69864 -0.3114 -0.87334 -0.22805 0.30128 0.57434 -1.06441 -0.05515 -0.37273 0.41416 0.93747 0.6967 -0.00052 0.62845 -0.47499 0.62564 -0.45188 0.03072 0.61479 -0.17953 0.17199 1.02733 -0.19444 0.18343 -0.25461 -0.0169 -0.37465 -0.49308 -0.85155 0.49184 -0.6046 0.40253 0.25843 -0.42196 -0.23424 0.41368 -1.04887 -0.26741 0.30804 0.44209 0.19807 0.48932 -0.03135 0.451 0.68283 0.05192 0.19965 0.29317 -0.21855 -0.68977 0.92616 -0.29326 0.69236 -0.01289
aey 0.40686 0.02401 -0.40567 -0.00986 0.1981 0.04268 0.01534 0.24903 0.18877 -0.42926 0.45509 0.32484 -0.47318 0.80031 -0.53422 0.32944 -0.4753 -0.20221 0.41097 0.82659 0.32733 -0.82565 0.22752 -0.04277 0.15272 0.77774 -0.05913 -0.4492 0.41308 -0.19864 0.13609 -0.62465 0.12865 0.74369 0.00201 -0.15713 -0.15717 0.28755 -0.5007 -0.08428 0.24748 -0.55213 0.45345 0.55929 -0.53297 0.28804 -0.22455 -0.22127 0.03474 -0.30405 -1.0203 -0.17516 -0.259 1.19989 0.40441 0.30214 -0.49296 -0.03398 0.07791 0.58366 -0.52833 0.82592 -0.20949 0.33002
afr 0.29556 -0.20333 -0.07085 -0.2926 -0.47969 0.18296 -0.09381 -0.00161 0.19155 0.04173 -0.23863 -0.33008 -0.22337 0.52452 0.32292 0.21797 0.07366 0.14524 0.52113 0.10601 -0.31522 0.147 0.668 -0.29513 0.13358 -0.10156 0.0869 0.29055 0.19093 0.25306 0.68373 -0.32084 0.20185 0.38059 -0.01206 -0.38925 0.29027 -0.00557 -0.07659 0.02409 -0.22271 -0.21382 0.18156 -0.03104 0.27444 0.87216 0.31381 -0.21036 -0.16706 0.57525 0.34106 0.2213 0.44323 -0.23333 -0.249 -0.4544 -0.08575 -0.25125 -0.32164 -0.01321 0.39715 0.0541 -0.10323 -0.00342
agd -0.0764 0.39502 -0.82857 0.03204 0.32922 -0.40307 -0.8894 0.20804 -0.26892 -0.21026 0.18727 -0.09296 0.52246 0.24593 -0.55279 -0.07515 -0.2559 -0.15059 0.01786 -0.00153 -0.90745 0.39816 0.1182 -0.03858 -0.59692 0.09864 0.23297 0.7096 -0.30441 -0.08579 -0.57186 0.88222 0.07357 0.103 -0.64359 0.08875 -0.48471 0.42811 -0.07294 0.05801 -0.20071 0.30435 0.14535 0.06874 -0.03599 -0.53455 -0.12205 -0.37233 -0.23396 0.89127 -0.33855 0.11021 -0.40289 0.39636 -0.19595 -0.16895 -0.41516 -0.18536 -0.21872 -0.7692 0.22696 0.52623 -1.0113 -0.99008
agg -0.1836 0.01459 -0.43138 -1.4546 0.38824 -0.15805 0.4517 0.43259 0.08988 -0.7356 -0.4686 0.34505 -0.47835 0.42534 -0.02986 0.03499 0.58184 -0.07057 -0.45196 0.72736 -0.29028 -0.09107 0.90492 -0.50673 -0.15563 -0.25514 0.49462 0.28514 0.15796 0.25166 0.75635 -0.43323 -0.21403 -0.27675 -0.33273 -0.24261 0.29595 -0.12459 -0.49563 0.32209 0.42571 -0.13222 0.65862 0.27563 -0.16515 -0.05715 -0.31619 -0.22176 -0.02331 -0.48707 -0.25871 -0.84674 -0.45714 -0.26765 -0.26692 -0.09877 0.05494 0.13594 0.15479 0.12034 0.16243 0.18506 -0.16186 -0.52375
agm -0.02631 -0.05744 -0.36952 0.04058 -0.17464 0.34547 1.00528 -0.19666 0.79463 -0.89759 -0.71113 0.36821 0.65376 0.46141 0.72184 0.4513 0.00222 0.1514 -0.45486 -0.00653 -0.32672 0.28649 0.24324 0.68764 -0.54747 0.03803 0.20804 0.88102 -0.11302 -0.03754 0.63646 -0.65561 -0.28706 -0.41612 0.47074 -0.44336 -0.22569 0.02147 0.23452 0.09792 0.44087 -0.31381 0.23613 0.14134 0.08571 -0.21968 0.10668 0.20297 -0.27393 -0.32847 0.00105 -0.46543 0.44915 -0.57645 0.39423 -0.2769 -0.39254 0.51409 0.2676 0.50594 -1.08752 0.42079 -0.66993 -0.0296
agn -0.13208 -0.30034 0.32664 0.12916 0.10721 0.72026 0.22592 0.04166 0.05861 -0.02063 0.27546 0.24876 0.06252 -0.15747 -0.01963 -1.0143 -0.07293 -0.44451 -0.43194 0.78178 0.31967 -0.02338 -0.22377 -0.52499 0.16091 -0.30542 0.14035 -0.33425 -0.13341 0.30253 0.23112 -0.30107 0.17224 0.28897 -0.07117 -0.22465 0.04821 -0.02994 0.9667 0.53453 -0.68094 0.30674 0.22985 0.16969 -0.24959 -0.21511 0.38423 -0.37953 -0.39068 0.25236 -0.29241 -0.11047 -0.17697 0.11923 0.35782 0.17926 0.07798 -0.66302 0.03108 0.08247 -0.21143 -0.18052 -0.43919 0.18817
agr -0.09883 0.26363 -0.0042 -0.42757 -0.18188 -0.60913 0.12735 -0.55676 -0.03065 0.09613 -0.28346 -0.09631 -0.1259 -0.12521 -0.13098 0.38877 -0.3827 -0.01379 -0.50533 -0.49541 -0.03245 -0.30115 0.54359 0.36178 -0.46821 -0.23786 0.2206 0.49329 0.639 0.55735 -0.07525 0.2132 -0.69803 -0.22341 -0.0418 -0.12832 0.67396 0.60347 -0.08015 -0.13945 -0.58374 -0.15251 0.19303 -0.13137 -0.02979 0.05823 -0.12508 -0.50183 -0.54663 -0.31448 -0.3074 -0.32259 -0.51538 0.0768 0.29985 0.42177 0.45339 -0.52003 -0.22546 0.03005 0.2716 -0.00275 0.00035 -0.06388
agt 0.53671 -0.37275 -0.05119 0.49795 -0.38854 0.34452 -0.38261 0.21815 -0.24573 -0.52694 1.05728 -0.18886 0.52549 -0.67849 0.14023 -0.35278 0.35942 0.17504 0.80218 -0.53716 -0.30876 0.05553 -0.35765 0.81064 0.53463 0.40754 0.33806 0.35189 0.29608 0.16662 0.13139 0.74929 -0.40719 0.45741 0.0685 -0.0874 0.10577 0.0963 0.39041 0.11253 0.08597 0.03785 -0.06016 0.11262 0.05156 -0.00091 0.1473 -0.25247 -0.58807 0.36795 -0.04514 0.26805 0.53885 0.75835 -0.01013 0.58964 0.21298 0.29824 -0.34057 -0.14297 0.27474 0.29782 -0.05806 0.51161
ahk 0.31971 -0.29976 0.047 -0.77035 -1.00688 0.39299 -0.38411 -0.21137 -0.08775 -0.0028 -0.34482 -0.37312 0.04073 0.34502 -0.14961 -0.13182 -0.04147 -0.98366 0.02394 -0.37707 -0.41116 0.42034 -0.08725 0.13601 -0.32075 -0.33372 0.18243 0.52947 0.7983 -0.62357 -0.02786 -0.33638 -0.43875 -0.46776 -0.17397 -0.20911 0.45382 -0.15935 -0.11353 0.74155 0.12011 -1.26468 0.06981 -0.05289 0.62656 -0.00622 -0.13393 0.10302 -0.41614 -0.18034 -0.30761 0.51709 0.1914 0.06264 -0.34477 -0.21376 -0.53081 -0.30476 0.55743 0.20494 0.12529 0.03062 0.10726 -0.77898
aia 0.00232 0.33862 -0.23843 0.1418 0.20014 -0.27261 -0.17895 -0.33288 0.0935 0.2898 -0.20746 0.24331 -0.03547 -0.27816 -1.08898 -0.27603 0.28386 -0.24185 -0.3051 -0.56259 -0.97091 -0.2713 -0.21041 0.44614 -0.1209 0.68451 0.74311 0.0461 -0.39068 0.38397 0.40468 -0.05601 0.19398 0.37475 0.26773 -0.008 -0.08888 0.48614 0.2904 0.07174 -0.00417 -0.50745 -0.1524 -0.02796 -0.00459 -0.20849 -0.23319 0.55871 0.53437 0.35649 0.34581 0.57314 0.01431 0.1576 0.2753 -0.37225 0.06511 0.01344 -0.57029 -0.64724 -0.12712 -0.11128 0.11194 0.27416
akb 0.43617 -0.38301 -0.11853 -0.18881 -0.28071 -0.12921 -0.10745 0.11301 -0.22721 -0.42675 -0.00045 0.44437 0.41219 0.23068 0.11375 -0.31272 -0.30686 0.40191 -0.00605 0.52454 -0.06559 -0.42974 -0.46761 0.16022 0.20623 -0.00423 0.54893 0.22863 0.40339 -0.11551 0.07291 -0.16995 0.03452 0.08754 -0.0359 -0.27212 -0.49639 0.61521 0.26414 0.36641 0.06188 -0.37719 -0.13172 -0.14722 -0.13718 -0.0456 -0.50287 -0.13543 0.25323 -0.39853 -0.26373 -0.35833 -0.15114 0.1149 -0.05376 0.18276 0.90078 -0.08483 -0.26215 -0.27773 0.42528 0.01182 0.09364 0.75106
ake -0.38709 -0.25541 0.44302 -0.12753 0.39894 -0.44547 -0.46691 0.23947 0.06818 -0.14304 -0.44726 -0.20904 0.29564 0.04385 -0.11676 -0.26618 -0.42023 0.04737 0.60427 0.1945 -1.07374 -0.56255 -0.34346 -0.60926 -0.4532 -0.35456 -0.29402 -0.10142 -0.37476 0.60861 -0.07723 -0.30011 -0.28069 -0.46239 -0.47783 0.34281 -0.01487 -0.78476 -0.01777 -0.24075 0.81945 0.14646 0.73279 0.91692 -0.71015 -0.44714 0.30889 -0.03145 -0.63472 0.09799 -0.0624 0.24001 -0.04694 0.85604 0.10774 -0.14439 0.47998 0.19235 -0.41037 0.36613 -0.1466 0.0574 0.12038 0.32832
akh 0.56555 -0.25922 -0.20142 -0.67654 0.17484 0.38718 0.38311 -0.26113 0.17979 0.62531 0.51124 0.32537 0.74642 -0.3576 -0.34315 -0.69228 0.13692 0.62085 0.25912 0.07338 0.87029 -0.09073 -1.06901 -0.08136 -0.24787 -0.27135 0.7563 -0.9336 0.3653 -0.10576 -0.18736 0.27413 -1.20825 -0.00433 -0.2846 0.2492 -1.00744 -0.38717 0.34635 0.4626 -0.25455 0.12706 0.7726 -0.5491 -0.54161 0.11632 -0.29893 -0.54359 -0.0862 0.69123 -0.35503 -0.15326 -0.27977 -0.24521 -0.27503 0.53322 0.42448 0.80686 0.47525 -0.6259 -0.23029 -0.26228 -0.06173 -0.36026
alj -0.16831 -0.89482 0.23188 -0.58092 -0.03513 0.01762 0.21753 0.28688 -0.4538 0.04539 0.43652 -0.07411 -0.04219 0.7858 0.85458 -0.34239 -0.47964 -0.52003 0.22462 0.25507 0.09312 0.44023 0.00484 -0.53673 -0.1336 -0.5572 0.27818 -0.1964 0.56546 0.02992 0.13096 -0.22856 -0.19191 0.31021 0.22026 0.13177 0.44184 0.1321 0.04679 0.15898 -0.06782 0.36513 0.22671 0.41181 -0.78561 -0.01365 0.34211 -0.41339 0.21517 -0.16042 -0.27057 -0.15269 -0.26631 -0.07991 -0.073 0.00959 1.04539 -0.46559 0.26399 0.6871 0.51177 0.48565 0.07417 0.67364
aln 0.48222 0.31536 -0.37567 0.93227 -0.55728 -0.13835 -0.01477 -0.12332 -0.01417 0.11062 0.10549 0.12179 -0.19895 -0.12456 0.64861 0.21093 -0.05345 -0.10224 -0.07443 -0.18911 0.35565 -0.46358 -0.00455 0.4168 -0.38025 -0.27383 0.04268 0.06639 0.4901 0.34559 0.24654 -0.27133 -0.01246 -0.13572 0.68639 0.63679 0.00931 -0.12585 0.04769 0.29174 0.39053 0.00702 0.08146 0.06197 -0.67273 -0.60324 -0.38074 -0.06849 0.52149 0.1297 0.05188 0.00436 -0.24806 0.1803 -0.04996 -0.4241 -0.23115 -0.97251 -0.19263 0.02631 0.30754 0.12071 -0.20171 -0.06322
alp -0.19846 -0.51708 -0.33087 0.04002 0.43859 -0.15279 0.32888 0.75299 0.03826 -0.50995 -0.0221 -0.90522 0.24322 -0.14874 -0.02639 0.63611 0.04952 -0.16125 0.0481 -0.03473 0.13537 -0.65492 0.44968 -0.20061 -1.17498 -0.06576 0.06794 -0.10577 0.25055 0.02262 -0.73619 -0.06851 0.07424 -0.20415 0.61585 0.14233 -0.40446 0.44479 -0.06936 0.00698 0.49218 -0.26602 -0.87571 -0.21645 0.19319 -0.137 0.44742 0.22979 -0.13205 0.54732 0.02627 -0.09334 0.45198 0.48923 -0.24035 -0.00499 -0.3401 0.02596 -0.81117 -0.09544 -0.5832 -0.7825 -0.70434 0.52084
alq -0.57076 0.83208 0.47765 -0.03933 -0.3775 0.02833 0.21985 -0.45248 0.69595 0.02445 0.36789 0.30652 -0.73316 -0.97378 0.25915 0.15235 -0.01297 -0.03783 -0.3728 -0.22085 -0.24196 -0.07119 0.05747 -0.58111 1.13078 -0.18292 0.36641 0.02255 -0.69006 -0.69908 -0.08319 0.39662 -0.12175 0.23414 0.57515 0.31661 0.06351 0.11722 0.06251 -0.36051 0.08384 0.20279 0.07246 0.25879 -0.40975 -0.58469 -0.21203 -0.83167 0.54317 -0.47539 -0.99334 -0.65643 0.32806 0.53374 -0.42443 -0.07677 -0.71297 0.33253 -0.35514 -0.11365 -0.13774 0.15905 0.18492 0.15216
aly -0.61894 -0.28464 0.23512 -0.05701 0.09489 -0.70648 -0.03739 0.06468 0.41772 -0.17381 0.85512 -0.27361 0.12864 -0.00119 0.58162 -0.89119 0.19894 -0.48516 0.65866 0.06145 0.37213 0.44753 0.65451 -0.00158 0.10861 0.49842 -0.10617 0.53959 0.0909 0.10753 0.13587 0.01027 -0.19657 -0.65547 0.53984 -0.31946 0.3856 -0.68551 -0.00163 0.4383 0.06242 -0.32599 0.09704 -0.11046 0.6621 0.19086 -0.00507 0.23319 -0.36787 -0.22697 0.01791 -0.15479 0.37861 -0.60314 -0.17889 0.51892 -0.59839 0.03667 0.74904 -0.07268 -0.26721 0.02384 0.07567 -0.65391
alz 0.85203 -0.72532 0.60016 0.36373 -0.14027 0.0192 0.00673 -0.05384 -0.42264 -0.00339 -0.30815 -0.92285 0.30201 -0.61726 -0.57542 -0.76301 0.54797 -0.49351 0.32471 -0.19756 -0.51591 -0.83604 -0.45829 0.21686 -0.47245 0.11209 0.4375 0.51358 -0.12994 -0.0597 -0.6854 0.09806 -0.42129 0.4596 0.05185 0.09763 -0.09386 0.45367 -0.81171 -0.6207 -0.58739 0.70618 -0.14058 0.0299 0.44144 -0.48266 -0.27123 -0.00939 0.45847 0.58553 0.68031 -0.15638 -0.01904 -0.6641 -0.47646 0.30772 -0.19834 0.72133 -0.48078 0.2924 0.18526 0.40514 0.37415 -0.78926
ame -0.93672 -0.18694 -0.04848 -0.50083 0.27898 -0.31153 0.29335 -0.16147 -0.22472 1.01292 -0.08787 -0.20904 -0.13847 -1.02106 -0.21383 0.55953 -0.08765 -0.61218 -0.58879 0.44707 0.00649 -0.0586 -0.14691 0.19175 0.60997 -0.19346 0.33213 -0.55502 -0.36166 0.76141 -0.2631 0.63452 0.06203 -0.40707 0.36671 -0.18922 -0.6382 -0.10495 0.47206 -0.07048 -0.23701 -0.00943 0.13688 -0.86375 -0.40811 0.13544 0.08539 -0.78821 -0.8307 -0.0031 0.14459 -0.46659 -0.27442 -0.3446 0.65551 -0.15245 0.14468 -0.33731 0.64389 0.44016 -0.16627 -0.2695 -0.30612 -0.06256
amf 0.84455 0.4814 -0.32768 0.25399 0.59805 0.07561 -0.26529 -0.24076 -0.28434 0.0891 -0.27932 -0.23214 -0.13674 -0.27454 1.1483 -0.29189 -0.34641 0.48311 0.13923 0.02004 0.09241 0.0974 -0.34677 -0.86909 0.75252 0.43356 -0.13045 -0.21677 0.3285 -0.25161 -0.17319 0.69897 0.41401 0.95171 -0.46524 -0.1422 0.05349 -0.12302 -0.33036 0.4081 -0.35724 -0.35469 -0.23429 0.08818 0.58521 0.13435 0.11329 -0.17976 0.78216 -0.47624 0.14701 -1.04074 0.19135 -0.46804 0.20582 0.26889 -0.30382 -0.00878 -0.92504 -0.21072 -0.43469 0.0707 -0.94898 -0.10428
amk 0.40217 -0.25205 -0.27598 0.00318 0.38414 0.13463 -0.10422 -0.07871 -0.03401 -0.30779 -0.21229 0.39386 0.83445 0.10606 -0.5404 -0.56685 0.07888 -0.1537 -0.37879 -0.23962 -0.47451 -0.60533 -0.29068 -0.60329 -0.27383 -0.25144 -0.35349 -0.16086 -0.46157 0.67142 -0.10227 -0.36158 -0.21153 -0.07401 0.08781 0.19245 -0.05918 -0.45975 0.33418 -0.40076 0.41874 -0.06969 0.54273 0.17186 -0.4793 0.24254 -0.08465 0.40828 0.23069 -0.52835 0.30771 0.38594 -1.13178 -0.03337 -0.00365 0.13814 0.85666 -0.13591 -0.40419 -0.10469 0.22677 -0.31844 1.01609 -0.77769
amm -0.55979 0.34745 -0.15857 -0.03185 1.05 0.33353 -0.23805 0.28946 -0.58787 0.16939 -0.28656 0.39351 0.77676 0.29698 -0.27822 0.15197 -0.48777 0.42629 0.63762 0.08128 -0.03501 0.02008 -0.5135 0.48438 -0.0296 0.07598 1.03869 -0.09073 -0.15515 0.34791 -0.7585 0.06359 0.26288 0.11145 0.42489 -0.20321 -0.36941 -0.11952 -0.61544 0.37965 0.14666 -0.11068 -0.25572 0.35841 0.34147 0.59477 -0.59011 0.05708 0.11974 0.2946 0.07106 0.63607 -0.44458 -0.16607 -0.31791 -0.33128 -0.33661 -0.01702 -0.37234 0.50846 -0.6895 0.88266 -0.59033 0.21682
amn -0.13928 0.52035 -0.63866 -0.02341 0.4016 0.71009 0.07079 -0.02981 -0.45857 -0.41749 0.12157 -0.20435 0.41451 -0.51213 -0.54153 0.24119 0.13875 0.28068 0.58368 0.37739 -0.13777 -0.21052 0.20444 0.15536 -0.48957 -0.08989 -0.48384 0.34705 -0.14711 -0.12924 0.68131 -0.16186 -0.41992 -0.08333 0.17925 0.60939 -0.09608 -0.38905 0.74912 -0.22552 0.01411 -0.0548 0.55528 -0.19654 0.06992 0.33783 -0.30549 -0.42669 -0.49533 0.33981 -0.69424 -0.63679 -0.73775 -0.26379 0.14229 0.53979 0.00019 0.04068 0.22145 -0.26288 -0.51734 0.53223 -0.13876 0.68804
amp 0.61834 -0.64376 0.33343 -0.72487 0.34695 -0.50755 -0.7563 0.62283 0.0554 -0.2328 0.0317 -0.51559 -0.166 0.06276 0.21819 -0.17301 0.62806 0.23322 -0.84588 0.39146 -0.19242 -0.83013 0.79052 -0.6547 -0.12655 -0.65785 0.05598 0.35332 0.39395 -0.47446 -0.83471 -0.32918 -0.65744 -0.68982 0.3567 -0.39803 -0.33648 -0.38148 -0.19727 -0.10093 0.36789 0.11067 0.31363 0.5442 0.217 -0.49776 -0.24079 0.0888 0.31714 0.12501 0.86723 1.02441 -0.41309 -0.20756 -0.06213 -0.39195 -0.28717 0.1865 0.68959 0.44156 -0.47761 0.21706 -0.31084 -0.52394
amr 0.58263 0.344 -0.20941 0.18881 -0.07741 0.85218 -0.11056 -0.40035 -0.32978 0.65749 -0.06991 -0.96748 0.04249 0.32606 0.54347 0.17981 -0.0037 0.2558 0.07176 -0.43392 -0.35495 -0.67445 -0.64872 -0.19201 -0.08695 -0.76378 0.92686 0.60348 -0.26468 -0.07381 0.16015 -0.14659 -0.28748 -0.25855 -0.19301 0.44172 0.16564 -0.21113 0.58558 -0.58859 0.27544 -0.65663 -0.86656 -0.53885 -0.26479 0.65499 -0.00274 -0.29398 -0.14789 0.16171 -0.32429 -0.46998 0.09725 0.31775 0.30972 -0.06294 0.10224 0.27018 0.2455 -0.21936 -0.27992 -0.81131 -0.55305 0.49472
amu -0.14848 -0.41276 -0.73558 -0.12725 -0.57697 0.30937 0.22758 -0.20986 -0.37502 0.32092 0.33894 0.5397 -0.03371 -0.33325 -0.55752 0.296 0.8959 0.12998 -0.15017 0.61031 -0.54203 0.57382 -0.24333 -0.04567 0.61973 -0.99216 -0.1303 0.24077 -0.08622 0.19856 -0.05624 0.02139 -0.69311 -0.21297 -0.4148 0.14005 0.44487 -0.21204 -0.06837 0.5461 -0.87914 -0.64823 -0.15535 -0.24379 -0.3022 0.1209 0.36871 0.1334 0.01532 -0.23955 0.04821 0.29241 -0.11644 0.33812 -0.32333 0.00599 -0.53724 -0.5428 0.49887 0.3358 0.28019 0.35707 0.21551 -0.20557
ann 0.2972 -0.05889 1.07696 0.27857 -0.67055 -0.14875 -0.36036 0.23529 -0.24448 -0.68946 0.05275 0.17077 0.50074 -0.01292 0.2456 0.28915 -0.76768 -0.35889 0.66382 -0.36286 0.20031 -0.2129 -0.11436 -0.54495 -0.70345 0.86207 0.48202 0.0281 -0.16332 0.07624 -0.13907 0.59095 0.46712 0.58548 0.03157 0.67759 -0.28152 0.37521 0.11476 0.50151 -0.40603 1.21976 0.61232 0.25103 -0.31381 0.38387 0.31092 0.38901 -0.4971 -0.24236 -0.16448 -0.04138 -0.90366 0.20618 0.07113 0.04119 0.29391 -0.64471 -0.19334 -0.40371 -0.45017 -0.26757 -0.33354 -0.84922
anv 0.23752 -0.37268 -0.16946 0.1627 -0.27203 0.36943 0.34444 0.06682 -0.16863 -0.01302 -1.0611 0.1665 -0.7872 0.55364 -0.19368 0.24718 0.39403 -0.54991 -0.29617 -0.64291 0.56657 0.00924 0.902 -0.44269 -0.38597 0.23235 -0.05554 -0.05841 -0.30036 -0.07464 0.02228 -0.07088 0.22637 -0.7244 -0.57819 -0.59122 0.20082 -0.00843 -0.10815 0.06048 -0.67849 -0.79392 0.51631 0.5502 0.07475 -0.05604 -1.12561 -0.18772 -0.22365 0.18184 0.70946 0.10009 -0.0036 0.22877 0.15654 0.13083 -0.68506 1.04236 -0.2485 -0.35233 0.02782 0.14848 -0.66882 -0.16226
aoj 0.75881 0.11045 -0.26921 -0.89367 0.16416 -0.56554 -0.38285 0.18148 -0.16226 -0.01433 -0.12741 0.37485 -0.01489 0.70058 0.47463 0.17955 0.04908 0.0723 0.12437 0.59305 -0.22648 0.6372 -0.1298 -0.1517 -0.13023 -0.44701 -0.10654 -0.15201 0.62077 -0.23628 -0.18889 -0.30552 -0.91763 -0.41038 0.75315 -0.2462 -0.40321 -0.15665 0.73542 -0.0749 -0.53998 -0.24329 -0.69327 -0.20196 0.25933 -0.15737 -0.51052 0.93473 -0.24953 -0.71612 0.09134 -0.27876 -0.00119 -0.21698 -0.67052 -0.31963 -0.4423 0.2088 -0.09979 -0.55835 -0.18621 0.18383 0.07415 -0.24099
aom 0.3856 -0.7463 -0.94954 -0.11577 0.04019 -0.05698 0.30772 -0.47783 0.64098 0.30181 0.46855 -0.27482 0.02686 -0.25914 -0.03718 0.81323 -0.18563 -0.62384 0.04526 -0.05535 -0.48747 0.46479 0.79897 0.06746 -0.31372 0.35156 0.10448 -0.39675 -0.29081 -0.33074 -0.2182 0.51852 -0.4875 0.64395 -0.31138 0.52847 -0.67727 -0.12643 -0.06776 -0.44582 0.72029 -0.67021 -0.78557 0.3895 0.04941 0.20254 -0.03116 -0.26354 1.23792 -0.61949 0.32931 -0.39524 0.10429 -0.13608 -0.42889 0.2697 0.83218 0.27946 -0.26836 -0.40862 -0.02159 -0.53879 -0.26838 0.31301
aon 0.04569 0.22252 -0.1353 -0.99441 -0.62726 -0.45761 -0.64748 0.09213 -0.59717 -0.21607 0.86699 -0.19515 0.21991 0.20159 0.35424 0.68363 -0.22131 -0.35252 -0.24928 -0.01972 0.59368 0.07905 -0.32946 0.52871 -0.09693 0.49994 -0.03294 -0.5062 0.68585 -0.07246 0.26511 0.12999 -0.52399 -0.57519 -0.0598 -0.58129 -0.03337 0.00509 -0.02238 0.26209 0.14197 0.02311 -0.24552 0.50786 0.51306 -0.46061 -0.36279 0.37006 0.00629 -0.49896 0.26915 -0.14681 -0.48876 0.45215 -0.39289 -0.10998 -0.14494 -0.38707 0.42073 0.0384 -0.17418 0.85553 -0.19777 0.00841
aoz 0.49675 0.49755 -0.15682 -0.51521 -0.68147 -0.86555 0.77008 0.52134 -0.38386 0.10169 0.37208 0.47044 0.31479 -0.71591 -0.40388 0.00452 0.18781 -0.2514 0.95291 0.08438 -0.37129 -0.41385 -0.34639 0.16795 0.49754 -0.69701 -0.16684 -0.30197 0.45864 -0.16768 -0.08538 -0.21451 -0.08646 0.01823 -0.11613 -0.00885 -0.18743 -0.38633 -0.05196 0.73511 0.66441 0.03438 -0.30993 0.2154 0.52894 -0.18503 -0.09249 0.2147 -0.42409 0.35637 0.59895 0.57806 -0.28686 -0.19041 0.31845 -0.20012 -0.18756 -0.16899 -0.37263 -0.49727 -0.56055 -0.45196 0.25536 -0.14096
ape -0.24657 -0.04242 0.08857 -0.41418 -0.30858 -0.35622 -0.24388 0.55561 -0.22673 -0.44122 0.73651 -0.08873 0.31051 -0.01452 0.67254 0.54513 -0.63435 -0.58108 0.23687 0.28965 0.15785 -0.07229 0.60915 0.89175 -0.33057 0.42306 0.02522 -0.49491 0.0664 0.34708 0.25816 0.0975 -0.62364 0.6402 0.08024 0.12212 -0.11093 -0.81277 0.48474 0.17316 0.2283 0.22253 -0.47721 0.29886 0.60395 -0.15683 0.23747 0.56365 -0.62328 -0.98544 0.77682 -0.62861 -0.54689 0.11777 0.22042 -0.34419 -0.40603 -0.14436 0.03283 0.32073 -0.15044 0.70863 0.55381 -0.19194
apn -0.51959 -0.05771 -0.12876 0.04958 0.18348 0.53788 0.2719 -0.12361 -0.50206 -0.33763 0.4461 0.30629 0.56846 -0.00983 0.14591 0.64104 -0.16758 0.15796 -0.38067 0.2755 -0.06171 0.00265 -0.04801 -0.02292 0.76623 -0.31917 0.49117 -0.28585 0.07813 -0.58555 0.16317 -0.14431 -0.49039 0.27479 0.15108 -0.51212 -0.35691 0.62266 -0.14779 -0.4228 -0.23677 0.12753 -0.05055 0.37112 -0.94936 -0.00472 -0.18309 0.18939 -0.26987 0.32607 0.86287 1.43223 0.07448 0.38719 0.2314 -0.14743 0.18667 0.18561 0.16027 0.42489 1.05554 -0.03903 -0.40499 0.39694
apr -0.13391 0.42991 -0.18356 0.52671 -0.40272 -0.29144 -0.35892 0.41685 -0.49857 0.45333 0.02689 0.23135 0.01164 -0.5442 0.0644 -0.41307 -0.00773 0.05135 0.34778 -0.02991 -0.38731 -0.01955 -0.01726 -0.20188 -0.71095 -0.30705 -0.30442 0.06066 -0.50454 0.32482 -0.22103 0.46293 0.16466 0.63778 -0.74547 -0.88193 -0.60172 0.50141 -0.09412 0.09412 0.50075 -0.11375 -0.22577 -1.07892 -0.4287 -0.0287 0.17265 -0.03559 -0.06128 -0.36443 -0.38522 -0.00241 0.97836 -0.28762 0.18451 0.54645 0.52202 -0.36014 0.31631 0.41054 -0.17717 0.45754 -0.52963 0.7675
apu -0.67138 0.34878 -0.06223 -0.04473 0.24501 0.43583 -0.37956 0.07027 0.07707 -0.11581 -0.02299 -0.17143 0.30918 -0.03156 0.4669 0.17931 -0.06147 -0.14182 -0.5789 -0.23355 -0.74527 -0.39446 0.13085 -0.37603 0.08297 0.01105 0.54857 -0.54898 0.42021 0.15887 -0.09169 0.6751 -0.13607 -0.09763 0.10179 -0.19928 -0.64528 0.25366 -0.1543 -0.08206 -0.17315 -0.45217 -0.64767 -0.09987 -0.66093 -0.09728 -0.40391 0.42704 -0.06585 -0.12135 0.66205 -0.10645 0.86595 0.12339 -0.98771 0.67276 0.56007 0.0542 0.27239 0.36805 -0.07599 -0.12766 -0.33216 0.39352
apw -0.49812 -0.31922 -0.57502 -0.56557 0.03883 -0.47206 0.26557 -0.35467 0.21122 0.34017 -0.0525 0.27673 0.32267 -0.55739 -0.22138 0.01094 -0.40787 0.61743 -0.34299 -0.27964 0.13902 0.37069 0.02057 -0.58468 0.44877 -0.00225 0.55768 -0.27749 -0.09813 -0.27336 -0.04502 -0.98865 -0.04675 0.16861 1.2678 0.09795 0.31074 0.47462 -0.42209 0.77076 -0.87943 0.06932 -0.41507 -0.28084 0.40074 0.46281 0.15474 0.09356 0.0174 -0.10679 0.83488 -0.99256 -0.25388 -0.21077 0.07308 0.04232 -0.7866 0.47205 0.23714 -0.0945 -0.44097 0.33979 -0.18136 -0.07853
apy 0.11635 -0.69749 0.07423 -0.24281 -0.32571 0.08106 0.07797 -0.59789 -0.17784 -0.13056 0.35838 -0.02429 -0.00513 -0.13684 0.13413 0.17878 -0.31567 0.27773 1.01123 0.58979 0.12483 0.34788 0.51182 -0.75233 0.09078 0.52761 1.22238 0.14692 0.19183 -0.01471 -0.61952 0.09169 -0.24419 -0.34655 0.63141 -0.9875 -0.89967 0.24104 0.33078 -0.29526 -0.40076 0.14294 -0.38914 -0.07012 0.63657 -0.1898 -0.79352 -0.53333 -0.34929 0.41115 0.2798 0.07638 0.00556 0.31416 0.42206 0.01484 0.28635 0.30149 -0.13893 0.18203 -0.65262 0.45666 0.55198 -0.57458
apz 0.3251 -0.56673 -0.18708 0.9783 0.15189 -0.53611 -0.33023 0.27002 -0.28919 -0.18543 0.58469 0.57243 -0.08668 -0.11785 -0.33141 0.48596 0.14062 0.54166 0.33852 -0.34878 -0.04924 0.39957 -0.08258 -0.16499 -0.43486 0.10866 -0.27035 0.42902 0.35084 -0.28908 -0.82526 0.20774 -0.08768 0.44463 -1.06256 0.4397 -0.31361 0.63573 0.51756 0.81283 -0.10719 -0.27885 -0.20931 0.35839 -0.3214 -0.10235 -0.15633 0.36287 -0.2921 0.5391 0.17522 0.15568 0.00495 -0.08571 -0.19504 0.36944 0.26141 -0.09527 1.15185 -0.09298 -0.11798 0.73881 0.09881 -0.08088
are 0.2093 0.13574 0.37149 -0.12022 -0.40751 -0.45736 -0.24287 -0.56382 0.4715 0.67907 0.8 -0.80386 -0.43139 0.43342 0.14144 -0.24156 -0.26741 0.14232 0.05109 -0.05152 0.7242 -0.51826 -0.65885 0.79076 0.53502 0.38541 -0.41597 -0.39861 0.19385 -0.66676 -0.18991 0.55835 -0.17039 -0.34656 -0.16183 -0.15501 0.50309 -0.37558 -0.05539 -0.26928 0.12945 0.15023 -0.1762 -0.02583 0.00182 -0.69537 0.39962 -0.08599 -0.08571 0.26006 -0.16999 -0.74822 -0.87225 -0.51876 -0.42322 0.13268 -0.13396 0.41098 0.70106 0.12824 0.1784 0.15571 -0.27438 -0.56085
arl -0.15523 0.2679 -0.59864 -0.25747 0.27978 -0.11934 0.07607 -0.52394 -0.03908 0.46757 0.02146 -0.6822 -0.01573 0.86341 -0.04232 -0.05811 -0.18489 -0.04332 -0.36665 -0.03468 0.65249 0.53719 -0.4759 -0.24525 0.12309 1.05132 0.43919 0.31277 0.32083 0.11325 -1.12283 0.0968 0.22126 0.24742 0.11811 0.42748 -0.11218 0.19255 0.15943 0.29466 -0.40082 -0.46001 -0.68739 -0.40701 0.41167 -0.24641 0.26347 -0.67529 0.16368 0.13459 0.08145 -0.09084 0.2806 -0.70838 -0.00821 0.25979 0.15588 -0.3478 -0.76074 0.09658 0.65674 -0.08515 0.24943 -0.45033
arn -0.3149 -0.17753 0.45708 0.51759 -0.07967 -0.74625 0.2308 -0.03702 0.6596 0.0845 0.10493 -0.22621 -0.3769 0.00645 -0.02555 0.07431 -0.48855 1.11106 0.75717 0.27805 0.01036 -0.17607 -0.10147 0.96179 0.38511 -0.2318 -0.14394 1.11468 -0.49625 1.1175 0.28123 -0.096 -0.5988 -0.29892 0.12115 -0.16139 -0.16326 0.32193 -0.48482 -0.16561 -0.12432 -0.18549 0.03381 0.33181 0.01788 -0.13271 0.67655 0.5374 -0.60495 -0.45775 0.01325 0.72271 -0.5067 0.25231 -0.5593 -0.03005 -0.57492 -0.12323 0.68232 -0.00584 -0.6016 0.38549 -0.13242 -0.6109
aso 0.64588 0.64917 -0.88883 -0.42809 0.35953 -0.60606 0.77211 -0.52099 0.15051 0.68889 -0.02358 -0.10771 0.16684 -0.61864 -0.67305 0.52617 0.3479 0.37796 0.21532 -0.09293 -0.57867 0.73772 0.6881 0.04435 0.03958 -0.14213 0.43911 -0.0876 0.53758 0.00108 -0.01209 -0.48482 0.12406 0.80098 0.15963 0.49797 -0.40549 0.22626 0.5632 -0.05761 -0.02121 0.20825 -0.4415 0.63641 -0.18652 -0.33705 0.24461 0.31133 0.02844 -0.16225 -0.04773 -0.50585 0.52338 -0.17687 0.90842 -0.19271 -0.09912 -0.28744 0.58311 0.59027 -0.22331 -0.15983 -0.30541 0.04343
ata -0.02894 0.16468 0.42351 0.26005 0.59205 -0.73087 0.89923 -0.90059 -0.63746 0.11685 0.1169 0.17222 0.8901 -0.12973 -0.27872 0.00348 0.15672 -0.57952 -0.31604 -0.02668 0.37277 -0.46509 -0.29508 0.64775 0.01785 0.45612 0.37795 -0.015 -0.34734 -0.12133 0.05695 0.00715 0.46041 0.12063 0.2292 0.25142 0.26462 0.73919 -0.54515 -0.43913 0.40011 -0.00193 -0.33074 0.1644 -0.62524 0.20027 0.35078 0.2337 -0.19179 0.50179 0.48978 0.20993 -0.22606 0.21555 -0.15926 0.238 0.18616 -0.33146 -0.49428 -0.32377 -0.2336 -0.29056 -0.00567 -0.32159
atb 0.28941 0.21304 0.51999 -0.29032 -0.96564 -0.59892 1.08935 -0.23651 -0.5207 0.04404 -0.41099 0.64408 0.23026 0.03159 0.31135 -0.10966 0.22861 0.63654 0.59684 0.16488 -0.63911 -0.00566 0.41283 -0.47759 -0.17935 0.04458 -0.22295 -0.29178 0.35683 0.17408 0.33192 0.27078 -0.10132 0.70112 0.8423 0.127 -0.1996 0.21902 -0.6751 -0.30089 -0.03258 -0.862 -0.07997 -0.19424 -1.12209 -0.99688 -0.02678 -0.03832 -0.52887 0.45551 0.16729 0.28989 0.22136 0.79001 -0.6334 -0.30587 0.50205 -0.11884 0.43495 -0.14291 0.76609 -0.30294 0.01963 -0.15925
atd -0.01991 0.05825 -0.21717 0.00551 -0.07512 0.162 0.24969 0.00326 0.56483 -0.37111 0.5136 -0.05182 -0.07429 0.21578 -0.10918 -0.41197 -0.1576 -0.29823 -0.16562 -0.84656 -0.54163 0.07367 0.33761 -0.11267 0.1345 -0.14228 0.36943 -0.10121 0.24834 -0.43548 0.79246 -0.56843 -0.00598 0.93281 0.34531 -0.51627 0.15566 0.43797 0.31498 0.55513 -0.57212 0.25225 0.22555 0.14338 -0.64769 -0.03228 0.4071 0.21599 -0.03616 0.3214 -0.78503 0.24591 -0.30504 -0.09523 0.08843 0.62536 -0.50493 -0.39106 0.59973 -0.25379 -0.32907 -0.30774 -0.03392 0.26758
atg -0.38302 0.30739 0.29444 -0.23682 0.32654 -0.22423 0.61554 0.33724 0.00572 -0.20068 0.17008 0.41157 -0.08209 -0.10448 0.34597 0.57322 0.31469 -0.80885 0.3147 0.38973 -0.15205 1.10172 -0.08447 0.06197 -0.531 0.55366 0.57223 0.13132 -0.07795 0.79134 -0.90971 0.00048 -0.28099 -0.32812 0.92074 -0.67817 0.13377 0.14845 -0.11767 0.62751 -0.03747 0.29436 0.09809 -0.36626 0.1771 0.41811 0.41562 -0.64242 -0.24326 -0.51944 -0.38566 -0.13814 0.10405 0.17695 0.1601 0.59274 0.48113 0.31841 0.48936 -0.29789 0.14605 -0.1412 0.19755 0.23835
att 0.54262 -0.09144 -0.29065 0.21551 -0.19662 0.44404 0.40879 0.24092 0.27899 0.13459 0.24981 -0.44201 -0.1556 -0.48677 -0.00422 -0.35277 -0.42539 0.59587 1.15389 0.34261 0.07268 0.15583 0.43561 0.62634 0.07411 -0.14297 0.39038 0.27164 0.05459 -0.12146 0.04274 -0.07991 -0.19902 0.41862 -0.27878 -0.69077 -0.03502 0.31814 0.34897 0.0789 0.22381 -0.28411 0.51194 -0.21051 -0.66537 -0.16798 0.54588 -0.87365 -0.53429 -0.36063 -0.11806 0.55006 0.32203 0.37286 -0.05986 -0.22421 -0.05611 -0.30417 -0.76701 -0.01508 -0.15721 -0.28131 -0.22569 -0.12349
auc -0.46698 0.7002 0.27993 0.09954 0.36294 -0.78945 0.13531 -0.04613 0.39568 0.63044 0.26727 0.75824 0.10871 0.03192 -0.46331 -0.17196 0.46951 0.25966 0.1345 -0.23533 -0.2339 0.2175 0.54581 -0.41792 -0.13097 -0.21705 -0.21219 0.06332 0.25341 0.60429 -0.47765 1.00278 -0.38733 0.04989 0.54881 0.47081 0.35796 0.331 0.97906 -0.8545 -0.25025 0.02969 0.06781 0.14185 -0.24803 -0.22871 0.48804 0.48928 0.03829 0.26982 0.21336 0.12572 -0.06027 -0.73093 -1.30013 -0.37964 0.21154 0.37267 -0.09789 -0.08501 -0.12969 0.05704 1.12099 0.446
auy -0.50365 0.29377 0.17293 -0.04244 -0.15043 -0.58244 0.28363 0.38911 0.38301 -0.34039 0.34839 0.32684 -0.37045 0.3212 0.02159 -0.04984 0.51188 0.22471 -0.11792 -0.39109 0.04942 0.47408 0.11194 -0.03343 0.8376 0.13851 0.08032 0.5807 0.17303 0.23938 0.3864 0.22915 0.27983 -0.47189 -0.52954 0.07185 -0.0105 -0.48313 -0.21129 -0.40981 0.42245 0.04374 -0.61075 0.10803 -0.37815 0.143 0.29159 0.24512 -0.7976 -0.08876 0.34121 -0.20386 -0.18607 -0.01349 -0.23738 -0.8832 -1.06913 0.15159 -0.11479 -0.15119 -0.77387 -0.09403 -0.15163 -0.60289
ava 0.2222 0.06684 -0.17475 0.18525 -0.0227 0.48508 0.04042 -0.06412 0.87142 -0.43832 0.24068 0.07037 0.18248 0.00895 -0.58959 -0.1284 0.03599 0.53306 -0.0609 -0.14854 0.34643 -0.03484 -0.51271 0.08008 0.09381 0.00032 0.15011 0.5295 0.64633 -0.05081 0.16795 0.72857 0.37258 -0.02277 -0.05745 -0.27951 0.39262 0.17118 -0.19605 0.00187 0.01229 0.36442 -0.01701 -0.3047 -0.52704 0.08719 0.02865 -0.30888 -0.20125 0.18966 0.19287 0.0651 -0.15242 -0.25843 -0.28279 -0.11283 -0.25236 -0.41954 0.01004 -0.53561 0.01356 0.17321 -0.15022 -0.36728
avt 0.55882 -0.04709 -0.4381 0.30527 -0.47304 -0.54812 0.11561 0.46539 0.13784 -1.15212 0.74532 0.00969 0.22432 -0.18818 0.00814 0.52669 -0.25057 0.14525 0.17661 -0.03729 -0.29537 0.75475 0.35115 -0.09245 0.92318 0.1058 0.17897 0.02094 0.06743 -0.01978 0.36492 0.11227 -0.21675 0.591 0.10778 0.52663 -0.04006 0.55906 -0.48206 -0.10045 -0.33063 0.06942 0.25185 -0.04898 -0.1699 -0.26278 -0.56833 -0.81762 -0.76754 0.37477 0.13501 -0.12235 -0.35907 -0.29871 -0.54054 0.01752 -0.45209 -0.45851 0.1564 0.45766 0.1346 -0.3998 -0.4486 0.02384
avu 0.30072 0.24141 0.2344 -0.03372 -0.22221 -0.13521 0.24777 -1.03138 0.32495 -0.13149 -0.23227 0.03238 -0.37033 -0.57619 0.12557 -0.39374 -0.03976 -0.46456 0.71629 0.29604 0.98701 -0.3077 -0.74188 -0.0942 -0.07187 0.63879 -0.49918 0.16274 -0.37685 -0.22147 0.03954 0.70818 -0.43908 -0.41127 0.37364 -0.88715 0.11375 -0.22976 0.00103 -0.2726 0.71305 0.02403 0.36776 -0.06431 -0.16673 0.28935 0.44792 -0.35186 -0.57028 -0.07411 0.56338 0.19932 -0.72697 0.01037 -0.17498 -0.39226 0.46928 0.07003 -0.32525 -0.25354 -0.1379 -0.46239 -0.70618 -0.05128
awb 0.02596 0.52668 -0.5311 0.1345 0.68364 0.26279 0.01321 0.46908 -0.64454 -0.12695 0.23237 -0.0916 0.12999 -0.4043 0.23849 0.14537 0.35918 0.51661 -0.16752 -0.45545 0.17596 -0.43032 0.30997 -0.0708 0.59001 0.12359 0.79727 -0.6234 0.58299 0.31894 -0.11847 -0.12064 0.70085 -0.65158 -0.27771 -0.41244 -0.76567 -0.15994 0.34355 -0.56655 0.33398 0.36546 -0.85725 -0.28134 0.06138 1.05662 0.07952 0.54744 -0.71615 -0.09077 0.08289 -0.15736 -0.28551 0.78502 -0.20267 0.03895 0.00947 0.17704 -0.70856 0.0933 -0.40143 -0.38798 0.11563 0.2522
awi 0.67875 1.03268 0.84235 0.42363 0.65414 -0.09758 0.57189 0.28449 -0.00672 0.52445 -0.49781 0.04413 0.04492 0.0506 0.73492 0.14688 -0.19408 -0.1965 -0.4402 -0.22762 -0.70127 0.45443 0.30335 -0.19565 -0.98061 0.13691 0.44238 0.23871 -0.49986 0.72523 0.37827 0.95558 0.36419 0.58968 -0.53687 0.20568 0.49152 -0.74945 -0.18125 -0.33453 0.09142 -0.2505 0.1848 0.58706 0.18456 -0.15698 -0.63734 -0.7345 0.42452 -0.36238 -0.20289 0.4277 0.36013 0.35481 -0.08062 -0.14586 0.00165 0.2701 0.66826 0.22421 0.9154 0.77496 -0.29727 0.31209
ayr -0.35439 0.26883 0.24022 -0.39843 -0.28847 -0.17957 -0.65769 -0.09894 0.30044 -0.37907 -0.04452 -0.04576 -0.08424 0.48548 0.34331 0.53946 -0.10258 -0.24653 -0.35345 -0.03095 0.47728 -0.26745 -0.15183 -0.25446 0.26937 -0.78766 -0.51752 0.22431 -0.67515 0.03602 0.10469 -0.31088 -0.61422 -0.29376 0.60208 0.23242 -0.34523 0.16892 -0.20572 -0.10652 0.493 -0.32277 0.12034 0.17304 0.29845 -0.26498 0.3513 0.1783 0.26057 0.13131 0.00827 -0.67817 0.80939 -0.21427 -0.59436 -0.03557 -0.3169 0.29144 -0.20218 -0.38043 0.28082 -0.18262 -0.47938 0.66064
azb -0.26631 0.22461 0.03117 0.43254 -0.00015 -0.01595 -0.29276 -0.05266 0.38968 0.44981 0.22401 -0.18653 0.42146 0.27077 -0.28154 -0.40313 0.48208 0.67198 -0.14415 -0.0835 0.34072 -0.00498 0.10273 0.11276 -0.07229 0.06513 -0.44415 -0.14819 -0.12161 0.43551 -0.29597 -0.25195 -0.38033 -0.15589 0.54284 -0.04117 -0.31467 -0.37078 0.15618 -0.06291 -0.04595 0.06673 0.56985 0.12094 -0.36906 0.38946 -0.05658 -0.03245 -0.24801 -0.50924 -0.29187 -0.10992 0.40231 0.14429 0.23161 -0.54105 -0.14696 0.03011 -0.23847 -0.256 0.00334 -0.05783 -0.59523 0.15786
aze -0.29744 0.23503 0.04525 0.39071 -0.00157 -0.01479 -0.28805 -0.07767 0.37785 0.48835 0.2215 -0.17548 0.41252 0.2622 -0.33929 -0.38878 0.47485 0.66321 -0.16247 -0.08759 0.33341 0.03566 0.13449 0.11859 -0.04975 0.08163 -0.44109 -0.1799 -0.11941 0.42907 -0.31045 -0.24756 -0.41003 -0.19501 0.55673 -0.05459 -0.3446 -0.35111 0.15026 -0.04007 -0.05353 0.04625 0.5777 0.13808 -0.36489 0.4211 -0.03614 -0.05741 -0.2752 -0.47963 -0.2854 -0.10905 0.3744 0.14525 0.23875 -0.55733 -0.15554 0.04736 -0.23322 -0.25003 -0.00175 -0.07685 -0.58161 0.15869
azg 0.01041 -0.18012 -0.68481 0.35282 -0.35993 -0.21533 0.13029 -0.02075 -0.30827 0.85403 -0.13197 0.15129 -0.11023 -0.13121 -0.10766 -0.13324 0.39165 -0.88397 -0.12938 0.68969 -0.63692 0.37525 -0.32892 -0.23347 -0.4526 -0.15077 -0.39078 -0.2724 0.25698 0.21275 0.09055 0.02271 -0.09594 -0.12586 0.25706 -0.36669 0.32734 -0.03242 -0.71586 -0.57422 -0.50382 0.2435 0.03036 0.22604 -0.03787 -0.94437 0.09924 -0.59242 -0.24227 0.34787 0.13533 0.59752 -0.0159 -0.77096 -0.09596 0.1995 -0.7994 -0.9941 0.06816 -0.41842 -0.2868 -0.03814 0.20345 -0.44736
azz -0.09701 0.05095 -0.40281 0.26667 -0.27631 -0.59559 0.12488 0.14607 -0.60438 0.28612 0.13054 0.59781 -0.0137 0.07671 0.25002 0.50933 -0.33512 0.17815 0.16261 0.27435 0.16361 -0.57207 -0.06277 -0.5747 0.26369 0.48063 0.06663 0.31134 -0.44181 0.00251 -0.29345 0.02267 0.0695 -0.09025 0.23933 0.13017 -0.47426 0.02697 0.13877 -0.21822 -0.07969 -0.2254 -0.27472 -0.24459 -0.51157 -0.02836 0.44763 -0.1797 0.16459 0.26633 -0.04154 0.01565 0.76965 0.11547 0.36838 0.26982 -0.34094 0.01425 0.37983 -0.21645 0.31897 -0.58495 -0.0701 0.37713
bam -0.01748 -0.12606 -0.06874 0.09986 0.39606 0.59427 -0.18387 0.00987 -0.18662 -0.63396 0.18693 -0.01467 -0.25626 0.0983 -0.32791 -0.52007 -0.21812 -0.18266 0.12971 0.11626 0.5816 -0.16296 0.34987 -0.37106 0.10669 0.43578 -0.04864 0.57533 0.35328 -0.67716 -0.28621 -0.79565 0.85171 0.25145 -0.00227 0.1341 0.42037 -0.81466 0.17478 -0.31653 -0.18989 0.20685 0.02691 0.51831 -0.42814 0.203 0.02966 1.23 0.53169 0.15748 0.21881 -0.04788 -0.18541 0.20646 0.42232 -9e-05 -0.01208 0.1746 -0.77388 0.26526 -0.14673 0.20052 0.3103 0.32669
ban 0.42928 -0.12878 0.44664 0.59157 -0.18687 -0.26829 -0.5293 0.24944 0.4623 0.2113 0.35159 -0.07132 0.11866 -0.03626 -0.52789 -0.63041 -0.07952 0.16306 -0.19667 -0.62731 -0.4518 -0.22625 0.18094 0.0904 0.03433 -0.94218 0.28581 -0.47266 -0.07802 -0.31536 -0.6144 -0.33853 -0.2097 -0.46251 -0.24678 0.46248 0.52732 -0.22724 0.00764 -0.00853 -0.26669 -0.08047 0.54939 -0.64834 -0.32647 0.12784 0.04112 0.26699 0.01353 -0.17001 -0.00866 -0.66379 0.14407 -0.18804 0.04999 0.73342 -0.03525 0.2816 -0.00832 0.41994 0.25066 0.34317 -0.34379 0.02454
bao -0.51987 -0.35142 -0.35578 -0.45762 0.18079 0.48873 -0.10003 0.12427 0.52777 -0.33176 0.32498 0.11524 0.2066 0.08918 -0.08991 0.47389 0.24601 0.54548 -0.59505 -0.06668 0.04226 0.04247 -0.02898 0.06069 0.9086 0.23145 0.55381 -0.03748 -0.11999 -0.77986 -0.24138 -0.14677 0.06458 0.23322 0.40269 0.54999 0.04325 -0.12168 -0.12361 -0.22228 -0.44693 -0.35826 -0.30098 -0.11814 0.80049 -0.02237 0.7142 0.684 0.15656 0.48788 -0.14697 0.37752 -0.26169 0.073 -0.17985 -0.13815 -0.39372 0.29705 -0.31038 0.09661 -0.08111 -0.03606 -0.3117 -0.31745
bar -0.5036 -0.32601 0.33013 -0.46306 0.24332 1.01258 -0.06263 0.26084 -0.18087 0.32643 -0.16228 -0.20602 -0.06764 -0.04729 0.15132 -0.08999 -0.31833 0.29309 0.18239 0.06665 -0.39969 0.14633 0.09972 -0.75596 -0.23194 -0.1461 -0.53476 -0.27479 -0.45198 0.33706 0.0172 0.33294 0.03014 -0.18611 0.38904 0.27016 0.32549 -0.13783 -0.23486 0.32765 0.09857 -0.15124 0.52583 0.67226 0.31825 0.64085 -0.00364 -0.38936 -0.33992 0.48269 -0.45416 -0.13472 0.47062 -0.67744 -0.21496 -0.47056 0.17566 0.13507 0.06186 0.01705 0.0181 0.51543 -0.05051 -0.39552
bav 0.52078 0.04437 -0.03892 0.56084 0.15126 0.78959 -0.05015 0.01394 0.47546 -0.32435 -0.07625 -0.82286 -0.39739 -0.10076 0.23826 -0.17777 0.16136 -0.6517 0.52603 -0.50858 0.16131 0.32333 -0.01167 -0.45546 -0.89465 0.09823 0.46715 -0.07 -0.79277 -0.09546 0.85174 -0.25073 0.44436 -0.28596 0.05229 -0.37468 0.29423 -0.37954 -0.12026 0.22962 -0.47832 0.01801 -0.15774 0.22155 0.38589 0.12949 0.66436 0.45115 0.40518 -0.79 0.85335 0.60406 0.63088 0.08885 -0.22127 -0.06374 -0.55945 -0.27756 0.26276 0.49111 -0.14086 -0.2781 -0.77464 0.64446
bba -0.11217 -0.10143 0.09395 -0.62352 -0.64106 -0.05416 -0.36919 0.02966 0.11847 -0.24672 -0.23471 0.33656 -0.78851 0.18911 0.4202 0.1054 0.05284 0.06747 0.11429 0.4377 -0.58948 0.627 -0.03502 -0.21398 -0.14703 0.01618 0.10574 0.18948 -0.60867 -0.24243 -0.17836 0.45154 -0.17763 0.36178 -0.14386 1.04574 0.42096 -0.3784 0.54949 0.21292 0.4914 -0.11327 0.03168 -0.05613 0.59371 -0.24413 0.07258 -0.92396 0.06848 0.11367 0.25656 0.56017 -0.9951 -0.48858 0.26111 0.18745 0.28433 -0.1624 -0.29437 0.11242 0.14843 0.62313 -0.0083 0.1306
bbb 0.2637 -0.09504 0.54146 -0.08301 -0.49943 -0.08596 -0.53058 0.25368 0.49501 0.29147 0.06556 0.49169 -0.60918 0.17385 0.17656 0.21154 -0.01796 -0.5947 -0.10799 -1.10614 0.02967 -0.4298 -0.16285 -0.4283 -0.66606 0.45597 0.53144 -0.51477 -0.63502 0.27672 0.00937 0.05798 0.25571 -0.51764 -0.27376 -0.4883 -0.03875 0.26249 -0.23247 0.04687 -0.08317 0.66974 -0.45983 -0.44733 -0.03946 0.15572 -0.11262 -0.46054 0.16378 0.32661 -0.12216 0.11622 -0.49522 -0.53357 -0.57816 0.127 -0.11016 1.03886 -0.91725 1.01048 0.13776 -0.62188 -0.13355 -0.26675
bbc 0.31003 -0.45431 -0.10525 -0.06462 -0.3994 -0.16025 -0.038 0.08814 -0.27315 -0.49532 -0.12713 0.29629 0.41078 0.07682 0.09889 -0.25267 -0.32228 0.33543 -0.03458 0.61369 -0.08763 -0.47626 -0.42408 0.13722 0.17761 -0.09209 0.48847 0.21559 0.24092 -0.2404 0.11389 -0.04526 0.12933 0.16586 -0.06181 -0.20175 -0.51013 0.70738 0.42543 0.24751 0.08411 -0.34151 -0.07578 -0.16094 -0.12492 -0.08747 -0.42579 -0.02504 0.34284 -0.30764 -0.19701 -0.49033 -0.20448 0.06916 -0.13314 0.20198 0.82288 -0.0626 -0.31596 -0.39477 0.45397 -0.01547 0.08144 0.67297
bbr 0.74267 -0.02859 0.75199 0.44647 -0.43734 -0.58198 -0.06402 0.71023 0.1478 0.0267 -0.23461 0.10978 0.51777 0.07413 0.1278 0.01773 0.11845 -0.11327 -0.41121 -0.48765 -0.54729 -0.01898 0.39875 -0.53238 -0.15807 0.5209 0.19806 -0.35854 0.28667 0.25917 0.51959 -0.04364 0.21728 -0.41724 -0.51068 0.12885 -0.39524 -0.46828 -0.45169 -0.14794 -0.21332 0.35638 0.26248 0.12936 -0.66955 0.89743 -0.46639 -0.67071 -0.16479 0.15692 0.10614 0.09166 -0.86751 0.28867 -0.24014 0.34903 -0.24268 -0.41333 -0.55247 0.51393 0.21122 0.02192 -0.07795 -0.16699
bch -0.00276 -0.10781 -0.17814 0.11391 0.46954 -0.15436 0.15774 -0.02836 0.41358 -0.32458 0.13799 -0.17821 0.58772 -0.01416 -0.38605 -0.32242 0.21936 -0.12051 -0.56705 0.12511 -0.64697 -0.40934 -0.13913 -0.20517 -0.06511 -0.52031 0.08454 -0.39467 0.4866 0.38006 -0.47544 0.38772 -0.04144 0.45945 -0.724 0.88162 0.31317 0.39201 -0.26821 0.31986 -0.33485 0.04438 0.53858 -0.32509 -0.40388 0.73744 0.00233 0.7936 0.02517 0.20669 -0.78092 0.16672 -0.07665 -0.90817 0.09944 -0.09166 -0.52327 -0.04677 0.00927 -0.12683 0.69559 0.59386 0.07358 0.66571
bcl 0.47816 0.17732 0.2152 0.04114 -0.07764 0.02398 0.36601 0.43446 0.06132 -0.19596 0.34958 -0.09382 0.27414 0.2727 0.35353 -0.16002 -0.09604 -0.35738 0.28093 -0.01318 0.2245 0.33968 -0.00306 -0.3297 -0.21292 -0.14723 0.02725 -0.2365 -0.15008 -0.55418 0.42686 -0.34177 -0.33475 0.30883 0.25772 -0.62903 0.70212 0.22435 0.12044 0.29014 -0.27902 0.25209 0.21419 0.33361 -0.43062 -0.11552 -0.03873 -0.17986 0.06669 -0.00992 -0.19212 0.16983 0.39514 0.18882 -0.11526 -0.03577 -0.04518 -0.24659 0.31008 -0.11804 0.25388 0.36763 0.20457 0.47582
bcw -0.10979 -0.27704 -0.28192 0.4306 0.69719 -0.14868 -0.31544 -0.43813 -0.27626 0.22339 -0.11614 0.01958 0.32898 -0.2393 0.54168 -1.14218 0.15859 0.04693 0.12701 -0.09179 -0.24059 0.17756 -0.46707 0.79767 -0.30399 -0.08944 -0.64165 0.37545 -0.72243 0.8651 0.08506 -0.45193 -0.09687 0.48543 -0.39236 -0.29883 -0.08537 0.36202 -0.10914 0.44177 -0.86063 -0.66058 -0.20368 0.09382 0.01472 0.32694 0.3776 0.15869 -0.20794 0.10708 0.49105 0.04507 -0.06423 0.44965 0.45753 0.08649 -0.55422 0.18946 0.08925 0.90494 0.19134 0.13731 -0.23504 0.61154
bdd 0.66889 0.90012 0.17819 -0.62676 0.68701 0.31468 0.62101 0.04272 0.2258 0.0763 -0.00924 0.38168 0.52921 -0.124 -0.27913 -0.33368 0.72489 0.43742 -0.37329 -0.47209 -0.16105 -0.33017 -0.6115 -0.29105 -0.71825 -0.11913 0.057 0.31478 -0.22733 -0.10025 -0.0922 -0.17858 0.03131 0.23863 -0.47447 -0.12503 0.00265 -0.22063 -0.03102 -0.09396 0.63404 -0.15607 -0.50518 -0.13267 0.38017 -0.00411 0.47424 -0.01782 0.55794 0.00138 -0.32377 -0.04285 -0.44878 0.09382 0.11987 -0.00258 -0.10664 0.01893 0.04297 0.433 -0.05372 -0.0309 0.67546 -0.00121
bef 0.50266 -0.45224 -0.3924 -0.77312 -0.51501 -0.57971 0.29255 0.9693 -0.58388 0.03237 -0.19934 0.56092 -0.19024 0.83001 -0.54666 0.3374 0.1932 -0.573 0.01675 0.13058 -0.0959 0.53898 -0.02145 0.1274 -0.40175 -0.39125 0.52533 0.58943 0.0602 -0.09699 0.87627 -0.12621 -0.61091 0.3256 -0.12388 0.18573 0.18881 -0.34781 0.54766 0.62183 0.6344 0.01092 -0.32142 -0.73896 0.45204 0.69807 0.26845 -0.21748 -0.00212 0.05171 -0.43222 0.11544 -0.28894 -0.32573 -1.05089 0.12083 0.06636 0.5347 -0.07098 0.1517 -0.80457 0.25409 0.8975 -0.3403
bem -0.49369 0.09576 0.45442 0.15025 -0.29024 -0.18791 0.54039 0.06376 0.0146 -0.06868 0.12398 0.28737 -0.18706 0.09925 0.43884 -0.25633 -0.44537 0.42797 -0.44417 0.04167 0.08125 -0.0034 0.40339 0.63044 -0.62425 -0.39268 0.30017 -0.18714 -0.04388 -0.34351 -0.21927 0.45071 0.45073 0.42401 -0.41413 -0.09305 0.01318 -0.14177 -0.34555 0.34725 0.43866 0.0819 0.30787 -0.16912 -0.38195 0.02813 -0.42537 0.64815 0.41721 -0.25175 -0.14852 -0.02005 -0.09166 0.24092 -0.21691 -0.27032 -0.58004 0.32564 0.42282 -0.2477 -0.10467 -0.23168 0.59302 -0.57202
bex -0.58889 0.37443 -0.89122 0.01636 -0.091 1.16797 -0.24434 0.09973 0.43095 -0.45775 -0.18131 0.36048 -0.45409 -0.31235 0.08918 -0.20125 0.42444 -0.02599 -0.03828 -0.04145 -0.2701 -0.34515 -0.61144 0.20783 -0.28427 -0.15625 0.49952 -0.28824 -0.34035 0.99087 -0.37029 -0.20814 -0.4412 0.74984 -0.28202 0.06673 0.84854 0.24674 0.23815 0.36543 0.28916 0.42344 0.82353 -0.60726 0.01888 -0.67701 0.255 -0.15918 -0.14595 0.54252 -0.06755 -0.13772 -0.7316 -0.69163 -0.61971 -0.17292 0.41824 0.17884 -1.06225 0.27407 0.08298 0.11308 -0.21461 -0.11753
bfd 0.34838 0.16044 -0.70898 0.3948 0.19505 0.20239 0.28562 -0.00524 0.5711 -0.16911 0.02285 -0.6161 0.5145 -0.3342 0.24393 -0.51239 0.68142 -0.35195 0.18762 -0.07638 0.27495 0.02523 -0.4462 -0.15756 -0.10159 0.09439 -0.97409 -0.0162 0.30299 -0.53961 0.24424 -0.37033 0.2006 0.07788 -0.05741 0.31405 0.16621 0.12914 -0.26406 -0.36402 -1.05964 -0.67948 0.25065 0.3755 -0.18211 0.28866 0.2632 0.88704 -0.18705 -0.00927 0.56587 0.23881 -0.4836 -0.18101 -0.19254 -0.17918 0.3679 0.20285 -0.08719 0.43152 0.71698 -0.38172 -0.58865 0.23895
bgr 0.1547 -0.30546 -0.15025 0.61468 -0.25015 -0.03499 -0.1453 -0.5738 -0.41021 -0.84954 -0.27357 -0.12565 -0.60609 -0.41005 -0.20341 -0.03668 -0.44294 0.43653 -0.09227 0.34059 -0.42801 -0.40347 0.51784 0.0944 -0.11793 -0.16021 -0.36874 0.11966 0.49826 0.2595 0.34174 -1.04504 -0.54587 -0.47115 0.30699 0.01061 0.48367 -0.0477 -0.51232 0.49359 0.49618 -0.52241 0.28548 -0.31979 0.43619 0.05632 -0.16535 -0.54923 -0.15451 0.5101 -0.13151 -0.27751 0.29655 -0.02702 0.03151 0.28212 0.10596 0.3078 0.32027 -0.20277 0.19261 0.03377 -0.26899 -0.22384
bgs -0.27852 0.10165 -0.10563 0.42399 -0.07674 0.09288 0.11611 0.29399 -0.38505 -0.11841 0.67367 -0.55746 -0.18685 -0.44537 -0.10973 -0.23941 -0.19697 -0.30486 0.59241 0.19803 0.02397 0.56719 0.33852 -0.18895 0.3322 0.33827 0.73529 0.08513 -0.49447 -0.22116 0.68297 -0.06537 0.54038 0.32638 -0.33482 -0.48935 0.00384 0.23937 0.33297 0.60294 -0.219 0.20206 -0.2855 -0.00472 -0.50812 0.16616 0.06062 -0.07653 -0.31957 0.14322 -0.23994 0.17323 0.10097 0.20144 -0.38488 0.13778 0.19648 0.01638 0.23564 -0.55074 0.68314 0.28523 0.08713 -0.12689
bgz 0.27225 0.49773 0.32098 0.18958 -0.09449 -0.16661 0.0634 0.74248 -0.34744 0.72793 0.36164 0.10765 0.15158 0.09934 -0.09907 0.10958 -0.54168 -0.08369 -0.48184 1.11377 0.68986 -0.34215 0.44909 0.20991 -0.07731 0.18592 0.00635 -0.20697 0.19508 -0.51788 -0.13915 -0.20624 -0.17262 0.18579 -0.42415 -0.16273 0.35716 0.29503 0.2581 0.16231 0.25668 0.12 -0.41657 -0.34664 -0.59282 -1.03775 -0.41914 -0.33953 0.33277 -0.0848 -0.2339 -0.0981 -0.19365 0.13777 -0.00434 -0.43776 0.44386 -0.47557 -0.29413 -0.17126 -0.61606 0.29641 -0.5805 0.15918
bhl 0.36092 0.87266 0.0554 0.53081 0.30283 0.60225 0.19503 -0.0276 -0.26942 -0.11246 0.56891 -0.18709 0.03653 0.08087 -0.67499 0.19038 -0.34337 -0.23811 -0.50619 -0.01868 0.10338 -0.34037 0.26271 0.02484 0.23065 0.32551 0.00037 0.18327 1.63754 -0.06831 -0.07384 0.38109 -0.37377 0.18504 0.28805 -0.44403 0.01387 -0.10207 0.36131 -0.12711 -0.2913 0.03993 0.47504 -0.46258 0.05987 -0.69898 -0.19148 0.16075 -0.22845 -0.1178 -0.68581 1.01123 -0.12812 -0.00829 0.21779 0.5102 -0.6218 -0.35088 -0.17605 0.19322 -0.10098 0.60619 0.24707 0.3749
big 0.63819 -0.20669 0.26663 0.23942 -0.53847 -0.8097 -0.14651 0.12355 0.48524 -0.55359 0.53932 0.25587 0.23314 0.55035 -0.47852 -0.20485 0.51979 0.08115 -0.05556 0.33777 0.0156 0.3496 -0.23522 0.25826 0.02786 -0.01297 0.28651 0.63251 0.17055 -1.00514 -0.21822 0.20758 -0.13952 -0.31612 -0.7422 0.05656 -0.10047 0.02858 0.07955 0.05831 0.27176 0.11605 -0.22042 0.75046 0.45209 0.05373 -0.47702 0.92825 0.03059 0.35465 -0.62227 -0.0772 -0.32803 -0.11483 0.19296 0.12643 -0.30927 -0.45587 -0.30688 0.04665 -0.33287 -0.41026 0.51365 0.44538
bim 0.14992 0.1355 0.37824 -0.18663 0.85301 -0.0517 -0.28605 0.3322 0.06973 -0.04634 -0.44562 0.30479 -0.05196 -0.18497 -0.20021 -0.06429 0.41144 -0.5596 0.11147 1.13333 -0.62814 0.08753 0.33878 -0.13727 -0.03078 0.16013 -0.65644 0.25604 0.75983 -0.02336 -0.00698 0.27636 -0.37342 -0.23044 -0.46393 -0.10623 0.06975 0.53232 -0.74984 -0.01242 -0.33634 0.30363 -0.31644 -0.74842 0.47608 -0.18128 -0.58275 -0.20264 0.15153 0.47139 0.75654 0.02339 0.1731 0.5215 0.1959 0.57049 0.50345 0.01325 -0.1062 0.78907 0.89272 0.68123 0.32432 -0.16172
bis -0.01252 -0.1747 0.29308 -0.0778 0.01484 -0.21109 0.16322 -0.6521 -0.43559 0.68577 -0.3343 0.17512 -0.12198 0.4499 0.03274 -0.13213 0.0671 -0.48369 0.08252 -0.38803 0.07198 -0.55899 0.43396 -0.37244 0.4308 0.07446 0.65692 0.20599 -0.01194 0.0241 -0.25297 -0.46175 -0.10872 0.03998 0.38663 0.54265 -0.83273 -0.27742 -0.18398 0.01593 -0.39531 0.23265 0.15207 -0.50157 -0.10807 0.25201 -0.34377 -0.09076 -0.46291 0.292 -0.46342 0.1595 -0.39148 0.68892 -0.66458 -0.38048 -0.31772 0.45211 0.17215 -0.42031 0.07182 -0.05035 0.19782 0.13288
biv -0.41843 -0.10186 0.33986 0.52895 -0.44081 0.73628 -0.34154 -0.52139 -0.02679 -0.53195 0.45865 0.61706 -0.58278 -0.19449 -0.21973 -0.43312 -0.09501 -0.32294 0.18413 0.08326 -0.14593 0.52769 -0.61492 -0.12139 0.29215 0.91795 -0.42706 -0.06677 -0.18839 0.36736 -0.36816 -0.19027 0.40675 0.82699 0.28599 0.23447 0.23104 -0.32486 -0.49297 0.1369 -0.08923 -0.09242 -0.15034 -0.28247 -0.12907 -0.07246 0.36917 1.03851 0.1409 -0.57024 0.36859 -0.37324 -0.28363 -0.90702 0.19848 0.32117 -0.33263 0.39424 -0.21813 -0.62961 -0.13388 0.11215 0.32744 0.44222
bjr 0.0969 0.14848 0.1898 -0.66776 0.02632 0.45504 0.4393 -0.06533 -0.40144 0.76014 -0.49746 -0.05295 -0.5852 0.04999 -0.18369 -0.08596 -0.09595 -0.56079 -0.08247 0.26292 0.10491 0.46828 0.46063 0.19685 -0.29919 -0.87062 -0.05012 0.32093 0.12679 -0.087 -0.17065 0.17629 1.38956 -0.1818 0.29093 -0.13839 -0.32155 0.33215 0.08685 -0.10782 1.32138 0.41784 0.11338 0.12709 0.66292 -0.28357 0.0279 0.22077 -0.2368 -0.6505 -0.50463 -1.14827 -0.30473 -0.3479 -0.04722 0.09563 -0.15839 -0.14915 -0.14735 -0.91053 0.32149 0.60117 -0.01068 -0.03662
bkd -0.08242 -0.00606 0.28301 0.03396 0.09441 -0.18455 -0.1673 0.09829 0.14704 -0.28719 0.63858 -0.34017 0.41251 0.07492 -0.14735 -0.52784 0.13216 -0.05958 0.09463 0.01305 -0.01012 0.31305 -0.30122 -0.34765 -0.03035 -0.02745 0.03113 -0.41386 0.00366 -0.18119 0.49996 -0.38824 -0.01643 0.67497 0.54261 -0.41913 0.28437 -0.42422 0.47453 0.31572 -0.12465 0.74771 0.02758 -0.08493 -0.24354 0.01631 0.14992 -0.21501 0.00982 0.16646 -0.32732 0.07501 -0.13526 -0.16596 -0.28955 0.8991 0.13391 -0.77721 -0.34228 0.12288 0.05774 -0.15657 -0.18295 0.39744
bkq 0.34171 -0.07845 0.36873 0.66647 -0.10143 0.25475 -0.58813 -0.28353 0.34451 -0.63998 -0.80915 -0.25082 0.3779 0.55592 -0.09919 0.33863 0.7997 -0.10076 -0.16732 0.2198 -0.39905 0.43471 -0.32443 0.50421 0.15999 0.5304 0.22655 0.47036 0.36253 0.57398 0.76681 0.6355 -0.82876 0.43766 0.5434 -0.20509 0.45015 0.16669 0.18331 -0.6178 0.59846 -0.37293 0.50954 0.57959 -0.43793 -0.24926 -0.16636 0.17055 0.54805 -0.47395 -0.22332 -0.26495 0.28458 0.08442 0.17475 0.12752 0.04431 0.29391 0.84417 -0.06751 -0.95903 0.44124 0.44021 0.35482
bku 0.40953 0.12347 0.31781 0.16728 0.15115 0.1057 0.45749 0.66206 -0.23407 -0.58444 0.59566 -0.81005 -0.25005 -0.01807 -0.33703 -0.09667 0.56801 0.209 0.2449 -0.40491 0.32613 -0.17278 -0.54828 -0.17697 0.08821 0.5258 0.79796 0.04835 0.83205 -0.27112 0.66145 -0.32582 0.09898 -0.37234 0.0608 -0.37185 -0.05617 -0.41145 -0.28116 0.94151 -0.13291 0.53355 0.42715 0.07804 -0.26465 -0.54898 0.23066 0.09422 -0.2366 0.49549 -0.44822 -0.1003 0.23102 -0.27547 0.42336 0.07503 -0.11703 0.28016 0.55842 0.18431 0.29237 -0.27061 0.27214 -0.09122
bkv -0.06874 -0.41368 0.8095 -0.47938 0.32339 -0.58537 -0.48119 -0.76223 -0.07923 -0.30009 0.66236 -0.49877 -0.36318 0.26947 0.45339 -0.27072 -0.43414 0.22061 0.12734 -0.04302 -0.24955 0.2863 -0.24709 -0.32029 0.19464 0.19548 0.2251 -1.06024 -0.57363 -0.83078 -0.20062 0.30727 -0.15201 0.27284 0.4906 -0.16099 0.46873 0.48299 0.01115 0.32974 -0.55256 -0.18429 -0.13242 -0.33905 -0.2444 -0.25849 0.42136 -0.27212 -0.62615 -0.52119 0.27539 0.04659 -0.94652 0.30749 -0.31711 0.24836 0.12438 0.28201 0.12648 0.06936 -0.16792 -0.44551 -0.33913 -0.64704
blw 0.03373 -0.64865 0.52228 -0.39437 0.03308 -0.04013 -0.23518 0.05909 0.35308 0.12888 -0.17876 -0.96718 0.38325 0.17553 -0.4323 0.179 -0.15594 0.1018 -0.057 0.17572 -0.40137 -0.13377 -0.66322 0.21278 -0.15042 0.10912 0.05513 0.66469 -0.2446 0.20841 0.4599 0.18004 -0.19616 0.34162 0.00668 0.46159 0.59918 -0.1942 -0.23653 0.6855 -0.12966 0.01917 0.24362 -0.16938 -0.06149 0.15192 -0.39175 -0.06678 -0.81395 0.50655 -0.07634 0.1411 -0.02227 0.50009 0.06198 0.41341 -0.15896 -0.45062 0.20843 -0.85222 -0.26707 -0.37003 -0.54631 0.23081
blz -0.04424 0.01649 0.52943 -0.12644 -0.32821 -0.1352 0.22338 0.12268 0.22659 -0.21352 -0.03416 0.1841 0.90207 -0.10824 0.31697 -0.62889 0.27927 0.45275 -0.48748 0.18998 -0.07827 -0.5358 0.10344 0.07176 -0.1783 0.7275 0.59216 0.15435 -0.00064 -0.08456 -0.67314 -0.33857 -0.17709 0.26355 0.167 -0.15679 0.03867 0.47027 0.4775 -0.51111 0.21082 0.74094 -0.56468 -0.15584 -0.23941 0.58261 -0.61802 -0.38679 0.16256 0.19581 -0.09516 0.28057 -0.0685 0.25408 0.43214 0.14516 0.41752 -0.12855 -0.76651 0.12987 0.37988 -0.34605 -0.19693 0.09583
bmb 0.21643 0.2238 -0.51638 0.2594 -0.29459 -0.09032 0.04491 0.81478 0.74991 -0.11726 -0.45658 0.05308 -0.04778 0.57234 0.21182 -0.39599 0.11168 0.89429 0.53966 0.15099 -0.05169 -0.34393 -0.09969 0.30369 -0.16269 0.65547 0.72287 -0.05474 0.09546 0.13986 0.37761 0.64939 0.68497 -0.06087 -0.28643 0.77671 -0.34602 -0.14705 -0.40276 0.01152 0.02796 0.3051 -0.72248 -0.03016 -0.17855 0.36997 0.4999 0.08068 0.20704 -0.08812 0.91174 -0.14566 -0.42996 0.285 -0.79736 0.04404 -0.19063 -0.19211 0.92623 0.50441 0.01462 -0.03551 -0.42247 0.50256
bmh 0.09486 0.05677 -0.38314 0.03606 -0.19517 -0.01985 -0.41689 -0.00964 0.19319 0.38377 0.40103 0.42356 0.13868 0.04818 -0.04347 -0.00163 -1.04818 -0.56249 -0.68074 0.09814 0.05156 -1.13655 0.48718 0.20021 -0.30299 -0.5056 0.47902 0.17694 0.25108 -0.2912 -0.45245 0.44329 -0.5666 0.03768 -0.16686 -0.29242 0.34497 0.07919 0.27629 -0.16031 -0.33502 -0.80643 0.11428 0.21915 0.29818 0.61101 -0.26363 0.32028 0.1282 0.1492 -0.57283 0.24696 -0.83869 -0.30205 -0.02344 0.75721 0.70947 0.00433 -0.02743 -0.57006 -0.3281 0.81885 -0.55882 0.58612
bmq -0.75892 0.28503 -0.0899 -0.2204 0.02519 -0.222 0.5948 -0.49994 -0.20196 0.49026 -0.51056 -0.12542 -0.97707 0.39959 0.25722 0.6138 0.27356 0.30668 -0.59041 0.8142 0.11226 0.07778 -0.28368 -0.28496 0.64542 0.12317 -0.74808 0.12033 -0.10274 0.72644 0.00762 0.4365 0.34312 0.0304 -0.02798 0.6216 0.14861 -0.53937 0.02581 0.29024 0.5142 -0.23359 -0.52967 0.19825 -0.24097 0.41814 0.5092 0.04324 -0.64821 0.4154 0.30009 0.55935 0.03354 0.17636 -0.07314 0.67452 0.51754 0.29438 -0.19443 0.04036 -0.83077 0.50758 0.07103 0.47343
bmr 0.08431 0.15489 -0.73801 -0.45099 0.91683 -0.52802 0.27582 -0.19477 0.25008 0.47816 -0.28383 0.18011 0.14196 0.18234 0.46423 0.31948 0.35519 0.15511 -0.63434 -0.85688 0.14919 0.62753 0.28819 0.12009 0.41018 -0.01262 0.21833 0.05372 -0.20004 -0.05433 0.38662 0.47183 0.10618 -0.10199 -0.54168 -0.09302 0.28777 0.46939 0.84476 0.08882 -0.01425 -0.46013 -1.13429 -0.85711 0.88545 -0.02095 -0.49944 -0.12767 -0.28065 0.06466 0.34624 -0.17743 0.40833 0.28021 0.42453 -0.39484 0.51816 -0.28996 0.47379 -0.31268 -0.35024 0.4864 -0.04296 -0.53505
bmu -0.2483 0.2803 -0.01404 -0.57493 -0.51069 0.05013 -0.14748 0.1552 -0.50138 -0.4389 -0.15032 0.33535 0.19606 0.33117 0.97585 0.25021 0.46965 0.47612 -0.19778 -0.32735 -0.07507 0.3484 0.31154 0.72324 0.28541 0.46942 -0.84399 0.3218 0.82788 0.29326 -0.10388 0.24184 -0.38115 -0.39095 0.62368 -0.63069 0.1103 -0.29233 0.3529 -0.4687 0.33511 0.8266 -0.34667 0.27955 -0.07821 0.39665 -0.65403 -0.45182 0.07953 -0.97539 -0.28687 -0.43083 -0.6329 0.17404 -0.5623 0.1153 0.50512 0.31133 0.23228 0.39806 0.47012 -0.46553 -0.05189 0.22053
bnj 0.15026 -0.41599 0.34269 0.12363 0.63494 0.91208 0.3206 0.46283 -0.4624 -0.24166 0.10718 -0.08299 -0.16033 0.12465 -0.29445 -0.15386 -0.16088 -0.08802 -0.18817 -0.84326 -0.49143 0.1764 0.46736 0.59326 0.36451 -0.28948 -0.05349 -0.16643 0.71842 -0.65661 -0.00393 -0.44629 0.26138 -0.27917 -0.03756 -0.09314 -0.93365 -0.0923 0.94837 0.58324 0.44474 0.18307 0.66648 -0.46027 -0.17033 -0.13574 0.09857 0.30016 -0.30946 -0.1233 0.54968 -0.20728 -0.05094 -0.18054 0.2492 0.08427 -0.03873 -0.14561 -0.11934 0.70544 0.3763 0.18129 0.30535 -0.24276
bnp -0.01963 -0.12381 -0.02648 0.11098 -0.31635 -0.37199 -0.25277 -0.21208 0.31475 0.05622 -0.26011 -0.2027 0.154 0.18216 -0.06096 0.66033 0.7286 0.29632 0.50056 0.63921 0.24406 -0.18462 0.09449 -0.06938 0.51017 0.29849 -0.19248 -0.21889 0.09355 -0.6535 0.04238 0.35653 0.31326 0.51505 -0.13125 -0.24107 -0.06074 0.5382 -0.42128 1.19747 0.3981 0.1528 -0.38446 -0.52736 0.4307 -0.33372 -0.71934 0.51056 -0.47113 0.38426 0.52579 -0.47177 0.06735 -0.13382 -0.25797 0.13713 0.27563 -0.0385 0.16718 0.37677 -0.1839 -0.05301 0.68519 0.35305
boa -0.54639 -0.21715 -0.51062 0.62289 -0.41243 0.88075 0.44678 0.5164 0.58186 0.49703 0.50899 0.36537 0.15606 -0.03514 -0.04133 0.65337 0.25083 0.24638 -0.67929 -0.02666 0.74867 0.99152 -0.28452 0.14173 -0.06313 0.36133 0.52634 -0.41876 -0.15096 0.78074 0.35624 -0.53055 0.17135 -0.73683 0.26322 -0.07535 0.46144 0.44768 -0.08221 -0.85482 0.03423 -0.32629 -0.30358 -0.51573 0.61719 0.21938 -0.31445 -0.05301 -0.78384 0.24469 0.76677 -0.34423 0.46903 0.49988 -0.28212 -0.34669 0.20797 -0.97248 0.35149 -0.13089 0.081 0.34265 0.17053 -0.33034
boj -0.02608 -0.05515 -0.04003 0.13555 0.32296 0.2416 0.26733 0.09834 -0.42928 0.79469 0.76005 0.8398 0.52327 -0.56173 -0.4397 0.12158 -0.06497 0.17313 1.17925 0.27781 -0.3714 0.08671 0.06945 0.4156 -0.00173 0.0071 -0.07705 -0.4713 0.41918 -0.47365 -0.29732 -0.15617 -0.07009 0.42923 0.40024 -0.42983 -0.42424 0.02485 0.45968 0.0451 0.35671 -0.0955 0.62673 0.43348 0.31709 -0.31563 -0.81149 -0.43012 0.43146 0.44376 0.11422 -0.6626 -0.74811 0.39958 -0.20984 -0.39832 0.10688 0.21527 -0.13039 -0.19538 -0.19461 0.16139 0.07923 0.63972
bon 0.49162 1.06352 0.26697 0.32922 -0.32986 -0.3469 0.26498 -0.23825 -0.07172 0.49205 -0.07225 0.22052 -0.3151 -0.10771 0.44904 -0.73549 -0.50891 -0.45909 0.35315 -0.59613 -0.47716 -0.32916 0.77516 0.53523 0.32765 0.35941 0.25812 -0.06689 -0.25976 -0.1268 -0.3635 0.12128 -0.18797 0.04169 0.61966 0.16476 0.19413 -0.02786 -0.38378 -0.00381 1.05545 0.68695 0.12016 -0.09077 1.1843 0.21456 0.70542 -0.5213 0.79819 -0.35422 0.36354 -0.13623 -0.49694 -0.29756 -0.42009 -0.30554 0.288 -0.699 -0.07194 0.69848 0.21411 -0.3008 -0.24746 0.31625
bpr -0.52673 0.08592 0.31599 -0.11727 0.47913 -0.22622 -0.23743 0.03575 -0.43313 0.44245 -0.19388 -0.63697 -0.45954 -0.15992 -0.35467 0.05779 0.26981 -0.67581 0.32871 -0.31886 -0.60709 -0.06137 0.57826 -0.32131 -0.12078 -0.13379 0.37343 -0.66469 -0.04118 -0.00863 0.64926 -0.47538 0.03346 0.21587 -0.65016 0.65638 0.4854 -0.40795 -0.19451 0.48674 0.10194 0.47023 0.16133 -0.34976 0.45622 -0.21434 -0.50247 -0.51123 0.14589 0.10133 0.06915 -0.0865 -0.21737 -0.41411 -0.06536 0.26827 0.88138 -0.25873 -0.1695 -0.40229 0.18139 0.22181 -0.56393 0.35407
bps -0.49933 0.09136 0.38971 -0.1407 0.46793 -0.27933 -0.25609 -0.01358 -0.42483 0.38338 -0.18893 -0.61323 -0.43115 -0.09944 -0.37493 0.07696 0.25667 -0.61763 0.34069 -0.2918 -0.55206 -0.08341 0.64864 -0.3454 -0.10526 -0.26152 0.33896 -0.61512 0.0069 -0.01036 0.64538 -0.56009 0.08886 0.26639 -0.62317 0.59356 0.46619 -0.47386 -0.19225 0.47056 0.1637 0.50956 0.132 -0.34877 0.48387 -0.21841 -0.53078 -0.53982 0.20582 0.05809 0.12897 -0.14154 -0.30951 -0.48861 -0.08835 0.22497 0.98426 -0.21308 -0.14811 -0.45744 0.16497 0.32422 -0.50714 0.31184
bqc -0.13245 0.61272 0.3125 0.08812 0.08599 0.28529 0.12808 0.43487 -0.37901 -0.25333 0.39324 -0.07639 -0.24423 0.38228 0.72353 0.0377 0.37279 -0.03437 -0.32818 -0.24721 0.22581 0.3019 0.60455 -0.18633 0.09312 -0.14468 -0.20201 -0.11234 0.68529 0.0712 0.07604 -0.34716 0.4484 0.34346 -0.02622 -0.22649 -0.14018 -0.27215 0.07309 -0.53593 0.2365 -0.07584 0.07845 0.27713 -0.29091 -0.32006 0.06866 -0.05399 0.62177 0.10964 0.10493 0.35313 -0.34553 0.11714 -0.18914 0.64499 0.18697 0.53175 -0.54442 -1.03127 0.21455 -0.17724 0.59578 0.27931
bqp -0.32783 0.56413 -0.05651 -0.08268 -0.27658 0.39685 -0.41138 0.1802 -1.0138 -0.22632 0.10963 0.55149 -0.52275 0.07971 0.80399 0.13074 0.05354 0.07484 -0.12613 -0.62717 0.04695 0.67894 0.61216 0.12093 -0.22698 -0.47116 -0.60185 -0.07895 0.40734 0.07308 0.41565 -0.31428 0.41718 0.25302 0.19797 -0.06164 0.27419 -0.00028 -0.4682 -0.01954 0.42014 0.40801 -0.20093 0.20608 -0.57146 -0.21843 0.11909 0.45659 -0.02501 -0.50626 0.51214 0.25038 -0.36094 0.15345 0.13376 0.71189 0.25877 0.55621 -0.54667 -0.40191 0.38733 0.10435 -0.05273 0.18193
bsn -0.61395 -0.46716 -0.37014 -0.25346 0.33852 0.52609 -0.29166 -0.1185 -0.03236 0.34686 0.05546 0.42758 -0.03394 0.07969 0.2717 0.76503 0.51234 0.2275 -0.5446 -0.33929 -0.07699 0.10293 -0.40053 -0.21309 0.48117 0.22974 0.04379 -0.47458 0.11612 -0.08531 -0.56017 -0.08683 -0.12917 -0.01471 -0.30066 0.04095 0.48148 -0.51907 -0.3454 -0.00371 -0.73885 -0.19805 0.34364 -0.00465 -0.15031 0.25953 0.34781 0.10458 -0.15172 0.24076 0.00333 0.19628 0.09147 0.4987 0.15249 0.67018 -0.56599 0.26757 -0.7545 0.23129 0.17424 -0.58465 -0.15944 -0.28191
bss -0.40951 0.35249 -0.36097 -0.03842 0.17871 0.32006 0.36432 0.30332 0.05898 0.10264 0.38635 0.00257 -0.1811 -0.65248 0.25056 -0.2585 -0.63162 -0.42177 -1.37266 0.46061 -0.70189 0.1165 -0.1865 0.4374 -0.40315 -0.96225 0.00645 -0.40024 0.1058 0.18516 0.74791 0.20876 -0.09187 0.3104 -0.51077 0.85075 -0.42088 0.11572 0.10263 -0.34773 0.29081 0.39844 0.43624 0.32037 -0.52336 0.72525 -0.62708 -0.21939 -0.25284 0.78048 0.97442 -0.50458 -0.472 0.57664 0.30423 0.6594 -0.05992 -0.08643 -0.38875 0.53483 -0.26013 0.69467 -0.4622 0.12537
btd 0.82849 0.34668 -0.42045 0.2949 -0.58001 -0.50448 -0.19424 0.09357 0.30485 -0.17726 0.08177 0.08802 0.38704 0.09739 -0.04121 -0.56165 -0.06007 -0.39291 0.14082 0.71026 0.35216 -0.6103 0.27734 0.23965 -0.28718 0.10102 0.42495 -0.06482 0.53101 0.08469 -0.36437 -0.0706 -0.24621 -0.16017 -0.00749 -0.38355 -0.12101 0.19782 0.14147 0.29947 -0.60007 0.36671 0.14027 -0.04543 0.33141 -0.31108 -0.15196 0.31354 -0.39697 0.09864 0.22589 -0.28431 -0.08214 0.28984 0.15323 0.10119 0.63725 -0.70788 -0.37627 0.21947 0.11253 -0.01174 0.25353 0.13535
bth 0.10496 -0.50472 -0.10481 -0.67657 -0.90247 0.63499 0.23047 -0.03169 0.01789 0.05864 -0.0721 -0.102 0.23902 -0.12921 -0.11201 -0.47253 -0.21193 -0.10735 -0.33794 0.59754 0.00619 -0.63568 0.59508 -0.23219 -0.80066 -0.8259 -0.04385 -0.26683 0.0218 -0.90812 0.10457 -0.14333 0.95414 -0.13652 0.27482 -0.34917 0.31037 -0.10217 0.11409 -0.20378 0.43156 0.50757 0.86505 -0.4002 -0.02852 -0.50284 -0.00238 0.21938 -0.14183 -0.7103 -0.01135 -0.22906 -0.19789 -0.18096 0.15664 0.66028 0.00324 0.28481 -0.22075 -0.12496 0.12473 0.14004 -0.46124 0.34874
bto 0.35656 -0.44959 -0.13648 -0.08606 -0.40221 -0.13016 -0.10033 0.16859 -0.26301 -0.47476 -0.12921 0.32042 0.42471 0.06108 0.0992 -0.21593 -0.25859 0.34798 -0.04637 0.60521 -0.08814 -0.46593 -0.4092 0.14597 0.23602 -0.10146 0.45741 0.18616 0.23478 -0.23087 0.12416 -0.01632 0.13629 0.11971 -0.02052 -0.17666 -0.53273 0.71106 0.43168 0.21426 0.09425 -0.36048 -0.05008 -0.13725 -0.15028 -0.03645 -0.43855 -0.0571 0.35353 -0.35705 -0.21228 -0.49272 -0.17727 0.07998 -0.17276 0.22714 0.84511 -0.06414 -0.27142 -0.35657 0.46452 -0.02394 0.06262 0.70346
bts 0.49129 -0.45195 -0.01119 -0.07132 -0.40091 -0.32676 0.28236 0.02868 0.09551 -0.26764 0.23296 0.07256 0.56136 -0.34984 -0.04086 -0.33428 -0.09919 0.10755 -0.08039 0.77616 0.06987 -0.28834 -0.64471 0.32294 0.23611 -0.14666 0.41885 -0.11256 0.51713 -0.07551 0.13708 0.08019 0.28223 0.04615 0.07038 -0.40681 -0.41014 0.56111 0.39086 0.39542 0.17428 -0.18074 -0.18797 -0.13448 -0.03776 0.00843 -0.3545 0.48578 -0.16034 0.09714 -0.25832 -0.07085 -0.46903 0.17546 -0.27635 0.18298 0.83999 0.01 -0.43941 -0.25814 0.38461 -0.11638 0.3456 0.47705
btx 0.37541 0.08134 -0.15943 0.55581 -0.36 -0.19262 -0.18227 -0.339 0.47998 -0.10135 -0.09069 0.46412 0.32662 -0.23198 -0.18561 -0.57045 -0.47981 0.14715 0.3328 0.12286 0.47492 -0.4107 0.47894 0.11511 -0.56641 -0.10138 0.32328 -0.62952 0.49331 -0.00904 -0.40967 0.16888 -0.30498 -0.37898 0.26697 -0.5708 -0.02906 0.20136 0.36524 -0.02033 -0.2666 0.6839 -0.08798 -0.42173 0.01837 -0.34586 -0.19189 0.09558 -0.51283 0.05357 0.26418 -0.15806 -0.20238 0.27624 -0.06404 -0.03203 0.36198 -0.87575 0.015 0.1112 -0.08223 -0.21339 0.35772 -0.05463
bud -0.32339 0.75223 -0.53241 0.21226 0.38712 -0.06901 -0.24258 -0.12846 0.22925 -0.45883 -0.05418 0.35237 0.12183 0.66168 -0.24067 0.16112 -0.42783 -0.31696 0.55155 0.23826 0.11986 0.55476 -0.34375 -0.67477 -0.47417 0.56518 -0.38505 0.38987 0.03082 -0.21721 0.31852 -0.18064 0.39687 0.01875 0.25749 0.69651 0.38301 0.34086 -0.33842 -0.33702 0.49743 0.28621 -0.11906 -0.16068 -0.34643 0.01165 -0.61866 0.55558 -0.0316 0.55116 0.56377 0.12576 -1.05183 0.27988 -0.44494 0.01082 -0.30452 -1.2466 -0.43784 0.2469 -0.42802 0.41385 0.18761 1.00132
bug 0.33368 -0.24859 0.04134 0.01296 0.11423 -0.39075 -0.35107 0.45103 0.16697 0.31122 -0.151 0.46407 0.69281 0.11691 -0.2128 -0.36969 -0.95444 0.22244 0.1628 -0.28345 0.02681 -0.23283 0.3149 0.77074 0.34467 -0.45351 -0.19225 -0.06532 -0.65682 -0.07318 -0.19264 -0.36768 -0.77104 0.04113 -0.46472 -0.0242 0.07354 0.06017 0.02408 0.0034 0.05025 0.17998 -0.56376 -0.03263 0.50005 -0.2582 -0.427 0.25441 0.15086 0.24362 -0.1344 -0.44045 -0.2956 0.55138 0.22493 0.26787 -0.05142 0.2941 -0.54492 -0.53703 -0.69401 0.39127 -0.44271 0.35402
buk 0.37825 -0.4962 0.03879 0.13308 0.21622 0.15044 0.03686 0.3023 0.36861 0.32111 -0.1993 -0.16762 -0.17181 -0.39811 0.48417 -0.91874 1.04926 0.31772 -0.08958 -0.4396 -0.44657 0.07428 -0.31741 -0.07106 -0.21346 0.47143 0.24317 -0.0297 0.58907 -0.50923 -0.2742 0.48468 -0.06309 -0.21138 0.7518 -0.40389 -0.02983 0.76067 -0.14855 -0.13035 -0.25309 -0.01758 -0.20387 0.70778 -0.65105 0.47039 -0.56141 0.13768 -0.23261 -0.16384 0.55831 -0.25111 -0.25101 0.19536 0.25931 -0.1095 -0.14587 -0.22041 0.31753 -0.09878 0.56418 -0.2739 0.14674 -0.1445
bul 0.11313 -0.14344 0.02305 -0.06102 0.0727 0.15538 0.04308 -0.06239 -0.01495 -0.15694 0.05028 0.26651 -0.3414 -0.14917 0.06736 -0.03927 -0.09388 -0.14584 0.03281 -0.14914 0.09628 0.03743 -0.12564 0.23585 -0.14653 0.16754 -0.3806 -0.02593 -0.10265 -0.25911 0.24169 -0.10896 -0.08672 0.34852 0.16569 0.06863 -0.08466 -0.2621 0.11312 -0.37231 0.07669 -0.34326 0.02826 0.15492 0.2381 -0.00984 0.15281 0.03821 0.09682 -0.16669 -0.1413 0.26592 0.02633 -0.41632 -0.06172 -0.094 0.08152 0.02757 -0.08173 -0.20761 0.34521 0.23228 -0.12606 0.03833
bum -0.0291 0.18933 0.23499 0.32506 -0.58224 -0.21718 0.55845 -0.33125 -0.2661 -0.37176 0.02891 0.6624 0.3165 -0.15254 0.38821 -0.0093 0.78265 -0.16331 -0.42133 -0.30202 0.02557 0.38432 -0.24711 -0.07959 0.26426 -0.51079 0.21486 -0.49763 -0.13577 -0.49129 0.00189 -0.11225 0.49128 0.11853 -0.50784 0.41844 -0.22988 0.54245 -0.64239 -0.36138 0.06544 -0.23875 0.77111 -0.00804 -0.44231 0.11628 0.38301 -0.40401 -0.33187 0.97196 -0.32524 0.02526 0.48034 0.23062 -0.01925 -0.0957 -0.15939 -0.57091 -0.0651 -0.14915 0.16889 0.17394 -0.56714 0.10681
bus -0.28456 0.54759 -0.07316 -0.1035 -0.32535 0.36761 -0.2575 0.12264 -0.91824 -0.36054 0.05009 0.37083 -0.15032 0.07042 0.7683 0.23068 0.18801 0.02585 -0.17086 -0.37375 0.12172 0.81552 0.67338 0.009 -0.52509 -0.4614 -0.45704 0.07914 0.52798 -0.05824 0.48711 -0.0474 0.43933 0.18779 0.21065 -0.12124 0.1219 -0.11003 -0.20976 0.01491 0.33669 0.20916 -0.26967 0.1125 -0.51468 -0.25341 -0.00735 0.39919 0.09501 -0.47428 0.53331 0.39735 -0.28229 0.1633 0.17095 0.84771 0.30559 0.36443 -0.4382 -0.48552 0.46853 0.19452 0.00854 0.17552
bvr 0.07692 0.33674 -0.11445 -0.02245 -0.6438 -0.28305 -0.07593 -0.7339 -0.10866 0.33577 -0.46886 -0.33361 0.00044 -0.05597 0.20968 -1.40029 -0.08043 -0.01626 0.13884 -0.15694 0.21713 0.05123 -0.27555 0.30066 0.18687 -0.36525 -0.07052 0.34152 0.37749 0.39657 -0.91365 0.25195 -0.74196 -0.32637 0.18053 -0.05197 0.10347 0.13932 -0.22466 -0.48265 -0.65789 0.13096 -0.28147 0.28592 0.13512 -0.04906 -0.0694 0.02524 0.29243 -0.31549 -0.03957 0.54547 -0.35543 -0.6842 -0.24284 -0.55133 0.93333 0.50743 0.46327 -0.33289 0.47844 1.10069 0.7752 -0.40505
bvz 0.66584 0.16716 0.46386 0.41987 0.20938 0.41399 0.0449 -0.17026 -0.41275 0.84869 0.25917 0.2533 0.82592 0.51636 -0.26256 0.45423 0.50522 -0.53865 -0.61638 -0.36068 0.22619 0.75122 -0.54124 -0.45808 0.24064 0.84396 -0.40268 -1.07618 0.64969 0.06463 0.30574 -0.17 -0.1021 0.30816 -0.34225 -0.55721 0.06222 0.14937 0.00019 0.33541 -0.4319 -0.02557 0.0508 -0.17049 0.46749 0.13941 -0.31017 0.25281 -0.76134 -0.26885 -0.3288 0.59127 0.15681 0.05367 -0.49113 0.16027 0.08167 -0.3775 0.1166 0.23625 -0.14786 -0.73523 -0.27688 0.0507
bwq 0.01074 0.24102 -0.05868 0.31172 0.31943 0.20424 -0.05591 -0.41365 0.118 -0.82105 0.34051 0.12836 -0.35495 0.29569 -0.46378 -0.24887 0.02366 -0.01802 0.04195 -0.32693 -0.38784 0.03207 -0.00968 -1.31265 -0.2449 0.10743 0.85136 -0.12474 0.01304 -0.00608 -0.45203 -0.31484 -0.37107 -0.20814 -0.1253 0.37536 0.65574 -0.07719 -0.36849 -0.19884 0.24074 -0.38036 0.84801 -0.24318 -0.55404 -0.02367 0.96268 -0.96644 -0.38611 0.87981 0.86305 -0.06308 0.30416 -0.331 -0.06071 0.14812 0.10167 0.30246 -0.61065 0.30836 -0.42076 0.60234 -0.21612 0.24038
bwu -0.66145 -0.37315 0.13942 -0.13 0.27522 0.20951 0.30566 0.51994 0.13358 0.11424 1.26844 -0.18325 -0.7243 -0.67083 0.86094 0.41808 0.3193 -0.34665 -0.09367 -0.61537 -0.33348 -0.35665 0.55496 -0.94509 -0.43063 -0.21494 0.2092 0.29066 -0.19657 -0.51394 -0.03642 -0.11602 0.33052 0.09339 -0.08598 -0.53805 0.19389 -0.11763 -0.12133 0.97044 -0.44049 0.52846 0.52073 -0.72021 0.36377 0.13427 -0.00997 -0.13441 0.72466 -0.59941 -0.03854 0.22523 0.15901 -0.2119 0.25578 0.23337 0.45277 0.65372 -0.70571 0.6723 -0.11797 -0.59031 0.17331 -0.48755
byr 0.11378 0.79107 -0.10835 0.03378 0.77648 0.23987 0.89194 0.43539 0.40707 -0.01408 0.2981 0.3717 -0.84341 -0.23886 -0.61249 0.24658 -0.49743 -0.67458 0.37017 0.261 -0.52603 -0.29099 0.42726 -0.57202 -0.37536 -0.4536 -0.13666 0.34902 -0.28033 0.29899 0.51092 0.68516 -0.45664 -0.25057 -0.00401 -0.48948 -0.59039 0.3952 -0.11637 0.11301 0.49941 -0.15021 -0.31485 0.13583 0.27591 -0.70135 -0.9772 0.39693 -0.36496 -0.46395 0.64063 0.1964 -0.1415 0.37422 0.06805 -0.4259 -0.11656 0.27409 -0.69791 0.51209 -0.67522 0.14491 0.38986 0.39659
byx 0.06826 -0.28341 0.3085 0.13855 -0.06201 -0.13084 0.6162 0.29698 0.12904 -0.19548 -0.28941 1.01196 -0.03363 0.24158 -0.70285 0.76239 -0.19467 -0.25562 0.17251 -0.39735 -0.38493 -0.22611 -0.05187 0.98305 0.16481 0.2299 0.07067 -0.56664 -0.28629 0.72377 -0.07665 -0.10857 0.24668 0.18479 0.26281 -0.02824 0.0831 1.23052 0.72745 0.28235 -0.56269 0.6293 0.07306 -0.27551 -0.24735 -0.41816 0.11106 -0.18096 -0.23014 0.01311 -0.32372 -0.55068 -0.08896 1.26657 0.13416 -0.38197 0.04128 0.16514 -0.50864 -0.5501 0.19387 0.25607 0.30933 -0.04842
bzd -0.72888 -0.50109 0.1323 -0.30103 -0.55458 -0.3478 -0.0717 -0.19446 -0.38077 0.30799 0.54048 -0.64323 0.17917 -0.71618 0.25158 -0.2119 0.22141 0.03232 0.43603 -0.2029 -0.59395 0.67592 -0.43837 0.10838 -0.04089 -0.22413 0.3915 0.11714 -0.46968 0.76577 0.44047 -0.46799 0.42933 -0.73218 0.53548 -0.29511 0.65781 -0.26011 -0.29696 0.5511 0.11862 -0.43502 0.66637 -0.54372 -0.33442 0.38007 0.6701 -0.3884 0.10277 -0.23752 -0.38405 -0.1197 0.42961 0.00612 -0.28937 0.14359 -0.41451 0.15634 -0.10838 0.10203 -0.2477 0.08692 -0.40154 0.86959
bzj 0.44445 0.12755 -0.34333 -1.0086 -0.11187 -0.32351 -0.56205 0.18652 0.35721 -0.05915 -0.025 -0.74362 -0.20746 0.1572 0.0935 -0.39711 0.78124 -0.44414 0.43781 0.22337 -0.32752 -0.65454 0.40265 -0.6691 -0.17742 -0.0388 -0.33864 -0.06092 0.23823 0.99358 0.85273 -0.76433 0.42378 -0.03485 0.90481 0.32319 -0.12925 0.20113 -0.19762 -0.0747 0.3849 -0.18459 0.03506 0.07404 0.46731 -0.31991 -0.58182 0.28909 0.2737 0.01628 0.08695 -0.01446 -0.44275 0.27721 -0.86678 0.07989 0.29754 0.57769 -0.01561 0.00754 0.56094 0.29189 0.58497 0.42138
caa 0.16823 0.08881 0.52127 0.19426 -0.41007 0.46676 -0.07206 -0.0655 0.58948 1.13084 0.2451 -0.40111 0.25258 -0.56058 0.15169 0.28396 -0.68345 0.65307 0.64413 -0.40863 -0.42443 -0.45679 0.02963 0.39779 -0.03179 0.14117 0.12481 -0.61498 -0.24891 -0.59059 0.80162 -0.31226 0.14246 -0.92655 0.15325 -0.00153 0.15175 0.08281 -0.29001 -0.47852 -0.49335 -0.02729 0.48863 -0.01926 -0.0779 -0.52192 0.65761 0.37232 -0.07222 0.02867 0.13993 0.51805 0.312 0.51528 0.28991 0.4895 -0.24523 0.09884 -0.15077 -0.12599 -0.52761 -0.79868 0.31478 -0.08842
cac 0.12921 -0.1714 -0.4949 -0.2355 -0.36323 -0.07474 -0.12151 0.00707 -0.49967 0.35341 0.09559 -0.33274 0.47133 0.16486 -0.14789 -0.37122 -0.75725 -0.41377 0.34399 -0.74632 0.39545 -0.07978 -0.00043 0.19824 0.1563 0.26407 0.02153 0.34787 0.05555 0.07832 0.12991 -0.6246 0.86455 -0.02953 0.16615 0.42059 0.23498 0.48749 -0.46568 0.1813 -0.10077 0.3034 -0.36955 -0.17084 0.25034 0.10196 0.13401 -0.48921 -0.24638 0.58839 0.09632 0.39654 0.46185 0.21752 0.33257 -0.27696 -0.75857 -0.3716 0.10053 -0.36851 -0.14099 -0.40784 0.04586 -0.24448
caf 0.18563 0.95692 -0.48113 0.25584 -0.2292 -0.48325 0.61455 -0.08478 0.20388 -0.28277 0.42375 -0.3887 -0.30039 0.00123 -0.16708 0.80984 0.38039 0.39022 0.50688 0.69887 0.47134 -0.47373 0.81531 0.31307 0.2793 -0.28641 -0.23063 0.18625 0.29482 -0.21018 -0.38234 -0.50099 -0.12142 -0.73023 0.04948 0.1239 0.2085 -0.38898 0.37253 0.4432 -0.05161 -0.24543 -0.05112 -0.00558 -0.24386 0.47685 0.02988 -0.04762 -0.64083 -0.21198 0.22049 -0.19882 0.00723 -0.42046 -0.01042 0.29959 -0.65462 0.05251 -0.06856 0.17745 0.28145 -0.56433 0.43851 -0.57455
cak -0.41 -0.01877 0.23113 -0.57005 -0.06454 0.0671 -0.14721 0.11711 0.29876 0.05874 -0.3716 0.11723 -0.53695 -0.1945 0.02334 0.25478 -0.26838 -0.15915 0.7958 0.22133 -0.01156 -0.16672 -0.56143 0.02146 -0.13405 -0.35757 -0.45845 0.12716 0.40191 -0.12986 0.57842 -0.14378 0.0839 -0.255 -0.1418 -0.04105 -0.12849 -0.37594 0.6346 -0.1076 -0.27291 0.50792 0.22758 -0.36185 0.0644 -0.6531 0.34288 0.08764 0.11329 0.15997 0.09012 0.55923 0.37271 0.03401 0.44078 -0.39325 -0.08558 -0.26731 0.4557 0.38199 -0.12396 0.11877 0.14373 -0.37621
cap -0.41331 0.45863 -0.7309 -0.20384 0.02004 0.14298 0.34073 0.13971 0.14968 -0.03105 0.19889 -0.43429 0.01838 -0.29173 -0.36601 0.17357 -0.64393 0.5892 0.71978 -0.23723 0.59627 -0.26031 -0.26314 0.96351 -0.00432 0.41576 -0.22471 0.10328 0.2347 0.5816 0.1053 -0.33814 -0.42979 -0.86896 0.10745 -0.20277 0.87461 0.2795 0.49093 -0.51837 0.01842 -0.03716 -0.2693 0.42659 0.29395 0.72691 0.18623 0.13897 0.19974 0.12304 0.41825 -0.06695 0.28703 -0.37166 0.10719 0.36446 0.2237 -0.47355 0.46275 -0.54768 0.23491 0.31544 -0.22204 0.19991
car 0.42303 0.09153 0.04959 -0.1898 -0.45409 0.45558 -0.79719 0.33102 -0.67717 -0.10031 -0.09766 -0.8678 0.30801 0.02876 0.08204 0.4703 -0.30335 0.35092 -0.11815 0.21611 -0.40504 0.1253 0.05467 0.58377 0.35834 -0.00708 -0.26638 -0.35737 -0.37284 0.88058 0.49607 -0.05289 0.31986 -0.4179 -0.09855 0.01138 0.21331 0.3435 0.30663 -0.69871 0.0999 0.34555 -0.71599 -0.00472 -0.50289 -0.16936 0.24994 0.06557 0.10017 -0.79577 -0.47632 0.26923 0.00521 0.54784 0.28775 -0.50572 0.26653 0.50757 0.65502 0.64518 0.08276 0.47665 -0.24231 -0.19916
cat -0.05439 -0.27836 0.27006 -0.46937 0.05085 -0.06752 -0.60515 -0.53626 0.2118 0.03549 -0.07624 -0.01698 -0.65277 0.28165 0.27244 -0.19285 -0.16347 -0.54708 0.51958 0.4479 0.06091 0.14693 0.21875 0.2269 -0.02672 -0.6349 -0.39188 -0.20679 0.01744 0.15771 0.02214 0.21427 0.11316 -0.52618 0.5521 0.23392 -0.53949 0.21702 -0.20788 -0.0453 -0.32483 -0.14982 0.13874 0.01647 0.01849 0.53288 -0.36563 -0.36932 0.61791 0.26952 0.11616 -0.359 0.00658 0.15018 0.65047 -0.25676 0.05017 -0.34441 -0.03561 -0.13717 0.05146 -0.32742 0.5824 0.369
cav -0.13682 -0.17943 0.1594 0.14719 -0.07841 0.15778 0.13749 -0.78409 -0.09112 0.25642 -0.31883 0.37042 -0.26726 -0.06768 0.04065 0.50462 0.29013 0.42776 -0.05705 -0.11428 -0.18962 -0.25174 0.04967 0.05797 -0.40609 0.16832 0.5888 0.14138 -0.28295 -0.11581 0.3259 -0.57414 -0.05917 -0.2074 -0.93179 0.64112 0.69563 0.14172 0.40609 -0.10269 0.32108 -0.93041 0.0218 0.7861 -0.0407 0.23023 -0.10986 -0.57531 0.29777 -0.1744 -0.2207 -0.35002 -0.07273 0.40303 0.91483 0.4476 -0.21988 0.13526 0.18298 0.16246 -0.24689 -0.47767 0.32916 -1.21201
cax 0.05809 0.08828 -0.50721 -0.43566 0.02364 -0.24957 -0.80879 0.84802 -0.54081 0.24743 0.31042 0.73467 -0.00888 -0.21759 0.24309 -0.0243 0.72775 0.26683 0.3634 -0.15478 0.10296 0.63148 0.52279 0.52451 0.53223 0.35464 0.02969 0.2949 0.13337 0.0332 -0.17253 0.42077 -0.62963 0.22912 -0.50854 0.11428 0.08837 -0.05508 -0.27105 0.01583 0.00415 -0.03867 -0.00424 0.52125 0.07161 0.17144 0.72539 0.20469 0.489 -0.45006 0.1394 -0.47083 0.94201 -0.43979 -0.12351 0.04933 -0.63905 -0.08067 -0.25221 0.14037 -0.36679 0.08492 0.62899 0.52596
cbc -0.53455 -0.00665 -0.53736 0.22544 0.31824 0.37734 -0.07432 0.39031 0.91452 0.35075 0.04668 -0.28388 0.02995 0.176 0.31012 0.44515 0.13528 0.64492 -0.41018 -0.23793 -0.29875 0.48701 0.40225 0.24867 0.36262 0.18924 0.38358 -0.05381 -0.24882 -0.23315 0.07831 0.28015 -0.41702 0.17077 0.37894 -0.30246 0.13264 -0.57293 0.25434 -0.37218 0.04171 -0.40321 -0.41655 0.2996 -0.06365 -0.5396 0.4313 -0.27785 0.15334 0.37204 0.5815 0.2113 0.08032 0.26745 0.3646 0.17467 -0.45884 0.02513 -0.14101 -0.24643 0.18855 -0.39962 0.08911 -0.38535
cbi -0.17337 0.15659 0.19048 -0.33176 0.16627 0.39069 -0.25538 0.00896 0.69701 0.19023 0.02407 -0.11724 0.0989 -0.64804 -0.34294 0.69541 -0.15943 -0.49991 0.1348 0.48688 -0.43732 0.41763 0.22385 0.65674 0.00193 -0.47519 -0.1287 -0.07586 -0.46192 0.6659 0.4944 0.07841 0.14513 0.73493 0.14735 -0.4534 0.29862 0.18487 -0.54562 -0.2172 -1.58534 -0.28973 -0.73952 -0.02155 -0.4595 -0.48345 0.60005 0.02694 0.36769 -0.44384 0.46597 -0.7437 0.55552 0.31801 0.28669 -0.34994 -0.73317 0.33067 0.21421 0.37021 -0.41325 0.45671 -0.46794 0.07556
cbk -0.26861 -0.04428 0.38172 0.21995 -0.0506 0.04544 -0.34546 -0.64359 -0.06832 0.35624 -0.21199 -0.24592 -0.26379 -0.06859 -0.15311 0.27327 0.33434 0.25881 -0.06347 0.39809 0.29831 -0.03414 -0.2101 0.08945 -0.28531 -0.49802 -0.05341 0.30531 0.36168 -0.36403 -0.19024 -0.00021 0.00576 0.15896 0.55702 -0.02645 -0.27557 -0.10343 -0.11913 -0.0139 -0.68046 -0.14136 0.22946 -0.24658 -0.02197 0.05331 0.15675 0.052 -0.13173 0.30674 -0.07683 -0.02263 0.3058 -0.26339 0.61901 0.25971 0.29137 -0.65306 -0.06047 -0.28889 -0.07266 0.02532 0.41651 0.38723
cbr -0.26873 0.36379 -0.36221 0.26876 0.37522 -0.18179 -0.28544 0.26599 0.18537 0.40233 0.62591 0.24995 0.4947 0.46367 0.04472 0.13647 0.44177 -0.07689 -0.88 -0.01045 0.38252 -0.50143 -0.14408 0.24399 -0.34226 -0.2954 0.70217 -0.2821 0.16026 -0.49066 0.44622 -0.2614 0.10338 0.99123 -0.24417 -0.24789 -0.40982 0.43545 -0.44037 -0.7536 0.14683 -0.19908 -0.47239 -0.39294 -0.49771 0.31199 0.60055 0.43515 0.09527 0.11232 -0.36456 -0.33472 -0.07332 -0.63165 0.70873 -0.09154 -0.27255 0.19106 0.32438 -0.55936 0.34107 -0.60921 0.36628 -0.67536
cbs -0.61711 0.30749 0.25031 -0.42425 0.01044 0.54496 0.26144 -0.02867 -0.7486 0.41586 -0.09664 -0.10767 0.13647 -0.6571 -0.0089 0.64013 0.0574 0.06345 0.28779 0.18901 -0.74139 0.05064 -0.31587 0.06959 -0.04215 0.10838 0.6836 0.6193 0.01526 0.57534 0.31566 0.1721 -0.66256 -0.19653 0.01963 -0.30434 0.41884 -0.36602 -1.10946 -0.06627 -0.6667 0.65727 -0.55448 0.23875 0.37489 0.10834 0.73196 -0.09416 -0.42967 -0.47101 -0.5015 -0.75914 -0.07533 0.1612 -0.57931 0.03169 -0.21903 0.09301 -0.72107 -0.22733 0.45358 -0.43692 0.06429 0.27307
cbt -0.37435 -0.16201 0.09498 0.33681 0.21046 0.24192 -0.13034 -0.12405 -0.13128 0.49167 0.29642 -0.10218 0.24776 -0.49585 0.39182 1.09942 -0.03465 -0.14706 0.57833 -0.0491 -0.15887 -0.02843 0.29698 0.25522 -0.44322 0.20077 -0.04921 -0.16124 -0.18417 -0.00997 0.13826 0.56817 -0.11341 0.24976 0.41428 1.04963 0.68204 0.38113 -0.11428 0.181 0.60602 -0.66986 0.09707 0.18634 -0.28906 -0.25949 -0.17206 0.94418 -0.03019 -0.17198 0.78034 0.54144 0.0799 0.33516 -0.39077 0.05994 -0.11847 -0.10239 0.7018 0.90084 -0.268 -0.73242 -0.38256 0.61558
cbu -0.21662 -0.5136 0.54861 -0.07164 0.01221 -0.31914 0.28564 0.20997 -0.27533 0.34155 -0.86053 0.24605 0.20173 0.48064 -0.2329 -0.34466 -0.73442 -0.20751 0.27786 -0.85541 0.67385 0.40044 -0.54701 -0.50676 -0.96054 0.26289 0.68541 0.16217 0.83425 0.22228 0.44327 0.62688 0.31189 0.12243 0.10549 0.09022 0.41044 0.64312 0.35695 0.24738 0.15123 -0.16784 0.25481 0.26408 0.17557 -0.59236 -0.69094 0.13834 -0.74268 0.3671 -0.11134 -0.24929 0.18416 0.27706 -0.4232 0.08088 0.17951 1.05659 -0.09585 0.32795 0.08694 0.34709 0.04912 -0.22588
cbv -0.32731 0.43667 -0.66114 -0.71249 -0.44281 0.20325 0.25724 -1.24256 0.12295 -0.41082 -0.60431 0.26307 -0.20214 0.32072 0.3951 -0.25151 -0.49617 0.26319 -0.07107 -0.3261 0.03321 -0.11828 0.21855 -0.17136 0.50287 0.16667 -0.26168 0.03222 -0.44974 -0.38261 0.74581 -0.1052 0.06338 0.24106 -0.14382 0.65093 -0.9301 -0.31048 0.4208 -0.79982 -0.33413 -0.96521 -0.40408 -0.20263 0.13767 0.41855 0.04299 0.20004 -0.1964 -0.35442 -0.29518 -0.25612 -0.5388 -0.37314 0.0659 0.50769 -0.91595 -0.40655 -0.37101 -0.14451 -0.11699 0.25648 -0.49565 -0.0869
cce -0.25119 -0.05451 -0.06019 -0.33933 0.26591 0.13004 0.98162 -0.03831 -0.66625 -0.53561 0.14826 -0.10011 -0.31547 0.58149 0.2089 -0.65332 -0.11628 0.35844 0.43622 0.19998 -0.53164 -0.41125 -0.18307 0.33223 -0.12861 -0.07313 0.149 -0.04159 -0.1988 -0.9083 -0.18479 0.48121 0.33006 0.00909 0.15046 0.53611 0.76336 -0.62436 0.17943 -0.21782 -0.33885 -0.26027 -0.1583 0.56722 0.33048 0.04888 -0.06235 0.26795 0.48064 0.44208 0.01434 0.15536 0.05373 0.25836 0.02738 -0.47759 0.44128 0.00596 0.84737 -0.26437 -0.07582 -0.20587 -0.26026 0.08525
ceb 0.0059 -0.267 0.42786 -0.08035 -0.15958 -0.02653 0.1857 0.25429 0.11844 0.02904 0.00319 0.08053 0.01248 0.1202 0.10356 -0.15966 -0.10201 -0.0208 -0.04851 -0.27027 0.5308 0.293 -0.11454 0.08705 -0.34696 -0.2223 -0.14323 -0.04262 -0.47978 -0.73964 0.1461 -0.43067 -0.11939 0.16958 0.07722 -0.47002 -0.06968 -0.31868 0.18633 0.56693 -0.17734 0.16784 -0.11814 -0.11379 -0.2802 -0.18099 -0.03758 -0.18015 0.09763 -0.03715 -0.19217 0.32904 0.40522 0.314 -0.19983 -0.27968 0.15405 -0.6779 -0.04732 -0.28806 -0.29173 0.47083 0.32913 0.0946
ceg 0.73048 -0.28298 0.64829 -0.37747 -0.10398 -0.10333 0.36134 -0.71401 0.39529 0.07665 0.75907 0.47169 0.19166 0.08448 -0.27792 0.13883 -0.71508 0.14459 -0.10232 0.39591 0.03671 0.42476 0.81741 -0.71344 -0.03834 0.04756 0.52194 -0.22722 -0.2732 -0.593 0.22648 0.49624 -0.12689 -0.87174 -0.35103 0.54054 -0.48271 0.40638 -0.08226 0.29041 -0.92345 -0.22933 0.07696 0.23498 0.27392 0.2474 -0.00027 0.13649 -0.10658 0.29756 -0.28377 0.40804 0.82611 0.42497 0.38012 -0.03773 0.05079 0.77671 0.56623 0.22957 -0.06381 0.72953 0.16134 -0.1778
ces -0.20046 0.28539 -0.01411 0.24457 -0.10334 -0.05345 -0.77486 -0.61934 -0.23367 0.32137 -0.11228 0.37033 0.13172 -0.20456 0.40084 0.28624 -0.35723 -0.31362 0.53723 -0.61612 0.05636 -0.07374 -0.23493 -0.12934 0.20183 0.5803 0.26915 0.10082 0.48445 0.44922 0.42913 -0.00517 -0.14017 -0.27919 -0.20232 -0.06037 -0.3092 -0.07037 -0.06903 0.01159 -0.13234 0.18704 -0.04163 0.0065 -0.13115 0.62771 0.16382 0.3388 0.54609 -0.09195 0.24905 0.08107 0.69671 0.28256 -0.21393 0.02163 0.42546 0.24948 0.20187 -0.61194 -0.21008 0.26611 -0.01786 -0.42267
cfm 0.24054 -0.31177 0.09683 0.50686 -0.31667 -0.17894 -0.20817 -0.6048 -0.21977 -0.74374 0.0359 -0.32101 -0.52065 -0.35817 0.47947 -0.36973 -0.1743 0.16752 -0.03355 -0.29912 -0.37086 -0.37354 -0.01901 -0.24477 0.4091 -0.22807 -0.80271 -0.0988 0.04933 0.3984 0.17457 -0.39276 0.16967 -0.5136 0.25051 0.07793 0.01614 -0.07756 -0.04761 0.08494 0.33314 -0.71971 -0.12758 -0.79467 0.30474 -0.02888 -0.42337 -0.13707 -0.4733 0.18248 0.2391 -0.05349 0.18781 -0.24809 0.36038 -0.16074 0.20921 -0.05121 0.36076 -0.22808 0.02181 -0.23171 0.34012 -0.09132
cha 0.41032 -0.01547 0.07454 0.09897 0.05751 0.49392 0.0572 0.88252 0.11135 -0.24155 -0.47802 -0.5113 -0.08417 0.02503 0.32668 -0.17178 -0.0018 0.27215 0.11636 1.01698 0.22558 0.25922 -0.16092 -0.05093 0.56553 -0.11598 -0.17156 -0.41565 -0.07942 -0.60647 -0.25557 0.15714 -0.06139 -0.09327 0.57732 -0.01379 0.2339 -0.18117 -0.32107 -0.52593 -0.08675 0.56466 -0.16249 -0.0156 -0.26562 -0.59394 0.28182 -0.636 0.50337 -0.18296 -0.11389 0.14107 -0.29318 -0.16821 0.60456 0.18687 -0.25243 -0.44153 0.01683 -0.47785 -0.07072 -0.01826 0.94626 0.13195
chd 0.16055 0.00322 -0.44826 0.22758 0.45764 -0.15368 0.01642 -0.14993 -0.56108 0.61555 0.22812 0.73276 0.63415 -0.09436 -0.65153 0.51738 0.59406 -0.29584 0.45132 -0.03588 0.04791 0.02019 -0.80048 -0.5857 0.17689 0.13809 -0.16335 0.35156 -0.39433 -0.30465 -0.59721 -0.18907 0.59035 -0.85968 -0.56451 0.18906 0.03552 -0.61432 0.36639 0.12423 0.30302 0.17983 0.11222 0.01403 0.23263 -0.29986 -0.0971 0.48497 0.73051 0.54688 -0.38849 -0.02412 -0.10573 -0.8332 -0.11998 0.39406 -0.26808 -0.24996 0.75622 -0.00811 0.40611 -0.56505 0.28151 -0.46061
che 0.23941 -0.28583 0.29895 -0.51521 -0.01552 -0.01732 -0.75651 -0.05886 0.04963 0.01635 -0.19177 -0.1782 0.46077 -0.22282 0.52339 0.04318 -0.2981 0.70934 0.25973 -0.13855 0.09587 0.21255 0.11248 0.09239 -0.22801 -0.02939 0.08692 0.10612 -0.11284 0.08641 0.30849 0.16477 -0.24581 0.0314 -0.04476 0.15384 -0.13323 0.26694 -0.13216 0.2722 -0.10638 0.49863 -0.00885 0.26655 -0.13461 -0.46074 0.22193 0.31612 0.373 0.11587 -0.01681 -0.39314 0.27732 -0.83065 0.33119 0.58493 -0.09027 0.00487 -0.14921 -0.67882 0.35154 -0.33541 -0.4179 -0.29321
chf -0.79998 -0.41613 0.14851 -0.15622 0.03062 -0.11701 -0.16671 0.61397 0.08146 0.70473 -0.43199 0.78943 -0.0502 0.12905 0.40644 0.19334 -0.33569 0.27699 -0.13295 -0.50507 0.36257 -0.38327 -0.58649 -0.80287 -0.16884 0.7319 -0.20021 0.24872 0.03001 0.31657 0.88145 -0.48097 0.10972 0.09292 -0.20667 0.07832 0.90943 -0.25874 -0.60773 -0.33063 0.17971 -0.18229 -0.09789 -0.16842 0.15045 -0.52547 0.15902 -0.34948 0.48818 -0.70469 -0.2784 0.18224 0.31709 -0.70246 0.33638 -0.34136 -0.29437 -0.45725 -0.12523 0.19099 0.02067 -0.02561 0.63767 0.45963
chk -0.17412 -0.14466 0.3839 -0.58931 -0.11264 0.42144 -0.14752 -0.57672 -0.38641 -0.01501 0.88457 0.32529 -0.22995 0.59847 0.21232 -0.49923 -0.54746 -0.02274 -0.20372 0.33223 -0.41099 0.83861 -0.76619 0.05216 -0.00791 0.20765 -0.43707 -0.23646 -0.66115 0.06285 -0.02672 0.65492 -0.53102 -0.41097 0.47055 0.07635 -0.01904 -0.64745 -0.26091 -0.04214 -0.07874 -0.1775 -0.40212 -0.18293 -0.26985 0.58784 0.80633 0.42109 -0.2294 0.04145 0.3047 -0.41844 0.00567 -0.30184 -0.50743 -0.24671 -0.24287 0.2209 0.37805 -0.00431 0.23168 0.32753 0.65866 -0.00716
chq -0.91095 -0.14477 -0.1594 0.06987 0.0642 -0.07212 0.28192 -0.37727 0.23978 0.18036 -0.60192 0.19582 0.37708 -0.36463 0.31598 0.8291 0.55953 0.37144 0.02546 -0.10937 0.08001 -0.5524 -0.40732 0.25809 0.75789 0.23309 -0.30194 -0.54989 -0.53933 -0.10624 -0.0034 -0.33036 0.2208 0.34324 0.42396 -0.02383 0.01534 0.69786 0.1527 0.64592 0.41045 0.67671 0.03839 1.05011 0.01614 -0.35654 0.48695 -0.35914 0.49632 -0.83285 0.61649 0.31009 0.32181 -0.16284 0.5574 0.07259 -0.02006 0.35474 0.17355 -0.46058 -0.38506 0.83637 -0.46892 0.14435
chr -0.03536 -0.57769 -0.5865 0.55393 0.89446 0.48256 -0.28292 0.02497 0.01913 0.40477 -0.65412 -0.41355 -0.14341 0.49278 -0.8295 0.28427 -0.2684 0.66492 -0.08449 -0.23048 -0.03902 0.17793 -0.37901 0.47199 0.22096 -0.18501 -0.05791 0.32746 1.08683 0.77575 0.20632 -0.24818 0.29174 -0.43224 -0.78341 -0.13843 0.66282 0.67178 0.66431 0.7164 -0.49967 -0.82853 -0.10463 -0.03306 -0.07662 -1.09763 -0.9823 -0.4294 -0.01521 0.6138 0.21867 0.22523 0.07048 -0.04453 -0.85879 0.1654 0.09232 0.19377 -1.00068 0.35737 -0.09608 0.53813 -0.08441 -0.29072
chu -0.20816 0.08173 0.07694 0.12212 0.03856 0.01326 -0.02307 -0.10711 -0.08772 -0.05829 0.28881 0.21072 -0.03306 -0.09581 0.08615 -0.13188 0.06211 -0.08996 0.00056 0.00796 0.15394 0.08004 -0.13541 0.00794 0.0854 -0.2216 -0.18388 -0.18879 -0.14678 0.04673 0.21174 -0.28334 -0.18512 0.24611 0.19237 0.09938 -0.04332 0.1532 0.14961 -0.11871 -0.20882 -0.01407 -0.04074 -0.15304 0.22475 -0.01437 0.1707 -0.30794 -0.05387 -0.15778 -0.07556 0.26248 -0.04956 -0.46354 -0.45796 -0.28442 -0.06603 -0.13482 -0.03642 -0.2101 -0.00642 0.15148 -0.15802 0.10036
cjo 0.25254 0.02338 0.02636 0.36222 0.18325 0.30751 0.11236 0.26096 -0.08808 0.36896 -0.27046 -0.10476 0.39718 -0.13673 0.30249 0.28893 -1.00857 -0.0711 -0.21687 0.01189 0.09534 -0.37612 0.09223 0.12095 0.11805 -0.16476 0.18305 -0.51535 -0.37293 0.00245 -0.21256 0.51422 0.3832 -0.207 -0.63024 -0.01173 -0.18663 0.64668 -0.17587 -0.23989 -0.09417 -0.55365 0.28459 -0.19748 0.00918 -0.66738 -0.20525 -0.3606 -0.11886 -0.31863 -0.10605 -0.26533 0.02557 -0.11775 -0.56845 -0.43567 0.01424 0.55436 -0.16754 0.56612 0.04408 -0.1679 0.13811 -0.11103
cjp -0.17375 0.16988 0.69509 -0.29408 -0.14149 0.08682 -0.15975 -0.49716 0.32844 0.2458 -0.125 -0.46796 -0.04463 0.05353 0.22213 0.63971 0.47115 0.10689 0.63958 -0.06201 -0.38766 0.4844 -0.45554 -0.0521 0.55303 0.2367 -0.10031 -0.76368 -0.48346 0.27876 0.13099 -0.45213 0.80821 -0.18245 -0.01028 -0.18871 -0.06824 -0.0582 0.00098 0.29986 -0.33309 -0.14014 -0.3614 -0.66543 -0.81102 -0.77257 -0.10008 -0.52645 -0.1361 -0.58926 -0.62302 -0.09777 0.3472 -0.04128 -0.54772 0.91389 -0.28572 0.54065 0.10426 0.34763 -0.27379 0.21647 -0.36388 -0.46258
cjv -0.04133 0.40824 -0.45052 -0.47673 0.7015 -0.3908 0.08711 0.30849 0.12679 -0.15287 -0.05056 0.85803 -0.16157 -0.12678 -0.07045 0.34486 0.39149 0.47405 -0.11283 -0.65072 -1.00836 0.25081 0.12996 0.05518 -0.03166 0.22183 -0.0747 -0.12045 0.06478 -0.39452 0.19225 0.32875 0.29779 -0.06724 -0.1028 -0.74464 0.31267 0.58217 0.23496 -0.31135 0.52417 0.03146 -0.06888 -0.38513 0.08162 -0.41036 -0.45218 -0.25106 -0.9383 0.00188 -0.24431 0.10397 -0.43489 -0.58156 -0.3242 0.34592 0.71783 0.25977 0.09244 -0.63126 -0.24347 -0.69365 -0.43762 -0.22831
cko -0.24805 0.56023 -0.3711 0.51028 -0.18794 0.12034 -0.16801 0.03889 -0.0576 -0.59201 -0.58975 0.42098 -0.13518 -0.21127 -0.49349 -0.4221 -0.29563 -0.64161 -0.33373 -0.2251 -0.04977 -0.33281 0.78496 0.48068 0.16674 0.25661 -0.8501 -0.26581 -0.73547 -0.56017 -0.10307 -0.36282 -0.08048 0.16413 -0.77199 -0.21699 0.25244 0.04427 -0.3388 -0.34535 0.46348 -0.33203 0.64678 0.3809 -0.23306 0.27245 -0.7112 0.0319 0.1674 0.04442 0.17195 0.70211 -0.60545 0.14278 0.38479 -0.53062 0.37873 0.15136 -0.76163 0.1769 0.25712 0.2415 0.08726 -0.12698
cle -0.49954 0.54901 -0.13778 -0.257 -0.09805 0.62659 -0.41077 0.23744 0.14828 0.54227 -0.38373 0.43202 0.61286 0.37216 0.40243 -0.57535 0.07273 -0.27243 -0.28694 -0.1957 0.4535 0.065 -0.05947 -0.66892 0.53315 0.59197 0.09705 -0.18991 0.64374 -0.13013 0.79644 -0.06963 -0.13578 -0.04104 0.08866 0.19441 0.25588 0.6468 0.11365 0.07143 0.52337 -0.44467 0.16101 -0.26697 -0.40748 -0.61915 -0.02831 0.31714 0.29009 0.14534 0.05075 0.17443 -0.31697 -0.03784 1.19575 -0.58113 0.05016 -0.34471 0.20769 -0.13263 -0.52241 -0.30273 0.24116 -0.46914
clu -0.07801 -0.27683 0.23675 -0.05891 -0.19256 -0.15882 0.17027 0.04895 0.03486 -0.01795 0.2435 -0.04846 0.48063 -0.06366 -0.13477 -0.51689 -0.00679 0.02952 -0.14223 0.06119 0.50299 0.3586 -0.63367 -0.09467 -0.21837 -0.34318 -0.03641 -0.22935 -0.37258 -0.45464 -0.09324 -0.47202 -0.25904 0.50298 0.18126 -0.14391 0.30926 0.1935 0.44161 0.47273 -0.19922 0.2371 0.16822 0.16224 -0.11859 -0.28344 0.17743 -0.04939 -0.16862 0.10215 -0.26806 0.2603 0.52232 0.28274 -0.05617 0.02012 0.38683 -0.40519 -0.03557 0.18385 -0.15931 0.40869 0.01548 0.28333
cly -0.03413 0.17616 -0.19983 -0.01952 -0.27164 -0.09653 0.46084 -0.32665 -0.27625 0.24636 0.18237 0.53441 -0.13952 -0.70017 -0.45726 -0.06246 0.2535 -0.28609 0.18861 0.22817 -0.30908 -0.34141 -0.5637 -0.24723 0.25576 -0.39255 0.19589 0.14981 -0.00848 0.31238 -0.17618 -0.16661 -0.25041 -0.18466 -0.07757 0.11552 0.4335 0.2676 -0.069 -0.65506 0.58968 -0.61903 0.08934 0.14233 0.05404 -0.05381 0.18597 -0.14252 0.40167 -0.02051 0.77624 0.1891 0.2914 0.02533 0.05072 -0.08747 0.33579 -0.34618 0.27576 -0.09428 -0.18391 0.12287 -0.0331 0.42476
cme -0.14322 0.41667 -1.19866 -0.43561 0.81508 -0.38439 -0.3016 -0.59802 0.48383 0.23337 0.24962 -0.2741 -0.04627 0.30028 0.41981 0.14242 0.24654 0.2157 0.85348 -0.28035 -0.62356 0.88468 0.24171 -0.17576 -0.65507 0.15745 -0.27735 0.57153 -0.11367 -1.04434 -0.2902 0.56255 0.27421 -0.49872 0.1413 0.33764 0.19705 -0.17483 0.18544 0.09353 0.16321 0.17007 0.20924 -0.23016 0.12747 -0.19401 0.16391 -0.14736 -0.07622 0.23891 0.38874 0.50834 -0.16908 1.08359 0.27028 0.18281 -0.10365 -0.0744 -0.37487 0.62509 0.27024 0.37534 0.60491 0.51555
cnh 0.06191 -0.27775 0.13863 0.69327 -0.31651 -0.16511 0.07621 -0.42007 -0.23696 -0.84513 -0.13643 -0.24166 -0.27158 -0.32367 0.41068 -0.19055 -0.04001 0.25377 0.24943 -0.12052 -0.25647 -0.62938 -0.29857 0.08543 0.39366 -0.32766 -0.99363 -0.05782 0.21163 0.61443 0.41873 -0.47611 -0.03935 -0.4321 0.39793 0.19439 0.05942 -0.16469 -0.12695 0.31305 0.38387 -0.44991 -0.05855 -0.36724 0.59574 0.05716 -0.18148 -0.23376 -0.27376 0.16211 0.04568 -0.07872 0.10189 -0.52028 0.16687 0.1714 0.36195 0.14428 0.15718 -0.16671 -0.23013 -0.16187 0.25943 -0.10127
cni -0.17468 -0.02275 0.14455 -0.00954 0.72735 -0.49773 -0.01385 -0.17608 0.15581 -0.04591 -0.51174 0.4833 0.3717 -0.31175 -0.03184 0.36754 -0.0309 -0.06027 -0.0933 -0.10705 -0.4331 -0.45548 -0.01074 0.05968 0.68228 0.20948 -0.40982 -0.17593 -0.63509 0.32372 -0.47379 0.8303 0.6074 -0.05002 -0.8682 0.70957 -0.24011 0.45454 0.33188 -0.01374 -0.1468 -0.36141 0.41296 -0.41825 0.60064 -0.20837 0.3773 -0.38399 -0.09535 -0.15702 -0.34547 0.16424 0.41378 -0.20744 -0.87743 0.30073 0.04947 0.12688 -0.02357 -0.05317 -0.23091 -0.69801 0.0804 -0.14352
cnw 0.05011 0.2659 0.04648 0.51006 0.0474 -0.31937 0.02866 -0.36691 -0.70258 -0.44221 0.30333 -0.53951 -0.45973 0.00246 0.52991 -0.3719 -0.0326 0.39522 0.14877 0.39494 -0.42653 0.10215 0.00224 -0.39688 0.27077 -0.40901 -0.58477 0.12425 0.08104 0.01551 0.05324 -0.19209 -0.38486 -0.96996 0.28661 0.20923 -0.0237 0.37864 -0.02286 0.16072 0.13676 -0.28185 -0.00304 -0.74653 -0.20501 0.27584 -0.13129 0.13696 0.02964 -0.07379 -0.3227 -0.16704 -0.41328 -0.23487 0.27481 0.0537 0.31212 0.11866 0.13366 -0.09769 0.28881 -0.45098 0.10718 0.23472
