1664 100
aai-x-bible 0.0095852 -0.02840677 0.01700399 -0.01302642 0.02907209 -0.02372165 0.08914088 0.05762433 0.05723409 -0.06611621 -0.04561998 0.08087298 -0.10809325 -0.11338197 -0.10303575 0.11233497 -0.03741881 -0.02893319 -0.18269028 -0.00493334 0.04407779 -0.03936321 -0.09863315 0.15822415 0.01279766 0.01341859 -0.05268425 -0.00290701 -0.04736729 -0.0436644 0.01923037 -0.0343883 -0.0103268 0.05738392 -0.0934478 -0.00749088 0.05448486 0.08010413 -0.02662074 0.06209 -0.05475167 0.07176852 -0.00076156 0.07406349 0.06032834 0.08105399 -0.05458952 0.01580905 0.07705148 0.05255201 -0.07622431 -0.06222093 -0.08364715 0.03369977 -0.04778067 0.06538454 -0.03936885 0.06348447 0.08195613 -0.04967459 -0.11736403 -0.01678922 -0.02243528 -0.0007979 -0.08431631 0.04267856 0.05694353 -0.00150311 -0.01532987 0.1495087 -0.10944939 -0.05579535 0.03302512 -0.06506199 0.10476968 0.05439582 0.05621757 0.01515056 -0.11007229 -0.04724205 -0.02991843 -0.00635516 -0.08592357 -0.03482497 -0.12748183 0.10922683 0.04565882 0.01532427 0.05260513 0.12954564 -0.02112805 0.04376443 -0.02670021 0.06591464 -0.01472078 -0.12189262 -0.08745331 -0.0537913 -0.10387316 0.03218332
aak-x-bible 0.12851682 0.09034661 0.2521685 0.02777619 0.16653757 -0.04494205 0.05788459 0.1016596 0.02415577 0.16333745 0.05741761 -0.15758215 0.05557218 -0.02438914 0.00933022 0.02336968 0.04206334 0.17847314 0.23538034 0.16113514 0.0951609 0.08987512 -0.06513914 -0.06022698 -0.15739676 -0.11321119 0.03619877 0.20329502 -0.03159948 0.01077909 0.1720449 -0.0110944 -0.07508808 -0.03506546 0.1283382 -0.15407881 0.05223464 -0.11138237 0.12263764 0.02010597 0.10882852 0.05154597 0.03667941 0.19276801 -0.06716416 -0.04686292 -0.00062569 0.0096668 -0.02988962 -0.09350579 -0.02720427 0.1665639 -0.03051297 0.08632238 -0.00401935 -0.04713678 0.21756111 0.02567543 -0.11883243 0.11870148 -0.07346527 0.1303388 -0.18422891 0.05605394 0.17585246 -0.09334942 -0.04052556 0.00259312 0.06787483 -0.07345596 -0.13068229 0.19757849 -0.07349593 -0.16924798 -0.1256304 0.06091101 -0.01936826 0.01515366 -0.18480721 -0.12637249 0.07722876 -0.08403084 -0.07741502 0.07291304 -0.08047233 -0.03228718 -0.10313208 -0.01599217 -0.06736715 -0.07288583 0.12854412 0.00309745 0.12415265 -0.11975398 0.04846307 -0.1489065 0.12197931 0.04517368 0.24507312 0.21444398
aau-x-bible 0.02543955 -0.0464128 -0.04879359 0.04011071 0.16759364 0.06372912 0.17176016 0.0992963 0.043846 -0.10677724 -0.10647444 0.18649511 -0.14507455 -0.20336545 -0.06109294 -0.12649632 -0.0295987 -0.10169071 -0.18824625 0.10220982 -0.19996358 -0.03525202 -0.07556286 -0.04156866 0.05235333 0.04850139 -0.08463394 -0.0697673 -0.18338111 0.05654028 -0.01613515 0.05074936 -0.0576606 -0.03081318 -0.12750787 0.06551399 -0.08537415 0.03158802 0.06988578 -0.04683226 -0.01291074 0.03517332 -0.04366852 -0.13124882 0.099985 0.00649705 -0.06797659 -0.06712464 0.0522149 0.01238326 -0.11755045 -0.06281003 0.11545105 -0.05760305 0.03497808 -0.00110569 -0.1904309 0.04676181 0.18227498 -0.02198681 -0.05548457 -0.05510456 0.05817981 0.0050073 0.06521908 -0.038682 0.028359 0.13493486 -0.04756942 -0.00445238 -0.11006577 0.07570227 -0.10175592 0.03890483 -0.07488729 0.03379206 0.12465524 -0.00419137 -0.04535878 0.06201883 -0.05427566 -0.05545986 0.12545013 -0.0128615 -0.08310611 0.16885465 -0.01304854 0.08842047 -0.00115477 0.09830621 -0.10601507 -0.06654196 -0.02786623 -0.06910521 0.11848112 -0.00794958 -0.17030002 -0.07056109 0.02011873 -0.05046625
aaz-x-bible 0.00456734 0.02164149 -0.11398987 0.03739759 -0.10547919 0.02514462 -0.06268055 0.01819354 -0.06980049 -0.02274737 -0.06906595 0.19855194 -0.14919412 0.00593874 0.00329231 -0.18994218 -0.04572648 -0.12302204 -0.07978882 -0.07715079 0.03269872 -0.07331395 -0.06394473 0.10035753 -0.05203632 0.03297217 -0.00860614 -0.06059152 -0.0330058 0.08624815 -0.16003385 -0.11133049 -0.09255578 0.00132382 -0.06132386 -0.07649089 -0.12317264 -0.03847915 0.00225638 0.06025399 -0.06553164 0.07461592 -0.07432806 -0.15362963 0.00931607 -0.01777575 0.06858649 0.10725228 0.03244194 0.15076077 0.0410066 -0.05060318 -0.02337727 0.01906264 -0.06991181 -0.03200737 0.00592979 -0.01805538 0.02586845 0.10997099 -0.02223672 -0.05921814 0.11005238 -0.10830497 0.14199606 0.07693994 0.09741709 0.05078024 -0.00919475 0.08307717 -0.00344711 0.0028964 0.01393343 0.02614645 0.01343828 0.06982645 -0.05166242 0.06337696 -0.0748573 -0.09921206 -0.06785569 0.04753875 -0.02867918 -0.12233111 0.11064919 0.1626582 0.02334166 0.09230363 0.04843895 0.1394939 -0.03217722 0.0038236 0.01077573 0.0882864 -0.01589493 -0.06114537 -0.09531549 -0.02523306 -0.18866271 -0.13380267
abt-x-bible-maprik 0.12931314 -0.02088991 0.12406164 -0.11662127 0.07905259 -0.03516127 0.12730657 -0.11837525 0.08560453 0.05481395 -0.04920874 -0.11866978 0.0348036 0.12499721 0.15512784 0.05902036 -0.01532686 0.00760292 0.0800976 -0.16394804 -0.09060528 -0.03808645 -0.10447419 -0.03463778 -0.08050737 -0.12082532 -0.03293532 -0.05248193 -0.08859166 0.03134311 0.08030149 -0.02467627 -0.13060889 -0.03692822 -0.03609661 0.0905145 0.01718759 0.15921456 -0.05160503 0.05937443 -0.03725877 -0.08680623 0.03110362 0.05080459 0.03626185 -0.08307374 -0.08304203 0.01948447 -0.18709989 0.05217179 -0.00103631 -0.06282165 0.02036844 0.0140896 0.0678367 0.03662775 -0.11509854 0.07805057 0.04057791 -0.10924518 0.02944146 0.09685487 0.15532847 -0.04135477 -0.10820576 0.01691646 0.07319976 -0.00249387 -0.04494052 0.03679842 -0.11606037 -0.11061465 -0.06375172 -0.00721592 -0.03388604 -0.10241675 0.02972253 -0.11181331 -0.07855915 -0.07589653 0.09989516 -0.05698567 0.16380751 0.02079335 -0.14029488 0.03172733 -0.05098459 -0.07013967 0.09128682 0.01339037 0.04031074 0.00989047 -0.10813878 -0.11940047 -0.05065502 -0.01581436 0.05952541 0.07160378 -0.02267419 0.01152683
abt-x-bible-wosera 0.19965537 -0.02526763 0.07374926 -0.06521624 -0.01699191 -0.10342427 0.06319784 -0.10360985 -0.08441223 -0.00200734 0.00134174 -0.17471856 0.15417361 0.05363339 0.10266002 0.13947673 -0.02931768 0.03841912 -0.04658485 -0.1338134 -0.21012524 -0.06568459 0.00858844 0.05924684 -0.08128984 -0.06824966 -0.0533063 -0.01824359 -0.11066227 -0.01430882 0.05535311 0.00437065 -0.11547684 -0.03690891 -0.01180173 0.01991951 -0.00297865 0.17124261 -0.1996827 0.04404153 0.1366447 -0.0676286 0.08281726 -0.00958741 -0.02803882 -0.10560267 0.01534917 -0.0995002 -0.14793757 -0.01986703 0.10440227 -0.084663 -0.04536576 -0.02948501 0.10989481 -0.01832398 -0.07972445 0.09268481 0.09298088 -0.12092342 0.00050378 0.00163914 -0.04422418 0.03779304 -0.14442593 0.08427145 0.04124866 -0.05661416 -0.05413127 -0.09781516 -0.05819543 -0.0776182 -0.07822189 0.05080319 0.07844557 -0.22561893 -0.06593905 -0.00338223 0.06376373 0.04772538 0.18154259 -0.07233348 0.19825107 -0.04167283 -0.1282903 -0.06569255 -0.08736777 -0.06746382 0.0750055 0.09839956 -0.02691513 0.15872085 -0.05834313 -0.02546465 -0.14262894 -0.10359995 0.01772306 0.11880045 -0.06289205 -0.11417586
abx-x-bible 0.03501588 -0.0406444 0.08778025 0.01707362 0.00192508 -0.07199728 0.21414314 0.00894112 0.1063538 -0.04468054 -0.10031555 0.01863931 -0.01578782 -0.05515554 -0.00882196 -0.0412264 0.00358791 -0.04483549 -0.13458237 -0.09868135 -0.05769543 0.09627248 0.00298625 0.03367009 -0.02664127 -0.03743519 0.04939324 0.10705947 -0.1030366 0.02781393 0.11705374 -0.00245161 -0.10106444 0.03530538 -0.02552859 -0.12344438 -0.12076506 -0.00920487 -0.02803317 0.05552837 0.11414027 0.03074408 0.01539193 -0.1301414 0.24774049 0.04945163 0.0490768 0.02899905 0.15615329 0.08018265 0.09375334 -0.09544852 -0.0620604 -0.03841582 0.11398628 0.05606113 -0.16895458 0.11392979 0.06308705 -0.04641737 0.02902846 0.10236866 0.20962879 0.06137113 -0.00865253 0.10528206 -0.06827036 0.13243082 -0.08027101 0.20927626 -0.11127115 0.14535049 -0.16368109 -0.06693343 0.03648904 -0.08556436 0.01718123 0.09515373 -0.19596013 -0.0010702 0.09650058 0.05211151 0.00510601 0.16162758 0.03575485 0.26714432 0.19028927 0.00626544 0.06061866 0.04267158 -0.05356932 0.02218192 0.06713058 -0.14511131 0.01732871 0.00995691 -0.0621517 -0.14544499 -0.05053646 0.00758038
aby-x-bible 0.05801751 0.14421903 0.25061506 -0.13051671 0.12392752 0.04597234 -0.04899551 0.09837551 0.04825811 0.03086665 -0.04307012 0.02288213 0.00677272 0.04027275 0.04538076 0.08655557 0.04927817 0.09881491 0.06871156 -0.01888425 -0.03602036 0.00795926 -0.02634089 0.04930979 -0.03968883 -0.18939823 0.0210464 0.20317914 -0.01950353 -0.12301084 0.10645623 0.04131519 -0.03483333 -0.13847968 0.08885253 0.09472344 0.02778071 -0.08859014 0.11389796 0.10932859 0.06771758 -0.03266943 0.12460228 0.20703083 0.04285287 0.06335963 0.13520059 -0.15464787 -0.00244155 -0.21383658 0.00271217 0.0809288 -0.15988304 0.00859037 0.13110742 -0.05426773 -0.06770493 0.01253515 -0.03983469 0.00784095 -0.1335298 0.20370765 -0.11358124 0.0272334 -0.04617948 -0.0576944 -0.09955874 0.02301813 0.10685761 -0.002386 -0.02393515 0.03766946 -0.10529136 -0.18730786 0.05587395 -0.13292098 -0.09644562 -0.00848079 -0.09118199 0.07570682 0.17813717 -0.13886917 0.039003 -0.02903337 -0.02645843 0.05164524 -0.06244353 -0.08584759 0.03013622 0.06411931 0.02320689 0.04765972 -0.05566803 -0.08148428 -0.07337251 -0.24711676 0.02738892 -0.08190472 0.05966336 0.14666909
acc-x-bible-cubulcu 0.1111274 -0.047118 -0.0673565 0.03952201 -0.06064701 -0.02831277 -0.17023504 -0.12792219 -0.10213051 -0.06261082 0.09324247 0.17032763 -0.07340864 -0.12892218 0.06330123 -0.2727204 -0.06542654 0.06134668 0.1420742 -0.05808458 0.07852935 -0.08985145 0.08051965 0.0964814 0.0913575 -0.00806691 0.02749364 0.00323367 0.02936655 0.03499518 -0.1600797 -0.05325188 0.19145931 -0.00987322 0.11576978 -0.09643798 -0.04719506 -0.00378715 -0.01172587 -0.13643464 0.03189437 -0.04635907 -0.01940737 0.03987313 -0.25652358 -0.07545166 -0.18912157 -0.07423286 -0.11065961 -0.06603012 -0.0728338 0.02780214 0.06389333 0.04730643 -0.13271484 0.15189672 0.10934129 0.04229833 0.06535387 -0.05872547 0.13040935 -0.05503282 -0.00291222 -0.02266691 0.09703397 0.12296772 -0.08337911 0.0069275 -0.05807169 -0.04366363 -0.00123476 -0.16160037 0.13396567 0.00451097 -0.07272371 0.10235611 0.03341985 0.04618058 0.06735639 -0.06928864 -0.20249924 -0.07188601 -0.10558755 -0.08458001 0.18527065 -0.18107367 -0.15216848 0.03492032 -0.08790673 -0.04114151 -0.04978063 -0.09904984 0.08298356 -0.03669303 0.06530271 0.00184388 -0.106881 -0.081609 0.0534514 -0.13128638
acd-x-bible 0.13650993 0.13051753 -0.21540911 0.022328 -0.06061527 -0.03644477 0.05566605 0.05117914 -0.07938106 0.15133095 -0.09207915 0.19882704 -0.08068999 -0.02854795 -0.06204411 -0.06379042 0.10489982 0.01294921 -0.09277482 0.11858609 0.17432317 0.16979566 -0.08897775 -0.00194147 -0.18689236 -0.03591941 -0.01597712 0.17647213 -0.09133 -0.1057931 -0.031999 -0.08213534 -0.08314814 -0.07242113 0.12860882 -0.00235065 0.07950799 -0.03028552 0.1475482 -0.05878628 -0.02112016 0.0269842 0.08442142 -0.02701323 0.00531603 0.1574649 0.09531722 -0.16012044 0.04920421 0.07715023 -0.04310894 -0.0067076 -0.02050455 -0.08689523 -0.16656025 0.01930618 0.2527975 -0.02778824 0.04652616 -0.02451905 0.03868651 0.08349654 -0.01282693 -0.13882153 0.12807818 -0.02962272 0.12379645 0.04795282 -0.13189647 0.00468285 0.0835649 0.07957507 -0.10286219 -0.04897664 -0.0540643 0.0429071 -0.13280876 -0.1046244 0.03298211 -0.06470893 -0.04692994 0.13661642 -0.15271197 -0.02601043 -0.05463767 -0.05180173 0.13926847 0.18956654 0.15705943 -0.00636982 -0.0293827 -0.09864939 -0.03203402 0.30113626 -0.12952337 -0.2600897 -0.19086727 -0.05245155 -0.07644117 0.05356686
ace-x-bible 0.07464649 0.01079894 -0.16178027 0.06837276 -0.00647108 -0.03091578 0.04246902 0.09166738 -0.01116148 -0.10104294 -0.08054 0.11585046 -0.09509293 -0.253413 -0.1186312 -0.19992 -0.03971088 -0.12176185 0.00808057 0.16833666 0.05378965 -0.10040416 0.01726647 0.09499675 -0.04065441 0.06997593 0.00633627 0.07031012 -0.03192795 -0.05517432 -0.04862037 -0.01641438 0.0897858 -0.08635449 0.10632888 0.13463664 0.14730856 -0.03531972 0.06495456 -0.03026978 -0.01703792 -0.01764441 -0.07945938 -0.05322854 0.02068422 0.04095864 0.02814374 -0.10068171 -0.03509318 0.0547251 -0.06540096 -0.03608234 -0.03623835 -0.11664521 -0.06932 0.12280495 0.03233656 -0.02659584 0.16407621 -0.09721441 0.03337081 -0.020237 -0.10057902 -0.04863628 0.15854225 -0.06519344 0.13591026 0.12122943 -0.01482872 0.20307422 -0.0470479 0.15722662 -0.10520211 0.1681027 -0.0288864 0.0410343 -0.07058167 -0.04337808 -0.12565197 -0.16648541 0.00453124 0.05779121 -0.06148486 -0.01283165 -0.01986887 -0.04467485 0.03813848 0.15553468 0.07314254 0.04446658 0.09885587 0.01643957 0.06463703 0.06768431 0.0503752 -0.11353913 -0.11453182 -0.07426417 0.03986923 -0.10563836
acf-x-bible 0.00988839 -0.10655671 0.15097842 -0.14034271 0.14793654 -0.10059083 -0.04426392 -0.05724555 0.0518476 -0.18716134 0.02397694 -0.16852741 0.02100438 0.01488474 0.1239628 -0.01053519 -0.1158911 -0.04161949 0.13773982 -0.05813354 0.0124499 -0.18153216 -0.19306335 0.12977809 0.0521185 0.02293946 -0.05458973 0.03062056 -0.08577904 0.0745692 0.11434192 -0.09399388 -0.01507284 0.01548884 -0.10870963 0.15313056 0.01637762 0.08369722 -0.1297804 -0.02958754 -0.06281618 -0.10171451 0.03837402 -0.01590862 0.14074668 -0.11592276 0.00022286 -0.07865138 -0.05583509 0.02067977 0.05202891 -0.01145816 -0.05659538 0.07727981 0.18584655 0.08562797 -0.16852319 -0.0443996 0.07932128 -0.0672309 0.07359082 0.0484999 0.00275904 0.06111003 -0.04211842 -0.06358253 -0.0206835 0.07551904 -0.07176379 -0.12074883 0.08965457 0.1018944 0.00910765 -0.04122238 -0.08194616 -0.16738056 0.07240208 -0.06732428 -0.1686854 -0.02653421 -0.11068019 -0.17532891 0.19269183 0.08425061 0.02423669 0.01286183 -0.04208063 -0.01365139 -0.01646867 0.00346067 -0.1229073 0.04620317 0.02134332 0.03236322 -0.01256295 0.0791849 0.08177453 0.03697223 -0.08363483 -0.08685934
ach-x-bible 0.02404211 -0.05406351 0.17796569 -0.05832579 0.03998696 0.04354607 -0.034033 0.08336227 -0.05911302 -0.00362896 -0.01405361 0.00222962 -0.07826304 -0.08529998 -0.01956256 -0.08021969 -0.04039898 0.07811753 0.02231055 -0.00319565 -0.0025284 -0.03217834 -0.09737524 0.01422547 -0.11730541 -0.06858695 -0.08663002 -0.02510062 -0.03240674 -0.06852947 -0.08602218 0.0282037 0.0053468 -0.13531084 -0.02138324 -0.0461335 -0.00091111 -0.1745611 0.05691495 -0.07540663 -0.05800274 0.1232404 -0.05137511 0.17906913 0.01552529 0.02778033 0.02289524 0.00924372 0.0148802 -0.1198149 -0.19413683 -0.03822622 -0.03725527 -0.04080295 -0.01994602 -0.05265874 -0.0236382 0.00984778 0.02734859 -0.134843 0.04309906 0.01482194 -0.12773436 0.10626946 0.09192591 -0.03346662 -0.03572093 0.04114959 0.03824041 0.16749926 -0.11697124 0.06917606 0.09134433 -0.04886961 -0.00528082 0.128248 0.06584397 0.04516565 -0.01873752 -0.19079363 0.09358577 -0.05089908 -0.07585015 0.1239522 -0.0977273 -0.03881542 -0.05661006 0.09939697 -0.17798254 0.06439456 0.05982158 0.10032696 -0.01976142 -0.00118407 -0.02675663 -0.17666768 -0.08947742 -0.03654408 0.1098365 0.03276609
acn-x-bible 1.13575421e-01 -8.93244147e-02 -2.46068925e-01 -1.44568617e-02 -1.06882326e-01 -1.23787457e-02 1.34063020e-01 -4.10989812e-03 5.39810285e-02 5.98868243e-02 -7.55220577e-02 1.95501387e-01 -8.48992988e-02 -1.80164855e-02 -1.19471125e-01 -7.14204907e-02 -3.96100665e-03 -5.75202331e-02 -7.96649158e-02 5.16417399e-02 -3.81667004e-03 5.27678803e-02 1.80108145e-01 -7.56002143e-02 6.69078678e-02 2.04426572e-01 1.32957622e-01 -3.01742610e-02 -4.20298092e-02 8.76795352e-02 -3.99596542e-02 1.68856364e-02 -4.98597063e-02 5.46907336e-02 -7.87509903e-02 4.61278763e-03 4.64306539e-03 6.29893038e-03 7.56251160e-03 -1.26726693e-03 -2.44797412e-02 9.26903412e-02 -1.39470428e-01 -3.02790236e-02 -1.69887058e-02 1.13452133e-02 -1.39482906e-02 1.28573701e-01 1.25971526e-01 5.66981994e-02 -2.25718394e-02 -1.48372278e-01 1.26301665e-02 -1.59527045e-02 -1.08012408e-01 7.54538924e-02 -3.80640663e-02 3.73844355e-02 -8.99339318e-02 7.90686607e-02 9.51549262e-02 -2.36735344e-01 2.33195940e-04 5.00310436e-02 1.91016987e-01 -7.26849958e-03 2.55802423e-02 9.30965245e-02 -2.06253771e-02 3.62438709e-02 2.98675895e-02 1.20267995e-01 5.78574762e-02 -3.03572379e-02 9.77351964e-02 7.01828897e-02 -4.28655334e-02 -6.53123781e-02 -8.09025466e-02 -7.37326071e-02 -1.42491654e-01 1.03747107e-01 -1.98751628e-01 -3.34142186e-02 -3.49224918e-02 3.54058546e-04 1.01942301e-01 3.06288432e-02 2.84031983e-02 -6.12243414e-02 -6.41248226e-02 7.73776397e-02 -3.20374602e-05 8.38160887e-02 -5.98297194e-02 1.18663497e-01 -1.58248112e-01 -3.64253893e-02 -2.12048143e-01 -1.02843873e-01
acr-x-bible-reformed 0.0675904 -0.00745431 -0.1288411 0.1699452 -0.13846505 -0.06888703 -0.05358498 0.14358874 -0.06510381 0.04776147 -0.06931345 0.19324613 -0.15272357 -0.13194403 -0.17818415 -0.25748485 -0.02357042 -0.07147241 -0.07821516 0.17671259 0.164362 -0.04975027 -0.13102797 -0.08919539 -0.12365913 0.14800452 0.09940778 -0.13447848 -0.10578225 0.01905064 0.01344845 0.03179285 -0.02105261 0.07936119 0.1032979 -0.1109175 -0.1365946 -0.12375966 -0.0098916 -0.08465152 0.02221308 -0.04310308 -0.15473561 -0.01671581 -0.03286215 -0.02493213 0.0476143 -0.05190542 0.03031502 -0.04549466 -0.12469213 0.10837387 0.07923231 -0.0877263 -0.19542943 0.25346372 0.14275514 -0.08320352 0.05657543 -0.00314184 -0.10574868 -0.12111118 0.04684644 -0.05215683 0.25876752 -0.12403805 -0.04729642 0.1806336 0.01813984 0.09774957 -0.05585725 0.16877145 0.1648659 -0.01287496 -0.15352136 0.13174051 -0.03525538 -0.01592516 -0.26897734 -0.093072 -0.17338742 0.02756139 -0.1525433 0.11748011 -0.09498039 -0.12516977 -0.06250408 0.23176967 0.06244139 -0.0674954 -0.08856165 0.07251279 0.07181568 0.00620636 -0.03711241 0.09030373 -0.21851169 0.0863006 -0.00999982 -0.06577642
acr-x-bible-traditional 0.06938263 0.00719915 -0.022312 0.18676972 -0.13355064 -0.03428264 -0.10958786 -0.06675171 0.06646468 0.02690474 0.0104031 0.29704383 -0.07960623 -0.26490504 -0.04388088 -0.4358394 0.07708409 -0.09489837 0.09215485 0.15659954 0.24224508 -0.10982396 0.06288888 -0.11611809 0.1428937 0.11184034 0.04964801 -0.07217775 -0.18560894 0.09323421 -0.03763243 0.06774431 0.03049351 0.05402002 0.16289401 -0.15631281 -0.09369096 -0.18963145 0.11831138 0.05889639 -0.14472944 0.16157569 -0.16274449 0.17585842 0.05021804 0.14002612 -0.06288258 -0.10111039 0.03532692 0.03694397 -0.03081884 0.02654056 0.0541967 -0.07740745 -0.13505168 0.17745212 0.13088554 -0.00308411 0.10469791 0.12783049 -0.07099485 -0.02823915 -0.04821056 0.0164919 0.25209463 0.06032794 0.003428 0.09748384 0.09914955 0.08007109 -0.07032378 0.00885628 0.25148433 0.04980263 -0.16138075 0.18624654 0.00446006 -0.04449934 -0.10884783 -0.1251683 -0.29588905 0.17159097 -0.14050311 -0.08033577 0.0718699 -0.1996686 -0.07493576 0.17005706 -0.01698754 -0.01230251 -0.09262161 -0.04276869 0.2189519 0.14136668 -0.17130964 -0.00116818 -0.29555705 -0.10258832 -0.09451625 0.04830058
acu-x-bible 0.07222024 0.01566977 0.18330541 0.01975897 0.04640945 -0.06203834 0.014412 0.01006335 0.14552069 -0.00071646 0.05337719 -0.0091249 0.15277478 0.19316629 -0.04083515 0.0187077 0.04408591 0.0969971 0.07968473 -0.04208189 -0.00281854 0.04067761 0.03136587 0.05331562 0.09249569 0.05997678 -0.06369522 -0.12001517 0.04024935 0.09997544 0.10203918 -0.06986585 0.01179089 0.15144418 0.0015104 -0.13309222 -0.15765607 -0.02596183 0.0264978 -0.00287249 0.10064079 -0.11187556 0.05046276 -0.1153402 -0.03994576 -0.14838436 0.009944 0.04424151 -0.07160936 0.09549928 -0.0738182 -0.0680147 0.02970234 0.1705521 0.04886881 0.01406354 -0.02824123 0.01597895 -0.10519663 0.12970243 0.09215882 0.00392759 0.09676085 0.00087572 -0.09721784 0.13394518 -0.03506553 -0.0069921 0.02252278 0.04463442 0.03490972 0.01884003 0.10674291 -0.09094992 0.04369317 -0.1125532 0.02195655 -0.00443033 -0.05186318 0.10921551 0.00613179 -0.0501381 0.01874201 0.05534564 -0.03248698 0.11663407 -0.05173304 -0.05698744 -0.00147443 0.07391721 0.05497975 0.00138907 -0.01786971 -0.05361472 0.02764718 0.1383356 0.18161517 -0.06386147 0.05122282 0.04091753
ade-x-bible 0.21529914 0.13441332 -0.15064886 -0.14984201 -0.19925225 -0.07682309 0.10299392 0.17997772 -0.04218503 0.05977889 0.02060577 0.22992696 0.09167082 0.00116421 0.07572093 0.06268983 0.03060136 0.06758396 -0.05181077 0.07196871 0.01173112 0.09317978 -0.07560208 -0.06402697 -0.1455517 -0.03804783 -0.11833224 0.13371818 -0.03199541 0.05907503 0.04795577 -0.22616817 0.03036997 -0.16010582 -0.03300079 -0.11364436 -0.03134229 0.09692579 0.08654837 0.14550802 0.12092721 0.02756838 -0.03095527 0.02105592 0.08458328 0.09465485 -0.08948538 -0.12521626 0.12805052 0.01940645 -0.05551294 -0.06457832 -0.07111569 -0.02809231 0.07486305 -0.01493853 0.07772456 -0.00684892 -0.03978069 0.00228765 -0.11354391 0.07696559 0.05668047 0.02871775 0.10345121 0.06871697 0.03271657 -0.10088927 -0.03045899 -0.01365535 -0.04614722 0.05550024 0.03923392 -0.08418731 0.0050427 -0.06175249 0.02904933 -0.130788 0.08223008 -0.01600015 0.00774828 -0.00767925 -0.14513221 -0.1068045 -0.01988988 -0.05097345 0.14978117 0.03422584 0.11926388 0.12179202 -0.12478466 0.02693027 0.06501094 0.17910685 -0.06606456 -0.2162313 -0.23206392 0.06324 -0.06684814 0.00232601
adh-x-bible 0.00375422 -0.02953973 -0.1315544 -0.02608909 0.11352731 0.09116665 0.01507778 0.0976729 0.01919498 0.05711881 0.14343043 0.17186582 -0.21293804 -0.11673946 -0.16481735 -0.15581992 0.09219898 -0.09458549 -0.04209277 0.09967936 0.1329017 0.07834654 0.06576288 -0.07529607 -0.04929249 0.1341095 0.07912536 0.02715733 -0.10719626 -0.00092357 -0.06432182 -0.03544641 0.07283687 -0.05123395 0.13831066 0.03255045 0.03962462 -0.10169527 0.12880139 -0.10530056 -0.00965422 0.12581748 -0.05013592 0.04912421 0.0676548 0.1974851 -0.07424329 -0.08351541 0.03662903 -0.15399665 -0.14916451 0.11893204 0.07429679 -0.04764969 -0.2544481 -0.02671185 0.13749741 0.05786765 -0.03816024 0.04137236 -0.08220696 -0.01867474 0.00543559 0.0350644 0.0988332 0.0087129 -0.04882972 -0.00815567 0.03065675 0.0305973 -0.01978328 -0.00222938 -0.00470275 -0.00089867 -0.00407215 0.21631585 0.06248362 -0.06415619 0.05871024 -0.01097563 -0.1320948 0.21623594 -0.16312017 0.06260621 0.05298617 0.01699374 -0.04403816 0.11304459 -0.11263364 0.04558156 0.04759217 -0.13948509 0.01980599 0.12787005 0.07716407 -0.07395762 -0.06178158 -0.04110375 0.00040506 0.01685244
adi-x-bible 0.14176284 -0.02985512 -0.01933986 -0.06230233 0.08149797 0.09427987 -0.03388509 -0.11369381 -0.04917636 -0.02926925 0.13418637 -0.12779044 -0.09226315 0.18141606 0.01043393 0.16143455 0.00405574 0.06872097 0.10916702 -0.00811627 0.02645406 0.13373435 0.14571767 -0.08499967 -0.04855148 -0.00744631 0.05256258 0.11443296 -0.04608745 -0.20330414 0.11451673 -0.03209609 -0.07913257 -0.06063022 -0.06851078 0.09624989 0.18537143 0.01812245 -0.00253646 -0.01353366 0.14075169 0.030614 0.00803994 0.03336152 0.03487793 0.07363229 -0.03386559 -0.035853 -0.02931289 -0.0365292 0.13812558 0.01867576 0.0489205 -0.09850588 0.05654239 -0.09887584 0.07114863 -0.05965917 -0.10925703 -0.07760554 0.01255459 0.11627267 0.02269715 0.08631055 -0.18660095 -0.06594002 0.02276507 -0.02286297 -0.07303011 -0.02566221 0.10075174 -0.02277337 0.0069625 -0.12630403 0.10559773 -0.12026098 0.06228742 0.1050301 0.18583706 0.03951558 0.04381639 0.05314976 0.03696269 -0.09759992 0.00294734 0.07267252 -0.05868573 -0.12439982 0.06108247 -0.05706528 0.00928937 0.00861181 -0.2151324 0.09988757 0.07008856 0.06432531 0.18307361 0.02519062 0.07694399 0.06668749
adj-x-bible 0.04271669 0.02071171 -0.12927158 0.13684224 -0.07963953 0.02545777 -0.04083065 0.05324958 -0.10361885 -0.02921767 -0.02163267 0.0682578 -0.06818873 -0.02707935 -0.03681161 -0.09392869 -0.10008326 -0.15576923 -0.14084727 -0.06012161 -0.05057155 0.03285286 0.05864838 0.12091373 0.03880898 0.20002435 0.03583973 -0.08677699 -0.0133513 0.07073282 0.00330424 0.03496288 -0.06578824 0.03394761 -0.06234596 0.11520418 0.02204021 -0.08728972 0.1131723 -0.02329592 -0.03754314 0.02649438 -0.12974337 0.00880085 0.07905243 0.10235332 0.0526655 0.078355 0.12545204 0.12685134 0.02025196 -0.03947626 -0.04470827 0.03109265 -0.14778446 0.06063462 -0.01564575 -0.0179605 0.02260796 0.01049369 -0.05180342 -0.13749237 0.06190801 0.05363581 0.02359824 0.02221248 -0.0477169 0.10642187 -0.1231545 0.16651042 0.0928328 0.00629924 -0.03472277 0.16230753 -0.01541581 0.1592579 0.0838594 -0.0585964 -0.05229845 -0.07167505 -0.168073 0.16834557 -0.00736047 0.05785242 -0.09440622 -0.02720899 0.11069413 0.16375579 0.10623191 0.10027669 -0.07239478 0.06967263 0.07376052 -0.02026366 -0.02875423 0.084001 -0.16317946 -0.04598555 -0.04843849 -0.12979926
adl-x-bible 0.06468675 -0.03815148 0.01317284 -0.04202079 0.02346926 -0.03603112 0.02902941 0.04925914 0.02326062 -0.04245349 0.04200904 0.06288421 0.03680996 0.01016099 -0.06517091 -0.04649333 0.0873662 0.01350062 0.05382496 -0.04555619 0.01049815 0.03980128 0.08482526 -0.04133261 0.05326271 -0.00801766 0.03509047 0.07025273 0.02207018 -0.06175009 -0.01704276 -0.00300882 -0.04927529 -0.02098067 0.06503903 -0.00726394 0.03262876 -0.03838429 0.01676429 0.08724289 0.00076503 -0.04855125 -0.06148491 -0.09907208 0.07929402 -0.07785153 -0.02041123 0.00830947 -0.10556523 -0.01778942 -0.06306256 -0.01504318 -0.05491002 0.02596956 -0.05037269 -0.09497528 -0.12255895 0.10930786 0.05037857 -0.04172105 0.1425338 -0.09787866 0.02672739 -0.01500141 -0.03119588 -0.11951818 -0.02537648 -0.1151606 0.04321902 -0.02193628 0.07339644 -0.01927338 0.04527818 -0.02901582 0.02870329 0.03286144 0.10074628 0.09916583 0.10806352 0.09883817 0.02150154 0.07779095 0.07138819 0.05362063 -0.14124973 -0.01934641 0.03651145 -0.04411149 -0.05289794 -0.04118429 0.02059389 -0.10666886 -0.0273161 0.02532542 0.04933139 0.05542812 -0.00107985 0.07333943 0.11355324 0.00027089
aeb-x-bible 0.0161203 -0.03369653 0.03041668 0.14828545 -0.15632169 -0.041518 0.21992037 0.11932416 0.07881424 0.03825128 -0.11315271 0.319822 -0.18198578 -0.2710686 -0.08187564 -0.09427241 -0.13780656 -0.0660966 -0.07850019 0.0919511 0.12296076 -0.07399681 -0.04330182 0.16944 -0.01430675 0.17875536 -0.04299047 -0.02182131 0.04443189 0.18462104 -0.03848855 0.00233234 0.04722602 0.08008904 0.07520748 -0.08152679 -0.14232689 -0.138357 0.21422124 -0.10953762 -0.0662437 -0.03465334 -0.02950151 -0.00065215 -0.02519446 0.10925639 -0.0123279 0.0811678 0.16954486 0.03012792 -0.05099386 -0.17748788 -0.010153 -0.0338695 0.0584265 0.07410245 -0.08173345 0.06425206 -0.03590078 -0.01788042 -0.0929243 -0.10248411 -0.05328659 0.03182665 0.22344549 -0.0275797 -0.03622047 0.14814915 -0.00127934 0.35898823 -0.2464874 0.29956308 0.1341037 -0.05950039 0.04885013 0.15951051 0.07348307 0.02023443 -0.34576574 -0.04650758 -0.17597744 0.19463551 -0.20983712 -0.00283951 0.04866603 0.05419414 -0.04792076 0.2598571 0.03072754 0.17235263 0.05163443 -0.02018534 0.19864586 -0.01929934 0.0584686 0.06676427 -0.21922734 -0.13729633 -0.11711817 0.02182321
aeu-x-bible 0.06277493 0.09351423 -0.2964816 -0.01797321 -0.16478954 0.00033087 0.11289544 0.17960139 0.09169959 0.02794863 0.01149258 0.0516022 -0.1171286 0.04751803 -0.14051305 0.12713149 -0.07764524 0.00845606 -0.16769028 -0.02490461 -0.10618942 0.04998779 0.17348222 0.16486987 0.09742963 0.03111453 0.04437653 -0.13685602 0.07395238 -0.11156751 -0.24625224 -0.13373758 -0.17956391 0.06848962 0.01435627 -0.07275333 -0.12800524 0.24657847 -0.00912191 0.0663438 -0.05803522 -0.03165616 0.0145888 -0.07225163 -0.06927706 0.00168308 0.17826964 0.0901058 0.11025301 0.05137916 0.14231582 -0.02019132 -0.01523194 0.09301413 -0.13025248 0.02995013 0.01051286 0.02778528 -0.02905217 0.09642785 0.01365997 -0.2810242 0.0113313 -0.04172735 -0.09956144 0.18663953 -0.01531219 0.12030724 0.01023849 -0.11547857 -0.11322526 0.08159596 0.13950694 0.01898059 0.09658391 0.11267189 0.09037138 -0.00633299 0.19221927 0.07011445 0.0478101 -0.00503343 -0.1765496 -0.03418238 0.07387125 0.14086571 0.01512504 -0.0104897 0.01253229 0.22345746 -0.06647845 0.09185179 -0.06400805 -0.04754648 -0.0920045 0.09279274 0.08176886 -0.01069203 -0.26087576 0.11800964
aey-x-bible 0.02221859 0.06464324 0.01291428 -0.09033635 -0.12430231 -0.14035109 -0.06601507 -0.04555063 0.03749489 -0.08336448 -0.03355147 -0.12318234 0.10231949 0.01490032 0.10097267 0.024985 0.05211585 0.03630897 -0.00884482 -0.11668766 -0.02590709 0.00093342 0.13608593 0.05828715 0.04994791 -0.15710345 -0.03688828 0.00384315 0.0550417 0.05861382 0.05689891 -0.07867812 -0.04237097 0.09877557 0.03936928 -0.13217331 -0.11277845 0.08355308 -0.1524249 0.03786444 -0.11335593 -0.06296313 0.01653714 0.03253653 -0.09697125 -0.00450357 -0.01602439 0.00368317 -0.02538398 -0.03195433 0.01510084 0.0263243 -0.10788638 0.21340214 0.10422331 0.09330893 0.11868691 -0.0141905 -0.125394 0.03260953 -0.02059852 -0.01882324 -0.07178892 0.04365072 -0.11279241 0.13596468 -0.01961005 -0.11421429 0.01557057 -0.20686342 0.07759407 -0.08018181 0.12590095 -0.07411075 0.04886771 -0.09329103 0.01352549 -0.08642898 -0.02361617 0.00707695 0.12588832 -0.09689736 -0.0917341 -0.12840855 0.18370283 0.01325168 -0.14221306 0.00859232 -0.02123273 0.07068907 -0.02587477 0.05879864 -0.02310804 -0.12195992 -0.09198135 0.02226846 0.06696182 0.05384452 -0.07998779 0.18985948
afr-x-bible-1953 0.07795224 -0.09902696 -0.12047145 -0.05778731 0.00074521 0.09722111 0.08719576 -0.16127557 -0.03274862 -0.05592375 -0.07441315 0.10755955 -0.23502085 -0.00655428 -0.0773977 0.11261413 -0.16131617 -0.19349094 -0.17056793 -0.1326728 -0.11719482 -0.13275723 -0.0072326 -0.03089476 -0.05717118 0.05761202 0.05052194 -0.08008675 -0.05591287 -0.03970914 -0.19696566 0.14017558 -0.09873737 -0.00556581 0.00292036 0.22927539 0.21691917 0.12908599 0.03961745 0.01865758 -0.07428552 -0.02819003 -0.01047367 -0.06683823 -0.04783148 -0.0924034 -0.08200185 0.0641019 -0.17248085 0.14644492 0.06790564 0.01028185 0.13084814 -0.14629357 -0.11784116 -0.14798082 -0.10414129 0.07185701 -0.00656238 -0.18837108 0.08822441 0.00092478 0.04254708 0.09729328 0.04450361 -0.0486471 0.03558221 -0.08179262 -0.22621992 -0.07597353 0.04954768 -0.07343786 -0.09143379 0.16308099 -0.09155703 0.09661282 0.08016717 -0.02707186 0.21028595 0.05668186 -0.21535091 0.05326934 0.19449353 -0.18539381 -0.14318123 -0.04994416 -0.02925234 -0.10443638 0.08006701 -0.06696516 -0.07269889 -0.03685058 -0.14194843 0.03905701 -0.01161625 0.14612454 -0.07383067 0.09530812 0.09191512 -0.14143954
afr-x-bible-1983 1.35042379e-03 -7.78962746e-02 -9.73913297e-02 5.11076525e-02 1.23200687e-02 5.38063794e-02 3.29499766e-02 -1.92210257e-01 -1.24529347e-01 -1.75187394e-01 -1.82872772e-01 1.34594724e-01 -2.39213437e-01 -9.76810530e-02 2.73650587e-02 -5.02264686e-02 -8.48053545e-02 -1.99609682e-01 -9.25055817e-02 -9.49167609e-02 -2.53754020e-01 -8.39833096e-02 7.89304748e-02 -3.00312489e-02 -8.44495893e-02 2.15348154e-01 -5.89807816e-02 -7.28221461e-02 -6.26746416e-02 -9.89987776e-02 -1.30622298e-01 1.72893450e-01 -7.61896968e-02 8.78262892e-02 -5.84597625e-02 2.58414775e-01 6.08395226e-02 7.84561560e-02 -6.49550185e-03 2.66078152e-02 4.42197695e-02 -4.49952669e-02 -4.03816327e-02 -1.56284183e-01 1.08295642e-01 -3.28726741e-03 -2.17263341e-01 5.05288169e-02 -1.96150988e-02 1.02806017e-01 3.54974978e-02 2.76523493e-02 2.06416160e-01 -1.43930957e-01 -2.37038299e-01 2.85174348e-03 -9.12770331e-02 -5.88573515e-02 -2.10714657e-02 -8.20785295e-03 9.38187689e-02 -8.51221532e-02 1.25860631e-01 5.72727211e-02 1.41851366e-01 -1.05660208e-01 5.74081056e-02 -3.87419127e-02 -2.24485964e-01 -1.54879224e-02 6.85968027e-02 -7.42763951e-02 -3.96820344e-02 2.35198542e-01 4.09877896e-02 1.87818781e-01 1.75926596e-01 -5.80836095e-05 1.32220611e-01 -5.80167910e-03 -9.57128555e-02 -4.76175919e-02 4.49437052e-02 -1.85787201e-01 -8.89157727e-02 5.15351910e-03 -7.24790394e-02 -9.12285894e-02 5.55931143e-02 -3.11947837e-02 4.47471105e-02 2.11103242e-02 -2.62578994e-01 -9.56189260e-02 1.23081744e-01 1.56491563e-01 1.17424065e-02 2.48867702e-02 1.87669676e-02 -2.27024898e-01
afr-x-bible-boodskap 9.38443467e-02 -1.62184119e-01 -6.77556098e-02 9.74437669e-02 1.32404640e-01 2.52530212e-03 6.40092492e-02 -3.00213564e-02 -2.02320486e-01 1.85576081e-02 -2.18313262e-02 -8.03785026e-02 -3.41455340e-02 -3.76281328e-02 -3.36352945e-03 -2.23132013e-03 -1.27349310e-02 -1.91438213e-01 -1.29528090e-01 -1.08639397e-01 -1.59703597e-01 -8.82432908e-02 1.21464491e-01 -1.28897309e-01 -1.09844636e-02 1.91263527e-01 6.52547879e-03 -1.28965408e-01 -9.55482051e-02 -8.48929584e-02 -1.38781726e-01 2.01688975e-01 4.26954776e-02 5.14600165e-02 -8.37973952e-02 1.10984601e-01 1.64902866e-01 4.67458293e-02 3.70519049e-02 -8.52174982e-02 -7.05998763e-02 -1.85087230e-02 -5.17057627e-02 -3.26027498e-02 1.62603762e-02 -4.52537279e-05 -6.62096962e-02 8.85043219e-02 -4.92427684e-02 5.12607284e-02 8.23693164e-03 -4.35795039e-02 4.62880023e-02 -2.32496455e-01 -8.07542428e-02 4.85883318e-02 -8.96439701e-02 1.34047214e-02 -6.79120868e-02 -1.19436398e-01 1.08700588e-01 -1.82734072e-01 6.87872469e-02 1.07739745e-02 -2.87691057e-02 -5.52903339e-02 -5.32879382e-02 -7.44063556e-02 -9.62337852e-02 -3.70105393e-02 4.45219390e-02 -8.68647173e-02 -1.18175805e-01 2.35785201e-01 4.46344726e-02 4.52897251e-02 -2.54736245e-02 -3.80015187e-02 1.28030524e-01 5.84386885e-02 -9.44866315e-02 1.00858986e-01 1.64216235e-01 -7.23016709e-02 -1.30892307e-01 -4.83692922e-02 3.77763994e-02 -8.20528064e-03 -3.57822925e-02 2.16046944e-02 -1.07962079e-01 -4.25827838e-02 -4.74036783e-02 -8.76571909e-02 1.24210931e-01 2.10223168e-01 -8.07550550e-02 3.74618880e-02 1.19513720e-01 -2.07831755e-01
afr-x-bible-lewende 0.0079883 -0.11959217 -0.1372014 0.05049858 0.13121407 0.08915872 0.00499367 -0.09364879 -0.08417346 -0.12744766 -0.01303035 0.03808586 -0.10487255 -0.11109219 0.0170069 0.11047339 -0.0141127 -0.21797557 -0.0713098 0.01708919 -0.16658212 -0.07791512 0.01310995 -0.00879995 -0.09080719 0.10215613 0.00165691 -0.12469133 -0.06912933 -0.03193735 -0.03561858 0.13644403 -0.01775804 -0.04541165 -0.10479131 0.23621397 0.12402005 0.15601112 -0.01694121 -0.02088918 0.01371803 -0.01914924 -0.11705687 0.01394446 0.08327802 -0.00265518 -0.0988097 0.06819173 -0.11041036 0.13723119 0.13536783 0.18149062 0.15227944 -0.2976341 -0.10824502 -0.03221839 0.01613514 -0.09192904 -0.05716605 -0.13256712 0.12187568 -0.17083487 -0.02833917 0.08648694 0.11772341 -0.0539146 -0.04924316 -0.00469815 -0.20033781 -0.10164589 0.10338467 -0.10736798 -0.08208666 0.10392215 -0.03655446 0.11541925 -0.02905846 -0.09699964 0.08795052 0.13779975 -0.12757908 0.02389111 0.05895311 -0.22385952 -0.2184822 0.05284603 -0.02487521 -0.03244909 0.2095383 0.07962187 -0.0365249 -0.07870425 -0.12382133 -0.0220767 -0.04137943 0.0940961 -0.07052732 0.1182204 0.00973569 -0.18867518
afr-x-bible-viralmal 7.64549002e-02 -8.53512660e-02 -9.56711397e-02 -4.42010164e-02 -3.31138670e-02 9.16954130e-02 -9.46026482e-03 -1.16275698e-01 -9.62137133e-02 -1.17137931e-01 3.98557074e-02 -1.23927342e-02 -2.10884318e-01 -3.00587043e-02 4.97904792e-03 3.54447477e-02 -1.02739498e-01 -2.50856996e-01 2.19239313e-02 5.06560579e-02 -1.38390779e-01 -1.19966529e-01 7.73612559e-02 -3.95508483e-02 -8.09953883e-02 4.24662903e-02 6.65318668e-02 -1.37561768e-01 2.34538391e-02 -1.03558384e-01 -1.12473834e-02 1.11814067e-01 3.86909321e-02 1.26924104e-04 -5.97487874e-02 7.04447627e-02 6.15555458e-02 5.04592359e-02 -1.84258334e-02 2.56591793e-02 -1.88648480e-03 -1.08506136e-01 -1.18137479e-01 -9.91765931e-02 3.02206222e-02 9.75046605e-02 -1.87479928e-01 1.42996490e-01 -6.26949295e-02 1.83767796e-01 1.25787452e-01 1.16423711e-01 8.78374130e-02 -2.41587684e-01 -1.37351319e-01 -1.23672143e-01 1.02763495e-03 4.97008499e-04 -4.87235263e-02 -1.11687675e-01 3.84600237e-02 -1.37571499e-01 -5.31331375e-02 -1.38630252e-02 5.46945781e-02 -8.77412409e-02 -5.36923716e-03 -5.39799109e-02 -1.12353407e-01 -1.55029625e-01 3.91364135e-02 -3.75171788e-02 -5.41494004e-02 1.33993551e-01 -1.10133223e-01 9.50946361e-02 9.12444443e-02 -1.65731907e-02 2.55788546e-02 9.96517614e-02 -8.28894526e-02 4.64851260e-02 1.47816584e-01 -2.23277152e-01 -1.92574084e-01 4.85703759e-02 3.30916420e-02 -7.37049524e-03 1.45821914e-01 -4.03400213e-02 6.19052770e-03 3.81521322e-03 -9.53506380e-02 3.67682688e-02 5.44944517e-02 1.87715843e-01 -9.70261544e-02 1.58111632e-01 -1.27509516e-02 -1.16042376e-01
agd-x-bible 4.37504239e-02 1.08977892e-01 7.53880898e-03 6.02389947e-02 7.21989051e-02 -5.68836853e-02 -1.52082732e-02 -2.14441605e-02 5.00185043e-02 2.45072646e-03 -3.11990157e-02 8.34598616e-02 -7.79973790e-02 9.36111361e-02 -2.19454505e-02 1.22661151e-01 -1.80625275e-01 -9.58693027e-02 -1.81252451e-03 1.39259594e-02 -5.73268831e-02 8.78012255e-02 -5.89151084e-02 -2.35367138e-02 -2.22448856e-02 -1.02154061e-01 -7.06212074e-02 2.47971993e-02 7.77007639e-02 7.30069503e-02 -3.12545188e-02 -2.99873054e-02 -7.26125464e-02 5.65481707e-02 6.46224916e-02 7.38356560e-02 3.33555378e-02 2.15347454e-01 -7.36881420e-02 -1.12880327e-04 3.81307974e-02 8.90706480e-02 -6.56222284e-04 -4.62526679e-02 1.74615923e-02 -2.75414903e-02 4.99246009e-02 2.76458692e-02 -1.02587730e-01 -6.89845309e-02 -1.28531724e-01 -4.19278629e-02 -4.53539602e-02 -2.16343645e-02 5.96714877e-02 -2.19488535e-02 -3.34541276e-02 -4.76182848e-02 -1.19210025e-02 -5.59626482e-02 3.04566734e-02 2.70252079e-02 4.52473126e-02 9.71544255e-03 -4.85232957e-02 -4.05891389e-02 -4.16512489e-02 -7.52879754e-02 8.11808929e-02 -1.11852055e-02 -3.54455225e-02 -6.29769266e-02 -4.39915843e-02 5.83177656e-02 -2.32063085e-02 3.11426376e-03 3.64188291e-02 -3.11735999e-02 4.26441804e-03 -4.92622592e-02 2.97441762e-02 -8.42288733e-02 4.86825127e-03 4.48434576e-02 9.41034108e-02 1.18956216e-01 1.92733016e-02 -2.91547440e-02 9.65073407e-02 6.04697950e-02 9.70626697e-02 3.68172824e-02 1.50801446e-02 -7.43184388e-02 3.62638496e-02 3.78741920e-02 9.07627940e-02 -5.10272309e-02 -7.92673081e-02 3.59859429e-02
agg-x-bible 0.05610922 0.09915731 0.14974758 -0.09182443 0.09848088 -0.05551606 0.02629338 0.03473203 -0.04636386 0.16265579 -0.0390054 -0.06942484 -0.03161338 0.07595238 -0.06279615 0.23328096 0.10309352 0.07727399 -0.00492416 0.05455629 0.00361491 0.12623712 -0.00364613 -0.12220629 -0.08608215 0.00562534 -0.1092718 0.09161973 0.04674909 -0.1765851 0.15030722 0.12345661 0.05403684 -0.16078924 -0.10102545 -0.03863223 -0.15071908 0.06658086 0.0551689 0.05388935 0.04826203 -0.00401755 -0.12534839 0.20468946 -0.08301744 0.00772537 0.13958843 0.06502639 0.03772901 -0.15649824 0.01700881 -0.01297345 -0.07203014 0.12513508 0.05729997 -0.1760314 0.10543907 0.1061902 -0.20949899 -0.06961995 -0.05759335 -0.00562249 0.02330747 -0.0099746 -0.13746649 0.11030936 -0.02654397 -0.11937825 0.05122537 -0.00043248 -0.05352112 -0.1224719 -0.07916639 -0.11721138 0.06278838 -0.04764802 0.0999465 0.11220589 0.11074257 0.08197591 0.1890355 0.08794209 0.07735022 0.0285999 0.15028772 -0.08067039 0.04168731 0.04911923 -0.01796049 -0.02221386 0.01286021 0.05251247 -0.08874483 0.01849166 0.0612516 -0.10970102 0.15549462 -0.09575622 -0.03299895 0.22863443
agm-x-bible 5.11434153e-02 1.13086253e-01 1.27775088e-01 -1.35760373e-02 8.84855688e-02 -3.73273306e-02 2.52721850e-02 1.31873086e-01 9.29380357e-02 2.16858193e-01 -5.36781363e-03 -1.07869379e-01 -6.86752517e-03 5.63540645e-02 -4.63958792e-02 1.65437356e-01 8.77933875e-02 1.92670956e-01 3.65113206e-02 2.78388703e-04 1.21925212e-01 1.02908619e-01 3.04054394e-02 -1.27642274e-01 -2.77830362e-02 -1.54459327e-01 -8.33031684e-02 -2.70251767e-03 -6.59770444e-02 -3.99928130e-02 8.95108506e-02 -4.20118794e-02 2.90424097e-02 2.60121692e-02 3.65197733e-02 -1.21353969e-01 -6.58538714e-02 -1.14038453e-01 5.78719303e-02 -1.75244063e-02 4.52538952e-02 -3.98562439e-02 4.49426696e-02 1.58475712e-01 1.08632572e-01 2.28623822e-02 1.16000794e-01 -4.95000258e-02 1.10148542e-01 -1.78594097e-01 6.03676252e-02 6.03341535e-02 -7.42810592e-02 1.10298201e-01 9.53116193e-02 1.37342354e-02 1.91112757e-02 9.08473879e-03 -8.44722688e-02 1.55678675e-01 -1.45809546e-01 1.53132528e-01 1.12620573e-02 5.17161414e-02 2.78459936e-02 1.03999391e-01 -7.29974881e-02 -6.58384711e-03 1.58634290e-01 1.11957841e-01 -6.01614267e-02 4.11656387e-02 1.24688081e-01 -2.23797873e-01 -9.40164402e-02 3.37561294e-02 7.24812746e-02 9.50061753e-02 -1.99948028e-02 -6.63900152e-02 2.33773425e-01 1.17336726e-02 -9.98284146e-02 6.93294406e-02 1.46131320e-02 5.26150577e-02 -5.51241897e-02 -8.22411403e-02 -8.17148238e-02 1.36352122e-01 3.70936133e-02 4.60293926e-02 1.09884851e-01 -4.64995578e-02 -6.56632707e-02 -3.52411084e-02 1.46529108e-01 -2.41765417e-02 -4.43559289e-02 2.93811500e-01
agn-x-bible 0.03121339 0.01347783 -0.13327928 -0.02292683 -0.06776568 -0.00941577 0.0714649 0.09239671 0.11035536 -0.0348947 -0.1815294 -0.00171883 -0.04979353 -0.07459914 -0.01906584 0.02426252 -0.10238454 -0.01725649 -0.21602556 -0.05002636 -0.02272961 -0.00588126 -0.03076868 -0.0382439 -0.00351312 0.12968796 0.05944507 0.00739572 -0.05866592 0.02119303 -0.10947233 0.04743632 -0.04282885 0.03451863 0.02932229 -0.01777748 0.0261323 0.0938182 -0.10870189 0.1364049 -0.11034001 0.06797148 0.00542452 -0.13835429 0.0499997 0.11719392 0.16205333 0.01705136 0.04028136 0.09462057 0.04786703 -0.10948177 -0.08552592 0.02083287 0.06767873 -0.02168295 -0.03333864 0.02540192 0.0602859 -0.04837407 -0.01981888 0.09168677 0.24685952 0.04094236 -0.08735035 0.04640747 0.17362171 0.2057544 -0.0975846 0.05685275 -0.01940441 0.08218297 -0.10616797 0.01234152 0.00700391 0.10712402 -0.05542648 -0.0634041 0.08848818 0.06258776 -0.0239816 -0.02567464 0.04311936 -0.04524307 0.03289931 0.29167253 0.22945972 0.16915596 0.12051929 0.14638431 -0.05984325 0.05102887 -0.01864141 0.04417697 0.07255451 -0.08240467 -0.03795167 0.01935852 -0.2711735 -0.12011693
agr-x-bible 0.09927992 -0.11060821 0.20399484 0.03665449 -0.0192396 0.03801722 0.04887959 -0.05050766 0.06707912 -0.04607276 -0.06688372 -0.09071374 0.07423878 0.04281345 0.00908133 0.00851855 -0.07098477 0.1113073 0.05960971 0.01788762 -0.02196085 -0.1157655 0.01938045 -0.01941794 0.02577025 0.00683379 0.05702362 -0.02443622 0.05777503 0.10263084 -0.03444659 -0.03378557 0.00398139 0.17275286 -0.13020141 0.10322428 -0.08149754 -0.04509094 -0.14772975 -0.14711203 -0.00248376 -0.16684367 0.06854875 0.0496496 -0.18279444 -0.22191699 0.00800566 0.01474731 -0.16047615 -0.01818363 -0.00110638 -0.08144281 -0.02776739 -0.00908957 0.132724 -0.00317656 -0.13508348 -0.03122047 -0.0237074 -0.00913508 0.10166627 0.07143566 0.0245528 0.10898244 -0.19956455 -0.01710337 -0.01907618 0.02309464 -0.04733885 0.07145485 -0.06337727 -0.0261331 0.05742475 0.00572468 0.03003116 -0.11992972 -0.05562205 0.02856131 -0.07108033 0.04602038 0.01946499 0.07963016 0.00454001 0.12406384 -0.07599226 -0.00557688 -0.04221576 -0.10712796 -0.05488811 -0.10284994 0.07930566 0.03330961 -0.05193738 -0.04129803 0.08544294 0.10246224 0.03195448 -0.10541189 0.08279727 0.09330304
agt-x-bible 0.14416201 -0.13381307 -0.15748605 0.09496963 -0.05020405 -0.02394408 0.1573259 0.02806361 0.09171131 -0.05883296 -0.21674493 0.04300674 -0.04971313 -0.1795092 0.09424338 -0.01450096 -0.14371131 -0.13052936 -0.15852077 -0.01674024 -0.04608649 -0.07836745 -0.05239449 0.10748013 -0.02396199 0.09445319 0.06607588 0.01900204 -0.00152066 -0.00731871 -0.05076899 -0.12565963 0.01427809 -0.10952404 0.04858227 0.0759348 0.0363628 0.18215954 -0.0616977 -0.00443335 0.04369981 -0.05650252 0.09756403 -0.13120803 0.15535091 0.13875692 0.05010561 0.04209651 -0.01274596 0.13131543 -0.03458164 -0.13815182 -0.04748776 -0.08268679 0.04505413 -0.00102541 -0.04304288 -0.06315266 0.04223209 0.04790863 0.10470802 -0.12867013 0.22875208 0.03098149 0.07451899 0.04128384 0.15490524 0.05582377 -0.21521576 0.01764194 -0.06401083 0.04682633 -0.10492737 0.11508372 0.06808025 0.0109169 0.0168274 -0.07780201 0.04584084 -0.02248613 -0.12917265 0.06587435 -0.00503353 0.00774505 -0.06297676 0.24073291 0.05824023 0.0992204 0.11454277 0.01103052 -0.03466168 0.00245767 -0.10117473 -0.00846196 0.05054422 -0.09039621 -0.08122014 0.00378593 -0.2643526 -0.19041254
agu-x-bible 0.03603644 -0.0293174 -0.12699878 0.01294553 -0.15926349 -0.0208922 -0.15015554 0.00744851 -0.11042645 -0.00850824 -0.0779447 0.05750472 -0.18300973 -0.11713654 -0.05422328 -0.18058546 0.04329444 -0.06965742 -0.05413761 0.06667659 0.08709367 0.04114446 -0.02690669 -0.00534887 0.07360836 0.1807056 -0.06442801 -0.21787158 -0.06306902 0.04849382 -0.14724286 0.10588256 -0.01638573 0.12173022 0.02982931 -0.0105051 0.04946718 0.05804909 0.00209557 -0.04070219 -0.0446622 -0.02426521 -0.06850827 -0.00429694 -0.11696112 -0.15040638 -0.12668683 0.03482109 -0.04782867 0.08204103 0.04973503 0.01275525 0.08282852 -0.03229103 -0.20703158 0.0562786 0.08106871 -0.10334466 0.00649585 0.00315783 0.0256221 -0.10507598 0.06058752 0.10064087 0.11961371 -0.04664586 -0.00526195 -0.08321238 -0.05240697 -0.03537107 -0.01231547 -0.0478305 0.20131572 0.21616082 -0.05889056 0.15396386 -0.03213259 0.07059205 0.02510694 -0.0776962 -0.12405085 0.05703046 -0.00358082 -0.01276174 0.05762597 -0.09319895 -0.10650687 0.1281652 0.01451149 -0.07325092 0.02504233 0.00654597 0.13445957 -0.02889659 -0.08711604 0.17215073 -0.04494076 0.06827478 -0.06113304 -0.1663207
agw-x-bible 0.10922357 0.05760123 0.06576784 -0.1408891 0.09457891 -0.00479351 0.07683038 0.00686578 0.08760464 0.12130155 0.05382484 -0.15469258 0.03349833 0.00154467 0.18475376 0.0919551 0.09727065 0.08518966 0.08001698 -0.050584 0.01770232 0.10534356 -0.06980068 -0.09025127 -0.0888316 -0.06961238 -0.09301656 0.2267294 -0.00548784 -0.08202529 0.15587614 0.05829297 -0.06320304 -0.20535703 0.02646757 -0.02203522 -0.03321726 -0.0812281 0.0742726 0.19106773 0.00145425 -0.00101858 0.08556418 0.12865074 0.17674999 0.04887536 0.09691664 -0.13922599 0.06694961 -0.14200413 -0.01764108 -0.05845411 -0.04170429 -0.06694786 0.22643298 -0.02801267 -0.04620153 0.01795722 -0.05054966 -0.09244249 -0.05312107 0.14297506 -0.08154418 0.02801687 0.04829303 0.01161431 -0.09304184 -0.04619532 -0.04217814 0.08107579 0.00162071 0.12571448 -0.130226 -0.17970063 -0.05735405 -0.21678707 -0.00360867 0.04746719 -0.0988806 0.09197916 0.11422057 -0.02260939 -0.03731326 0.15673912 -0.00172467 0.01337136 -0.01774431 -0.06803714 0.09423478 0.1362698 0.03206305 -0.01078825 -0.09274605 -0.0095961 -0.07697356 -0.09200114 0.16236183 -0.03235143 -0.00478409 0.22755995
ahk-x-bible 0.03251758 0.12316769 -0.07594149 0.01223798 0.01212603 0.07433532 0.02975723 -0.06038967 -0.02641789 -0.05577928 0.31262654 -0.23870449 0.24139239 0.25562832 0.27812186 0.35470098 -0.04969581 0.03019118 0.11910922 -0.24385554 -0.1734211 -0.0470292 0.03423068 0.12146382 0.02626734 -0.10063719 0.00740953 -0.14176051 0.06888508 -0.16526662 0.01060422 -0.1761761 0.09979644 0.08275631 -0.13257268 0.1730082 0.09490003 0.27522764 -0.10796154 -0.09616593 -0.01539515 0.0220809 0.05042276 0.08752491 0.08917356 -0.19414595 0.00300244 -0.10674708 -0.10860129 -0.04788733 0.02053009 -0.13213658 -0.28457928 0.12714118 0.31711993 -0.2657552 -0.33181128 -0.04293048 -0.01101127 -0.13265726 0.12586638 -0.18891859 -0.14209977 0.04737674 -0.17256029 -0.15337133 -0.05935855 -0.01016389 0.06943275 -0.11171339 0.13295306 -0.17600846 -0.05700383 -0.14490348 -0.02098081 -0.14312063 0.25912184 -0.02030659 0.22134677 0.20965122 0.09406195 -0.22211729 0.18860686 -0.01815595 -0.04662289 0.07350331 0.07054249 -0.42967883 0.04237612 0.01442569 0.02073191 0.01866873 -0.06512179 -0.00983517 0.0822743 0.2205843 0.33232847 -0.11816269 0.069636 0.02391959
aia-x-bible 3.25872153e-02 6.98053166e-02 3.11219931e-01 3.12437080e-02 -2.99777742e-02 -2.39174273e-02 3.48146781e-02 -2.90824137e-05 9.13585499e-02 1.38019904e-01 6.33803010e-02 -1.08596079e-01 8.46783370e-02 1.53945595e-01 8.01901221e-02 1.10723227e-01 3.26896571e-02 1.53815523e-01 1.23429492e-01 9.45740044e-02 -1.13432538e-02 1.48960456e-01 -1.41210452e-01 1.34695962e-01 -4.90740389e-02 -1.16853051e-01 -5.94717115e-02 9.11267996e-02 2.51378659e-02 -4.22602780e-02 1.23359546e-01 -3.49132940e-02 -3.52396518e-02 -1.08187087e-01 -7.06792995e-02 -1.88853607e-01 -9.19455290e-03 2.33429000e-02 1.19486198e-01 1.27089500e-01 7.87028298e-02 7.62705281e-02 1.19416654e-01 2.36816406e-01 3.37588936e-02 2.32191198e-02 1.53003037e-01 -7.60039091e-02 1.15864955e-01 -2.05977768e-01 -8.41316506e-02 -6.75557777e-02 -1.71047837e-01 1.97217658e-01 1.35224581e-01 -1.54912099e-02 9.35982242e-02 1.36953034e-02 -2.62884907e-02 -6.53127432e-02 -2.13080734e-01 3.63750681e-02 -8.66536200e-02 -6.28603175e-02 -9.80034694e-02 1.06835037e-01 -8.98772553e-02 1.62053260e-03 1.01660356e-01 4.33288664e-02 -1.10123418e-01 1.43725928e-02 1.35279205e-02 -1.99591935e-01 -2.82003637e-02 -1.75209045e-01 -6.87656850e-02 1.35520557e-02 -1.94635242e-01 1.08976895e-02 1.20766424e-01 -7.94902816e-02 -7.86952451e-02 9.95447859e-02 -1.33124096e-02 -3.48914415e-02 3.13233212e-02 -1.49508622e-02 -1.72893688e-01 5.44518642e-02 -4.94858660e-02 1.70334149e-02 -8.86800885e-03 5.87723963e-02 -3.49288248e-02 -5.71212173e-02 1.53947800e-01 1.66698941e-03 3.89912017e-02 1.83945507e-01
aii-x-bible 2.23992050e-01 -6.82795942e-02 -7.60680586e-02 1.06221318e-01 -1.55931115e-01 -1.19570993e-01 -4.85190935e-03 2.17082692e-04 -1.14349172e-01 -1.48334950e-01 -1.71683922e-01 3.73733282e-01 -1.97111696e-01 -3.60982001e-01 -1.37413487e-01 -2.18668923e-01 -2.25379944e-01 -2.44177617e-02 -8.92104506e-02 6.81209713e-02 -2.73618121e-02 4.25177254e-02 -1.88174825e-02 2.15168431e-01 2.06440240e-02 8.20924900e-03 2.62672221e-03 4.43118699e-02 -2.01331854e-01 6.08655401e-02 -1.14546448e-01 -7.30264559e-02 -2.27972399e-02 -1.01633444e-02 -4.92695672e-03 -5.97364735e-03 -3.16676646e-02 2.64299642e-02 -1.06961802e-02 3.79314367e-03 7.06246421e-02 6.55225739e-02 -1.47147793e-02 7.84507245e-02 -1.58801978e-03 8.55416283e-02 -1.28001958e-01 2.56450716e-02 1.50504276e-01 -1.16228615e-03 -2.64272783e-02 -7.06056058e-02 4.47946116e-02 -8.07772130e-02 -4.67677154e-02 1.10159956e-01 9.96035431e-03 7.28436336e-02 1.11484870e-01 -9.07211006e-02 -5.86320497e-02 -7.38786310e-02 8.07249546e-02 6.44946322e-02 4.48383465e-02 8.99902061e-02 7.71742165e-02 2.53931638e-02 7.35583305e-02 1.14462420e-01 -1.73343107e-01 1.29171163e-01 8.56577978e-02 4.24602106e-02 7.71302655e-02 1.48692980e-01 -7.99740385e-03 -5.11543006e-02 -1.06200710e-01 -1.20218761e-01 -8.94707963e-02 3.64625491e-02 -1.38814941e-01 -1.16420068e-01 -1.97888091e-02 6.19695112e-02 3.77065241e-02 2.71065146e-01 9.93959084e-02 1.41707897e-01 -5.72713725e-02 8.05250481e-02 1.92085225e-02 1.30347565e-01 3.19892094e-02 -2.00416632e-02 -1.85089886e-01 -1.98622309e-02 -2.73078084e-01 -2.17336804e-01
aim-x-bible 0.12100624 0.077636 0.13578424 -0.04017119 -0.02073941 -0.14213546 0.02287073 0.15857714 -0.00300869 -0.0238678 -0.02422082 0.16352183 -0.19060504 0.01789536 -0.05266054 0.04101385 -0.0567732 0.1615159 -0.17031005 0.11784577 0.16354185 -0.02654925 -0.09628455 0.06010126 -0.08566682 0.04299457 -0.09439696 0.07482811 -0.06088248 0.07381305 -0.0822354 -0.0821153 0.02684754 0.0041432 0.04987464 -0.03360799 -0.19102786 0.04411818 -0.00999211 0.01477387 0.08511952 0.02071842 -0.10984395 -0.05620765 -0.04932849 -0.00293892 0.0106373 -0.00281202 0.07032123 -0.03778984 -0.0234342 -0.00805161 0.05553753 -0.00418004 -0.08810674 0.05070283 -0.09975958 -0.05043487 0.08749773 0.02513014 -0.03767481 -0.0063401 -0.04164035 0.10288263 -0.03744981 -0.03100031 -0.10456708 0.01476536 0.04101803 0.06436495 -0.12754028 0.00945422 0.08062503 -0.04457493 -0.02580693 0.03072756 -0.05154158 -0.0058387 -0.04465917 0.0315158 -0.09891286 -0.02506923 -0.04289636 -0.05432874 0.11039044 0.08298648 -0.01710733 0.14192417 0.06064104 -0.05779461 0.07611401 0.14530434 0.05115899 -0.04502185 0.14088099 -0.07279512 -0.02959546 0.06831554 -0.17084649 0.030202
aji-x-bible 0.10886982 0.12852226 0.09346151 -0.08088215 0.10512954 -0.06572738 0.07613194 -0.1597528 -0.09821086 -0.01686414 0.17084406 -0.15216538 0.22717476 0.10390166 0.09734141 0.16748247 -0.0760118 0.01294747 0.13776721 0.09547754 -0.12211963 0.05278637 -0.04366256 -0.055564 -0.23690905 -0.22906019 -0.19842511 0.09119156 -0.17255752 -0.10305563 0.14482059 -0.01808796 0.10040323 -0.23454791 0.01639014 0.09022378 0.08755036 0.100806 0.00703598 0.03498194 0.15740396 0.14465019 -0.02207452 0.21862142 0.09219794 -0.08496825 -0.1067741 -0.21829602 -0.19129173 -0.20712532 -0.23122753 0.08702903 0.01274867 0.05420122 0.12365598 -0.11828343 0.03145261 0.04336388 0.10856991 -0.07104594 0.01147122 0.23328207 -0.21671084 0.01975636 0.05404515 -0.12057873 -0.1002896 -0.05106609 0.14245465 -0.00902566 -0.13618226 -0.16532047 -0.16169347 -0.11284529 -0.14219323 -0.03289403 -0.0518596 0.02644146 -0.01980315 0.02237039 0.14257604 -0.06795905 0.11374823 0.11689176 -0.11283639 -0.20484509 -0.03133505 -0.14853184 -0.17001337 0.10916997 -0.06335136 -0.05940689 -0.00467308 0.10561716 -0.1136549 -0.04692198 0.05312889 0.14815758 0.2884829 0.18109861
ajz-x-bible 0.06285501 -0.00763372 -0.05695013 -0.09260768 -0.04924044 -0.00887475 0.01787695 0.11780091 -0.09099855 -0.06138636 0.11514266 0.02472543 -0.05664464 0.10619058 -0.14041148 0.10084829 0.14430553 0.00130838 -0.05039279 0.0916445 -0.05146571 0.072347 0.13779359 -0.08636179 0.06581847 0.07477125 -0.03936928 -0.08213513 0.11476295 -0.04670606 -0.01706175 0.09539806 -0.00112177 0.04377505 0.09673537 0.02253845 0.05089676 0.08764517 0.08287735 -0.0933449 -0.05453496 -0.01437171 -0.0756107 0.06103198 0.00891347 -0.02671963 -0.01496701 0.141318 0.02533962 -0.05485491 -0.00202805 0.01200742 -0.04111039 -0.1230833 -0.11253322 -0.05093468 0.1209194 0.03354083 -0.03599473 -0.00441213 -0.08183492 -0.07194123 -0.11173185 -0.13661225 0.16183038 -0.04809796 -0.08097321 0.01034931 -0.07094209 -0.00738716 -0.0343361 -0.07318524 0.11185548 0.05520239 -0.02895554 0.1226883 0.11781635 -0.12799251 0.26292756 0.02996771 0.06409927 0.13153017 -0.13012727 -0.10111406 0.04450092 -0.03663678 0.09406564 0.00804605 -0.14299019 0.02702618 0.02763883 -0.07331277 0.08867168 -0.01502826 0.08749567 -0.03947401 0.00686734 0.05541768 0.07750603 0.01974654
akb-x-bible 4.7651377e-02 -5.4213982e-02 -9.4716828e-03 8.6300060e-02 -2.7228082e-02 -1.2012851e-01 1.3419665e-02 1.1264404e-01 1.9362207e-01 8.9507714e-02 -2.8427716e-02 1.6740192e-02 9.8269880e-03 -8.2794771e-02 -5.0427094e-03 -6.2028352e-02 -9.9319436e-02 4.5377765e-02 -5.6311991e-02 4.7060411e-02 7.2757810e-02 -1.2115607e-02 -4.1828426e-03 -5.1644389e-02 -7.4769534e-02 3.6068644e-02 7.7373870e-03 3.4556828e-02 -3.7460873e-04 5.3127548e-03 7.5234249e-02 1.8333448e-02 -9.0111844e-02 -5.4674745e-02 -4.4778354e-02 -2.0357637e-01 -1.8246954e-02 -3.1924609e-02 -4.1369610e-02 9.8174058e-02 6.7263067e-02 -6.6655234e-02 3.0065643e-02 -1.7068811e-03 1.0587657e-01 2.5553625e-02 8.2606867e-02 5.9775528e-02 1.6782570e-01 7.8359313e-02 1.6840804e-02 -9.5994500e-03 3.8884696e-02 1.2837899e-01 3.3887133e-02 1.2185162e-01 2.3847058e-02 2.0196950e-02 8.0191061e-02 2.1094786e-02 7.9646975e-02 2.0135280e-02 -6.1094603e-03 5.5830140e-02 -1.0021185e-02 -2.7348699e-02 4.5413766e-02 -5.5311145e-03 -6.0165584e-02 1.2828349e-01 1.2624010e-02 1.0844101e-01 3.7361581e-02 9.9813022e-02 8.8331707e-02 -1.3047366e-01 3.3482030e-02 7.9985939e-02 -1.4939241e-01 -6.4825860e-04 6.1415233e-02 8.9099132e-02 3.2630287e-02 1.1938630e-01 4.9077451e-02 5.1931944e-02 8.1420401e-03 -2.4956046e-02 3.0168707e-02 -5.6200001e-02 5.5945542e-02 3.6902916e-02 9.0049736e-02 -3.5361435e-02 5.2931674e-02 -1.8009758e-01 -3.4358069e-02 5.2308794e-02 -1.5224905e-01 2.0134639e-06
ake-x-bible 0.10169204 0.02184246 0.06278002 -0.09550543 -0.04525841 -0.04712417 0.00026602 0.03870998 -0.01263457 0.00413443 -0.0007889 0.23187676 -0.22558556 -0.11911398 -0.1426618 0.01495555 -0.03214404 0.09504609 0.00952932 -0.01367969 0.08391969 0.20314078 -0.15966241 -0.01105274 -0.09866023 -0.11899326 0.06678808 0.15636212 -0.04079639 -0.06171111 0.02961542 -0.03770656 -0.00804243 0.02135853 -0.03939539 0.06403609 -0.18948615 -0.03222933 -0.02876727 -0.01378704 0.04865901 0.03572045 -0.13678522 0.04324062 0.015136 -0.05419669 0.00913224 0.1426119 0.1435543 -0.18838358 -0.11289614 0.0113179 -0.03376659 -0.0601273 -0.1362798 0.066639 0.04026554 0.00897644 0.17572825 -0.01972408 -0.1530323 -0.00802589 -0.02258642 -0.08557399 0.00200695 0.01848528 0.02662879 -0.06062877 -0.00568017 0.08804693 0.0136396 -0.13226523 0.11687946 -0.08583364 -0.02490065 -0.00310943 -0.04552576 0.10726111 -0.01133404 -0.14606123 0.13973728 -0.02556306 -0.06139371 0.05338709 -0.0018032 0.11848494 -0.04496702 0.02251587 -0.19658405 0.07618861 0.0959342 0.07580049 0.07580418 0.13338777 0.04423463 -0.03060577 -0.11591315 0.07631793 -0.02391984 -0.03758461
akh-x-bible 1.33783802e-01 6.56225607e-02 1.08553218e-02 5.11729941e-02 -5.63644208e-02 -4.65075448e-02 6.18903786e-02 -6.56385794e-02 -9.44329649e-02 1.95951182e-02 -6.77960888e-02 -2.73945685e-02 -1.08188270e-02 1.02293812e-01 4.89808209e-02 4.65398878e-02 1.15587294e-01 -4.21085097e-02 2.26891115e-02 -4.01506238e-02 1.27016632e-02 -1.85264498e-02 3.89026925e-02 -5.46601191e-02 1.73673313e-02 -9.53356083e-03 7.52064958e-02 3.46264686e-04 1.80015013e-01 1.58345941e-02 -5.77734113e-02 5.87537251e-02 -3.22849229e-02 3.11322026e-02 -2.43644640e-02 1.63311198e-01 1.24919005e-01 1.37654066e-01 5.32499962e-02 -1.61773592e-01 -3.63480523e-02 1.46619380e-02 -6.47439510e-02 -1.23952128e-01 -4.53216545e-02 5.67512177e-02 1.23689950e-01 8.45846459e-02 -1.23203145e-02 1.18503839e-01 1.47146568e-01 -9.22139287e-02 2.42282375e-04 8.59733224e-02 1.36700561e-02 -1.60806745e-01 -1.15944035e-01 6.56812117e-02 -3.80298793e-02 2.76327841e-02 1.47023886e-01 4.28619534e-02 5.28690629e-02 -1.21230863e-01 -5.18992655e-02 1.25201270e-01 7.76743516e-02 -8.69445939e-05 -8.17012936e-02 -9.77689475e-02 1.27994746e-01 -5.05438671e-02 2.12083086e-02 3.49363908e-02 8.21232274e-02 5.31569682e-02 2.63868626e-02 3.31452452e-02 4.33541015e-02 1.49976471e-02 -2.39437651e-02 1.19256355e-01 2.50135157e-02 5.35621718e-02 -5.32477498e-02 3.17596570e-02 1.32844865e-01 -1.18469402e-01 -3.18071060e-02 -6.91465288e-02 1.91495270e-02 -1.29959285e-01 -5.92006221e-02 7.35596791e-02 3.64150032e-02 1.33079477e-03 1.27779037e-01 9.39330924e-03 -7.35673681e-02 -1.72556296e-01
ald-x-bible 0.04199197 0.0393871 -0.03523827 0.05977969 -0.00850855 -0.0160187 -0.1573008 -0.00817763 -0.15411179 -0.00202736 -0.03911107 0.11532486 -0.027833 -0.07419093 0.07370769 -0.09172458 -0.11368269 0.09281477 -0.14289282 0.13619035 -0.00723669 0.09005255 -0.05903297 -0.04246868 -0.13994761 0.00669629 -0.00164145 0.17914954 -0.13441671 0.05597571 0.0357676 -0.08676277 0.09921928 -0.21238256 0.07088019 -0.07025747 -0.12467777 0.03533724 -0.04085529 -0.02139323 0.06620897 0.0248729 -0.1341858 0.09245946 -0.07712682 0.10916296 -0.13909169 -0.02314711 0.00459333 -0.03518731 -0.16858034 -0.06238027 0.01799938 -0.14830507 -0.16747251 -0.01483145 -0.02001747 0.05196562 0.00360891 -0.08933337 -0.04845661 -0.16016679 -0.08334327 0.04975444 0.01355846 0.05424101 -0.08267902 -0.00193232 0.06039293 0.08682613 -0.02665008 -0.07553986 -0.04998573 0.01989671 -0.05083955 -0.00730107 0.07159309 -0.01385005 -0.00932949 -0.01921777 0.05903344 0.11414795 -0.07435117 -0.02905309 0.12626193 -0.02768981 0.00729378 0.12092212 -0.10052434 0.16824637 0.01946873 -0.02703285 -0.000338 0.15771009 0.02597353 -0.1802838 -0.22152531 -0.08616744 -0.07424991 0.00192399
alj-x-bible 0.01293118 -0.00316125 -0.18909742 -0.03410855 -0.18703493 -0.01730433 0.11987169 0.15309551 0.06849514 0.10165291 -0.10821872 0.12762171 -0.14362468 -0.1644233 -0.01850706 -0.01844208 -0.06685955 -0.03145374 -0.11907098 -0.03014521 0.09592558 -0.03712481 -0.0870126 -0.08307136 -0.00200624 0.07855953 -0.03232544 0.13634343 -0.00363148 -0.02858312 -0.02608232 -0.02073384 -0.12714203 -0.14235455 -0.1154821 -0.17270733 -0.01459804 -0.01168909 0.08529654 0.15279533 -0.00635322 0.05953978 0.09601268 -0.1054977 0.21966237 0.12007228 0.01045074 0.1051 0.08406657 -0.01447553 0.1557273 -0.0938261 -0.02358157 -0.06409751 -0.07801493 -0.00295683 0.07219769 0.07072968 0.05586411 0.02186224 0.00985149 0.01190592 0.1694713 -0.08059898 0.1137957 -0.02872731 0.05140663 0.1860596 -0.17988665 0.07970469 -0.11067458 0.20844628 -0.14984497 0.07049361 0.02860126 0.03383819 -0.01856682 0.02835986 -0.0347496 -0.04224288 -0.0700996 0.10390144 0.02839992 -0.02763478 -0.08306479 0.28404802 0.15306184 0.18467326 0.25482687 0.08632842 -0.09379309 -0.10482651 0.0619236 0.06612734 -0.00287119 0.02223969 -0.17993012 0.07316313 -0.04258469 0.02057089
aln-x-bible 0.03393476 -0.06140129 0.12953049 0.0739748 0.15116103 0.07596709 -0.01298488 -0.21332528 -0.03107673 -0.03749611 0.1541419 -0.26780447 0.11530713 0.22776496 0.01583952 0.13785212 0.08207387 -0.00394565 0.09790149 -0.06367451 -0.0388086 -0.15046126 0.0562369 0.01341666 0.17560998 -0.1256407 -0.0655939 -0.08091786 0.16509879 0.00446646 -0.15627179 0.11775675 0.04474322 0.13783427 -0.03999025 0.21129254 -0.00886071 0.11395551 -0.02011845 -0.12646994 -0.01456072 -0.10236114 0.0867077 -0.10272237 -0.15452594 -0.17942324 0.04090762 -0.05397535 -0.17218156 0.00692691 -0.02344291 0.0896776 0.02218913 0.01993893 0.1090894 -0.12520285 -0.06548132 0.05837394 -0.16014117 0.020861 0.02902866 -0.10305437 -0.05941387 0.05566273 -0.07505846 -0.05416707 -0.00110189 -0.09605153 0.12655398 -0.14871559 0.1823879 -0.28062147 0.00550773 -0.06773645 -0.03508607 -0.08422551 0.10455337 -0.00153404 0.07658857 0.10050121 0.14172484 0.05439356 0.05365387 0.00991125 0.0147114 -0.03912499 -0.15791662 -0.15529193 -0.14445232 -0.12875053 0.00290224 -0.007445 -0.13251224 -0.15394585 0.06675682 0.20267962 0.32103235 0.08312426 0.07623991 -0.06307344
aln-x-bible-newworld 1.11112297e-02 4.81712371e-02 1.84198126e-01 4.52382863e-02 1.86415628e-01 8.87354687e-02 -7.23625198e-02 -1.23975046e-01 8.23114365e-02 -4.23281938e-02 1.83282405e-01 -3.23085457e-01 8.69989842e-02 1.26310244e-01 1.76937729e-01 1.02417871e-01 1.04862846e-01 -4.88582700e-02 1.03327215e-01 -1.56108871e-01 -1.29230291e-01 -1.47912279e-01 3.76955234e-02 7.43388757e-02 5.38130663e-02 -1.62336275e-01 -3.67743149e-02 -3.38897994e-03 1.26329318e-01 5.18017486e-02 -6.18108921e-02 1.50746763e-01 -2.19389723e-04 1.05270594e-01 -1.36469826e-01 2.20037565e-01 1.55160934e-01 1.50266916e-01 -2.98246164e-02 -1.54158369e-01 3.80191132e-02 -9.18007046e-02 1.34084448e-01 -1.74003839e-02 -9.12059546e-02 -1.46910816e-01 -3.34309712e-02 -8.95081926e-03 -1.93260103e-01 -4.05788235e-02 4.36792485e-02 3.19045298e-02 1.31802857e-02 -4.03768942e-02 2.24024683e-01 -1.58514217e-01 -1.32584587e-01 -8.90148431e-02 2.05936972e-02 -6.79003000e-02 1.93020403e-01 1.25566006e-01 -3.59338559e-02 -2.97099650e-02 -2.53281921e-01 3.85786332e-02 -9.18698758e-02 -6.83750492e-03 2.26745419e-02 -2.86061645e-01 1.99746713e-01 -2.07094431e-01 -1.19601125e-02 -1.60806924e-02 -5.27889505e-02 -9.73159820e-02 9.28126276e-02 1.32659242e-01 1.77617893e-01 1.64044321e-01 7.34382719e-02 4.45667766e-02 1.33120269e-01 -5.04013635e-02 3.37002166e-02 -2.18549699e-01 -1.36725064e-02 -2.14977771e-01 -7.39687681e-02 -1.25017732e-01 -2.40116064e-02 -5.41040599e-02 3.33858132e-02 -1.21395871e-01 7.61153176e-02 8.48313347e-02 2.66263157e-01 -6.95004780e-03 1.88317657e-01 8.43894780e-02
alp-x-bible 0.16580084 0.03072022 0.08784582 -0.00052011 0.17810297 -0.02957092 -0.20544614 -0.17949039 -0.04229399 -0.12369932 0.15219788 0.0765514 0.02723758 -0.05966711 0.10079376 0.10500901 -0.01684093 0.0682232 0.10649202 0.02854527 0.08667809 0.17320523 -0.10097317 0.09657916 -0.19996847 -0.1743916 -0.21147288 0.22973384 -0.07327776 0.05335993 0.07275171 0.03990865 0.11148321 -0.1948735 0.14202099 0.10991214 0.15952457 -0.02645494 0.04528527 -0.02666897 0.14591424 0.0725123 -0.13197355 0.24184048 -0.11889017 -0.11849266 -0.19596443 -0.09136916 -0.11754316 -0.2591826 -0.27316153 0.10512894 -0.03353703 -0.18965207 0.07678744 0.03342924 0.04094637 0.09587991 0.11246466 -0.2246472 -0.03145639 0.01533019 -0.22688003 0.01223464 0.00588543 -0.15285756 0.02663902 -0.11016095 -0.02515482 0.06312819 -0.15393108 -0.2170218 0.03458081 -0.11611202 -0.19339155 0.03550082 -0.06934904 0.07436415 0.06974441 -0.1748568 0.14632064 -0.0091991 0.02414971 -0.02101004 0.05024881 -0.1949407 -0.12692839 -0.01811444 -0.19614893 0.0928413 0.01316888 0.02817285 -0.03517441 0.03123942 0.07760734 -0.20554578 -0.01895154 0.15432692 0.2614766 0.13223349
alq-x-bible 0.0388351 -0.05891569 0.04826239 -0.03790752 -0.03237893 0.03703508 -0.03386544 -0.04050018 -0.06348146 0.04769151 -0.11919991 -0.0578975 -0.15436023 -0.04656444 -0.06586748 0.0099763 0.11523823 0.10054296 0.02250781 0.10537613 0.05681887 -0.10683203 0.04774995 -0.05745506 -0.0815141 0.14916243 0.11365256 -0.09006966 0.09767845 -0.09085187 -0.05048506 0.19778061 -0.04058719 0.05394862 0.07198421 -0.15927204 -0.07387497 -0.16721058 -0.00354938 0.0344393 -0.07023537 -0.0549144 -0.04005288 0.02600127 -0.21320508 0.0207848 0.07307278 0.13862453 -0.0212521 0.03861282 0.00780161 -0.1038201 0.07206601 0.00862127 -0.07253374 0.01031408 -0.10880712 0.03101317 -0.05883798 0.12316836 0.02634 -0.09094775 0.09994514 -0.00970778 0.01223525 0.07558779 -0.18205713 -0.03904549 -0.0927982 -0.04380511 0.1256457 0.05586763 0.02273406 0.13529778 -0.05676871 -0.08602142 0.02119055 -0.03247859 0.03633867 -0.08018135 0.14219114 0.07516115 0.00023703 0.01030137 -0.02515606 -0.04363781 -0.04252926 -0.11244934 -0.00963639 -0.09671365 0.12964119 0.02274379 0.06419419 -0.07650991 -0.01487209 0.0184285 0.13745369 -0.02985954 0.04025529 -0.04120434
alt-x-bible 0.05739427 -0.17322934 0.12841871 -0.03699578 0.16129795 -0.02445952 -0.01842099 -0.03192405 0.07432471 -0.00109449 -0.11558501 0.00438976 0.06200238 -0.11167487 -0.00684657 0.0477079 -0.07611708 -0.10828071 0.06819752 -0.07322071 -0.17879578 -0.2205831 0.00573339 0.01151014 0.11963078 0.16503096 0.08156545 -0.03975916 0.05692872 0.1879928 -0.04817693 0.11962204 0.02969861 0.02884798 -0.12322867 0.03222601 -0.04051722 0.09065484 0.06910721 0.01060106 0.07601423 -0.09600955 -0.07988042 -0.0062453 0.02514055 -0.1711829 -0.13468248 0.04500032 -0.12467653 -0.04064528 -0.1152053 0.00712928 0.0744741 -0.0570007 0.1182756 0.08664384 -0.09019745 -0.06139088 0.024383 0.04074271 -0.02212428 0.03699617 0.04556414 0.12298647 -0.08750483 -0.06066315 -0.0148806 -0.06780669 -0.03500961 0.07715519 -0.04009992 0.01755421 0.15256993 -0.07681688 -0.03991083 -0.00220076 0.13221109 0.04310057 -0.11482741 0.06285465 -0.0525763 0.01991089 0.13578248 -0.05350889 -0.14686134 0.00696056 -0.11934349 -0.02401751 -0.0095482 0.11170729 -0.07686467 0.13664518 -0.0748437 -0.30773863 0.05365517 0.1580476 0.11384095 0.01847602 -0.05423279 -0.12761901
alt-x-bible-southern 0.18248266 -0.26936325 0.05934948 0.11813361 0.08309876 0.09348794 -0.00323147 -0.14506246 0.10492796 -0.08120275 -0.101883 0.03729374 0.07867181 -0.13236038 0.09960213 0.03397668 0.02365424 -0.05685551 -0.05198584 -0.08751642 -0.19071981 -0.24246699 -0.10492482 0.04810198 0.04105679 0.11006837 0.02895975 -0.08214083 -0.09908363 0.17480339 0.10405251 0.12458657 0.06799848 0.17250358 0.0045246 0.06855647 0.03959187 0.00879613 -0.09355297 0.01452114 0.13199796 -0.10671303 -0.0304444 -0.04772023 -0.05078276 -0.05136495 -0.16096134 0.12734617 -0.04354631 0.08242434 0.0060665 0.01176118 0.00803019 -0.02818004 0.19595402 -0.05158699 -0.07323209 0.02852481 0.01125475 -0.06960086 0.12113201 0.06065583 -0.03151133 0.02108032 0.03225823 -0.1314427 -0.06293421 0.10207471 0.01848856 0.01721639 -0.02935769 0.00929929 -0.03505074 0.08474176 -0.08616309 -0.09991869 0.02407379 0.05432112 -0.25894898 -0.03248594 0.00325659 -0.0496422 0.11036447 0.06377449 0.00222112 -0.00672953 -0.08878646 -0.09696784 0.0521731 -0.06327803 -0.10909807 0.09694126 -0.03844313 -0.31269285 0.00998117 0.12986825 0.09558465 -0.01920879 0.01019421 -0.06993141
alz-x-bible 0.04119001 0.01042039 0.12335762 0.05621531 -0.02268721 -0.03409246 -0.07750787 0.00501681 0.00809233 -0.07608981 0.06332117 0.09729688 -0.12067243 -0.16920578 -0.02961711 -0.03516541 -0.05575816 -0.04485575 0.02689807 0.1101364 -0.02074917 -0.05907959 -0.02797895 -0.02027515 -0.1913419 -0.03885954 -0.11776025 0.03068283 -0.03144472 0.09104217 -0.02764141 0.10469826 0.02069329 -0.14721721 0.05740336 0.01726717 0.13646026 -0.08911209 0.14217539 -0.04162148 0.00019501 0.14893714 -0.10024594 0.09225725 -0.04833906 -0.05271627 -0.1575168 -0.07668122 0.05642172 -0.12072938 -0.08923013 -0.06458423 0.00142678 -0.13673401 0.04886 -0.08161674 0.1083068 -0.10580791 0.14743868 0.00561603 0.08681723 0.02639317 -0.04441825 -0.06181722 0.12456436 -0.059273 0.02712598 -0.05015558 0.09285822 0.03401073 -0.04719188 0.02310628 -0.06068572 -0.03882618 -0.03399242 0.07668345 -0.05088118 0.04080113 -0.00209671 0.00517513 -0.08958065 0.05268108 -0.10679658 -0.03054303 0.01383026 0.00193713 0.03997874 0.04378021 -0.1203698 0.11883861 -0.03871021 -0.0681401 -0.02672302 0.07298183 0.0039134 -0.16881458 0.022591 -0.06427724 0.0688602 0.02440176
ame-x-bible 1.70828894e-01 -3.87062095e-02 -3.18454243e-02 -1.45988494e-01 2.21987329e-02 -1.97282117e-02 3.88590582e-02 -1.03515327e-01 -1.09691776e-01 9.09635201e-02 -1.06450766e-01 3.43308449e-02 8.02451000e-02 -2.57472005e-02 -1.07132606e-01 4.40709554e-02 -9.35586691e-02 4.69678752e-02 3.25847380e-02 -1.19363993e-01 -1.66423306e-01 -4.10964200e-03 3.15383449e-02 -5.20862155e-02 2.87238099e-02 -6.07563779e-02 -1.42666891e-01 -6.58843666e-02 -1.40557066e-01 8.08569938e-02 2.96726171e-02 7.26617919e-03 7.32995011e-03 -5.91587760e-02 4.95388992e-02 -8.92189965e-02 -2.15288132e-01 1.24107152e-01 -1.13254990e-02 1.76420435e-01 7.35446140e-02 2.11364143e-02 7.15304688e-02 3.32713351e-02 2.55186483e-02 4.41014841e-02 1.19363666e-02 -4.14193012e-02 -8.30439329e-02 -4.27564234e-02 1.33915409e-01 1.81623045e-02 8.49669501e-02 2.40780301e-02 -3.77145410e-02 -3.91825922e-02 4.61284183e-02 9.56052095e-02 -1.44813501e-04 2.47340109e-02 5.88655379e-03 -4.68911529e-02 1.23747580e-01 -7.15762749e-02 -2.61216201e-02 1.14854120e-01 -6.39931485e-02 -1.52879164e-01 3.91458347e-02 -1.92461267e-01 -3.12698744e-02 -1.45556360e-01 -9.11066756e-02 4.03475799e-02 -9.56540555e-03 3.52076478e-02 -3.67274694e-02 -1.71705455e-01 1.97395220e-01 8.66235197e-02 6.60580024e-03 -6.19613528e-02 -5.91539666e-02 -2.03302950e-01 1.49153814e-01 -3.84650826e-02 -2.38153785e-02 3.81696112e-02 4.78627980e-02 1.49334982e-01 -1.94375794e-02 1.45364821e-01 -1.48541451e-01 -7.63726830e-02 -2.53321286e-02 -8.54796991e-02 8.14948902e-02 1.25514045e-01 7.16589093e-02 -4.81270254e-02
amf-x-bible 0.1599792 -0.1651819 0.00521522 -0.08194578 0.12989162 -0.06146605 -0.03493601 -0.07721519 0.13213326 0.00235347 -0.14010869 -0.03140582 0.20376882 0.1246741 0.08174518 0.01732656 0.00194356 -0.11632044 -0.04940742 0.02377427 -0.05934277 0.023616 -0.08436758 0.12100377 0.05344428 -0.04585724 -0.18108812 -0.09180237 0.00029612 0.17352267 0.05808282 -0.03153999 -0.08520184 -0.06732812 -0.12289209 0.06060473 -0.07240098 0.1939507 -0.13771155 0.07792556 0.02003647 0.06501947 0.00650513 -0.02986299 0.1180854 -0.09107928 0.01529496 0.00825296 -0.05258749 0.02660513 -0.01650269 0.04355597 -0.06349006 0.05433505 0.03030815 0.00142665 -0.02069779 0.0394677 -0.05184651 -0.06270821 -0.03687214 -0.02686284 0.02166646 0.02130778 -0.03955343 0.12250707 -0.0256074 -0.09652658 0.08744244 -0.16766602 -0.13196355 0.01379842 -0.05454438 0.02180438 -0.03717735 -0.1445633 0.03245181 -0.03627196 0.08162463 0.13292453 0.12966979 -0.18863432 0.1491433 -0.0304132 -0.04229647 -0.06049354 0.0136621 -0.04221551 0.09873339 0.0436118 -0.03447146 0.02292783 -0.15771976 -0.11812268 -0.21447624 0.04088524 0.19233623 0.11830614 0.07710963 0.02345312
amh-x-bible 0.3171655 0.05725146 -0.02992673 -0.21151789 -0.07132691 -0.07545965 -0.11821272 -0.09375016 -0.08135193 -0.02483847 0.02092124 0.0587137 0.23582228 0.00143207 0.19674604 -0.00692653 -0.07863699 0.07869784 0.02107098 0.00838656 0.18408428 0.30909964 -0.02559854 0.07673082 -0.03486842 -0.19299343 -0.20770262 0.02406284 -0.17619373 -0.12526725 0.11174601 -0.25904492 0.04103665 -0.25862005 0.0068112 0.05983496 0.01039353 0.1168473 0.03362483 0.02138549 -0.07460494 0.09176246 0.02040299 0.1027073 0.09725086 0.12613337 -0.08982196 -0.27693155 -0.07208344 0.06966121 -0.10477906 0.10026547 -0.02714481 0.04424771 -0.00199332 0.12304507 0.21132927 0.04181551 0.15853715 -0.15956786 0.01629947 -0.15290152 0.00579917 0.00396725 0.00299541 0.22918585 0.14804564 -0.10172959 0.12639275 -0.0836559 -0.06974896 -0.1951837 -0.12886432 0.00147541 0.01477187 -0.03410019 -0.14465344 -0.2288904 0.02283911 -0.07377274 -0.0173568 -0.1803622 -0.11791389 -0.10659763 0.00437458 -0.17944646 0.01712096 0.03180798 0.08024232 0.22044127 -0.02527665 0.01218357 -0.03954097 0.30030894 -0.16443427 -0.2570578 -0.12652846 0.06660169 0.00814758 0.08984658
amh-x-bible-latin 0.12446219 -0.04237511 -0.17487283 0.00553606 -0.2412552 -0.06974225 0.03879292 0.0191262 0.09543797 -0.06581601 -0.01004186 0.24357595 -0.09679052 -0.03562847 -0.01062933 -0.05859307 -0.0903738 -0.09145734 -0.1261615 0.04859853 0.09261288 -0.03575188 -0.00902378 0.22097872 0.12058314 0.02966962 0.07288704 -0.12169205 0.0362005 0.02968854 0.00761207 -0.1489561 -0.06567971 0.14707728 -0.08985487 -0.24178314 -0.12250245 0.169146 -0.02933318 0.01947164 -0.1197141 -0.02672032 0.01906062 -0.1642903 -0.08734415 -0.09487329 0.00428897 0.01882939 0.0098365 0.13661562 -0.07049308 -0.1632324 -0.13400441 0.11010022 0.07283551 0.09611308 0.01110621 0.12010124 -0.06276239 0.09984417 -0.02963954 -0.2131132 0.14722627 0.03439501 0.03114444 0.15676266 0.06238946 -0.09169651 -0.03132046 -0.08023121 -0.14941834 -0.07525083 0.14934173 0.12663211 0.06284349 0.03522139 -0.0943541 -0.10922015 0.07461617 -0.02090079 -0.08198044 -0.04216498 0.03805364 -0.16555324 0.09683628 0.09192699 0.01811105 0.15517984 0.13181575 0.14833757 -0.12705864 0.1855846 0.11595976 -0.09715939 -0.04086255 0.0686559 -0.14648683 -0.09407193 -0.28168252 -0.05805268
amh-x-bible-newworld 1.65686771e-01 1.01566270e-01 -1.17864013e-01 -6.43784702e-02 -4.47158739e-02 -1.54676810e-01 -1.79711699e-01 -1.13146029e-01 -9.61384252e-02 -2.28558388e-02 8.07676185e-03 8.09433237e-02 1.34291455e-01 -1.20807718e-02 1.37742624e-01 -8.18550214e-02 -8.44168514e-02 7.49297887e-02 -7.23500699e-02 4.11230652e-03 1.57570302e-01 2.64633983e-01 -3.10640037e-02 -1.06308550e-01 -1.51463509e-01 -2.51337379e-01 -1.05263241e-01 1.21399954e-01 -1.41147986e-01 2.45703384e-02 1.61450561e-02 -2.66550183e-01 1.52282789e-02 -2.85303742e-01 1.72290981e-01 -4.49966677e-02 -3.74128344e-03 1.14617139e-01 -7.65696960e-03 4.57928404e-02 3.61843854e-02 4.69269268e-02 3.79252397e-02 7.38010630e-02 -1.27348788e-02 2.99067684e-02 -1.14266630e-02 -1.87704191e-01 4.63267267e-02 3.34966481e-02 6.71116356e-03 1.25290856e-01 -5.32997362e-02 5.47721498e-02 -5.32008633e-02 1.15954280e-02 1.37993604e-01 1.72883086e-02 -1.80268120e-02 -7.81260878e-02 -8.94938246e-04 -2.80315652e-02 -7.55785704e-02 -4.82743643e-02 5.16140424e-02 1.97715059e-01 -4.20101136e-02 -1.55400574e-01 4.19336259e-02 -1.98001731e-02 -1.68214202e-01 -1.52447894e-01 -3.23902741e-02 -5.00522293e-02 4.48879190e-02 -4.66192104e-02 -6.30026162e-02 -2.25759640e-01 7.28714541e-02 -2.39942018e-02 9.73260999e-02 -2.15090722e-01 2.04224419e-02 -6.52583549e-05 3.27622443e-02 -1.76759467e-01 5.99382371e-02 1.36311948e-01 6.60213009e-02 1.56225100e-01 9.98409092e-03 4.88531291e-02 -6.94191158e-02 1.84113130e-01 -1.73235446e-01 -3.13809097e-01 -4.82455492e-02 1.55162424e-01 -7.34264255e-02 -6.00681454e-02
amk-x-bible 0.10936747 0.06373271 0.04511562 -0.04072381 -0.00397451 -0.01219769 -0.0602258 0.12760548 0.00320711 -0.00947253 0.1376049 0.05721661 0.005611 0.04696826 0.00607007 0.1009711 -0.03167386 0.08775917 -0.01786742 -0.05831466 0.03017915 0.04598775 -0.02846446 -0.0850592 -0.06545424 -0.12039587 0.03867986 0.11046827 -0.00240874 -0.06136016 0.05546511 -0.03597919 0.06920147 -0.20450312 0.11502129 -0.03934797 -0.11088436 -0.10197006 -0.01146889 0.10707787 -0.07516421 0.00483052 0.01262312 0.13853721 -0.02265269 0.07932074 0.12242663 -0.02595262 0.03122636 -0.16318147 -0.1159118 0.1465833 -0.10630225 -0.00906384 -0.14204788 0.02075474 0.03740148 -0.05712219 -0.07221723 -0.10633116 -0.17266399 0.13226552 -0.18678597 -0.10106968 -0.05410826 0.04411515 0.08943778 -0.03448872 0.03138138 -0.05973584 -0.11681052 -0.05738904 -0.05175656 0.01323651 0.10651091 -0.02160625 -0.07095145 -0.09320045 0.0828457 -0.00850872 0.16756284 -0.05973706 -0.10123249 0.02140925 0.02907657 -0.10565495 0.05672509 0.00678406 -0.07095686 0.06112207 0.07396375 -0.07835182 -0.0493023 0.01463323 -0.04517131 -0.19332889 0.00930343 -0.04661946 0.09152576 0.23694758
amm-x-bible 0.05609745 0.27302444 -0.05679289 -0.11662787 0.0806118 0.01963701 0.00556957 0.2065666 0.00273874 0.24271265 0.1599912 -0.17166637 -0.07005861 0.1701989 -0.13673832 0.27531722 0.14566794 0.03297215 0.14113808 -0.04286064 0.09727328 0.05629123 0.10063905 -0.19484466 -0.05916412 -0.06814035 0.01524282 0.16307646 -0.00284411 -0.16954091 0.09014146 0.08966207 0.0379554 -0.10595075 -0.05398431 0.08356418 0.15050635 -0.1838703 0.12963305 -0.0188226 0.1212403 0.10178999 0.06304282 0.03243541 0.07435825 0.07033035 0.14226052 0.01752724 0.11554812 -0.07832712 0.02775563 0.1235244 -0.06501581 0.04156187 -0.02468184 -0.11617649 0.04759641 -0.13825496 -0.04958791 0.01481759 -0.09226435 0.06193156 -0.02414832 -0.17771666 0.00784761 -0.13038494 -0.10600053 0.0695548 0.09501307 -0.07810403 0.06575923 0.11403099 -0.22360125 -0.187023 -0.0387972 0.01639494 -0.04053748 0.16914858 0.12404743 0.02476224 0.2466675 0.04520616 -0.14842744 0.17713654 -0.07495467 0.1016773 0.04855974 -0.03481849 -0.06152613 -0.00864149 0.15691906 -0.0689663 0.06106362 0.19197667 0.02407337 -0.06732187 0.12388251 -0.11329813 0.09950989 0.2653876
amn-x-bible 0.06715641 -0.0585544 -0.08473279 -0.03560545 0.0002631 0.0449372 0.03455817 0.03657541 0.0284353 -0.01050489 -0.00679309 -0.16581899 0.10831387 0.0123313 0.05962231 0.12368808 -0.05915975 -0.0466834 -0.06611918 -0.13012621 -0.08061138 0.03607048 -0.05767467 0.1175203 -0.03751584 0.03573903 -0.07245115 -0.01428502 0.08105304 -0.01374989 -0.0122274 -0.05162682 -0.00790617 -0.01391064 -0.05620184 -0.0663024 -0.06950258 0.07511172 0.01684593 0.11837471 -0.07623835 -0.12235912 0.03897384 -0.04121009 -0.04965459 0.10566115 0.07421593 0.12266929 -0.02523052 -0.007432 0.14609389 -0.1613037 -0.10552219 0.22605291 0.24447277 -0.10143806 0.00388355 0.04715037 -0.01879912 -0.02839362 -0.07512832 0.06196079 0.0526525 0.12127507 -0.0758359 0.06455447 0.06840372 0.10591708 -0.05312168 0.00397595 0.13119234 0.06278882 -0.05937875 -0.0204016 0.05015323 -0.09366291 0.11940855 -0.0269799 -0.03528611 -0.05315406 0.04010175 -0.0779185 0.06794155 0.12041637 -0.03411951 0.12064432 0.17149097 -0.11622627 0.04682245 0.06500752 0.01629043 -0.01448412 -0.11344864 -0.08486791 0.00671842 -0.11211842 0.10281698 0.00701571 -0.15563023 -0.01638052
amn-x-bible-naineri 0.09467778 0.10661978 -0.00574261 -0.00414979 -0.05101489 0.0800314 -0.01831052 -0.05751545 0.05616638 -0.01553002 -0.0782824 -0.03389662 0.10387688 0.06855907 0.02489473 0.05909618 -0.05369127 0.08056337 0.01388717 -0.03816811 0.00208131 -0.01352919 0.04270764 0.00105064 0.09530698 0.01004571 0.1098377 0.11375892 0.06354333 -0.09112482 0.11548814 -0.1621576 0.0153966 -0.034938 -0.11527091 0.12361174 -0.03041124 0.03455874 -0.07625066 0.0730898 0.04672753 -0.14713967 0.03664383 -0.14413577 0.00588228 0.0132013 0.13817868 0.02503704 0.0158058 -0.06894208 0.11108137 0.02703813 -0.05036433 0.17612281 0.12436289 0.0213194 -0.20103052 0.05747151 -0.09712441 -0.09417371 0.05616542 0.14145136 0.10875851 0.01938107 -0.23462076 0.07037723 -0.02843353 0.000237 0.0735606 -0.05638574 0.04466009 0.00201141 -0.02145574 -0.06258501 0.02027575 -0.11344562 0.09468581 0.05053443 0.07661722 0.0644007 -0.00121074 0.01950712 -0.0074692 0.06374109 0.03424061 0.0481681 0.13651344 -0.08390935 0.08712172 0.02777581 0.11857652 0.00263059 -0.0423938 -0.10908445 0.12256304 -0.04795641 0.03810672 0.01620632 -0.11430921 0.02243856
amp-x-bible 0.00539842 0.06176848 -0.03870322 -0.02927798 0.11383993 0.04761709 0.17609419 0.09293618 0.04668044 0.05572883 0.01552971 -0.09070559 -0.06839614 0.13772604 -0.01472605 0.09564945 -0.05097212 -0.12111203 -0.07803548 -0.12066416 -0.20472474 0.00709091 0.19529226 -0.04862994 0.01393474 0.08631863 0.04448928 0.05792565 0.14938737 -0.1377284 -0.0131096 -0.0210217 -0.14737163 0.13168755 -0.18123224 0.0724155 -0.06510784 0.18225367 -0.02185902 -0.028192 -0.03622106 -0.1096755 0.0457748 -0.14274618 0.10056651 0.09704764 0.0341556 0.00382373 0.04429144 -0.04081652 0.18530777 -0.02406486 -0.1012788 0.01842212 0.0878162 -0.0965197 -0.12895052 0.01171445 -0.05153189 -0.00727101 0.03130037 -0.04841865 0.05700479 0.00375028 -0.03834219 0.0704726 -0.01809215 0.01500822 -0.03634564 -0.09468468 0.17277578 -0.09996082 -0.03463488 -0.05382048 0.01323366 -0.09279736 0.10729278 0.03851824 0.18223722 0.10813812 -0.06734192 0.07365645 0.10470665 0.02575138 -0.0719615 0.14848591 0.0843349 -0.0697109 0.08328952 0.04720813 -0.05705211 -0.07806098 0.03560279 0.01251762 0.08630715 0.15554598 -0.01515684 -0.10047495 -0.00193401 0.04193458
amr-x-bible 0.0738942 -0.15882231 0.0733081 -0.0927152 0.15746215 0.02755481 -0.04861689 -0.16420867 -0.09789285 -0.0177348 0.01608774 0.13910036 -0.09593544 -0.01578339 -0.04515861 -0.08547659 0.08076333 0.02378048 -0.02490332 -0.02651264 -0.10239008 -0.09673407 -0.02154892 0.0367174 -0.01414021 0.09331491 -0.10719468 0.00475315 -0.14371696 0.05547069 0.10899694 0.04712839 0.01322324 -0.03099384 0.13216275 0.1159592 0.05613979 -0.11711376 0.11166331 0.07722586 0.10978959 0.04754497 -0.03186819 0.09561174 0.12362491 0.01139479 -0.13757946 -0.03299847 -0.11544988 0.01194547 -0.11463033 0.09789581 0.16596986 -0.12253053 0.02158016 0.10290897 0.05325576 0.01140762 -0.02229997 -0.0141947 -0.08442178 -0.01558407 0.05676193 0.05237508 -0.02052729 0.06249156 -0.16065387 -0.13541213 0.03185359 -0.01586555 -0.00423859 -0.04148369 -0.03416131 0.05220136 0.04281426 0.0169623 0.00595885 0.05236989 -0.09413233 0.01497552 0.13679846 -0.02394802 0.02270322 -0.11975794 -0.02614219 -0.18641229 -0.02444557 -0.17218547 0.03321846 -0.04648756 -0.13699219 0.05284253 -0.1952008 0.06786481 -0.06607293 0.01352923 0.0163092 0.02346109 0.06182065 0.00432085
amu-x-bible 0.02008124 0.0960196 -0.17952211 -0.07228728 -0.03619435 -0.0322504 -0.07841635 -0.0986298 -0.07676108 0.02885366 0.05672837 0.00505392 0.04347134 -0.04644284 0.0725521 -0.13640916 0.0615131 -0.00632976 0.01221935 0.11738025 0.04696679 0.02199626 0.10376116 -0.05648034 0.13364144 -0.00398359 0.01849455 -0.03617248 -0.06208382 -0.04321817 -0.1005174 0.00295117 0.09013995 0.09076058 0.11846577 0.02625609 -0.07816445 0.0691575 0.06103263 0.03982646 -0.02836471 -0.03978558 0.01118961 0.01923606 -0.11862125 0.08734524 -0.03245054 -0.1503669 -0.06918737 0.10967939 0.02088871 -0.01899943 0.04037824 -0.02676408 -0.10061873 0.09168438 0.14443652 0.11672123 -0.0262572 -0.00507491 0.01658563 0.01927691 0.08452408 -0.09015728 0.00027406 0.06964571 0.09262339 -0.10185274 0.0198258 -0.044281 -0.03071921 -0.11615831 -0.07897335 0.03162989 0.01533866 -0.02342264 -0.063492 -0.14594463 0.0225276 -0.08445966 -0.02926286 -0.10656341 -0.04085168 -0.08045781 0.02128587 -0.00473502 -0.01603454 0.11566601 -0.08167992 -0.11516296 -0.08191077 0.06100628 0.16660567 0.1013376 -0.05541895 -0.02923373 -0.10265335 0.01260755 -0.04880437 -0.03657871
ann-x-bible 0.07255201 0.18258429 -0.05925719 -0.0926593 0.08941445 -0.06329579 -0.01346801 0.01334174 -0.00026916 0.06011994 -0.03473312 0.10133612 -0.12294629 -0.08732621 -0.14623676 -0.04095009 0.01675312 0.01479485 -0.05921049 0.01370113 0.17356738 -0.0060712 -0.03854794 0.04711086 -0.1446065 0.04017977 0.05458764 0.12330389 -0.00770073 -0.07999229 -0.00839281 -0.01363621 0.02455612 -0.11875923 0.12744401 0.02616562 0.19866855 0.01961021 0.12011103 -0.01603155 0.01880856 0.0233466 0.01460825 0.13603456 -0.03703273 0.19490804 -0.0071601 0.00335766 0.07113943 0.01261299 -0.04191318 0.08021842 0.01502484 -0.02637435 -0.09131701 -0.06747916 0.10444544 0.04724585 0.18645814 -0.02866804 -0.08665671 0.00760573 0.07796946 -0.02355824 0.15425915 -0.14700985 -0.06283814 0.09262064 -0.02629721 0.1852693 -0.06811521 -0.00810285 -0.15783545 0.09909277 -0.08196799 0.04186313 0.04626409 -0.04872298 0.07862716 -0.03034008 -0.11041855 0.1351887 -0.07022739 -0.05242036 -0.00161879 0.09904059 -0.03221907 0.0512059 0.0873963 -0.04783542 0.01267861 -0.10927504 0.05214819 0.1388373 0.0172496 -0.20009375 -0.05259617 -0.06306171 -0.08773725 0.004407
anv-x-bible 0.16927306 -0.03167579 0.03343088 -0.08202654 0.03934865 -0.00922776 -0.05424045 -0.05738285 -0.08159874 0.02426107 -0.06819964 -0.06526607 0.02664786 -0.05361184 0.09369781 -0.04683654 0.01196738 -0.0148568 -0.03953388 0.09124722 -0.05929435 0.05599585 -0.09111263 -0.10244289 -0.16062209 0.0810299 -0.06837806 0.09337205 -0.09061574 -0.04713546 -0.0338742 0.09981015 -0.04540967 -0.1717022 0.04457035 0.02610134 0.16061193 -0.10178776 0.02630434 0.1261961 0.09516466 -0.03676099 0.05355678 0.00774573 0.03025885 -0.01766146 -0.0358215 -0.05250043 -0.09137625 -0.02322322 -0.08825957 0.02483797 -0.00614722 -0.04327788 -0.04403805 0.09145277 0.01144758 0.0112402 0.15417732 -0.00075796 0.01082707 0.12666391 -0.05457397 -0.05519634 0.14791876 -0.01214186 0.1469895 -0.0188774 -0.02683554 0.03684768 0.04161781 -0.03878019 -0.13989225 0.144293 0.01494173 0.03415439 -0.00878024 -0.03660755 0.03080463 -0.07950583 -0.04672744 0.00560964 0.00364628 0.08429968 -0.02765505 -0.02904128 -0.05640956 0.01758871 -0.01231791 0.08806979 -0.00488178 -0.06778658 -0.06343565 0.0494034 -0.09822686 -0.20649663 -0.01222923 -0.00628102 0.09111336 -0.08197881
aoj-x-bible-filifita 0.01559285 -0.02439508 -0.05939319 -0.1056548 -0.09683806 -0.135917 0.02469132 -0.04346196 0.01514966 0.00745744 -0.0401779 -0.11375657 0.0202888 -0.00129848 0.05474534 0.00451407 -0.06579358 -0.05135708 0.08803856 -0.15880199 0.01105906 0.06931175 -0.06698602 -0.03442274 0.1317432 -0.04556401 0.05127504 0.00604352 0.03986593 0.11207959 -0.02670556 -0.12339275 0.01157997 0.06116052 -0.00317895 -0.04100955 -0.02602303 -0.04760862 0.00682946 0.09126304 -0.11684248 0.05613488 0.06484383 -0.00390648 0.11851253 0.08672206 0.08217183 0.0522502 -0.0484869 0.09051479 0.08484878 -0.08560128 -0.14642905 0.06035817 0.18433337 0.05488463 0.00217141 -0.00054362 0.00372367 0.10758174 0.004014 -0.03282475 -0.04560945 -0.0686428 -0.16871876 0.11506855 0.12148412 -0.06037277 -0.06849069 -0.10789704 0.00822571 0.02700742 0.05158864 -0.03809932 0.15108919 -0.03864912 0.02951263 -0.11526695 0.03571195 0.00451731 0.05735623 -0.01802507 0.02769931 0.09468362 0.03683417 0.02198697 -0.01199918 0.02469 -0.08414267 0.08204117 0.03732441 0.07411668 0.06741778 0.07623173 -0.04285764 -0.00923868 -0.06518558 -0.12654735 -0.00853934 -0.0034713
aoj-x-bible-mufian 1.4691987e-02 7.3688932e-02 -6.6745795e-02 -4.6958722e-02 -7.9368763e-02 2.9522737e-02 8.1005529e-02 1.1651247e-02 1.1687258e-01 7.2815292e-02 2.7643899e-02 -4.7762528e-02 1.1663951e-01 -5.4368094e-02 1.0329480e-02 1.3760936e-01 1.2988525e-02 7.8078508e-02 3.1777754e-02 4.4617347e-02 -4.1619997e-02 4.9310438e-02 -2.3845445e-02 9.2107737e-03 -2.5759444e-02 3.2865677e-02 -6.0953945e-02 8.5558146e-03 -7.0202805e-02 -8.0647603e-02 -8.1396271e-03 -1.9510227e-01 8.0537135e-03 1.4926554e-02 -1.2989807e-01 6.7462595e-03 -1.7008911e-01 -1.1810760e-02 6.1059859e-02 5.3687256e-02 4.7756489e-02 3.4889136e-02 7.7243425e-02 -4.5663234e-02 5.8282353e-02 -4.4789925e-02 2.6278254e-02 3.6753882e-03 3.5067074e-02 6.7562982e-02 9.1570623e-02 4.6816699e-02 -3.9110892e-02 7.4888356e-02 1.1946962e-01 1.0083752e-02 5.3862009e-02 3.6198340e-02 1.4084061e-02 8.2506865e-02 -4.5338612e-02 4.4714082e-02 4.8172373e-02 -4.2740747e-02 -1.0512828e-02 8.8962808e-02 -3.5283461e-02 5.7231497e-02 -5.9107557e-02 -4.5131914e-02 -4.1439948e-03 3.6645681e-02 -1.6018128e-02 -4.4737734e-02 5.9064068e-02 1.7482398e-02 4.6729404e-03 2.3426516e-02 9.9232048e-02 -4.0832944e-02 1.9879192e-02 7.8210190e-02 -3.8366705e-02 -7.1314372e-02 -2.9419826e-02 1.2234770e-01 2.8747942e-02 -4.0022396e-02 -3.1544432e-02 1.9534694e-02 -5.0445937e-02 -3.9784659e-02 -3.0607865e-03 4.1636225e-02 1.9564833e-02 -3.7454654e-05 8.8052929e-04 -5.9597746e-02 -1.6867232e-02 -8.6414628e-03
aom-x-bible 7.13654608e-02 5.82428556e-03 1.20309867e-01 -1.35113046e-01 3.62117916e-01 -3.39597324e-03 -1.03736334e-01 3.54616018e-03 -1.27233654e-01 -5.07745408e-02 1.33815333e-01 1.31585747e-02 9.55769271e-02 1.55521363e-01 6.28152192e-02 4.40000705e-02 2.17783809e-01 1.08401909e-01 1.10978179e-01 1.09139733e-01 -1.33642584e-01 8.87606069e-02 6.87985048e-02 -1.62032530e-01 -5.91975413e-02 -1.18024774e-01 1.27306208e-01 1.75748065e-01 1.25988936e-02 -1.12902813e-01 1.21749423e-01 5.75487092e-02 9.56873745e-02 -1.16144925e-01 4.09123041e-02 1.56024709e-01 2.38054320e-02 -7.41600245e-02 8.17365106e-03 7.99150839e-02 7.58713409e-02 5.92878535e-02 -1.42770380e-01 2.72275329e-01 -1.53363207e-02 6.26158267e-02 6.69276789e-02 -3.10597956e-01 1.12566330e-01 -2.08354652e-01 -9.67837945e-02 1.39102578e-01 -2.20910050e-02 8.80066678e-02 -7.24055991e-02 -1.33260861e-01 8.97542164e-02 -1.12155899e-02 1.37766674e-01 -1.14235133e-01 6.35582507e-02 -6.48817373e-03 -2.39914551e-01 -1.59713030e-01 -1.23923764e-01 5.19789420e-02 -7.28167268e-03 -9.77394879e-02 1.92383215e-01 -1.02055646e-01 5.36259264e-02 -8.85379687e-02 -1.26517802e-01 -2.05812380e-01 9.56151187e-02 -5.95175698e-02 8.04899260e-02 -7.07964832e-03 1.39475971e-01 1.75538659e-01 -2.16691904e-02 1.87191200e-02 -2.49089003e-02 2.61898655e-02 8.58021155e-02 -2.28571028e-01 -1.92618206e-01 -2.31764704e-01 -1.48117229e-01 1.92369968e-02 5.95489666e-02 7.17556700e-02 4.94768098e-02 9.23908204e-02 -3.65377851e-02 2.83801492e-04 -1.92484781e-02 -3.14541869e-02 1.98016599e-01 2.90112197e-01
aon-x-bible 0.0503807 -0.06594129 -0.04823357 0.01312371 0.11586335 0.02759349 0.05238304 0.04217815 -0.05218963 -0.02435263 0.02918679 0.19121762 -0.11202996 -0.15308109 0.00836669 0.10698847 0.01335391 0.03790966 -0.07512249 -0.08283196 -0.01191048 -0.02577134 -0.03246978 0.08177996 0.00424654 0.11832113 -0.00496809 -0.00580486 -0.08416791 0.00841267 -0.0297949 0.1336769 -0.04184765 0.06439189 -0.04881261 0.03517463 -0.16182461 0.10405119 0.07993437 -0.0790543 0.10638031 0.07549592 -0.11441087 -0.09789764 -0.04438043 0.01818772 -0.02513844 0.12052291 -0.03448684 -0.06387292 -0.05740413 0.04330625 0.04658304 0.00588352 0.00613287 0.02101294 -0.05946066 -0.09625783 0.13531254 -0.15167087 0.04941278 -0.05008704 0.10856161 0.03482781 0.00045911 -0.1309707 -0.1262167 0.10691074 -0.06188618 0.11398143 0.02406726 0.04403783 0.01189329 0.06594951 0.04581193 -0.03128024 0.02577522 0.03565883 -0.03696712 -0.0246757 -0.04797608 0.04814646 0.05554483 -0.1102981 -0.13122824 0.11531576 -0.10492803 0.11341336 -0.08919016 0.10178945 -0.00254889 0.02416845 -0.04457164 0.00462788 0.16437848 0.03828047 0.04447801 0.01249813 -0.02611073 -0.11751126
aoz-x-bible 0.06999965 0.00561611 -0.19498613 -0.07706349 -0.08004314 -0.03233053 0.01945286 0.18855342 -0.0880448 0.0320818 0.04226023 0.19258846 -0.07153071 -0.04657046 0.05154939 -0.1364211 -0.02600065 -0.13396855 -0.09427783 -0.02256641 0.05251541 -0.04741278 0.10856683 0.03122562 0.07209597 -0.00106896 0.06491082 -0.07270119 0.01157635 -0.09023253 0.01084024 -0.22142556 -0.15539515 -0.04259754 -0.0455122 -0.09811971 -0.10899736 0.05401566 -0.03590107 0.06225346 -0.00940943 0.05956455 0.00476196 -0.0922848 0.0131794 0.12470418 0.00095075 0.09243511 0.16381389 0.15047704 0.06242523 -0.13564007 0.01485842 0.05260423 -0.04132097 -0.01897576 0.00097175 0.03629051 0.09109847 0.02150254 0.07583523 -0.01850979 0.06666946 -0.16234355 0.07655744 0.13004771 0.1172525 0.1809076 -0.1352432 0.06669836 0.04003897 0.01556898 0.00773228 0.15173568 0.15394728 -0.01178083 0.03239305 0.01740067 0.00604753 0.06926202 -0.11324265 0.12551098 -0.09087639 -0.10166633 0.04685724 0.15069558 0.06927589 0.08839043 0.04392727 0.1168179 0.10628823 -0.04750649 -0.08414879 0.24553268 0.13128006 -0.1155737 -0.19450772 0.04189133 -0.24521634 -0.22488493
apb-x-bible 0.00514498 0.15531343 -0.00772771 -0.05827419 0.01885855 -0.02874171 -0.05570864 0.0585869 0.07348126 -0.06876811 0.1163165 -0.01343626 0.1392288 -0.06200732 0.14540985 0.11756798 0.00252389 0.12370096 0.05967439 0.09647305 -0.04721192 0.04480409 -0.06918482 0.10335342 -0.18258546 -0.17423047 0.01108795 0.17938526 0.00220015 -0.07333989 0.08806884 -0.11000006 0.0893345 -0.01848777 0.10810455 0.10160995 -0.04489795 -0.13792697 0.11859711 -0.010974 -0.04931257 0.07870283 0.00749876 0.19670391 0.02712214 -0.01781453 0.08422663 -0.03853187 -0.02905214 -0.06032822 -0.13438278 -0.02608464 -0.12579325 0.09705465 0.05419172 -0.01711653 0.1256814 0.01169231 0.11929611 0.02134111 -0.0481343 0.20989645 -0.07772522 -0.08032495 0.05261321 0.01764691 -0.07908014 -0.07480099 0.0686406 -0.02185316 -0.04225748 -0.03772501 -0.09356688 -0.00773205 0.09283189 -0.14593653 -0.01303336 0.00961192 -0.11355732 0.03451107 0.04730676 -0.06871111 0.02371362 -0.01802156 -0.09282532 0.01583914 0.02718946 0.12549186 -0.01654572 0.07502958 0.05510562 -0.08496442 0.07346123 0.10646361 -0.03566634 -0.22656968 0.0471218 -0.02837013 0.00516732 0.15717378
ape-x-bible 0.08940035 0.00327039 0.07446053 -0.04207396 -0.02114583 0.02814646 -0.10194331 0.03882412 -0.09795525 0.0359648 -0.0383631 0.10252666 -0.08987562 -0.01379344 0.046714 -0.03680403 -0.07112827 0.10201137 0.00239497 -0.00065222 0.13474591 0.04154871 0.03678446 0.03442705 -0.03640112 -0.05709317 -0.07936202 0.00877871 -0.01948803 0.06471736 0.00434183 -0.05795342 0.06157503 0.11866654 -0.04297779 -0.07279521 0.00814473 -0.05783499 0.0624361 -0.19190809 0.04978199 -0.07053076 0.01945888 -0.05313788 -0.13856143 -0.12173817 0.0488091 -0.03814825 -0.01918531 -0.02533382 -0.01336699 -0.03827136 -0.09872567 0.13813424 -0.05454472 0.0280662 0.01166671 0.07320117 -0.02019381 -0.06324157 0.03898475 -0.12316124 -0.12710652 0.06496529 0.00300885 0.02005984 -0.13411865 -0.09366324 -0.09033561 0.02313103 0.10732917 -0.04654551 0.00617417 -0.06734358 0.05894719 -0.05566066 0.02880466 0.00788732 -0.02851989 -0.06732181 0.09663176 -0.04355313 -0.03460903 -0.12760893 0.10343566 0.0402381 -0.07284907 0.14515394 -0.04738662 -0.08336493 0.147335 0.08761285 0.03290419 -0.01141254 -0.01370334 -0.12022251 -0.08865865 -0.08591029 0.05995841 -0.02056047
apn-x-bible 5.25704585e-02 -1.39101163e-01 1.99012905e-01 -8.17570835e-02 1.77192807e-01 2.53842445e-03 -7.30470270e-02 -8.56798440e-02 -4.34090048e-02 6.86197951e-02 -1.81309003e-02 -2.34140605e-02 1.23031415e-01 -2.24703941e-02 4.77495901e-02 -2.64879882e-01 1.42818689e-01 1.67749841e-02 1.47183299e-01 8.45259577e-02 1.00589842e-01 -1.01782799e-01 -1.76309481e-01 -7.10221846e-03 5.42684644e-03 -6.52719056e-04 -2.43791682e-03 6.69966042e-02 -3.88407446e-02 1.75545350e-01 2.87543773e-03 5.70474081e-02 8.34648311e-02 4.58973879e-03 1.40512750e-01 -2.21786108e-02 2.56158970e-02 -8.83385241e-02 -2.65867985e-03 8.09669718e-02 1.10084541e-01 -9.70844328e-02 -9.17156264e-02 1.26086578e-01 3.31222638e-02 2.68711541e-02 -1.67979375e-02 -1.89486936e-01 -7.79030249e-02 6.54802322e-02 -8.22423771e-02 1.39691845e-01 2.63035625e-01 -2.58644652e-02 8.16862062e-02 1.28382042e-01 1.23570129e-01 7.28748962e-02 -5.53263351e-03 -6.53664917e-02 1.13203965e-01 1.82841882e-01 -1.72680199e-01 5.76462336e-02 1.06652997e-01 4.20737900e-02 -7.58055896e-02 -1.91715449e-01 7.24018067e-02 8.72060377e-03 -5.61402552e-02 -4.29707207e-02 7.33766258e-02 5.40434197e-02 1.66610203e-04 1.08365640e-01 -9.53529850e-02 -6.45104004e-03 -1.87423334e-01 4.21602875e-02 5.88123745e-04 -8.60221162e-02 3.40674631e-02 5.75257502e-02 -5.13526723e-02 -1.12316780e-01 -9.53859016e-02 -1.31527260e-01 -7.38171302e-03 -5.83939813e-02 -8.18727762e-02 7.61656165e-02 1.65332541e-01 -1.38775021e-01 -1.86693430e-01 8.80239457e-02 8.43195338e-03 1.11538015e-01 1.41600177e-01 3.70051414e-02
apr-x-bible 0.01808668 0.10990022 0.02292633 0.0676286 -0.06123801 -0.08650336 0.11147019 0.19476502 0.0567058 0.02754208 -0.05156607 0.09299189 -0.04362744 -0.15166654 -0.24676754 0.14713359 -0.09184742 0.07501511 -0.0447295 0.15183836 0.00599485 0.11925791 0.01135525 0.02749315 -0.1103413 0.09796292 -0.10280871 0.14553653 0.03061196 -0.1494021 0.08647754 0.03112927 0.01130112 -0.1147741 -0.00683199 0.01078378 0.03913446 0.05456731 0.1026246 0.02412409 0.10757235 -0.0657201 0.00200381 0.10744435 0.00527294 0.09318149 -0.00448059 0.07608278 0.08511037 -0.1218814 -0.20763108 0.13639793 0.07329173 -0.13535267 -0.08764043 -0.05580813 0.02072314 0.07220223 -0.12648365 0.02441598 -0.16119632 -0.08487622 0.08709697 0.0307629 0.0894119 -0.07177917 -0.06437896 -0.03511344 -0.06464911 0.08968297 -0.18783186 0.05442435 -0.02741522 0.02527527 0.03584858 -0.02127266 -0.03880798 0.01004325 0.04964566 -0.05250782 0.04385795 0.07462026 -0.17773195 0.01029374 -0.0545162 0.06408635 0.08930374 0.17693807 0.03619215 0.02771766 0.00878256 0.11169624 -0.01232653 0.02735221 0.01698539 -0.11392832 -0.05848168 0.1076581 0.04503657 0.16514699
apt-x-bible 0.13296743 0.02393896 0.09243992 0.01589656 0.09527096 0.01306122 -0.03135124 -0.00108221 -0.03135718 0.12322644 0.12345825 -0.03432041 0.06888095 0.11995498 -0.04892714 0.1498784 0.048633 0.11114895 0.05062398 0.00202526 0.06824838 0.03049321 0.04005711 -0.12292571 -0.0608273 -0.08998816 0.04037186 0.11363889 0.0263267 -0.02476857 0.02048385 0.08402033 0.03406341 -0.05298819 -0.11551903 0.09224895 0.03638536 -0.12878346 0.03740336 0.08853858 0.04728444 -0.06344719 0.06619165 0.10672801 -0.08997009 -0.01685544 0.15086855 -0.01374385 0.05424697 -0.16521132 0.01783853 -0.08717754 0.02982411 0.09869464 0.00567553 -0.12402508 0.02914291 0.0182005 -0.05234855 -0.03418775 -0.00078251 0.16316216 -0.06306648 -0.08376688 0.00364049 -0.03951425 0.07665496 0.06880283 -0.0128102 -0.02045061 -0.04422422 -0.00354384 -0.0394935 -0.08959536 -0.00218257 -0.0602415 0.01989707 0.04926015 -0.00419626 -0.06169155 0.00776335 0.04085343 0.06281059 0.14597954 0.03141437 -0.04947899 0.07099345 0.0318891 -0.00975845 -0.00387547 0.05921874 -0.03036122 -0.02062932 -0.05689235 -0.04015221 -0.1337988 0.0366298 -0.03297049 0.12436879 0.06018768
apu-x-bible 0.0482268 0.11292855 0.21038128 -0.05834647 0.06362837 0.02370662 0.06753044 0.00172918 0.16073866 0.15356036 -0.12938075 0.09542803 0.07784878 -0.01456229 -0.10181643 -0.06311274 0.0603668 0.11643645 0.16627245 0.03374552 -0.012644 0.10924291 -0.04117742 -0.03345405 -0.05428215 0.0507523 -0.12517627 0.11290601 -0.07685009 -0.08057363 0.09743265 -0.00649542 -0.15900995 -0.17997886 0.16589652 -0.09309699 0.10316971 -0.06379908 0.11845838 0.0981153 0.0464536 -0.07146771 0.0542014 0.24493168 -0.09644526 0.02120908 0.03086549 -0.05935308 0.0544473 -0.10035497 -0.04317953 0.06066093 0.04272175 -0.04118375 -0.05992509 0.16218707 0.19603842 -0.08135904 -0.01255281 0.06366074 -0.12859832 0.0412582 -0.12596188 0.02324055 0.09510143 -0.06714164 -0.13385272 0.06432496 -0.03441685 -0.01597559 -0.2150452 -0.01785234 0.01144848 -0.01489323 -0.0093202 -0.06494261 -0.13571458 -0.07385805 -0.02568353 -0.02288326 0.24690568 -0.02674791 0.0060308 0.10820059 -0.0799622 -0.12845723 -0.07443066 0.08736172 0.02100293 -0.089358 0.00728103 0.00593755 -0.03963311 0.04508025 -0.1870062 -0.07581384 0.1173833 0.07448278 0.17811124 0.17227833
