1664 100
aai-x-bible 0.04940618 -0.06904469 0.05226117 0.03148986 -0.03713062 -0.07396797 -0.06053688 0.01998751 -0.05143627 0.00725697 -0.05195233 -0.11032797 0.0074878 -0.0758792 0.00883786 0.05789694 0.15119568 0.09861842 0.05358416 -0.12413764 0.03953791 0.08916285 -0.03546258 -0.00302916 0.05332434 0.03493324 0.02465411 0.01421692 0.01657537 0.03305141 -0.06243603 -0.12437504 0.01245612 -0.01062997 0.09542789 -0.06971528 0.04243491 -0.10227801 0.06844234 0.1066701 0.00596497 -0.0224375 -0.05416739 0.02768838 -0.14730702 -0.22994053 0.1524359 0.0510317 0.0408595 -0.06135057 0.07492985 0.07930494 -0.12380693 -0.04217616 0.08491807 0.05166053 -0.01346233 -0.1241424 -0.03479242 0.02893156 -0.0402375 -0.01527266 -0.04011261 -0.11872798 -0.03443557 -0.00451285 -0.06298885 -0.1397445 -0.09387153 -0.04108354 0.05561904 0.12122615 0.08206081 0.03985044 -0.01466755 0.03218376 0.01484381 0.02142021 -0.12158615 -0.07432669 0.09511876 0.02581617 0.00928591 0.07145688 0.06471176 -0.08360495 0.02813815 0.0837715 0.03521654 -0.10304595 0.12787633 0.11284027 -0.01795861 -0.0457351 -0.00091957 0.05637198 0.01106139 0.032146 0.09420457 -0.05610857
aak-x-bible 0.00306395 0.02082349 -0.06959927 0.11867598 -0.17776239 0.13672726 0.06130651 0.10005589 0.0496047 0.01429389 -0.11922256 -0.03792236 -0.21485178 0.02502509 -0.1813087 -0.05868391 0.1809042 0.11018544 0.01834168 -0.04393493 0.13588929 -0.04993908 0.26400155 -0.09613729 0.1221844 -0.14419462 -0.0027252 0.02677197 0.0915563 -0.10637287 0.18534729 -0.129762 0.05014305 0.05191909 0.11616736 0.01703838 -0.1132054 0.04511691 -0.05557441 0.0904379 0.07165949 0.12160698 0.10649838 -0.10176863 -0.0911715 -0.04831786 -0.17741495 0.11071985 -0.11016247 0.02652016 -0.21639061 0.03545955 -0.19304375 -0.11191508 -0.14274256 0.03845608 0.06487431 0.20427127 0.04218771 0.00649424 -0.0810515 -0.15313411 0.12265321 0.02897437 0.07606179 0.05454599 0.04972874 0.01169213 0.18134621 0.01297005 0.04627885 -0.0082474 0.01745174 -0.26520008 0.11013318 0.10218032 -0.08522253 0.00568472 -0.05636101 -0.04799704 -0.03542047 -0.05118299 -0.01392896 -0.1231652 0.12131462 -0.10579831 0.04320219 0.1588172 -0.07833848 -0.13033636 -0.13046765 -0.05225682 0.06575518 -0.03745777 -0.03427128 -0.01176085 -0.17113777 0.08413421 -0.14620803 0.11706098
aau-x-bible 1.02072470e-01 -1.05024807e-01 5.68171404e-03 -8.83175582e-02 9.41853318e-03 2.81489398e-02 -6.07556701e-02 -2.65375841e-02 -1.67271644e-01 -3.05897500e-02 6.99855462e-02 5.58368526e-02 1.48731127e-01 -8.85706693e-02 1.38634413e-01 -2.51871515e-02 1.20759569e-01 -3.36388201e-02 -1.13149658e-01 -4.76969406e-02 6.46359101e-02 -1.20980524e-01 -1.34837642e-01 1.21686175e-01 3.68896462e-02 -7.76470974e-02 2.49955002e-02 4.38866466e-02 -9.09010172e-02 -3.61023992e-02 -7.72581995e-02 -4.96710539e-02 -2.82556210e-02 5.52234165e-02 -3.34196016e-02 -4.26294431e-02 4.18759009e-05 6.78809658e-02 -5.21242060e-02 -5.61177321e-02 8.10288638e-02 5.79352789e-02 -6.42366484e-02 -2.72000907e-03 -5.38887233e-02 -1.44545674e-01 9.55920294e-02 -6.34692982e-02 -3.04750614e-02 -2.08389256e-02 1.34031624e-01 2.21340694e-02 -3.54276411e-02 1.40728205e-01 1.30595326e-01 3.84801403e-02 -1.74628019e-01 -1.67397365e-01 -6.88321069e-02 -1.17429793e-02 -7.40093961e-02 -5.17640114e-02 -5.90752251e-02 -6.61649331e-02 1.03647709e-01 -1.86554138e-02 1.27873626e-02 -8.26484337e-03 -3.43346000e-02 8.45843852e-02 8.36115479e-02 6.04050495e-02 3.21120545e-02 1.15606099e-01 -3.39799933e-02 4.46452536e-02 1.42796919e-01 -3.34397145e-02 -1.22994952e-01 -3.52850743e-02 -1.90874040e-02 -4.88172425e-03 7.47827813e-02 9.07434300e-02 -3.00628543e-02 1.21219777e-01 -7.81340972e-02 -8.23836550e-02 2.50463318e-02 -8.01070035e-02 7.35640675e-02 -2.36340705e-02 -1.23165613e-02 -9.56480652e-02 4.74085361e-02 1.10154219e-01 -1.49424281e-02 9.48992446e-02 5.33213131e-02 4.19919081e-02
aaz-x-bible 0.02611861 -0.13211222 -0.09371111 -0.05137869 0.19829887 -0.10215335 -0.0155516 -0.03411783 0.07040622 -0.0188115 -0.0593057 0.03815724 0.02802317 -0.00503728 -0.00505601 -0.01278433 -0.1466989 -0.03477015 0.03635056 -0.10371996 0.14612207 -0.03556768 -0.07636663 -0.08884804 0.03605361 -0.01578144 -0.07252088 0.10521349 -0.09315961 -0.01581313 -0.10601512 0.02436126 0.08627151 0.00625393 0.09119561 -0.08732262 -0.06517188 0.02547508 -0.06859483 -0.07040042 -0.00506052 -0.00213613 -0.14452782 0.11839397 -0.11231405 -0.06860793 0.04544518 -0.08621363 0.05332413 -0.14842138 -0.04599867 0.0867312 -0.04720887 0.04040297 0.11936826 0.00707148 -0.10774025 -0.25848973 -0.05555346 0.06314611 0.02306917 0.00374121 -0.00543793 0.03891406 -0.12229964 0.10336463 0.03363514 -0.0668672 -0.07867725 -0.04423042 -0.03591219 -0.07022936 0.08981295 0.10597521 -0.06611854 -0.03328355 0.05495478 -0.07362717 -0.06897377 -0.09356274 0.0194909 -0.00806896 0.03236294 0.20266522 -0.05658776 -0.02958774 -0.02257439 -0.06705757 -0.02062835 -0.06697983 0.08110831 -0.01640622 0.07055081 -0.0409428 -0.0068134 -0.00152051 0.00629452 -0.00857055 0.05716174 -0.01816396
abt-x-bible-maprik 0.046213 0.05282974 0.05324671 -0.00159332 -0.22432692 0.03323643 -0.04650998 0.0319842 -0.07285529 0.03028254 0.1458553 -0.02653512 0.05681276 0.02918029 0.10681239 0.15072341 -0.06046648 -0.01358168 0.01269408 0.13455407 -0.10204408 -0.08777393 -0.0124891 0.0501674 -0.09458014 -0.10492806 -0.01140758 0.07508858 0.10350386 -0.0530047 0.14268002 0.03100774 -0.03755775 -0.00532884 -0.05589028 0.16527604 -0.07512724 0.13139598 0.03478529 0.044482 0.0076989 -0.00429834 0.18072897 0.07614212 0.03764979 0.05325551 -0.08788809 -0.07878596 -0.12239328 -0.02239944 -0.02481866 0.01793496 -0.05780552 0.01369318 -0.08586655 -0.00941722 0.10845588 0.02324302 0.08559238 0.05630583 0.00592643 -0.03761133 -0.00795589 0.01093117 0.00702995 0.16526799 0.01298484 0.1726333 -0.07497921 -0.02169353 0.01918936 0.12968217 -0.01532295 -0.0964627 -0.02755577 0.12486488 0.11900578 0.06759276 0.09871801 0.00383405 0.04879858 0.00091074 -0.01443092 -0.12446303 -0.05450885 0.16068001 0.01689264 -0.04628636 -0.06082926 0.08000214 -0.06367858 -0.06852315 0.08928851 0.09198103 -0.00813036 -0.09953035 -0.06980914 0.09312475 -0.01487803 -0.06533636
abt-x-bible-wosera 0.00786542 0.05295843 0.1407927 -0.06788383 -0.24355827 0.07890798 -0.02773979 0.04259614 -0.11650303 0.03787835 0.08880728 0.01422515 -0.07899646 -0.16685279 0.10876802 0.15183261 -0.0292903 -0.04608285 -0.0861524 -0.05236135 -0.11600614 0.01457331 -0.00445601 0.04558321 -0.06148794 -0.16273154 0.0055941 0.03068208 0.20877218 0.05754822 0.16693859 -0.01323022 -0.06353045 -0.04517396 -0.0545087 0.12371496 -0.06573948 0.03226222 -0.07978306 -0.09822525 0.01182453 -0.02666189 0.18690959 -0.07013497 0.10447838 0.1288088 -0.04047735 -0.00699888 -0.13316192 -0.0228421 0.01046476 -0.02800614 -0.05887059 -0.11038908 -0.12033954 -0.09024595 0.11401711 0.1182605 0.05859392 0.07863876 0.06811238 0.02035626 0.05118464 0.10986311 -0.01166244 0.11722394 0.05856882 0.252674 0.00977157 -0.08289796 -0.08756017 0.14933227 -0.08807094 0.015555 -0.00965383 -0.00129346 0.06290931 0.0359483 0.1872871 -0.12931503 0.01853037 0.03691936 0.01641556 0.02466076 0.06147398 0.1672869 -0.07374149 0.07440187 -0.24759036 -0.07261774 -0.14950778 0.00126533 -0.05310144 0.02694775 0.03083529 -0.0201815 0.01993061 0.06150099 0.02646255 0.01140691
abx-x-bible 0.0117701 -0.03876442 -0.07931418 0.01833852 0.10875507 -0.10604826 -0.06462125 0.07512765 0.06626707 0.10165431 -0.14496215 -0.031215 -0.05279457 -0.09754203 0.04972255 -0.15474378 0.13378778 0.0791916 -0.03931035 -0.02788112 0.02971472 0.07887293 0.10008629 -0.0779191 0.00502992 0.08332915 -0.0203798 -0.1390022 -0.07038345 0.07087038 0.09191009 -0.14456744 0.0200354 0.07676765 0.03696786 0.00204333 0.05599648 -0.17350353 0.05742195 0.07349787 0.10378402 -0.07564861 -0.12241656 0.09102976 -0.20720355 -0.06857762 0.02509226 0.05098099 0.02855844 -0.02437494 -0.03518217 -0.08226278 0.05497245 -0.06980697 -0.00989485 0.11408175 -0.0919033 0.02298587 -0.08336131 0.06728341 -0.01766015 -0.02508656 -0.05562003 -0.12729968 -0.16868924 -0.06214074 -0.05866562 -0.17553216 -0.07051991 0.05002176 -0.04712697 0.06613926 -0.01621759 -0.07211846 -0.16558523 -0.06586964 -0.01952076 0.11413175 -0.11142896 0.12765306 0.20038472 0.05196516 0.01445386 -0.06241071 0.02677502 0.00347142 -0.03022127 0.10532715 0.04888819 -0.02640266 0.1700084 -0.02092629 0.07576402 -0.05151909 0.03236473 -0.0143453 -0.03246588 0.03361082 -0.07800748 0.03534455
aby-x-bible 0.06968749 0.15549983 0.0010052 0.13911459 -0.19092932 -0.02121678 0.16507718 0.0522993 -0.06622908 0.04022505 0.00525586 -0.0743392 -0.07556869 -0.08119624 -0.17307083 0.00840697 0.16022281 0.0731444 -0.03873028 -0.02628085 -0.0366645 0.07126597 0.11481031 -0.02553291 -0.02830523 0.03172336 -0.04643428 -0.09053329 0.05147617 -0.00902112 0.1254673 0.10873734 -0.07560816 0.01834682 0.00420638 -0.09783314 0.02377433 -0.03918644 -0.05186959 0.03201608 0.00051115 0.09921243 0.10022542 -0.07068368 -0.08704451 0.13180178 -0.06372186 -0.00025274 -0.03964847 -0.06692562 0.02147199 0.05420002 -0.14952384 0.02436374 -0.02622113 0.10792635 0.03749245 0.2208444 -0.04975319 0.0968352 0.04234073 -0.09496094 0.03112991 -0.12181426 0.12412587 -0.02782187 -0.03098813 -0.03221343 0.10971505 -0.12771522 -0.03271888 0.0062995 0.05346065 -0.18387787 0.02912377 0.12519738 -0.09757703 -0.01481355 0.05041371 0.01307014 0.05892034 0.1141182 0.0598776 -0.06613498 0.03560964 -0.02298443 0.1511307 0.05167516 -0.0440873 -0.1447869 -0.03588671 -0.12052371 -0.08954388 -0.04009189 -0.16756907 0.01519332 -0.02763423 -0.03941858 -0.12370864 -0.06296881
acc-x-bible-cubulcu 0.01220077 -0.13621272 -0.11660455 -0.02863744 0.10783198 0.08741511 0.01286177 0.01939111 0.05996763 -0.14656788 0.12169667 -0.01852833 0.13432385 -0.08067691 -0.1032965 0.17016794 -0.17797966 0.00168323 -0.01394666 0.02365693 -0.07789071 0.01352873 -0.15343572 0.01181485 -0.01203018 0.00709957 -0.06116449 0.08938386 0.00022361 0.09133367 0.03821638 0.04658728 0.08012556 0.01938311 0.01708402 0.10808936 -0.08394025 -0.05729021 -0.05111879 -0.01978611 -0.00571085 -0.05638677 0.1339261 -0.02276758 0.16717732 0.04259165 -0.09321754 -0.06229054 0.04933493 -0.08925443 0.04632681 -0.08166852 0.10059324 -0.03864421 -0.11851618 -0.06454851 0.02441652 -0.02309397 -0.00292286 -0.08493236 -0.04578059 0.14359578 -0.02437382 0.02821333 -0.02240827 -0.02250436 -0.06416889 0.11172897 0.07211536 0.03024598 0.02899575 -0.06393538 0.03490182 0.0685221 0.03928575 -0.03968647 -0.09730625 -0.12752233 0.1299089 0.14000785 -0.08841766 -0.1601698 -0.03116804 0.00386088 -0.05785434 -0.01459385 -0.08849195 -0.1049645 0.02939824 0.15554638 -0.04134299 -0.10449439 0.05507528 0.09336419 -0.07408581 -0.01145911 -0.02735769 -0.0055093 -0.02937147 0.05605777
acd-x-bible 0.08383032 0.14588076 -0.18535154 0.02227362 0.157246 -0.02080527 -0.07785646 0.0010275 -0.01506519 -0.12289511 0.07422741 0.01730293 0.1455212 0.09182707 -0.23395436 0.02082319 -0.12766881 0.20710008 -0.03725969 -0.04086231 0.09079993 -0.1156338 0.13733348 -0.05168541 0.07846979 0.12318184 -0.07355286 -0.00947542 -0.00114058 0.04045136 -0.17446095 0.09228487 -0.05036834 -0.0802606 -0.04472583 -0.04688709 -0.03824279 -0.0199307 0.10832535 -0.12687181 -0.00774719 0.11692373 -0.04536244 0.00708984 -0.12711963 0.04177197 -0.04764248 -0.02188822 0.15729539 -0.21186303 -0.18882419 -0.13602574 -0.02358063 -0.0374044 0.14472681 0.06933812 0.04350988 -0.02006505 -0.21903151 -0.0423337 -0.19377597 0.11181252 -0.01942583 0.09357984 -0.06278442 0.08585964 -0.16843253 -0.03718472 0.0856358 0.16005214 0.02966851 -0.18440662 0.062027 -0.05433939 0.0224253 -0.05130236 -0.11075623 -0.15671325 0.01903539 0.06934428 -0.04915938 -0.18632495 -0.02493441 0.04526864 -0.14112347 -0.27059382 0.05747207 0.12481674 0.21751006 -0.07811236 -0.04436595 0.0419835 0.14026392 -0.1187677 -0.17537126 0.06923442 0.14307225 -0.10691696 -0.15911444 -0.06578038
ace-x-bible 3.53856012e-02 6.47450164e-02 -3.97754274e-03 -8.73359665e-02 2.58307636e-01 -1.03768863e-01 -1.53609067e-01 1.63338557e-01 3.54109518e-02 -6.25255704e-02 1.23826176e-01 5.43466136e-02 -1.79629289e-02 2.42645256e-02 -1.12903766e-01 -7.97416419e-02 -2.31152520e-01 -2.24252231e-03 5.43214940e-02 -1.18647881e-01 1.76438138e-01 -2.61678286e-02 8.25322121e-02 1.17630720e-01 8.81748423e-02 1.18244871e-01 -1.17186874e-01 -8.78467858e-02 -2.82804612e-02 1.02098115e-01 -6.92773908e-02 6.74970746e-02 -6.91986531e-02 -1.11894369e-01 6.44126534e-02 -1.40343690e-02 7.81090409e-02 8.51158723e-02 -9.77888331e-03 -1.52532995e-01 -2.10036486e-02 -8.84302184e-02 -7.12695718e-02 -3.03830369e-03 2.27089245e-02 -9.43777785e-02 -8.90377611e-02 -2.72666779e-03 1.72259733e-01 -2.41254177e-02 -1.04155019e-01 -1.76475316e-01 4.42673005e-02 -5.54342233e-02 3.83423008e-02 -2.30959971e-02 -5.92952892e-02 -2.28778094e-01 -1.90238282e-01 -4.72133309e-02 -9.94567499e-02 9.81116220e-02 -2.49593460e-04 2.09437013e-02 -1.27612967e-02 -3.93288024e-02 -1.60446987e-01 -9.00999922e-03 -4.28735726e-02 1.00231813e-02 -4.55741212e-03 9.97195207e-03 -1.85635709e-03 1.03358202e-01 8.02824870e-02 -9.17004570e-02 -9.56659243e-02 -1.25163734e-01 2.07096748e-02 -1.05925955e-01 -6.13840781e-02 -2.46821120e-02 4.89246659e-02 1.38705105e-01 -1.15804203e-01 -1.28467798e-01 -1.07924165e-02 9.81864333e-03 8.79829451e-02 4.92028035e-02 -6.87192008e-02 5.48064802e-03 1.65925905e-01 8.74770954e-02 -3.30983754e-03 1.15001157e-01 1.39174595e-01 -7.86803067e-02 -7.65901664e-03 -4.08070162e-02
acf-x-bible 0.04221772 -0.02519823 0.00156127 0.06668855 0.0680704 -0.01544381 0.03589307 -0.11292423 -0.0912983 0.07732977 0.03452976 0.02634925 -0.00711218 -0.02225055 0.03406279 0.02894361 0.03918411 -0.0735107 -0.0646921 0.01080991 -0.16925146 -0.06065856 -0.1606862 0.10715207 -0.14153711 -0.06183743 -0.04775226 -0.06608083 0.14537367 0.02302129 0.07567758 0.02811813 0.04081279 0.07231908 0.02850524 -0.03898994 0.21115018 -0.09530304 0.0569104 0.16814414 0.05473712 0.03545604 -0.07848696 -0.0346052 0.07843576 -0.07493352 0.09848866 -0.03571788 -0.06909394 0.20456253 0.21637976 0.07192428 -0.01232928 0.10120486 -0.12468092 0.0612887 -0.17523026 -0.01403164 0.11649964 0.02712839 0.14042333 -0.00508258 0.03538222 -0.17328514 0.15918292 -0.15552832 -0.04800173 -0.04086853 0.16085619 -0.10775738 0.04858756 0.08403742 -0.02065611 0.0141725 -0.08258936 0.0394884 0.18974616 0.10123543 -0.02875645 0.20081012 0.21924058 0.04408653 0.07486599 0.02131682 0.03738247 0.08355744 -0.05905955 -0.05416522 -0.06743555 0.21243115 -0.0379434 -0.01597136 -0.05391042 0.02091089 -0.11163268 0.03874821 -0.00997598 0.14504386 -0.06034151 0.01272584
ach-x-bible 0.05712026 -0.02626398 -0.09279942 0.00870734 0.02681664 0.03495751 0.01710669 -0.08399506 -0.0755872 -0.02057017 -0.08774099 0.03936062 -0.04516852 -0.02221306 -0.01858093 0.09670217 -0.04168952 0.09225166 -0.09337629 -0.01607194 0.00067802 -0.07018782 0.08886019 0.12852989 0.05075169 0.03307865 -0.02664629 -0.04401969 -0.07423309 -0.04287407 -0.00771399 0.07807858 -0.02650986 -0.08452176 -0.06684522 0.01474047 -0.00930014 0.04058533 0.02130723 0.04421749 0.00796296 0.00846235 -0.02236126 -0.05402349 -0.05270834 -0.09894329 0.00186985 0.10068899 0.17570585 0.02231103 0.07647583 0.04617848 -0.10697628 0.0266016 -0.01510526 0.12434011 0.03013655 -0.04265574 -0.10075469 0.07384122 -0.10450085 -0.00956681 0.00822065 -0.11330993 -0.02024904 -0.02224413 0.00510434 0.08665135 0.03043002 0.07677244 -0.04632277 0.0053367 0.07388429 -0.02615528 -0.10128558 0.01244247 -0.1105207 0.03958192 0.04017985 0.17622837 -0.00108551 0.01061983 -0.04613927 -0.039831 -0.00442221 -0.05855686 0.08579668 -0.00481246 0.09630015 0.13433506 0.02691985 0.08456849 0.07229202 -0.09285736 -0.02463496 0.04080321 0.09792298 -0.05557564 -0.01818261 0.00304276
acn-x-bible 0.01241657 -0.11752278 -0.010267 -0.17644472 0.0060704 -0.02674918 -0.05998698 0.10647752 0.1208491 0.02472488 -0.05297834 -0.06173674 -0.05986895 0.07921966 0.08545335 -0.02285109 -0.07739285 -0.01856248 0.00717053 -0.09717288 0.06837408 0.07025329 -0.06165209 -0.08637539 -0.06985733 0.03963144 -0.05003212 0.00824564 -0.11453503 0.07989661 0.03768794 -0.0252632 0.01647505 0.00622071 0.13013355 0.06521373 -0.02873047 0.07455754 -0.0460186 -0.02148961 0.03581629 -0.11344591 -0.07521071 0.06783886 0.05878523 -0.04140601 0.08624599 -0.06195509 0.07367977 0.00748854 -0.03496216 0.03563486 0.00850275 -0.00884194 0.11294942 0.01690858 0.1362693 -0.12221358 0.10617311 0.02992534 0.01029216 0.03622203 -0.08062735 0.08376644 -0.04287307 -0.06591084 -0.09295738 -0.09747144 -0.10240342 -0.05245619 0.05304205 -0.01563349 -0.03110773 0.06012095 0.04246407 -0.06671058 -0.05470889 0.08342879 -0.08369402 -0.13687067 -0.08093996 -0.13384151 0.07974014 0.05838978 -0.14368267 -0.04384336 0.00786139 -0.09052505 0.02442359 -0.10340299 0.07877551 0.02915528 0.11658081 0.12865183 0.19871897 0.11743543 0.08063138 0.00150162 0.11904983 0.06523927
acr-x-bible-reformed 0.04689318 0.03187136 -0.04163579 -0.11405066 0.15030754 -0.03931914 -0.0553005 -0.04014027 0.13436408 -0.09544205 -0.04459031 0.17450134 0.02165324 0.01238321 -0.051986 -0.15360603 -0.2078742 0.01040907 0.11140538 0.07481083 0.02036979 -0.10021847 0.11710196 -0.17165938 -0.0374008 0.0135699 -0.06651548 0.1290048 -0.00110011 0.0598854 -0.11892293 -0.01164217 0.01281395 -0.03997462 0.07556639 0.00468511 0.13606453 -0.02290567 0.01936239 -0.12954149 0.07080559 0.02795977 -0.03901886 -0.09504533 -0.00120572 -0.02377401 0.02456757 -0.11643811 0.10520691 -0.20130154 -0.08960513 -0.01490795 0.07343033 0.04829624 0.06603643 0.0536728 0.04062539 -0.15485248 -0.01247853 -0.09004979 0.04533889 0.00026891 0.01269268 0.05678386 -0.12297292 0.01338404 -0.18024959 -0.10740312 -0.13249925 -0.09003408 -0.04917347 -0.11972988 -0.03155066 0.05093611 -0.16166092 -0.1341715 -0.05407195 -0.12340452 0.0404534 -0.17353544 -0.12892528 -0.20321116 0.04251472 0.07948974 -0.07993149 -0.09993735 0.00844884 0.02640015 0.12788028 0.0570838 -0.04532656 0.0902797 0.06918094 0.10818128 -0.06930236 0.01095762 0.04828727 -0.13146216 0.03052691 -0.13032977
acr-x-bible-traditional 0.02211739 -0.01842564 -0.03999764 -0.06672936 0.19995724 -0.01378778 -0.05111832 0.05593117 0.16983767 -0.00869363 0.12172607 0.07649314 -0.02729492 0.05974429 -0.08356121 -0.14494394 -0.18027556 0.03585122 0.10762067 0.03863442 0.11363042 -0.02512832 -0.10318989 -0.05097495 0.07150076 0.07454055 -0.13863647 0.01619254 -0.07839856 0.06803037 -0.03531093 -0.00545049 -0.10079872 0.11324053 0.00545818 -0.07022203 0.08125334 -0.04388442 -0.07900659 -0.04992913 -0.07038994 -0.01980357 -0.13142495 -0.1365563 0.09559418 0.0604852 -0.04210023 0.01500623 -0.01887985 -0.14662777 -0.24567965 0.01906922 0.03739437 0.08569956 0.15810455 -0.01555103 0.04906218 -0.10234586 -0.00510407 -0.026218 -0.0005769 0.04725624 -0.11740494 0.14801963 -0.05018887 0.17793606 -0.07977975 -0.03366254 0.01843652 -0.07069468 -0.02827721 -0.06741432 -0.03609287 0.10611996 -0.12119692 -0.14704631 0.0020571 -0.1677248 0.02764449 -0.03779717 -0.18086958 -0.18420945 0.05871581 0.16340719 -0.11197001 -0.07149763 -0.09627432 0.0263577 0.08730447 -0.01795419 0.09586249 0.04851244 0.07519985 0.00046264 -0.09870409 -0.06844082 0.07939868 -0.06095207 -0.08451548 0.03804908
acu-x-bible 0.07351713 0.0643153 0.07953741 0.06102134 -0.05176475 -0.02905733 0.14149795 0.04720944 0.02673615 0.11534347 0.02989442 -0.10115503 0.02731729 -0.05590862 0.09341158 0.03678483 0.09706871 0.01009647 0.03315954 0.06781051 -0.12283052 0.02034319 0.00239066 -0.07600754 -0.05563136 -0.06961956 0.04373368 0.04692865 -0.048142 0.07665716 -0.06617618 -0.09847674 0.07802786 0.10651931 -0.06803112 -0.05949662 0.00186244 -0.20586172 -0.01704918 0.12769488 -0.03583699 0.07867221 -0.06525683 -0.01277966 -0.07562639 0.03536676 0.07787987 0.11900133 -0.07749493 0.0957772 -0.00207407 0.02080687 0.11160658 0.01376084 0.05400119 -0.03015745 -0.10694713 0.08957378 0.06604648 -0.00255648 0.15702333 -0.00632609 -0.07371354 0.00970334 -0.06474714 -0.07476451 0.06627737 -0.11713701 -0.04371614 0.00958188 0.10650132 -0.0445269 -0.01377287 -0.09627227 -0.17061093 0.10732804 0.16798559 -0.00765426 -0.06333314 0.04508262 0.04060559 -0.02650709 0.02140365 -0.11940188 0.02036998 0.14922032 -0.10741611 -0.00286609 -0.02256669 0.14094236 0.09186836 0.10974577 -0.07784818 -0.03786156 -0.05220558 -0.07672556 -0.10053124 0.00070049 0.03013832 -0.02236086
ade-x-bible 0.03371398 -0.00961183 -0.05566658 0.10007426 -0.05298852 -0.08568712 -0.09428936 0.07141938 -0.01288417 -0.04085572 -0.12072639 -0.0541599 -0.04018077 0.0620826 -0.11289777 0.04737789 0.08345405 0.11356562 -0.12148404 -0.05665528 0.05769942 -0.13904455 0.05342494 -0.03514595 0.02889377 0.01689457 -0.12114387 -0.18382378 -0.08090096 -0.08336722 -0.09949659 -0.0497405 -0.07737006 -0.06056603 0.08368921 -0.0811999 0.07639858 0.0814372 0.02589673 -0.0695821 -0.1315061 0.0845559 -0.06918836 -0.08452481 -0.15973815 -0.16953124 0.03436442 0.15516424 0.08204471 -0.06538906 -0.12252382 -0.13312703 -0.12350892 0.04463826 0.05889968 0.14222853 -0.09155703 0.05060162 -0.13335058 -0.04094479 -0.0705478 -0.0600261 0.01479813 -0.16195941 0.01227578 -0.05230017 -0.17823794 -0.02142918 -0.04852466 0.13170636 -0.04228625 -0.05996956 0.02306391 -0.10067582 -0.04495464 -0.00550357 -0.13258114 0.01211236 -0.10932006 -0.08974726 -0.00427485 -0.04361186 0.03645145 0.04699146 -0.03790233 -0.24472475 0.11112388 0.15010016 0.01160933 -0.12632588 0.09510809 0.11236542 -0.00919303 -0.02368346 -0.07468851 -0.04826848 0.13911638 0.01251058 -0.26128387 0.12578523
adh-x-bible 0.06558524 0.01072336 -0.05654887 -0.04944853 0.04407904 -0.05506897 -0.0560568 0.08702748 -0.04033346 -0.11414012 0.01772959 -0.05845601 0.00280728 0.02016874 0.0249301 -0.04620593 -0.10259583 0.09435116 0.0138674 -0.00287552 -0.007815 -0.09651343 -0.04902952 -0.10477895 -0.04169991 0.05927364 -0.03866265 0.0390765 0.05730009 0.09330583 -0.07209535 0.04105882 0.06051788 -0.01118976 0.06576414 0.00225085 -0.06527093 0.08232607 0.09335744 -0.01069958 0.02777706 0.04578069 -0.09254707 0.10047253 0.02874806 -0.08053989 0.00243429 0.03215959 0.00176822 -0.09214766 0.00084845 -0.11647301 0.06163392 -0.00257056 -0.05425096 -0.02989302 0.0492828 -0.12902157 -0.00113567 0.09345868 -0.12904434 -0.04480953 -0.04766576 0.00130582 -0.01552494 0.1256053 -0.01549123 -0.04389897 0.08778465 0.03205934 -0.0847137 -0.08507279 0.00619693 -0.03701022 0.10406408 0.02997144 -0.14396879 -0.09106595 0.10905126 0.03259108 -0.09819317 -0.11588292 -0.03293558 0.08240318 0.02413361 -0.19416973 0.00663695 -0.01053535 0.03516312 0.05274104 -0.09022233 -0.04665321 0.08629283 -0.08628561 0.02649505 -0.08379542 0.12269609 0.04877824 0.01421962 0.08339809
adi-x-bible 0.06403157 0.01960171 0.0370084 0.15224299 -0.07618668 -0.03350573 0.05929192 0.14661412 -0.04414923 -0.14233032 0.1265716 0.00723648 -0.02326731 -0.01045017 0.00238981 0.11273291 -0.09097366 0.04835021 -0.04379586 -0.04773905 -0.13062546 -0.08039714 0.03847562 0.08062604 -0.02228187 -0.12319819 0.06480723 0.10634921 0.0121739 -0.04109479 0.07415878 0.21410353 0.01621547 0.03257345 -0.09492064 0.11225507 0.05075258 -0.06538087 0.03144807 -0.02514819 0.02470662 0.04847977 0.1669132 -0.02257865 0.29429284 0.06316462 0.09172488 -0.01167799 -0.01867447 0.11379831 0.09720028 0.00449026 0.00862072 -0.02788302 -0.12287575 -0.05241483 0.07371456 0.10577675 -0.05640589 0.06975543 0.05304494 0.09276146 -0.06058757 0.13471013 0.08659903 -0.01840838 0.03199363 0.19862914 -0.01357695 -0.09037534 0.12566777 0.15362987 -0.04968268 0.061748 0.01301733 0.08281349 -0.05503273 -0.03667761 0.11418893 -0.07235303 0.02061136 0.00088807 -0.05047297 0.05956832 0.0602024 -0.03552468 0.01450565 -0.04767421 -0.07862607 0.1739848 -0.09805091 -0.02949019 0.0497514 0.12954143 0.05649066 0.01773357 -0.07330585 -0.05872344 0.09872603 -0.11095009
adj-x-bible 0.1242424 -0.09499291 0.02918946 -0.1558429 0.11945468 0.07330054 -0.07103088 -0.03596619 0.12096322 -0.07006091 0.01518675 0.05242248 0.05301043 0.01815461 -0.10831936 -0.12843882 -0.0739849 -0.08496197 -0.0498249 -0.03110105 0.03114725 0.03008265 0.03590681 -0.05568335 -0.04183979 0.13957994 -0.09599907 0.03034174 -0.14177173 -0.0303085 -0.09677396 -0.05368811 0.01201386 -0.03826628 0.0584749 0.04260582 0.04378362 0.09074846 0.02612025 -0.13290066 -0.00857942 -0.07107127 0.00359493 -0.0622207 -0.07056078 -0.04222788 0.01136638 -0.0782893 0.0058761 -0.06752262 -0.1665862 -0.07884709 0.11227585 0.06353464 0.10748595 0.13450134 -0.02183467 -0.2242934 -0.10597091 -0.08280475 -0.0791264 -0.00137628 -0.11554858 0.05905144 -0.12154099 -0.0519816 -0.12721853 0.04459949 0.03557289 0.11855932 -0.06779255 0.02933319 -0.02804732 0.07680669 0.11875037 -0.113657 -0.03874583 -0.13950792 -0.02004405 -0.02147088 -0.20526496 -0.1623585 0.03948611 0.02138492 -0.12463888 -0.12815183 0.02854468 -0.09853854 0.16974878 -0.06329168 -0.00926672 0.09008795 0.16086535 0.02474841 0.00933967 0.09331752 0.11145197 -0.06674512 0.10537438 -0.07720909
adl-x-bible 0.02960589 0.08499112 -0.03420473 -0.03164658 -0.08439394 -0.08429857 0.06836946 0.01391875 -0.09164947 -0.03672512 -0.0456805 0.00818701 -0.01907539 0.02849692 0.02376116 -0.03022915 -0.03447906 -0.02741899 -0.07875597 0.08222327 -0.08516461 0.00222757 0.04052364 0.1552502 -0.04174329 0.03064771 -0.00081487 -0.03025419 0.00500931 0.0433278 -0.01886316 0.02105146 -0.03179015 -0.13023847 -0.00887215 0.14104176 -0.07296029 0.0055797 0.10407132 -0.08096199 0.00677116 -0.08290196 -0.08964119 0.08838832 0.06957674 -0.07920881 -0.06852517 -0.07217505 0.06825788 0.03545123 0.15052526 -0.01034686 -0.09369402 0.11918028 -0.08114854 -0.11819541 -0.08864445 -0.06013693 0.00864818 0.08339638 -0.01271654 -0.05163261 -0.04737275 0.06997882 0.11730536 0.08789461 0.11751675 0.00215205 -0.07192262 0.08395628 -0.00230074 0.10406109 -0.01118655 -0.07960753 0.14841512 0.05650713 -0.04411279 0.03559954 -0.01777988 -0.06097431 -0.06165224 0.08052438 -0.04023962 -0.05773363 -0.07270348 0.0506358 0.03021344 0.06330751 -0.02134972 -0.09755184 0.05101305 -0.04601204 0.06517442 0.01233378 0.11288451 -0.02167532 0.07109724 0.01570678 0.06159411 0.03810734
aeb-x-bible 0.05390291 -0.10690998 -0.11000316 -0.17860733 0.451226 -0.02155207 -0.05750064 -0.07124081 0.11324149 0.098087 -0.16668093 0.1469791 0.13903947 -0.07338674 0.07448849 -0.1307403 -0.16583113 -0.16152337 0.17478433 -0.04845041 0.04651396 0.05371812 -0.09532929 0.04673474 0.02823511 0.27728555 -0.00427514 0.0411034 -0.26375085 -0.00792028 -0.07016649 -0.23028573 0.03756589 0.1494196 0.12685743 -0.16935796 -0.00422748 -0.12688157 -0.00358402 -0.13173243 0.13827845 -0.05794851 -0.20413496 -0.01426733 -0.10158446 -0.17416708 -0.08049037 0.02050013 0.08281001 -0.14907332 -0.12419516 -0.10076104 0.03291721 0.08722832 0.26885077 -0.0467487 0.001342 -0.3696869 0.02390572 -0.1062749 -0.14386958 0.01696072 -0.01415827 -0.02469663 -0.14045556 -0.11539514 -0.19923584 -0.20494005 -0.03174026 0.19183972 0.03146923 -0.11338173 -0.06430838 0.21436827 -0.06105786 -0.06118594 0.04666122 0.03549917 -0.19621015 -0.07833526 0.00618838 -0.03448503 0.145452 0.19808656 -0.23205774 -0.04893472 -0.0334395 -0.13465504 0.1847939 0.06844448 0.223975 0.02042442 0.14245257 0.05283721 0.16225602 0.02835355 0.13021585 -0.07704367 0.09755196 -0.04523752
aeu-x-bible 0.01205466 0.01414966 0.00780407 -0.06484557 0.05517677 0.03437554 0.02201128 0.09994956 -0.00966932 -0.03195581 0.07576711 0.0490004 -0.09691838 -0.1198379 -0.04944731 0.03016264 0.01213693 0.01714326 0.05621841 0.02351796 -0.04553534 -0.05215629 0.0033868 0.08327116 -0.01665843 -0.05599174 0.11505803 -0.0219251 -0.10000044 0.13854936 0.13656689 -0.05105485 -0.00164412 0.14300828 0.00345905 -0.07236616 0.082739 -0.06456096 0.05509558 0.08974683 0.13661191 -0.00526275 0.12135187 -0.01485692 -0.03993683 0.03903681 0.03268752 -0.13217561 -0.0276647 -0.01284851 -0.10697513 -0.08374026 -0.03589379 -0.01746103 -0.12074649 0.03350177 0.06065859 0.08334 -0.02043914 -0.10646024 -0.07891198 0.15988036 -0.01392533 0.01380862 -0.1156631 -0.06037458 0.0373249 0.0604885 -0.0094113 0.10105968 0.0859701 -0.05183731 -0.10855048 0.00260238 -0.03977489 -0.05534866 0.01125253 -0.04877496 0.04384374 0.01325731 -0.14119989 -0.10445059 0.00178732 -0.05760897 -0.00692805 0.09243079 -0.10672712 -0.09734184 0.13658419 0.15498072 0.07448017 -0.11833235 0.00842295 0.02834432 -0.02175364 0.02438617 0.07601751 0.0633522 0.12581223 -0.05995696
aey-x-bible 0.05264426 0.01260254 0.04811173 0.04091588 -0.11426707 0.0797431 0.1857166 0.00485229 -0.00193889 0.09142095 -0.03615361 -0.05836761 -0.08668888 0.00709271 0.03576484 -0.01890985 -0.09075843 -0.02627424 -0.05035427 0.11129081 0.01772627 -0.00492757 0.15961821 -0.13368532 -0.0325858 -0.0190454 -0.00505562 0.00072202 -0.04300708 -0.02845906 0.13846734 0.07567548 -0.0017196 0.06663408 -0.13984299 0.07665414 -0.08127918 -0.05304687 -0.05472171 0.06526946 -0.02388432 -0.02039017 0.05440754 -0.06862292 0.15350603 0.16248854 -0.06054862 -0.01342218 -0.05760888 0.06160047 -0.11864268 0.10351923 -0.08858889 0.04466264 0.0100358 0.04282881 0.19068854 0.05281298 0.15904666 0.04836955 0.07766919 -0.07413816 0.02212049 0.0378077 0.12861761 0.05273972 0.03013521 0.12168138 0.00084765 -0.09418245 -0.11518642 0.05721359 0.05598714 -0.00210396 -0.14849356 0.02970354 0.08764365 0.08904033 0.00050583 -0.03081297 -0.03099221 -0.06907898 0.02758305 -0.10792487 -0.05151711 0.09480161 -0.07524245 -0.12730113 0.02605699 0.10855031 -0.16838923 -0.12981783 0.09411097 0.16088942 0.02997427 0.02048174 0.07837504 -0.03799827 -0.02524129 -0.08786927
afr-x-bible-1953 0.02836401 -0.12090927 0.08952783 -0.11939098 -0.06827492 -0.1008 -0.03056172 0.10427455 0.02576532 -0.01480205 0.1877541 0.02214207 0.02284076 -0.00911766 0.14110464 0.14897552 -0.01486945 -0.07876922 -0.04515956 -0.03241767 -0.05333324 -0.08541272 -0.18689281 0.19049565 0.10527311 0.06689464 0.12049092 0.02437939 -0.06720471 0.05198818 -0.0709748 0.10906927 0.01768057 0.0871681 -0.0416343 0.06009535 -0.16510424 0.02835803 0.04593681 0.04133622 0.14060678 -0.10760038 0.04060837 0.05733718 0.12411474 0.00875109 -0.05222004 -0.1591652 -0.01741243 0.05715537 0.21112974 -0.11561912 -0.01734865 0.05502853 0.00746769 -0.04893743 0.12646005 0.0360126 0.0281533 -0.16991049 -0.01073712 0.04707279 -0.04694979 0.20594689 -0.06917805 -0.03166064 0.05087247 0.0602763 0.05941722 0.00551035 0.06262019 0.11212872 0.07261892 0.07074443 0.26055232 -0.12826481 -0.07475991 -0.03557081 0.07791592 0.04835284 -0.0496267 -0.04181879 0.02602051 0.14979355 0.04537341 0.10710563 -0.09534833 -0.04384389 -0.21311563 0.12604897 -0.09333353 -0.10763243 0.08402959 0.04182924 0.02854176 0.14663315 -0.08637667 0.1609319 0.17066735 -0.09220773
afr-x-bible-1983 0.01926843 -0.05376197 0.14059998 -0.13338862 -0.0184074 -0.1263168 -0.05825456 0.10775665 0.09828845 -0.10312603 0.1721789 -0.14135276 0.0228728 0.10254345 0.06893285 0.10102984 -0.04112456 -0.02066337 0.00732244 -0.0205425 -0.06163223 -0.09478488 -0.22277975 0.10459527 -0.02412362 -0.00332886 0.04430187 -0.05850276 -0.0396696 -0.05557491 0.03710014 0.02448239 0.01880036 0.08078609 -0.07218286 0.12875888 -0.11063363 0.10953363 -0.04295133 0.01507621 0.14746372 -0.01944083 0.15951876 0.04804325 0.15549712 0.0331124 -0.0305218 -0.07230226 -0.00512364 0.12824021 0.20007236 0.0523971 0.10797524 -0.0611798 0.08510815 0.01871801 0.01217587 -0.00965216 -0.04751639 -0.07119135 0.01826598 0.1811764 -0.03443225 -0.0118544 -0.05476811 0.00823919 0.16669811 0.11244678 0.02088204 0.07306159 -0.06498911 0.04384139 0.03959942 0.10466226 0.27732155 -0.12458465 -0.08018747 -0.00878703 -0.01786492 0.04330648 -0.04148387 -0.11204243 -0.10706617 0.17018393 0.11174389 0.0988413 -0.05332256 -0.00069826 -0.15211777 0.01938871 -0.03697323 0.03599901 -0.02541577 0.131267 0.04954791 0.15209024 -0.11640356 0.00565627 0.23441248 -0.05969939
afr-x-bible-boodskap 0.03074416 0.01703565 0.01505855 -0.20379262 -0.1172454 0.03246974 -0.10392245 -0.02593588 0.04133438 -0.14200744 0.02777277 0.02605138 0.01188448 0.04547763 0.11612613 -0.0049049 0.01387115 -0.11181436 0.07351628 0.01950511 -0.11276968 -0.04499179 -0.11574515 0.14472657 0.05005389 -0.05404577 0.12407121 0.09743299 -0.0314759 0.04133672 0.05272708 0.05362418 0.05185583 -0.0594625 -0.09125404 0.1094107 -0.17732744 0.21380089 0.0436994 -0.18902238 0.11432871 -0.16141927 0.04636668 -0.04456962 0.12027784 0.08773321 0.01919262 -0.15182821 -0.09150071 0.0315766 0.07632965 0.08618614 0.12980676 -0.05907261 -0.00956339 -0.1736023 0.01594865 -0.15983331 0.02238915 0.00928218 -0.06284732 -0.02197323 0.02443902 0.03331558 -0.05406199 0.019343 0.12745355 0.07125359 -0.16358784 0.02347661 -0.06569497 0.02612332 -0.02073159 0.20349865 0.10444154 -0.01921026 0.00730019 -0.07393467 0.09605867 -0.15208913 -0.14267175 0.03311916 -0.17410937 0.10772709 -0.01700037 0.05199322 -0.02723434 -0.03745082 -0.1534362 0.03477441 0.09146827 0.07782366 -0.02821816 0.121841 0.1205763 0.10247899 0.02033856 -0.03777086 0.03926993 -0.00843619
afr-x-bible-lewende 0.10098734 -0.01420792 0.03866538 -0.04928008 -0.10769365 -0.09819786 -0.0011103 0.13333094 0.05844734 -0.07628725 0.12346264 0.02771335 -0.0098195 -0.07656322 -0.00934981 0.00290683 -0.11823836 -0.0447289 0.04607979 0.0984439 -0.1167204 -0.09549347 -0.20290595 0.15253815 0.12697083 -0.06357414 0.1666984 0.02396562 0.06335139 -0.04849422 -0.0861995 0.01535421 0.01998288 -0.02007012 0.03960792 0.09793641 -0.17096952 0.17898548 -0.08611402 -0.07330398 0.12867066 -0.17795601 0.10785725 0.07207797 0.24370363 -0.00329775 -0.09806893 -0.05911765 -0.11782546 0.02999006 0.03267182 0.03502486 0.13979852 -0.04051931 0.01709066 -0.12949783 -0.02972598 -0.06913084 0.00692881 -0.01090512 -0.0978312 0.08603017 -0.08397486 -0.01556371 -0.02874375 0.053321 0.10064913 0.14805625 0.04225663 0.05591069 0.05058159 0.01667823 -0.02382661 -0.01543513 0.18284424 -0.18541546 -0.11688328 0.00581721 0.03953443 0.03258329 -0.11149902 0.02108388 -0.0930765 0.02130222 0.03297825 -0.00117287 -0.08757263 -0.07540844 -0.18386742 0.0662422 0.03842893 0.04154409 -0.09276874 0.1241687 0.15406561 0.0739679 0.0005071 0.01292008 0.1448507 0.08301234
afr-x-bible-viralmal 0.0389847 -0.07791006 0.06466265 -0.10176945 0.00037335 -0.03141036 -0.09166734 0.01661881 0.03942289 -0.08774701 0.18623993 -0.06852454 0.01896317 0.12263598 0.10186322 0.03777501 -0.00264497 -0.0500429 0.00481507 -0.02670062 0.02972338 -0.17122741 -0.12059978 0.10116247 0.06146677 -0.04944604 -0.03231702 0.16235992 -0.02399733 -0.02319343 -0.02646769 0.00344604 0.02394117 0.06533966 -0.12588097 0.01445023 -0.07229741 0.20157903 -0.08806585 -0.03146767 0.12723401 -0.15438524 0.14234605 -0.08594535 0.0953082 0.10089268 0.08357817 -0.03564995 -0.18617319 0.07857724 0.08126391 -0.09207559 0.09588289 -0.09664751 0.03785359 -0.00047308 0.15311076 -0.0027368 -0.0639234 -0.2010929 -0.09329091 0.11037619 0.04801618 0.17521043 0.06064341 0.06864707 0.02602559 0.04019056 0.00254687 -0.00083895 -0.09229065 0.00337112 -0.01631477 0.1649103 0.24880998 -0.05185732 -0.03632349 -0.10437861 0.02621506 -0.09153534 -0.09048066 0.00044768 -0.00638682 0.01021193 -0.04789142 0.05153122 -0.14310892 -0.06402847 -0.18258598 -0.03113679 -0.0899523 -0.07240953 0.05311113 0.14252396 0.18036558 0.15083422 -0.10483708 0.12207452 0.06870458 0.01341569
agd-x-bible 0.07104181 0.05729662 0.03101418 -0.03469049 -0.05722195 0.07825724 -0.13094792 -0.03639646 0.02053183 0.00032263 0.00909677 -0.12550919 -0.04427435 -0.11448617 0.11010794 -0.08087379 0.14885642 0.00260449 -0.08010139 -0.00097735 -0.04893445 -0.07403827 0.00067507 -0.02122445 -0.00407596 -0.05386596 0.11362484 -0.07001204 -0.0858665 -0.0808774 -0.04621689 0.06262391 0.04113794 0.01704414 0.00363469 -0.03076912 0.01119786 -0.07908132 -0.01059148 0.09214258 0.07832548 -0.06329551 0.04180528 0.12542847 0.05202546 -0.13750255 0.00220611 0.13617693 -0.03355534 -0.00153091 0.10406241 -0.07535047 -0.0180963 -0.02349281 0.02359065 -0.0103479 -0.10515337 0.04764606 -0.03348182 -0.02019781 -0.00464912 0.01578832 0.08401965 0.04578028 -0.03371539 0.01407338 0.11918666 0.094833 0.0906698 0.08086561 0.09655177 0.06604026 -0.00569217 0.0291397 0.14078182 0.08848702 0.11561965 0.03793817 -0.00939709 0.05176691 0.08705294 0.03230514 0.0567814 0.07307899 0.06628863 -0.05959822 -0.03205986 0.06095899 -0.00213803 -0.04849632 0.03624824 -0.0204601 -0.10381475 -0.12100127 -0.03548527 -0.0917718 -0.02528539 0.09838147 0.09845631 -0.04550913
agg-x-bible 0.07411765 0.0636279 0.09667626 0.12752084 -0.12458634 0.09969011 -0.08970469 0.15790614 -0.04338084 0.12807363 -0.05752996 -0.01697068 -0.08591575 -0.11532082 -0.07335409 0.0887961 0.02609398 0.05761657 -0.02565902 0.00598615 -0.06675605 0.04050562 0.10722511 0.0392348 0.01774451 -0.0994769 -0.03010546 -0.01321572 0.03054285 0.0578989 0.17979853 0.06989292 0.02435531 -0.07179065 -0.07961486 -0.01807976 -0.01000897 0.04049911 -0.02073119 0.00384342 0.11551771 -0.06810353 0.06917772 0.02323364 0.13903078 -0.08279689 0.00481544 0.11803988 0.04840985 -0.02366928 -0.09264472 0.05595112 -0.19529998 -0.08847518 -0.10166077 0.03312082 -0.07038972 0.23053843 0.05441858 0.00503111 -0.00854834 -0.10259942 -0.07489004 -0.02367428 0.04996724 -0.02199379 0.06121369 0.0095829 0.04317482 -0.11715662 -0.06367142 0.12312425 -0.02513854 -0.07210111 0.04115888 -0.04100793 -0.00844716 0.04591046 -0.04332251 0.1459003 -0.01466687 0.11795066 -0.06964788 -0.02248152 0.04643384 -0.08537752 0.04012628 0.05049285 -0.03823531 -0.11702937 -0.12474233 -0.04667508 -0.13120557 -0.02345578 0.00210798 0.00287738 -0.14292707 -0.03554732 -0.05894804 0.05473847
agm-x-bible 0.02430807 0.01267653 -0.02586501 0.14188482 -0.22583823 -0.05291698 0.10269559 0.09243526 -0.0510929 0.15834385 -0.00362039 -0.12806219 -0.08865201 -0.00954158 -0.07275717 0.02024482 0.12447209 0.13873088 0.06155681 -0.02900411 0.04328141 0.02688573 0.08976412 -0.15511261 0.01975932 -0.01915128 0.07898326 -0.02657935 -0.03601048 -0.06765288 0.14284304 -0.03447892 -0.10532582 0.12558281 0.13223271 -0.1615368 -0.09380069 0.05601365 -0.0703772 0.17346038 0.03709093 0.01278752 0.10753077 -0.15353753 -0.0203205 -0.07356123 -0.13074498 0.11705093 -0.00879395 0.00860719 -0.03382244 0.11616672 -0.03795357 -0.14805801 -0.09270655 0.10052912 -0.03863292 0.18213253 -0.08113804 0.04056667 0.0288176 -0.05823024 0.13629061 -0.02901671 -0.04953735 -0.14825556 0.01747404 -0.05649316 0.00420307 -0.03717822 -0.07889475 -0.04117242 -0.12742758 -0.10841523 -0.01359149 -0.01701242 0.05283408 0.14670947 0.03922619 0.09821054 -0.0227801 0.03360067 0.0437009 -0.21588513 0.00281403 -0.02522367 0.17927505 0.07694882 -0.07855466 -0.1633172 0.00408107 -0.18937404 -0.01155007 0.01919878 -0.17970061 -0.15523711 -0.17668845 0.05083624 -0.07737705 0.13444796
agn-x-bible 0.01258926 -0.11392899 -0.05924039 -0.11061998 -0.02062479 -0.05829393 -0.08714861 0.12275083 0.00373812 0.09577828 -0.09554207 -0.03063732 -0.02742021 -0.06860712 0.02612328 -0.06089953 0.1775681 0.02178013 -0.10131732 -0.06584511 0.15517764 -0.03705536 0.00655023 0.08428407 -0.03629403 -0.00043173 -0.11673465 -0.04248093 -0.0089433 0.02737028 -0.1217868 -0.09271406 0.06395057 0.06817391 0.11848437 -0.05181646 -0.09440571 0.07996643 -0.00056363 0.06115912 -0.00108506 0.01687298 0.03860117 0.01044546 -0.15241472 -0.16285187 0.08376157 0.02889548 -0.04072053 -0.06268487 -0.01237834 -0.00077207 -0.13618547 0.05430913 -0.03369077 -0.05223656 0.00698478 -0.17497218 -0.1326225 -0.01110104 -0.11901006 -0.06423432 0.09200367 0.03206329 -0.03822859 -0.11295485 -0.1116939 -0.006829 0.03336425 0.15706712 -0.08746656 0.12477943 -0.04635221 0.07151839 0.04124769 -0.10718101 -0.06289984 -0.07815225 -0.1669974 -0.15761892 0.01555872 -0.03727454 0.01298694 0.1471977 -0.08188904 -0.01534751 0.06593344 0.00703323 0.09962348 -0.03377626 0.16233468 0.11967815 -0.07842293 -0.0475347 0.01126221 0.04585719 -0.00359705 -0.06647228 0.06169054 0.03927086
agr-x-bible 0.01995613 0.11397562 0.09291448 0.02716406 -0.11850614 -0.06168877 0.1373948 -0.08452296 -0.00515836 0.07574791 0.0031479 0.09290653 -0.00917693 -0.12999898 0.07938743 -0.03238492 -0.02298514 -0.14849433 0.10402722 0.12266001 -0.02977369 0.16076834 -0.12315351 -0.04165541 -0.12258872 -0.1441094 -0.01316671 0.02666304 0.04972897 -0.11136849 0.03134143 -0.07211716 -0.01788641 -0.02104138 -0.01653208 0.04521032 -0.0425813 -0.10992055 -0.01199842 0.0763467 -0.01725835 0.0270237 0.00777764 0.01644818 -0.03117971 -0.01299827 -0.09265127 0.11470614 -0.0114107 0.08149536 0.11955296 0.19199637 0.11943267 0.08070267 0.07854593 -0.06923784 0.15323049 0.14532241 0.11392495 0.09504626 0.08399983 -0.12486114 -0.03516331 -0.0870108 -0.0167942 0.05880944 0.0289183 -0.03711093 -0.11984537 0.0285432 0.07469743 -0.01483866 -0.01997059 0.12751946 -0.14647591 0.18035063 0.11741669 -0.00686099 -0.00227549 -0.07622421 0.01099388 -0.05978467 0.02840429 -0.08068912 0.10087807 0.18911913 0.02216272 -0.13264973 -0.08989588 -0.0182286 -0.05046801 0.0128787 -0.11222225 0.14697874 -0.0639791 -0.11866626 -0.07416015 0.06766275 0.04673026 0.07588595
agt-x-bible 1.96423698e-02 3.20656113e-02 1.06809832e-01 -1.26983464e-01 -1.89473256e-02 -8.93805549e-02 -2.40075573e-01 -2.90248860e-02 2.20277719e-02 -6.56314045e-02 -3.94458584e-02 -6.57665133e-02 4.70040813e-02 -6.95232898e-02 5.82946986e-02 -1.28066704e-01 4.94217090e-02 6.93072304e-02 -4.95042950e-02 -3.60332541e-02 1.63097516e-01 -7.21491352e-02 1.09592423e-01 6.66122511e-02 1.32379159e-01 3.74304391e-02 -1.92786772e-02 -3.66761312e-02 -8.07749107e-02 -3.51446718e-02 -9.69831869e-02 9.96676832e-02 8.14139172e-02 1.58920232e-02 1.58566654e-01 4.70054001e-02 -1.82525977e-01 7.17025576e-03 -1.04434676e-01 6.25886247e-02 2.79029794e-02 -7.74200708e-02 -1.09076641e-01 1.51206806e-01 -1.07856758e-01 -2.10548073e-01 1.04015656e-01 -7.33622909e-02 9.00887027e-02 1.47413779e-02 4.20021527e-02 -1.56866968e-01 -3.82536687e-02 -5.05650416e-03 -1.78409945e-02 -2.29559392e-02 -7.02528283e-02 -8.62726569e-02 -5.18466756e-02 -4.26827781e-02 -9.40901861e-02 6.33396357e-02 6.76131397e-02 -9.87962261e-02 8.49438161e-02 -1.54096251e-02 -4.01629806e-02 -1.02560930e-01 9.21804644e-03 1.57999232e-01 -6.23275945e-03 9.14149731e-02 8.80360901e-02 8.87755379e-02 1.65525690e-01 -1.21662440e-03 1.95148792e-02 1.62460282e-02 -7.79943764e-02 -1.97799250e-01 8.60648528e-02 -6.38729380e-03 3.77719365e-02 1.87039062e-01 -1.98268183e-02 -2.21467968e-02 1.28848091e-01 3.09118032e-02 9.48028564e-02 -1.90861642e-01 7.23683089e-02 1.70174137e-01 -3.68147753e-02 -1.48399025e-01 -1.27460500e-02 1.27425686e-01 1.02288937e-02 -8.01833719e-02 8.69882852e-02 -1.96537876e-04
agu-x-bible 0.00919955 -0.00776429 -0.00148474 -0.04000604 0.24285436 -0.03214944 -0.01848103 -0.11300512 0.15536667 -0.09559614 -0.09720755 0.1826216 0.04210388 0.08049481 0.1331918 -0.14208698 -0.04090728 -0.18104097 -0.04471051 0.04713404 0.00206624 0.02425786 -0.058393 -0.02324045 0.05123749 0.0137484 -0.00250329 0.18209374 -0.15518554 -0.05495904 -0.05907064 0.00554401 -0.08587168 0.10203329 -0.00869182 0.04095422 0.11438802 0.06129241 -0.00781836 -0.17533576 -0.01532449 -0.12862732 0.03671683 -0.03450999 -0.03665064 0.00425002 -0.05175645 -0.14377128 0.05274345 -0.02424327 -0.00404078 0.11286875 0.20433924 0.12120587 0.1135767 -0.08524418 0.07611565 -0.16910826 0.02482861 0.01579617 -0.00083547 0.09726357 -0.09359778 0.04423328 -0.03703688 -0.00241475 0.03095542 -0.04706185 -0.02886595 0.0091754 -0.10706632 -0.08745001 0.03518699 0.09416334 -0.05839223 0.0200301 0.1198708 -0.04963462 0.02226603 -0.02952083 -0.10060006 -0.02299361 -0.04095773 0.09340088 -0.17591433 -0.05118352 0.02037005 -0.1270242 0.07995383 -0.07915647 0.04092632 0.02990813 0.04712281 0.01950294 0.17212144 0.12786157 -0.03333204 0.12504177 0.19303736 0.01229853
agw-x-bible 0.01889834 0.10648371 -0.01478541 0.14792955 -0.01584216 0.07886499 0.06278201 -0.02397334 -0.12823622 0.08569722 -0.03808493 -0.0086054 -0.05827634 -0.03887175 -0.10848501 -0.09006703 0.10253771 0.07973815 -0.10949298 0.02561129 -0.01712978 0.05458935 0.17717181 -0.0839396 -0.10862622 -0.02036644 -0.05220632 -0.13488173 0.0043764 0.02837449 -0.00091758 0.12202847 0.0307398 0.01165114 -0.07750427 0.0499973 0.13474368 0.02152461 0.08082773 0.024653 -0.01133176 0.1607844 0.02754879 -0.01184319 -0.06658847 -0.03027627 -0.11477784 0.17689739 0.09936815 -0.02214435 0.02234525 0.02065844 0.00248732 0.03255429 0.09636718 -0.01929618 -0.06735083 0.00418565 0.01589686 0.04520193 0.14180197 -0.0245716 -0.08511501 -0.0612635 0.01215963 0.00796844 -0.08574808 -0.01540035 0.0442417 -0.08433793 0.0649624 -0.02628406 0.09848257 -0.09822425 -0.07171629 0.140959 -0.04144099 0.01306846 -0.07633456 -0.01793294 0.05061626 0.04753808 -0.08140744 -0.05664623 0.09948455 -0.13655019 0.02168687 0.08508146 0.0259352 -0.00305409 0.00152035 0.00438444 0.04530254 -0.04925201 -0.20212267 0.05556853 -0.03805548 0.05441564 -0.16245072 -0.03132987
ahk-x-bible 0.06999684 0.06958149 -0.12203357 -0.00101054 0.10517224 0.14157508 0.18212827 -0.32921365 -0.17334737 0.19300748 -0.13483639 0.08906732 -0.03848558 -0.09258322 -0.13105248 -0.0275501 0.07428108 0.0097852 0.03126716 0.26394308 -0.16890083 0.01290927 0.14240459 -0.05631772 -0.26248255 -0.08395112 0.02284115 -0.17510447 0.00663831 -0.05177543 0.02430657 0.08835343 0.00633372 -0.11656886 -0.20104635 -0.12200292 0.14265847 -0.05541972 0.04507047 0.22437035 -0.11902999 0.26690987 0.00754031 -0.14010699 -0.11955094 0.08523967 -0.05157675 0.16008593 0.16925398 0.02412396 0.16496584 0.13850749 -0.08518153 -0.00972128 -0.03497193 -0.00964406 -0.10114706 0.26105982 0.2959647 0.11374393 0.22027975 -0.27851084 0.00718346 -0.14896493 0.16914633 -0.15774032 0.0651924 -0.19956388 0.15335307 -0.17169179 -0.01534651 0.01360856 -0.03937934 0.00410912 -0.34628475 0.19873802 0.0975544 0.04224557 -0.18795024 0.3444847 0.22495215 0.02574034 -0.05174311 -0.3382051 0.1775632 0.10703097 0.08104503 -0.04737294 0.12116453 -0.03793476 -0.03048233 0.02105572 -0.04097233 -0.09914587 -0.32867277 0.01716917 0.03487232 -0.12101775 -0.20651391 -0.09816461
aia-x-bible 0.0700193 0.2214723 -0.11927804 0.03803427 -0.05179007 0.04552539 0.11431199 0.03367906 -0.02330025 0.10565809 -0.01698035 0.10875747 -0.10061234 0.14610086 -0.11231679 -0.02730878 0.14477289 -0.06947602 0.08204698 0.02070878 0.07947824 0.07157872 0.12464469 -0.06830589 0.02412764 -0.07348536 0.12260611 -0.08817369 -0.03931092 -0.04001435 0.09303533 -0.09770677 0.01522387 0.04485812 0.03636006 0.00138454 0.09271532 0.09620265 0.05687744 0.1352889 0.01492627 0.02356274 -0.07758619 -0.09746394 -0.11180758 0.09634254 -0.201623 0.02853688 0.0050533 0.01588304 0.01601694 0.07413235 -0.07268386 0.00439513 0.0236731 -0.14887889 -0.01829922 0.1708335 0.05711429 0.06720953 0.0535961 -0.11338382 -0.02960925 0.01000319 -0.01947128 0.04523104 0.01326998 -0.10273813 0.04866788 -0.07250749 -0.04721016 -0.09178235 0.08812874 -0.08366962 -0.03610491 -0.06054915 -0.03536729 0.07207811 0.0234281 0.08050812 -0.03840671 -0.07726037 -0.04099661 -0.23364142 0.034398 -0.04141771 0.05276607 0.11036923 -0.00756396 -0.16876337 0.08306064 0.00985185 -0.09282804 -0.01028687 -0.1212837 0.01976181 -0.02468539 -0.02146826 -0.1793083 0.06244906
aii-x-bible 3.35903540e-02 -2.08802670e-01 -1.04825713e-01 -2.10917577e-01 4.27965671e-01 -4.06972505e-02 -1.88840240e-01 -5.84089793e-02 6.75680414e-02 -1.35447264e-01 -1.06482670e-01 7.95078203e-02 1.17996417e-01 -3.11896168e-02 8.17651004e-02 -2.02401802e-01 -5.71458712e-02 -1.96265474e-01 3.52362879e-02 9.13582928e-03 7.01544359e-02 -2.64152791e-02 -2.06393778e-01 -9.14782844e-03 7.75668770e-02 2.19100863e-01 -3.04808598e-02 6.76501617e-02 -2.23371416e-01 1.21616431e-01 -6.70703351e-02 -1.04896247e-01 8.23909864e-02 -1.16629712e-02 1.80274863e-02 -1.43361777e-01 1.79216996e-01 -9.64878350e-02 6.44876584e-02 -7.52286687e-02 5.19479439e-02 -7.60867149e-02 -2.30340928e-01 1.80772856e-01 -7.60132074e-02 -1.25881240e-01 -9.59203616e-02 -4.36320938e-02 1.17858395e-01 -4.04904336e-02 2.49848068e-02 -1.21302586e-02 1.44551024e-01 3.18550359e-04 9.42933932e-02 8.98421630e-02 4.59750853e-02 -3.94891977e-01 -1.06573232e-01 -1.40439063e-01 2.87866313e-03 2.57925749e-01 6.19522668e-02 1.18251793e-01 -2.17402533e-01 -1.04484968e-01 -1.59556076e-01 -8.64757895e-02 -1.72264338e-01 5.83153516e-02 -2.69423351e-02 -1.21812940e-01 -6.98623955e-02 1.84657305e-01 9.14802551e-02 -8.27241614e-02 -6.23395145e-02 3.23721096e-02 -1.22901827e-01 -9.02455822e-02 -3.03648766e-02 -1.59649715e-01 1.14895113e-01 1.68808416e-01 -1.52493551e-01 3.59798446e-02 -1.20937832e-01 -1.41163751e-01 4.12781648e-02 8.54982510e-02 1.60812289e-01 4.85714376e-02 1.95586368e-01 3.04731224e-02 4.47731577e-02 1.18105799e-01 1.62441686e-01 8.96588862e-02 1.43472582e-01 -5.59504554e-02
aim-x-bible 0.05331278 -0.05088915 -0.06517533 -0.01446811 0.02183243 0.01863273 -0.05478965 0.05300892 -0.04829465 -0.09658807 -0.01078148 -0.01432249 0.04619637 0.00370197 0.09354686 -0.04509876 -0.00037059 0.03564836 -0.07500318 -0.06599616 0.05393977 -0.02069183 0.02669194 0.03908065 0.0582884 0.06659691 -0.00664408 0.04702777 0.07893869 -0.11979409 -0.09818309 0.00395402 0.1170598 -0.0237675 -0.03600083 -0.09464157 0.04787942 -0.01450286 -0.01055248 0.05325756 -0.02311176 0.02916395 -0.04557603 0.11323878 -0.06923532 -0.01522037 0.16907912 0.07492148 0.10550717 -0.08726678 -0.05129614 0.06627405 -0.10429056 -0.05842242 0.15499334 0.11172013 -0.06416682 -0.12503247 0.05346589 0.08847334 -0.00422794 -0.06633301 -0.09873392 0.00070819 0.04497135 -0.02670719 -0.13250692 -0.10571109 -0.00761825 0.06469673 0.00992188 0.05918975 0.08114793 0.07405999 -0.034554 -0.04780654 0.07317656 0.01503947 -0.12397902 -0.1247616 0.06210311 0.09415363 0.04896247 0.16193484 0.01569819 -0.12894815 -0.08697033 0.09890723 -0.05534679 -0.09105647 0.1528469 -0.00897133 -0.09679155 0.05671365 -0.05597939 -0.02754931 -0.05127886 0.00580353 -0.02806025 0.01145639
aji-x-bible 0.04647446 0.16753395 -0.01371026 0.11758029 -0.13509344 -0.008094 0.0593742 0.05741542 -0.13492204 -0.05364835 0.11439391 0.0585481 0.03118114 -0.03194521 -0.0893704 0.11613019 0.05309023 0.10025571 -0.14064728 -0.04090282 -0.09558672 -0.2177375 0.06248207 0.14943174 0.11633486 -0.13967627 -0.0209659 -0.08836834 0.05028225 -0.0684353 -0.01507324 0.16496715 -0.09405675 -0.20681357 0.0430572 0.02003299 -0.03263536 0.03500065 0.16718227 -0.06079779 -0.13099508 -0.0132526 0.16084127 -0.00927899 0.08391422 0.09139643 -0.0581351 0.05554326 -0.01634459 -0.03311992 0.0768597 -0.08934249 -0.22344908 -0.11128354 -0.12049686 0.06681927 -0.05419134 0.24778756 0.02629689 -0.01351343 -0.07598999 -0.03586103 0.06485023 -0.04025318 0.02602768 0.05622325 0.10148339 0.25021914 -0.01437625 -0.04257112 0.05275194 0.06212383 0.0319925 -0.12515447 0.18574056 -0.08507212 -0.07609021 -0.00908435 0.10732343 0.02214699 -0.0003744 -0.00895805 -0.06466667 -0.00526216 0.1791847 -0.02242684 0.0847205 0.06030083 -0.13783996 -0.07437623 -0.121682 0.0385812 0.06351507 0.05487661 0.04562433 -0.07147823 -0.01260614 -0.10425866 -0.04898139 -0.01480302
ajz-x-bible 0.02939614 0.07370704 -0.0725233 -0.01402583 0.00847816 0.00510042 -0.04378347 -0.03023977 0.00825098 -0.10126101 -0.07419123 -0.01928048 0.15203333 -0.0143166 -0.05618935 -0.05389596 0.06478335 -0.11932298 -0.1299232 -0.09125202 0.11621396 -0.13692945 -0.07063931 0.19013625 0.130881 0.0348269 -0.10655669 0.03508618 0.03778746 0.05283514 -0.01725211 -0.03905923 -0.08133437 0.01034908 -0.0589002 0.00110005 -0.06158901 0.09582714 0.07527441 0.03145228 -0.03682346 -0.02537636 0.0258152 -0.05354305 -0.07493979 -0.05293547 -0.00403663 -0.08396409 -0.00289715 0.06255661 -0.00349624 -0.09274371 -0.03562151 0.05857763 -0.03449826 -0.00694008 -0.1289502 -0.0774568 -0.0936611 -0.0429417 -0.06012375 0.07959039 0.00434156 0.00623337 -0.01041304 0.04327365 0.02097236 0.05529851 -0.03347316 0.00536909 0.08440994 -0.04310871 0.05180982 0.03683827 0.23808716 -0.00501143 -0.06789082 -0.06255219 -0.01959768 0.00849343 0.01778338 0.01716911 -0.09320686 0.17390971 -0.06328758 -0.03935556 -0.02451493 0.04262465 -0.00603099 -0.0437585 -0.06510492 -0.0505472 -0.04028195 -0.01276293 0.00388765 -0.02448166 0.07684307 0.01909323 -0.00029236 0.06726532
akb-x-bible 0.00487054 -0.08270595 -0.07081074 -0.03383896 -0.03632084 -0.00924762 -0.08507843 0.04419907 -0.04922774 0.13696796 0.01199761 -0.07527002 -0.0884601 -0.08032813 -0.05646362 0.02099947 0.09586716 -0.07443979 -0.01934666 -0.08424542 -0.01268027 -0.01238863 0.05785874 -0.11626643 0.00694529 0.0276648 -0.13559785 -0.03268092 -0.02016688 -0.08921076 -0.02969682 -0.09107632 0.07465653 -0.01202765 0.11431459 -0.17464428 -0.00379792 -0.17804615 -0.04179029 0.09551696 -0.09101603 0.06377716 -0.02038176 -0.00861087 -0.16857225 -0.11585039 0.10720268 0.07084855 -0.04724629 -0.01921698 -0.07709887 -0.03101797 -0.01646935 -0.05714285 0.09407081 0.05276379 -0.13763018 -0.04791661 -0.11441166 0.01827393 0.09347732 -0.09281527 0.03904627 -0.0697391 -0.0283976 -0.10473052 -0.13769697 -0.07110887 -0.01127247 0.02732809 -0.00997736 0.04001132 0.0900368 -0.06896792 -0.1088243 0.06754823 0.02186936 0.01837076 -0.06141462 0.01144654 0.02522245 0.00524354 0.06628543 0.04178795 0.01987483 -0.01133323 0.08840277 -0.01271597 0.12623344 -0.07670935 0.13724631 0.13304779 0.07474653 -0.00442125 -0.07018596 0.08435904 -0.04059398 -0.08114199 0.02277724 -0.07131473
ake-x-bible 0.03946002 0.03051859 0.00906165 -0.01351515 0.15877885 -0.10219999 -0.13489938 0.06981572 -0.1258339 -0.0296559 0.02410153 -0.00114895 0.02042512 0.1595294 -0.09045578 -0.01362134 0.04957359 0.07586178 0.02146577 -0.05992962 0.01620271 -0.12292455 -0.03599935 0.08727665 0.08284406 0.01402831 0.08008295 -0.16424641 -0.13537553 0.02664523 -0.15101701 0.08926976 -0.06831279 -0.01248678 0.09988244 -0.02119869 0.11944868 -0.02375938 0.08819252 -0.06269388 -0.01356865 0.08146015 -0.05310324 -0.03648278 -0.10950293 -0.18308091 -0.06658735 -0.01435075 0.18214053 -0.13183543 -0.00542441 -0.10056613 -0.11082352 0.13262409 0.01272988 0.01750872 -0.16192469 -0.01569571 -0.11990854 0.03957679 -0.10393065 0.06874666 0.05816394 0.00629381 0.04738849 -0.09985537 -0.08064155 -0.13060421 0.0511976 0.09327511 -0.02093615 -0.00434453 0.05400303 0.02919345 0.09314109 -0.01833674 -0.11333585 -0.00742326 0.02913814 -0.01549612 -0.0462479 0.04589609 -0.09600858 0.1355717 -0.00588005 -0.05331558 0.116037 -0.01101099 0.08013188 -0.14024405 -0.05649565 0.06168406 0.01087154 -0.14347637 0.03294445 0.04243769 -0.01014121 -0.0242339 0.07487642 -0.01819951
akh-x-bible 0.02634517 -0.09977713 0.06704666 -0.1287801 -0.12814985 -0.05788928 -0.09002994 0.09717873 -0.06370077 -0.11042296 0.0040992 -0.00345125 -0.03888242 0.04651694 0.15108982 0.01573386 0.11505092 -0.14962853 0.03886159 -0.01133416 -0.02415583 0.08100206 -0.02834294 0.05095492 0.11249638 -0.0902858 0.01918988 0.14225145 0.01800562 0.02924671 -0.04114636 0.10651141 -0.01176296 0.07521421 0.03483538 0.15584692 -0.13298155 0.01525915 -0.14696318 -0.08848392 0.05820888 -0.06031015 0.09774549 0.00209311 0.00472307 -0.07818133 0.0600278 -0.10971664 -0.09692768 0.03539638 0.16416226 -0.02149804 0.06687628 -0.05398749 0.07110047 -0.10957719 -0.00626988 -0.03617844 0.06501098 -0.00751365 0.06927502 0.02771148 -0.07156752 0.08770981 0.06919926 0.14006034 0.06072852 -0.02679361 -0.07983698 -0.07884647 -0.08837776 0.14091 0.11953638 0.07972322 0.04661627 0.07148625 0.1132617 0.00734863 -0.02899453 -0.24317832 -0.12194334 -0.01279894 -0.06444585 0.1661486 -0.03930803 0.1344238 0.07061888 0.0564432 -0.13431592 -0.11114743 -0.07032108 -0.03201381 -0.07135727 0.14309686 0.13343176 -0.0671828 -0.15923482 -0.04481881 0.12781495 -0.04991877
ald-x-bible 0.0356789 0.08330894 -0.0611479 -0.05922193 0.03785873 -0.0559193 -0.18301179 0.14431128 -0.04145717 -0.03483612 0.08733616 0.02967292 -0.00433075 0.02914842 -0.11148144 0.05682494 -0.02211362 0.15416414 -0.10335714 -0.12650473 0.16077025 -0.19780953 0.15044235 0.03605997 0.20685063 0.13869593 -0.03078074 -0.12932307 0.06349831 -0.09017169 -0.00462382 0.02535771 -0.08222438 -0.01595564 0.12640576 -0.00683707 -0.1515538 0.03224395 0.06168994 -0.03407224 -0.05610605 -0.08530006 -0.06488979 -0.00110842 -0.0897851 -0.19215207 0.10627578 0.0572255 0.02578527 -0.08221761 -0.06794619 -0.11827596 -0.17257953 0.03043419 0.02074004 0.00723985 -0.12993172 -0.16888301 -0.17994249 0.00769504 -0.18908359 0.02616666 -0.06865797 0.04396304 -0.04787564 0.02745893 -0.05203088 -0.05504394 -0.00368627 0.07781743 -0.12289329 0.08474184 -0.01396428 0.09345738 0.15955625 -0.08856699 -0.18208581 -0.00385845 0.02818164 -0.18355493 -0.12238325 0.03887042 0.0140871 0.12363515 -0.08685616 -0.28677818 -0.00603117 0.03066869 0.0815754 -0.14572512 -0.05402543 0.16693388 0.07749107 -0.15389536 0.00964511 0.0064449 -0.01974861 -0.06432188 0.02535892 -0.08288763
alj-x-bible 0.04363307 0.0496401 0.03836711 -0.04637825 0.19444457 -0.0583392 -0.08606276 0.05525336 0.06963886 0.09365326 -0.16112266 0.01460433 0.03479938 0.12506407 -0.04287347 -0.14507824 -0.01237706 0.00069111 0.04894932 -0.08797693 0.10025709 0.08414215 -0.04040723 -0.01021899 0.01223794 0.15819225 -0.08411547 -0.07888591 -0.02641666 0.09605255 -0.09758376 -0.15666102 0.00478804 -0.03313353 0.04597259 -0.00066992 -0.10878623 -0.00635799 -0.01369284 0.01928892 0.07904176 0.05534759 -0.08719905 0.07852494 -0.22869197 -0.24902308 0.1309625 0.13201512 0.06526711 -0.0470376 -0.00893141 -0.07477152 -0.00209562 -0.07956266 0.12286612 0.02459503 -0.08249387 -0.19990256 -0.1787086 0.04438753 -0.09830619 -0.08187623 -0.06857787 -0.032231 -0.22044465 -0.09566841 -0.09564577 -0.07012349 -0.08211082 0.10231367 0.06972352 0.03452955 -0.01678025 0.01797033 0.08616996 -0.0582619 0.0051196 -0.06215715 -0.11561062 0.03754402 0.09359571 -0.03525448 0.07048964 0.14238837 0.02466285 -0.01590265 -0.02218667 0.09839079 0.11241618 -0.09085353 0.05339433 0.11528824 0.02702461 -0.11540616 0.07848828 0.07415813 -0.07224546 -0.01377803 -0.05833612 -0.00608649
aln-x-bible 0.04817364 0.02256262 -0.03106428 0.05570037 -0.17440873 -0.08070123 0.00888158 0.09571101 0.09297473 -0.00596186 0.16231248 -0.03683826 0.10252916 -0.0444529 -0.04568319 0.06537569 0.08163986 -0.21497425 -0.08948454 0.01568107 -0.31778646 0.06484579 -0.2660222 0.22537655 -0.12172553 -0.18186961 0.21320781 0.08274338 -0.04167825 0.0321518 0.11606185 0.07403221 0.03064627 -0.07249922 -0.12221235 0.12530349 0.11322215 0.09169885 0.07849143 0.04553848 -0.04693662 -0.11149506 0.12838912 0.02737871 0.13436297 0.19496197 -0.02258261 0.01345424 -0.04908231 0.2111489 0.30495697 -0.08673781 0.09889471 0.08574729 -0.0412995 -0.13964792 0.16395444 0.15149222 -0.05121702 -0.07830596 0.04403199 0.11279989 0.0250108 0.0631603 0.02136243 -0.0434918 0.22811839 0.17787343 0.00518005 -0.08008362 0.16170485 0.08268958 -0.08678306 0.00752715 0.10423769 0.01664371 0.06558405 -0.05192541 0.04180639 0.09234113 -0.05862734 0.0062279 -0.03124523 -0.01806351 0.18434224 0.17990588 -0.06115008 -0.1068119 -0.22371398 0.29116967 -0.0774655 -0.07453024 0.03352321 0.00791941 -0.0216816 -0.08064897 0.05972253 0.09547673 0.09490651 -0.08669614
aln-x-bible-newworld 0.03041715 0.07570391 -0.0375031 0.07784861 -0.03096449 -0.03098299 0.11169796 -0.02543954 0.05710907 -0.12688065 0.03158992 -0.04409772 0.07481886 -0.02301806 -0.04043241 0.16172113 0.01032408 -0.12392993 0.09442421 0.14230962 -0.27684972 -0.03034022 -0.3387035 0.44017285 -0.0410955 -0.08066147 0.14514181 -0.05375439 0.09959981 0.12597813 0.12304957 0.14945331 0.03112063 -0.17069723 -0.12155029 0.04840748 0.1224078 -0.0172525 0.14827709 0.14245571 0.11863774 0.02828884 0.23833966 0.02609226 0.23377624 0.1282942 -0.10683507 -0.19343092 -0.09553484 0.24087189 0.18227127 -0.04649135 0.06838295 0.05384878 -0.22772294 -0.03542666 0.18863826 0.19814238 0.04868067 -0.03608409 0.07786182 0.08542642 0.05691497 0.1373847 -0.01815916 -0.00589998 0.181637 0.21536888 0.13704148 -0.01191384 0.13605382 0.0209432 0.03189297 0.00648142 0.21951018 -0.0397709 -0.04542961 -0.15457185 0.04960237 0.12428695 0.04939242 -0.11887704 -0.05392875 -0.11392138 0.158181 0.24353017 -0.16153528 -0.08161082 -0.2638564 0.309469 -0.10902451 -0.05004023 -0.16660133 0.02955706 0.00941545 -0.00192976 -0.04408351 0.09529333 0.21167849 -0.04420529
alp-x-bible 1.02382094e-01 1.31389201e-01 5.81209511e-02 1.34236500e-01 -1.14742011e-01 -9.40510705e-02 -2.83390153e-02 6.59204125e-02 -1.38028949e-01 -1.92443579e-02 -1.60362758e-02 2.22319681e-02 1.16202608e-01 1.65567085e-01 -1.29459709e-01 3.09971482e-01 1.60550714e-01 7.30341822e-02 -1.02177367e-01 -7.77108446e-02 -9.11368802e-02 -3.13253179e-02 5.26623912e-02 1.72835961e-01 8.19564685e-02 1.73144341e-02 2.66791843e-02 -2.34587729e-01 4.15562019e-02 -6.37711361e-02 -1.04929395e-01 1.17797554e-01 -7.53723681e-02 -1.76009268e-01 -5.01183830e-02 8.98512267e-03 -3.01326457e-02 1.11276247e-01 1.45871520e-01 4.72844616e-02 -1.41579434e-01 5.44675291e-02 1.19160093e-01 1.43711403e-01 -8.72099772e-02 -1.26456454e-01 -6.56935945e-02 1.04737632e-01 1.12776056e-01 -1.49499644e-02 1.79854900e-01 -6.90387115e-02 -6.70588901e-03 1.10964522e-01 -3.09431758e-02 -5.22048119e-03 -1.44975528e-01 1.70487300e-01 -8.85858685e-02 4.34926003e-02 -8.02643597e-02 -9.68797281e-02 8.30318499e-03 -4.63809893e-02 8.60414580e-02 1.02739014e-01 1.95343405e-01 2.06519395e-01 6.83414470e-03 6.04011118e-02 1.34860739e-01 -2.42312960e-02 1.31605004e-04 -6.91396520e-02 1.10932745e-01 2.29198225e-02 -5.71403168e-02 -7.02213049e-02 6.51111379e-02 8.19622651e-02 2.09062263e-01 1.24741029e-02 -1.14176184e-01 -1.08876564e-01 1.30847961e-01 8.05408880e-02 9.00786817e-02 3.62714864e-02 -2.50755608e-01 -1.10359080e-01 -8.87228698e-02 -1.75724160e-02 -5.70082068e-02 -1.35392562e-01 1.08224824e-02 -6.78731650e-02 2.90926360e-02 -6.61118934e-03 -3.07365805e-02 1.84748501e-01
alq-x-bible 0.1237988 0.0322288 0.10431126 0.01143004 -0.15013771 0.05640483 -0.11690392 0.08097077 -0.00384568 -0.07543096 -0.06963251 -0.01218361 -0.18947284 -0.10285595 0.11758076 -0.07227779 0.0763334 -0.00607244 0.07193985 -0.12415285 0.01211881 0.11739603 0.08604986 -0.12309567 0.03285728 0.00234235 -0.07195555 0.06626296 0.00024402 0.0005589 0.13131787 0.01289205 0.05125177 -0.01751086 0.1596689 0.07416391 -0.11882375 -0.01397226 -0.04577664 0.01467893 -0.08790126 -0.00746423 -0.02846112 -0.08046476 -0.03728533 -0.08734956 0.03931852 -0.00526808 -0.0535391 0.05815595 -0.00715389 0.00283883 -0.06160063 -0.05597223 0.04223077 -0.03947314 -0.01507744 0.12408055 0.08922752 -0.02648875 0.05108865 -0.06925409 0.04333707 -0.05483305 0.08636653 -0.03057696 0.00375319 -0.01623797 0.03162592 0.05723833 -0.15272415 0.02536743 -0.05581656 -0.05172809 -0.0078567 0.03270547 -0.02721186 0.14299205 -0.0532332 -0.13465735 -0.11264834 0.07045454 -0.08652518 0.01187978 -0.07734778 0.04723155 -0.03789377 0.01862972 -0.09574766 -0.12989335 0.03997559 -0.06293944 -0.13871771 0.01757384 0.07192218 -0.0532356 -0.02436862 0.07927484 -0.00984677 0.10239612
alt-x-bible 0.03503126 -0.10336675 0.18715863 -0.02960693 -0.08765294 0.07713117 0.05837224 -0.1086921 -0.09872388 0.0904479 0.02178798 -0.13748689 -0.13615344 -0.02691885 0.1347682 -0.06175959 0.13934591 -0.06958541 -0.08607179 0.09625965 -0.07042494 0.13467072 -0.02086716 -0.00429174 -0.02460608 -0.17720617 0.13223748 0.03176234 0.12103769 -0.18576798 0.06448112 -0.11105438 0.00868372 0.02105523 -0.05003126 -0.01789901 0.03954497 -0.11457568 0.02315041 0.07066301 0.02956181 0.0080802 0.00719966 0.07509816 0.01854661 -0.00295354 0.1345613 0.07454169 -0.12825128 0.16499174 0.12497164 0.19988419 0.06625787 0.02787788 0.0348333 0.00628001 0.05192621 0.02922078 0.11067741 -0.09494664 0.25269896 -0.05100329 0.04040757 -0.13666318 0.17624594 -0.09206579 0.11895547 -0.04170828 0.00468769 -0.19013034 0.06658794 0.16201723 0.04151466 0.05298453 0.019278 0.00851206 0.15760396 0.00634889 -0.00572183 -0.03851178 0.22261189 0.09898574 0.12871043 -0.03605363 0.04320749 0.3082994 -0.06582307 -0.1125073 -0.07735511 0.02842924 -0.0026098 -0.13472016 0.00155838 0.01046965 0.09654097 0.06054017 -0.06407054 0.16982685 0.11375664 0.03424044
alt-x-bible-southern 0.082982 -0.07522358 0.00069879 0.06481601 -0.24317038 0.10297048 -0.01716998 -0.07463405 0.02234098 0.10690768 -0.01125974 -0.03731021 -0.14595751 -0.14637518 0.08663484 0.00073929 0.14274414 -0.21087116 -0.06185984 -0.02132025 -0.1940888 0.14832753 -0.14734405 0.08906177 -0.09252836 -0.12353548 -0.01167826 0.13796397 0.10751835 0.00523294 0.01477204 -0.08513446 0.0140809 0.08840371 -0.09102798 0.04976197 -0.01355975 -0.10835517 -0.12387349 0.18586366 -0.0784683 -0.03244152 -0.01999405 -0.0377663 0.09215495 -0.01602455 0.01699895 0.02090587 -0.10909025 0.02093902 0.19133642 0.04675939 0.15453456 0.0762976 0.0019915 -0.14584148 -0.03083248 0.09107914 0.10387788 -0.05280336 0.18886067 -0.13678123 0.06090665 -0.03766107 0.18112119 -0.11708384 0.22411907 -0.08498616 -0.06692747 -0.03050821 -0.00852365 0.10855059 -0.111526 -0.02159903 -0.13713974 0.13907677 0.28221208 0.11954588 -0.06487253 0.04298057 0.11086811 0.06008173 0.0880539 0.00099216 0.05937846 0.33054736 -0.07108795 -0.01039263 -0.05472912 0.04583428 0.14866345 -0.02974782 -0.10945707 0.0230578 -0.01919863 -0.05239478 -0.10928527 0.05196451 0.05354799 0.07872643
alz-x-bible 0.09485132 0.00062975 -0.13855588 0.11248196 -0.00603625 -0.05974917 0.10778259 0.05237275 0.07007584 0.01084065 0.03818081 -0.06712711 0.17696385 0.11786188 -0.03689715 0.04181569 -0.0454035 0.05170576 -0.0397063 0.06088718 -0.0380318 -0.0060928 -0.13858421 0.15580161 0.05619445 0.09418554 -0.04410569 0.01491259 0.08298566 0.06972724 -0.15014133 0.0427481 0.01952869 -0.07389884 0.01888469 -0.06650443 0.0613327 -0.09719142 -0.00629297 0.08507739 0.01760926 0.01908063 0.01096989 0.10646994 0.04552339 -0.0556468 -0.01197548 -0.03663368 0.14360552 -0.07007651 0.0255066 -0.03040343 -0.0627599 0.05370805 0.03958657 0.05597486 -0.10759919 0.06622964 -0.11388489 0.04926494 -0.09251178 0.13063304 -0.04752743 -0.06084264 0.11049619 0.00434969 -0.06209632 0.02581577 0.08286531 0.07714038 0.00387713 -0.03076134 0.06971289 -0.00836874 -0.00592288 -0.02968691 0.01168575 0.0215965 -0.01423747 0.00171406 0.08001122 0.06595336 -0.08269558 -0.08202571 -0.06341128 -0.07910319 -0.01641766 -0.04318212 -0.03112546 0.14623223 -0.02260057 -0.08260413 0.08246727 -0.10970183 -0.03546068 0.01028575 0.05732897 0.07782629 0.04930779 0.06152115
ame-x-bible 0.04961433 -0.02379813 0.05551775 -0.06349744 -0.20888434 0.039476 -0.05827908 0.0304815 -0.0951932 -0.06692336 0.09743182 -0.07674565 0.04185263 -0.06153949 0.09432799 0.02603487 0.00090188 -0.07716514 -0.01113398 -0.05787754 -0.04409175 0.06608426 0.06893916 -0.06197899 -0.04544191 -0.08471563 -0.0269985 0.0323943 -0.05184519 -0.06112773 -0.05857171 -0.02214161 -0.13097711 0.08352964 -0.04542937 0.00404712 -0.17306708 0.12588805 -0.1316033 0.09633917 0.04367373 -0.12052939 0.13356525 0.01888508 0.12301581 0.01924746 0.06384644 0.0489105 -0.16179658 -0.03244416 0.06133647 0.03744541 -0.07424151 0.02634528 -0.03782182 -0.00071595 0.06595104 0.02689132 0.08152848 -0.10828813 -0.04391347 0.05341282 -0.07520207 0.1404037 0.09999336 0.04452857 0.06528752 0.05948826 0.0191915 0.03898444 0.00180879 0.1088497 0.05371032 -0.07131524 0.07273901 -0.06501851 0.01923836 -0.08030606 0.12344869 0.08205564 -0.01831838 -0.07348903 0.03033564 0.06798121 -0.0267977 -0.07181312 -0.05824726 0.11573901 -0.08221862 0.12507989 -0.01612905 -0.07313091 -0.0513045 -0.05123037 -0.0465916 -0.07156155 0.05988562 -0.05846107 0.03433383 0.04688944
amf-x-bible 0.02851029 -0.05894172 0.08933744 -0.02804996 -0.23536803 0.06482342 0.11138861 0.13430645 -0.08664235 -0.03478687 0.01869015 -0.00610644 -0.03015285 -0.14018151 0.02374117 0.02269673 -0.05715611 -0.02748891 -0.00902652 0.08971756 -0.12237485 0.08529067 0.03091857 -0.02468505 0.01947648 -0.06037448 0.07511395 0.12872055 0.17118447 0.00225729 0.0284977 0.0659805 0.06972917 -0.03536029 0.01367304 0.1598785 -0.06638105 0.13549541 -0.06727598 0.04494817 0.09349355 0.05681825 0.18390101 -0.08099743 0.26285556 0.17229341 0.05675164 0.08641154 -0.22267431 -0.00301069 0.15034726 0.10114218 0.021399 0.01904177 -0.12486883 -0.16589929 -0.01050605 0.12360583 0.10887738 -0.03052932 -0.00093801 0.04878586 -0.06913209 0.04226189 0.139423 -0.00295713 0.2483611 0.06608041 -0.01932401 -0.04764511 0.06877248 0.05081579 0.01163569 -0.09274893 0.02470767 -0.06721634 0.13589914 0.01617588 0.05373454 0.07896344 0.0293869 -0.02427036 -0.12067674 0.0207147 0.17514253 0.05393107 -0.12723918 -0.06372206 -0.20567292 0.03202391 -0.04444125 -0.16210227 -0.07283355 0.02126206 0.00958771 -0.12303175 0.04476612 -0.02422406 0.06753308 -0.07400873
amh-x-bible 0.0781605 0.14610367 -0.04072044 0.05884875 -0.18780762 -0.04134203 -0.14643358 0.12729295 -0.08262011 -0.11569272 0.14087042 0.03113987 0.06021417 0.17645495 -0.19596052 0.23351787 0.11874589 0.26020256 -0.1690614 -0.05256467 0.07985758 -0.17257962 0.25682288 0.0695462 0.26112372 0.00132168 -0.09419199 -0.16823205 0.07684473 0.00407142 0.03017315 0.10315399 -0.01238283 -0.04311838 -0.07470445 0.0339588 -0.1562987 0.12217414 0.14712171 -0.13073348 -0.01337735 0.05097064 -0.04847112 0.03919583 0.01803842 -0.14808355 0.07312577 0.06267928 0.02948011 -0.07678507 0.0842085 -0.1822625 -0.27157882 -0.05656506 -0.0148461 0.02389238 -0.17954163 0.04154996 -0.1611087 0.07085084 -0.12087055 0.02913647 0.09382317 0.06690507 -0.01729253 -0.01514553 -0.00373749 0.10891555 -0.09723651 0.0708915 -0.05850775 0.02356418 0.14276718 -0.09672732 0.2614985 -0.1207936 -0.16308655 -0.00082851 0.1282037 -0.10797026 0.06736131 -0.06873202 -0.18577638 -0.06406081 0.06660403 -0.31359702 0.02398395 0.25161693 0.05999985 -0.20990996 -0.1797157 0.05432057 -0.04820884 -0.21084853 0.06570178 0.01473942 0.01831007 -0.15138102 -0.21652876 0.06606952
amh-x-bible-latin 0.06301926 -0.12988357 -0.06541356 -0.08262614 0.09357684 -0.00534421 -0.03921416 0.04347106 0.00565242 0.10847961 0.00406406 0.02789119 -0.11346277 -0.16375425 0.09114321 -0.21414074 -0.13163687 -0.142455 0.09952101 0.02301893 0.11758582 0.04965351 -0.16944756 -0.1493211 -0.03517994 0.05649038 0.06192083 0.02733342 -0.14372388 0.00780484 -0.0810475 -0.20221704 0.02771521 0.05270237 0.04946385 -0.14229134 0.06747068 -0.0746195 -0.0294819 -0.10029962 0.07729656 -0.07855021 0.09355088 0.12168492 -0.15568635 -0.0189051 0.06003118 0.01813547 -0.07050287 0.11598657 0.01360887 0.06848592 0.19202852 0.05430074 0.15524265 0.10926969 -0.0091652 -0.20119955 -0.07592126 0.11284051 0.15028198 0.10884277 -0.06177964 0.00297265 -0.13898915 -0.19752383 0.01031373 -0.13391587 -0.07180659 0.15659809 0.0943002 -0.11591736 -0.0597381 0.02013738 -0.13059627 -0.14885712 0.06667153 0.01140093 -0.13232642 0.05493319 -0.09064924 -0.0123187 -0.037886 0.08617783 -0.0946818 0.17738895 -0.05957423 -0.02397078 0.03298562 -0.06675471 -0.00479326 0.02085774 0.17327784 0.07274512 0.14053752 0.12083207 -0.14186457 0.02313793 0.22384594 0.05323179
amh-x-bible-newworld 1.56929642e-01 -4.41565551e-03 -1.45828903e-01 1.04038008e-01 1.16637520e-01 7.58414194e-02 -7.39578083e-02 3.42495143e-02 -1.19217951e-02 -3.83428135e-03 -6.91383556e-02 -2.01165099e-02 -1.32122850e-02 1.51432201e-01 -1.12135395e-01 2.72551086e-02 9.14755538e-02 1.52729794e-01 -1.33480996e-01 -2.18621828e-02 1.77966863e-01 -2.16459125e-01 7.35957474e-02 1.74908653e-01 4.88159284e-02 1.27058411e-02 6.23777620e-02 -2.11641461e-01 -4.81693372e-02 1.13657573e-02 -5.60767017e-03 1.93734393e-01 -2.31312662e-02 -1.46613970e-01 8.34748498e-04 -9.98061709e-03 -5.23470230e-02 4.66588512e-02 1.66513145e-01 8.11156556e-02 -1.83632616e-02 1.15986630e-01 -1.28027171e-01 -4.68450300e-02 -7.07900822e-02 -5.17424643e-02 -5.35071827e-02 2.78454274e-02 8.54787827e-02 -1.82413802e-01 3.30672748e-02 -8.17471892e-02 -5.71670644e-02 4.65953015e-02 3.14412788e-02 9.65670645e-02 -1.64941087e-01 9.10082459e-02 -1.80348814e-01 5.36899231e-02 -1.64578967e-02 -1.17649078e-01 -2.64682304e-02 -1.11108102e-01 -8.34505627e-05 3.57674174e-02 -1.43930331e-01 1.10099413e-01 6.24108911e-02 -8.51707757e-02 -8.37405119e-03 7.07170889e-02 2.80391891e-02 4.36450653e-02 4.08907719e-02 -1.09661438e-01 -2.14898303e-01 -1.14599630e-01 1.51674896e-02 -1.15325786e-01 -7.59613439e-02 -7.80520886e-02 -5.44358529e-02 -3.61532834e-03 7.04359263e-02 -9.93172154e-02 -3.97523865e-02 4.41284180e-02 -1.54712498e-02 -4.47190143e-02 -1.58136308e-01 1.25080228e-01 -3.81169543e-02 -3.29527669e-02 -1.00932956e-01 -2.75215763e-03 1.74811512e-01 -3.77590826e-04 -1.88211992e-01 8.12301561e-02
amk-x-bible 0.12511867 0.02587242 0.00474221 0.01994722 -0.04959502 0.0649289 0.10822061 -0.07257345 -0.06111332 0.14285903 0.02520029 -0.09657833 0.01410053 -0.0607684 -0.31977025 0.07150996 0.03615119 0.27128148 -0.13306856 -0.0986679 0.1158487 -0.02292825 0.1315879 0.10162815 0.10410143 0.0243759 0.05695682 -0.18619777 -0.02646665 0.09300372 -0.00343936 -0.02164708 0.05141491 -0.1528415 -0.12923355 -0.04128575 0.10659011 0.07171009 0.13481314 0.2118706 -0.06344519 0.08535247 -0.10919432 -0.16040845 -0.04780182 -0.06414641 -0.1454213 0.12488679 -0.02420272 0.06762943 0.08000264 -0.10756595 -0.16338189 -0.01817246 -0.16819274 0.12014131 -0.15207413 0.20738605 -0.12647489 0.01560286 -0.07829726 -0.07735364 0.1256485 0.00869641 -0.0101312 -0.09558421 -0.04230562 0.06975684 0.06017914 0.02859075 -0.0772372 -0.03600771 0.04017722 -0.08428286 -0.10590807 0.04078914 -0.08925726 0.05900955 0.11219209 0.08201829 0.08267549 -0.06382563 -0.00792216 -0.23738147 0.16150147 -0.04394747 0.15579766 0.11540238 -0.0601371 0.01843296 -0.09898715 -0.01108498 0.02514623 -0.02072019 -0.11450759 -0.11164859 0.0311603 -0.00074231 -0.17330228 -0.06813609
amm-x-bible 5.53573435e-03 2.22748205e-01 6.71639666e-02 7.17467889e-02 -3.11264604e-01 -2.27050148e-02 9.65057090e-02 1.37152582e-01 -1.23469546e-01 1.40936747e-01 -8.68940540e-03 -6.08925968e-02 -1.05716102e-01 -1.49512708e-01 -1.93795830e-01 7.93946311e-02 2.13428140e-01 3.16418558e-01 1.71071477e-02 -2.99287005e-03 -2.08570324e-02 -7.09520355e-02 3.47115368e-01 -1.28560752e-01 4.30349037e-02 -1.60051301e-01 1.46687508e-01 -2.52647558e-04 1.14929199e-01 4.20878343e-02 8.98844823e-02 -8.15212652e-02 1.80968568e-02 -1.14742376e-01 3.88209708e-02 -4.59639961e-03 -1.01556949e-01 1.39902636e-01 -5.19341091e-03 9.61201712e-02 1.22233637e-01 1.77208290e-01 1.74537361e-01 -9.34182853e-02 6.74866214e-02 1.62080288e-01 -1.41687781e-01 1.18521668e-01 -1.29795447e-01 1.96996871e-02 -3.27132922e-03 -8.07480514e-03 -1.17014460e-01 -2.39980474e-01 -1.13223538e-01 3.19214240e-02 -6.02503568e-02 4.14084405e-01 -1.14325630e-02 -5.02064414e-02 5.83979972e-02 -4.82898243e-02 9.78847221e-02 1.23278284e-02 6.03780895e-02 6.99865967e-02 2.74211597e-02 8.02992731e-02 3.44188102e-02 -1.40101969e-01 -5.60397841e-02 1.81491878e-02 -2.69089527e-02 -2.35778913e-01 -1.45280070e-03 2.84500793e-02 -1.19977951e-01 3.53420004e-02 5.66933416e-02 2.04873309e-01 1.22712061e-01 4.54451889e-02 -9.94774699e-02 -2.83696890e-01 3.17383409e-02 -1.22619584e-01 2.84604579e-02 1.11012548e-01 -5.16891181e-02 -1.26730382e-01 -1.97741449e-01 -1.65574148e-01 1.20631978e-02 -1.04184859e-01 -1.52498372e-02 -3.77867967e-02 -6.57597324e-03 -2.01790296e-02 -2.15662986e-01 -9.38899964e-02
amn-x-bible 0.10384008 0.08727231 0.01734436 -0.02028554 -0.07029574 0.06496134 0.08889859 -0.01043917 0.07610651 0.15278652 -0.17694166 -0.08077331 -0.09396534 -0.11597861 0.09350543 -0.07089185 0.16339085 0.03482466 -0.0261185 -0.00299183 0.09958759 0.02883513 -0.01314558 -0.05175015 -0.10160714 -0.10113285 -0.04370851 0.0044506 0.08497322 -0.0169367 0.07461137 -0.04656013 0.03840871 0.06163977 0.03699583 0.03676555 0.07776765 -0.05614213 0.06565539 0.05007332 -0.04355784 -0.01184664 -0.00275524 -0.08362937 -0.10275712 0.03705216 -0.04834606 -0.02670065 -0.11207733 0.07238928 -0.03300975 0.11503486 0.07920361 -0.09699514 -0.06353985 0.00769798 0.05242169 0.04117462 -0.02945067 0.08051521 -0.02222114 -0.03946872 0.06695784 -0.00154265 0.03978287 -0.1290832 0.15673108 -0.13728742 -0.05859396 0.09010139 0.03995737 0.09706987 -0.10655094 -0.07400298 -0.02428932 0.07259514 0.1174086 0.15201883 -0.15950921 -0.05297669 0.07656378 -0.07049395 0.01559493 -0.07929671 0.00586895 0.11190634 0.00885843 0.02655941 -0.09363438 -0.01856647 -0.0323276 -0.01292319 -0.00813936 -0.06584153 -0.06262156 -0.09378966 -0.21822983 -0.00525499 -0.08049934 -0.03007837
amn-x-bible-naineri 0.02822669 0.06004901 0.01756927 0.08936619 -0.06767955 -0.07192832 0.11152878 -0.07970114 0.03531557 0.02332706 -0.09804205 0.0047331 -0.09918893 -0.0731989 0.03677286 0.00109945 0.0573337 -0.08236279 0.11861239 -0.03855714 -0.07989699 0.07994537 0.06427132 -0.02531504 -0.05098379 0.04285149 -0.03277195 -0.01950121 -0.02356406 -0.1087737 0.11612929 -0.04990976 -0.06489276 0.09136888 0.00089626 -0.05232956 -0.05335649 -0.07789776 0.09024824 0.00046708 0.04877326 -0.05484642 -0.08047581 -0.02112482 -0.11401208 -0.13696879 0.10237885 -0.04952047 0.09775822 0.12019125 0.10513569 -0.01585078 -0.0794865 -0.07205044 0.00405067 0.06252024 0.01034443 0.22056566 0.03701219 -0.03876238 0.08615881 -0.05049159 -0.05432409 -0.10604814 0.02299732 -0.16606489 0.14290375 -0.08877608 0.1246303 -0.03930528 -0.03874618 -0.06401689 0.00309378 -0.08525472 0.02587939 0.10740478 0.12287175 0.13697918 -0.09967618 0.02462819 0.10696425 0.05645299 0.10173131 -0.13808559 -0.05774723 0.04562784 -0.03284134 0.05069678 -0.01944804 0.12331482 0.02219194 -0.11627217 0.03100761 0.05017024 -0.10453861 0.01173136 -0.14229776 -0.02878949 0.08936343 -0.03254744
amp-x-bible 2.71292962e-02 6.93648085e-02 1.66005716e-01 4.37224377e-03 -8.04599077e-02 8.24124888e-02 -1.07051030e-01 -2.06640270e-02 -4.40678699e-03 6.59402087e-02 7.64065757e-02 -5.47541790e-02 -7.38390663e-04 -1.09073848e-01 2.28536546e-01 -1.09596722e-01 5.00623435e-02 -7.31358752e-02 8.19112547e-03 3.83320414e-02 -2.85426192e-02 4.08169925e-02 -4.61283959e-02 3.28886672e-03 2.72749346e-02 1.04865013e-02 -1.85596384e-02 -3.23385969e-02 4.91130501e-02 -1.20424805e-02 6.94856271e-02 5.48256449e-02 1.50892697e-02 6.39860108e-02 -2.16275756e-03 1.29590049e-01 -1.61012009e-01 2.68649925e-02 -2.90785972e-02 -6.87864944e-02 5.59745282e-02 -5.56163117e-02 1.01264276e-01 -6.46000728e-02 2.29581501e-02 3.53066735e-02 1.54469311e-01 7.14675933e-02 -1.26242235e-01 1.17881715e-01 5.87084405e-02 1.53391153e-01 -6.35114536e-02 -3.26184381e-05 -3.73131298e-02 -6.66997954e-02 4.98454124e-02 6.02756999e-02 3.93789299e-02 9.98386741e-02 8.03310890e-04 2.35778876e-02 -6.00855565e-05 8.37087631e-02 -6.63450211e-02 -7.24043846e-02 2.04659164e-01 3.73307839e-02 -1.43439397e-01 -4.71736714e-02 -8.29561949e-02 9.85976160e-02 2.73427740e-02 7.02201128e-02 3.52667756e-02 -7.46171921e-02 -1.93616878e-02 -1.30280228e-02 3.98797030e-03 -2.04196498e-01 -7.70611838e-02 1.16996266e-01 -4.24796529e-02 -2.67542526e-02 4.11873013e-02 1.76319763e-01 1.10572159e-01 -2.11405032e-03 -1.96894974e-01 -1.24934420e-01 1.04155593e-01 4.46616746e-02 -7.50030130e-02 7.35095143e-02 1.57891884e-01 1.21799810e-02 -1.43415496e-01 -8.38756338e-02 1.48279041e-01 5.81005812e-02
amr-x-bible 0.03372501 0.07093186 0.11510571 -0.01894347 0.01970665 0.07723692 -0.03246043 -0.04758612 -0.0275152 -0.05994896 0.12285301 0.05443835 0.05119487 -0.03509392 -0.05846475 0.09124824 -0.12322115 -0.02982491 0.00360013 0.1344855 -0.00290864 -0.05048399 0.07390852 0.07250802 -0.06638028 0.02797047 -0.03245872 0.15756932 0.04300109 -0.11096498 -0.07195105 0.06035711 0.02303211 -0.05593358 0.01077037 0.18470426 0.03464423 -0.05191734 0.07400249 -0.0864936 -0.09585182 0.06582943 -0.08172788 0.0839903 0.13086873 0.09974641 -0.09729578 -0.09761674 -0.06206846 -0.06571233 0.0229377 0.12220511 0.10774581 -0.00290569 -0.03868114 -0.0133224 -0.06991583 0.07753846 0.01555649 0.06778325 0.10232825 -0.04733612 0.01376453 -0.02595959 0.05816899 0.12985091 0.09523971 0.08669878 -0.01119288 0.00610858 -0.0916033 0.06325894 -0.0112971 -0.08953617 0.00197874 0.08982121 0.02344689 -0.04846968 0.05836479 -0.06569404 0.02066292 0.01081156 0.06200227 0.1088358 0.03784529 -0.04530354 0.00031024 -0.11258335 -0.04027267 -0.00775522 -0.08980017 0.04918503 0.03324059 -0.00578584 -0.06376146 -0.06607113 0.0835219 0.03352414 0.0894456 -0.06560174
amu-x-bible 0.03155152 -0.12889266 0.06574379 -0.10193122 -0.14234671 -0.06257799 -0.04779265 0.08591215 0.07529875 0.04182944 0.03206803 0.07131764 0.00707759 0.03327474 0.03861771 -0.09989814 -0.05603204 0.15170343 0.06577767 -0.08967832 0.1518686 -0.13684277 -0.00886455 -0.05451361 0.02832996 0.03450163 -0.11766983 -0.01307313 0.05795067 -0.11504693 0.00344167 -0.04249291 -0.11359578 -0.07087046 0.13249469 0.07001176 -0.09024636 0.11085791 -0.09731468 -0.11947975 -0.05089508 -0.00678163 -0.0577325 -0.0602706 -0.00763462 -0.06599156 0.06712966 -0.04320535 -0.00211825 0.02948566 -0.10930771 -0.06874949 -0.05342038 0.06324384 -0.09639367 0.11626247 0.03060908 0.06273356 0.08135732 0.02939155 -0.060389 0.01427507 0.02663553 -0.09048004 0.08804886 0.1054435 0.02665649 -0.00375933 -0.05506063 -0.13271189 -0.05852076 0.15465316 0.06024508 -0.08293681 0.07516975 0.02116654 -0.0665075 0.04431307 -0.00828993 -0.11997113 -0.15662122 -0.0669596 -0.03019523 0.05772308 -0.07525976 0.01062167 -0.06931694 -0.00233476 -0.11253484 -0.04470158 0.03780318 0.0703157 -0.04247935 -0.01496864 -0.05094957 -0.08092672 0.03359923 -0.07291505 0.03340466 0.00076882
ann-x-bible 0.00986628 -0.0310749 0.06239405 -0.04547089 0.05328812 -0.07615517 -0.02322356 0.08000696 -0.01267942 -0.06606631 -0.02484906 -0.05401639 -0.07805486 -0.04718313 -0.08097999 0.01145034 -0.02110435 0.08208252 0.05074288 0.03595897 0.03201609 -0.12421411 -0.01539255 -0.12226528 0.00359759 0.09633177 -0.09081553 -0.0147161 -0.05502203 0.06046444 0.03796373 -0.00836985 -0.08155364 0.0614916 0.07812095 0.08281562 -0.12782781 0.12944552 0.08974636 -0.02810349 -0.08896367 0.00062396 -0.04805179 -0.09571284 0.0042534 0.08941385 -0.03348614 -0.00071374 0.12389721 -0.1875755 -0.12401058 -0.14522931 0.02599756 0.01916148 0.01212014 -0.07206374 -0.06252407 -0.11127481 -0.02710249 0.03688289 -0.01106089 0.075781 -0.01502904 0.03749308 -0.01192275 0.07308635 -0.16785909 -0.0533041 0.09880418 0.09178755 -0.10175527 -0.01535077 0.05579484 -0.05936448 0.01600477 -0.06314782 -0.21338299 0.03775927 0.04899739 -0.09728407 -0.04256732 -0.08375981 0.02702342 0.01382962 -0.09205547 -0.21262568 0.02691812 0.11709509 -0.01989828 -0.10285816 -0.09067689 -0.02617759 0.1207585 -0.09936799 -0.0573622 0.05545783 0.04324803 -0.14282687 -0.00859987 0.08096075
anv-x-bible 0.0188409 0.00318449 0.04538497 0.11074547 -0.00299813 -0.0086545 -0.04934693 0.18292445 -0.03663566 -0.11717609 0.01057684 0.03685987 0.13293706 0.06124813 -0.0139772 0.02044856 -0.05314381 0.17799798 -0.13030809 0.05591251 0.12243462 -0.1867701 0.0769139 0.02956795 0.01459704 -0.02059254 -0.01468911 0.02964759 0.02632253 0.0200837 -0.07115612 0.16758834 0.01031884 -0.06267864 0.0803087 -0.02875786 -0.0334999 0.09267145 0.00550239 -0.12506232 0.01829673 0.0612178 -0.04668732 0.03948242 0.0148926 0.0783142 -0.0495888 -0.11756323 -0.05621046 -0.01702061 -0.13992432 -0.07705321 -0.03491799 0.07380701 0.02758246 0.00344874 -0.09882838 -0.01531329 0.02981467 -0.1302627 -0.11568879 -0.02342595 -0.05080125 -0.03202743 -0.0678931 0.03561494 0.03061587 -0.00058837 -0.07017874 0.00587683 -0.07248785 0.03252691 -0.01566788 -0.06467175 0.1138875 -0.11837292 -0.17119119 -0.0942571 0.19212782 -0.07697698 -0.07884823 0.02294438 -0.06311963 0.09317791 0.01535502 -0.24136283 0.07504635 0.06598686 -0.10757858 -0.00982422 -0.01198715 -0.03533833 0.12758107 -0.01529838 0.09190363 0.06701509 0.04817896 -0.1240629 -0.135182 0.07644611
aoj-x-bible-filifita 0.01471791 0.02171665 0.08157852 0.02710481 0.03507526 -0.09441948 0.01174202 0.00688531 0.06371015 0.11529957 -0.0171795 -0.01407106 0.02821624 0.11096258 -0.00799391 -0.06243996 0.16306445 0.07299377 -0.05144908 -0.0083588 -0.01001974 0.03163108 0.08068305 -0.07066093 -0.07584967 0.02839028 0.11402751 -0.12000579 -0.05129824 -0.12376787 -0.03163735 -0.02644303 -0.09527563 0.07616375 -0.03611626 -0.04298402 0.11262891 0.02234357 -0.05897925 0.02178372 0.05101074 -0.02793976 0.03331953 -0.08937517 -0.15924458 -0.03485439 0.01756396 0.09100407 0.12610863 -0.00448478 -0.01545884 -0.06353275 -0.05499788 -0.03168677 -0.05854132 -0.04989856 0.10186216 -0.01199412 0.00724135 -0.02711529 0.05158159 0.0064669 0.06923339 -0.04503189 0.07083719 -0.06085209 0.10235601 -0.0101122 0.06833559 -0.05554577 0.0713984 0.01168435 -0.07419851 -0.11583258 0.05010215 -0.02733396 0.092002 0.05912837 -0.09266026 0.00518334 0.05317467 0.07582176 -0.05616543 -0.07664988 0.1367411 0.0712386 0.10084737 0.01205339 -0.01611951 0.03548161 0.05969067 -0.09294946 -0.03796794 0.05790279 -0.05405277 0.01987983 -0.10770865 0.03968842 -0.02366655 0.06662736
aoj-x-bible-mufian 1.19535454e-01 6.96920827e-02 -1.37558743e-01 6.33884445e-02 1.34049647e-03 7.27380067e-02 -4.78183813e-02 6.60635829e-02 -5.69522418e-02 5.62123172e-02 -1.26564994e-01 7.19217807e-02 -9.02624577e-02 -2.98318416e-02 -8.61434639e-02 6.22389615e-02 1.05260268e-01 6.16131872e-02 2.22612582e-02 2.29851473e-02 -4.35622595e-02 -2.91392524e-02 1.67016927e-02 2.32128259e-02 -6.75758719e-02 4.41851467e-03 1.15725011e-01 -3.31451222e-02 -1.19026564e-02 -8.08879584e-02 1.14482842e-01 -1.42420143e-01 3.43799517e-02 -2.20070984e-02 6.67234659e-02 -5.78397959e-02 -2.02315263e-02 5.45771532e-02 -1.48738688e-02 -4.08715867e-02 -1.07450068e-01 5.66353723e-02 -2.85714753e-02 2.46218890e-02 -1.32107303e-01 3.82252224e-02 -6.14231043e-02 -2.45274585e-02 -2.73277983e-02 4.45016026e-02 1.05689116e-01 -7.17685148e-02 -1.12794161e-01 2.10095402e-02 4.67178337e-02 -1.34364339e-02 7.73026869e-02 -3.44649069e-02 -3.85417193e-02 -3.80616114e-02 -3.02404128e-02 -7.01604038e-02 5.46114780e-02 -1.69379208e-02 -9.74976122e-02 -6.92559630e-02 6.34212121e-02 -6.62401021e-02 -4.83590364e-02 3.34225446e-02 -7.32710510e-02 -6.05462641e-02 5.61618283e-02 -1.38647065e-01 -4.84090410e-02 -4.39407267e-02 -1.15292929e-01 1.48970395e-01 -8.61718059e-02 2.19709277e-02 5.37944883e-02 -8.47569387e-03 3.24892141e-02 1.27946958e-02 8.53943347e-05 -3.58373225e-02 2.01415773e-02 1.24233335e-01 -3.96434441e-02 -6.35408971e-04 6.46770373e-02 -1.07589282e-01 5.50859869e-02 3.41615677e-02 -1.16442934e-01 1.94428451e-02 -5.90458326e-02 -2.91348831e-03 -6.35078698e-02 8.85962471e-02
aom-x-bible 0.05024617 0.2846779 -0.10706345 0.1795763 -0.22093917 0.12563902 0.02442918 -0.07484363 0.00937226 -0.03355607 0.03851261 -0.0624435 0.05441625 0.04583276 -0.18100408 0.1745649 0.33163977 0.07368984 -0.03831282 0.01464285 -0.12279139 -0.19537054 0.2411069 0.18354753 0.00241652 -0.17496404 0.06790742 -0.18161042 0.18248336 -0.05832392 0.11023012 0.22157416 -0.05084333 -0.04917519 -0.06171057 0.00749266 0.04531002 0.18067594 -0.00239695 0.13952763 -0.1080161 0.16970009 0.1092075 0.09427471 0.0035261 -0.0573822 -0.04145907 0.01945718 0.0895612 0.05941913 0.12743014 0.03674652 -0.11797623 0.16619493 -0.07764074 0.03459202 -0.14563043 0.20893441 -0.07208508 0.09026632 -0.0394787 -0.13671395 0.04133794 -0.02786652 0.23950048 0.01287861 0.15285288 0.2885372 0.08411299 0.06625629 0.13267885 -0.04075601 0.00932291 -0.06366035 0.05910962 0.03531405 0.06021748 0.02176766 0.04925966 0.02271099 0.16038544 0.19877167 -0.10319997 -0.20406906 0.21052453 -0.0916259 0.14934944 0.0646458 -0.18194233 -0.07379796 -0.18086052 -0.05296031 -0.07533779 -0.18227676 0.00699936 -0.0946283 -0.13429467 -0.09261677 -0.07298163 0.03220363
aon-x-bible 2.32218187e-02 2.84825172e-02 2.48989221e-02 -1.28163531e-01 1.06362976e-01 -3.99091318e-02 -1.20063491e-01 6.52323244e-04 -9.99439433e-02 -4.42389958e-03 -7.02654123e-02 -3.08024641e-02 -2.76592094e-02 9.89241004e-02 1.14686176e-01 3.37528400e-02 -1.95268970e-02 1.24475025e-02 8.83000419e-02 8.89790505e-02 -4.15077843e-02 -3.11684553e-02 -9.36517417e-02 1.30819783e-01 8.40944052e-02 -3.72798517e-02 6.75393045e-02 -5.09774461e-02 5.98981045e-02 -6.67471625e-03 2.58259997e-02 2.70161945e-02 2.68772487e-02 -1.73842572e-02 1.58280823e-02 9.58075374e-02 -1.12929363e-02 -1.52880922e-02 -4.27417979e-02 -4.05031554e-02 -3.54353078e-02 1.41804647e-02 -3.80641297e-02 1.16806991e-01 -6.65669590e-02 -1.51986405e-01 -4.25251340e-03 -2.67902929e-02 -5.57008088e-02 -3.91007662e-02 1.24559835e-01 -6.52095154e-02 1.49427727e-01 8.12283009e-02 1.58692300e-01 -5.73528111e-02 2.61545461e-02 -1.49541870e-01 8.41791183e-02 -3.17983069e-02 2.99231876e-02 -4.95100170e-02 -1.25928134e-01 -1.07053809e-01 -1.05203457e-01 1.50793483e-02 1.19176686e-01 -2.58321390e-02 1.12605293e-03 5.90687953e-02 -5.17848320e-02 1.38193190e-01 7.31158480e-02 1.19139642e-01 6.02141619e-02 -4.49892022e-02 1.30080655e-02 -7.39789829e-02 -2.10500620e-02 -7.97167569e-02 7.40103349e-02 1.28232107e-01 -1.50776971e-02 1.08679503e-01 1.33551182e-02 1.73981354e-01 -5.78864999e-02 -8.20804909e-02 4.11091000e-02 2.80386154e-02 -1.51301594e-03 3.63683328e-02 -1.02101132e-01 -5.08130249e-03 2.42231072e-05 9.30161867e-03 -8.38297140e-03 1.16488695e-01 2.44955812e-02 -8.22353587e-02
aoz-x-bible 0.08063548 -0.07303285 0.06654599 -0.04145925 0.05828531 0.04115844 -0.10949665 0.09397434 -0.02602034 -0.1146977 -0.04450104 -0.0465273 0.02020422 0.08900303 0.04878965 -0.04587288 0.0520989 0.02634808 0.02263676 -0.06217543 0.16267234 0.01556813 -0.02379462 -0.11291385 0.08686627 0.1667599 -0.00137919 0.00772508 -0.02759618 0.09335488 0.00470894 -0.08882188 0.0130433 0.11616992 -0.02846133 -0.07236288 -0.00218068 -0.10182668 0.01014146 -0.05002913 -0.05156055 0.034522 -0.12621473 -0.01987205 -0.15606827 -0.08133213 0.14173402 -0.01419312 0.0704439 -0.00838907 0.05111415 0.03022445 0.05681233 0.05598882 0.16580403 -0.00439806 0.05719575 -0.19306114 -0.01791661 0.06164777 -0.0903901 -0.01527947 -0.10796931 -0.08278304 -0.13071616 0.00955456 -0.15434718 -0.0684934 -0.03658186 -0.0214643 -0.10372399 -0.04559717 0.06581297 0.05154066 0.01105813 0.03416654 -0.02213939 0.03103433 -0.07771238 -0.11170047 -0.02879998 -0.08053204 -0.03640166 0.11155222 0.00483677 0.00248028 -0.00704895 0.03936901 0.02401599 -0.06449611 0.06581672 0.0672164 0.09537946 0.0606936 0.1497527 0.04512686 0.01022999 0.1072208 0.15636753 0.05992727
apb-x-bible 0.05615073 0.03702443 -0.06570715 0.13312496 0.08595894 -0.0238052 0.09957214 0.01910902 -0.00927014 -0.05089825 -0.10290632 -0.02104935 0.05934979 -0.03475166 -0.21726906 0.01268463 -0.0290892 0.1370756 -0.0234723 -0.07840087 0.1334869 -0.06851275 0.05500967 0.01774783 0.04998772 -0.04744703 -0.07994717 -0.04775375 0.07233373 -0.08693553 0.05173605 -0.03760991 0.00960564 -0.01720412 0.07359007 -0.0195015 0.14128023 -0.00075834 -0.06398863 0.01071586 -0.05995941 0.03225196 -0.06839675 0.06171953 -0.07327908 -0.11980005 0.00793441 0.16433898 0.1389824 -0.0743022 0.04705505 0.0098773 -0.04036396 -0.0645287 0.09919011 0.12194844 -0.14009728 0.02506799 0.09638451 -0.05540908 -0.05209951 -0.1708636 0.01812068 -0.03739095 0.07340159 0.04386638 -0.07787764 -0.00486455 -0.02415729 -0.05296826 0.0477307 -0.05132155 0.09811506 -0.10537702 -0.13276656 0.14068744 0.05544302 -0.02073665 0.07261022 0.07594728 0.12630379 -0.0171336 -0.09698088 -0.04361931 0.10260025 -0.15371174 0.07896556 0.11113159 0.02332439 -0.06417309 -0.0321865 -0.06426096 -0.00327308 -0.02586762 -0.12069689 -0.03527033 0.11645539 -0.00485359 -0.20258363 -0.038632
ape-x-bible 0.05143393 0.04531168 0.06940889 0.07375266 0.06280398 -0.07366847 -0.11623444 -0.0353673 0.04769549 0.07287254 -0.0135766 0.03096147 -0.04114304 0.01945959 0.0236839 -0.00807922 0.0191443 0.00681038 0.0537589 0.1034328 0.12030033 0.00212722 -0.10934528 0.08551713 -0.03816644 0.09164738 -0.08258023 -0.01382029 -0.05672674 0.02230527 -0.04017039 0.11982246 -0.00330834 0.06544176 -0.00206212 -0.07218018 0.05946877 0.0418618 -0.08093933 -0.06574226 -0.08021968 -0.04581724 0.05820116 -0.07898036 -0.08826797 -0.07936203 0.01503672 -0.07174583 -0.00335078 -0.07577139 0.11573776 0.01123758 -0.00916601 0.12196217 -0.05284497 -0.09566887 0.07609807 -0.0028289 0.08619078 -0.05778221 0.07812811 -0.0553983 0.04243238 0.06636648 0.05186443 0.09111171 0.03366814 -0.07402316 0.06292558 -0.06446863 0.02423465 -0.09379976 0.02271787 0.11022769 -0.08640818 -0.0735485 0.00062057 -0.03899373 0.07656031 0.05613817 0.0456532 0.04337843 -0.00737482 -0.01584261 -0.05965576 -0.0622014 -0.10852804 -0.05126414 0.1048996 0.07801521 0.0918272 0.11287674 -0.07045846 -0.0132753 -0.05224162 -0.06328263 0.02809095 -0.02813058 -0.08612974 -0.0495972
apn-x-bible 0.00749553 0.02731857 -0.13834687 0.01773801 0.01494531 0.09324162 0.22303993 -0.19539557 -0.05167586 -0.08893906 0.05332811 0.12875207 0.1251589 0.10833214 -0.13438767 -0.03168006 -0.14799154 -0.01634856 0.08910763 -0.00785933 -0.05471044 -0.10797115 0.10255444 -0.02930688 -0.0629088 -0.07154652 -0.13562176 0.06959283 0.03126548 -0.01305171 0.06860866 0.11255019 -0.00868049 -0.04522714 -0.17811503 0.08134342 0.28711936 -0.00691923 0.10276806 -0.0814263 -0.20125818 0.09698047 0.02415049 -0.08807871 0.01925788 0.2312922 -0.1822535 -0.05520463 0.10200073 -0.11300496 -0.0965152 -0.05932152 -0.09831247 0.03080832 0.12147342 0.13127051 -0.02659753 0.06278893 0.07573302 0.17226075 0.12078157 -0.12701967 0.08122349 -0.02662659 0.107424 0.11106353 0.10893413 0.05063415 0.08387195 -0.14813837 -0.06162218 0.01618733 -0.04844568 0.09597337 -0.262696 0.0693068 -0.01823843 -0.03727983 0.1312278 0.020818 0.09290636 -0.03169473 -0.02195767 -0.19510372 -0.02059567 -0.05127379 -0.09206372 0.02076565 0.06413737 -0.05211794 -0.14691514 -0.07261316 0.04875783 0.00056069 -0.05874515 -0.00716614 0.12672997 -0.06997844 -0.2735764 -0.12636116
apr-x-bible 0.0352679 0.06743272 -0.0434889 0.00587494 0.14439192 -0.0287179 -0.0075995 0.0267031 -0.00654436 -0.02994249 0.04171659 0.01009385 -0.11028928 0.07905229 0.00968691 -0.07893992 -0.13907957 -0.01633513 -0.07085838 -0.11544329 0.09125371 -0.0706674 0.01318432 -0.16808753 -0.03709786 0.03889817 0.01731576 -0.07907917 0.04248276 0.11009514 -0.04346018 -0.07621092 -0.09227358 -0.00187525 -0.04609951 0.01360761 0.03376313 -0.0791862 -0.11540857 0.03588021 0.0021828 0.05313916 0.0119349 0.02018232 -0.15479429 -0.01720114 -0.09963535 0.00176184 0.11942308 -0.1421578 -0.02910906 -0.11250872 0.03266879 -0.05434593 -0.06535175 0.0916627 -0.08723395 -0.10907476 -0.12162694 0.05809742 -0.11561812 -0.09083629 -0.0276064 0.03540743 0.04549627 -0.05667816 -0.03139903 0.00142656 0.03943124 0.13682665 -0.04880333 0.00930766 -0.03653678 -0.07901176 0.0374687 -0.09850466 0.01232942 0.04634419 0.07875806 -0.04813312 -0.04064612 0.0697456 0.03209524 0.11211862 0.05568356 -0.01799158 0.09745847 -0.0009044 0.05619955 -0.02607851 0.02162055 -0.00575409 0.06415036 -0.03883706 0.04965501 0.05004301 -0.03791295 -0.02058278 -0.15083513 0.00947772
apt-x-bible 0.07830926 0.00564721 -0.03203728 0.12855151 -0.02826004 0.07051501 0.01960051 -0.05815885 -0.08194447 -0.04053147 0.08903468 0.06052304 -0.01315334 -0.07327428 0.00837482 0.14285783 -0.00814643 0.16541468 -0.10570797 0.01986759 -0.07388283 -0.11715662 0.15241598 0.11667585 -0.00941105 -0.05936319 0.03836184 -0.07430343 -0.03719725 -0.03824503 0.0190334 -0.04663372 -0.07708957 -0.05776585 0.01771779 -0.06152093 0.03309015 -0.05495426 -0.05390395 0.15262526 0.05155285 0.1137137 -0.01974824 0.00924017 -0.09820315 -0.0028053 0.09153906 -0.02617212 0.02681897 0.01855096 -0.07249484 -0.09737375 -0.04264782 0.06069051 -0.11051281 0.08467506 -0.13056734 0.05703132 -0.08241492 -0.04220975 -0.03295815 -0.04276047 0.06550792 -0.03668366 -0.0036198 -0.09395041 0.03549979 -0.02862254 0.06479418 -0.10242145 0.08255645 -0.07382842 0.00323383 -0.06401883 -0.00021745 0.03986194 0.0341991 -0.05911567 -0.07368077 -0.03023044 -0.01178969 -0.03780055 -0.09134392 -0.10900392 0.05099415 -0.02290185 -0.01390071 0.12080205 0.0429356 -0.13338034 -0.13625616 -0.11844359 -0.0715934 -0.00621606 0.06253643 -0.07514742 0.03876042 -0.01979515 -0.13425185 0.07450147
apu-x-bible 0.05137255 0.09008487 -0.00131295 0.02089762 -0.10087124 -0.01211112 0.01216587 -0.01433977 0.12013835 0.08437274 -0.08476502 0.01584934 -0.03129912 -0.12876454 -0.20427614 -0.1294856 -0.00248938 0.18795522 -0.0125272 -0.10955845 0.16484372 0.14873764 0.27396592 -0.12089852 -0.04690667 0.00787509 0.06458124 -0.05540466 -0.05259194 0.00551852 0.15255998 -0.0308071 0.0803187 -0.00900504 0.14234199 -0.02870112 0.04098262 0.04862465 -0.01101347 0.07536874 -0.08911904 0.045621 0.06230866 -0.10060263 -0.14206609 -0.06533299 0.01623985 0.11000443 0.03885382 -0.06693101 -0.14582172 0.03559834 0.00094487 -0.21210805 -0.0431033 -0.02088322 -0.05697544 0.17166846 -0.02670421 -0.00996365 -0.05086103 -0.06146747 0.11283757 -0.11054397 -0.01676547 -0.13408765 0.00948015 -0.07779683 0.11539302 -0.05882396 -0.00833659 0.00895242 -0.06395097 -0.22173004 0.00464551 -0.10177103 -0.1058358 -0.04195765 0.01410247 -0.00666798 -0.05143956 -0.02979372 -0.00277554 -0.18880881 -0.00474303 -0.02945091 0.17420828 0.10223016 0.03698244 -0.08723775 -0.10299222 -0.05708598 0.09760538 -0.0934385 -0.00980227 -0.05071285 0.00906595 -0.06821562 -0.05774555 0.14101619
apw-x-bible 2.10591462e-02 -6.91443682e-03 5.84681109e-02 1.75593421e-01 -1.01609612e-02 3.96784656e-02 1.12271197e-02 6.69994578e-02 4.64327261e-02 -1.11163640e-02 2.98410212e-03 -3.93776074e-02 -6.14172556e-02 1.14857696e-01 -4.15798426e-02 2.21443214e-02 1.37369648e-01 7.22047314e-02 4.24439982e-02 -1.00414343e-01 1.66476086e-01 5.89092299e-02 6.89723492e-02 -7.50031620e-02 1.46811634e-01 8.10161456e-02 6.56783069e-03 3.87535319e-02 -5.33762313e-02 -7.15087950e-02 2.42022146e-02 4.69186483e-03 -1.33053511e-01 -7.16049075e-02 2.26097815e-02 -1.06800899e-01 -6.43815696e-02 7.70796910e-02 1.93920769e-02 -3.79225202e-02 -4.23564464e-02 -1.78601476e-03 -9.95110869e-02 -1.39657229e-01 1.83941443e-02 1.97551567e-02 3.01035903e-02 7.85167608e-03 8.05762410e-02 1.97526142e-02 -1.04758158e-01 -7.11213425e-02 -1.64770752e-01 7.88690057e-03 -1.21152468e-01 1.03681989e-01 -6.94248080e-02 4.05366085e-02 3.45915221e-02 -3.95113714e-02 -1.71365812e-02 1.56084150e-02 1.04098573e-01 3.89008112e-02 -2.08410807e-02 -8.47525522e-02 1.85964312e-02 -4.21713255e-02 -7.50353420e-03 8.81848037e-02 3.35230082e-02 -1.07799567e-01 9.55807492e-02 -3.32210027e-02 2.17912998e-02 -1.03219181e-01 -2.72455569e-02 -3.36915366e-02 -2.86206976e-02 4.66411281e-03 -9.87409428e-02 1.15686998e-05 1.82498973e-02 -3.58529538e-02 1.16412424e-01 -1.49956524e-01 1.21577471e-01 1.05671296e-02 5.84201589e-02 -1.42771959e-01 -8.37616473e-02 -4.83377241e-02 -1.21210339e-02 -9.27680954e-02 -1.22896865e-01 7.91931897e-02 -4.60874476e-02 -5.68629242e-02 -7.83512071e-02 5.31766415e-02
