1664 100
aai-x-bible 0.08802565 0.02857773 0.01038587 0.20104006 0.07911406 0.01946769 0.12699693 -0.04572597 0.01244267 -0.15751275 0.07115856 0.12246299 0.00628926 0.00366055 0.11787549 -0.02488003 -0.08690546 -0.08301125 0.03310439 0.05443037 -0.07778083 -0.12584476 0.00945179 -0.02868336 0.00036431 -0.0558341 0.10054195 0.04354913 0.01941351 0.13116583 0.07261048 0.13416737 -0.05345732 0.0086044 -0.0204173 -0.12437569 0.04455899 -0.0411497 -0.01143076 -0.04510039 -0.05853916 0.02062142 0.04908595 0.02915707 -0.0430018 -0.08296708 0.0412356 -0.03192778 0.04301453 0.01645474 -0.04997275 0.0401244 -0.06435774 0.08973212 -0.14636105 0.03675282 -0.02607439 0.08794849 0.08979068 0.10793482 -0.1165024 0.01507401 -0.13977855 -0.02831347 0.00993668 0.05223414 0.01989947 -0.07531478 -0.01300544 0.07496342 -0.06369453 -0.03566992 0.00390949 -0.06082559 -0.05425589 0.14124736 0.0410471 -0.1111031 0.03741314 -0.18321459 0.02449444 -0.0914063 -0.04678206 -0.01880657 -0.04352978 0.0153979 0.01172788 0.13020487 -0.12079714 -0.11403874 0.02638678 0.01932037 0.05510009 0.00210306 0.14561224 -0.12898627 -0.16458762 0.03920625 0.07980635 0.08152767
aak-x-bible 0.11962772 0.02984945 -0.08885324 -0.2629604 0.10840659 0.02194778 0.08059207 0.08048528 -0.03575343 -0.04641802 0.06196902 -0.0355481 -0.00825976 -0.02805322 0.03387469 -0.116423 -0.05260671 0.11049955 -0.20692599 0.12221128 0.0063592 0.01329354 0.1642871 -0.00117454 -0.03305043 -0.03621448 0.16468143 -0.18858197 0.09844134 -0.01864805 -0.05915636 0.09165626 -0.02155701 -0.12428129 -0.03074307 0.02694415 -0.06778891 0.07613406 -0.03128466 -0.01776539 -0.11609682 0.14489199 -0.03189076 -0.11172118 -0.01283877 -0.03704437 0.03700621 -0.0195751 0.10276275 -0.19424075 0.02322474 0.17306729 -0.04347194 -0.08245721 -0.11628366 -0.12189534 -0.03121964 0.05618896 0.06395102 0.12820484 -0.02853513 -0.00930905 -0.07461353 -0.08145874 -0.21366073 -0.08326254 -0.06764748 0.04639103 -0.09005271 0.07233685 0.11549282 0.00462256 -0.00594185 -0.13488847 0.08415373 0.09036002 -0.1127307 -0.15616879 0.10958694 -0.15131734 -0.11598238 -0.19470008 -0.01492923 -0.01089724 -0.1702634 0.02171136 -0.0939638 -0.06068594 -0.11287578 -0.0716917 0.00270807 0.06860822 0.05675569 0.07233372 -0.13547733 -0.14494614 -0.02190082 -0.01659509 0.08330432 -0.05767867
aau-x-bible 0.19656788 -0.08429535 0.04369112 0.33265448 -0.09679427 0.11130094 -0.0153654 -0.1834968 -0.01845549 -0.1057843 0.01328505 0.00489811 -0.03089753 -0.15758234 -0.04680283 0.03782042 -0.01301351 -0.15330441 -0.04850829 0.170645 -0.15518032 -0.10250952 0.10728975 -0.111654 0.08124578 -0.12597004 0.05924645 0.06380907 -0.07886262 0.15994862 -0.03905504 0.00668075 -0.09553255 0.04640361 -0.14031048 -0.02487545 -0.03035454 0.07361288 0.15857355 -0.05067343 -0.00600252 0.1063368 -0.01328276 0.00768747 0.0281768 -0.05217347 -0.08108562 0.0896145 -0.10027722 -0.08936565 -0.17044276 0.10959617 -0.0335967 -0.02708482 -0.13892998 0.09769295 0.0449557 0.12209389 -0.04938567 0.06045475 -0.03123668 -0.04646556 -0.03523324 0.09047401 0.15155481 -0.02673562 0.03444123 -0.19527014 0.0770105 -0.00577771 -0.18153505 -0.10930841 0.12546644 0.02514624 0.04458209 0.2071868 0.07296824 -0.0046813 0.0643732 -0.18828046 0.02128017 0.03503636 0.11722206 -0.09883837 0.10756923 0.11217734 -0.04865886 0.1446117 -0.17409717 -0.11372426 -0.07842816 -0.09771469 0.00894096 -0.07668506 0.14489329 -0.09038889 -0.16471148 -0.04735996 0.10098706 -0.00664885
aaz-x-bible 0.01939996 0.03551046 0.00616125 0.18435112 -0.07300498 0.12330491 0.01800326 -0.16513592 0.15593517 -0.02854314 -0.16295162 0.04563706 0.08082397 -0.06804796 0.11182432 -0.00699613 -0.06482169 -0.11583768 -0.05610003 0.01972888 -0.29869807 -0.30030692 -0.10426892 -0.11805916 0.0335625 -0.09284384 0.12631632 -0.04472629 -0.20243388 0.06763005 -0.02018965 0.02234044 0.13511853 -0.04621947 -0.20112568 -0.04564295 -0.03746491 0.10242368 0.09250411 -0.03108556 -0.00200319 0.21053608 -0.0998553 0.06479084 -0.00336505 0.03184053 -0.03432158 0.06714179 0.09180278 -0.08481476 -0.09335008 0.11876883 -0.03383891 -0.01753243 -0.13979617 0.08982162 0.03686247 -0.08016546 -0.08343949 -0.0609563 0.04234688 -0.05394812 -0.14578906 -0.00684466 -0.01196874 0.14645132 0.04368062 -0.1368127 0.04050965 -0.16425247 -0.1384782 -0.05276341 0.05988872 0.00538025 0.05071057 0.20949538 0.1351498 0.00176103 0.09160656 -0.14180958 -0.1352736 0.183372 0.09825907 -0.06772449 0.06286292 0.02100878 0.13011365 0.0365957 -0.11250847 -0.16645467 -0.060215 -0.10446406 0.03260346 -0.15016516 0.07345639 0.07595408 -0.02583315 -0.10245077 0.18844199 -0.08610018
abt-x-bible-maprik 4.05421630e-02 4.22601067e-02 -3.43703665e-02 1.46705862e-02 -4.74721789e-02 4.83581312e-02 -8.60547200e-02 -3.49549018e-02 -1.23075895e-01 -7.70758986e-02 -6.81379437e-02 -1.14923470e-01 -1.17070287e-01 5.69021404e-02 -6.79948926e-02 6.24138378e-02 4.58150990e-02 -7.95509443e-02 7.57714212e-02 -2.01136529e-01 3.57352681e-02 -2.74320282e-02 7.55418539e-02 1.66918248e-01 4.18438055e-02 6.74809853e-05 -1.42851904e-01 1.82638150e-02 9.30022076e-02 -1.40274465e-01 8.87164176e-02 3.80079523e-02 -1.11063132e-02 6.08063415e-02 2.09330037e-01 -3.67952511e-02 1.99943408e-01 1.86319761e-02 -9.35731530e-02 -8.71996768e-03 -6.62455186e-02 -4.42622490e-02 -2.03494020e-02 4.50276285e-02 2.27866638e-02 1.23421475e-01 4.62376775e-04 -8.51174723e-03 -1.18603885e-01 1.91864803e-01 1.12189412e-01 -1.82994623e-02 -4.10788953e-02 1.01049580e-01 -5.62259778e-02 -7.43235871e-02 9.15741026e-02 -1.52133659e-01 8.24768990e-02 -1.30624557e-02 -7.47018754e-02 2.94268262e-02 1.54520366e-02 -4.00579758e-02 5.00568561e-02 -1.40932634e-01 5.83793670e-02 -1.14467461e-02 1.00705616e-01 1.44712687e-01 8.56914222e-02 -6.63767084e-02 4.78412509e-02 -6.92259520e-02 1.40752360e-01 -9.19183493e-02 -5.58762290e-02 -1.26103282e-01 -8.90484750e-02 9.79400822e-04 -1.01328949e-02 -1.58072747e-02 9.48406104e-03 1.33423507e-01 -1.11876801e-01 1.31531402e-01 1.25939101e-01 -3.14490311e-02 1.13694347e-01 -4.76544797e-02 -3.49758938e-02 1.62340745e-01 1.18990459e-01 1.58631057e-01 -1.64763808e-01 5.60350306e-02 2.25287434e-02 -1.56958178e-02 1.47775812e-02 1.06611796e-01
abt-x-bible-wosera 0.09364823 -0.07546856 0.00340225 -0.04967836 -0.01955488 -0.00247426 0.15478344 0.09239877 -0.1144793 -0.00816763 -0.15141213 -0.00956887 -0.07223955 -0.1207528 -0.005834 -0.00224996 0.02611773 -0.04802131 0.02503593 -0.13506255 0.18282439 0.10328607 -0.00235278 0.12177958 0.08079314 0.03034821 -0.04095415 -0.04645296 0.08298141 -0.01644006 0.04307492 -0.06317942 -0.08148022 0.08723306 0.14640132 -0.08593297 0.1490569 -0.09184295 0.06826936 0.07128385 0.08178686 -0.09241853 0.11969923 0.05401836 0.06080502 0.02101491 -0.11708917 -0.09623051 0.08134808 0.04664457 0.09049682 -0.06609318 -0.12837635 -0.05974659 -0.04146348 -0.0733821 0.01390293 -0.09764605 0.1747069 0.0753644 0.00797808 0.0783928 -0.07346043 -0.01094845 0.0705075 0.07614525 -0.03561614 -0.0005117 0.05481315 0.04643691 0.02967265 0.10649004 0.03464489 -0.02675451 0.1768704 0.08274647 -0.01901313 -0.0398265 -0.04294335 0.10711548 0.04691154 0.07672155 -0.11528887 -0.0173661 0.06412366 0.10176763 0.09193478 0.01758053 0.01148373 0.05391072 -0.09376464 0.08104653 0.00682282 0.07068855 -0.13634874 -0.04055491 0.01033165 -0.00922428 -0.02063703 0.00130055
abx-x-bible 0.01503645 -0.03962437 0.06611133 0.2981962 -0.14345504 -0.16458116 -0.01167245 -0.1704967 -0.18594892 -0.1411737 -0.14807022 0.05467664 0.00564632 -0.12782747 -0.05138832 0.07938995 -0.09220356 -0.2400565 0.11846903 -0.23778109 -0.0514674 -0.15417592 -0.0637937 -0.17089334 -0.04315408 0.02543058 -0.04188726 -0.01605221 0.03299303 0.07505703 0.04066578 -0.06352653 -0.10536218 0.14036453 -0.23649898 -0.15845598 -0.11584193 -0.00583887 0.08274588 -0.13236412 0.01095828 -0.01885078 0.1658749 0.16224116 0.19201587 -0.1097553 -0.00969383 -0.04326992 -0.09616101 0.06225828 0.01961221 -0.15584949 -0.0086367 0.01509182 0.10033434 -0.10855391 0.07123248 -0.00814708 0.07236516 0.04936825 0.18692884 -0.18156025 -0.19279835 0.06721921 0.12099099 0.10930157 -0.02409663 -0.06145025 0.19412111 0.05877763 -0.03158584 -0.04961846 0.06090021 0.07611114 0.0348901 0.11289809 0.00065601 -0.11784678 -0.06773839 -0.08760409 0.01358815 -0.01883942 0.04959046 0.01353125 0.05689608 0.06977838 0.06426459 0.0899934 0.09307838 -0.08738877 0.01568234 -0.05741382 0.07348589 0.0965797 -0.00972916 -0.06804514 -0.07211581 0.12311598 0.06552494 0.10445847
aby-x-bible 0.153069 -0.10317091 0.00215064 -0.15158142 0.09942069 -0.13597332 -0.04820437 -0.06081314 -0.03780841 -0.02115881 0.1474154 -0.09652369 -0.11880913 0.11763891 -0.02149505 0.00124763 -0.051373 0.08317588 -0.08752961 -0.09011578 -0.00113081 0.00633652 -0.03427489 0.00825199 0.0375004 0.04961764 0.12438921 -0.11430044 0.14572223 -0.08836251 -0.11832162 0.08906582 -0.06098628 -0.10518679 -0.05619722 0.03936253 -0.12751275 -0.05787711 -0.04308529 0.00544609 -0.03010853 0.01227743 0.00416927 -0.0335054 -0.01560962 -0.07270189 0.03726383 -0.18687306 0.13713409 0.07770146 0.09453972 -0.06913675 0.00066436 -0.09470205 0.06841821 0.01052633 0.10118607 0.04799275 0.10539812 0.03717545 0.0177423 0.03690786 0.11468922 -0.1145642 -0.12548871 -0.02186652 -0.05096029 0.01381139 0.03306353 0.18945646 0.15221396 0.04683608 0.07745588 -0.07353775 0.09179993 -0.00818158 -0.03004806 -0.02189268 -0.03956331 -0.1548083 -0.04658525 -0.21632777 -0.09957336 0.00360976 -0.09743901 0.0106678 -0.08158012 -0.06010884 -0.07132644 -0.0082493 -0.0432086 0.07230999 -0.09616456 -0.00633161 -0.02104447 -0.06266537 0.08958948 0.01311012 0.05680974 -0.06435873
acc-x-bible-cubulcu 0.14761697 0.12675981 -0.08104747 -0.00516146 -0.15361707 0.32254902 0.0948093 0.12374417 0.145753 0.01813715 -0.09372482 -0.11080901 0.15288739 -0.00724156 -0.1378637 0.00873649 -0.00687781 0.06914901 0.02286455 0.08295984 0.01613742 0.05069159 -0.02053667 0.00234252 -0.03741848 -0.05817898 -0.15365002 0.0424309 -0.0539257 -0.07515872 0.08384096 -0.2142381 0.04392555 0.0564965 -0.01743784 0.07330038 0.05745701 0.10978775 0.14334178 -0.06373671 0.09884026 0.07397359 -0.17956273 0.04012959 -0.06272878 0.14715117 -0.2265565 0.2106612 -0.05091541 -0.11282675 -0.16733807 0.07994456 0.05313461 -0.06471543 -0.10155381 -0.0326737 -0.13004337 0.02000357 -0.04138497 -0.05901565 0.06406685 0.0273942 -0.02412954 -0.10962839 0.00412369 -0.06633117 0.09287231 0.02572829 -0.16737215 -0.11569472 -0.11302615 0.08046398 -0.10614786 0.1710025 -0.09142976 -0.02774744 0.05639794 0.12364096 0.00530063 0.14856379 0.06912585 0.1491331 0.00037351 0.00284815 -0.01482795 -0.02141287 0.26261213 -0.03292755 -0.13959955 0.22308025 0.03219221 -0.07018971 -0.12137456 -0.18253 -0.00792188 0.30682817 0.00785227 -0.07532184 -0.06924009 0.14759718
acd-x-bible 0.11247096 0.10945041 0.0316846 0.1222904 -0.01472761 -0.02732684 -0.03188501 -0.06825987 -0.03668517 -0.01388608 -0.00502426 0.03073716 -0.04699008 -0.01698409 0.17287962 -0.05584858 -0.07236391 -0.11997047 -0.15575999 0.16182074 -0.03035151 -0.01336219 0.05063002 0.02338565 0.02396772 0.03331758 0.05659789 0.03026099 0.01245074 0.04554217 -0.10191792 0.09204353 0.05136576 0.00362501 -0.13176475 0.00980686 0.01851087 -0.02655307 0.09369334 0.00144449 -0.00377223 0.02043472 -0.08929396 -0.05441265 0.02158616 0.05037161 0.09181871 -0.0412129 0.10917921 -0.04895861 -0.04651965 -0.08975668 0.01525725 0.04568537 -0.03865928 -0.01072173 0.11917876 0.0492458 -0.06205917 -0.0034539 -0.06063406 0.06207261 -0.00892739 0.01052456 0.06130575 -0.01052917 0.08973724 -0.03935309 0.01518004 -0.0096121 0.0399843 0.02058215 -0.00588939 -0.18816003 -0.04119431 0.13014244 0.1454485 -0.08565183 0.07988415 -0.00614259 -0.0036604 -0.09855147 -0.04102711 -0.00233465 -0.0409925 -0.09059478 -0.07382113 0.04762775 -0.07902873 0.03525789 -0.04375866 -0.02474342 -0.09754452 -0.00038384 0.01503938 -0.07965408 -0.14138421 -0.14455126 0.05871958 0.01531919
ace-x-bible 0.00667502 0.0833814 0.04371018 0.15649986 0.06583428 0.01089089 -0.02022561 -0.20164919 0.01723416 -0.03183591 0.15754107 0.0052696 0.02429521 -0.05731937 0.03139041 0.05093329 -0.11682083 -0.16825022 -0.05516971 0.14336154 -0.26406682 -0.18451849 -0.0748346 -0.14106229 -0.00298153 0.08293436 0.18116479 -0.09700943 -0.14375146 0.1650849 -0.00940366 -0.03465903 0.13949521 -0.02740879 -0.05685966 -0.13729167 -0.09001351 0.18092966 0.10994571 -0.17530955 -0.07470222 0.09379871 -0.16076912 0.03850573 0.08574146 -0.06038427 0.01416195 0.04503598 0.01399484 -0.08546785 -0.11698914 0.06963972 0.01655882 -0.03496571 -0.07388575 0.2178717 -0.01651495 -0.06381482 -0.12130392 0.00186415 -0.02135408 -0.1071441 -0.11487269 -0.05217539 -0.0044814 0.03395462 0.0240579 -0.16446763 0.02030062 -0.0076359 0.00345067 0.10373125 0.03735779 -0.10378039 -0.01024122 0.33857304 0.06944031 -0.09278881 0.15128663 -0.08595692 -0.10242185 -0.10185756 0.02496604 -0.18653345 0.07455268 -0.0371199 0.06000509 0.01317246 -0.25406298 -0.07390134 -0.022454 -0.08220579 -0.03381836 0.02778332 0.04679289 -0.08104552 -0.04075835 -0.0370194 0.15234293 -0.10289434
acf-x-bible 0.063832 -0.08757263 -0.08201793 -0.09005789 -0.14818358 0.00624996 -0.09122029 -0.00351468 -0.12477836 0.00328962 -0.11589807 0.02076951 0.00845529 0.08718925 -0.11245409 -0.13536817 0.13974673 0.15749343 0.04239899 -0.05781134 0.20639132 0.04432097 0.07917858 0.08647313 -0.04458517 0.05511193 -0.02402937 0.0553526 0.03110276 -0.09576183 0.01726367 0.05846832 -0.02005618 0.06683656 0.11088659 0.0454813 0.01784083 -0.00603184 0.04608903 0.0944688 0.08110469 -0.04323238 -0.00774385 0.0091705 -0.05836665 -0.05018455 -0.14899907 0.04206792 -0.09946407 0.00359671 0.11719508 0.033567 0.03314816 0.15481406 -0.00576288 -0.11593354 0.11414676 0.01395379 0.12526235 -0.00653575 -0.01018096 0.05535529 -0.01205646 0.11219083 0.10940522 0.02746236 -0.05168073 0.086371 -0.03160725 0.00226551 -0.07417205 0.05248622 0.07303155 0.10884649 0.02806839 -0.06278342 0.01858282 -0.07832977 0.00822914 0.02400517 0.06515712 0.10085971 -0.11171976 0.1762171 0.06553853 0.07911839 -0.1144519 -0.01078176 0.18742703 0.07010533 -0.08942004 0.04738129 0.06693428 0.0886047 -0.02638764 -0.02347909 0.11236441 0.12402029 -0.15651876 0.10651629
ach-x-bible 0.09081609 -0.12743777 -0.04906711 0.01443716 0.04724935 0.04961279 -0.07830956 -0.17361328 0.09481999 -0.111168 0.20122905 -0.05472071 -0.12522809 0.05141179 0.1334551 0.04581017 -0.04003936 0.00168964 -0.0934861 0.24862264 -0.08995973 0.03809823 0.03187126 -0.04870883 0.02839263 0.02753219 0.16558886 0.02094527 -0.10492401 0.13302511 -0.04363533 0.12210046 -0.05743932 -0.09026892 -0.0443176 0.03838242 -0.16873266 0.06401312 -0.03457867 -0.24896282 -0.12448079 0.13347612 -0.06148105 -0.03465474 -0.02741777 -0.07469688 -0.08425017 0.02353353 0.0860842 -0.18351191 -0.14034824 0.13002771 0.13706729 0.02316409 -0.19817539 0.19827655 0.01218921 0.08602915 -0.02308228 0.05144152 -0.01876803 0.02442862 -0.06632255 0.00238363 0.05494658 0.13401191 -0.07069319 -0.16729666 -0.07248823 -0.05262435 0.06386375 -0.11426257 0.07776045 0.02616897 -0.03848815 0.22382474 0.01908772 -0.00162502 0.1663132 -0.12913565 -0.08125007 -0.01823586 0.09184736 -0.03373048 0.02689988 -0.15184635 -0.17427771 0.08739134 -0.119413 -0.13929293 -0.04620543 -0.09491845 -0.0042143 0.0587225 0.1464964 -0.19916333 -0.08123236 -0.07625749 0.1179217 0.01641048
acn-x-bible 0.05081318 0.00034645 0.13738309 0.17203605 0.1744845 -0.01875221 0.00525882 -0.16538094 0.18128265 0.00141311 -0.01910333 0.18626973 0.02890331 0.02203602 -0.05037315 0.10647444 -0.08284397 -0.04391692 -0.10028278 -0.07652596 -0.11869035 -0.07274144 -0.05633091 -0.09239132 0.1331123 -0.01211418 0.16380794 -0.10069643 -0.19735354 0.04858587 0.14400232 0.02355432 0.02707307 0.15062128 -0.11321571 0.05073568 -0.19181001 0.20346986 0.01302161 -0.11141523 -0.06216077 0.02794647 -0.03413469 0.0711075 0.09137654 0.13581112 0.13661337 0.07163444 0.1684233 -0.10830089 -0.10885728 -0.05960388 0.05467144 -0.10884034 -0.17989497 0.14641982 -0.07529049 -0.19581725 -0.06779748 -0.16136289 -0.06852093 0.13264176 -0.1380689 -0.05865692 -0.10005004 -0.01963387 0.00984573 -0.13593088 -0.00618702 -0.19179134 -0.07740355 -0.02302852 0.02517807 -0.00872946 -0.19689375 0.02456851 -0.06090681 -0.04039675 0.16615053 0.09188452 0.08159134 0.19956335 0.0861345 -0.1257104 0.04255449 -0.06215495 0.1639753 -0.06888822 -0.17949568 -0.15100494 0.008018 -0.01434817 -0.08120611 -0.02078471 0.06813989 0.08641357 0.07731461 -0.05742319 0.09336577 -0.1066656
acr-x-bible-reformed 0.10717389 0.06987607 -0.06717918 0.31034535 -0.00841521 0.2220269 0.00197521 -0.02427321 0.23561956 0.04444672 -0.09228527 0.0166493 0.17025684 0.04488982 0.16744806 0.14446056 -0.15083411 -0.15194395 -0.09030949 0.04533553 -0.18223263 -0.11092329 -0.05665385 0.01457055 0.10415681 -0.03930025 0.00475853 0.02854554 -0.15775126 0.0354636 0.1536791 -0.00823233 -0.01232611 -0.14770493 0.15586454 -0.12926982 0.0445831 0.04835903 -0.05844415 -0.07031604 0.02298154 0.10327721 -0.20157942 -0.01408334 -0.10985468 0.20242333 -0.17924231 -0.0698701 -0.03688807 0.09125474 -0.00863743 0.09796534 0.11659843 -0.06533738 -0.04141308 0.13540974 -0.10697286 -0.12735727 -0.03709957 -0.218756 -0.03552015 0.05980556 -0.10298203 -0.07283524 0.0587048 -0.0068962 -0.00672182 -0.17332445 -0.24450038 -0.10378464 -0.01385581 0.10005973 0.25553483 -0.02553291 0.01822138 0.15574796 0.06663179 0.02536517 0.08201884 0.10648301 -0.20706752 -0.06918771 0.12329683 -0.04633206 0.08449409 -0.00617574 0.315448 -0.05853933 -0.00586092 0.00551332 -0.01497839 0.01019161 -0.03645452 0.01670152 0.06948427 0.20488133 -0.12149829 -0.0835657 0.05192048 0.09483883
acr-x-bible-traditional 6.87621161e-02 1.78901687e-01 -1.73170090e-01 1.18690178e-01 1.32291839e-01 2.12298110e-01 -1.07902795e-01 -2.63972413e-02 3.55381608e-01 -3.54771018e-02 1.02720670e-01 -1.11496024e-01 8.58830884e-02 4.26487178e-02 7.19211474e-02 2.14203503e-02 -2.19459251e-01 4.21325071e-03 -2.46363342e-01 1.65580943e-01 -1.38748705e-01 -1.18532613e-01 -1.27520263e-02 7.53893927e-02 6.62136748e-02 -2.58260090e-02 1.38716437e-02 1.28889278e-01 -2.28861317e-01 -1.27394810e-01 1.28850162e-01 -6.29037693e-02 3.27871963e-02 -1.40291452e-01 1.62914082e-01 4.59632389e-02 8.79645273e-02 1.84301496e-01 3.24355736e-02 -1.08909793e-01 6.74668998e-02 8.23620483e-02 -1.35412231e-01 -1.18949220e-01 -1.55649588e-01 1.28104806e-01 -6.17899373e-02 8.97096545e-02 1.27962068e-01 -5.94975427e-02 -1.10064499e-01 2.36775190e-01 4.54951674e-02 -6.51635230e-02 -1.86013281e-01 1.48105025e-01 -2.00876594e-01 -2.28491768e-01 -7.35223591e-02 -1.92177668e-01 -2.79238354e-02 1.77208260e-01 -2.86597889e-02 -7.92091861e-02 -2.61959131e-03 -3.05265014e-04 8.78975764e-02 -1.31936878e-01 -4.13219601e-01 -4.81006429e-02 -3.01603228e-02 2.07250714e-01 1.85793132e-01 -9.07822773e-02 -1.93211719e-01 1.52967319e-01 5.82745252e-03 -1.24210622e-02 1.16816364e-01 1.53548688e-01 -2.03432381e-01 -9.33741927e-02 6.53790459e-02 -2.20371261e-01 2.00925320e-02 1.15151494e-03 2.36351788e-01 -1.19712509e-01 -1.93124428e-01 7.58395484e-03 -1.07163735e-01 7.55909234e-02 -8.90083089e-02 -1.19093262e-01 2.33866964e-02 2.47897133e-01 -1.72622949e-01 -8.75740051e-02 -1.28375262e-01 -1.43542457e-02
acu-x-bible 1.02373935e-01 -2.75156205e-03 2.25890707e-02 1.37772083e-01 -9.17930976e-02 3.91148590e-02 7.76262134e-02 -1.72994025e-02 -1.55705392e-01 4.14511599e-02 -4.54838015e-02 2.83667259e-03 -8.77604559e-02 -1.37948751e-01 -9.86012593e-02 -6.86692074e-02 -7.71068633e-02 -5.26417093e-03 8.27775076e-02 -1.81041032e-01 1.01695098e-01 -5.10668978e-02 -3.22061069e-02 1.16603002e-01 -2.75670048e-02 -1.52544649e-02 -1.96266696e-02 3.12785544e-02 7.01076761e-02 5.96326888e-02 5.02603240e-02 1.19369365e-02 2.40994934e-02 1.83275372e-01 5.37486635e-02 1.71747766e-02 5.60972765e-02 -1.60030909e-02 8.82832557e-02 -5.25148697e-02 8.06979313e-02 -1.12771839e-02 1.04315534e-01 6.26636744e-02 -1.24533832e-01 -4.93854247e-02 -6.69409782e-02 -1.14741452e-01 -6.95475340e-02 2.86864792e-03 -5.39650433e-02 9.96982530e-02 -1.83530692e-02 1.34873658e-01 2.84915464e-03 -5.04424572e-02 6.01116717e-02 -4.39635590e-02 1.72445863e-01 4.86946441e-02 4.10801284e-02 -3.30432013e-05 9.95514169e-02 1.02107994e-01 -5.46052530e-02 -5.84706739e-02 9.98560786e-02 3.69659252e-02 1.61088198e-01 -1.29856914e-02 2.43318584e-02 -2.09747106e-02 7.92371705e-02 1.30542014e-02 1.85839713e-01 -5.65921478e-02 -4.49027829e-02 5.27956560e-02 -7.45011792e-02 9.70669612e-02 2.34648474e-02 1.54586345e-01 -1.37650520e-01 -4.38045785e-02 4.80262516e-03 1.53171688e-01 8.51176009e-02 1.59410208e-01 1.14291325e-01 7.82451034e-02 -3.86947840e-02 9.10184309e-02 4.86158840e-02 4.00424972e-02 4.60758582e-02 3.71573470e-03 -4.98933680e-02 9.07769874e-02 -8.22175890e-02 9.17296624e-04
ade-x-bible 2.45889798e-02 1.65429935e-02 -7.32888132e-02 5.07021360e-02 8.97080526e-02 -5.71181886e-02 8.46464112e-02 -1.00751974e-01 -5.65783195e-02 5.64341247e-02 -8.74490725e-05 -2.13297736e-02 8.80017877e-03 -2.87154168e-02 1.33376345e-01 -8.88664462e-03 9.88263730e-03 -1.02369480e-01 6.58650994e-02 8.71479660e-02 -1.32656381e-01 -1.92803331e-02 -1.19691394e-01 -8.57265741e-02 -6.78055063e-02 -7.60623217e-02 2.35077888e-02 9.80546623e-02 4.65390757e-02 8.28673393e-02 -7.10631832e-02 -6.08813809e-03 1.15784192e-02 -9.38948989e-02 -2.03437060e-02 -1.35922194e-01 -1.51719367e-02 5.53312041e-02 -5.80998079e-04 -9.99195874e-02 4.60230522e-02 1.24883637e-01 -9.02755335e-02 -2.45080311e-02 -1.31349210e-02 1.03049144e-01 -3.17272581e-02 -1.09898403e-01 5.34230731e-02 -5.39702252e-02 -6.77693933e-02 -4.93701808e-02 -1.01925217e-01 1.60670429e-02 3.33552957e-02 1.44194096e-01 -3.65299284e-02 5.00839837e-02 -7.79601261e-02 8.75708461e-02 -7.80569986e-02 1.70576610e-02 5.87278865e-02 -3.20342965e-02 8.40448663e-02 -7.08441287e-02 -7.03414753e-02 -3.38312723e-02 -7.11292820e-03 2.19762605e-02 -1.95517158e-03 7.48930424e-02 1.77416384e-01 -7.40872845e-02 5.48912846e-02 2.85112429e-02 4.83102836e-02 -1.11128025e-01 1.14524856e-01 -5.23408540e-02 2.66588945e-02 -1.72814772e-01 8.12261403e-02 -1.43384293e-01 4.79798429e-02 2.81343516e-02 7.99276233e-02 -7.20532611e-02 3.90189327e-02 -2.92777997e-02 5.26570715e-02 4.56338376e-02 6.41778931e-02 1.38899460e-01 2.92513072e-02 -5.25330799e-03 -3.49041149e-02 -5.36891930e-02 3.95138562e-02 1.33782879e-01
adh-x-bible 0.07088516 0.00985148 0.17538516 -0.01210258 0.0303531 0.09088877 0.05677268 -0.10746516 0.1782395 -0.01762608 0.25819772 -0.05407308 -0.04442354 -0.00467814 -0.01894836 -0.10841274 -0.10228629 0.03871255 -0.13258691 0.3493918 -0.2871431 -0.13659756 -0.04573543 -0.1286156 0.08137296 0.08229709 0.14647697 -0.00999122 -0.10310625 0.08291581 0.02941261 -0.06123968 0.04038703 0.02389106 -0.12197977 -0.09000305 -0.08656592 0.16548312 0.13057852 -0.19278865 -0.10697372 0.1110311 -0.03179127 0.06785728 0.08888345 -0.1447706 -0.04971219 0.16055536 0.03209428 -0.10898047 -0.1847777 0.04236962 0.09314824 -0.03033374 -0.08828372 0.22242707 0.03734015 0.10866948 -0.05206886 -0.00358877 -0.1166788 -0.0636346 -0.12956399 0.13638651 -0.09641968 0.04154081 0.01712921 -0.05582767 -0.10857516 -0.05655748 0.14730191 -0.04608012 -0.02317443 -0.10197219 -0.12087408 0.12619375 0.1591381 0.12413451 0.18880446 -0.06933837 0.06951669 -0.03086534 0.07250638 -0.27411914 0.13617212 -0.05243673 -0.04528401 0.04225263 -0.10346451 -0.02852331 -0.0580149 -0.06496216 -0.15727893 -0.04893722 0.15749568 -0.07682753 -0.17343971 -0.23162419 0.09701138 -0.10156959
adi-x-bible 0.02905871 -0.04418363 0.00183469 0.04555513 -0.14849132 -0.1295722 -0.06634991 0.03630081 -0.13741384 -0.08048829 -0.03024072 -0.06957196 0.01863686 -0.04763126 -0.06878552 -0.00235374 -0.00945596 0.08931993 0.04752852 -0.04962742 -0.00647222 0.07410783 -0.06693913 -0.10317648 -0.04860783 0.02716128 -0.01530995 0.09249966 -0.02617146 -0.00884316 -0.14179194 0.04055856 -0.03990062 -0.08459599 -0.07798056 0.06000723 0.04025434 -0.11686197 -0.00022233 0.10635277 0.05758641 -0.13832556 -0.01909892 0.05528111 0.02402963 -0.13801698 -0.02096386 0.09741984 -0.13697323 0.06833819 0.08514989 0.03367416 0.02018223 0.06963751 0.08047041 -0.04265645 0.09757181 0.05631314 0.08622303 -0.01278191 -0.00585142 -0.0137754 0.11107023 0.07537453 -0.02943922 -0.06872205 0.10837153 0.02918954 0.01385551 -0.03261235 -0.06641822 -0.02621003 -0.01412256 0.01379748 0.00139965 -0.04099522 0.01940245 0.02010908 -0.02435269 -0.07400297 0.08418921 0.02602947 0.06507349 -0.0179328 -0.0829932 -0.09430836 -0.08457655 0.0055861 0.11866786 -0.01359632 0.03173317 -0.05819373 0.07416501 0.1806503 0.06742392 -0.01540715 -0.06695445 0.11431134 -0.11360898 0.14013997
adj-x-bible 0.10869269 0.01887993 -0.0208255 0.11440334 0.0190769 0.08307619 0.11979554 -0.10679614 0.1347559 0.07701008 -0.02977063 -0.06181569 0.03390788 -0.02497993 -0.10751963 0.03744284 0.00792896 -0.08442503 0.01210662 -0.15852895 0.01709213 -0.03388587 0.01042533 -0.00043509 0.0239532 0.04000152 -0.11373567 -0.01909165 -0.13796422 -0.00804711 0.02632235 -0.08170656 -0.03960339 0.03252364 0.00102159 0.05836393 0.05408597 0.09522192 0.12514333 -0.09955516 0.03878989 0.1213254 0.06073197 -0.07650844 -0.06763801 0.14142504 -0.11164805 -0.01898882 -0.00324615 -0.06479369 -0.06739373 -0.05011658 -0.05791331 0.0157798 -0.06440546 0.14609548 0.02779013 0.05822795 -0.04587612 0.0471741 0.08151092 -0.04220327 -0.15598553 0.06731161 0.10114361 0.0840891 0.07794818 0.04471627 0.06141527 0.04774145 -0.16017167 0.02905594 0.05218691 0.107053 -0.00858916 0.09222043 -0.02807154 0.01444453 0.06471443 -0.047267 -0.02035206 0.11972387 0.07801956 -0.03507924 0.04145637 0.12279274 0.05142389 0.17287734 -0.12734808 -0.08577759 0.03121159 0.04590145 0.08550244 -0.01729417 0.1350025 0.1965759 0.02084417 0.03241954 -0.01211571 -0.02876094
adl-x-bible 0.0918539 -0.11367919 0.01020053 0.00272591 0.03160663 -0.09959704 0.05637893 -0.07627337 -0.01747454 -0.00591134 -0.01977795 -0.05681074 0.02386438 0.02651526 0.05655317 -0.07995933 0.0146788 0.03390138 0.13469584 -0.06838819 0.02932616 0.0158505 -0.05783526 0.03026186 -0.09797155 -0.03172069 0.01008185 0.10700134 -0.01104497 -0.00133761 -0.1347594 0.04661574 -0.08232223 0.00247465 -0.03965405 -0.09070788 0.04557953 0.06284676 0.07836848 0.10560755 -0.02441342 -0.05104009 0.01059003 -0.02320304 -0.03385077 -0.00831804 -0.02950823 0.06426997 -0.08476492 -0.03308573 -0.05611055 0.05611796 0.02396353 -0.02867094 -0.03039356 0.03094241 -0.01121027 0.06942867 0.0032298 -0.05085959 0.01681257 -0.10715096 -0.01347156 -0.06321799 0.10415438 0.00549165 0.00680223 0.00880555 0.02489964 -0.03607933 -0.03950645 0.07557029 0.07581184 -0.01441499 -0.02468283 -0.0196516 -0.01404068 0.01549512 -0.00426059 0.00688689 -0.05454415 0.06759378 0.06342242 0.11060746 -0.05981256 0.06315631 -0.07805458 0.08919226 0.02867705 0.10588717 -0.02592997 0.01617241 -0.01831934 0.00483221 -0.11787672 -0.07376724 0.11855388 -0.02294405 -0.07662562 0.01023959
aeb-x-bible 0.20877002 0.0690873 0.00465356 0.22093032 0.03550203 0.10746247 0.01235628 -0.06508522 0.09719799 -0.15671864 -0.10511693 0.00803369 -0.08320808 -0.09559634 -0.10426559 0.06355424 -0.03461024 -0.2006558 -0.15449332 -0.1923053 -0.04012189 -0.21916798 -0.01241917 -0.0358388 -0.0157826 -0.2525704 0.00082665 0.16027042 -0.18211026 0.18828149 0.10466386 0.05513739 0.04670298 0.13933995 0.00153261 0.0042447 0.04713191 0.04277092 0.12519372 -0.03439808 0.14617497 0.06689906 0.05313772 0.10441216 0.10814832 0.12143279 -0.0364914 -0.07696105 0.08026207 -0.14907551 -0.21550645 0.08564075 -0.01569161 -0.06618996 -0.07203185 0.13658348 -0.10649575 -0.04850799 -0.06867129 -0.1447933 -0.0901197 0.16878685 -0.05354165 -0.01432886 0.00063135 0.0402338 -0.06181559 -0.06003042 -0.13167912 -0.28972203 -0.22559765 0.08223206 -0.02088899 0.12903818 0.07999331 -0.03399595 -0.0328989 -0.04004242 -0.06835055 0.07424603 0.01730804 0.199756 0.19062085 -0.11939742 -0.0107874 0.09832781 0.30274013 -0.00431815 -0.17750554 -0.06196232 -0.00984214 0.07155872 -0.09370088 -0.15493271 -0.07038832 0.2745074 0.07811094 0.02522256 0.01711135 -0.0747359
aeu-x-bible 0.04929774 0.0595799 0.09307881 -0.11562245 0.07934281 0.03986267 -0.00982171 -0.0321575 0.03868954 -0.03066763 -0.08472203 -0.05265937 0.08046606 0.08236411 -0.05897786 -0.01008639 0.11721038 -0.06531194 -0.04933715 0.00927407 -0.08825359 0.04530985 -0.02317511 0.07928304 0.10739995 0.02600599 -0.00434953 0.11333997 -0.0941867 -0.04190318 0.14728317 0.03272416 0.04164172 0.1599033 -0.04229144 0.04367448 -0.05252513 -0.02260945 -0.01908571 0.14691013 0.12686071 -0.04533833 -0.09189 -0.03707401 -0.07540492 0.11510355 -0.03611372 0.01566821 0.05941492 0.0161616 -0.03378346 -0.1291403 -0.00893478 -0.19629094 -0.03748437 0.10735966 -0.12162831 -0.17903505 -0.09928636 -0.16631627 -0.02637972 0.12770864 -0.11642991 -0.12770036 -0.02611076 -0.06962935 0.00097064 -0.01589933 -0.08864378 -0.03834185 -0.12397207 -0.03065915 0.00147884 0.07605715 -0.19661342 -0.21255668 -0.13921088 -0.02085827 -0.01198456 0.0675496 0.01864936 0.20360407 0.0643815 -0.05602887 -0.10659786 0.04527816 0.11247492 -0.00489376 0.11190143 -0.06159298 0.00462741 0.05426318 0.06692757 -0.20563579 -0.10218038 0.20438704 0.09074055 -0.03087186 -0.00437137 -0.12312888
aey-x-bible 6.75964206e-02 -2.89910156e-02 -5.79319187e-02 -1.29115582e-01 8.61941949e-02 3.38128321e-02 4.91471477e-02 4.46322858e-02 2.76742317e-02 4.79373820e-02 -3.28747444e-02 5.73564172e-02 -2.63855737e-02 1.99447647e-02 -5.16735688e-02 4.11897004e-02 -1.09485269e-01 5.78475818e-02 9.65259895e-02 -2.74087936e-02 1.33241951e-01 2.01346017e-02 -1.02174714e-01 8.28554854e-02 -6.91194311e-02 2.44104229e-02 -1.79745719e-01 -5.16224578e-02 -2.18511522e-02 -8.64061266e-02 2.87980139e-02 -2.04614196e-02 1.45594493e-01 -1.34919044e-02 1.80720702e-01 5.54307662e-02 5.47327213e-02 -3.26888007e-03 3.24156880e-02 8.93849581e-02 1.34719089e-01 6.40382618e-02 -1.65216923e-01 -1.25923067e-01 3.02883890e-02 -3.95642333e-02 3.97788174e-02 8.53115618e-02 -4.30074818e-02 1.28673716e-02 -9.05253552e-03 7.61041790e-02 -8.73486623e-02 -6.55788556e-02 4.41469885e-02 -1.32836029e-01 -7.72669166e-02 -1.21123135e-01 -6.97842911e-02 1.78266841e-04 -7.72617524e-03 5.38117662e-02 1.56704977e-01 -2.70385835e-02 -9.22512263e-02 -3.53501849e-02 7.05516934e-02 4.59081493e-02 -1.65746380e-02 -1.09326139e-01 1.39660463e-01 1.32888615e-01 6.33168146e-02 -1.65455509e-02 -3.64861116e-02 -1.89102009e-01 -1.40238434e-01 -4.32865508e-02 -1.06678367e-01 1.19867980e-01 1.60190463e-02 1.11431174e-01 -5.44945747e-02 3.21769044e-02 -2.43234769e-01 7.29369596e-02 1.22883655e-02 2.01533586e-02 4.63818796e-02 5.26471762e-03 1.40046924e-02 1.39654323e-01 2.13416703e-02 -1.13525018e-02 -8.69669169e-02 9.37906131e-02 5.26876338e-02 8.29797834e-02 -2.31579050e-01 -4.48270626e-02
afr-x-bible-1953 0.08411574 -0.02971476 0.0859281 0.04317161 0.13481142 -0.09571303 -0.05126053 -0.09111251 -0.05318937 0.04490597 -0.01664314 0.05777948 0.08027072 -0.08766183 -0.06853896 0.08354089 0.15035892 -0.06577447 -0.02917256 -0.19355753 -0.13653746 -0.22681394 -0.07028948 -0.01264703 0.0580176 0.04761617 -0.05779219 0.06158439 -0.12594211 0.08358537 -0.01044193 -0.00424183 0.07873141 0.00406263 -0.00723896 -0.02716089 0.0724453 0.19702595 -0.03240133 -0.05836072 -0.03542393 -0.00439853 -0.02480039 0.05742106 0.17628296 -0.05097621 0.08040234 -0.10817323 0.1311066 -0.02241684 -0.00149034 -0.01188915 -0.1555449 -0.06171559 0.05772075 0.13765493 -0.06542867 -0.07360793 -0.03917013 -0.03969365 0.1661833 -0.04169248 -0.10597225 0.03742424 -0.06811275 -0.04522806 0.06025974 0.09059472 -0.04566883 -0.06637687 -0.12257032 -0.00031425 0.1510163 -0.03451605 -0.06710682 0.08089384 0.07165633 0.01061656 -0.08637036 0.05489777 -0.01392077 0.02511337 0.0379887 0.05721341 0.10994776 -0.00637162 0.12442338 -0.10155923 -0.08083381 -0.11606669 0.04887586 0.05545319 -0.08663984 -0.1445616 -0.06649555 -0.00556192 0.03007082 -0.0427333 0.16098934 -0.11031874
afr-x-bible-1983 0.03528387 0.01742402 0.01502319 0.12775864 0.1312583 -0.12575229 0.04104111 -0.10667173 0.05314574 -0.00150548 -0.09628365 0.11499304 -0.02180387 -0.05653983 -0.06776661 0.00747609 0.1605979 -0.13271393 -0.06255118 -0.02895708 -0.15654193 -0.27320373 0.0679338 -0.09804533 0.08158798 0.13831145 -0.07008093 0.08294538 -0.13892363 0.0810844 -0.0029798 -0.01742122 0.13831367 0.02183155 -0.0125592 -0.00251576 -0.04352655 0.18891154 0.025667 0.00955872 0.09275685 -0.03510148 0.08492628 0.0577782 0.04143482 0.02673303 0.14051738 0.03552075 0.119828 0.04829899 0.04567826 -0.1426212 -0.01507346 -0.09426621 0.05218395 0.25834385 0.06271704 -0.12401006 0.03585501 -0.06603897 0.23699912 -0.084003 -0.14170574 0.03892092 0.06666296 -0.02354002 -0.01411337 0.06432301 -0.06174037 -0.05407814 -0.07196829 0.03409285 0.126407 -0.0467674 -0.01253382 0.01640019 0.18323432 0.02025975 -0.08472387 0.04904615 0.05254968 0.07712294 0.1299411 0.02883567 0.16932862 0.11725404 -0.02643567 0.04855096 -0.06161461 -0.11731393 0.03172616 0.02031184 -0.05123582 -0.26909146 0.0766788 0.10607903 0.0265986 -0.1305829 0.23446879 -0.2066337
afr-x-bible-boodskap 0.03166656 -0.03078497 -0.08523502 0.0519229 0.05994719 0.05998355 0.04707434 -0.04605779 0.01072494 -0.05018334 -0.1462313 0.0795479 -0.0292977 0.06214052 0.01719756 -0.01132476 -0.02774819 -0.08684956 -0.09921326 -0.01972117 -0.10048576 -0.13222907 -0.04012369 0.00889715 0.11562131 0.04707562 -0.05825958 -0.06239004 -0.05832604 0.09836259 0.0520246 0.03937224 -0.0183858 0.02169104 0.06193677 -0.08835439 0.00446951 -0.01123562 0.04443123 -0.01635529 0.05946266 0.01289232 -0.04896269 -0.00773889 0.05778528 0.10666056 0.02622097 0.00282942 0.0529799 0.0101855 -0.03077792 -0.04529258 0.04088353 -0.10173639 0.0822747 0.13000993 0.00949936 0.03924974 0.01353275 -0.10737829 0.03937089 0.040318 -0.05157422 -0.00128326 -0.00917289 0.06897537 0.06028117 -0.02594736 0.05264399 0.05810152 -0.13444565 -0.01127 0.07501784 -0.01015232 0.04787209 0.04554452 0.08941524 -0.04529626 0.0106646 0.10625708 -0.00629815 -0.02237104 0.01888215 -0.11175947 0.05257809 0.17442244 0.12302861 -0.06809238 -0.03217499 -0.17860281 -0.10952931 0.00545088 0.05208762 -0.06907953 -0.00525338 0.08605605 0.02070219 -0.08551046 -0.01615825 0.02880154
afr-x-bible-lewende 0.01908899 0.14060317 0.098443 0.02008636 0.07244945 0.0362827 0.00915439 -0.11811368 0.12710412 -0.09392007 -0.07331271 0.15343837 0.00956443 -0.07435193 -0.04430877 0.06363771 0.04845767 -0.04481506 -0.01578711 -0.1187056 -0.04789018 -0.12812462 -0.08817081 0.01960612 0.09249358 -0.01706984 0.13012618 -0.0884496 -0.14285304 0.00650565 0.05592656 0.02395503 0.11816182 0.03613034 -0.13495377 -0.01765237 -0.10950194 0.07269222 -0.08305659 -0.11154257 0.07500881 0.06333771 0.01198486 0.00076286 0.02732242 0.06135274 0.00670602 -0.08736836 0.07359853 0.03664715 -0.06579308 0.01369245 -0.02799508 -0.06174709 -0.06017885 0.18955812 0.11401862 0.03120395 -0.03262391 -0.01018964 -0.03923267 0.12800932 -0.19741018 0.02642872 0.05290829 0.02567075 0.05151797 0.10572954 0.07939152 -0.03120836 -0.03047762 0.11501003 0.10669137 -0.10167607 -0.02724663 0.07074947 0.12898259 -0.03881801 -0.02584425 -0.09138546 0.02536691 -0.06467045 0.13017647 -0.09083321 0.13577843 0.10718518 0.05345658 -0.05313613 -0.13912603 -0.23310114 -0.02746599 0.0312834 0.07562871 -0.13451731 0.10200498 0.00448564 -0.06158998 0.02854451 0.12667261 -0.10589577
afr-x-bible-viralmal 0.07113086 -0.05678549 0.14309572 0.10925734 0.04141857 -0.00375622 0.04556828 0.00729485 0.06975355 -0.08480474 0.00306451 0.13209271 -0.07765299 -0.03773291 -0.04405697 0.01504533 0.05566474 -0.13871828 0.00567397 -0.04872524 -0.16675386 -0.18055958 0.01516696 -0.11135659 0.00223352 0.0321783 -0.00571263 -0.11310858 -0.12790814 0.17102551 0.03530383 0.05011817 -0.04278629 -0.01047688 -0.07407732 -0.13335057 -0.14563648 0.05339692 -0.01823978 -0.04030304 0.04688278 0.0529516 -0.03448043 -0.0487563 0.13187805 0.08535483 0.22193484 -0.14581916 0.03618608 0.00971257 -0.06239693 -0.14087021 -0.03036409 -0.13037376 -0.04153443 0.16762248 0.10363876 0.01976537 -0.11447827 -0.20641685 0.03299402 0.06757724 -0.1656701 0.00737509 0.0744252 0.01595561 -0.11107012 0.05302746 0.04945303 0.067647 -0.10362686 -0.04643244 0.03808092 0.04321879 0.00762891 0.09979134 -0.00491913 0.03932415 -0.14300412 -0.02109691 -0.01267679 0.03123352 0.07178781 0.01426315 -0.01873663 0.14577334 0.05704452 -0.08712405 -0.04660887 -0.26828817 0.07800923 -0.08925479 0.07855155 -0.10487625 -0.10653613 0.0976945 0.06290575 0.02551171 0.03457807 -0.20576315
agd-x-bible 0.01021666 -0.03895955 0.02665328 -0.07809677 0.05088895 -0.0263699 -0.03645615 0.05895641 -0.12981825 -0.09247881 0.01562786 -0.02765271 0.06445462 -0.08517335 -0.0392331 0.06475419 -0.04816631 -0.04726034 0.08211897 0.07568377 0.10983664 -0.03672203 0.10336415 -0.05848584 -0.04668505 0.07247958 0.05960666 0.02434151 -0.05574362 -0.06958396 -0.07986143 0.10991306 0.04126381 0.10056236 0.06725714 0.03809179 -0.05315693 0.05143979 -0.03695104 0.13541684 -0.08531313 0.10564849 -0.03502186 0.00192249 0.03884017 0.06030752 0.03057856 -0.05222727 -0.00909767 0.05914246 0.07021405 -0.00593717 -0.02737828 0.01928232 0.16323337 -0.06887992 0.04451884 -0.05074392 0.03108589 -0.02379803 0.02534084 0.1125394 0.00174171 -0.03037013 -0.01223186 0.03600104 0.03045461 0.12319789 0.00501953 0.11040433 0.10787285 0.06582703 -0.01607488 -0.00301606 -0.08245912 0.01311625 0.08430922 0.03619133 -0.08283893 0.06109443 -0.05519937 0.06730938 -0.1167029 -0.01261857 0.00885061 0.00176708 -0.10103738 -0.06142448 0.02523653 -0.09295876 0.06036936 0.09544481 0.08482552 -0.11653602 0.06221512 0.04886476 0.02679744 0.07219758 -0.02210542 -0.01656029
agg-x-bible 0.03404188 -0.05625382 0.03466615 -0.23237386 0.11517383 0.04011455 0.06900383 -0.05271972 -0.10261445 -0.01789845 0.03809926 -0.04751593 -0.17952985 -0.00692682 -0.17229281 0.07870947 0.06530435 0.0823429 -0.06347739 0.00051527 0.03284953 0.15322553 0.05089426 -0.0418169 0.00615017 -0.06726374 0.1182749 -0.12735228 0.041007 -0.00600776 0.00753721 0.08386122 0.10254825 0.12955742 0.12718037 0.18078908 -0.15961239 0.03631524 -0.03630787 0.13675389 -0.03786575 0.01596813 0.02821459 0.03757006 -0.00544852 -0.05287763 -0.06035969 -0.08374035 0.1501641 -0.11106212 -0.12517266 0.02029425 -0.07186268 -0.07007032 -0.07060741 -0.09777993 0.069277 -0.03607381 0.08566422 0.18741347 -0.17803346 0.04404503 0.11880265 0.07060859 -0.11283579 0.02730944 -0.15198734 0.00214279 -0.0234189 -0.00831457 0.17884482 0.04661552 -0.11189803 0.00567018 0.10406525 -0.05096423 -0.14958219 0.03007326 0.05248211 0.00808359 0.06721367 -0.01005886 -0.04848423 -0.09770261 -0.09011398 0.03566669 -0.12162056 -0.06342036 -0.03456631 -0.02068214 0.13906291 0.1146987 0.13718131 -0.09356969 -0.1297475 -0.00316756 -0.0256437 -0.10125054 -0.08881575 -0.14675243
agm-x-bible 0.02312667 -0.07809754 -0.02041147 -0.20251027 0.05036595 -0.00555262 0.07233146 -0.0849268 -0.06241116 0.02747966 0.17664711 -0.00146684 -0.03926422 0.09478005 -0.11398278 -0.0638429 -0.02745955 0.18011792 -0.10075247 -0.01397111 0.03322501 0.15502469 0.00065137 0.06252152 0.00207031 -0.04594939 0.01017452 -0.01608324 0.15899909 0.04861113 -0.06332243 -0.04784705 0.15247689 0.02387928 -0.07678704 0.03903843 0.06388419 -0.02028955 -0.11012555 0.02937776 -0.01000605 0.0578182 -0.09602746 -0.03077517 -0.03686065 -0.12611659 0.03485359 0.08097789 0.11514189 -0.09476963 0.01809035 0.0043631 -0.05551208 0.02896729 0.02859933 -0.16603997 0.06192084 0.11759671 0.00994176 0.1392681 -0.12682101 -0.03005296 0.03274476 -0.08799272 -0.16063978 -0.0919347 -0.09215516 0.11339582 -0.05887982 0.01353787 0.23268417 -0.01813821 -0.00270981 0.00419435 0.01835095 0.02637746 -0.05855018 -0.11922213 0.02434768 0.03778049 0.06848411 -0.14634483 0.02803227 0.06003966 -0.2352683 -0.03822399 -0.03802061 -0.00285807 0.01017115 -0.032601 0.01708893 0.14014204 0.13540332 -0.04230398 -0.0612486 -0.07053383 0.05197297 -0.03883277 -0.1375271 -0.01766464
agn-x-bible 0.21268798 -0.04257663 0.11872015 0.27606967 -0.15080139 -0.00512624 0.06026746 -0.06863025 -0.02146772 0.04426347 -0.03170854 0.07387453 0.00490076 -0.04197866 0.15416181 -0.03575636 -0.09106533 -0.2448734 0.11589675 0.03599979 -0.17031854 -0.14156954 -0.12467977 -0.24615677 0.01141253 0.11163926 -0.04914572 -0.02165938 -0.04690953 0.03791487 -0.11161143 -0.00796427 -0.00531788 0.01469602 -0.08541658 -0.05010644 0.01525892 -0.05088968 0.11946426 -0.15956621 0.13987505 -0.01702978 0.09554965 0.01134072 0.10518035 -0.08951768 -0.159902 -0.08119406 -0.14969459 0.06573176 0.0632705 -0.0417174 0.12468229 0.06588316 -0.0452226 -0.07356344 0.04383637 0.02967171 -0.08655495 0.01666011 0.11554569 -0.04177183 -0.11579777 0.15902081 0.15936722 -0.03513292 0.0208101 -0.16537046 0.18578088 0.11047037 -0.16171995 0.02360463 0.1522192 0.08845066 -0.0250199 0.15738499 0.07427368 0.00351369 -0.02883292 -0.0542598 0.01746309 0.02335222 0.04520543 -0.01752985 0.17845634 0.06605531 0.07456848 0.10825894 0.1530004 -0.19923861 0.02998209 -0.07916643 -0.01456763 0.1678226 0.26228973 0.06537218 -0.13507555 0.12351985 0.14063568 0.07920991
agr-x-bible 0.08114894 -0.04486112 -0.05617306 0.14475021 0.0062318 0.00697357 -0.0530089 -0.02153565 0.0316435 0.03452114 -0.04127138 -0.04483399 -0.08775958 0.03789414 -0.09277813 0.12084192 -0.14853661 -0.11066088 -0.02086458 -0.07228248 -0.01315627 -0.0016546 -0.03994868 0.16541132 0.06712359 -0.05356964 -0.0854675 0.02881332 0.00129227 -0.11449292 -0.09639443 -0.07782871 0.04570578 -0.00032623 0.14684308 -0.10263782 -0.01588405 -0.1225911 0.01615321 0.00566893 0.11418462 -0.18598467 0.0861927 0.08976199 -0.11078093 0.08870409 -0.12529865 -0.03124789 -0.08129729 -0.0016807 0.03498474 -0.00867811 -0.06983121 -0.06527732 0.08843876 -0.09675814 0.02143281 -0.1306934 0.1577613 -0.00597669 0.01160431 0.11535959 0.10540356 -0.07125981 -0.03933944 0.06844128 0.0988884 0.05158583 0.08869529 -0.09466219 -0.03620434 0.10817544 -0.08438876 0.11511663 0.03296811 -0.14994258 -0.14157134 -0.11884115 -0.08227616 0.01772712 -0.14245848 0.06852694 -0.13034092 0.16137761 -0.14210261 0.08100944 0.19938336 0.03698105 0.02056123 0.06310516 -0.06274478 0.13606974 0.01307914 0.02893288 -0.10469899 -0.05014419 -0.06625276 0.11155704 -0.17715642 -0.01934963
agt-x-bible 0.02506986 -0.10341433 0.06245852 0.31570503 -0.08212829 0.07467026 0.00761424 -0.1202761 -0.08128533 -0.07505864 -0.07499067 0.02236972 0.01607212 -0.00696289 0.17790112 0.10650406 -0.12409035 -0.14289878 0.15971622 -0.09579258 -0.12265237 -0.21490724 -0.13412295 -0.02085407 -0.02047215 -0.10826359 -0.02438632 0.02115935 -0.1808331 0.09107682 0.07360186 0.01377893 -0.13672934 -0.00661574 -0.08064371 -0.20978907 -0.04199287 -0.12945862 -0.01213577 -0.10435911 0.10442136 -0.09065264 -0.03452367 -0.04769114 0.05754253 0.09847927 -0.19968995 -0.16348515 -0.00905237 0.04481731 -0.01645828 -0.01156776 -0.00440226 0.18208209 0.05315325 -0.00835652 0.15213658 0.03709381 0.02731151 0.01213368 -0.01205846 0.00601426 -0.04549526 0.08511023 0.03999547 -0.04739087 0.01923499 -0.15878834 0.07587361 0.11150299 -0.20092066 -0.1039777 0.22135505 0.01255886 0.0838602 0.09850213 0.07812523 -0.0635196 -0.06018601 -0.01946523 0.02004056 0.07204986 0.06665138 -0.02553791 0.14270425 0.15432684 0.11868389 0.22547196 -0.02462534 -0.13475682 -0.1114868 -0.11714297 0.03593387 0.17745869 0.01998817 0.04229369 -0.20777802 0.05891376 0.13997114 0.21432668
agu-x-bible 3.87802459e-02 1.71630830e-01 -8.99415985e-02 1.43294215e-01 -1.04002401e-01 9.69318673e-02 -4.87616099e-02 3.01578864e-02 6.69692978e-02 -5.50780445e-02 -9.83996019e-02 -3.76867130e-02 1.93675771e-01 1.56581923e-02 -1.00522935e-01 -1.04377070e-03 -4.91667986e-02 2.06309613e-02 -3.84446792e-02 1.55460700e-01 -1.93998918e-01 -1.77284375e-01 -6.97090477e-02 -7.88727403e-02 4.09800857e-02 2.02699006e-02 -8.43810141e-02 -6.61653131e-02 -2.48652428e-01 1.49274766e-02 1.56951442e-01 -4.38153930e-02 2.27333922e-02 -6.95804134e-03 7.07111806e-02 4.91314642e-02 2.07873676e-02 1.04245365e-01 -3.37220468e-02 3.80981192e-02 9.22081023e-02 1.51547700e-01 -1.58218682e-01 -6.93028495e-02 -1.19732097e-01 2.16635659e-01 -7.28858411e-02 7.39187300e-02 7.27151185e-02 -2.13405676e-02 -1.43907875e-01 1.63135558e-01 4.70326729e-02 2.63829250e-02 -1.10124916e-01 4.57559563e-02 -1.18391231e-01 2.32052160e-04 -1.21219028e-02 -3.67254391e-02 8.64007920e-02 -2.85994466e-02 -1.02378644e-01 1.02604488e-02 5.91036864e-02 -1.04468735e-02 -1.51289217e-02 -8.98343101e-02 -1.70256719e-01 -6.80158362e-02 -1.35677963e-01 8.24392438e-02 -8.50541890e-02 1.15731597e-01 -4.70484123e-02 5.14561236e-02 -2.79207602e-02 -9.66274005e-04 -6.15204424e-02 1.61714599e-01 3.19653302e-02 1.64272115e-01 -7.64101595e-02 2.24027736e-03 8.22483301e-02 3.42529379e-02 1.31064713e-01 -5.43712638e-02 -5.04576042e-02 -7.95490853e-03 5.31870797e-02 6.61372812e-03 -7.29070231e-02 -2.11042702e-01 1.52674958e-01 2.22269848e-01 -4.16435786e-02 1.02084324e-01 -3.41284461e-02 -2.53464039e-02
agw-x-bible 2.27517962e-01 -1.76105805e-05 5.70423761e-03 -1.51915178e-01 3.35750766e-02 -2.06202611e-01 -1.31295454e-02 1.55151471e-01 -2.00472116e-01 -5.46100140e-02 4.26135510e-02 -1.59814790e-01 -1.60502955e-01 1.78996503e-01 6.49353415e-02 4.33003642e-02 1.46313131e-01 3.33346501e-02 1.01263389e-01 -6.73001185e-02 1.23606727e-01 9.64994878e-02 4.56818789e-02 1.38417676e-01 -1.83206052e-02 1.46943936e-02 1.63760856e-01 -5.30640483e-02 3.10126185e-01 -3.80501598e-02 4.42807702e-03 1.35547638e-01 -5.69041818e-02 -6.00529388e-02 -3.87292691e-02 3.39863496e-03 4.79063243e-02 -1.88414171e-01 -4.69831377e-02 3.20249200e-02 -1.02636971e-01 -1.01866484e-01 1.26604497e-01 -6.40679300e-02 1.02985620e-01 -1.56581804e-01 2.44683892e-01 -1.21443905e-01 6.68299943e-02 1.71959326e-01 9.49622914e-02 -2.60118693e-02 -1.43968444e-02 1.04859537e-02 7.39125609e-02 -2.15922222e-02 1.65467188e-01 -7.21463561e-02 6.55101612e-02 3.04687861e-02 -2.90730614e-02 4.72995751e-02 5.23637496e-02 -4.07342762e-02 -3.09402850e-02 6.59433752e-02 -1.24896772e-01 6.18671291e-02 1.79450512e-01 1.08650051e-01 2.00620759e-02 -6.97411969e-03 1.48927432e-03 -1.74601272e-01 2.53779769e-01 -4.13744599e-02 2.15211362e-02 -1.81856066e-01 -2.76143644e-02 -1.63312852e-01 9.22606438e-02 -2.75717139e-01 1.49013679e-02 3.56882997e-02 -7.26997554e-02 5.09997085e-02 -1.42911583e-01 -1.60917521e-01 8.55551213e-02 8.77753496e-02 -2.90264264e-02 1.48050874e-01 2.69193724e-02 8.33392665e-02 -1.16815828e-01 -1.30324006e-01 6.52889162e-02 1.21438708e-02 7.65377879e-02 3.89959849e-02
ahk-x-bible 0.07142813 -0.19129945 -0.17875412 -0.10500018 0.09314255 0.03582779 0.05244447 0.03737345 -0.07838316 -0.03627832 0.03621261 -0.03723178 -0.04194907 0.00048549 -0.01296857 0.0772346 -0.03194678 0.21517467 0.13434738 -0.2754255 0.20049876 0.26764694 -0.02868579 0.26203996 0.02420129 -0.14642967 -0.01486049 0.16640756 0.08238176 -0.0085672 -0.0938436 -0.04286062 -0.17766249 -0.09868644 0.34566784 0.07299862 -0.07456776 -0.19193347 -0.10622847 0.10663375 -0.10788395 -0.22715445 0.13631819 0.05832732 0.01604788 -0.09094372 -0.16326192 -0.10209978 -0.0949594 0.16333795 0.07103056 0.08564112 -0.01917143 -0.1708501 -0.18199025 -0.12367766 0.17687424 -0.05142635 0.05024112 0.2235785 -0.21993491 0.02791729 0.17402174 -0.11119453 0.14328335 0.05702185 0.02877125 -0.02283394 -0.03843235 -0.08466759 -0.02284211 -0.05336543 -0.00170874 0.22017038 0.1156993 -0.22266982 -0.36752325 -0.0641766 0.08616892 -0.136213 0.09744104 -0.05355319 0.0593112 0.24816215 -0.15128021 0.02770043 -0.01668135 0.06096592 0.17641479 0.06349219 -0.01445862 0.21344493 0.07317387 0.1835849 -0.14297083 -0.18417257 0.06163759 -0.02292144 -0.2948058 0.16250405
aia-x-bible 2.04982966e-01 -2.18555823e-01 6.05254583e-02 -5.97909018e-02 1.46348998e-01 -2.26276144e-01 2.92546973e-02 1.32720202e-01 -7.49085918e-02 -1.11810766e-01 1.34715915e-01 -1.15066826e-01 -1.77857399e-01 5.59202805e-02 -1.98831018e-02 -6.72695925e-04 9.84696224e-02 3.85527872e-02 -1.14947055e-02 -1.11735040e-04 1.10541858e-01 1.16690002e-01 1.18414983e-01 5.92051819e-02 -4.21005785e-02 -1.97338033e-02 4.65145037e-02 -6.71190768e-02 3.18089068e-01 -2.29409784e-02 -2.18894631e-02 1.25666589e-01 2.06520371e-02 -6.43665418e-02 5.24298586e-02 -1.34239689e-01 -8.88678804e-02 -1.30659074e-01 9.35408846e-03 -2.01249905e-02 -1.79076821e-01 -5.71186095e-02 7.82499537e-02 -1.33404843e-04 3.23019503e-03 -2.84143705e-02 1.49973229e-01 -2.26390719e-01 1.39562383e-01 1.00406140e-01 5.18668257e-03 -1.07764095e-01 -1.60484388e-01 -9.26013663e-02 1.04770660e-02 -6.04713410e-02 1.79902121e-01 -4.01924066e-02 1.38008446e-01 1.89953849e-01 -7.96333849e-02 -2.03533564e-02 9.19125006e-02 6.86245337e-02 1.71755012e-02 1.32163772e-02 -1.09701075e-01 9.32134166e-02 1.59754336e-01 2.32449815e-01 1.20072797e-01 -1.12811103e-01 -3.49870184e-03 -1.96261406e-01 1.93082631e-01 -1.10873215e-01 3.35593857e-02 -2.36446127e-01 9.22976732e-02 -1.06636874e-01 9.65652391e-02 -2.72666723e-01 7.89025892e-03 -5.47615997e-03 -5.77258281e-02 -3.75419445e-02 -5.89953177e-02 4.11317162e-02 -5.68646453e-02 -3.68630104e-02 -7.28507489e-02 2.49441981e-01 7.45775029e-02 5.78138456e-02 -1.66284680e-01 -2.48098210e-01 3.72278430e-02 -4.22012433e-02 1.21449148e-02 -8.70986748e-03
aii-x-bible 0.12147441 0.16192229 0.10143143 0.08456673 0.0453748 -0.01408705 0.00832538 -0.02093957 0.11311968 0.05064619 -0.09134329 0.02529884 -0.00984715 -0.19314516 -0.06116204 -0.02698071 0.00212051 -0.05793576 -0.00052727 -0.05603217 -0.01294547 -0.06298296 -0.0268428 0.05553333 -0.07364109 0.0653852 -0.01278695 0.07752137 -0.14806247 0.14164925 0.08027855 -0.05410758 0.02363895 -0.01358851 -0.13217315 0.03356448 0.01080658 0.1268556 -0.02112957 -0.06469673 0.07867504 0.1315076 0.03310308 0.05685858 0.079288 0.09264152 -0.0151584 -0.06238624 0.00809761 0.03276109 -0.11892568 -0.03670923 -0.09890926 -0.15754007 0.04519313 0.20341288 -0.01088893 -0.10756345 -0.04647074 -0.02620873 0.08308553 0.1122233 -0.13937712 0.01003654 -0.04112707 0.11814524 -0.0349253 -0.09832962 0.0170549 -0.07985379 -0.03659616 0.03242743 -0.07920137 0.05930095 -0.00616209 0.1783977 -0.0306968 -0.0030406 -0.00341341 0.0579779 0.03242416 0.2342262 0.01431376 -0.02847233 0.19680336 0.13881424 0.04475516 -0.01028243 -0.09956641 -0.08161196 0.04610065 -0.01933855 0.01596926 -0.20528671 -0.06668907 0.10318182 0.077021 -0.11073092 -0.0421602 -0.10729972
aim-x-bible 1.33580297e-01 -8.48474130e-02 3.32085928e-03 7.20819086e-02 1.14857629e-02 4.07804511e-02 -2.07881648e-02 -4.46851715e-04 -3.89830731e-02 2.39947438e-02 -4.44269069e-02 3.30673680e-02 -1.11537836e-01 -7.80380070e-02 -1.76435277e-01 5.78024834e-02 -1.20798364e-01 -1.07906342e-01 -2.35169078e-03 -9.17140841e-02 -4.02056500e-02 2.42843442e-02 1.33819208e-01 2.84608174e-02 1.71047840e-02 -2.69321147e-02 9.53284726e-02 7.03211054e-02 -1.95032582e-02 6.78900555e-02 -5.16101308e-02 -4.72774245e-02 -1.90519691e-02 6.13858066e-02 -3.57468165e-02 3.44345942e-02 -1.02011576e-01 2.42747404e-02 1.49359584e-01 2.44248919e-02 -1.19987324e-01 8.46973732e-02 -3.22837606e-02 -9.00880061e-03 1.15302436e-01 -3.61063108e-02 6.39658049e-02 9.76383593e-03 -1.60677582e-02 -1.05923545e-02 -1.63756430e-01 -9.55371885e-04 9.27428529e-02 4.88761552e-02 5.81586733e-02 -1.10456692e-02 1.70488097e-02 8.35113078e-02 1.74564630e-04 9.99497846e-02 -3.69469747e-02 -1.27379790e-01 -2.39422843e-02 7.55432025e-02 1.21399276e-01 8.20551291e-02 8.31621364e-02 -1.62710443e-01 8.87033641e-02 3.75959557e-03 -5.00341617e-02 -1.29205033e-01 -1.08455345e-01 -1.83490142e-02 1.07124902e-01 6.53591752e-02 8.49521756e-02 7.67853186e-02 -6.86392188e-02 -8.21230188e-02 -6.18369617e-02 -3.58862504e-02 1.86288077e-02 -1.29581243e-01 9.70928445e-02 1.04628861e-01 8.84222388e-02 7.44859129e-02 -1.51081711e-01 -2.58158259e-02 -1.13829963e-01 -1.32609811e-02 -3.60216573e-02 -1.43152788e-01 1.29664645e-01 -6.16587177e-02 -1.52569219e-01 -1.12209767e-01 6.43810183e-02 -5.36483228e-02
aji-x-bible 0.30993983 -0.07321063 -0.05176643 -0.16520546 0.15499297 -0.08240903 -0.04014 0.08205234 -0.04063195 -0.01934693 0.11869281 -0.2792677 -0.05215327 0.13290876 -0.02926373 -0.01833405 0.17787498 0.15439853 0.00601226 0.05422277 0.2976414 0.14217146 0.18306783 0.15337881 0.07079058 -0.07181939 -0.03268438 -0.14922085 0.2756864 -0.19695884 -0.09625141 0.09904028 -0.11821342 -0.2322637 0.06198464 0.0813764 0.06815105 -0.14278445 -0.14473547 0.05673111 -0.07282279 -0.18533042 -0.0168415 -0.00328257 -0.02323225 0.01812563 0.08605345 -0.20457159 -0.05751204 -0.022661 0.0424985 0.06207892 -0.1417373 -0.12543753 -0.00387644 -0.05738521 0.08640459 0.04543362 0.18563925 0.18435626 0.01365023 -0.02467144 0.22220354 -0.08935692 -0.15034474 -0.01099864 -0.0491588 0.11603504 0.10101035 0.08492644 0.07156475 -0.11395651 0.03850727 -0.0227299 0.17882882 -0.07717167 -0.07456257 -0.13532986 0.03223663 -0.00977547 0.10157693 -0.23934604 0.03738012 0.05672417 -0.13803677 0.01549055 -0.11709341 -0.15000877 -0.11295381 0.0953726 -0.05116893 0.15106182 -0.01423551 0.10075527 -0.17408618 -0.16346996 0.02629194 -0.06787783 -0.08894651 -0.05422321
ajz-x-bible 0.04266833 -0.03189603 0.03515058 -0.16053486 -0.04123225 0.00439068 -0.02504328 -0.00522957 -0.03275931 -0.01896946 0.09308819 -0.0157075 0.08751238 0.04693298 -0.07973319 -0.1673805 -0.02236454 -0.02656094 -0.00531817 0.13882309 0.00991843 -0.07555299 -0.03401401 -0.13223639 -0.08509989 -0.07562444 -0.05835747 0.04780734 0.03128713 0.12105356 -0.04125532 -0.05354916 0.09338459 0.03639487 0.02232835 0.15299833 -0.0727943 -0.02537898 -0.02090191 -0.04766217 0.06948248 0.00320174 0.09717015 -0.04365433 -0.01524727 0.1155804 0.056772 0.13338308 -0.0877905 0.03152304 0.07060935 -0.01398379 -0.02812164 -0.06189087 -0.00529059 0.0262072 -0.09929295 -0.05024756 -0.12178449 0.02293405 0.00471089 -0.04055869 -0.09398527 -0.0118232 0.08658215 -0.01706544 0.06241467 -0.02725641 0.01033506 -0.10459512 0.0387123 -0.02839941 -0.08989692 0.16287395 -0.16694349 0.01984348 0.07749058 0.16965997 -0.04399324 -0.08856817 0.05015661 0.08345894 0.04137332 -0.01485247 -0.03351128 -0.13201346 -0.16132353 -0.03887923 0.102654 0.08410578 -0.0010911 -0.05004814 -0.09330422 -0.07242758 -0.03741723 0.01872311 -0.02278417 0.00062336 0.04516578 -0.13024357
akb-x-bible 0.19456562 -0.0560072 0.17435156 0.23641427 -0.14895178 0.01709307 -0.05703542 -0.02602183 0.0031744 -0.1042403 -0.01744187 0.05515718 0.05534958 -0.18300736 -0.0050148 -0.10742205 0.06518398 -0.17095663 -0.09750117 -0.01495273 -0.26193187 -0.06191072 -0.02118694 -0.11625055 -0.02708697 -0.03849714 0.17463048 0.06459657 -0.16968751 0.11766449 0.00786114 -0.09577233 0.05476016 0.17348446 -0.25523773 0.0112474 -0.11600938 0.1388926 0.06843411 0.00473686 -0.08620927 0.10151616 0.12249528 0.15142626 0.09930222 -0.09196403 -0.12020303 0.12914835 -0.09932603 -0.03206183 -0.11506968 -0.02623538 0.14058457 0.12464391 -0.01515515 0.036859 0.0187519 0.0665132 -0.08602678 -0.05746413 0.10227031 0.00766373 -0.10505385 0.16162528 0.13837391 0.09788341 0.06824417 -0.03047014 0.14329304 -0.00359327 -0.06624292 -0.12552749 0.02408472 -0.05501961 0.00059583 0.00938642 0.03481385 0.1268913 0.03304152 -0.00764917 -0.01495898 0.15209135 0.1565623 -0.02532552 0.12400296 -0.06760062 -0.00513533 0.18719155 -0.09638342 -0.15813588 -0.03359152 -0.09609172 0.012389 -0.11290869 0.04371774 -0.11042928 -0.0153766 0.00684826 0.09704968 -0.03297479
ake-x-bible 1.28325269e-01 2.06057739e-05 1.82832226e-01 -1.35114402e-01 7.46881682e-03 -4.57134917e-02 8.48643705e-02 -1.57638922e-01 -9.89463255e-02 -3.99048179e-02 7.70105645e-02 6.28665313e-02 -1.75107300e-01 -6.16607517e-02 -6.22646436e-02 5.61333308e-03 6.81765452e-02 7.35493228e-02 2.01668926e-02 7.69226253e-02 -6.26366436e-02 -7.51870871e-02 6.68486254e-03 4.51074727e-02 -6.64910302e-02 4.04785834e-02 9.81242955e-02 -1.15965992e-01 -4.56664674e-02 9.58824530e-02 -9.69932750e-02 4.69032601e-02 1.25180438e-01 1.05552092e-01 -1.65224761e-01 5.11574969e-02 3.13203111e-02 1.06001318e-01 -5.80111705e-02 -3.67506780e-02 1.46041531e-02 2.25632172e-02 1.02840863e-01 4.10186499e-02 4.72626276e-02 -1.42207101e-01 2.12528966e-02 -3.01058665e-02 1.68337047e-01 -6.62524402e-02 -1.09974168e-01 -4.77407761e-02 8.00536349e-02 1.65084191e-02 -1.32807586e-02 -6.26333803e-02 -5.71916229e-04 -5.34939542e-02 -1.90028399e-02 -5.94582148e-02 1.43775018e-02 5.79018481e-02 -6.72952086e-02 -2.91698193e-03 -8.59673470e-02 1.22513743e-02 -8.81183892e-02 -5.43476036e-03 -3.74744553e-03 -5.10905311e-02 1.03458814e-01 -2.83515197e-03 -2.47262940e-01 3.13679725e-02 3.17290798e-02 2.08917540e-02 -2.04154029e-02 -5.89105077e-02 8.96490589e-02 -1.56092495e-01 1.29279315e-01 -3.53106670e-02 7.41213746e-03 -4.75478731e-02 -5.03689200e-02 -3.58863361e-03 -6.46395981e-02 -2.19022930e-02 -6.33489564e-02 -2.05294415e-03 -1.58799272e-02 -3.57239917e-02 -2.09430009e-02 -1.04368232e-01 -1.30611956e-01 2.87057962e-02 -4.37850021e-02 -5.21946698e-02 2.39329934e-02 -1.03864886e-01
akh-x-bible 0.00701884 -0.07923782 -0.03369519 0.05121953 -0.09821394 0.02087606 -0.01324579 -0.01922393 -0.07502656 0.09180129 0.05672616 -0.04615664 -0.022794 -0.03728183 -0.00569136 -0.03675688 -0.02610619 -0.03905687 0.03099131 -0.02548934 -0.00600588 0.04957016 -0.04613937 0.04390621 -0.0805358 0.06917743 -0.00956992 0.03014632 -0.05565437 -0.00507391 -0.04163346 -0.07525828 -0.12020001 0.12529692 0.01510232 0.12403313 0.01814863 0.0002512 0.01536681 0.11847008 0.06008191 -0.09906334 -0.04233585 -0.05981775 -0.05265008 0.05321684 -0.02134801 0.14133616 -0.12963946 0.02837932 0.08678133 -0.08009128 -0.02879358 -0.05899115 -0.03466645 0.04934777 0.04769215 0.11163724 -0.03236831 0.12930267 -0.04496657 -0.08440337 0.05101625 -0.00431331 0.00504661 -0.03426429 0.1001299 -0.02563519 -0.03575003 0.0129921 -0.11718296 -0.05235185 -0.08862834 0.12193278 -0.04112814 -0.12695757 0.08058666 0.00303081 -0.03496475 -0.00026398 -0.02702347 0.03066963 -0.04522309 0.06228998 -0.05984532 -0.08637794 0.08629468 0.10734838 0.094707 0.03570633 0.06224513 -0.04979392 0.05474238 -0.05506679 0.07236847 -0.00478993 -0.0352678 0.11203484 0.03069096 -0.02019135
ald-x-bible 0.05295639 -0.07845255 -0.03207198 0.14137973 -0.04207883 0.07019532 0.10084384 -0.03924784 0.08844755 -0.00377497 -0.08867203 -0.03236102 0.07002305 0.0413618 -0.05277768 0.08052155 -0.09869289 -0.08777652 0.04279738 0.06870354 -0.11427362 -0.11343669 -0.00893746 -0.11090178 0.06750816 -0.06848941 0.04631033 0.04233281 -0.10132309 0.01460487 -0.01963752 0.0293411 -0.0744319 -0.02410191 -0.09764204 -0.09556407 0.06664945 -0.03632237 0.06852635 -0.06407469 -0.05690488 0.07442117 -0.03175273 -0.06761214 0.02370085 -0.03678091 -0.01355718 0.00642326 0.04603836 -0.04474508 -0.09281191 -0.03303681 0.0136121 -0.08361611 -0.09561846 0.07227837 0.0026643 0.06083839 0.08599379 0.08708297 0.0952895 0.056016 -0.08872591 -0.05007942 -0.03330743 0.09153962 0.03363479 -0.08276597 -0.05804882 -0.02842472 0.06028307 -0.0196109 0.01215157 0.01459862 0.0547234 0.04248179 0.05081031 -0.09516754 -0.05662099 -0.1299494 -0.02446547 -0.02697414 0.11110594 0.05888348 0.12622042 0.0057269 -0.08505587 -0.08324637 0.00744049 0.03830968 0.02214592 0.01696011 -0.11579174 -0.05726912 -0.04441929 -0.01917702 -0.04483678 -0.04503018 -0.02603382 -0.02808312
alj-x-bible 0.06462988 0.01462508 0.07134685 0.3357385 -0.16629674 -0.11969513 -0.07392303 -0.05054911 0.07228094 -0.08476432 0.06697138 0.25312853 0.02496839 -0.04219603 0.28782523 0.03888981 -0.15637235 -0.19812003 -0.05055121 0.03458237 -0.142267 -0.2802394 -0.2190235 -0.25636 0.09215858 0.08609615 -0.03416308 0.05258764 -0.12047407 0.19157167 0.02080987 0.01878201 -0.01140181 0.04081745 -0.20139684 -0.20626067 -0.0819867 -0.11283803 0.14749579 -0.25091624 -0.00378622 0.02905137 0.02721316 -0.02302158 0.12280755 0.00799861 -0.03279012 -0.03733946 -0.10257828 0.09478291 -0.04546439 0.05992778 -0.0412851 0.16396575 -0.11613244 0.09495965 -0.08303821 -0.04769232 -0.03968898 0.04188526 -0.03399311 -0.15758568 -0.02923592 0.1460901 0.08159843 0.06838547 0.18254438 -0.11722232 0.09919496 0.08678544 -0.00715243 0.03201886 0.16005196 0.02374023 -0.08147758 0.1882277 0.1118554 -0.0532307 0.02765313 -0.13259257 0.00770731 0.03082438 0.00893702 -0.126057 0.05514596 -0.08230033 -0.09020746 0.11752393 -0.04026749 -0.18784118 -0.13598298 -0.0437724 0.00918502 0.06592495 0.17857367 -0.05351771 -0.04185758 -0.01861552 0.04702489 0.04646766
aln-x-bible 0.02513271 0.05192728 0.01185987 -0.2538424 0.00525433 0.02312701 0.07442369 0.14169459 -0.05528733 0.00544848 -0.02901487 -0.04155332 -0.06899113 -0.11139405 -0.24440701 -0.00041465 -0.01867673 0.1358193 0.09410495 -0.04684781 0.11684258 0.21422525 0.124753 0.13817446 -0.07420556 -0.00150416 -0.00642901 -0.00667545 0.19738328 -0.17333494 0.00167501 -0.05280429 -0.09215843 0.03866703 0.18066902 0.19134578 0.00823399 0.00768381 0.03019144 0.02389344 0.01594223 -0.02637535 0.07010092 -0.04942745 -0.09233731 0.03522526 0.03712915 -0.04835623 -0.12428752 0.01913656 -0.03615734 -0.01513673 -0.03670119 -0.03844544 -0.01255238 0.01086394 -0.10486032 0.02355118 0.12346196 0.10981598 0.079044 -0.03713501 0.07854898 -0.03817553 -0.01842496 0.03732681 0.03124839 0.15895799 -0.07460362 -0.06017642 -0.12777682 0.02755194 -0.1216319 -0.00591501 0.00787832 -0.13304894 0.02179416 0.10786343 -0.04433819 0.13292393 0.09717673 0.08581415 -0.02564127 0.00140871 -0.05415139 -0.03045098 0.02411177 0.01453706 0.11385274 0.2177997 -0.08445107 -0.0227303 -0.04396768 -0.09436595 -0.1165259 0.07946447 -0.01207791 0.08632721 -0.14233723 -0.0257817
aln-x-bible-newworld 0.10299616 0.03545664 -0.06440789 -0.22628778 -0.03736314 0.04383859 -0.02630924 0.02702776 -0.05632268 0.08462401 -0.24175133 -0.09361118 -0.08999883 -0.06566907 -0.29052064 -0.11605097 0.06676758 0.2118795 0.08158587 0.03550047 0.10859273 0.10455503 0.03012339 0.07155323 -0.05253834 -0.01095456 -0.17730746 0.02490103 0.21046804 -0.16427626 0.06374349 -0.05445294 0.01417173 0.06798989 0.20652598 0.21871753 0.19228528 -0.09302978 -0.01009926 0.05351122 0.16139191 -0.03029832 -0.07969348 -0.05376973 -0.02724462 0.06894725 0.08007251 0.09250969 -0.12171693 -0.0149781 -0.07097057 0.00844323 0.02533211 0.01339182 0.01128334 -0.22461271 0.00813795 -0.00874668 0.08627757 -0.02972576 0.09611341 0.14036271 -0.02548391 -0.02576422 -0.05174145 0.02726691 0.03036256 0.2061567 -0.16713218 -0.00568192 0.02838418 0.04380263 -0.18749283 0.11928637 -0.04444801 -0.18047316 -0.07949217 -0.03881875 -0.06062341 0.10972089 0.10589478 0.09829261 0.01072027 0.14935671 -0.04581161 -0.02774841 0.16833036 -0.05214184 -0.00825528 0.14533477 0.02988185 0.08785883 0.01131191 -0.06016132 -0.04271032 0.06869746 0.0350887 0.14988318 -0.21830611 -0.0085736
alp-x-bible 0.13998236 0.13818078 0.08195559 -0.19827126 0.18570371 -0.17201567 0.03253304 -0.10108183 -0.01846281 0.07858896 0.10437907 -0.09298691 0.01753337 -0.03232739 0.09019475 0.01583628 0.08436423 0.05285009 0.02718604 0.09442695 0.1041954 -0.15984546 0.02302152 -0.00270215 -0.000653 0.02943047 0.16127405 -0.04126703 0.01641866 -0.01431652 0.04978026 0.12961577 -0.03519693 -0.18449548 -0.20401749 -0.0010187 0.02729777 0.15241356 -0.04043192 -0.13435568 -0.15415236 0.07098412 -0.04517727 -0.04010303 0.01355101 0.02545125 0.2119369 0.0310303 0.07495952 -0.11198039 -0.13886806 -0.01015189 0.07703298 0.00576884 0.12621029 -0.0467731 0.08682212 0.00783249 -0.01411779 -0.14757802 -0.06682685 -0.06627849 -0.21067545 -0.05938715 -0.17557374 0.08253195 -0.16269934 -0.01502279 0.07368571 0.06595565 0.11054271 0.00796808 0.08536495 -0.15372169 -0.08391779 0.09757701 0.16981345 -0.11354311 -0.09225579 -0.05635419 -0.00371884 -0.08439807 -0.09958061 0.0131717 0.13966516 -0.00705421 -0.1441245 -0.06077277 -0.02412675 -0.06823394 -0.01567529 -0.00863508 -0.13488384 -0.07221045 -0.01508129 0.00629473 -0.00211011 -0.21441934 0.24745736 -0.12839147
alq-x-bible 0.2021017 0.01010436 -0.06230615 0.08879811 -0.16992436 0.0453119 0.03548763 0.1055361 -0.01160672 0.01859803 0.0238032 -0.01844624 0.18593943 0.00960356 0.00060868 -0.0281828 -0.12683314 -0.00548872 -0.02874731 -0.00762662 0.00301504 -0.01184841 -0.04734956 -0.10341923 -0.13043453 0.07481555 -0.13661098 0.04888047 0.00141963 0.04600325 -0.05876182 -0.0109133 -0.00424131 0.09083232 -0.0848668 0.01941099 0.02603835 0.02144236 -0.01212154 -0.09763783 0.06847222 0.07181926 -0.08000902 -0.02764393 -0.07350433 0.0121697 -0.05381972 0.09680174 -0.1832759 -0.05305181 0.04571166 -0.0439751 0.1638663 0.17521703 -0.04114882 -0.05602273 -0.11617749 0.16357484 0.04415357 0.07268666 0.08721183 -0.08087471 0.08543293 0.01681653 -0.02524103 -0.06039147 0.03215306 0.02662157 -0.03908024 -0.05705072 0.03088646 0.07437883 -0.10217004 -0.1314567 -0.03178588 -0.06852581 -0.00362908 -0.00140184 0.03982286 0.09563712 -0.11189601 0.05168308 -0.16722693 -0.0562288 -0.03004649 -0.03988415 0.03591291 0.01284327 0.16360624 0.07424585 0.09465993 -0.18740119 -0.05751276 0.03635702 0.04668272 0.16402175 -0.07427247 0.06742375 -0.15373078 0.0616702
alt-x-bible 0.20265236 -0.01946699 0.09427022 -0.01476368 -0.10814857 0.08027168 -0.08998346 0.03959338 0.01589402 0.04391462 -0.2675906 0.09779903 -0.01165058 -0.02365431 -0.17704424 -0.11614943 0.14129728 -0.03247761 0.04829013 -0.17122081 0.07936539 0.12340955 -0.04403256 -0.06211566 -0.14315371 -0.05244841 -0.02056029 0.1013105 0.11259778 -0.00542061 -0.03908329 -0.02789231 -0.17674902 0.03095356 0.07393226 -0.00501335 0.02008785 -0.02359157 -0.05377986 0.01617175 0.13591917 0.00135962 -0.01609707 0.04257826 -0.13211583 0.02039664 -0.20235015 0.06204052 -0.24434671 0.03659031 0.04721568 0.10446656 -0.00869671 0.16095805 0.01625018 -0.19466785 -0.019691 0.01540837 0.13430628 -0.08125441 0.11621351 0.05194437 0.02642605 0.03013789 0.07061774 -0.06278451 -0.01152684 0.09784027 0.07694995 -0.07753365 -0.23465459 -0.07682783 -0.08758732 0.09601371 0.00932293 -0.09026557 -0.03481923 0.09533754 -0.1555462 0.11314278 0.13194747 0.22311915 0.03794868 0.23092145 -0.03799012 0.01061524 0.07683486 0.16341524 0.18727092 0.07861607 -0.10472324 -0.06408214 -0.02424922 -0.10284587 -0.14065966 0.12206435 0.09331152 0.18638806 -0.14897662 0.09267079
alt-x-bible-southern 1.50478795e-01 2.91426945e-02 9.47557390e-02 2.72632800e-02 -1.31259084e-01 1.04990795e-01 -2.10182033e-02 7.20738471e-02 -7.99096823e-02 2.77648238e-03 -2.30236515e-01 -1.09257825e-01 1.25556633e-01 -1.00509889e-01 -1.91007316e-01 3.02864071e-02 1.14214363e-05 4.02440503e-02 5.61125092e-02 -1.29057273e-01 1.20327897e-01 -5.15781809e-03 -3.24256194e-04 -3.19439955e-02 -8.40093046e-02 -1.25479158e-02 -5.93756028e-02 1.32933006e-01 -6.28206879e-02 -7.04226196e-02 9.02586654e-02 -7.21561387e-02 -1.17443256e-01 2.30206549e-01 7.11452141e-02 1.22295588e-01 2.02250585e-01 -6.07430711e-02 5.13925180e-02 7.59582594e-02 1.94430262e-01 -1.89572237e-02 8.52670595e-02 1.50064439e-01 -1.16050199e-01 1.61865219e-01 -1.10985689e-01 6.54472485e-02 -2.75622845e-01 9.65554938e-02 1.72019854e-01 9.27543044e-02 2.30748150e-02 1.51898116e-01 -2.45065466e-02 -2.12453261e-01 -2.70480141e-02 3.92316133e-02 1.41622573e-01 -3.29247937e-02 1.02931790e-01 3.23403254e-02 2.96129752e-02 -5.07276393e-02 2.02995956e-01 -7.59348944e-02 -8.17893888e-04 3.80237699e-02 -4.21872884e-02 -1.62741542e-02 -1.33071437e-01 -1.45588428e-01 -3.52674443e-03 2.44379878e-01 -1.06561752e-02 -2.90626407e-01 -9.19174850e-02 1.00250905e-02 -3.20531666e-01 3.14132161e-02 6.75078034e-02 1.94982842e-01 2.14483379e-03 5.10767326e-02 -6.00671321e-02 1.03905216e-01 1.68877363e-01 6.58088997e-02 5.07277586e-02 1.60157353e-01 -1.16875321e-02 -1.68183688e-02 -7.99826086e-02 -5.63998371e-02 2.43983641e-02 9.17468667e-02 1.22927919e-01 2.29226843e-01 -8.95014480e-02 1.49518056e-02
alz-x-bible 0.0553395 0.1037478 -0.07618004 0.14071552 -0.03803789 0.09921841 -0.08217022 -0.18227229 0.09052695 -0.00626395 0.01866979 -0.09681746 -0.11329433 0.0075772 0.14965579 0.04706272 -0.13008887 -0.04372502 -0.17088707 0.05072512 -0.17268959 -0.12430934 0.01267364 -0.05226593 -0.01162448 -0.04018785 0.1159477 -0.09339677 0.04027913 0.07083301 0.04122476 -0.00490894 0.08156083 -0.14671388 -0.01976968 0.00292697 -0.11029427 0.06173078 -0.04944971 -0.12271055 -0.04781795 0.12529333 0.00797551 0.02959665 -0.02393161 -0.06044733 -0.0399603 0.04240589 0.10164209 -0.09435976 -0.01479579 -0.00933253 -0.09426702 0.03744192 0.01394936 0.04057607 0.08330762 -0.03076744 0.05219739 0.07572223 -0.05747419 -0.06443937 -0.07000332 0.05768945 -0.0917514 0.07488692 0.0419346 -0.05532527 -0.02280793 0.10659041 0.0011026 -0.02769614 0.11789502 -0.0587608 -0.07586283 0.27485907 0.13102362 0.06192915 0.11769979 -0.11140653 -0.02541733 -0.23060857 0.09209998 -0.09118182 0.04699992 -0.0871636 -0.03945823 -0.08791968 -0.17979856 -0.0721923 -0.05181901 -0.0295112 -0.1027021 0.03750076 0.15840752 -0.05652379 -0.07727367 -0.15266423 0.10138658 0.04539936
ame-x-bible 0.05714965 0.17042492 -0.03734855 -0.18443508 0.06884412 0.14505519 -0.04632662 0.03891744 0.02193609 -0.04185726 -0.08496792 -0.06439216 -0.02321119 -0.0117503 -0.13176142 -0.01646467 0.06719714 -0.01644503 -0.08001327 -0.10098273 0.04840571 0.03854447 0.05716005 0.19679867 -0.10091932 -0.00408752 -0.04274035 0.04583241 0.03295198 -0.07372505 0.05285592 -0.00912024 0.1547607 -0.03887849 -0.0225179 0.03421988 0.10708994 0.19312695 -0.01807568 0.08902534 0.03429941 0.04086141 -0.09895783 -0.07764358 -0.03626716 0.10805167 0.09501792 -0.01986112 0.02451021 0.0265171 -0.04647963 -0.12064656 -0.12703203 -0.07848191 0.13186134 -0.06667462 -0.07920528 -0.01322553 0.1481299 -0.0613906 0.08931493 0.04173587 -0.06309497 -0.12120651 -0.03559758 -0.06510755 -0.10398147 0.15600134 -0.14296222 0.09685455 -0.10595795 -0.01081848 -0.11699448 0.09140399 -0.07008394 0.01014767 0.11451999 -0.03932319 -0.11333186 0.11833242 0.02979113 0.11586563 -0.07947434 0.03827969 -0.03265351 -0.0065928 0.07113001 -0.00088542 -0.1159237 -0.08711704 0.10358284 0.07990168 0.00054554 -0.2450997 -0.12824838 0.09473032 0.04078057 0.10013989 0.03388821 -0.181081
amf-x-bible 0.03563421 0.03392369 0.0622399 -0.01617871 -0.00449628 -0.10350991 0.02498991 0.11528577 -0.05490018 0.00740883 -0.10599906 0.0076507 -0.03821003 0.0217975 -0.00660002 -0.188642 0.05453906 -0.02185114 0.07203219 -0.11387755 0.07894506 0.09004775 -0.05006669 0.06127517 -0.14418216 0.09285671 -0.10839876 0.00993595 0.03939279 -0.0626573 -0.00813527 -0.07503469 0.01174117 0.10390574 -0.03670779 -0.03344646 0.19966677 -0.04418359 0.09045026 0.0587545 0.03632756 -0.0435598 0.13102315 0.0183285 -0.06912075 0.05758126 -0.05205544 0.04904574 -0.0648837 0.07494009 0.0800544 -0.14195439 0.13198459 0.142506 0.14786176 -0.07474494 -0.03052665 0.0947466 -0.01788075 0.01040967 0.04494143 0.01077673 -0.04370601 -0.0677024 -0.05131285 0.03061147 -0.04192528 0.04742117 0.09830086 0.04745444 0.0223548 -0.05760648 0.01599804 0.03943836 0.05108926 -0.21471214 -0.03869391 0.03537308 -0.1817618 0.09736192 0.10814101 0.00181456 -0.21803445 0.10463738 0.08037359 -0.04966268 0.07137552 0.04471201 0.08788741 0.1921547 -0.04230189 0.08450636 -0.09511465 0.08640657 -0.02108776 0.08983208 0.1518766 0.110615 -0.15603869 -0.04258385
amh-x-bible 0.15807301 0.21386309 -0.12719463 0.07738374 0.07386644 -0.0662103 -0.00170258 0.06975228 -0.03381259 -0.02140918 0.11785729 -0.13842654 0.08053213 0.07039487 0.01381691 0.13526694 -0.02647923 0.00096721 -0.12438126 -0.08179176 0.00394645 -0.07645366 0.01763917 0.13892043 0.00700491 0.07587656 -0.06251504 0.03100936 0.02991368 -0.09129781 0.07129391 -0.00042996 0.10561045 -0.08583158 0.125419 -0.03936005 0.11915453 0.1460228 0.03409681 -0.11144564 0.03781628 0.11423469 -0.04569405 -0.1296902 0.06549162 -0.10918307 0.0851001 -0.13171123 0.03924556 -0.05244738 0.07270627 0.04610955 -0.12787706 -0.06489506 0.06557913 0.02712785 -0.04119936 -0.03493699 0.0083376 -0.10317265 -0.0695302 0.06189571 0.04856999 -0.13115148 -0.14144683 -0.11593248 -0.05615453 0.05016444 0.01400758 0.17497306 0.09855227 0.06532841 0.16183701 -0.16124013 0.00093497 0.16730131 -0.01450141 -0.00411431 0.01392798 0.07065152 -0.09909333 -0.11657767 -0.16229878 -0.01231627 -0.04867672 0.01037116 -0.08778558 -0.03147918 -0.0330482 -0.1063678 -0.00903515 0.12348484 0.11940078 0.09499222 -0.05776224 0.10016323 -0.06702593 -0.03278339 -0.10062436 -0.02099462
amh-x-bible-latin 0.03420978 -0.11769262 0.02221547 0.17015538 -0.06557441 0.1494492 -0.02187955 -0.06034152 -0.04526613 -0.08658623 -0.08738998 0.08833201 0.12665744 -0.19410992 0.02807978 0.00850772 -0.15796188 -0.20890275 -0.09655883 -0.10815996 -0.04457112 -0.09482787 0.00327712 0.03152558 0.09784469 -0.02701437 0.01673926 -0.01436463 -0.27174366 0.06080681 0.04025646 -0.07448829 0.07112359 0.09627685 0.07208864 -0.09870905 0.04208514 0.08296221 0.10662267 -0.03611759 -0.03081907 -0.09563802 -0.02682178 0.09544805 -0.09213975 0.10241302 0.00081158 0.00379739 0.13748203 0.0012573 -0.06026435 0.06514039 -0.10480559 -0.06231163 -0.06237286 0.02200577 0.03646731 -0.15812534 0.03821269 0.02552782 0.05191766 -0.00171646 0.00816035 -0.04970739 -0.01597339 0.12333272 0.10191035 -0.01122081 0.02942231 -0.19674402 -0.12427497 0.10270777 -0.02725144 0.09325182 -0.06954648 -0.09924274 0.04547102 0.06640332 -0.04663942 0.15491225 -0.09296177 0.1717454 0.1226143 0.07851845 0.13501318 0.14390408 0.18529087 0.02102215 -0.01185342 -0.08232664 -0.03640859 0.00369812 0.0542502 -0.0948077 -0.06672252 0.14540187 0.05253434 0.13914387 -0.06462559 -0.0329308
amh-x-bible-newworld 7.44698942e-02 2.08265617e-01 -1.33749574e-01 -8.95896256e-02 9.48848873e-02 5.67849688e-02 4.27971818e-02 7.82540627e-03 1.67069972e-01 -1.73398107e-02 3.40125486e-02 -1.28883824e-01 -2.13899892e-02 1.41721129e-01 -1.99179142e-03 1.22572042e-01 -4.18220572e-02 -3.41694243e-02 -1.01334497e-01 -8.53839330e-03 1.25753149e-01 -4.87847999e-02 -1.98240336e-02 6.59504533e-02 2.92157922e-02 3.83377150e-02 -3.39689963e-02 6.13165507e-03 -3.31327766e-02 -1.52180091e-01 7.16698319e-02 6.59664944e-02 1.98006332e-01 -1.84597462e-01 -1.36349695e-02 4.19536531e-02 9.59357619e-02 1.28557950e-01 -1.13494277e-01 2.92978482e-04 -9.98947397e-02 1.57045245e-01 -6.79920390e-02 -1.66329648e-02 5.88182397e-02 -6.36557266e-02 9.69739407e-02 -1.72526792e-01 1.39795735e-01 -3.12463418e-02 -7.95516819e-02 3.33207063e-02 -1.06238816e-02 -1.55848980e-01 -8.60243291e-02 8.77738744e-03 2.65827291e-02 -1.39908150e-01 9.67683047e-02 -1.63315415e-01 7.88675249e-02 1.48591891e-01 -4.26714718e-02 -1.22524455e-01 -1.27537325e-01 -1.41222388e-01 7.72329187e-03 8.98842663e-02 -7.30460659e-02 7.49835968e-02 2.02064633e-01 1.68789744e-01 -6.58324314e-03 -1.70312539e-01 -9.31925848e-02 8.15198347e-02 -1.48831075e-02 -3.42121571e-02 6.47587106e-02 3.40505727e-02 -2.04934582e-01 -1.77027345e-01 -4.82286653e-03 3.16661899e-03 -5.08491136e-02 9.61504579e-02 -8.10020566e-02 -7.46468678e-02 -3.79043631e-02 3.54700387e-02 -1.40410047e-02 2.59362981e-02 9.52572823e-02 -1.37691665e-02 3.18610258e-02 -1.49029569e-04 6.93662614e-02 -1.51807383e-01 -4.55340222e-02 1.71815362e-02
amk-x-bible 0.19316824 0.07695613 0.0663927 -0.05472148 -0.00740528 -0.06118155 -0.04668748 0.0120414 -0.05974019 -0.07392979 0.12762253 -0.09588047 0.06888027 0.13150449 0.1112596 0.01650585 0.00516989 -0.09521105 -0.13045178 0.07124914 0.00283996 0.01645825 -0.06017305 0.05442591 0.02668587 0.07307961 0.00527958 -0.03124452 0.05175997 -0.00900461 -0.02312059 0.13499513 0.07061841 0.00196731 -0.0698791 -0.09817181 -0.1209716 -0.00985352 -0.06403508 -0.00657299 -0.03710281 0.12801026 0.08411327 -0.01045385 0.01634394 -0.03617952 0.14412868 0.04557448 0.16435394 -0.00060059 -0.04843201 0.09104392 -0.10939523 -0.0540908 0.1024967 0.12889424 0.09908804 -0.08519997 0.02134489 -0.02914581 0.07848408 0.04214708 -0.11915192 0.04465562 -0.14174245 -0.0579614 -0.04697922 -0.05292106 0.09728302 0.01783087 0.03333797 -0.02871113 0.03008319 -0.07175945 -0.04564596 0.06938176 0.1143701 -0.12745182 -0.01109462 -0.04716458 0.0073789 -0.05390279 -0.03841738 -0.11780359 -0.02357515 -0.07630817 -0.13015084 -0.14230551 -0.04409743 -0.18136266 -0.07050801 0.02644924 0.04013763 -0.0607174 -0.03722149 -0.09121654 -0.04248099 -0.11562568 0.20831159 -0.09755744
amm-x-bible 0.06076605 -0.07174882 0.10377879 -0.1533973 -0.0289973 -0.17328312 0.03449782 -0.12085755 -0.10420023 0.08202888 0.25338942 0.07454462 -0.07721189 0.06115893 0.14523993 -0.02407223 0.05318416 0.07600726 0.05214267 0.16291651 -0.05477372 0.12601256 -0.09937004 -0.04224193 0.03693345 -0.08198817 0.08968797 -0.0048713 0.09303647 0.00976943 -0.3149877 0.1620138 -0.0075262 0.08617215 -0.00610957 0.01566136 -0.21501923 -0.09910257 0.05370697 -0.07658188 -0.20624955 -0.07090214 0.03989515 0.02926186 0.06736986 -0.1170279 -0.05153875 0.04695391 0.05602437 -0.04295314 0.00252974 -0.14512157 0.16527173 -0.0159523 -0.15815394 -0.17385091 0.01430379 0.05332018 -0.05230811 0.05232741 -0.07617269 -0.015905 0.19188878 0.07395627 0.08229508 0.03585405 -0.03139703 0.01962002 0.15631446 -0.12595901 0.19926524 -0.09499408 -0.08926335 -0.02357063 -0.07386208 -0.02885208 -0.02587705 0.02963616 0.21724539 -0.12110524 0.10385729 0.0200635 -0.08065762 -0.05465509 -0.28546885 -0.04390921 -0.29596514 0.0434563 0.1597089 0.03884096 0.13481158 -0.11748294 -0.07661401 0.09806045 0.09873202 -0.26805902 0.02234641 0.01593475 -0.03201322 0.11492872
amn-x-bible 0.08269217 -0.13388523 -0.10179847 0.06461699 0.05736698 -0.07168189 0.03176985 -0.05969927 0.00288327 -0.06142134 0.00531904 0.08944971 0.004415 0.08837802 0.05745827 0.03709878 0.03006616 0.09486115 -0.0307796 -0.11966132 -0.02508345 0.01187601 -0.03905916 -0.0474646 0.07920615 0.03157778 0.00393311 0.08407555 0.15323016 -0.03957845 -0.07615098 0.12056626 0.00728178 0.0316458 0.07994241 -0.09965383 0.00720767 -0.16662084 0.01425434 0.07482881 0.03558787 -0.12430634 0.03043066 0.06928822 0.07594573 -0.02314896 -0.1518435 -0.11539365 -0.03810418 0.07873607 0.06635189 0.01891054 0.03438783 0.01752102 -0.1043689 -0.05642476 0.07677893 -0.04420971 -0.02794917 0.00477635 -0.00466758 -0.02988861 0.12757836 -0.03655092 0.04832929 -0.037741 0.0333749 0.07229762 -0.0159431 -0.08738709 -0.0114746 -0.06487079 0.01559679 -0.00354564 0.06825198 -0.09468149 0.01155943 -0.04701969 0.00980629 0.03187753 0.05145632 -0.12024259 -0.00961101 0.06018621 -0.12759681 0.10159989 -0.03292394 0.09064328 0.15267165 -0.01577858 -0.08671812 0.03780457 0.16046803 0.14733998 -0.08301049 0.00795689 -0.00679075 -0.0579078 -0.02084965 0.08251778
amn-x-bible-naineri 0.11971853 -0.18281788 0.00391989 -0.01635339 -0.07107101 -0.03201873 -0.115472 -0.03164831 -0.10660673 -0.10118689 -0.09222958 -0.02167016 0.07469805 0.10008682 0.0358928 0.08396266 -0.01112831 -0.02549605 0.028326 -0.02418183 0.05868644 0.06080567 -0.099098 0.01247547 0.01547621 0.08359861 -0.05232845 0.06902872 0.13470471 0.04615765 -0.00565039 0.07495468 -0.01654583 -0.06214284 -0.00928093 -0.02658807 0.00877253 -0.19122587 -0.11903554 0.08272634 0.04537287 -0.03717094 0.0763317 -0.03682688 -0.03278435 -0.06374653 -0.00044047 0.02371542 -0.05223065 0.12517177 0.08693554 -0.03851808 -0.03598391 0.13500199 0.00752496 -0.04948799 0.03865005 0.06277291 0.01431133 -0.03784972 -0.0633209 0.05481622 0.08334988 0.00207341 0.10729893 -0.03845267 0.06842021 0.10160567 0.1263934 0.07103406 -0.03436974 0.05477016 -0.00665944 0.00024972 0.11891506 -0.17409292 -0.00692799 0.06412397 -0.00776365 -0.10598085 0.12330907 -0.03869322 0.05711805 0.11126358 -0.10532135 0.04123473 0.05324509 0.06946193 0.06963732 -0.07577584 -0.05294276 -0.01413902 0.06804778 0.05457328 0.03905757 -0.11764041 -0.06340305 0.05426338 0.02740142 0.14128903
amp-x-bible 0.07146774 -0.03060139 0.10506099 0.06617408 -0.00807401 0.05499081 0.06688202 -0.00073188 -0.06747679 -0.09680959 -0.11978787 0.03292064 0.00614108 -0.15488103 -0.09954651 -0.09734499 0.05991953 -0.07217529 0.13614044 -0.03428243 0.05668137 -0.03271663 0.06006519 -0.11248211 -0.08848721 -0.09136175 -0.02039509 -0.05744225 0.05503955 0.13941443 0.04616294 0.03669168 -0.16354306 0.16590104 -0.11507125 0.06926452 -0.07342001 0.03125766 0.00231478 0.01394445 0.02334791 -0.07468754 0.00939022 0.00136925 0.03250536 0.01438473 -0.07293642 -0.00455236 -0.09956202 0.11652993 -0.05419544 -0.06772231 0.03225123 0.04990649 -0.00293716 0.00540058 -0.06741998 -0.00626229 -0.05972134 -0.00772807 -0.01327071 -0.01635109 -0.0581133 -0.02948715 -0.01401958 0.08827951 0.02612676 -0.0989934 0.03127406 -0.11204726 -0.20162047 -0.11523076 -0.08952742 0.10964911 -0.03831851 -0.10186914 -0.06057155 -0.03076833 -0.24487425 -0.05693799 0.06501104 0.15811838 0.10813158 0.14159429 -0.00562352 0.00041576 0.05688819 0.1850512 0.09534369 0.03894289 0.08634104 0.01424894 -0.08193223 -0.0460704 0.00817838 0.04738012 0.00569782 -0.00833304 0.06776023 -0.05310638
amr-x-bible 0.03371768 0.06471011 0.05334841 -0.00366491 -0.0596207 -0.08503374 -0.01696279 0.0444157 -0.09280151 0.05178456 0.0395137 -0.1243336 0.02241992 -0.00150262 -0.01784171 -0.15158923 -0.04492318 0.01185933 -0.12580761 0.11029509 0.00815899 -0.07227102 0.027171 0.02789777 -0.09564587 0.12337974 0.0025811 0.03044605 -0.00842861 0.00346375 0.02467884 -0.03442606 0.09830554 -0.00384901 -0.01457985 0.07543078 -0.04484713 0.13606536 0.11432409 0.01472728 -0.07093611 0.06853537 0.06295127 -0.02213352 -0.08269031 -0.11624555 -0.00924599 0.0426911 -0.05203869 0.0260412 0.0797651 0.02635739 0.06531082 0.04803198 0.13067658 -0.01708994 -0.03093322 0.07023384 -0.10604963 0.05272011 0.05809663 -0.04147534 -0.08766211 -0.0237494 0.07192896 -0.02694001 -0.01053018 0.06942175 -0.0032456 -0.00070847 0.05293918 -0.06636975 -0.01395606 -0.10298847 -0.01388749 0.10292437 0.11428072 0.07790496 0.02522825 0.06937326 -0.00778071 0.01616116 -0.09376489 -0.12856579 -0.00826695 -0.10126448 0.00721379 0.03779289 -0.1308977 -0.10459056 -0.04340549 -0.15387698 -0.08200442 -0.06677888 0.02235397 -0.0390103 -0.08624396 -0.02642068 0.03136031 -0.11976234
amu-x-bible 0.02781784 0.03952326 -0.01271852 -0.03842307 0.08600096 0.09719385 -0.05022068 0.03288378 0.07399151 0.06073957 0.15416893 -0.049856 -0.03232291 0.02475444 0.08532862 0.00720125 -0.1137022 -0.06469665 -0.21520203 0.03689113 -0.01629843 -0.04221978 -0.0438932 0.02082807 0.00527635 -0.08650069 -0.09136097 0.02987197 -0.13904591 0.04363553 0.03669745 -0.04321971 0.08899503 -0.02708904 -0.05108142 0.00876131 -0.00383777 -0.0056489 0.01302662 -0.04223062 -0.08507885 0.21513829 -0.10151424 -0.13898456 -0.10994193 -0.06616344 -0.03677395 -0.02752676 0.13012786 -0.17564829 -0.01511432 -0.02856789 -0.071237 -0.05911157 -0.04131578 0.05420718 -0.04614266 -0.04398181 -0.1322251 -0.10239064 0.0321863 0.0189923 0.09316989 -0.03711294 -0.05468082 0.09192529 -0.02723561 -0.00422738 -0.08091583 -0.06788708 0.00123718 0.14064735 -0.09752718 -0.14357667 -0.08764737 0.16016218 0.04019612 0.07209833 0.12382086 0.09239812 -0.12926488 -0.06545 -0.03348704 -0.06109463 0.00061021 -0.158722 0.01943708 -0.13509126 -0.07443722 -0.00336401 0.10419068 0.0869891 -0.08041427 -0.09146073 0.10179103 0.11273308 0.08039303 0.02670814 0.05180026 -0.0239632
ann-x-bible 0.04957987 -0.00801578 -0.16111532 0.3672107 0.04348087 0.0108945 -0.02681522 -0.09333821 0.11393186 -0.0667256 0.01239659 0.00680181 -0.02956275 -0.00300462 0.27220312 0.03865222 -0.2192721 -0.11765372 -0.14666128 0.09738787 -0.20821202 -0.16747989 -0.0957382 0.04450933 -0.01673752 -0.03106931 0.02073879 0.02518573 -0.11897733 0.03857196 0.06662285 0.0089112 0.04371476 -0.1400114 0.02098619 -0.28351068 -0.01465962 0.05212048 0.03254111 -0.22110726 -0.09003144 0.03432176 -0.12400736 -0.0182493 0.05225257 0.01232493 0.05706675 -0.03843005 0.1141177 -0.09827029 -0.13014576 0.05018741 -0.04850515 -0.08365033 -0.06309174 0.18359405 -0.02905664 -0.12597977 0.04697812 -0.0631945 0.04121583 -0.05836257 0.00179412 -0.08220235 -0.0008064 -0.08085977 0.11862293 -0.07593686 0.0183295 0.14184241 0.18887186 0.01295094 0.24048729 -0.22323291 -0.06097865 0.41195652 0.0226252 -0.07345139 0.20053959 -0.14038445 -0.08645222 -0.1910143 -0.00220103 -0.05658019 -0.04563584 -0.01623608 -0.01195554 0.05485076 -0.02709501 -0.07373528 -0.04876468 -0.07096324 -0.00053725 0.1237727 0.23927933 0.00417712 -0.10345422 -0.1428047 0.0127861 0.06886347
anv-x-bible 0.05208033 0.04094984 -0.09831715 0.08783434 0.0199078 0.14840509 0.05317516 -0.0822042 0.06536476 0.0767292 -0.01056311 0.04960232 -0.05935546 0.15811893 0.19560808 0.07379224 -0.00490011 0.00577594 -0.09516837 0.06232437 0.04005121 -0.01569574 -0.02614964 -0.02456395 -0.08817291 0.02694655 -0.06839406 0.00896694 -0.0476612 -0.02278284 0.08254614 -0.03828125 -0.03784326 -0.14323781 0.0659847 -0.12067684 0.09983413 0.01431654 0.01734829 -0.13385867 0.0668026 0.01874256 -0.01742955 0.01083048 0.02592431 -0.04025377 -0.03284178 -0.04745547 0.10568392 -0.02112731 0.03424517 0.03047011 0.09866531 -0.07470489 0.09232603 -0.07406905 0.07227539 0.07861756 -0.06060099 0.01846006 0.08186959 0.08246587 -0.01105025 0.0230687 -0.14656013 -0.04848763 -0.05481554 0.07241586 -0.06200021 0.08037046 0.09182484 0.01076781 0.05371299 -0.21930581 0.00480464 0.09913213 0.15400764 0.01505823 0.08775736 0.06363897 -0.16595058 -0.21242769 0.04726134 -0.00752013 0.02864582 -0.01022835 -0.0552326 -0.09196633 -0.03181674 -0.06244757 -0.00038139 0.02324031 0.10287225 -0.02655246 0.03337467 -0.05177956 -0.13920544 -0.03901974 0.09154191 0.08943868
aoj-x-bible-filifita 1.13696307e-02 -2.05020998e-02 1.24619059e-01 1.65373445e-01 1.37282107e-02 -1.51873544e-01 1.01651311e-01 -7.49429613e-02 3.08031105e-02 -3.36732604e-02 8.28430876e-02 -4.82985983e-03 5.22932820e-02 5.71145862e-02 -4.39088978e-02 -1.13601387e-01 -2.47903652e-02 -7.38499016e-02 5.01769446e-02 6.75049871e-02 4.34656665e-02 -5.03803864e-02 -9.63752344e-02 -7.58171305e-02 3.11273038e-02 1.24750204e-01 3.60059924e-02 -3.93737428e-04 -3.01342476e-02 -6.47973120e-02 -1.44744024e-01 1.82879623e-02 5.42362034e-02 5.30356765e-02 -9.28354561e-02 -1.42028958e-01 -6.97313771e-02 2.85321455e-02 -1.39147000e-04 1.42856594e-02 5.29603027e-02 -6.23785332e-02 -3.81461009e-02 -4.17604782e-02 2.27269772e-02 1.16882031e-04 -1.43542560e-02 -9.04613808e-02 -5.26005104e-02 -6.51154444e-02 3.50619256e-02 -9.22150090e-02 1.06976442e-01 1.11091904e-01 1.80511042e-01 4.28655148e-02 9.04062539e-02 2.97260005e-02 -6.29342794e-02 5.39013669e-02 1.11065485e-01 -3.01732142e-02 -1.13775380e-01 -1.59762595e-02 2.44143195e-02 -9.02334899e-02 -9.19100866e-02 -3.24702375e-02 8.25091153e-02 1.00923009e-01 3.04178540e-02 2.86445115e-02 5.67634925e-02 8.18785280e-03 -1.41739398e-02 1.15723364e-01 6.54968321e-02 1.90729629e-02 -1.15645401e-01 -1.09979436e-01 9.80270356e-02 -1.66711397e-02 -1.33956950e-02 1.08723581e-01 9.08990949e-02 1.12515830e-01 4.09127139e-02 5.96042983e-02 5.13327084e-02 -1.25114426e-01 2.13632379e-02 -1.52558133e-01 2.44755913e-02 3.92859504e-02 -8.27879366e-03 -2.40159873e-02 -5.85146137e-02 2.65669730e-02 1.22477956e-01 -3.02798823e-02
aoj-x-bible-mufian 0.04057486 -0.04866187 -0.0174764 0.11604558 -0.01305915 0.03311725 0.07019591 0.0138921 -0.06810125 -0.08980785 -0.04152105 0.10320517 0.03413377 0.06175419 0.18197823 0.04777152 -0.07524887 0.00051526 0.0144554 0.00707476 -0.10560381 0.03158958 -0.02156704 -0.02259861 -0.05643745 0.06671062 0.07978932 0.0824572 0.09816855 -0.0569754 -0.15002051 0.00177378 0.00245068 -0.147519 -0.11280018 -0.05079703 -0.09985247 -0.09726112 0.04397772 -0.13546999 -0.07038739 -0.00873861 0.04459951 -0.04826724 0.02025271 0.08247141 0.06554358 -0.0719284 -0.04070977 -0.0200085 0.01187354 -0.13176909 -0.04356755 -0.04841845 0.07898835 0.06480498 0.14098346 0.00710554 0.10754783 0.01387106 0.00360761 -0.00105999 0.07741618 0.05053346 0.12903641 0.07715527 0.0276302 -0.03947597 0.13287847 -0.01825143 0.11363172 -0.0365025 0.01048875 -0.01304698 -0.04641724 -0.03862941 0.04384477 0.03649725 -0.0470282 -0.09252606 -0.00937188 0.04046658 -0.07901682 0.08899734 0.04615469 -0.03796265 0.04566817 0.11437614 0.03694589 -0.11187073 0.049391 -0.08669651 0.05033896 0.02017385 0.05181113 0.01266049 -0.06609865 -0.0303208 0.06253004 0.02428953
aom-x-bible 1.57436967e-01 7.41061196e-02 7.46802762e-02 -4.45622087e-01 9.71985012e-02 -4.48916145e-02 -1.98443476e-02 5.08988462e-02 -4.23600636e-02 1.02417663e-01 8.85583311e-02 -1.23591535e-01 -4.28014919e-02 2.87053678e-02 -1.88840643e-01 -1.36623263e-01 1.42150179e-01 1.46113187e-01 -2.33433358e-02 2.33051479e-01 1.87653214e-01 1.85719773e-01 1.77570567e-01 -6.00268990e-02 4.98294495e-02 9.57462192e-02 -5.06101325e-02 -2.29411557e-01 2.26404920e-01 -8.15019980e-02 -7.09522814e-02 -8.51606280e-02 -5.27055860e-02 3.82225122e-03 -8.55410323e-02 9.78401452e-02 1.27520105e-02 5.39078261e-04 1.80903114e-02 9.08449888e-02 -8.01347941e-02 9.39409584e-02 -8.21377113e-02 8.06224793e-02 -1.03618629e-01 -7.13127106e-02 1.26377776e-01 1.49659976e-01 7.10427016e-02 -8.36964101e-02 -1.86611816e-01 2.76881196e-02 1.52048960e-01 -6.65376782e-02 -4.16668877e-02 9.65907574e-02 8.25895742e-02 2.92444434e-02 3.22692692e-02 1.54938579e-01 -8.93115476e-02 -5.57119027e-02 -4.12760600e-02 -9.06873774e-03 1.83312595e-02 1.09248199e-02 -4.83167060e-02 -7.85326213e-02 -1.48112252e-01 4.86629792e-02 2.91196201e-02 -1.23138115e-01 -1.17214918e-01 -1.15482486e-03 -5.13873808e-02 2.35448708e-04 9.30796489e-02 6.08647205e-02 8.97803754e-02 5.67674590e-03 1.23513646e-01 -1.03324346e-01 4.33889665e-02 1.53353149e-02 -3.17947753e-02 -2.39145294e-01 -2.65622407e-01 -1.52207792e-01 -1.22710764e-01 2.63365000e-01 -4.41796780e-02 -1.35702088e-01 -2.13856474e-01 -2.14545541e-02 -6.68151304e-02 -2.72416957e-02 -9.15502906e-02 -1.05086245e-01 -7.26492256e-02 -5.52174039e-02
aon-x-bible 0.02494652 -0.01513475 -0.04906008 0.13345866 -0.0268096 -0.00842371 0.08598126 -0.11535577 -0.02900848 -0.10738651 -0.01979075 -0.0740298 0.09572762 -0.00251996 0.09970079 0.09964005 -0.03623413 -0.1319965 -0.01829396 -0.0093352 0.02417523 -0.04326871 -0.03190766 0.0700549 0.14559203 0.03101364 0.1068343 0.06537164 -0.09943349 0.12997498 0.01053239 0.05093211 -0.05338531 0.00587175 -0.0252923 -0.15322101 -0.04778418 -0.07240686 0.03793648 -0.11195917 0.08623527 -0.09978292 0.04449893 -0.04509552 0.09891457 0.0529682 -0.13342038 -0.06898075 -0.00152264 0.04156813 -0.0529886 -0.05744992 -0.07295246 -0.04068106 -0.09587914 0.07360058 0.13144459 -0.00890891 0.06992256 -0.08611526 0.02563572 0.01082428 -0.05518494 -0.0671902 0.03109737 0.0106012 0.05916885 -0.14472385 0.08248761 0.0427817 -0.15355189 0.10047515 0.01951684 0.05091268 -0.03867149 0.14411725 -0.03461559 0.02963371 -0.01560146 -0.09046233 -0.08957791 0.09353218 -0.00714847 -0.03002033 0.13382992 0.15841652 0.02193136 -0.05039565 -0.07100867 -0.14729962 -0.07083302 0.06424692 0.08965621 0.06137936 -0.06643493 0.00270174 -0.06056782 0.07845809 0.04192512 0.0003259
aoz-x-bible 0.15260169 0.05998457 0.2129637 0.13992909 0.01506949 0.02534029 0.09505519 -0.18608351 -0.0314465 0.00086259 0.05276934 0.17215624 0.08238334 0.0035892 0.02904534 0.02967647 -0.08525049 -0.08752578 -0.09064122 -0.11826158 -0.21668227 -0.14757493 -0.00979603 -0.18789531 0.01237073 0.00943612 0.07348163 0.06161082 -0.10901347 0.04532834 0.00909484 -0.0828497 -0.04223509 0.11576763 -0.21974984 -0.02200386 -0.01188526 -0.01111642 0.00729712 -0.17244564 0.00787751 -0.05097441 0.10390852 0.08187236 -0.01149984 0.08765544 0.04642436 0.13467152 -0.05863504 -0.1391895 -0.05885036 0.02831253 0.05421664 0.12498423 -0.05463954 0.1755578 -0.00692998 0.03574392 -0.09073962 -0.05812971 0.04996532 -0.10014353 -0.08191694 0.02316121 0.02745289 0.00581037 0.14517598 -0.0087504 -0.0295595 -0.01263845 -0.16796683 -0.08421283 0.07668554 0.01701896 -0.12978919 0.0907694 0.03843349 0.11447188 -0.02614534 -0.09948321 0.00268079 0.05088796 0.08944263 0.00224196 0.24006729 -0.02990865 0.00101204 -0.01958157 -0.1367383 -0.1391006 0.07154659 -0.18410146 0.0096559 -0.02857577 0.10478146 0.03104792 -0.08428471 0.0438294 0.12671551 -0.0666665
apb-x-bible 1.91958815e-01 -4.15494554e-02 -8.18962604e-02 -1.57752797e-01 1.76641773e-02 -8.58804286e-02 8.27557594e-02 9.31371823e-02 -5.15663698e-02 6.07519299e-02 9.23378766e-03 -1.25885099e-01 -1.29752770e-01 3.18271145e-02 6.93736365e-03 7.54997358e-02 1.46527290e-01 2.98985653e-02 -5.85593656e-02 1.17066465e-01 2.45096058e-01 8.40074643e-02 -8.04567317e-05 -1.52265476e-02 -8.89272317e-02 -6.13485873e-02 -1.43799968e-02 -6.38014898e-02 1.94556341e-01 -1.40113488e-01 -1.38190672e-01 7.32836872e-02 2.14869641e-02 -2.57077336e-01 7.22658485e-02 -7.79200569e-02 -3.78128663e-02 -1.75260171e-01 -8.46999288e-02 5.70387300e-03 -6.34462759e-02 -1.39661543e-02 7.33460188e-02 -4.21059355e-02 -2.09777430e-02 1.03661520e-02 5.86057156e-02 -1.50761297e-02 -8.33777040e-02 1.28164202e-01 9.42223668e-02 3.64139229e-02 -5.68300858e-02 -5.47230206e-02 7.43793100e-02 1.80630554e-02 9.70773920e-02 1.35265499e-01 1.84982300e-01 1.14236720e-01 6.24457896e-02 4.84319888e-02 2.03847006e-01 -1.39562152e-02 2.54324712e-02 -1.79252774e-01 -8.56139585e-02 3.36720869e-02 -2.04412155e-02 1.32208884e-01 1.21358491e-01 9.97078940e-02 6.71498999e-02 -2.31944963e-01 1.17726944e-01 5.62788695e-02 -1.38361007e-02 -8.01643431e-02 2.69731553e-03 -1.16286445e-02 6.41194284e-02 -3.47090006e-01 -4.47267778e-02 1.07282698e-01 6.53598905e-02 5.89987868e-03 -1.12725392e-01 -1.44500837e-01 -1.20615490e-01 1.12544984e-01 -5.17577864e-02 7.50761554e-02 1.97939090e-02 4.70708683e-02 -4.99289371e-02 -1.03343733e-01 -5.76157682e-02 -2.14971881e-02 -3.63393240e-02 7.42352605e-02
ape-x-bible 0.01206982 -0.01382431 -0.00124401 0.05990952 0.03492958 0.02744039 0.00308041 -0.06705061 0.07862153 -0.07127052 0.05566971 -0.00458166 0.00072684 0.03233438 0.05506176 -0.0114509 -0.21130475 0.02016778 -0.14587331 -0.07075267 0.01578534 -0.08320402 -0.10261403 0.06106667 0.08593944 -0.02140511 0.05286727 0.04546817 -0.04656651 0.07819594 -0.0554396 -0.03603461 0.08405832 -0.04146055 0.10567038 -0.00931323 -0.08776915 0.02896719 0.07419607 -0.08772299 0.07216529 -0.08008485 -0.11126046 -0.01430701 -0.03411851 -0.00411973 -0.01990769 0.01365571 0.10862087 -0.01677099 -0.0424848 0.17054369 0.02132678 -0.08445822 -0.09909407 0.01064466 -0.06088892 -0.11714081 0.05621619 0.07272092 -0.17060092 0.1284479 0.08373378 -0.09280108 0.03470352 0.11310036 -0.01923326 -0.08830662 0.00071233 -0.06639787 0.02483387 0.03316057 0.02973728 0.10887048 0.03079819 0.12345471 -0.03924274 -0.02673063 0.08351124 -0.04130804 -0.11684173 -0.08585092 0.09127357 -0.05562638 -0.10368692 0.02898871 0.16886593 -0.03214451 0.00726108 -0.05110746 -0.08697622 -0.02613707 0.02461562 -0.02364493 -0.10644806 -0.02057137 -0.0527739 0.03843571 0.04104944 0.08655627
apn-x-bible 0.14728971 0.08651468 -0.01089304 -0.03777823 0.01453052 0.05017965 0.08514597 -0.08025651 0.0822534 0.08852821 0.03504076 -0.06601682 0.06279893 -0.0594336 0.07021782 0.05918972 -0.02868311 -0.06605247 -0.08279051 -0.00114158 -0.07255155 0.05827601 0.01262489 0.01948033 -0.09841249 0.08728722 -0.12688291 0.03164043 0.02314866 -0.04706901 0.12975317 -0.06753056 -0.01589853 0.09953348 0.02080604 -0.03847516 0.09001198 -0.0170474 -0.00406568 -0.08319915 0.10925719 0.08753753 0.01079678 -0.07179132 -0.10893628 0.01321774 -0.15655112 0.10861035 -0.04095559 0.07171762 -0.08507529 0.13405566 0.05426074 0.05241103 0.01844623 -0.06222438 -0.13984835 -0.06459706 -0.08910449 0.11079784 0.052851 -0.0240097 -0.04167816 -0.04850924 -0.02160898 0.07480738 0.06632614 -0.00343483 0.02138683 -0.08941869 0.05017257 -0.0147015 -0.01983133 0.03607156 -0.06574088 0.07508565 0.05811707 0.0322186 -0.0142276 0.09268112 0.01539006 0.07620834 -0.07960869 0.00184403 0.04768829 0.07131634 0.03944337 0.05573621 -0.08940375 0.05895973 -0.09307134 0.03888388 -0.041473 0.00287698 0.00324867 0.1446648 0.06779615 0.02403766 0.00057224 0.04906709
apr-x-bible 0.11446366 0.0873958 0.11439782 0.07146174 0.17047657 -0.2106967 -0.01170661 -0.15632685 -0.07319944 -0.00399214 0.04513304 0.0774916 0.01856989 -0.09859952 0.03576001 0.05780996 0.02387624 -0.15253736 -0.06710379 -0.12050036 -0.17821297 -0.0824652 -0.05532539 0.00709463 0.07004566 0.09179055 0.1472971 0.00852944 -0.06085787 0.05277323 -0.13251169 0.05153957 0.14753525 -0.03420696 -0.12106645 -0.09816692 -0.17045718 0.14601535 0.06740233 -0.00216 -0.09391813 0.15194291 0.04891564 -0.00900553 0.13122463 -0.04218582 0.09611351 -0.02988768 0.07678167 -0.00852884 -0.12951732 -0.00555513 0.04210502 0.00023725 0.05988533 0.1561169 0.00879581 -0.0854547 -0.07390847 -0.0929223 -0.0672017 -0.06900891 -0.23492669 -0.025966 -0.04142603 -0.00904564 -0.09857551 -0.00421931 0.03722006 0.06355672 -0.05966214 -0.00287888 -0.01371085 -0.02434501 -0.10431252 0.1675388 0.13238971 -0.15146406 0.11357003 0.01414283 0.03978313 0.05752337 -0.01513388 -0.05870264 0.1278061 -0.07608917 -0.065318 0.02587553 -0.14482343 -0.16494754 0.03115699 -0.07559567 -0.07767572 -0.04026121 0.01404667 0.06663094 -0.09074912 0.02515751 0.10913907 -0.04570341
apt-x-bible 0.05500825 -0.04493293 -0.03625954 -0.06378372 -0.07979364 -0.09756242 0.07102264 -0.04472152 -0.02431629 -0.00455891 0.11658864 -0.06238608 0.02404074 0.10752016 0.06045875 -0.03549486 -0.02019959 0.18021682 0.05844599 0.02872164 0.1207049 0.1540857 -0.05202745 -0.12769146 0.03641287 0.06123332 0.05490292 -0.0991263 0.11007934 -0.01637977 -0.08247274 0.03207087 -0.06782628 0.11707225 0.07310277 0.0287129 -0.12224846 -0.08842275 0.07902726 -0.0202285 -0.10628854 -0.13783482 0.05034117 -0.0586394 0.00950973 -0.01257136 0.00855339 -0.05115245 -0.0205148 0.08988162 0.02216272 -0.06637068 0.05984877 0.00032554 0.05735279 -0.00838138 -0.0008009 0.11090259 -0.03411374 0.09302459 -0.1001666 -0.05655487 0.10627763 0.1453241 0.0747181 0.01645824 0.05927267 -0.005292 0.05187736 0.08300403 -0.00511033 -0.00830242 -0.11159507 0.0214041 0.119115 -0.11205527 -0.10689253 -0.03298104 0.01118981 -0.08253732 0.05313893 -0.05555515 0.07220523 0.06483111 -0.0443438 0.02196552 -0.06536888 -0.00816066 0.17213243 0.14191031 0.03510024 -0.01973508 -0.11444785 -0.02554518 -0.03016244 -0.21171862 0.01634059 -0.05728277 -0.00660124 -0.00403791
apu-x-bible 0.21209192 0.07734044 -0.02944725 -0.20261344 0.16850765 -0.12314769 0.03207677 -0.12658413 0.03538914 0.03118559 0.11755415 -0.10620154 0.008867 -0.00527851 -0.03258529 -0.10054621 -0.01760122 0.07232392 -0.04945818 0.20012188 -0.0390586 -0.00808128 0.11142293 -0.03229174 -0.07100478 0.00349451 0.11998296 -0.02723557 0.04015428 0.00315157 -0.12439871 0.09643312 -0.00821226 0.03040717 0.03498795 0.06805945 -0.10510761 0.13878971 -0.03518557 0.02001718 -0.03161915 0.10271376 0.03740481 0.04079634 0.03724153 -0.18499874 0.17672756 -0.0608013 0.21401608 -0.07857079 -0.031796 0.04346348 0.10358963 -0.03762894 0.10565835 -0.08882315 0.02859559 0.05374158 0.06308652 0.04407383 -0.04417703 0.05731014 0.05496712 0.06496082 -0.23375453 0.09171652 -0.14115946 -0.00405035 0.00869102 0.11119118 0.14483055 0.02743175 -0.10646993 -0.17349601 0.05239462 0.17543809 0.08665594 -0.06747264 0.0416284 -0.05619901 -0.07578798 -0.04425034 0.05107082 -0.03172312 -0.16666728 -0.05524993 -0.09173672 -0.08082384 0.02898256 0.00407563 0.10369129 -0.03199727 -0.0436226 -0.09884362 -0.04523884 -0.22490239 0.05506067 -0.13720329 -0.00652433 -0.10423699
