1664	100
aai-x-bible 0.4820927 0.19784719 -0.03795724 0.38001084 -0.5349859 0.16486594 0.04229833 0.30287528 -0.8748233 -0.1824913 -0.6261789 0.731298 -0.04460134 -0.5309518 -0.36674833 0.23608445 0.23757476 0.5575577 0.20934768 0.5554983 -0.03384331 0.16062447 -0.2657013 -0.06307785 -0.1396618 0.26392892 -0.45918214 0.25828564 0.00979915 0.20368993 0.2568116 0.3466486 0.18589897 -0.07260768 0.17797048 0.08299831 0.47236305 0.45122367 0.13548553 -0.12107269 0.29341322 0.09782477 -0.30325833 0.56041586 -0.00214762 0.33325467 -0.51544464 0.3337518 0.05853945 -0.5597991 0.858919 -0.15173209 -0.74457854 -0.43959865 0.19903946 0.3990543 -0.17228825 0.18107723 0.291405 -0.08928636 -0.26712477 -0.39941576 0.13977396 0.42951778 -0.23433544 0.21240084 0.16346204 0.28379098 -0.34074837 0.54157686 0.2434536 0.34646976 0.5593981 -0.1429843 0.17395958 0.5754889 -0.05605162 -0.5208396 -0.8889945 -0.24397705 -0.27205402 0.58571684 0.01451346 0.00325399 -0.49639705 -0.06456254 0.24976128 0.05064035 -0.18046722 0.6703657 0.32144684 -0.4168233 0.23919274 -0.47826278 0.72286296 -0.65181345 -0.91457945 0.34043688 0.26230678 -0.1378152
aak-x-bible 0.2965835 0.8922403 -0.55534846 0.17794622 0.23928143 0.00763127 -0.7545784 -0.37338257 0.9240634 0.02609318 0.07384883 0.00422798 0.29343507 0.26959047 0.50504243 0.02047857 0.34814864 0.589083 -0.15506923 -0.02342053 0.46886018 -0.17101473 -0.40578553 0.3344544 -0.19534352 0.2527319 -0.08302585 -0.39621183 -0.19750354 0.02930095 -0.73353714 -0.00699051 0.11973234 -0.46505895 -0.71815604 -0.18766184 0.39492494 -0.5102596 -0.22446583 -0.12866339 -0.3901912 -0.04977635 0.10927752 -0.27251756 0.4831737 -0.05495204 0.40646535 -0.6036956 -0.13717839 -0.72274315 -0.01588114 -0.20026189 -0.06814454 -0.25393543 -0.4896388 0.47517678 -0.46326035 -0.00324026 -0.9117194 0.03147897 0.4897391 0.34552586 0.5641053 0.09529819 -0.03364297 -1.1832839 -0.43383986 -0.05536444 -0.16183434 -0.6526424 0.00642494 -0.25380516 0.4472913 0.5986248 -0.11548052 0.11203592 -1.0048381 0.15185508 -0.13680927 0.16964012 0.8429243 0.1233521 -0.05585548 0.19145924 -0.17435376 0.85513884 0.18278816 0.1503774 -0.42521948 -0.57415277 0.34333023 0.41460544 0.4999299 0.45809004 0.0181148 -0.19494072 0.57933164 0.23474343 -0.500255 0.2781543
aau-x-bible 0.5414014 -0.07369401 0.17909881 -0.67652637 -1.034098 -0.4144783 -0.25674132 0.48665094 0.28376493 -0.6742507 -0.35888958 0.18987015 -0.301587 -0.08026325 0.59216285 -0.02935684 -0.02009106 -0.5229896 -0.62353075 -0.438899 -0.53453135 0.6147827 -0.7028732 0.35318154 0.16945373 0.17553237 -0.0581919 0.33855483 0.03070978 0.4484252 -0.29354173 -0.23368306 -0.86610013 0.07581095 0.36357635 -0.05708262 -0.07861197 0.27090803 0.39400542 -0.6231386 -0.17048325 0.13473202 -0.2753846 0.40487936 -0.097766 0.19111416 0.27756375 -0.0093524 0.5011821 -0.23149647 -0.5256303 -0.06428105 -0.03813453 -0.33169645 -0.1370561 0.0233042 -0.16412483 -0.31498265 -0.2131284 0.15174104 -0.75015485 0.00333035 0.0099333 0.16132486 -0.21787082 0.62954915 0.66507006 -0.4414422 -0.05379573 -0.23735234 -0.08902816 -0.36230707 0.20594515 0.27479511 -0.27235815 0.06618848 -0.8288506 -0.4671636 0.1646695 -0.29249984 -0.04040663 0.68547434 -0.22721416 -0.13663998 0.10909836 0.00961947 0.40118748 -0.12421506 -0.21771808 0.30044976 0.19071995 0.36713696 -0.13061951 -0.2372619 0.03785978 0.36470294 0.16485773 -0.6136402 0.10170908 -0.03977616
aaz-x-bible 3.3506995e-01 -2.7637282e-01 -9.5764972e-02 -4.1126153e-01 -6.1413806e-02 -1.7070100e-01 -1.3201839e-01 -7.9234755e-01 1.5072462e-01 4.5752281e-01 3.3600402e-01 4.2270681e-01 3.4506103e-01 1.5798379e-01 -6.1372377e-04 -4.1379798e-02 9.1247581e-02 -9.2379816e-02 3.2743946e-01 2.1307260e-01 -1.7850609e-01 2.2950296e-01 -1.6546533e-02 5.4833919e-01 3.4410265e-01 -1.4006449e-01 4.1699299e-01 2.9863694e-01 4.4902292e-01 -2.2707553e-01 -4.6485958e-01 4.4586608e-01 2.8008598e-01 -6.2534201e-01 1.6271389e-01 8.0041230e-02 5.0785142e-01 -6.1480794e-02 5.9008330e-01 -4.6452659e-01 5.1427519e-01 -1.3191974e-01 -1.7835222e-01 9.3851775e-01 2.8322917e-01 3.5900354e-01 9.8025434e-02 -2.6923043e-01 3.3247241e-01 1.6861898e-01 1.4299968e-01 2.0949495e-01 -5.1305965e-02 -3.0121574e-01 -2.2910561e-01 9.6826717e-02 -4.1449994e-02 6.7325544e-01 4.4398150e-01 1.8993255e-01 -5.3663701e-01 -2.4327864e-01 1.4577985e-01 8.2399005e-01 8.4374156e-03 -2.3853749e-01 -4.7261032e-01 -2.2626366e-01 3.2788941e-01 1.9850273e-01 -5.1847339e-01 -3.3752859e-01 -2.2275095e-01 7.7661057e-03 1.4542356e-01 -6.7849644e-04 8.1649013e-03 -4.0698609e-01 -5.0684917e-01 -3.1911273e-02 3.6253366e-01 3.0809554e-01 3.6546743e-01 5.4916937e-02 3.1875044e-01 1.4753053e-01 6.3504308e-01 1.3479914e-01 -1.3579193e-01 9.0500844e-01 9.4061130e-01 5.1064736e-01 5.0161070e-01 1.3828634e-01 -5.9130067e-01 7.7325451e-01 -8.2925074e-03 -5.3470790e-01 5.5296904e-01 2.1532404e-01
abt-x-bible-maprik -0.12106694 -0.05191319 -0.48381987 0.19959417 -0.1422836 0.07588745 -0.07856342 0.20044595 -0.09351162 0.37470192 -0.15828435 -0.5651569 0.00494061 -0.4337379 -0.3566473 -1.0250648 0.0148896 -0.30063948 -0.32689926 -0.22839287 0.13671759 0.38087162 -0.63364327 0.7150962 -0.20809048 -0.24962354 0.43653208 -0.21754469 0.07305455 -0.7250853 0.27457303 -0.14919437 -0.63600314 -0.14947163 0.26529193 -0.07026163 -0.37210098 0.00305214 0.0442807 0.26359695 -0.32784262 -0.43390024 -0.3801978 -0.25205487 0.11577763 0.1425849 -0.4362954 0.17773601 0.12675215 1.2048122 -0.044801 0.18492858 0.11481451 -0.23580952 -0.1390969 0.18230352 -0.85274726 0.09530731 -0.30346945 -0.12760435 -0.31678364 -0.24150723 0.00265532 -0.24106987 0.47082877 0.34525943 0.00976349 0.02002517 -0.40526804 0.10723883 0.06343971 0.10425544 -0.886891 0.86359286 -0.05756557 -0.07672336 -0.07970707 0.09661804 -0.11910047 0.07940314 -0.53481966 -0.06039304 -0.34667894 -0.44989046 0.623467 0.05825381 0.12150191 -0.23827042 0.504376 -0.07439757 -0.06294245 0.74122727 0.15965247 -0.1437707 0.28207675 0.7686036 0.255218 -0.18282172 0.3534391 -0.367975
abt-x-bible-wosera -0.43904606 0.45071012 -0.53698426 0.35575777 -0.07969049 -0.15657274 -0.08711863 0.32839718 0.13566332 -0.05739575 0.38002267 -0.44016254 -0.29746833 -0.03447309 -0.06187132 0.03640501 0.0875855 -0.07011808 -0.12053522 0.16208287 0.06773867 0.47070107 -0.29921055 0.32594198 0.23612045 -0.00791838 0.0420666 0.22064549 0.4827925 -0.14485715 0.49605158 -0.16780409 -0.19350295 -0.712664 -0.30560422 -0.04241674 -0.6061991 -0.00749687 -0.7352496 -0.05863601 -0.07274384 -0.8134489 0.2737142 0.0537787 0.63244414 -0.32726163 -0.57988435 0.11109627 -0.27835834 0.35021797 -0.25728908 0.35942543 -0.03027166 0.8249985 0.7067809 -0.33118552 -0.26054865 -0.306011 -0.6756946 -0.0251524 -0.24820432 0.5021703 -0.13107876 -0.3062094 0.07607778 -0.10553086 0.29719713 -0.4852188 -0.23311065 0.16285408 -0.089242 0.02460994 0.25811714 0.6053023 0.13581817 -0.33722606 0.16503716 0.57157546 -0.22260895 0.13770002 -0.34118557 0.1285859 0.34755045 0.52667224 0.06596259 -0.27256036 -0.07038644 0.08348615 0.25042525 0.17674346 0.26153785 0.03515539 0.19321823 -0.14401527 -0.3774323 0.13089372 0.1634428 -0.8219845 -0.49063745 -0.14176053
abx-x-bible 6.9154426e-02 1.0464423e-01 -2.7543786e-01 -1.1513848e-01 3.1442706e-02 -4.1981253e-01 -1.8131059e-01 2.7598873e-01 -1.8022758e-01 1.5331064e-01 1.7442510e-01 -3.5932109e-02 -1.7235518e-01 -4.8285338e-01 9.5941843e-03 -2.2845967e-01 2.5532499e-01 1.5840976e-01 -5.8450055e-01 1.5350239e-01 -2.4251060e-01 4.3587530e-01 5.4851359e-01 4.4294458e-04 -5.5142188e-01 5.3690630e-01 -2.9450887e-01 4.5840445e-01 -1.0680962e-01 2.0452966e-01 -2.6270654e-02 -1.6117823e-01 3.4249648e-01 4.3590412e-01 1.5195285e-01 -4.3921706e-01 3.6193067e-01 -4.7073108e-01 -7.4217230e-01 -1.0435195e-02 -3.8111928e-01 2.7655879e-02 2.5925556e-01 8.4182990e-01 1.9819885e-01 2.8023764e-01 -6.4223790e-01 -1.7209484e-01 -4.6870482e-01 2.7280036e-01 -8.6477882e-01 -1.4314409e-01 -1.6702883e-01 -1.2612554e-01 -1.5736116e-01 7.1612585e-01 3.2502079e-01 -6.6344124e-01 4.6677470e-01 -4.7657722e-01 -5.4023093e-01 6.9860764e-02 -2.8599119e-01 4.8657078e-02 -7.1921927e-01 -3.3914727e-01 -4.5282111e-01 -7.1178222e-01 2.0605859e-01 3.4296352e-01 -3.0414933e-01 2.0966890e-01 7.4450827e-01 4.4947911e-02 6.1276442e-01 2.2971906e-02 -6.6205822e-02 -2.2936052e-01 5.5272937e-01 -4.7634122e-01 -4.7832951e-01 -4.7575727e-01 1.0962366e-01 -6.0588744e-02 1.1511871e-01 4.5735189e-01 5.0577742e-01 2.9399243e-01 2.7811250e-01 1.0998505e+00 5.7336825e-01 3.2938412e-01 1.3957454e-01 -1.3442370e-01 3.2078001e-01 -3.0180538e-01 2.2674777e-01 -1.9041733e-01 -9.3826637e-02 5.8111459e-01
aby-x-bible 9.9288636e-01 5.7811543e-02 5.1883894e-01 -3.4302127e-01 -4.6322918e-01 -1.5112731e-01 -2.8019136e-01 8.0434084e-01 1.4952114e-01 -3.9390367e-01 1.3257881e-01 5.4165310e-01 6.5836835e-01 -3.4547320e-01 -6.1728306e-02 -5.1754010e-01 -2.2197282e-01 4.1815260e-01 -2.7453023e-01 1.3841377e-01 1.7175904e-01 5.0372308e-01 -1.1074324e+00 -4.6862155e-01 -7.4019283e-02 -4.9115840e-01 7.0560519e-03 -2.8565937e-01 7.8091606e-02 -7.9849802e-02 -2.6403996e-01 -4.4820577e-01 3.0948898e-01 6.7169821e-01 -8.6372781e-01 -4.3341741e-01 5.8375376e-01 -4.3599259e-02 1.4638318e-01 9.0300524e-01 9.1607153e-02 -8.8185942e-01 -3.7285045e-01 -5.9018922e-01 -1.1109165e+00 -2.4529301e-02 -2.3361142e-01 -9.5722264e-01 7.8437793e-01 -4.1237554e-01 8.5650754e-01 6.0296702e-01 -5.9382993e-01 5.4677761e-01 -8.5110687e-02 7.4270070e-01 7.0762658e-01 5.5938852e-01 6.9254744e-01 3.9432147e-01 6.5447646e-04 -1.4835812e-01 5.8798301e-01 -2.5731859e-01 1.4716777e+00 4.5601875e-01 -2.5865349e-01 1.1081493e+00 -2.0653810e-01 -4.3401414e-01 3.7102610e-01 -7.5430536e-01 5.3155674e-03 3.3772415e-01 -6.4194262e-01 6.1100328e-01 -2.0777109e-01 -2.6984072e-01 -2.9307088e-01 -7.1527237e-01 -5.8095616e-01 -6.6067231e-01 -1.9134715e-02 -3.6398488e-01 7.8724913e-02 -1.8750487e-01 -9.1474861e-01 1.2962824e-01 1.6793890e-02 -8.9637047e-01 -1.7083573e-01 -5.2335227e-01 4.2936046e-02 4.0266392e-01 -4.2078668e-01 2.3990874e-01 -6.6358995e-01 -1.3327469e-01 -5.4554605e-01 -3.7980673e-01
acc-x-bible-cubulcu 0.04955631 0.06777027 0.41213614 -0.28360003 -0.67791617 0.2835515 0.3839099 0.04808393 -0.4505005 0.13354431 0.54157615 0.08645774 0.07629654 -0.12000366 0.19759648 0.00384038 0.09551293 0.11532553 0.18471178 0.27353376 0.08767698 0.09221505 -0.2344075 -0.2647265 -0.08930787 -0.18542467 -0.4151676 -0.12012553 -0.32151207 -0.06434599 0.20203952 -0.11710066 0.39968017 -0.5805682 0.3951575 0.02658071 -0.13257067 0.587303 0.00424298 -0.41446036 0.01550252 -0.4775228 -0.25550795 0.34693277 0.10702609 0.10132588 0.463909 -0.07951459 0.24628177 -0.6160683 0.60766655 -0.28870204 -0.30271012 -0.14706387 -0.745115 0.6138591 -0.27423438 -0.5531757 0.02226898 -0.08470797 -0.0934419 -0.35659754 0.28958213 -0.22147219 0.13229772 -0.7204555 0.08402442 -0.05245727 -0.03769905 0.5214598 -0.3260148 -0.07248443 -0.06300816 -0.24150927 -0.26045582 0.07366525 0.16699514 0.5029389 -0.3608343 0.48467124 0.43094093 -0.14358218 0.52020776 0.04085403 0.5039536 0.8319605 0.47578228 -0.1945981 0.01593267 0.1815392 0.09933116 -0.3846983 0.14842246 0.17556529 -0.39531657 0.11970589 0.23396234 0.42822754 -0.57578105 0.29004446
acd-x-bible -0.30107552 0.11429461 -0.062521 -0.30050397 0.04945323 -0.28651482 0.23965105 0.01221118 0.3545804 -0.3189327 -0.18214577 0.03395354 -0.62270373 0.23878749 0.149021 -0.2769709 -0.29003963 -0.42465228 -0.12798657 0.12298142 -0.67065245 0.39037436 -0.37796804 0.4381749 0.05385706 -0.94428563 0.15578744 0.11680268 0.584226 0.10411655 0.5919802 0.63551307 -0.41920906 -0.1862827 0.21218142 0.12234084 0.39419726 -0.09746727 0.38288027 -0.2201291 -0.35028738 -0.18586183 0.03519327 0.1893918 -0.62895054 -0.03651151 0.544277 0.527153 -0.00721089 -0.76836383 0.617446 -0.11932497 0.09012481 0.58456665 0.06971756 0.54657286 -0.06327581 0.22993053 0.02979026 -0.5666277 -0.07882258 -0.08497035 0.25548518 0.4968097 -0.6236867 0.05485939 -0.30147725 -0.39101315 0.54482245 -0.15784141 0.11257677 -0.00603293 -0.214632 -0.52840495 -0.6155006 -0.22980304 -0.17829445 0.0784435 -0.1800025 0.06212756 -0.159092 0.01013307 0.18874232 -0.402681 0.7990217 0.22573262 0.04763692 0.5049641 -0.6133805 0.03656217 0.5939019 -0.23368141 0.44452304 -0.08751334 0.30513772 0.29262197 0.65302956 -0.6745999 0.03001707 0.07061971
ace-x-bible 4.70236272e-01 -7.57282317e-01 4.11771357e-01 -7.07620442e-01 -5.12360811e-01 -4.06231940e-01 1.70047149e-01 5.19811928e-01 2.43102580e-01 -1.30409032e-01 -5.29863656e-01 1.01881094e-01 9.13393348e-02 3.47594202e-01 -1.20962076e-01 5.10707557e-01 -7.62580991e-01 2.78048515e-01 1.84469894e-01 8.52090865e-02 2.74880156e-02 -2.58522481e-01 3.67044747e-01 4.12206680e-01 -4.71543431e-01 9.33975354e-02 4.54158902e-01 5.06910980e-01 1.62719324e-01 8.11749697e-02 -4.19419557e-01 1.52560204e-01 -1.53220564e-01 1.83056891e-01 1.41215384e-01 3.02988708e-01 1.21319264e-01 -5.68184908e-03 2.33483598e-01 -4.49498981e-01 -1.92323238e-01 -3.79255056e-01 1.21177636e-01 -3.76934141e-01 -2.76213914e-01 2.77198911e-01 -5.00504673e-01 -2.08526626e-01 -2.98210651e-01 -4.09868837e-04 1.05757462e-02 3.21207255e-01 2.75242984e-01 -6.54904604e-01 1.08184075e+00 -8.04033056e-02 -2.25818798e-01 -2.14338556e-01 1.97379500e-01 2.01374292e-01 -2.44764145e-02 -1.13028713e-01 1.69489421e-02 1.26473621e-01 5.86722910e-01 1.35908738e-01 -2.53423154e-01 -6.23411953e-01 3.81881207e-01 -7.67554343e-02 -1.89660266e-01 5.85921943e-01 4.21928287e-01 -2.16724128e-01 2.68119901e-01 2.94057190e-01 -4.77072120e-01 -1.67656660e-01 5.73012650e-01 4.25579160e-01 3.39980274e-01 -2.63073236e-01 -2.56285220e-01 1.65849090e-01 7.37679079e-02 1.79927737e-01 6.23358905e-01 3.91936094e-01 -3.83038670e-01 5.61978400e-01 1.46136507e-01 1.20139420e-01 -1.99934900e-01 -4.42813426e-01 3.86144757e-01 3.51393849e-01 -2.60332197e-01 2.66598135e-01 -6.64082989e-02 1.56053647e-01
acf-x-bible -0.20088844 0.07780942 -0.0049246 0.32764843 -0.5290793 -0.19415864 0.3199637 0.33847752 0.07267211 -0.04717824 -0.7880906 0.05284095 -0.32929674 0.22716668 -0.03295333 -0.00834792 0.12847392 -0.07711849 -0.05622756 0.00455811 0.02474952 0.13309744 -0.00491334 0.30938855 0.96125185 -0.18514338 -0.03570828 0.04219398 -0.11572542 0.11221657 0.47414276 0.4242161 -0.04275077 0.30589142 -0.3054504 -0.49038696 -0.35424212 0.9283218 -0.35448334 -0.80757976 0.31253067 0.14994092 -0.5071315 -0.48808548 -0.3856832 -0.06842288 -0.10967801 0.07408651 -0.35572326 0.24567832 -0.20591414 0.6068567 0.16289698 0.01807326 0.21645676 0.05774222 -0.33445504 0.09598304 0.38184983 0.13183466 -0.603824 -0.28555375 -0.3675957 0.2917449 0.30229914 -0.15141293 -0.39261267 0.07909851 0.36916748 0.41611707 -0.030158 0.09034426 -0.4781001 0.22753611 0.3066116 0.15012345 0.45298496 -0.23939857 -0.591042 -0.21037453 0.09775982 -0.15435806 -0.5338031 0.23149867 0.4594131 0.24806827 -0.4983662 -0.09129859 -0.86611164 0.31750804 0.00246326 -0.47416496 0.63426363 -0.57686573 0.01808527 -0.05205966 -0.25641716 -0.11826166 -0.9227365 -0.38168636
ach-x-bible 0.27215993 -0.44005206 0.32098916 0.6498667 0.10762937 0.0281753 0.3226469 0.56830716 -0.6335024 -0.11124773 -0.17491652 -0.25649408 -0.37028617 -0.52384263 0.44473696 -0.05706369 -0.06827496 0.2428585 0.21576361 -0.24994646 -0.16532114 0.365999 -0.1675835 -0.5276734 -1.0174576 0.0640495 0.11942317 0.2892782 0.34231263 -0.68423086 -0.26521903 0.17939034 0.5233338 -0.05528858 -0.1348357 -0.11157229 -0.14648952 -0.21395218 -0.8904772 -0.19030455 -0.18700415 0.18632193 -0.37799856 0.1102303 0.25474572 -0.27931362 0.28416845 0.41339415 0.23471035 -0.47155824 1.6648924 0.2950793 -0.49508506 -0.53122693 0.4863923 0.3253638 0.46096966 -0.34374362 -0.55187714 0.35086176 -1.0079367 -0.8549451 0.0597593 0.11940623 0.15479697 0.792942 0.5798475 0.07051684 0.5426123 0.7306188 0.17677554 0.1704883 0.35941643 0.04033694 -0.44171146 0.34614602 -0.19088542 -0.06527025 -0.16512 0.06821498 -0.14536656 0.07262584 -0.00227891 0.17998135 -0.3155254 0.7092012 -0.6695839 -0.48677397 0.35457772 0.21786214 0.22977962 -0.2607684 -0.02551029 0.41610587 -0.476993 -0.4509143 0.23267597 0.12651479 -0.46170422 0.02027138
acn-x-bible -0.14829127 0.29836315 -0.14191233 0.03717403 -0.18200073 -0.6487517 -0.23239174 0.18121527 -0.3201298 -0.43689594 -0.47498754 0.17159754 -0.2300234 0.03661124 -0.27645805 0.5951881 -0.3176625 -0.7968508 0.3704866 -0.14851959 -0.38245246 0.29519907 -0.4442762 0.01629679 -0.2618898 -0.20501307 0.33469927 0.31520668 0.7301951 -0.53535324 -0.02523899 0.6165596 -0.58270735 0.12357935 0.42416757 0.30452695 0.19163817 -0.44162482 -0.01832356 -0.42508703 -0.23655345 0.08181855 -0.2027159 -0.00311281 0.20720915 -0.23022527 0.64030623 0.24566713 -0.4877627 0.13614056 -0.10376679 -0.15909107 -0.22039016 0.22336534 0.25621256 0.31977212 0.18558142 -0.42936784 0.18085903 -0.2634548 -0.42706034 -0.01521549 -0.14876696 0.30985102 0.16050433 0.06113135 0.11547413 0.14134459 0.38764006 0.24414425 -0.0995203 0.42188516 -0.01262486 0.2680151 -0.27403605 0.41812268 -0.00411411 -0.2224091 0.9851469 -0.129327 0.5444978 -0.33204487 0.12779245 0.56651133 -0.5912039 0.02285888 0.24899937 -0.35911018 0.71798986 -0.18990321 -0.34518155 0.3368915 -0.6615716 0.0521275 0.40367815 0.11296909 0.22003175 -0.8664306 0.1354517 -0.5417841
acr-x-bible-reformed -0.31062046 -0.31798533 0.48151985 -0.45552143 -0.4299173 -0.22481707 0.2652591 0.07752907 0.17124997 0.05042272 0.22223501 0.3091505 -0.3347864 -0.0097401 -0.5137762 0.4807742 -0.05386186 -0.31367338 -0.15770051 0.60262173 -0.05996572 0.27675688 0.5316139 -0.28310022 -0.12190582 -0.06335368 -0.17246906 -0.22884466 0.19232234 0.28112736 0.32365 -0.36955452 0.4615616 0.05031968 0.07915738 0.20103996 0.00601995 0.3128394 0.02728773 -0.49829057 0.08298761 -0.6177956 0.16049193 -0.37155798 -0.05353528 -0.59621525 0.3783531 0.01286101 0.402938 -0.42651793 0.18394263 -0.00316951 -0.41683045 -0.21516454 -0.32859132 0.2373422 0.42333978 -0.15029554 -0.02841119 -0.14898963 -0.06223345 -0.33234218 0.21898918 -0.19353162 -0.05533229 0.1270737 0.44870904 -0.11976898 0.0366413 0.04195042 0.02672174 0.39835587 0.44692943 -0.04682611 0.02646236 -0.06610668 0.06093907 0.21094146 0.35801882 0.36529475 0.2670716 0.17204197 0.0188986 0.62226886 0.35343495 0.16055587 0.51733834 -0.2187269 0.6592024 -0.09047497 0.0158959 -0.12977973 0.379089 0.0721087 -0.64410394 -0.13205548 -0.21598537 0.41387323 -0.30038115 -0.1339049
acr-x-bible-traditional 0.07905707 -0.00691662 0.35985693 -0.68826824 -0.17995474 -0.29114577 0.54187775 0.42232418 -0.01129286 0.18588161 0.36137938 0.23964036 -0.49047637 0.21197912 -0.5011926 0.61875767 -0.11584162 -0.42158374 -0.20095769 0.58924764 0.32049868 0.41519207 0.21947147 -0.52257454 -0.04371477 -0.23698078 -0.16867426 0.09239079 0.14625396 -0.1709008 -0.19482787 0.24471186 0.2250532 -0.02910962 0.0731952 0.00641266 -0.11679722 -0.09222997 0.23303862 -0.50662637 -0.12756391 -0.34554008 -0.13415642 -0.45816028 0.2012076 -0.7334429 0.7089048 -0.23007187 0.12244919 -0.82341456 -0.00437025 -0.12491994 -0.20486438 -0.3850851 -0.6491466 0.31316307 0.35868353 -0.39010262 -0.16946372 -0.21310285 -0.09267244 0.01265189 0.39361522 0.15870078 -0.20571579 -0.22819947 0.7515696 -0.21116671 -0.08773151 0.37914595 -0.11563246 0.01905108 0.4814501 -0.22647484 0.133186 -0.05607118 0.06343176 0.36391217 -0.03697794 0.44535086 0.31051263 0.15122633 0.20488931 0.3621951 0.34832135 0.44638038 0.32377613 0.02363524 0.6585898 -0.20272791 -0.12205137 -0.31173334 -0.41451204 0.28391996 -0.6768725 0.05268955 0.05021697 0.5238481 -0.5224473 0.17657389
acu-x-bible -0.15880147 -0.14757232 -0.7339088 0.02535425 -0.01373487 0.437604 -0.9762208 0.0430374 0.6312629 -0.32779402 0.4189386 0.06395809 0.48130006 -0.22194402 -0.12791817 -0.5575609 0.8333189 -0.7361387 0.25352514 0.14085604 -0.08812269 -0.24260153 -0.25207883 -0.15908702 0.36882526 0.09410571 0.04982749 -0.16869988 -0.12981932 0.24446791 -0.62946725 0.00159975 -0.2562199 -0.2203032 -0.61992776 -0.11373352 -0.1404314 -0.2566407 -0.17809467 0.64590985 -0.3040113 -0.12390434 0.59543324 0.46608672 -0.25168955 -0.6304521 0.3349434 0.9202116 -0.2595656 0.42350814 -0.0789123 0.10953676 -0.10827035 0.24890515 -0.5066581 0.17619051 -0.76080847 0.15423223 0.01147931 0.70916 -0.15841818 0.1091297 0.00509981 -0.48486575 0.3250962 0.72706026 0.14792001 -0.5445094 -0.47214997 -0.7687564 -0.40777063 0.06129424 0.72138083 -0.6182298 0.42109078 0.09776903 -0.22738977 -0.11485697 -0.3326991 0.4742568 0.28612775 0.32976967 -0.36975032 0.20761327 -0.21335931 0.38217512 0.22808182 0.3068004 -0.4359696 0.50560313 -0.36895564 0.12390991 0.09507911 0.07165799 -0.17408395 0.3711463 -0.09050532 0.1817583 -0.46077928 -0.282527
ade-x-bible -3.0493565e-02 5.0268286e-01 7.6818764e-01 3.5938233e-01 4.7071621e-01 -3.5754409e-01 -6.5135521e-01 -9.7784422e-02 4.0487881e-04 3.3230564e-01 2.1217903e-01 1.2788893e-01 -1.7268190e-02 3.2357866e-01 -2.2725323e-01 4.3165100e-01 -8.9644216e-02 2.7434938e-02 -4.1542879e-01 2.9078290e-01 1.7944571e-01 1.6862562e-01 -1.8762082e-02 1.8870309e-01 -3.8077539e-01 -4.2958525e-01 2.4670650e-01 -5.5403281e-02 3.5499924e-01 -7.3136434e-02 3.7083891e-01 -6.3155818e-01 3.1467271e-01 -5.3617632e-01 7.2831117e-02 -4.8679374e-02 3.0674165e-02 5.7539827e-01 -7.5640124e-03 2.5481409e-01 -4.9368495e-01 -1.8431172e-01 3.1860095e-01 -4.6392199e-02 -6.1557657e-01 8.0121703e-02 4.1426513e-01 1.3335663e-01 3.0316496e-01 -4.8825619e-01 -1.0700849e-01 -2.2271495e-01 -2.8632224e-01 -1.5620027e-01 4.7676824e-02 -2.1946788e-01 2.9162207e-01 4.6585026e-01 -7.1275137e-02 -7.5401008e-01 2.2225776e-01 -5.4797173e-01 7.9618245e-02 9.0812147e-01 -2.5245428e-01 1.6794010e-01 -4.2847386e-01 -5.1348215e-01 1.3124274e-02 -3.9620548e-02 7.2596416e-02 1.4402799e-01 1.4358862e-01 1.5233074e-02 -9.6478826e-01 1.5337585e-01 -1.0622451e-01 2.9162574e-01 1.8984754e-01 -4.1171479e-01 6.3107318e-01 6.7340583e-04 -9.1455363e-02 -1.9468452e-01 5.1921886e-01 3.4958342e-01 4.5371234e-01 -3.8976718e-02 3.5377049e-01 2.9375589e-01 -3.0604011e-01 -1.1864719e-01 2.7682015e-01 3.3904657e-02 -4.0210441e-01 -3.0823641e-02 -2.2396408e-01 -8.3850557e-01 -4.5376906e-01 -6.4544809e-01
adh-x-bible 0.02902228 -0.16809726 0.09413165 0.66478956 0.31397125 0.6952983 0.53751487 0.2537211 0.10749663 -0.1301489 -0.11772234 -0.42049903 -0.42730567 0.43038514 0.10741551 0.72255015 0.13607529 -0.0729711 0.16917634 0.2848747 0.07618652 0.19266772 -0.57231146 -0.7310244 -0.85203475 0.79682845 -0.03456901 0.11910232 -0.04850991 -0.59756035 -0.07808302 0.14281248 0.4883576 -0.74547195 -0.08017347 0.02172984 -0.89261895 0.37848338 -0.08084141 0.5792943 0.3684259 -0.17256619 -0.37685695 0.24156155 -0.12879713 0.09060243 0.47805917 0.5798215 0.08612216 -0.21731628 0.8150059 0.49272406 -0.7144373 0.21866567 0.20637672 0.43982196 0.5230988 0.13456276 0.38116464 0.20983282 -0.07632984 -0.5513459 0.129883 0.44621512 0.23751803 -0.5108722 0.22802901 0.52198005 0.50675696 0.726216 -0.42608756 -0.01853372 0.00641519 -0.1281779 -0.06527653 0.48615924 -0.33176953 -0.5001148 -0.73353195 0.01329372 0.17008324 -0.5814292 0.07371485 -0.34347597 -1.1040736 -0.03780901 -0.12356891 0.15864065 0.16695929 0.55522174 0.02147315 -0.4606004 0.13652411 0.04558276 -0.15941818 -0.05039199 -0.21457349 0.26097894 -0.23731196 -0.21664278
adi-x-bible 0.08568209 -0.72583884 0.8270768 0.5618047 -0.79608274 0.39978978 0.23334086 1.2775795 0.40646455 -0.04316019 0.05512085 0.1116558 0.37969363 0.00670919 -0.9926586 -0.00343912 0.7742805 -0.06511074 0.48233375 -0.09836551 0.23643084 0.08261894 0.65012634 0.08544637 -0.19472489 0.55291027 0.14147955 0.13433845 -0.0761487 0.04005097 0.3000818 0.21690296 0.32596225 0.04499133 -0.3758764 -0.23990616 -0.26334906 -0.23313259 0.23985775 0.2576459 0.22582473 -0.74518275 0.40355322 -0.37699294 0.7622672 -0.0233912 -0.23359771 -0.49714956 -0.5927104 0.19095516 -0.07015471 -0.6469738 0.15088634 -0.20414911 0.5387546 0.4671551 -0.0540954 0.7533308 -0.01599492 -0.58422416 0.7505681 0.07786329 -0.41187948 -0.40647805 0.11411992 0.04562952 0.37557334 0.80043495 0.25911176 -0.344696 -0.13787585 -0.18974335 -0.5657181 -0.2822894 0.28171378 -0.13508415 -0.26652515 0.66512346 1.0046812 0.11890484 -1.2226279 0.36601812 0.386279 -0.16608989 -0.16636649 -0.3455724 -0.43714008 -0.075073 0.16192237 -0.40662888 -0.59618074 0.2638855 -0.08731124 -0.68794805 0.5927815 -0.28281295 -0.3382181 0.9955952 -0.01775704 -0.13839893
adj-x-bible -0.8571979 -0.3060682 0.36997256 0.07057796 -0.12640867 -0.175628 -0.10782072 0.4121318 0.24284029 0.61938995 0.7599039 0.45748588 0.33466673 0.7895023 0.66458714 1.2484258 0.614934 0.10242703 -0.4739753 -0.01612222 0.8472893 0.12283795 -0.3351662 0.00560357 -0.13418008 0.10298885 0.28885633 -0.01987767 -0.19123173 -0.6256264 -0.01018482 -0.21733941 0.09091681 0.3773808 0.5415357 0.13349983 0.26024428 -0.57393163 -0.10271703 0.06712361 -0.25269964 0.47791252 0.04881965 0.5217017 -0.1279497 0.34855282 -0.12530501 0.29390153 0.3542417 -0.15396695 -0.238439 0.31825146 -0.01558723 -0.5811435 -0.15281068 -0.3077597 0.13876238 0.14276063 -0.10244595 -0.14263248 -0.0445012 -0.0985157 0.21310298 0.57593346 -0.3715541 -0.51608986 0.8861218 0.6046748 0.44611508 0.59049076 0.20005725 -0.22171853 -0.9494752 -0.09886971 -0.47031036 -0.6855902 0.17314073 0.275705 -0.9250171 -0.04087413 -0.01863253 0.17727822 -0.53270936 0.71678025 -0.15546773 -0.50713104 0.24029927 -0.1772485 0.18204376 -0.6766388 0.5778567 0.71287376 0.39219585 0.3412584 0.20445085 0.15027781 -0.01415677 -0.24453287 -0.10163718 -0.42376366
adl-x-bible 0.44283143 -1.4284686 0.47007883 0.30005068 -0.0677388 0.451327 0.3061039 0.32045975 0.48084047 0.14743827 0.27774632 -0.4381576 0.21089405 -0.56094617 -0.350498 -0.3506923 -0.13339654 -0.13545263 -0.33565792 -0.90509474 0.45395023 0.4706728 0.36414963 0.10422581 -0.31151298 0.6596519 0.18999866 -0.17623925 -0.9811658 -0.5054345 0.33058578 -0.21988824 -0.2316872 0.05048651 -0.17118575 -0.54240614 0.11941543 -0.54104745 -0.10653498 0.3085452 0.05430932 -0.7272266 -0.0030627 0.18219936 0.47494057 -0.13856651 -0.964954 0.3301403 -0.7584673 -0.21567318 -0.07279348 -0.62501264 0.0981866 -0.4728689 0.61630106 -0.7859805 0.32184476 0.609936 0.10767421 -0.52555597 0.95927507 -0.16780086 -0.7754207 0.5536417 -0.13834196 -0.34539545 0.3805046 -0.139051 -0.2751351 -0.1207014 0.12496872 0.0046476 -0.6142824 -0.2600727 0.356269 0.19117199 -0.22176036 0.19026256 0.36578983 -0.12011031 -0.8620474 -0.548083 -0.11486617 0.33513612 -0.40163147 -0.48861235 -0.3571764 -0.47522023 -0.07466372 -0.63275915 0.5226181 0.57242674 0.06302214 -0.5425124 0.6647484 -0.23488815 0.46529955 0.71381164 0.37280652 -0.10839003
aeb-x-bible 0.6146887 0.13827714 0.72910833 0.8908433 -0.36058462 -0.2874517 0.03257131 -0.11681271 -0.25045207 0.1719812 -0.65642774 -0.2578112 -0.01657971 0.18362083 -0.14838284 -0.06325172 1.1967044 -0.21520515 0.03221524 0.11543027 -0.43798828 -0.26945406 0.01757295 0.7251439 0.25909013 -0.15803762 -0.05702286 -0.5911963 -0.39917985 -0.12670614 -0.17424293 1.0958198 0.78317934 0.51491416 -0.3029502 0.12200808 -0.03595714 0.48750854 0.14620975 0.5570721 0.07636226 -0.58454543 0.24332702 -0.3541096 0.85692734 -0.08772466 -0.86391085 0.6162845 0.4988104 0.02639839 -0.14050001 0.13516626 -0.7418375 -0.06865287 0.59509015 -0.6551401 -0.61608034 -0.40301827 0.33184156 -0.8311723 0.05050929 -0.18093117 -0.06128104 1.8439039 -0.35154575 0.14991085 -0.25560808 -0.31168264 0.01445209 0.31476906 -1.0584427 -0.06109941 0.6489855 0.61029994 -0.345049 0.1879308 -0.3577533 0.49411276 0.81878775 0.535252 0.2310229 -0.48666698 0.17547758 0.20983763 -0.0447185 0.18731767 -0.05148272 0.7848708 -1.0013076 0.6841247 -0.02878067 0.59034055 -0.8643442 0.13937913 -0.38444474 -0.46026483 -0.21961583 -0.34822342 -0.52195495 -0.15749605
aeu-x-bible 0.00412209 -0.1114558 -0.08269917 -0.04767108 -1.083127 -0.6336138 -0.83573055 -0.4021259 0.3726442 -0.06702564 0.19497126 -0.59034586 0.97663075 0.1879625 -0.21234615 0.63969016 -0.66237515 -0.21765439 1.1997426 0.19239463 -1.0067883 0.32835308 -1.0221008 1.1029421 -0.49132013 0.514948 -0.4154806 -0.09359543 -0.7546354 -0.5671478 0.30966908 0.25239253 -0.8428116 0.74117404 0.02442991 0.18778703 -0.02233757 0.31519213 0.78479934 0.57825005 -0.17461582 0.59522164 0.05132328 0.12160937 0.7044823 -0.85432905 0.08507918 -0.8999113 -0.4371593 -0.2802579 0.18305202 0.04319328 -0.27130386 0.10363807 0.7716733 -0.7418494 -0.91880125 0.32794896 1.1480407 -0.28335574 -0.1733868 -0.8838662 -1.1259109 -0.09370051 -0.2727147 -0.41758573 0.40758258 0.01012264 2.048663 -0.2863034 0.24107061 -0.65988714 -0.2734142 0.6775957 -0.6883868 0.5971478 0.6792948 0.1481702 0.20567945 -1.1396829 -0.40149805 0.20670024 0.74826235 -0.05459993 0.13363476 -0.48592633 -0.9635533 0.2647942 -0.23681329 0.4929714 0.18291388 -0.16614117 0.18342973 -0.3302649 0.8604069 0.2226175 0.5914099 -0.8668662 0.25728503 0.12670803
aey-x-bible 0.03294066 0.07707462 -0.2327199 0.29766148 -0.60274965 0.05300092 -0.7385263 -0.30647147 -0.3928244 -0.6562435 0.26342228 0.28553092 -0.26669997 0.13999505 0.39192972 -0.63878566 0.4283904 0.42231083 -0.32366982 0.44338405 -0.8043146 0.73351693 0.216496 0.17320058 -0.15201531 -0.05612924 -0.27253446 0.3025687 0.15066686 -0.10658884 -1.241392 -0.41457802 -0.05557032 0.31510496 -0.21027315 0.2706405 -0.16823995 -0.05104901 0.507184 -0.20619829 -0.01220499 -0.48287082 -0.15251629 -0.17545691 0.11256494 1.2401975 -0.3250365 -0.31952035 0.47103894 -0.4725281 0.10822753 -0.04324838 -0.3292643 -0.2524508 -0.3506415 -0.26311374 0.3051372 -0.22460705 -0.356992 0.21352132 0.42728186 -0.58280283 -0.1453882 0.16867213 0.22994663 -0.19597234 0.50023687 -0.6010601 0.3822533 0.36823544 -0.33547866 0.45637843 0.42160216 0.21260402 -0.65281963 -0.19640695 0.19627248 0.6435782 -0.2458506 0.05604884 -0.6926569 -0.12839986 -0.3758195 -0.65094674 -0.22372389 -0.3712374 -0.10954286 0.1262784 0.63928527 -0.2692209 -0.17563818 -0.08046179 -0.455387 0.00670176 -0.07166619 -0.48652363 0.25446868 0.69807047 -0.09436721 -0.7034993
afr-x-bible-1953 1.50432989e-01 -9.49539468e-02 3.05900455e-01 -7.56950527e-02 -3.78016770e-01 -2.66882896e-01 -2.44434148e-01 1.59327239e-01 -1.50688082e-01 -3.23811859e-01 -2.84852862e-01 9.62553918e-02 3.29507925e-02 -1.64332822e-01 1.13020256e-01 -1.99983597e-01 -6.28526434e-02 -5.73018968e-01 -1.28217191e-01 -4.54745203e-01 1.10274062e-01 4.13167149e-01 9.55442637e-02 1.52530938e-01 4.77140903e-01 -1.44243523e-01 2.23884266e-02 9.78123173e-02 -1.82074159e-01 6.23774044e-02 -3.62747759e-01 -3.74253571e-01 3.86150509e-01 1.88556671e-01 2.20666826e-01 1.08735405e-01 1.39181465e-01 1.94033921e-01 2.15844829e-02 6.51571620e-03 -4.92621213e-01 -5.27197085e-02 6.77833974e-01 6.59068406e-04 -2.33578146e-01 -3.69120955e-01 -8.91596153e-02 -1.25258803e-01 1.80011332e-01 -1.04731262e-01 -4.90909010e-01 2.56540000e-01 -9.50740799e-02 2.12190792e-01 3.39681327e-01 -1.29238755e-01 -1.10478185e-01 -2.40561336e-01 4.97549251e-02 -1.17179155e-01 1.38474345e-01 2.13067412e-01 -1.82794303e-01 2.79541016e-01 -3.65534544e-01 2.30574906e-01 9.48040783e-02 1.29066691e-01 6.18428171e-01 2.64307678e-01 1.29548134e-02 1.85313061e-01 -1.73170224e-01 -7.04394817e-01 -5.02916932e-01 3.97664428e-01 2.40730688e-01 -4.49750394e-01 -4.49720502e-01 3.29714000e-01 -5.51094040e-02 -2.03293860e-01 2.79360086e-01 -1.98406994e-01 -1.61084428e-01 1.81864530e-01 -4.87459511e-01 -5.62367260e-01 8.01986232e-02 -8.98418650e-02 1.26374036e-01 -7.07788169e-02 7.90126342e-03 -2.77197421e-01 4.82901722e-01 8.99994746e-02 -2.58215100e-01 -2.12422431e-01 -1.19264178e-01 -7.46940374e-02
afr-x-bible-1983 -0.0610998 0.16367304 0.47888985 -0.0500144 -0.26781908 -0.37367088 -0.10745036 0.18018189 -0.31177792 -0.08026332 -0.24626975 0.22543247 0.04144605 -0.41493854 0.12820494 -0.3639079 0.02367741 -0.70845294 -0.01099225 -0.33484113 0.11475726 0.25302452 0.06425565 0.18394837 0.4427323 -0.03554684 0.06339474 0.07803307 -0.27682853 -0.06721678 -0.4648542 -0.2926269 0.15087824 0.24227549 0.02117387 -0.05245133 0.00520783 0.1349318 -0.08419141 -0.2566231 -0.38316363 0.10790773 0.3879214 0.11895359 0.01864792 -0.24240467 -0.17579708 -0.25862753 -0.03893207 0.04327807 -0.17041302 0.09969393 0.16848238 0.3001501 0.26277342 -0.24692148 -0.04143785 -0.20903778 0.16575474 -0.41725212 0.00210381 0.34129933 0.22352906 0.2329032 -0.00105169 0.35059047 -0.19976315 0.24150372 0.77145374 0.4939691 0.02440313 0.19747509 -0.29001242 -0.51356393 -0.40746713 0.687803 0.34849855 -0.30719653 -0.22912197 0.16602479 -0.05317185 -0.54903084 0.23321281 -0.08889455 0.12529169 0.2523978 -0.33484048 -0.66176504 -0.07730377 -0.03195739 0.38062316 -0.14207529 0.01495398 -0.28673708 0.61247426 -0.222655 0.00419251 -0.00193927 -0.2769778 -0.26327956
afr-x-bible-boodskap 0.23870502 0.18750298 -0.26936895 -0.2756219 0.2032459 0.123748 -0.13627858 0.05384782 -0.26171833 -0.19470413 -0.27934536 0.07979538 0.48332366 -0.19053039 0.3315302 -0.16702512 0.08272735 -0.45005387 -0.0854505 -0.36834487 0.46086287 0.27820277 0.6123091 0.19792072 0.7383297 0.14592537 -0.09614731 -0.09728247 0.17087352 0.11244687 -0.6561293 -0.18444087 0.33441117 0.5486777 0.19794212 0.20475687 -0.33127072 0.24916027 -0.1068208 -0.33870757 -0.46506268 -0.05403671 0.21884042 0.05841022 0.07270007 0.13022387 0.02606034 -0.23604837 -0.33844116 -0.57139474 -0.19210798 0.04078309 0.30309075 0.23687558 0.24642524 -0.17742656 -0.13560581 0.18030648 0.16316625 -0.64536285 -0.32805142 0.5542566 -0.09822201 0.36983064 0.35463908 0.48914 -0.25588918 0.32693586 0.5967698 0.09378866 0.13445026 0.6170796 -0.39340487 -0.6690293 -0.39416885 0.38197857 0.14696227 -0.5161213 -0.29831254 0.3161104 -0.14601563 -0.3841816 -0.06903856 -0.4454729 -0.1431887 0.24910736 -0.31519288 -0.66843474 0.3549289 0.2678988 0.12095077 -0.03510305 0.18532465 0.24655326 0.36012986 0.08181122 0.02057914 -0.21420582 -0.10458377 -0.3606598
afr-x-bible-lewende -0.01903714 -0.00954668 0.21992342 -0.45622218 -0.19661663 -0.18162294 -0.11003208 0.3783775 -0.04904816 -0.44293037 -0.21859087 0.38287413 0.02725765 -0.06803421 0.09252416 -0.46048173 -0.23871963 -0.3519884 -0.24907896 -0.05083203 0.20843588 0.2580554 0.28667575 -0.0456546 0.32192868 -0.0817171 -0.08980716 0.29664466 -0.34355527 -0.11655155 -0.44807196 -0.4305417 0.30784118 0.26643887 0.00547403 0.03110511 0.06064524 0.26426718 -0.08076232 -0.36672726 -0.37739033 -0.26054987 0.51839626 0.20173767 -0.45324647 -0.12031858 -0.2791794 -0.08352423 0.25717583 -0.14960338 -0.34208396 0.40639162 0.17121802 0.35581076 0.3863075 -0.42681408 0.01585691 0.08161154 0.18004428 -0.5395903 0.06235682 0.3059451 0.01159872 0.38561383 -0.10594387 0.20740901 -0.27124283 0.15112919 0.7900634 0.22632472 0.22636692 0.07551904 -0.4574361 -0.6826141 -0.5060328 0.5989889 0.01145602 -0.35792035 -0.41159707 0.19834931 -0.27163756 -0.55823445 0.12502849 -0.4476105 -0.34618065 0.08770609 -0.3671705 -0.5789847 0.2947745 -0.0949891 0.05580172 -0.23054613 0.02650505 -0.1770253 0.37914068 0.14416352 -0.06436522 0.17179191 0.03165914 -0.05512025
afr-x-bible-viralmal 0.13631234 0.2540239 0.15305257 -0.01667511 -0.04417586 -0.19581723 -0.12343571 0.16467215 -0.30180335 -0.21168555 -0.39558432 0.12760743 -0.04187565 -0.0624494 -0.06980669 -0.31340778 -0.05894169 -0.6686736 -0.03841669 0.12564717 0.05464875 0.2462892 0.23795791 0.0110949 0.29749843 -0.05333712 -0.2091291 -0.33336243 -0.26558864 -0.05244621 -0.41622308 -0.4742337 0.34012383 0.5588592 0.3020044 -0.12839 0.06273365 -0.23417662 0.10987767 -0.07381313 -0.41691503 -0.23160689 0.31779742 0.22861612 -0.16942699 0.07032526 -0.24299 -0.26809144 -0.0028693 -0.387525 -0.23337819 0.40629247 -0.03719994 0.3030509 0.05749881 -0.23069963 0.16994672 0.07505911 0.23920599 -0.5710055 -0.027991 0.18776299 -0.22277544 0.3206314 -0.09776912 0.38737676 -0.37845737 0.10637473 0.61532515 -0.030976 -0.0091091 0.37805572 -0.4894653 -0.6211214 -0.78008366 0.53210455 0.17929207 -0.7385792 -0.33254474 0.18562627 0.1903832 -0.19318181 0.21211033 -0.37912977 0.10877641 0.31203225 -0.41236135 -0.6621942 0.02438159 -0.02733593 0.10170423 -0.08890788 0.13917391 -0.15459733 0.30012202 0.27730495 -0.02660822 -0.01432444 0.21375361 -0.1945931
agd-x-bible -0.30672508 -0.19736023 0.02669272 -0.49331182 0.32590708 0.07955745 -0.84045815 0.17429224 0.09490185 -0.01286263 -0.13468838 0.22919793 0.0810734 0.13828221 -0.22136658 0.45117804 0.53781843 0.5146114 -0.16694191 -0.42235762 0.4695792 -0.36996487 -0.42850253 0.9413595 0.20544115 -0.2006378 0.07464444 0.45699927 -0.253255 -0.23522466 0.36999926 0.01897101 -0.17665051 -0.8242353 0.09818013 0.01660503 0.4991325 -0.21038637 -0.22128347 -0.03615218 0.29742482 0.26137608 0.18671195 0.09435057 -0.57770276 0.17105515 0.3958534 -0.31610706 0.3834712 -0.01987435 -0.01625955 -0.55895996 -0.01149803 -0.41690287 0.6920873 0.27607268 0.258787 0.05890177 -0.25476652 -0.18129398 -0.20119798 0.17514569 -0.28680387 -0.15739857 0.20458427 -0.19670789 -0.5895179 -0.23042762 -0.37003472 -0.4401174 0.83574885 -0.39702094 0.5006719 0.02698023 0.06845616 -0.1539573 0.5479919 0.29766527 0.9161851 0.01699202 -0.08375266 0.28703815 -0.21296477 0.02670029 0.3933899 0.06269498 0.287884 0.4928436 -0.06537678 0.310894 -0.05949057 -0.6727938 -0.2708005 0.8301262 -0.39714858 -0.58036786 0.69428265 0.3195536 0.44280836 1.0076276
agg-x-bible 0.05572609 -0.04325525 -0.45748416 -0.15906051 0.3853616 0.41701052 -0.14069927 -0.6556404 0.13501245 0.1478661 -0.29228324 -0.21667193 -0.16919987 0.02449635 -0.18415338 0.50600666 0.07080697 0.37847728 -0.2289502 -0.16752759 -0.8301097 0.5406859 -0.34127358 0.3345607 -0.23539491 0.16954872 0.51941437 -0.38510725 -0.03357585 -0.8117408 -0.32058525 0.6296171 0.04792023 -0.3226794 -0.03327649 -0.21127442 0.07938954 0.13285689 0.3803784 0.72163004 -0.07867839 -0.48263225 0.23555396 -0.4669147 0.12565567 0.07322778 0.41566098 -0.3210981 0.20930016 -0.2678989 -0.42442754 -0.3801817 0.30098638 -0.03979252 0.43129194 0.3110751 -0.3050207 0.11762167 0.490715 0.21710207 -0.37889448 -0.16994885 -0.05159815 -0.41487652 -0.16227008 -0.02751725 -0.5981243 -0.32227603 -0.52540296 -0.53003633 0.32180175 -0.02747337 0.9315122 0.41107658 -0.6830882 -0.63152665 -0.8667517 0.22284847 0.22871536 -0.05224135 0.7769573 -0.15866758 -0.56161547 0.13325182 0.5843196 0.44069684 -0.23227952 0.60856706 -0.7257532 0.13987526 0.1412091 -0.253328 -0.17383288 -0.03748392 -0.06328143 0.3320675 0.21427864 -0.70872766 0.01562416 0.01660141
agm-x-bible -0.31554368 0.39982447 -0.36884674 0.34600666 0.2682979 0.08838551 -0.5114991 0.16762103 0.76344866 -0.25714833 0.3593789 -0.4587636 -0.2545595 -0.50050986 -0.20041041 0.1784391 -0.2327936 -0.05091947 0.7472641 0.5617193 0.19404559 0.10267466 0.05118778 -0.19700772 0.16016537 -0.72405785 -0.06282891 -0.16034439 0.4492634 -0.15732658 0.30410904 0.6732463 0.6557556 -0.394657 -0.20776154 0.6739769 -0.25990936 -0.03876574 0.13195665 0.54890466 -0.5965193 -1.1092806 -0.23021264 0.32601482 -0.27434936 -0.01414064 0.00366666 -0.29686514 0.01987784 -0.5617697 -0.20265996 0.21481122 0.64762574 -0.00462857 -0.2758058 1.175109 -0.33337167 0.38554972 -0.16287085 -0.5352962 0.22730729 -0.12054344 0.08232085 -0.12841661 -0.22359915 0.48280177 -0.19997711 0.29170132 0.32646334 -0.42036426 -0.16388132 -0.85911655 0.38139808 0.71255004 0.26916984 -0.3709661 -0.33093867 0.37707314 0.56087977 -0.2611151 -0.56357324 0.29916856 0.3271031 0.2043753 -0.3609024 -0.02874092 -0.29268306 0.15132725 0.09595893 -0.17624569 0.2716882 -0.68780476 -0.00263859 0.44222853 -0.7032495 0.53124315 0.09252799 0.6793393 0.08061507 -0.2536269
agn-x-bible -5.47734320e-01 -7.59639084e-01 -3.50710511e-01 -6.57207370e-02 4.84433860e-01 -2.48734001e-02 -3.04838866e-01 1.73051700e-01 -1.67779088e-01 -1.42319843e-01 1.71342477e-01 -4.00382429e-01 -6.16399609e-02 -1.48371393e-02 -3.27769965e-01 -3.99195502e-04 9.46020931e-02 5.28110445e-01 -1.93706702e-03 3.82587552e-01 -4.14425833e-03 -3.13859344e-01 3.56516033e-01 -4.93052490e-02 -1.59250706e-01 3.37626219e-01 -1.40737921e-01 -7.94515908e-02 1.62018389e-01 5.12648225e-01 8.95782635e-02 -1.19077593e-01 5.00593543e-01 -8.51242468e-02 3.13242495e-01 -5.64569533e-01 6.20641932e-02 1.22027427e-01 -9.11884069e-01 1.49343044e-01 -4.33103114e-01 1.36345744e-01 -3.89748871e-01 -3.05637091e-01 -2.14710996e-01 5.56589961e-01 3.76113243e-02 -3.77201319e-01 -3.08322519e-01 -6.82320818e-02 2.12113962e-01 3.94961357e-01 1.08541854e-01 -3.81782115e-01 -3.24270159e-01 4.57855046e-01 3.41669977e-01 1.12920590e-01 7.03002393e-01 2.56035775e-01 -5.56012988e-01 -1.39129609e-01 -8.05285294e-03 -2.72101909e-01 -1.99655861e-01 -5.57656348e-01 -7.38945231e-02 -7.11017907e-01 -6.23625517e-01 -1.89297751e-01 -2.52682298e-01 2.41949279e-02 3.01531404e-01 -6.32138073e-01 2.82456011e-01 1.58067867e-01 6.26864314e-01 3.50565225e-01 -1.72334969e-01 3.82382363e-01 -1.37321994e-01 -1.03459463e-01 2.88772047e-01 -2.69403774e-02 7.35542893e-01 3.17749947e-01 5.91084845e-02 3.69052663e-02 1.17229566e-01 -2.37784863e-01 2.61503130e-01 1.30710840e-01 2.74096936e-01 -4.73325193e-01 2.41884589e-01 1.78173795e-01 2.89502412e-01 2.61255831e-01 8.32828999e-01 2.72193134e-01
agr-x-bible -2.29115456e-01 3.50419015e-01 -1.33892447e-01 -5.57011008e-01 -1.15651198e-01 2.90702403e-01 -2.89410144e-01 -3.09031457e-01 9.36343133e-01 1.94469616e-01 7.96056747e-01 -1.98708236e-01 2.53562957e-01 -4.14176196e-01 2.10454181e-01 -1.47336438e-01 5.97713351e-01 -2.84280092e-01 -2.12178662e-01 4.33379382e-01 -5.14534056e-01 -4.02423024e-01 1.21148795e-01 2.20319167e-01 3.53076458e-01 -5.04287556e-02 4.01679814e-01 -1.10018499e-01 3.32628578e-01 1.81556895e-01 -3.47583979e-01 -1.83991361e-02 -3.88467848e-01 -9.51083610e-04 -7.04988360e-01 1.25192448e-01 -9.35493931e-02 2.16190234e-01 -7.98063055e-02 1.05625844e+00 1.96175188e-01 -4.23065387e-02 6.05711818e-01 -3.94256711e-02 3.84321928e-01 1.52394511e-02 2.51702487e-01 6.98972225e-01 -1.68224558e-01 4.25264448e-01 2.64398515e-01 -1.64563000e-01 4.24891531e-01 1.40869617e-01 -3.92481148e-01 3.02357048e-01 -9.61641550e-01 2.73841709e-01 -2.41815343e-01 2.35969767e-01 -4.12679166e-01 6.32713020e-01 -6.51690781e-01 -1.16686858e-01 5.16857862e-01 4.71136004e-01 -4.70484018e-01 -5.91245949e-01 -8.65998641e-02 -4.44399230e-02 -3.26169044e-01 5.61631083e-01 6.07557416e-01 2.36221224e-01 5.47304273e-01 -4.77765381e-01 -7.14756474e-02 -2.48546377e-01 -2.26191998e-01 3.59018147e-01 4.15319443e-01 2.47823417e-01 5.87021187e-02 4.01740111e-02 -2.74085462e-01 1.39697090e-01 9.71768051e-03 -5.95972277e-02 -3.19713324e-01 5.39220631e-01 -3.56683671e-01 3.70708525e-01 2.73202043e-02 -2.01137692e-01 -3.22660506e-01 6.18537962e-01 2.95810521e-01 1.02424987e-01 -1.01049848e-01 3.75694573e-01
agt-x-bible -0.76825404 0.11926851 0.02016231 -0.43318203 0.23723215 0.2109845 -0.02647085 0.84219444 -0.23157854 0.41816273 -0.2879867 -0.21886349 0.4105391 -0.21173164 0.80602247 -0.15791371 0.38934854 0.5443883 0.02003571 -0.10631812 -0.23974718 -0.13737886 0.13388927 -0.04885578 0.7441532 0.52342397 -0.33373353 0.23455375 -0.0807471 -0.00751748 0.2041478 -0.41125035 0.446728 -0.10547934 0.4106496 0.00411619 0.477339 0.28849995 -0.22456096 0.18170291 -0.00244455 -0.30690536 -0.19732873 0.23687041 0.0221833 -0.18975805 -0.5652177 -0.52917546 -0.3332188 -0.24455717 -0.26265243 0.2865991 -0.3847172 -0.08118741 -0.35987362 0.2727552 0.42773533 0.28162965 0.7749958 0.16509813 -0.48160505 0.39651424 0.01330405 -0.20178007 0.01380912 0.06377533 -0.02242198 -0.61940396 -0.208543 -0.05369309 0.1885764 0.32016718 -0.07994019 -0.42967713 -0.05505838 0.2350728 0.12350467 -0.15581639 0.5209596 -0.2485769 -0.17434181 0.29485473 0.5905863 -0.12965754 -0.02482927 0.25597167 0.44672596 0.16726966 0.26928467 0.47538373 0.12714106 0.15415135 0.17748472 0.41967884 -0.3758807 0.21612339 -0.4684918 -0.3664578 -0.17447008 -0.3976557
agu-x-bible 2.97534585e-01 2.34355658e-01 1.00494504e+00 -2.71340370e-01 4.16774094e-01 5.37706792e-01 -1.98466808e-01 -1.48753569e-01 -9.14640129e-01 1.89262450e-01 -1.68772608e-01 -7.67232105e-02 -2.85567820e-01 1.04864180e-01 4.72289503e-01 -3.79103512e-01 2.38526240e-01 3.73151362e-01 3.85233015e-02 3.66611928e-01 -2.09029004e-01 -2.57000715e-01 -1.34629190e-01 -7.01258302e-01 1.61504759e-05 -3.49883153e-03 -4.39599812e-01 -4.34143364e-01 -4.61193360e-02 3.41406912e-01 -8.11662227e-02 1.44498482e-01 5.22759020e-01 2.50540942e-01 -1.19756766e-01 -2.85860866e-01 -2.50137866e-01 2.22838163e-01 -3.13332260e-01 -1.67729586e-01 -3.14125091e-01 3.76149684e-01 -3.13332796e-01 3.60136807e-01 1.95180342e-01 6.86521307e-02 7.71678686e-01 5.99594533e-01 -6.52538836e-01 2.48031765e-01 -6.85085431e-02 -6.37655184e-02 2.76434757e-02 3.81673425e-02 -9.54901129e-02 4.36277390e-01 -4.70550001e-01 -1.00049353e+00 -3.86070162e-01 -4.09550071e-01 -1.98824238e-02 -4.30473864e-01 -1.54481784e-01 2.11856235e-02 3.92939687e-01 3.73241492e-02 4.35030967e-01 1.46721929e-01 -3.56070042e-01 1.08084941e+00 5.78897238e-01 2.76048481e-01 -2.99524784e-01 5.18084049e-01 -4.38616395e-01 4.50661071e-02 -9.76979807e-02 -2.51411617e-01 5.76121472e-02 8.11270416e-01 -2.72293072e-02 3.81916374e-01 -3.55244130e-01 -2.66862452e-01 4.94953394e-01 6.57716930e-01 -2.87020928e-03 -4.20476973e-01 -1.17535844e-01 5.27398705e-01 1.37048468e-01 1.53823942e-01 6.83377543e-03 -9.34643149e-02 -1.24506608e-01 -3.90938938e-01 -1.04466848e-01 2.60238141e-01 -2.53541797e-01 -3.59247655e-01
agw-x-bible 0.47012737 0.6340143 0.13563806 0.24894828 -0.49364334 -0.40781537 -0.02218506 -0.23679882 -0.41296583 -0.5110228 0.5025602 -0.4088279 -0.04757473 0.6021958 0.6159564 -0.00994453 0.58063537 -0.3679937 -0.647964 -0.30843127 0.1976006 -0.35205457 -0.7602265 0.34390268 -0.23316704 0.05021555 -0.24795143 -0.1822325 0.01129971 0.60710853 -0.22829135 0.02581174 -0.15139748 -0.1909807 0.09703243 0.12980902 -0.536776 0.32321507 -0.6410961 -0.25358447 -0.21564771 0.52538157 -0.6966381 -0.4474708 -0.36554113 0.38290012 -0.498272 -0.13401912 -0.09187813 0.11746424 -0.02210474 0.15415001 0.04569016 0.23270456 -0.17581351 -0.28482974 -0.3442615 0.40017703 0.10239046 -0.18467043 -0.5784269 -0.20247169 0.36743626 -0.31734607 -0.19249046 -0.211369 0.33687893 -0.17095205 -0.73119134 -0.37388587 -0.01673452 0.2126177 -0.1696179 -0.07283474 0.42766896 0.711425 0.19710802 -0.0694802 0.15215999 -0.5624827 -0.37073085 0.3328331 0.30826253 -0.548619 0.3595084 0.37264276 0.22275463 0.37138975 -0.41308218 0.82265526 -0.38976762 0.45452318 0.08697621 0.1978511 -0.0535095 0.52692467 0.01089826 -0.03144865 -0.29195338 0.29117343
ahk-x-bible 0.36897027 0.41360828 -0.4826384 0.39859125 0.04723034 -0.74988925 0.01179959 0.5316814 0.17173593 0.92659736 1.2446427 -0.65295047 -0.33258277 -0.13057157 0.33722055 1.4823995 -0.4780947 0.10951923 -0.3376687 -0.08247788 -0.5441697 -0.44019184 -0.25051016 0.6901692 -0.27839917 0.02421874 0.02431024 0.85909784 -0.48293173 -0.26631966 -0.6404675 -0.19723092 -0.7498067 0.29624227 -0.00489935 0.3557442 0.71256804 -0.28284916 0.37075657 0.1269193 0.09485442 -0.13371657 -0.12862638 -0.08060729 -0.07651551 -0.35254806 -0.2812877 -0.21269941 -0.86231333 -0.693081 -0.09146195 -0.982907 0.01868568 -0.04524878 1.4676837 -0.42629817 -0.32099053 0.2736107 -0.830328 0.2968874 -0.54910463 -0.9265017 -0.6130947 0.28010017 0.06885105 -0.71334106 -0.20032208 0.67092097 0.55163383 0.7251881 0.14131556 0.18074118 -0.13790943 0.3959228 -0.07816789 -0.29596287 0.05859631 0.24693175 -0.11953231 -0.51882136 0.54749644 -0.67390734 0.72810525 0.5280664 -0.2504813 0.6345568 -0.2819966 0.01230747 -0.15595295 -0.69425887 -0.36888164 -0.07463874 -0.22514519 -0.33124483 0.3024549 -0.04411169 0.20706771 -0.3626136 -0.42317834 0.37956166
aia-x-bible 0.1420699 -0.27364463 0.10120189 -0.54376924 -0.6189006 -0.10802674 0.2641195 0.01578472 -0.8267598 0.19197446 -0.15588972 -0.5587296 0.12109103 -0.10701759 0.03188723 0.13595536 0.54845834 0.25611767 0.04767929 -0.626445 -0.58714813 -0.7074057 0.19362442 0.8523402 -0.3623385 -0.19778006 0.17541848 0.23396286 0.34454185 0.35892573 0.40137506 0.4804168 0.3461992 -0.30944243 0.29388556 -0.23783784 -0.02146403 -0.15705918 -0.2620932 -0.6415146 -0.351472 0.2587448 0.08097067 0.5386366 -0.5138468 0.5831045 -0.5502663 0.05770289 0.17974141 -1.2643373 0.55519015 0.1924947 0.31992665 -0.0277843 0.04843787 -0.14424182 0.48293576 -0.06568174 -0.32906023 -0.44212943 -0.7412631 -0.10157795 -0.40132946 -0.40092704 0.27925494 0.12620637 -0.00708965 -0.5558707 -0.7236234 -0.40134674 0.45964274 -0.03238355 -0.5602476 0.24671501 -0.05620497 0.92803323 0.54531056 -0.16910066 -0.34244302 -0.18455952 0.13930368 0.42301524 -0.10540261 -0.47966585 0.02740549 0.33521038 0.00147814 0.26655233 0.09061566 0.3522865 -0.18844484 0.35014784 0.0052127 -0.02723742 -0.32588285 0.17459053 0.4738663 0.50514567 -0.13618568 0.48497257
aii-x-bible -0.74567175 -1.1514895 1.4377362 -0.14959292 -0.03883846 0.6936298 -0.443644 -0.35816893 0.01562751 0.06423865 -0.538388 -0.8093454 0.4556071 0.16689953 -0.51014906 -0.07209814 0.35194162 0.35162723 0.7536693 0.0986979 0.785628 -0.00748895 -0.5975295 0.09964349 0.21879824 -0.20577262 0.26051894 0.39610097 -0.2941469 0.01438393 -0.2973269 0.44797143 0.1324209 -0.01079405 -0.21776962 0.11306621 0.32302207 0.09530967 -0.24740058 -0.23780987 0.45537382 0.6006891 -0.27760577 0.17968836 0.49169612 0.38988206 0.42079246 -0.38876408 1.2422792 0.24867365 -0.2681952 -0.46116734 -0.7200476 0.64394957 0.10678338 0.01726666 -0.01015493 0.1046752 -0.54707706 0.18767962 0.26580796 -0.16709445 -0.11773598 0.48681143 -0.49973002 -0.5028364 -0.34119272 -0.06029592 -0.13600414 0.7382232 0.37681013 0.19168292 -0.3523856 0.3404913 0.4053778 0.37116286 -0.10806283 -0.32166976 -0.01701159 -0.11133341 -0.09730271 0.02399481 0.65697825 0.2932207 -0.73535115 0.43813896 -0.00152875 0.9528408 -1.0234965 0.29368058 0.40404192 0.6010307 0.30950704 0.08155777 -0.1380575 -0.7026609 -0.14571287 -0.15846679 -0.71769935 -0.3879561
aim-x-bible 1.8476374e-01 3.0316317e-01 3.3345169e-03 1.9797044e-01 -5.8311492e-01 -2.4780214e-01 -6.9540662e-01 -4.7709644e-02 -1.7738502e-01 1.0544653e-01 -6.6088092e-01 -7.6419103e-01 -3.4515205e-01 -5.7747532e-02 -9.6542507e-01 1.7579931e-01 6.0865200e-01 1.9426137e-01 -4.8706192e-01 -4.2709139e-01 8.6543000e-01 2.4476690e-02 2.8196782e-02 -8.1743317e-04 -2.5490299e-01 -2.2236732e-01 5.1494282e-01 -4.3875563e-01 2.8981984e-01 -1.8824245e-01 -4.4286653e-02 6.6381931e-02 3.0265388e-01 -2.9981012e-02 2.6193303e-01 -9.8710835e-02 -1.8581666e-01 -3.9508739e-01 -1.7631966e-01 -3.6423656e-01 4.5584863e-01 2.2074120e-01 -2.3130965e-01 -8.6603010e-01 -5.1237851e-02 9.8312534e-02 1.3865337e-01 -2.3736773e-01 2.2437552e-02 -9.4957417e-01 2.1750379e-02 -1.0588658e+00 2.6501566e-01 -8.1916589e-01 3.8533762e-01 -5.0942916e-01 4.2851728e-01 3.9956105e-01 -2.6326725e-01 -6.1587352e-01 1.8657655e-02 -2.5417858e-01 6.0277867e-01 3.2611090e-01 3.6819872e-01 -9.9280355e-03 2.9221335e-01 -6.7819762e-01 1.0600153e+00 2.3976843e-01 -2.5624512e-02 -6.3475972e-01 -3.0797315e-01 4.8803892e-02 3.5850108e-01 6.1775154e-01 1.2768957e-01 -4.4505960e-01 -2.1389956e-03 6.4074248e-01 -3.7701654e-01 -6.6621757e-01 -5.6044203e-01 2.4430707e-01 1.4895642e-01 -1.8194810e-01 -7.1695203e-01 -6.9960350e-01 -9.3576953e-02 5.4433912e-01 1.5219380e-02 2.5095099e-01 -2.7546659e-01 1.2249497e-01 6.8417144e-01 1.8182886e-01 5.8042425e-01 -6.2042457e-01 -2.3029619e-01 3.0268906e-02
aji-x-bible -0.4245361 0.01944594 -0.42751607 0.44850975 -0.13118672 -0.5693673 0.0393822 0.09037556 0.8240544 -0.17410111 0.71131986 -0.05659073 0.76365286 -0.04959834 0.38466573 0.13908489 -0.24557056 -0.02339663 -0.2347181 -0.30143595 -1.0963068 0.15636526 -0.62581056 0.67351973 -0.18316948 0.14507541 -0.67648286 0.31073332 0.48768285 -0.14587566 -0.59260917 0.6062927 -0.17257744 0.13904378 -0.10649892 -0.19966157 -0.581296 -0.28834313 -0.9109447 0.11689491 0.1546451 -0.05057926 0.1723843 0.28755105 0.3262029 0.03766946 -0.28970084 0.0785794 0.6112526 0.05728412 0.7256755 0.6224977 -0.5786066 -0.20913309 -0.11893643 0.6706714 -0.0787839 0.29041234 -0.29462135 0.17315808 -0.24449459 -0.24559024 -0.7202626 -0.5415365 -0.32360876 -0.63485557 -0.1441391 0.03677388 -0.2439744 0.2971354 0.50350195 0.01944887 0.27796394 0.09054666 -0.18985887 -0.16579014 -0.10185851 0.00379626 -0.16537116 -0.25965562 -0.22270466 0.34520957 0.7051359 0.31898665 0.3128601 -0.44806817 -0.36057597 0.27575597 0.1900664 -0.03230052 -0.01011502 -0.26454648 0.9238198 -0.51828665 -0.17668737 0.00491698 0.32698154 -0.4294819 -0.7478021 0.46097916
ajz-x-bible 0.85670084 0.18651748 0.74745613 0.11966335 -0.7289451 -1.1259389 0.12134039 0.34621614 0.40465835 -0.3297839 -0.14136516 -0.1772986 -0.39214784 0.7978884 -0.9391148 -0.06715686 -0.16306871 -0.17389862 -0.13561383 0.41824263 0.32990167 0.03267825 -0.41582823 0.46205068 0.16292551 -0.7543964 0.23448907 0.50125223 0.55632967 -0.5679361 0.5896366 -0.1526004 -0.16388886 -0.92446876 -0.37484434 -0.06061788 0.12123076 -0.23017678 -0.28902337 0.02905783 0.3108515 0.41034836 0.552505 -0.6538878 -0.28115866 -0.38836604 0.3913504 0.37535504 -0.56402016 0.03220419 -0.400542 -0.6509209 0.29489994 0.40936795 0.18274081 -0.45289066 -0.1000017 -0.31870496 0.08948877 -0.10414602 0.6223758 -0.24014474 -0.22257021 1.124819 -0.15552948 0.23326916 -0.30383596 0.06815407 0.76459575 -0.48384 0.26230213 -0.11233801 0.14708586 -0.34459996 -0.3376078 0.5445332 -0.2924738 -0.24305503 0.32265583 0.25398117 -0.4534949 0.37722626 0.27899992 -0.19387427 0.5245522 -0.2802391 0.09557297 -0.2312663 0.06467319 -0.5711622 -0.06556685 0.02049349 -0.28949723 -0.3606519 -0.45881978 0.48539412 0.35061803 0.5008705 0.5811042 0.3761786
akb-x-bible -4.6958111e-02 -1.5436977e-01 7.3316014e-01 2.4764346e-01 2.2045281e-02 -4.8578385e-01 1.5195743e-03 -1.7208931e-01 1.5343677e-01 9.2997141e-02 -2.7067715e-01 1.5781190e-01 -8.4906131e-02 3.2764357e-01 -1.0792852e-01 4.1418323e-01 -4.4231588e-01 -1.7556017e-02 -2.2892530e-01 -1.3805296e-01 -5.1907110e-01 -1.1339618e-01 -5.4891163e-01 -5.8728981e-01 6.8119597e-01 1.3127089e-01 1.6294332e-02 1.1283593e-01 6.3733286e-01 2.1000169e-01 6.1192089e-01 -2.8938425e-01 4.4801614e-01 3.7039599e-01 -8.9106429e-01 5.1668537e-01 2.8357746e-02 -4.9694514e-01 -7.3693979e-01 4.1641366e-01 -7.0895600e-01 -2.0772897e-01 -3.7989038e-01 -4.6566477e-01 -5.2971178e-01 -3.1377703e-01 8.8125475e-02 1.9239868e-01 4.3324504e-02 2.4732597e-01 -6.3504392e-01 8.3659291e-02 -3.5396713e-01 2.5834319e-01 1.7888336e-01 -2.5421739e-01 -2.8905669e-01 -4.9547452e-01 5.3047508e-01 4.9613640e-01 -9.0500623e-01 -8.9454681e-02 -3.3138299e-01 -1.9946173e-01 4.2482701e-01 9.1334903e-01 -9.7758062e-02 3.0417453e-02 2.0849872e-01 8.3471492e-02 3.1436118e-01 -3.2099462e-01 1.9748054e-01 -2.1353652e-01 -1.6971584e-02 2.8537393e-02 3.6460936e-02 -1.2354897e-01 2.5015655e-01 -3.7427506e-01 -2.4092054e-01 2.2905508e-02 -1.3531125e-01 2.1316685e-01 -1.7502826e-01 5.6731391e-01 5.3383255e-01 3.5920188e-01 -9.2817031e-02 1.6457963e-01 1.4720938e-01 -8.0267631e-02 1.6944580e-04 2.4779518e-01 -2.5806707e-01 1.7747675e-01 3.6748987e-02 1.9083931e-01 4.2074367e-01 3.4209183e-01
ake-x-bible -0.7255396 -0.6303607 0.37083432 -0.09978683 -0.37519974 -0.3693966 -0.05965215 0.57669914 -0.39644337 -0.27889204 -0.43033513 -0.43878984 0.10320354 0.5244209 -0.40431964 -0.15979241 -0.14147335 0.317484 0.65848947 -0.09202827 0.00384419 1.3373973 -0.5531915 -0.03790519 -0.6400433 0.23207003 -0.11053724 -0.65940833 -0.10077935 -0.13948609 -0.5544247 -0.13123888 0.0415931 0.5209335 -0.15191832 -0.5281685 -0.7583226 0.43629098 0.18827753 0.24611463 0.8570266 0.1342494 -0.7145516 -0.50454104 0.2966152 0.16911842 -0.36988732 0.16121681 -0.01956543 0.12989019 0.38861632 -0.19693896 -0.3039847 0.48800826 -0.30251035 0.30930722 -0.36323133 0.35213977 -0.23003404 -0.56513405 0.74387723 -0.8214702 0.65307575 0.04598362 -0.31461823 0.20439911 -0.29874173 -0.53461623 -0.54522425 -0.35314327 0.27486798 -0.15335919 0.81667 0.8000354 0.19191118 0.6601643 -0.40463156 0.45180544 -0.2217449 -0.05143268 -0.08981773 0.7264836 -0.21362424 -0.27744174 -0.03780192 -0.02613432 0.36812857 0.34482646 -0.7465419 0.21423893 0.40494758 -0.53844476 0.03597931 0.16463107 0.83651465 -0.32650396 -0.28951332 0.2180188 0.66836286 0.38933724
akh-x-bible 0.10665108 0.3123641 -0.46108782 -0.8497937 -0.6300215 -0.40257978 0.54483044 0.10308675 0.74025595 0.11464903 0.07156371 -0.42575222 -0.17737032 -0.7597571 0.03659587 0.03899344 0.49769765 -0.23356235 -0.07404206 -0.4296233 0.06415188 0.79525435 -0.3720627 0.01269817 -0.08548634 0.12973912 0.03915838 0.48936993 0.8614146 -0.15506107 -0.23736599 -0.6131141 0.4864969 -0.45419565 0.05757234 0.22340603 0.19023314 -0.42995036 -0.6344288 -0.54213846 0.22582686 0.04287713 -0.17429636 -0.3744649 0.24608512 0.771473 -0.26901 -0.06092646 -0.8858852 0.08323263 0.02883392 0.23598374 0.17709938 0.61370504 -0.4014776 0.282314 0.21613151 0.21703893 -0.39074734 -1.0014141 -0.63575524 -0.3189646 -0.72521466 0.10058656 0.4932191 -0.12845704 -0.27936134 0.4412398 0.6604822 0.4481227 -0.20743877 -0.2529581 -0.4424467 0.34643316 0.36281472 -0.23953271 -0.2617937 -0.9014507 -0.16723365 -0.13570493 -0.50393623 -0.20617306 -0.34481022 0.72384065 -0.21612187 -0.04636094 0.6779308 -0.3047274 -0.25950736 -0.2805896 -0.6658535 -0.37704933 -0.07579253 0.47690508 1.086729 -0.2996569 0.14484832 -1.4858425 -0.5503785 0.65017045
ald-x-bible -0.3674362 0.19041047 0.17431359 -0.12315302 -0.02822421 -0.12777504 -0.33737135 0.9612559 0.24029607 -0.19022448 0.10672116 0.7385535 -0.4428314 0.5386599 0.05519763 -0.4737301 -0.07881639 -0.0610146 0.42868245 0.5839797 0.07530084 -0.12753639 -0.6643605 0.24906664 -0.29833344 -0.08688956 -0.13576429 0.7597544 0.3600431 -0.42362276 -0.0985694 0.69131666 -0.56804115 0.10763671 0.20727839 -0.2227955 1.0142468 0.0959295 -0.14850436 -0.13991892 -0.18563025 0.4530807 -0.2189956 0.13762236 -0.20719612 -0.09619215 0.8033035 0.00414569 0.44767419 -0.47998363 0.02547931 0.32355064 -0.19958264 0.18273439 0.00489956 -0.07587444 0.3675795 0.2110971 -0.08429884 -0.24409916 -0.78179485 -0.15029746 0.46839288 0.30406377 -0.2691681 -0.4470666 0.02728148 -0.03599836 0.45522124 0.4884117 -0.20929083 -0.48759174 -0.17891131 -0.23602468 -0.4356168 -0.18703553 0.01650333 -0.4912094 -0.44431373 -0.53465617 -0.2876355 0.969381 0.4737595 0.20949008 0.36104047 0.10981223 0.02708135 -0.2172305 -0.13307752 -0.4270378 0.08668583 0.08114284 0.27721357 0.36942536 0.8202186 -0.20929696 -0.17138104 0.30767724 -0.3777565 0.07178637
alj-x-bible -8.30038339e-02 -4.96817023e-01 -3.60325612e-02 -4.58059251e-01 2.06848327e-02 -1.67360291e-01 2.92708546e-01 -8.72133002e-02 -5.62650919e-01 3.71808223e-02 4.52061296e-01 -2.19105035e-01 -4.47667688e-01 -4.76530910e-01 -4.81956422e-01 3.21266949e-02 -7.97245875e-02 6.38172090e-01 -1.18862092e-02 -5.84693365e-02 -5.77973574e-02 1.57934412e-01 5.20229459e-01 -6.52725518e-01 -4.37204316e-02 3.15750271e-01 -4.18498397e-01 -4.94638443e-01 -5.19252598e-01 1.63696498e-01 4.36816245e-01 -3.21767181e-01 2.09570006e-01 -5.95828295e-01 7.25914955e-01 4.62618321e-01 -1.13189116e-01 7.87013024e-02 -8.21660399e-01 -5.75862229e-01 -1.64402425e-01 -3.15832943e-01 -1.55654892e-01 3.31498146e-01 2.00624913e-01 -4.18940261e-02 -6.04313374e-01 8.45338926e-02 -2.86339462e-01 -1.68993548e-01 -3.42614055e-01 -6.09449670e-02 -6.46096617e-02 -1.50915906e-01 1.14794716e-01 3.08268934e-01 2.68474400e-01 -4.76438820e-01 3.45651418e-01 4.86853063e-01 1.68632224e-01 8.40694159e-02 -4.91907120e-01 -3.17050040e-01 -1.63339660e-01 -4.25102144e-01 -2.50340909e-01 -1.87831149e-01 -2.31197655e-01 9.86077487e-02 -1.95754841e-01 8.84323195e-02 3.56870919e-01 1.49795905e-01 -5.07622473e-02 4.32131439e-02 -3.96170132e-02 -1.81798428e-01 4.01128024e-01 -3.74634653e-01 -3.99366617e-01 3.46313208e-01 -4.67970688e-03 -5.80328465e-01 2.22966507e-01 9.46842059e-02 7.63374940e-02 2.68059666e-04 -1.32721573e-01 2.91552812e-01 6.45278096e-01 -1.03438035e-01 5.07752709e-02 -7.30262846e-02 8.25357363e-02 -1.29456222e-01 -1.36029854e-01 -6.41965449e-01 4.63219255e-01 6.88477457e-01
aln-x-bible -1.59286901e-01 -1.29297718e-01 7.74901271e-01 4.53204103e-02 1.54926732e-01 3.80986065e-01 -5.60540318e-01 6.40101492e-01 -1.65155172e-01 -3.13184470e-01 -4.45839375e-01 4.38776255e-01 -2.95887828e-01 -6.49621844e-01 6.55662239e-01 1.44460142e-01 1.98252216e-01 -2.86021829e-01 -1.05181038e-01 5.49286008e-01 8.41737445e-03 1.65451725e-03 2.08663002e-01 -2.76267529e-02 3.26205134e-01 1.69945210e-01 -1.16614498e-01 -5.08819699e-01 4.41835150e-02 -5.64777672e-01 -2.52838224e-01 -3.46037120e-01 3.13991219e-01 8.75702798e-01 1.54023871e-01 3.91305596e-01 6.06031418e-02 -6.32937789e-01 -2.49657080e-01 3.12482983e-01 -9.13492292e-02 -1.30791754e-01 -3.32223736e-02 2.28002787e-01 -7.66368210e-01 -1.81684077e-01 -4.92778048e-02 4.55271393e-01 4.73750949e-01 4.97073263e-01 -1.02266066e-01 -3.48068714e-01 2.39006534e-01 1.06122637e+00 -4.91923064e-01 -1.78855523e-01 -2.81112254e-01 -3.21678102e-01 -4.99844193e-01 3.06234956e-01 -4.19437349e-01 -6.12901747e-01 9.96204615e-02 2.51978010e-01 -2.35452265e-01 7.08953738e-01 -1.29987240e-01 -1.03689194e+00 6.38475776e-01 5.14829040e-01 -4.28142157e-05 1.91763379e-02 -3.12128335e-01 3.42332982e-02 4.82370198e-01 5.27967691e-01 1.88359514e-01 -1.97032213e-01 2.92923033e-01 -1.17119856e-01 3.58658694e-02 -3.23058516e-01 8.41461062e-01 4.03862983e-01 -4.49354239e-02 2.94297963e-01 -4.53968793e-01 -2.32951075e-01 -1.31528387e-02 3.92484218e-01 7.43276849e-02 -3.00742686e-01 -1.18246019e-01 5.13468206e-01 4.97783214e-01 -6.24001741e-01 -9.68795866e-02 2.01303959e-01 3.46756548e-01 7.72888482e-01
aln-x-bible-newworld -0.07887455 -0.2492577 1.0754561 -0.02487446 0.17006 0.03162558 -0.4689352 0.534536 -0.21411678 -0.2166873 -0.34541818 0.13754687 -0.32702556 -0.40752882 0.8344749 0.26289645 0.48008102 -0.21704844 -0.30096596 0.37223676 0.02042279 0.2705369 0.11374389 0.4862126 0.3827868 0.32641473 -0.00246763 -0.20032443 0.21793462 -0.6318859 -0.00729726 -0.18494502 0.15957904 0.5732743 0.2550327 0.24935693 -0.43124002 -0.32013515 -0.2654887 0.23516805 0.04082521 0.43495724 0.5592212 -0.11815436 -0.8586776 -0.35303685 0.2869399 0.01207474 0.42519408 0.07106078 0.4412267 -0.18966421 0.5424905 0.5584071 -0.16874492 0.10866147 -0.01957595 -0.4546711 -0.06490063 -0.04782193 -0.67647594 -0.40202016 0.08946662 0.2260662 -0.5353682 0.49577385 -0.2149773 -0.8842651 0.32422286 0.53788453 -0.04535283 -0.11447819 -0.2774621 -0.17963572 0.6819773 0.45425028 -0.0267736 -0.31393713 0.09650376 -0.3698948 0.13477898 0.12278672 0.6176804 0.40925583 -0.2617648 0.04947123 -0.42046356 -0.18020618 0.0056817 0.37019232 -0.22244142 0.36804384 0.0167745 0.13024707 0.78186226 -0.37347138 -0.26564756 0.23812057 0.41689953 0.89247584
alp-x-bible 0.7955049 -0.34103608 0.2622538 -0.2614414 -0.0191481 -0.15550841 0.6222865 0.24577036 0.7147281 -0.3371963 -0.19451827 -0.47047624 0.15855445 -0.3055659 0.28182182 0.20643933 -0.23587091 0.06045862 0.06976427 0.18690905 -0.29018492 -0.17733467 -0.1596459 -0.06675266 0.5640479 -0.1243783 -0.45330352 0.36791506 0.24725845 -0.5743151 0.46989626 -0.03240952 0.2051279 -0.08061986 -0.8351421 0.26181212 -0.2955507 -0.13361134 -0.4724716 0.18344335 -0.06523699 -0.20264378 -0.47383118 0.7450229 -0.1443457 0.42089054 -0.42415556 0.33777538 0.14105178 -0.59941304 -0.3625535 0.9224263 -0.26171812 0.20574686 -0.03156354 0.1322819 -0.24048775 -0.11871593 0.22865975 -0.1791921 -0.04040527 -0.0260319 -0.38465315 0.29562354 -0.4570409 -0.13953936 -0.03286844 -0.17367978 -0.15275568 0.30491894 -0.13878322 0.18756384 -0.775197 0.8124463 -0.14055267 0.46120834 0.41708902 -0.10194822 -0.43130997 -0.01371046 0.23761262 1.1229002 -0.02158505 0.05607895 -0.16990161 -0.20912515 0.31092873 -0.3669058 0.405742 0.56889266 -0.3705421 -0.07231091 0.47346133 0.4832212 0.574343 0.2619547 -0.07925626 -0.06185903 0.25679514 0.01367289
alq-x-bible -0.25638366 -0.59898305 -0.6159416 -0.05963018 -0.09400719 0.03668337 -0.54859227 0.18835056 -0.27160892 -0.04129145 -0.1547601 -0.28026593 -0.01567321 0.04765613 0.7921348 -0.2187067 0.32007498 0.35345563 -0.24684162 0.4932364 0.15368289 -0.05434211 -0.30191493 0.01364005 -0.12956806 -0.59122354 -0.5280749 -0.6303717 -0.12157686 0.07626197 -0.00545068 0.06521934 0.54908174 -0.411713 -0.6500014 -0.9305518 -0.0556185 -0.1005014 0.5641245 0.5341143 -0.32586437 -0.55141866 -0.06557826 -0.8627169 0.4022975 0.7567564 0.5712212 0.01955639 0.35472322 -0.04618499 0.72199744 0.08431333 -0.15635245 -0.01455089 0.16728018 -0.6317044 0.07393976 0.07917207 -0.3693355 -0.7489856 -0.03262665 0.44898844 0.27029857 0.65319526 0.12203534 0.05538974 0.34267282 -0.39444485 -0.10093307 0.3526875 -0.02315104 0.440014 0.34468195 0.12222327 -0.43952492 0.23806271 -0.48439062 -0.1157179 0.1873591 0.4437921 0.42004052 -0.24444497 -0.19640833 -0.51490825 0.08031143 0.43522084 0.29161105 -0.11421897 -0.60399663 -0.19935377 0.16028155 -0.03960529 0.06547559 1.457581 0.1464109 -0.24913006 -0.8528252 0.57036877 0.33587465 -0.38688308
alt-x-bible -0.2245606 -0.16908309 0.2888339 0.09892156 0.52254945 0.25509685 -0.04841877 0.1578032 -0.06255427 -0.31694987 0.21990468 -0.37270358 0.58523244 0.35011372 0.2678271 0.02191413 0.4644294 0.48399988 0.07779536 -0.23075363 0.41251564 -0.6381006 -0.35603863 -0.34546977 0.19089246 -0.15864772 0.12834592 -0.78496987 0.20794025 -0.2081463 -0.24139223 0.13213947 -1.1614422 0.05352209 0.7517252 -0.09277245 0.08075636 0.00895932 0.03480892 0.6431053 -0.36978835 0.04779762 0.10992883 0.60252935 -0.00207191 0.14188997 0.5349772 -0.2256711 0.12606762 0.09926712 0.01954734 -0.03785276 0.7151226 -0.21273886 -0.2518326 0.21468002 0.12124279 0.22764042 -0.27187645 0.08893657 0.22106169 0.0874409 -0.21857697 0.26929638 -0.36096838 0.5397748 -0.35499904 0.09923574 0.26765552 0.19226943 -0.06702049 0.40806898 -0.29132918 0.4211139 -0.26734814 0.03646636 0.3190141 -0.10257903 -0.38199237 -0.32065058 -0.31386894 0.5061381 -0.03658359 0.29611328 -0.30486888 -0.03140932 0.7505708 -0.08180096 -0.5663086 0.19314484 0.2137255 0.07205457 -0.47099715 0.3190093 0.32596964 0.10328762 -0.00995134 -0.16173458 0.28984445 -0.3803057
alt-x-bible-southern -0.35141432 -0.264868 0.5206686 0.34186262 0.31465626 0.36898032 0.12132224 0.07468454 -0.10306361 -0.13774624 0.43394682 -0.41874588 0.6269173 0.48102185 0.19636312 -0.11263213 0.09047015 0.18646273 0.10994077 -0.34132525 0.36074007 -0.61165345 -0.22291023 -0.3301993 0.35691163 -0.02504124 0.13539419 -0.4253004 0.27980328 -0.02149518 -0.10801972 0.09393757 -0.9383745 0.16335243 0.28957996 -0.06485188 0.27961314 -0.44343275 0.01197518 0.2027471 -0.13305393 -0.20056444 -0.11834449 0.2923466 -0.03268179 -0.11153741 0.3556716 -0.15993418 0.13965295 0.10769883 0.1724642 -0.10608901 0.7545406 -0.30366355 -0.22266625 0.39328927 0.18969347 -0.01419101 -0.0982481 -0.2866861 0.06569614 -0.3082037 -0.06050244 0.426491 -0.46246764 0.43382552 -0.5448078 -0.04232403 0.3760161 0.22864304 -0.16337033 -0.09259769 -0.06612031 0.4804123 -0.20839615 0.16884042 0.02028016 0.05087119 -0.4513272 -0.29365748 -0.29016274 0.62135136 -0.20374355 0.31703582 -0.44324127 0.04346514 0.58391523 -0.06122867 -0.32484376 0.2831144 0.1861305 0.2877622 -0.65702075 0.17883036 0.06612245 -0.09841831 -0.30864805 -0.22152632 0.30534017 -0.36143163
alz-x-bible -0.23292717 -0.18543768 0.13512261 0.70194894 0.17201477 0.04111683 0.24729818 0.06959094 -0.525841 -0.3635669 -0.08401546 -0.03659699 -0.49793148 -0.41723126 0.43568146 -0.0820457 -0.27221316 0.18229337 -0.18313259 0.19097899 -0.36615464 0.45311385 0.07623103 -0.20619678 -1.1829023 0.06285262 -0.10586075 0.4915852 0.4142565 -0.26707244 -0.6349968 0.2977591 1.0016392 0.20708217 0.17334329 -0.1444996 -0.39595807 -0.00730539 -1.0214657 -0.19632223 -0.32258624 0.39662048 -0.7198855 0.05748163 0.07749795 0.26586363 -0.02173782 0.44721827 0.76971066 -0.15427695 1.3069338 -0.5666737 -0.87178606 -0.32527956 0.1638502 0.18153705 0.39002696 -0.65956986 -0.6820046 0.08741882 -0.6292523 -0.94235724 0.37763765 -0.16910672 -0.10079769 0.61677194 0.4244602 0.34895325 0.747966 0.53168356 -0.04992902 0.19682325 0.16852644 -0.3207131 0.04676828 0.3816921 -0.14255768 -0.05124417 -0.65176463 -0.02361068 0.26428148 0.24934904 -0.13694672 0.2114311 -0.54080623 0.5582637 -0.26737094 -0.3908235 0.09852193 0.02842264 0.06375462 -0.161209 -0.08484833 -0.12233063 -0.23408762 -0.59339666 -0.3959277 0.26906237 -0.2732156 0.13963614
ame-x-bible 0.2686954 -0.02403041 0.41565043 -0.61655086 -0.20395342 0.37083894 -0.3451276 -0.53097343 -0.00261925 0.3814999 0.5179409 0.42771268 -0.3386799 0.506718 0.10659733 -0.14912571 0.3033117 0.47067738 0.36934733 0.44943118 0.45923156 -0.49350092 0.25922945 0.07810474 0.32002407 0.2501711 0.15629107 -0.40585452 0.633326 0.2597466 0.06581371 0.6424415 -0.7024976 -0.1602811 -0.45033553 0.04759084 0.4813879 -0.49465752 -0.19346629 -0.18601389 0.20011967 0.41502655 0.64015746 -0.10886672 -0.03150675 -0.4628273 0.15300141 0.25237897 0.3350961 -0.20021215 -0.62194073 0.10338675 0.47353694 0.2496443 0.6323888 -0.5231898 -0.4333164 0.44185448 -0.03481244 0.04604201 0.480619 -0.05620356 0.2079224 0.7511357 0.00724515 -0.16803858 0.11228099 -0.2362348 -0.00571978 0.34019724 0.35982862 -0.38290605 -0.2726791 0.2732533 -0.3155682 0.0486218 0.60786295 0.03134404 -0.30305928 0.2572559 0.4277241 0.09604947 0.11466613 -0.1648952 0.36516598 -0.6940139 0.3791576 0.12264881 -0.06302502 0.06862807 0.46427402 0.02524704 -0.31244373 0.09947168 -0.73599774 -0.28305665 -0.24057811 0.34491083 -0.2520921 0.47951096
amf-x-bible -0.35966396 -0.00669693 1.2197005 -0.1324923 -0.20610158 0.12370422 0.31582594 -0.25000837 0.266029 -0.8824965 -0.69081175 -0.09863209 -0.17818515 -0.66064495 0.17545764 -0.8819037 0.46601257 0.32993308 -0.00787133 0.38502976 -0.60497993 0.8086728 0.25299856 0.05124168 -0.7948836 -0.91222703 0.00470075 0.40271482 0.0756622 -0.02618166 -0.20486681 -0.22508627 0.1887575 -0.19311781 -0.04675622 -0.45233774 -0.5964867 0.56251645 -0.88237274 -0.20357315 0.4101664 0.6903598 -1.5989977 -0.38883346 -0.2235576 0.19234486 0.28028274 0.25018084 0.21570253 -0.38016766 -0.02323354 -0.14560303 0.00584241 0.71626496 0.53055596 -0.06886363 -0.34946495 0.66162723 -0.42545685 -0.14410917 -0.02677379 -0.36976317 -0.4166897 0.4880191 1.1169302 -0.1869729 0.00378925 0.04849636 -0.42443067 -0.23564371 0.47882372 -0.2778477 0.2243034 0.5161595 -0.58011854 -0.48834682 0.4702024 0.04469787 -0.17692837 -0.00827691 0.40512884 0.41465932 0.8132917 -0.7456261 -0.1546515 -0.06705161 -0.5965655 -0.0255948 -0.3869491 0.2648411 0.58431363 -0.5024323 -0.35679474 0.2826329 0.09103687 0.6147946 0.22336523 0.22987814 0.63335407 0.2920695
amh-x-bible 0.38107425 -0.27596334 0.5573962 -0.5527466 0.637496 0.5203318 -0.08683854 0.39469156 0.82431954 -0.3971573 0.03796826 0.9609876 0.02827053 -0.72646546 0.24767062 -0.41653913 -0.67590547 0.00210418 0.42210603 -0.50680345 -0.20332503 0.15512757 -0.40485752 -0.2957922 0.01888358 -0.43173274 -0.0516705 0.30869037 0.01676222 0.01111933 0.32222712 -0.41660753 0.4658992 0.06985565 -0.11830682 0.48077 -0.35796496 -0.6250612 -0.15798852 0.07535409 -0.04009093 -0.00229972 -0.32864672 1.1416525 0.04681797 0.47306386 0.261084 0.3676606 -0.49498662 -0.16671804 0.29624033 0.12738888 -0.10583368 0.23641253 -0.5272231 -0.20708929 -0.24448417 0.37567198 -0.13406813 -0.5297586 0.65907687 0.03299785 0.29997498 0.455723 0.21936612 0.3558728 -0.30009753 -0.04796492 -0.13343658 0.22023442 0.09559357 0.00367504 -0.38801888 -0.55951446 -0.01208995 0.29117635 0.19129151 -0.66857004 0.03925355 0.2685563 0.07051621 -0.00219068 0.9594754 -0.6952728 0.38599843 0.06112437 0.02883957 0.50644064 -1.0269812 0.26222944 0.50630313 -0.21353507 0.87011045 -0.98970205 0.3097041 -0.21334833 0.23263445 -0.3002302 -1.0532354 -0.33665958
amh-x-bible-latin 0.6225471 -0.23272085 0.44177878 -0.57575816 0.62140805 -0.25397503 -0.3298145 0.25313458 0.8814925 -0.07846854 -0.08936381 0.16803402 0.30558893 -0.6116839 0.63975066 -0.5365784 -0.3724041 -0.6647185 -0.07733163 -0.26473013 -0.23275098 -0.01803196 -0.7083539 -0.61573327 -0.2870606 0.4155885 0.15283151 0.17384362 0.2463246 0.5455449 -0.01119976 -0.6750219 0.22479843 -0.3295574 -0.5011831 0.7473555 -0.32044956 -0.132624 -0.4028545 0.07257914 -0.50455445 0.48450503 -0.2959802 0.6414367 0.12863468 -0.10357267 0.5876958 0.18466792 -0.40303713 -0.05486531 0.33233848 -0.9075179 -0.06191945 0.41811353 -0.35081628 0.35705113 0.38572526 0.25492486 0.48146117 -0.36475027 0.03722268 0.81223285 0.40165362 0.8684646 0.5470329 0.30773705 0.15856859 0.19354387 -0.04796305 -0.07098249 0.35428643 -0.4046129 0.3004062 -0.4501886 -0.04285286 0.3143842 -0.0589732 -0.9172577 0.41364652 0.28207183 -0.05437176 -0.39699492 0.7387946 -0.4664726 -0.20937991 0.13444182 0.39520612 0.3786774 -0.92220706 0.07222032 0.72292584 0.32997972 0.7163961 -0.8248363 -0.13986875 -0.13681512 0.19449541 -0.32436755 -0.70770085 -0.2932109
amh-x-bible-newworld 0.39408883 -0.41838583 0.49632806 -0.40061468 0.19911931 0.32452846 -0.41073844 -0.07899884 0.37667704 0.00472947 0.3192975 0.4927182 0.3281155 -0.8645827 0.3103267 -0.29920557 -0.5783953 0.51841086 0.20701212 -0.13450594 0.4044911 0.3821307 -0.70153856 -0.21877396 -0.18190727 0.10864489 -0.16262195 0.5249133 0.4858775 0.11398723 0.5157208 -0.77726597 0.53432155 0.08853349 0.40638947 0.4618665 -0.40058124 -0.3644731 -0.16178247 0.07620005 0.5163359 0.4695705 -1.0949593 0.6014879 -0.35112485 0.06136253 -0.06915049 -0.02435534 -0.24549608 -0.2285419 0.51281935 -0.5032269 0.08052602 0.40699533 -0.81187797 -0.35709578 -0.63377374 0.71717274 -0.4523905 -0.380184 0.28847647 -0.08032809 -0.0669734 0.00808991 0.41325584 0.252854 -0.26423663 -0.06027506 0.02871613 0.05048882 -0.01287551 -0.1232793 -0.2622228 -0.04307712 0.24861583 0.39760682 0.33221412 -0.6714731 -0.19130531 0.1732114 0.2870885 -0.14233392 1.1991338 -0.6994288 0.26640075 -0.03137301 0.11685813 0.6081051 -0.62309545 0.3175181 0.64307046 0.12950075 0.6989193 -0.75999534 0.06115232 0.16068248 0.19214006 -0.42697945 -0.8824832 0.3771577
amk-x-bible 0.17004947 0.09418369 0.34429678 -0.04266707 -0.27097145 -0.4969011 -0.4862709 0.15662922 0.6207072 -0.3475098 -0.2873336 -0.32924104 -0.88730615 0.05918082 -0.22539586 0.03900018 0.6443249 0.43060338 0.2003325 0.34663957 -0.17353414 -0.6693438 -0.415185 0.20479067 0.27945432 -0.30024296 0.02008917 -0.06794435 0.47814703 -0.10196289 0.1604159 -0.04702727 -0.29946792 -0.38948885 -0.62228423 -0.12437873 0.29944035 -0.8426957 0.49098507 -0.31283605 0.12608258 0.43513837 0.15981832 0.32213712 -0.0452092 -0.03075046 0.12157705 -0.17095819 0.9633791 -0.09502633 -0.12613603 -0.11800209 0.05299535 -0.31848758 1.0748627 -0.08356674 0.16733477 0.0107288 0.84464103 0.5809229 0.17951748 -0.2642592 -0.68079317 0.19710125 -0.10763006 0.16076781 -0.2291812 0.69383216 -0.30084983 -0.28250602 -0.6364187 -0.4501529 -0.52554005 0.50390106 -0.29722634 0.23944424 0.23296234 -0.37397766 0.0857212 0.15479888 -0.34582937 0.67842877 -0.3491461 -0.6269552 0.99862534 -0.2558593 0.09883504 -0.40576285 0.3428531 0.80645114 1.106045 -0.18079339 -0.05909162 0.2629885 0.08395674 -0.4938061 0.55875266 0.4282533 -0.32980922 0.19595757
amm-x-bible 0.01981543 -0.42564896 -0.21868142 0.8616509 -0.2748485 0.3359727 0.25166884 0.52473193 -0.26443544 -0.13148499 0.1868377 -0.07116541 -0.18669291 -0.2415082 0.10093033 -0.60885173 0.06996907 -0.21000335 -0.53825 -0.03660114 0.04659468 -0.09252396 -0.3902673 -0.2166564 -0.31729552 -0.04391342 0.49918017 0.22585523 0.11958766 0.3884521 0.45377707 -0.3281108 -0.20771614 0.03637512 0.24600483 0.344921 0.4195163 -0.68605024 -0.0839789 -0.82525295 -0.48425737 -0.20181043 -0.3349614 -0.5573771 0.27326477 0.5246979 -0.596741 -0.14159481 -0.15541443 -0.29572296 0.19838873 -0.08076648 -0.16815105 0.3121938 -0.20252168 0.2753142 -0.38156864 -0.22335199 -0.904688 -0.16117299 -0.4655054 -0.5045089 -0.14992628 0.01177034 0.13541582 -0.02319497 -0.45483395 -0.63696927 -0.37702397 0.264644 0.3558064 0.70702857 -0.11360976 -0.01980207 -0.20688151 0.29607654 0.3417435 0.55123633 0.10050697 -0.0209417 -0.06162956 0.9134095 0.10061286 -0.3609482 -0.414629 0.6735135 0.11104763 -0.23179598 -0.5660412 -0.3290593 0.04463661 -0.24942942 0.21234694 0.1570489 0.07587257 0.20640649 0.03296695 0.7539472 -0.95138955 0.48568916
amn-x-bible 0.515627 0.01923154 0.03437289 -0.26488635 -0.28572223 0.20341942 0.17225805 0.00974409 0.28796357 0.70029736 -0.014018 0.10583979 -0.342314 -0.19549857 -0.03373687 -0.40412065 0.7803281 0.28986296 -0.00137932 -0.07640003 0.5175767 -0.0246014 -0.22819254 -0.3334231 0.2817034 0.3028119 -0.15274695 -0.3390527 -1.0177543 0.05402672 -0.7438025 1.0182744 0.59109664 -0.18262272 0.29906365 -0.13192943 0.36253104 -0.6046936 0.41930467 -0.09771121 -0.01440816 -0.23548432 -0.4082787 0.6635839 0.86287165 0.47885692 0.20675178 -0.32206967 -0.19854435 -0.43511134 -0.69935846 -0.0995845 -0.4440602 -0.07798427 0.29382578 0.21881369 -0.33125782 0.15239933 0.16457486 -0.18998146 -0.23081781 -0.14203408 0.284635 -0.2727995 0.1110561 -0.14714113 0.17570369 -0.91469634 -0.16655597 0.49777573 0.7478469 -0.33896613 0.16342539 0.47808972 -0.31635046 -0.19096424 -0.51840115 0.5306306 0.2854405 0.01558293 -0.5950333 -0.37278026 -0.6773351 0.3178618 -0.10794591 0.03896119 -0.7307512 0.43153742 -0.28678805 0.06785993 -0.01872571 0.14272584 -0.5500278 0.24984786 0.31739014 0.23017636 0.06822035 -0.35086942 0.6155819 0.21268776
amn-x-bible-naineri 0.113367 0.12934884 0.39491528 -0.07159537 -0.31003708 -0.19501087 0.11839414 0.0285998 -0.07045306 0.417807 -0.046126 -0.22762612 -0.43878627 0.01812019 0.01084019 -0.6466122 0.48412254 0.5199296 -0.17145672 -0.01709838 0.49255636 0.07675633 -0.18660273 -0.52165776 -0.02715444 0.56297094 -0.00335346 -0.43306312 -1.0273731 -0.3495003 -0.70530474 0.779221 0.2849288 -0.44059184 -0.04032405 -0.18927231 0.26859888 -0.7536496 0.5719261 -0.3904747 -0.09253246 -0.48482096 -0.07265697 0.4181446 0.60740197 0.5165955 0.56046695 -0.20427613 0.32600337 -0.6392936 -0.46727368 -0.24947871 -0.3695119 0.16596158 0.04920422 -0.1317846 0.08684471 0.14609228 -0.2357703 -0.3126032 -0.25921848 -0.14854597 0.08617875 -0.67391133 -0.3205898 -0.23804124 0.16504699 -0.8739805 -0.42500868 0.3879791 0.39470834 -0.46218896 0.49799383 0.58529574 -0.37049115 0.04551869 -0.58460945 0.8729716 -0.11828674 -0.03384377 -0.614727 -0.50002885 -0.47000942 0.13838851 -0.43111593 -0.3340795 -0.6005576 0.8821295 -0.54010284 -0.39869273 -0.14140116 0.17892753 -0.14427887 0.4375186 0.24020535 0.1722138 0.02928122 -0.55265546 0.6869997 0.18627799
amp-x-bible 0.42477727 0.1970559 0.02319585 0.09187279 0.28672898 0.2137703 -0.15401132 0.03744616 0.29040453 -0.2813851 0.44913942 -0.6385502 -0.3938726 0.30933216 0.20895469 -0.28582352 -0.10115185 -0.31354278 0.28222135 -0.43475765 -0.68441725 -0.16598913 -0.96427464 0.43972525 -0.21649796 -0.438479 -0.20580773 0.07933755 0.6458429 0.04300839 -0.27931908 -0.04098569 0.06571548 -0.10944714 -0.5365754 -0.29512087 -0.15238272 0.24905802 0.100751 -0.16205364 -0.5641436 -0.19795567 0.24659136 -0.94039565 0.1381026 -0.34328967 -0.61722094 -0.4691335 -0.26314 0.03755447 0.23675632 -0.2644889 -0.6924982 0.02251661 0.5401576 0.37404898 -0.18169399 0.09417951 -0.33762017 -0.5185409 -0.06813022 0.7793644 0.50709695 -0.10553586 -0.22398354 -0.22384642 -0.37912697 -0.8011305 0.03702476 0.29547194 -0.39774737 -0.30172214 -0.10495713 0.11488351 0.28479385 -0.38911086 0.11023457 0.06003847 -0.6088077 0.20281039 -0.35426542 0.64949137 -0.6474517 -0.20746826 0.06161498 0.2223814 0.29679632 -0.10147332 0.01033236 0.33456734 -0.3609551 -0.03999447 -0.954705 -0.30437952 -0.15304534 -0.16545303 0.33104053 -0.6237018 0.11575153 0.45781517
amr-x-bible -0.16649532 0.13599874 -0.14110811 -0.17297511 -0.3898604 -0.11960381 -0.07810778 -0.6552854 0.30945495 -0.35305995 0.6454431 0.3034056 0.06094986 0.3135353 0.44304743 0.05635367 0.14872192 0.43685758 -0.46722746 0.29941508 -0.18300408 0.22666872 0.48915964 -0.20952189 0.12241473 -0.00579097 -0.32464907 -0.56860656 -0.50394666 0.25989616 0.04041551 0.20563191 0.189103 -0.00398268 0.20755275 0.48035377 -0.12637074 0.11680217 0.24106875 -0.02989959 -0.20620954 -0.16579032 -0.09735804 0.43542826 -0.3959817 -0.30631515 -0.36482945 0.33093402 0.49698138 -0.49637267 -0.62923783 -0.21235386 0.2087444 0.16801472 -0.37711224 -0.30213317 -0.7909697 0.67226464 -0.7285138 0.02910725 0.11013354 -0.47174925 0.24925548 0.24779259 0.40546933 -0.5267073 0.03663576 -0.41694114 -0.3347165 0.04245602 -0.44831997 -0.35317048 0.37842593 0.01272677 0.14187816 -0.30225855 -0.50548434 0.12472787 -0.20398828 -0.6099058 -0.29423946 0.5210263 -0.220468 -0.07382094 0.63920045 0.21140389 -0.07028383 -0.27589792 0.08977148 0.16372359 -0.23316316 0.21243128 -0.66693443 0.9016491 0.04147589 0.6570504 -0.09994741 -0.5895282 -0.24971154 0.4400885
amu-x-bible 0.46790352 0.07461175 -0.23594642 -0.81483245 -0.1678227 0.7555421 -0.71127015 0.20288095 -0.6154593 0.03368386 0.15187539 -0.08455284 0.17472582 -0.24600406 0.03930123 0.09823064 -0.34151158 1.061669 -0.02905235 0.22569962 -0.28222945 -0.54987645 0.47804928 0.29072168 -0.43541622 0.00738054 -0.43290955 0.28930697 0.39763048 0.70003456 -0.05813947 -0.08775203 -0.12416217 0.01971628 -0.38075656 0.08554287 0.11552685 -1.3609058 -0.2172598 -0.0173141 0.38217595 -0.40843558 0.24511199 -0.39645898 -0.13812397 0.83817726 -0.3539937 -0.43441352 -0.39487576 -0.06656282 0.17285478 0.3945834 -0.07210691 0.07870211 0.03501188 0.10045034 -0.00834719 -0.7429637 0.78662425 0.2638347 -0.24403746 0.03796006 0.31404698 0.1821172 -0.06015879 0.07568865 -0.43128267 0.02995887 0.06257106 0.5626219 0.09905818 -0.04596503 -0.02422318 -0.55761737 0.34035686 -0.20969112 0.49362943 -0.12881164 0.22699226 0.16644686 0.43887633 -0.05247009 0.04855427 0.20424058 0.17795831 0.47616246 0.15371567 -0.06350814 0.19852434 0.68209076 -0.27513322 -0.09144174 0.3219534 -0.3068896 -0.67347664 0.34496975 0.3082681 0.3269577 -0.14218359 0.4232096
ann-x-bible 1.5350097e-01 -1.5439805e-01 2.4485239e-01 2.1194932e-01 -1.7898662e-01 -3.4940702e-01 -6.9829151e-02 5.7734184e-02 -6.6618824e-01 5.0517100e-01 -1.4318112e-01 3.6886555e-01 -6.6521245e-01 4.2171618e-01 -4.1832098e-01 4.3565549e-02 7.0468485e-02 7.2983271e-01 -2.8777099e-01 1.5609881e-02 -4.2046048e-02 2.3020436e-01 -3.5077631e-01 2.0155035e-01 -2.2312589e-01 3.5200551e-02 4.1330734e-01 6.1224997e-01 -5.4474097e-01 -4.0562642e-01 -8.6224842e-01 9.8774768e-02 5.1882163e-02 1.2367279e-01 4.7002520e-02 -3.9814639e-01 -1.7431331e-01 -6.9004446e-01 -3.0958533e-02 7.9798001e-01 -4.5532611e-01 -5.9217328e-01 1.5535894e-01 -7.8100875e-02 -1.2259036e-01 2.5863189e-01 4.0019822e-01 6.3468760e-04 1.6048843e-01 -7.7850334e-02 -6.6314125e-01 5.6496549e-02 -5.5635536e-01 -4.1261056e-01 -8.0184579e-01 3.1064937e-01 2.4376909e-01 2.2165477e-01 2.1773663e-01 -5.5751228e-01 -1.9190165e-03 -3.4946322e-01 6.9495916e-02 1.9549300e-01 2.4938834e-01 -9.1889542e-01 -3.5281935e-01 4.9193594e-01 6.3759312e-02 2.3874153e-01 7.2253263e-01 3.5851199e-02 4.8285931e-02 2.3868473e-01 -5.4460353e-01 -8.4326863e-02 2.5335690e-01 -5.2456278e-01 -1.7119308e-01 -5.8683515e-01 -6.5981723e-02 -4.5847371e-01 -2.5382331e-01 2.4528116e-02 2.7497202e-01 -4.5437723e-01 4.0661630e-01 2.1077056e-01 4.2579934e-01 -1.6768771e-01 4.8708808e-01 3.3473849e-01 7.2522432e-01 2.4587443e-01 -4.9484798e-01 -3.6760589e-01 -2.0459905e-01 9.2665013e-03 5.6931549e-01 4.7609106e-01
anv-x-bible 3.0553856e-01 -3.3028227e-01 -4.1325486e-01 -5.3517157e-01 -1.5527372e-01 -1.7228526e-01 -6.0059804e-01 3.1374779e-01 3.4748781e-01 5.6938994e-01 -2.5019005e-01 2.3258020e-01 -1.3506308e-01 9.1928756e-01 3.6345905e-01 -3.3693704e-01 -5.6735571e-02 3.5040174e-02 -1.7851533e-01 -6.4670838e-02 9.6801475e-02 2.8378433e-01 9.5141754e-02 2.2454594e-01 6.1636156e-01 7.7817321e-02 3.9162245e-02 2.1126831e-01 4.5348802e-01 -3.4993798e-01 1.8126915e-04 -7.2307301e-01 -5.4613280e-01 1.4875723e-01 2.1945427e-01 3.0054681e-03 1.6205022e-01 4.3563148e-01 -2.1754047e-02 4.6976987e-01 4.2598099e-01 3.0065030e-01 -6.7741150e-01 -4.4137287e-01 -2.7100447e-01 3.0539903e-01 -2.2199790e-01 9.7022474e-01 4.3495947e-01 -2.6629883e-01 7.7351928e-01 -5.2245613e-03 -4.3822169e-01 -1.7671274e-01 -6.5528423e-02 -5.3140759e-01 -3.8002785e-02 3.9963084e-01 -2.4020536e-02 1.1872109e-01 4.6134610e-02 -4.7022319e-01 3.7978029e-01 1.8712166e-01 -1.6672675e-01 -2.3715344e-01 1.1829107e-01 -5.1304996e-01 -1.6985661e-01 2.5351241e-01 5.6376517e-01 -3.0450442e-01 -2.8991342e-01 3.7100416e-01 -3.1193122e-01 9.4861162e-01 4.9901432e-01 -2.6439351e-01 9.7574961e-01 -2.8355595e-01 7.3887420e-01 8.0802131e-01 -2.6586339e-01 -1.5047435e-01 2.0307599e-01 8.8216074e-02 -9.4826072e-02 7.0839143e-01 3.3243876e-02 2.4389210e-01 3.2122892e-01 -4.8098645e-01 -2.1099059e-01 3.4326568e-01 -1.8419962e-02 -1.0754255e-01 -3.6084387e-02 1.3418901e-01 -1.3638815e-01 -5.3567914e-03
aoj-x-bible-filifita 0.61287564 -0.5004551 -0.10847007 0.10471027 0.22433652 -0.24883933 0.07353032 -0.11030791 -0.03259214 -0.01527543 0.02113108 0.47839573 0.2800149 -0.30745772 -0.0769888 -0.12976135 0.04349581 0.8085921 -0.77649975 -0.04807161 -1.0387323 -0.49900982 0.4592033 0.0390112 0.27582645 0.31978983 -0.5464258 -0.15564187 0.14912145 0.11293785 0.557437 -0.10655222 0.49765605 -0.08144463 -0.5080738 0.04844161 0.520264 -0.25610587 -0.06748647 0.7030166 0.5361992 0.61132765 0.10814076 0.56167275 0.22690241 -0.20301141 0.74678946 0.3295992 -0.18379682 0.21414879 0.06764878 -0.55405754 -0.08504038 -0.2732689 -0.7263027 -0.2504403 0.04535256 0.49436978 -0.06833705 0.09959009 -0.21279389 0.10816767 -0.29321715 0.16229936 -0.27700555 -0.61530036 -0.88997 -0.29980975 0.5984291 -0.35230964 -0.5331425 0.42406288 0.56127936 -0.17251402 -0.3303035 -0.08184923 -0.5038781 0.38630924 0.09831209 -0.06580145 -0.36203614 0.40843743 -0.684224 -0.25517532 0.07790525 -0.40500185 0.34037015 -0.01711967 -0.1533204 0.23283118 0.3612306 -0.5899959 0.04938297 0.04435009 -0.33180553 -0.13286802 -1.0466338 -0.5945625 0.15050973 -0.30497414
aoj-x-bible-mufian 0.68609095 -0.15875685 -0.28594276 0.578931 0.3032218 -0.50968385 0.32732853 -0.18763687 -0.16067876 0.12987526 -0.10273407 0.37320018 0.23547672 0.25421277 0.00997018 0.05509579 -0.22843288 0.69847 -0.6171097 -0.32349518 -0.56062764 -0.72227657 0.6052446 0.20975661 -0.04134456 -0.0343538 -0.35699427 0.15586339 0.28209054 0.5221499 0.4731218 0.01792539 0.5621374 0.24931392 -0.24872564 0.00763329 0.820528 -0.09564123 -0.10748444 0.994277 0.31124067 0.55130243 0.14328703 0.4980287 -0.0279727 -0.18696691 0.6905331 0.54217386 -0.30916587 -0.12346262 0.22728918 -0.4570132 0.49363768 -0.20929325 -0.39107677 -0.3330596 0.21409589 0.07591032 0.13026486 -0.20005138 -0.59962696 0.14194654 -0.68519944 0.46447387 -0.20124218 -0.4422357 -0.6237411 -0.11688608 0.4507794 -0.08297997 -0.5008822 0.368846 0.37502956 -0.18614921 -0.73173827 0.54227656 -0.5014479 0.30739823 -0.06618816 0.05013832 -0.28340903 0.3378104 -0.69219655 -0.14439796 0.16602279 -0.3126761 0.38650557 -0.2194598 0.027023 0.44028315 0.28370622 -0.4740198 -0.2682181 -0.11546089 0.15112579 -0.07071158 -0.62247294 -0.3823991 0.23352821 0.08099236
aom-x-bible 0.03057185 -0.3765612 -0.38136065 0.4266956 0.2866431 -0.5628061 0.33993086 0.28019133 -0.38230985 0.5111629 0.19972123 -0.12183915 -0.24777147 -0.8270392 -0.1468773 -0.22931808 0.3178611 1.3727556 -0.65438503 0.36399102 0.11805923 0.26757565 -0.21140257 0.23094027 -0.13729247 0.4840542 0.03925128 0.3465996 -0.24896656 -0.13425453 -0.07865425 -0.6007158 -0.33850527 0.03141483 -0.22804873 0.31154668 0.18524735 0.5081054 -0.29932415 0.05429655 0.5345171 -0.4382167 -0.01597407 -0.49184448 -0.43830162 -0.35272646 0.37070173 -0.0081523 -0.22973907 0.47485086 -0.4227984 0.4075124 0.27910784 0.5127916 0.13673669 -0.27474234 -0.3705403 0.29878816 -0.17752537 0.91750336 -0.10609511 -0.31687537 -0.03401908 -0.31648186 0.16188821 -0.11227105 0.0039787 -1.0038254 -0.4679275 -0.7523374 0.46821555 -0.9773092 -0.05484011 1.2592661 -0.2770274 0.01487447 -0.49790388 -0.2332541 -0.06499727 -0.17248365 0.0272862 0.01932963 0.17478037 0.5736458 0.5821086 -0.31681544 -0.42012668 -0.47939947 0.596459 -0.4505717 -0.5374197 -0.51159704 0.05312151 -0.624183 -0.04715082 -0.26555613 0.03190847 -0.43399057 0.44395748 0.09545313
aon-x-bible 0.16516133 -0.04314408 -0.09464393 0.5866241 -0.40052703 0.04722215 -0.01160042 -0.43207842 -0.68402016 0.24000281 0.07711612 0.16963506 -0.43909535 -0.26764792 -0.09544747 -0.15077975 0.30366936 0.6119106 -0.32400423 0.43775293 0.02544943 -0.01193378 -0.23188862 -0.06976959 0.75466585 -0.23585556 -0.30235103 0.03514184 -0.07483206 -0.16539013 0.12353317 0.02741615 -0.0592075 0.44972277 -0.5235763 -0.04652315 0.53847647 -0.13486171 -0.25414926 -0.10486725 -0.1017802 0.43983772 -0.12656616 0.784678 0.6398201 -0.2239678 0.17773438 -0.05249294 0.14057876 0.27798134 0.10910983 -0.13461545 0.27679932 -0.5947047 -0.6486747 -1.2237979 0.15983811 0.4932362 -0.29027945 0.04519272 -0.7207058 -0.04941137 0.20860268 0.44934705 -0.141024 -0.60242164 -0.48288974 -0.5689192 0.55220544 -0.04482717 0.13274394 -0.31333336 0.2453828 -0.0536433 -0.50788754 -0.17334557 -1.0060796 0.12454819 0.5121803 0.6538019 -0.60727644 0.06616559 -0.51664793 0.6000742 0.4612925 -0.04183334 0.55222905 0.93343556 0.59229696 -0.06351831 -0.1674956 -0.28297836 -0.6294899 0.07502361 -0.2885936 -0.30043033 -0.47866625 -0.34591633 0.12522496 0.10605051
aoz-x-bible -0.01836697 -0.29598796 0.0971942 -0.26520967 -0.66584563 -0.1283516 0.03456678 -0.6839313 0.43185967 -0.23497443 -0.12120008 0.56767195 0.19344112 -0.6067929 -0.29168147 -0.3591079 -0.6388946 0.21118423 0.02947971 0.00217843 -0.12958601 0.2757875 -0.09357139 0.40526134 0.05225959 -0.6275417 0.2936784 0.99774337 0.11090869 -0.6754222 -0.18239032 0.17984721 -0.6894715 -0.34980342 -0.10836633 0.13477953 0.03577802 -0.66745424 -0.3728344 -0.01815301 0.3356221 -0.26740372 0.34915757 0.29272002 0.30604753 -0.03276932 -0.3533062 -0.38967922 -0.38957906 0.07035776 0.19569647 0.05335767 -0.7719939 -0.18318602 0.10069532 0.19504416 -0.4473812 0.18276691 0.11874759 0.01304041 -1.068093 -0.37075263 0.22021833 0.7006171 0.39510736 -0.00191527 -0.5917656 0.08592792 0.35843113 0.3699405 -0.2208146 -0.622259 0.235579 -0.6400577 -0.44557288 0.4677877 -0.31856343 0.06174959 -0.39594278 -0.4132613 0.21564955 0.72596467 -0.27057925 -0.20699447 0.47748414 0.07493687 0.5984253 -0.03165898 0.6911451 0.15290476 0.6472484 0.54476404 0.26694024 0.5647842 -0.16033164 0.32488 0.13631058 0.81754833 0.7607954 0.08292095
apb-x-bible 0.02434881 0.16253433 -0.45262384 0.17489244 -0.12040275 0.17145087 0.5817569 0.01195565 -0.35456955 0.10188308 -0.1185552 -0.42094138 0.27022454 0.4916873 0.22243698 0.19163342 0.04094304 0.2862055 -0.0620003 -0.44610572 -0.4224081 0.20891248 -0.4954772 0.5342365 -0.05183012 -0.32342547 0.12526332 0.9127261 0.1470877 -0.22037464 0.15584558 -0.11815514 -0.04895752 -0.747697 -0.39082327 -0.9646944 0.03126539 -0.41888788 -0.8590249 -0.39476216 -0.25826094 0.08665481 0.11974198 -0.3618145 -0.02990736 0.7119764 -0.56393915 0.12421164 0.10056527 -0.08250649 -0.09176952 0.938747 -0.42203212 -0.07165154 -0.17139362 0.37155703 -0.1321579 -0.22067426 -0.23619589 -0.34694982 -0.2860403 -0.7362958 0.02707362 -0.5071688 0.71368617 0.23536336 -0.12301406 -0.2797647 0.14163104 0.08024409 0.03544093 0.06410106 -0.16568087 0.03577523 0.5652136 0.84066343 0.6256271 -0.23788278 -0.03463406 -0.87990105 -0.08899366 0.14126195 0.05483306 0.07796529 -0.29064035 -0.37742433 -0.26670194 0.10098168 0.15473114 0.32521725 -0.16176884 0.09901276 0.24579115 -0.04210416 -0.37998465 -0.20514736 0.842182 -0.0703873 0.10837378 0.01902126
ape-x-bible 0.44406372 0.41142583 -0.11966533 0.26039043 -0.56168747 0.25514045 -0.33891213 -0.5174105 -0.5946272 0.14188954 -0.0914438 0.16553092 -0.6845644 0.0109244 0.06074065 0.03832114 -0.21167487 0.4022892 -0.20516138 0.42650196 -0.0315131 -0.17233947 -0.32764894 0.02830567 0.39518416 -0.26316002 0.42716503 0.42524981 0.2831474 -0.13499223 -0.03696589 0.10867826 0.64189535 0.4028289 -1.31984 -0.00737648 0.2804783 -0.23753607 0.0227393 0.12264441 0.49059802 0.06889452 -0.22516693 0.3716779 0.00220489 -0.44484863 0.238032 0.61926246 0.2192003 -0.11540256 0.03132551 0.18980233 0.50057924 -0.37160638 -0.7858885 -1.0374346 0.2699265 0.15242542 -0.07152072 0.17559755 -0.48672372 -0.6084546 -0.22729146 0.32398087 0.00943664 -0.7331824 -0.49710307 -0.3994259 0.45322227 -0.01951398 0.08387023 -1.0402303 0.09356322 0.47909617 -0.04875863 0.3539447 -0.53647566 0.7407744 0.04553518 0.45746005 -0.19884147 0.5821108 -0.7686836 0.02501546 0.37494257 0.6773502 0.4112381 0.5932215 0.01880885 0.20725337 -0.15202655 -0.35723403 -0.70981497 -0.48517698 -0.24278997 -0.3577947 -0.05110605 -0.26543376 -0.26754156 -0.19550276
apn-x-bible -0.6931157 0.9886677 -0.21952178 -0.27791047 0.4108497 -0.5185933 0.04012593 0.89839447 0.2736378 0.07820835 1.0559939 0.5313455 -0.46776682 -0.05068271 0.6068281 -0.03827016 -0.31776282 0.39293602 -0.31450313 0.06424163 -0.05930353 0.28656065 -0.57395995 0.41409308 0.07843562 0.28946018 -0.14456825 -0.14900358 -0.3515688 -0.65343857 0.13249387 0.601261 0.45914483 -0.2186091 -0.11550862 -0.02856941 0.5503545 0.16287072 0.5186651 -0.1232813 -0.22346328 -0.12559278 -0.2662631 0.24424955 -0.23623192 0.5235369 0.6642729 0.43798158 0.29109585 0.14937517 0.5785408 -0.20024821 -0.10154745 -0.20793305 -0.8348791 0.24791291 -0.12951994 -0.04538488 0.02863134 -0.13328856 0.12396431 0.11433116 -0.5056396 -0.3784448 1.2145653 -0.08771683 -0.7761429 0.56909335 -0.24202731 0.01410551 0.18731037 0.46158162 -0.40004212 -0.3421133 -0.447168 -0.62254536 0.02552427 0.03886333 -0.7149703 -0.44628608 0.07597812 0.4408307 -0.36840433 -0.7789235 0.26924 0.21413112 -0.54804474 0.15915617 0.3769626 0.2572006 0.17972627 -0.1824185 -0.2523498 0.15294531 0.50327635 -0.5083214 -0.02365538 -0.14842112 -0.5246292 -0.2574186
apr-x-bible 1.83944359e-01 -6.35895133e-02 4.19275582e-01 -6.04385316e-01 5.99426806e-01 2.14658692e-01 7.56729484e-01 1.18731365e-01 -1.41634747e-01 -2.87949264e-01 -6.70975208e-01 2.64297068e-01 -2.44269416e-01 2.48202518e-01 -9.25533101e-02 6.67409241e-01 -3.79285246e-01 -3.71345550e-01 1.95476219e-01 -1.95724264e-01 -4.24942464e-01 1.03579886e-01 -1.10283829e-01 -3.02299224e-02 -3.05878311e-01 4.89198595e-01 3.15620720e-01 1.36570618e-01 4.93806928e-01 3.75747353e-01 -1.81334928e-01 -1.02598220e-01 -3.01872283e-01 -6.37234449e-01 1.95399988e-02 -1.37631983e-01 -2.65302867e-01 -5.73202312e-01 3.28742564e-01 3.05439800e-01 -5.45899987e-01 1.92096636e-01 -4.50292647e-01 -7.67558068e-02 -3.83657068e-01 8.52279007e-01 -7.97506422e-02 1.29134029e-01 1.95484623e-01 -1.12145329e-02 -6.15713596e-01 4.20197487e-01 -1.20085977e-01 3.22595000e-01 3.20826143e-01 -6.86259508e-01 -5.43600738e-01 -3.19088362e-02 9.67521593e-02 -1.12757944e-02 -1.96435358e-02 5.07060170e-01 -4.63923842e-01 -6.35250092e-01 8.46349150e-02 3.14109027e-01 2.14789152e-01 2.89061785e-01 4.06477809e-01 8.56567845e-02 -4.01261717e-01 1.81410328e-01 -6.10457473e-02 3.53457630e-01 -3.02856147e-01 -1.94988593e-01 -2.18978032e-01 6.29667401e-01 -2.20734952e-03 -5.18562436e-01 4.45475638e-01 9.98500288e-02 4.85566407e-01 -2.47289956e-01 -4.47345190e-02 3.40728462e-01 5.76487660e-01 4.88837898e-01 -9.03815329e-02 6.94009542e-01 8.56061429e-02 -4.94936539e-04 2.42101699e-01 -5.67020059e-01 5.20687044e-01 -2.46558085e-01 5.19440413e-01 -9.28443894e-02 1.39027745e-01 2.16165811e-01
apt-x-bible 0.05014171 -0.11938769 0.41162947 0.09330865 -0.8910772 -0.52824986 0.37725246 0.7081702 0.29980186 -0.2485628 -0.21264376 -0.2877217 -0.26076874 0.20526908 -0.69310415 -0.35543698 -0.1464747 -0.35775563 0.18862653 -0.27342343 0.4092129 0.03490124 -0.35213578 -0.59061444 -0.41138956 0.0245133 0.51785797 1.083312 -0.48014095 -0.14135979 0.9745938 -0.393384 -0.00629707 0.7282281 -0.8578138 -0.44678593 -0.05450786 -0.28091106 0.13413054 -0.50414413 0.04335652 -0.10340165 0.1519821 -0.7913099 0.19140787 -0.30306986 0.2965034 -0.3370189 -0.333967 -0.56951857 -0.12575684 -0.16068128 -0.43781683 -0.38613427 0.2871901 -0.639903 0.11587474 0.5840594 -0.31871012 -0.17294113 0.29498366 -0.58879334 0.38798368 0.58684343 -0.25208378 0.83903676 -0.22227825 -0.26010072 -0.0708074 -0.02417056 -0.02379822 -0.26369125 0.19213304 -0.13481736 0.9793642 0.55028635 -0.1889465 -0.00421307 0.36078778 0.61758375 -0.6305649 -0.16721845 0.37948424 -0.31061274 -0.19419342 -0.69837946 -0.62412435 -0.40300104 -0.16698545 -0.10138337 -0.0017096 -0.48167977 -0.4444965 0.02027156 -0.4809965 0.6652833 -0.00845838 0.8356199 0.03771584 -0.41509166
apu-x-bible -0.24765985 0.63581777 -0.28365275 0.14238824 -0.24920121 -0.17091586 -0.7330365 0.34607935 -0.62207556 -0.5781049 0.5502865 -0.16045505 -0.6410778 -0.12644583 -0.12100165 -0.40934196 0.01951527 1.211302 -0.36146614 0.839057 0.07675015 -0.08702141 0.52027684 0.17909421 0.39812976 0.02843692 -0.1385761 0.19966576 0.27781543 -0.01290874 -0.26261067 0.5560385 0.35572422 0.9899334 -0.16470951 0.47795576 0.45133406 -0.5908374 0.00794214 0.08785117 1.1220398 -0.00974283 -0.12266976 -0.34557164 -0.27859864 0.32647115 -0.23705925 -0.38503757 -0.44324988 0.3421021 0.22061586 0.5891606 -0.07683472 -0.07065559 0.11610987 0.798446 0.13457038 0.25194865 0.6205921 0.42821983 0.13690636 -0.11997109 -0.01347534 0.27783266 0.80865705 -0.30581003 -0.9537926 -0.05627017 0.3844487 0.04889074 0.09349739 -0.06013047 0.9747921 0.3407002 0.24283922 0.3497018 -0.47050744 -0.10011973 -0.01753557 -0.19364153 0.07016773 0.05167683 -0.7060645 -0.3047055 0.16988671 0.2723876 0.34009838 0.3703919 -0.5738872 0.2231 -0.15993002 -0.2652953 0.7861125 -0.27482137 -0.10803408 0.2638105 0.24890013 0.41273892 -0.49041706 0.58826125
apw-x-bible -0.46386304 -0.63628405 0.05394069 -0.6943271 0.82419115 -0.50767714 -0.9121881 0.03768988 0.38728046 -0.08565928 0.35905755 -0.04259134 -0.29599974 -0.22928064 0.02576967 -0.1971246 -0.11999897 -0.38555336 0.59027416 0.6229526 0.9282989 0.24787915 0.6116855 -0.10760671 -0.10309233 0.46312508 0.1524541 -0.6574825 -0.15994549 -0.39289883 -0.3231788 -0.16837326 -0.09133004 -0.6108511 0.06419495 0.16342488 0.860772 -0.59012645 -0.4672156 -0.54224014 -0.4550925 0.2111805 0.20371589 0.14427936 0.2388349 1.0088586 0.06320447 -0.15681325 0.14013748 0.09596006 -0.44172382 0.08542661 0.06423303 0.03262314 0.41935733 -0.77269274 0.57803816 -0.34143075 -0.04545172 -0.67093784 0.6208698 -0.01957783 0.30469093 0.39618078 0.10419767 -0.16567214 -0.3353639 -0.19334586 -0.6515231 0.2613033 -0.26014027 -0.5088968 0.79110473 -0.32419187 0.06270162 -0.16550606 -0.15801442 0.45723462 0.36765248 0.09025091 0.2025336 0.5073962 0.28128663 0.85509473 0.2171877 -0.37525895 0.24358495 -0.03686592 0.38701373 -0.4038339 -0.21185939 0.33734643 0.2579803 0.02810121 -0.4662446 -0.11502215 0.23948064 0.4758836 -0.08653782 0.13641566
